להסתמך 2.6969120162599802 -1.645002979205018 -3.013545920555646 -0.20139136894810564 -1.7423304626579288 1.7613504393555888 2.002956506573232 0.8579801969351408 -0.6907718488344563 2.4825490322656383 1.9545863171852997 0.05420702792394936 0.3773746505487893 1.1236014423165384 0.24829465059968345 2.70580735823623 -2.2651284044442885 1.0108961722952121 -3.9037545875706017 -0.05852383361387161 1.7930790441879347 -0.0006048898100242844 -1.4577415942211203 -1.2565007363607479 -3.451267846459556 -2.5704295388117875 0.20236705488881132 2.864674765840843 -0.09557583119493754 1.727259211241577 4.5384246514448074 0.07304066164450768 1.5513889645663912 1.1338929058711011 -0.39623036218098506 0.3793452776782967 0.8709273220128211 0.9240201903374227 1.681641949415216 0.9731894827619141 0.12439013921715146 3.3478638234521485 -0.6135387997341285 1.1218613940334112 0.8221059871026603 -0.45372494102118377 0.907420637078841 2.092165822652463 0.15510456668984088 1.2003140626869515 -0.30629662185977174 -1.0045008702700966 -0.9213884709354527 -2.015692533612219 -0.36101768797035455 0.0190237832148252 -0.435252253562326 -1.7709086463326917 0.5436336876504381 0.7304646203379344 0.5078015997816053 -0.5293260647904547 0.18707873813759685 -0.8382061938374386 0.6005280640180223 -0.2516787123415714 2.2676995359711167 1.4038125061080977 -1.0875786677308419 -0.13139178488968745 0.33742769651547266 0.34937054678429486 1.40483657756994 1.9927264495890107 0.4603887254720162
לתחזק 5.002386934603022 2.629710898235313 -2.125820370056255 -0.3424846832625672 -1.199141263407832 1.2469174096590594 -1.0935883816961653 -3.2246457698838364 -4.567588424753156 2.82558415942287 3.9074748901685563 -1.7210402961338251 1.519790244543185 1.2745260458526297 -2.655339512992294 0.5354992056950652 0.6476728280503122 -4.07893199383606 -0.7895667419775587 4.194219765971082 -2.957997271609718 -0.2858784158491403 -1.746360675548679 1.0713288473454075 0.3466974527442407 -1.3670307710622596 -1.4508746224572562 1.6986330938291285 1.5806764953732697 -0.008819789015643719 0.24295811995927408 0.41393203399072614 -1.784772724146391 0.8260827555919248 0.8631809554182092 -1.017489381392455 -0.568645493074516 2.333446241381103 0.12269307881231223 -1.5659755643384228 -0.7768270361890967 -1.4157126775405258 2.1835082457104624 -2.1376354802382695 -0.47716274648931056 -2.6328832313445862 -0.5717278488351377 2.8317130718819574 -1.9164513122096545 -0.8899312620383543 -2.393451823575356 1.0636618059581038 0.545153306643803 1.2927901796685333 0.22481524194864427 -0.6344141139266143 0.6288246995346048 0.16745114744148087 3.375267151146523 -0.8183903472462305 -0.3150694795330547 -0.954174535516145 0.7619252647267968 -0.8075557632723472 0.8820761761166049 -0.07551027250324588 -1.9545035776889093 -0.9232105408020036 -0.778618808626177 1.118364677382884 1.6946921967613193 2.905435722911321 0.2551691531557515 -0.6263507665535203 -0.5051242673442108
לתקשר 3.9804420694249263 -0.11373820309661352 -2.005159184841513 -4.740567186492947 2.775205126060607 -4.220569773663358 1.933248432813972 3.392752668724998 -0.44672994531186316 5.819189637653163 1.826939292223881 2.719555600630552 -3.438249963377747 0.7630914850400102 1.1188942797038923 0.7373839548487491 0.6031168181448695 -3.3836695646829513 2.008144509120319 1.8512110610596575 0.6403300521966375 1.982357820971657 0.7135638394128306 -0.8774947910531176 -1.4560685667104554 -0.24035972712228726 -2.430257676975514 -0.7994307939924817 1.9375797395685537 -1.6009906872214767 -0.2061874906678487 1.3129115323270355 0.6102250433531764 -0.5215705638143561 0.7158276363857121 2.7780967431795 2.2677919286528203 -0.19936144202084144 -3.5834283310286854 -2.114195104074556 0.806616060721585 -3.906172728330506 3.6498321929658957 0.2699744315775802 -0.17249229415729794 1.1602118585255945 0.42541221004198115 -1.849069410366983 2.392143404971493 0.5763991752982145 -0.590024684360129 -0.34091856500539025 0.060108635183213 0.5038540952686728 -0.08042730999242573 0.7480417918655347 1.62150581990606 0.4990054400471869 -1.150765173044207 0.5183172354410803 0.5202033060322954 0.5326582890756586 -1.3714766834349874 2.4278903664382767 -0.27246417247076926 -0.7492326300907866 1.2762629948348128 1.5717699905893974 -1.079612062625037 -1.3298176608738217 2.207112719486188 0.6415002699637594 -0.7663534462140977 0.6209053658934193 -1.1431437652121779
לתקלט -1.7043373568866542 0.35082624597314066 1.314201391519229 -0.4994135032465244 7.287632916510705 -4.9852341945768535 -3.3659964000967855 0.752283951509976 -1.881570803417434 -0.22938574999956254 0.25297559794271096 -0.1987697735639145 0.9941242855473345 1.0323307559334418 1.379588658882862 0.10065624180569042 -0.43665326376658176 -0.7384297944175285 1.8446470226439067 -0.6719607929036081 -0.8236495465905862 -1.7444080924493277 2.360223535717428 0.6316339262748528 -0.7083907950025012 -0.10159507396901703 -2.5733838350363167 1.0414638529801252 -0.08216269595585432 3.781063086532013 0.6807002843715543 0.243096272632791 -2.4543846958584536 -1.6388202923597643 0.07242522945071583 -0.03780229855336906 0.845670198950332 1.7572972906167263 -0.06589205492758841 -0.19976164586097186 0.33865918802411854 0.6126198817191353 -1.2692111224582057 1.3246602528501985 1.0430113516544548 2.650588196085782 -0.7910475483224544 -0.23130583558069284 0.15331542356558672 -0.9675017845194368 -3.2493630787594854 -0.001580215671349221 1.616518758377683 -1.6813424805144508 -1.445405788226387 2.6750013046691534 -0.04990271114491666 0.4108079679477341 0.14888172568379404 -0.0978914368396047 -2.5139378752217034 -0.7269293606296207 -0.5358553187632944 -0.8073670289340472 2.000512173806552 -2.5622108964632497 -1.2947233882313645 -1.2591471944444568 -1.58752785364888 -0.7737216030083186 -1.9881967205466102 -0.30670348682417625 -0.6966895648478255 0.7962057327438837 1.841340154722701
לזכור 0.06984533746269252 -3.337756045435112 -2.535534490815617 -0.511895268937 -0.9107418254999308 0.21580270638967763 2.2171035771122316 -1.9309888090720047 -1.082632640956491 1.9343905080015316 0.25984615566409724 0.35898960884332853 -0.3559428748276185 0.853350336355658 2.216745387747625 0.4156054543290771 -0.42308410656483997 -0.22922308509523157 -1.6980298799539593 0.7346136305945667 0.44853231547192945 0.017547419369619684 -0.324224291201635 1.2884858699148578 2.888541342408815 -2.3018378634154817 -0.051508966291278296 -3.812336214748464 -0.9692462567317787 -0.4673791758476409 0.5749030936879066 -1.9865405364197544 0.3779076119088275 -1.1235561829784215 -0.49903102164781094 0.6158508445014509 -0.7447249029360984 0.9082810200578075 0.912497388631548 -0.5207573662336126 1.2160348127745857 -0.3835856242419202 0.4987815639652505 0.6206489772069426 1.8172190989252202 -0.19976722671246797 -2.1811144964567903 -0.15995027640269294 0.3868330419718287 0.5881846706839386 -0.1567739835702513 0.1955967184691478 -0.9689009529476753 0.3329036044082334 1.7853192031529275 2.0252401504039574 -1.7942772340447364 -1.6022599862297433 2.6600642843947484 0.8168184899912343 -0.4049330329305616 -0.6944678872264246 0.6101899868456829 0.716498286651368 -1.4810822449324994 1.0228081933660367 0.5479932358626836 0.5398248222117049 -1.295891470248375 -0.15558636866461154 -2.1782502368563277 1.8282894797861668 -0.4327619209376806 -0.14426095893080199 -1.7596693514582649
מרפק -7.069182689769877 1.8403901062839365 12.122761666373087 -6.300567969825613 -5.125351550534269 1.8567352810869286 11.26270787232596 0.29430571664842164 0.22462407918471788 -3.862625485424404 -1.495635978074308 0.998197921669005 1.8320256107829442 -5.8064874368195545 1.4400427121246238 3.7165619574384627 -3.5960333486319 1.9286052933149012 2.195085795566934 3.3843013010238256 0.7966420033679507 -0.37479422003637786 3.9512343187732646 -2.498065243374942 0.31503597733291616 0.3100692873500766 -1.1211337021979282 -0.28560711941219696 -0.7971445368461025 -1.4716865674826203 1.5262226909250518 0.5039777186828942 -3.926357745858313 0.059891983510225504 1.8072085475193318 -0.4277745403858315 0.9978929839162431 2.4174738786176926 -0.021877550758937638 -0.5682267232016486 0.3157520094158975 -0.5874056663530259 -1.7493746275378683 1.4865151101238532 0.6758562556497577 -0.6913218204027306 1.1317364124955138 -0.43772230365449055 0.7341278750939201 -0.85168410758266 -1.4557615616852824 -0.44847607742239226 -1.509288356367343 -0.013394629351191015 0.07340433929632549 0.5793876167620935 -0.7500595908498849 1.1620284345947127 0.08109482144335652 -0.7828960383676203 -0.2532284239848466 -0.17440192352672512 0.526090862231323 0.44183958858825495 0.39163063567697504 -0.2608667655984095 0.33095686042123423 1.2971189199002613 -0.6068706744985285 0.09184142978473835 -0.3271249968698763 0.3901305351804058 0.6857205415834288 0.2657830695355325 0.7889478269497562
להיבחן 2.6862769528792305 -2.774625745503612 -1.8798946574682887 -0.039278901515648494 3.3140029617496647 -4.243376629926993 0.3974483257471603 1.1728619326207723 2.702853994705644 -3.1575184273274632 -1.9696716732581823 -3.3202087840973293 0.520470999647914 -4.114889257072406 1.1324366163331636 1.5806056542895273 -1.196854965642463 2.0341439558768224 -0.37883561713225955 -0.8820416760629554 1.8362436645422862 -0.8186781500843339 -2.3350172716498143 -3.7792059424679785 -4.3610413463368936 2.124871552373518 2.928416037451399 -0.15644366957634495 0.48361643789185876 -2.7004227949155855 -3.2225987109366607 -1.4474153455259917 -1.5415162832515132 -2.8259227714292243 -1.8714255660159125 1.0811067533990915 5.586735356596919 -1.2179386866961455 -1.2392616184442 -1.2488499351994888 -2.6179170297025047 0.1794312597966661 -1.0186763366652933 -1.4422338416787315 2.101697598193317 0.2547955225394983 -1.921624923842236 0.9599679769679221 -0.5113379268170405 -0.8587982800019353 0.4142482900553848 -1.9319735409458776 2.2278217982262114 -1.9656490289613797 0.2422113541023413 0.9167412205952885 -1.5322000187698057 0.9827550833300193 3.2691109205244464 0.24841462550032506 0.1879580493848769 0.0891614629957711 2.218352480003577 0.9505339612582288 -2.4493646597199676 2.020616817450367 -0.30509057684079705 -0.14311732722245346 0.21876217415915694 -0.7951021155128765 0.6724637128861248 -0.7549538834653227 1.0200693531310396 0.732408212379877 0.6236831974854645
להתארך 2.7089653120283663 -3.661358271045749 4.591011316604574 -0.5054332639403201 -2.073881248510459 -0.9410592855871786 -1.8257995392301651 -4.748498827963064 0.34966293129150977 -0.2083027522245773 -0.17843829397816607 -4.287232814410764 -3.798915307588238 -2.7798620920803687 -4.240909706758223 -0.9291915288534998 -1.0253203595527176 0.5324609437478793 1.2685798801787112 -2.749591797327206 0.7357726608325789 0.11249821740068368 -0.056030111254740354 -1.0332931329334023 -0.5921266831006077 1.9524624987480406 -0.5668683640282456 -0.8907297955514605 -0.0001877929932816555 -1.470899949613307 -0.28431688024143653 3.5919373341638527 0.5206592146293813 0.27038720479487444 -1.8266891702697898 -0.0048934413939672565 1.271802170142996 -0.09711822473290087 1.4413286645720147 0.16681909412186074 1.0729811687889335 -0.48260021049324087 0.602678419092408 -1.2537835864695521 -2.1333942064047386 0.8673899635028405 0.04252731386247804 -0.7075279245132101 1.3682103985297438 -1.8051570280254514 0.7316401098586953 0.8351563665827239 -0.3735743623396775 -0.8009869017855143 1.0467805657423985 -0.613652909318543 0.02825843748944195 -0.9960388794604361 -0.42078595024265075 -0.8829730453206202 0.533916903885615 0.3002878054929541 -0.7535805095603111 -1.3033871041404124 0.8282727869511214 0.03870224663778558 0.00861196128257806 -1.761539728033969 -1.4557516919165643 -1.5917910105706743 0.4012132369653781 1.2501286518451464 -0.8199663634865297 0.9690754096139332 0.49476583540327207
להזכיר -0.017159403938998164 -4.88697952180488 -1.9920683459715935 1.2834551965698768 0.940892775895185 2.3656389161884888 0.8390869787022562 -3.6459798317665184 -0.12695982441424855 2.411952679008365 -3.113641129983368 0.7668319451088235 -1.384985777764923 0.7072313115992888 1.817861413124805 1.095475391965548 0.7461300984720877 2.0248641795932576 -1.1190439677142106 2.3449978308357675 -1.0336188966740034 -0.23922677799425943 0.7012599383556664 0.8174575583403028 2.7250396183591183 1.361937282598065 0.3962305991425524 -0.9289300388309939 0.2560484073968006 -0.5278740279437475 -1.1182387195650205 -1.823792335358447 -1.466485221402157 -1.8243830065601083 -0.574181771216777 1.1096057276414346 -1.2070264212135484 0.7201332046521616 1.3228992871936451 -0.5818095607725032 -1.0859579916753355 -0.6769546167607257 -0.6212866907735898 -0.30866981905592644 -0.27053149880573746 -2.3337792224094374 1.1356232316512427 -0.677854142878556 -0.19539243108513896 0.38530821858212827 1.6777995413464841 0.018865517956928583 -2.4915949054392605 -0.4994108463176681 1.0487625356030252 2.6123632750691907 1.433487901226833 -1.3773568157802614 0.7853838872302644 0.4312596690313488 0.9631148098941673 -0.946328433862267 1.2022676631198275 -0.06760221688544571 0.6420498808704598 -0.15759878478936967 0.02198164113312176 0.4983566783984107 0.022707584459321938 -0.47692263824057485 0.06411260240107015 -0.059310257008147335 -0.6166364123096314 -0.5188520829713653 -0.7342121968812014
לארוך -0.5954463974365879 -1.0351379783628423 2.7120714533058536 0.7349485738480787 -0.03802794176447054 -1.6301346311882126 -3.0865386175771627 -4.353109211919387 -0.7408857176735473 1.2143640061676042 0.37050077973462475 -4.726186784055964 -2.569663209560986 -1.2295464642290104 -3.860958393547992 0.2107000458305895 -2.435185210880958 0.24656697525437551 -2.4323883397731945 -3.6632818440565487 -1.6981098743841248 -1.5436786235236462 -2.3366747487899326 0.2813992612715777 -2.4246481882257975 -0.24180258866649393 -2.7840569767189445 -0.6774284061858956 -0.17873365162766894 -3.003229881675009 0.6027392925352516 1.2762965427113828 0.031051274291256852 -1.4232779506013729 -1.989882081201053 -1.8778635314739167 -0.9869689779802581 -2.7027275045893737 0.4238441973066734 1.6177813624331754 -1.5424286997572743 -0.23565536014509875 -0.27833289565759434 0.6047751564402368 -1.7392116713700856 -0.10912083522957393 2.4399326699590502 -1.620262927424652 -1.1521941652160212 0.6829596123437788 -0.5990518261637461 2.3594802388162406 0.441205639689481 1.0323020311669227 -2.6677409229607316 -0.6199625105203487 0.22757635136384094 -1.5484095289967763 -0.29950463224700036 0.35234154220154085 0.8587070728104453 -1.397844565585572 1.875796941074749 -1.0219084091370205 -0.6720082591623449 0.8157365841854214 -2.966748910566822 1.8671590376835843 -2.7462632245593825 0.054148031312799015 -0.7159744764617705 0.4833869053042972 1.726009788256296 1.2203534367893598 -0.4297937109183126
לשכן 4.206411272702783 2.8962755908110562 -0.1328603447126893 2.5848844372549027 1.7253750777066608 3.7154786044167953 -3.058167454916999 0.23801423987081982 1.0038291931250014 1.413720081087103 1.433566981059034 0.8270863429975112 9.795777835485197 -2.3361081529795005 0.49711106287859236 -0.6796325808575674 2.3274269920631436 -3.3771406748879085 3.2062779520304927 2.3396758072696766 0.40845513859720445 3.2834935075063196 0.08214065883367445 -0.5090769555543551 1.432735116174052 -3.177942085242919 1.5004081951279906 -1.18903991181573 0.9548202060235073 -2.1579864642166346 -0.19985214860290487 1.7907853370275202 -2.421821435250709 -0.10586045755220565 -2.557952685046346 0.05450301602929949 0.04166424995876636 -2.6110891054935887 0.5826871965515862 0.366670175140367 -3.1875650846296884 -0.8070941449865767 -2.5326259272082075 1.4063708590514494 0.7046463913536373 -1.6033247410106017 -1.055159373456621 -0.4650007848672675 1.0264591506403324 0.47510013870095297 -2.9938134734622346 2.2924242562735424 -1.1390099586780882 -0.4622902137359789 -0.43197047762924157 0.27253765776394917 -0.43046964089254625 -2.375257130043315 0.43077274563294915 -1.7344026530891747 2.051387423444922 1.6432455166389524 -0.22772604597148435 -3.1172979155278067 0.7801542869538305 0.5311722469524169 2.485366771119707 -0.14773957084173192 -0.059732886677422915 0.23622756858642616 0.04462032128366914 -0.6691312116445479 -1.202193465217795 -0.05340189932194011 1.7230190517467807
תזמורת -6.200324042861043 5.026123961194865 0.017276603284097587 0.6857560439114878 11.318807203951694 -4.643239751775474 0.06472485202676545 -3.2956667414309138 -0.9031332479689135 -5.824822193042496 -2.869250052508965 2.018024672995568 2.233626615340596 1.0831707788323404 -1.8943557812567857 2.1405914449675896 -3.3343996348692055 1.0195767333861996 -2.2204489291314835 5.6748934856090525 -1.6871649314977022 2.9912457323299457 -0.07653266823806781 -2.5701750456359664 1.8783960141449985 -0.8863766686924257 2.950028189428856 -1.1195008148418086 2.4592819812685143 -3.1951125984396946 -0.502999635150398 2.227118732525735 5.864554632880248 5.3739590034354645 -2.1862017071610174 2.4646140636194542 2.545957583143514 2.0139094237843778 1.3768079920491165 1.2657097572292888 1.7213511094816878 1.0576292229027728 0.2278912723124952 1.0926984878339911 -3.6347069810309978 0.4202968460544135 0.6863901906909492 0.904946727614502 -1.9873412443394678 1.3241449048443181 -0.8707755864134501 -1.042139822132948 1.4503371416240636 0.9453897404268208 1.364789160994905 1.729969200085797 2.15221810451102 -1.7621539250307516 0.5655812811428856 -0.8080538593747443 -0.8755029690377658 0.7797542573267392 -0.42642753293007235 0.429093341539012 -1.519787408690371 -0.19189946819853948 -0.005017556497799006 -0.11160725047077785 -0.08962312746764631 -0.26858451108772274 0.36301093238046417 0.3121697476446543 0.3243444012765474 -0.22911742689922301 0.807360295664557
לספר -3.0832193922333295 -2.849213372410327 0.5741934931022301 0.694299574481067 0.6046862351016007 1.0279806064430321 -2.3564628797839684 0.5573428114515188 -1.7983206809519139 0.038714239631408943 -3.6325988991109592 -1.6944599027624385 -1.927032845727528 -0.9096302853357643 4.127595248000334 0.35015837431131375 0.8241503570992403 -0.1562962012651182 0.7247040017575491 -1.0167439626276964 1.8345812202503138 0.6545492901362819 -2.95215645104811 1.6761008962728283 -1.9491679683286085 -0.8212868864230145 1.9639941044551856 0.39380776046016386 -0.14349144546672568 -0.03636775602582223 -1.460830915842619 0.6508987769702169 -0.20560542428420123 -1.2945148185510886 -0.41158971362841074 1.0902160242616756 -1.6810570683971582 0.8137508683265401 1.2056504784614648 -3.90315886366854 -0.4221834721429672 0.44519025757134356 -0.9125330096009782 0.9667307480742989 -1.7226851757991513 0.656730711026461 4.17404061129339 1.0683376750324471 -0.07263399474959432 -2.468724482929527 1.2255961364226275 0.6296098591056095 1.281397843776982 -1.123073415717522 3.1750531828714563 -1.5811779164592838 1.2548720955847112 0.3040790437467163 1.3432881450216654 0.204763512700033 0.3119442487351 -2.433376941959288 1.8215738575039422 -1.9057128658920328 0.06864729003082072 -1.986388832952757 0.18744878439784138 2.7100035868375487 3.075770337062394 -2.744246875539575 -0.050885021463374924 0.8446714218822102 -1.6798457959446502 -0.03645369113442515 0.5445065623360417
אבחנות -5.245909076534173 -2.3006212521823657 -4.894842973545032 -1.653172398265749 -2.415730788937832 -1.2022506334701728 2.0655767883398424 0.7022752176885767 5.022235504786889 -4.188623710621985 -1.4799346808800484 -0.9476613932535 2.8375336716162542 -3.5059495154007503 -0.7155096410747722 0.3819870122378275 0.22447001802807406 -2.601077851884803 0.18537707653357346 1.3013268745088156 2.071534519179769 -0.8491340530750398 -3.131391712984255 1.3964638246054943 0.4867348191060141 -0.19811916075721858 -1.6234242537153243 1.7485632814853882 2.670162261605028 -0.9324314453719943 0.6448688063949493 -3.1891723068842364 0.17354948634196823 0.29860825197953433 2.9612704397547134 2.8757638362941385 -1.823515923614368 -3.308372337737213 -2.292210144003526 -1.7970950312889633 0.2046077543225627 2.7810122921764204 1.0078238082580508 1.3521964829040654 -1.4136079225591611 4.189602869621733 -0.3882226183968457 2.2034684777752913 0.8473531924506567 2.786383536958486 0.13974582500722127 1.1781052492686126 -0.16181948733546506 -1.095755755425085 -0.14236516684058093 1.6139198239386738 -1.418482314992976 -0.6331788766223472 -1.154198766321572 -1.6766038647431478 -0.0629919873134415 -0.34142715035983884 0.8128512733908823 -0.23129544625077283 1.2398448960055295 -1.7032993587798118 0.2157556210051202 -0.4422457761112526 1.3078196937463613 -1.1202927447477096 0.5825853347345837 1.023393533234036 1.7682081958439537 0.18056644253180307 -0.10921787508206407
להבחין 0.6405141681170425 -4.535515632924273 -2.097187797617902 -4.842359645498854 -0.678240206428023 -0.2500266683547892 0.33980532866131363 -2.0191419519182188 5.502072488339273 1.0822273758351293 0.00514048945871615 2.806720802132764 2.2834474080942866 2.3677896008480457 -0.9261164507619054 -2.210891891304253 -1.8586816043990928 0.36452329108280634 1.8007333512212116 2.226401566117276 0.7240135989277939 -0.36609207279385475 1.015175037423931 2.6230618840611832 -1.9379610613502336 -0.5620924162884757 -1.9650425999878003 -3.8306718396258983 -2.638556119807947 -1.5121345694419013 0.7392370072987283 0.010944113366237405 1.6728106066369113 -0.66451542880372 3.1158836838598454 -1.9345107679660425 -1.659842009680914 1.5522234517640776 -1.4941322393731307 -0.7785349912206841 0.40084023736926366 0.9281913925846303 0.6524580251046415 -2.283860428994759 0.037942785308015835 -1.5626052873420209 1.264830347098844 -3.1781882586425643 -0.9081803582320148 0.48156345277041723 0.2430924964360774 0.14553778921149227 4.8822545889234155 -0.08437021628856116 -0.30606053824114415 -0.13932602869230065 1.4948507488496632 1.2211729289853241 1.2462201198968943 -0.09014983586382254 -0.07405856438664443 2.3413157671914875 0.16499892082182613 -0.7288098871943407 1.5011019783081998 0.4993214181715618 2.282465765126371 0.8721146748649092 -0.7831816289848054 0.8222336265840863 -0.6569140051511233 0.7582463294178807 0.4226237649822856 0.8851758978620238 -0.2596758853041312
להקליט 0.9997608294539945 -2.3259005442252207 0.24624928253396633 -2.290158176620589 11.232509808513662 -4.0701424263552015 -2.3888819009344453 2.681712098354137 -3.5960656397995066 -1.9836617191240062 -0.5097151600707006 -0.8114944836400526 0.5845997388897228 -0.3070494749904486 -1.0989483354197098 1.533244031042024 0.2246946208237063 1.2859857470027785 1.7298020678132664 0.41377921903193565 1.7049544689595026 1.509624045668994 0.08025401842696973 -1.0346960167947608 -0.6810645842591597 -0.6752068183450723 -1.4918562249747302 0.12240945156534008 -2.42763150890131 1.2180990910369056 0.226004553782335 -0.5176002610724022 -0.4423517697407722 -1.4117408349897467 0.4318621406225276 -3.028678859281406 -0.6465053946832788 -0.5994921185378587 -0.5003285805190576 -0.4676544300955874 -2.186859152360152 0.1291308333891407 0.27578501827170754 -2.069422792452246 -1.2758304170962662 -1.08670463163312 -0.6654428095776938 0.7580104108450165 -2.3257082547128944 0.8507212684947101 0.873958405814488 -1.941796879338726 -1.589155284718593 -2.3199152479654224 0.3227325035096254 -0.4782040872941695 -0.2857173211434448 -0.3134985765933534 -1.6727273839970245 0.10860368722022039 -0.09118847724514367 0.1039347872800359 -0.4646382377049238 0.11450500129376878 2.051219295936211 -0.7906989630599555 0.5136723098660494 0.7071124417557205 -1.9168487253891813 1.5377782317371373 -2.1932912463418273 -1.2125996248967315 -0.12415236504625037 0.637673535990617 -1.1079543915458543
להתחשבן 1.9800511386634796 -3.788260264411172 -2.203117180011844 2.0096239243685288 -1.7242036831277994 -1.1802773682722747 2.5159259172479564 -1.6174523134661478 0.0032756872379164793 1.2616575401423535 0.7782720587478315 -0.48306039336685364 -0.23542259690722184 2.377924902107408 1.4107017757116453 -1.8289185801169288 -0.5400522723127011 4.122444224116057 -0.09512786626756381 1.7131604695747702 -0.051692588627124704 -0.16070796545903354 1.1714818966245202 0.9969652418245134 -1.0231550949731736 -1.4792132212223947 0.264921319667134 0.08206042150371286 -0.46451108371064553 -0.007050517606936352 -0.5162679567033464 -1.2885817304648668 0.3480258641518655 1.3667345429240554 0.5652656493889581 -2.6458657197742714 0.343955757814626 -1.4773361164265273 -2.4338471611451173 0.21796087140897405 0.08053342171523806 -1.5456185159370457 -0.4043140716640089 2.413238376127574 -0.6456330138393768 1.2185795444451974 1.5696331684696994 -0.049434336534744 -0.0900853918994852 -0.5270252585243808 -0.9300590446290515 -0.7736923501466834 -1.541285448872472 -0.34924868317151847 -1.000833408909197 -0.7232205358232038 0.7279314746181551 0.01871652535184823 0.11703710200850011 -0.211216882415355 0.7371148135711518 -0.0271091699616625 -0.5491036833054279 -0.04178291606840528 -0.8250243092336199 -0.6552487325183425 -0.6396774394121879 -0.5941294712249757 -0.4966257541190282 0.39184471542829924 0.07533997730007133 -0.6955560754448091 -1.102171995765216 -1.1793201017107453 -0.6573618028789178
לשכון 3.144435139832507 1.1279910046899193 3.0553864203117382 2.609830245284094 1.1280517242577328 -0.15492535350266706 -1.4570542060419254 -1.795859581277181 4.2578952631026565 3.017901453541285 3.1408342736097397 -0.2572721501228628 4.078646622459874 -1.7254488030455786 1.0638990435499411 -1.1525807505993493 -1.5536352906603814 -0.5366579766967234 1.912587157840507 -2.174566344459233 0.7212324650566957 -2.426918938097855 -1.8792355518043358 0.5079631219442481 -2.800823576443366 -1.6467302560558708 3.1864244677049 1.0959226876555788 3.1426546392634793 -0.6729843874417071 -1.2873315059972301 1.7752228737635147 0.2514012053686872 0.009204042188185659 -0.7772070766019161 2.010000994945721 -1.3786214850091567 1.6506527028429236 -0.5034931520721561 -1.5842162899704144 1.1782101972838082 0.016783902454496093 0.7698070208166872 -0.4464488558546672 -0.6893451685389104 0.5365088880253749 -2.3125675490915945 -0.09396508727402884 -0.219496214515827 -0.2712859097954852 -1.862827629535573 0.6203269976598563 -0.5382379312626392 -1.650024367595497 0.4781581156589311 1.3525151753330853 1.0136724026759933 -2.7837872607460383 -1.728285310788827 1.1592924537828588 2.5828922511049965 -0.2800212740838428 0.26104159917944925 -0.9069925846165794 0.014093448677432008 2.1092521979747856 1.21095981673496 0.7302976930752183 -0.8232153901712018 0.6984443984222057 -0.858120641291231 -0.18068730746879968 -0.6069418326304217 -0.10515975622775452 0.4809114821691871
לתארך -0.5797505554995743 -5.931707398106807 -0.11860379312292217 -2.7137951851727498 0.18431577366015583 5.016922160931813 -4.13804468192232 -4.61858757666178 -0.23761267690904425 0.9106416357889741 -4.67535551473782 0.22457250227769976 -0.5196429501733014 -3.6513200285093657 -4.911262501507387 0.770285088861662 -2.5376829600688184 -4.188963549803526 1.6722056785666024 -1.5795831638036364 -2.3383678932711125 -3.7524453265377296 0.29025673423703907 2.67041898035312 -1.737302002085183 -0.8413735601864826 -4.201008580676277 1.4205592589751643 -0.45068184583240317 -1.3873279397669565 0.6779682513288868 1.9349445655218755 2.0616401006685345 2.1544495537168817 -1.638339678211106 2.8477116824741806 1.3241353907787001 3.527983695348275 1.7103517216392254 3.427661467690314 0.8617290527476753 -1.6080876237147235 -0.4711686600903598 2.010858024867529 -0.9654746261280374 0.6186222540333995 0.14731457515699597 0.33782929527138905 0.9199752217755574 -0.3962340507738778 0.45625482062817463 1.0700496450259023 1.0862530806238038 -1.8648791503275843 1.8623228956958964 1.0189647660967527 -0.9524946638187552 2.7872483392435603 -0.28737329544881546 0.7883705576952023 -0.8087146374934433 -0.6199833656802831 -0.6348293895925249 -0.25434908248444565 0.6297698860909712 -1.8752887751635696 0.9995969902089636 -0.7428451698204087 0.6506363043323173 2.9576056314126347 0.2258371627122893 -0.9134152845422253 -1.4439114195278149 0.059666699393216165 -1.1543754857348798
להתפקד 2.8281958504174756 0.1621298454573799 0.29323035491482585 1.8385036504584853 -0.14707781582465926 -2.1560159029216566 -1.6954719654068764 1.8180110116116053 1.659954443057026 0.6808976284458695 2.6907134653565667 -1.5273002593487428 -1.9582417635844134 -0.8354269203199045 1.043271444463755 4.335303876028567 0.43036334149554395 2.091297593009637 -2.0262118877774777 1.9272370023190102 -1.0282134757638224 2.0060286693581237 1.713997356000722 0.7648237900215351 2.678346354362179 2.016929597687243 -0.8769004539493467 1.8771931546960385 0.09660549115359944 1.1700101615920118 0.07892748643727877 1.2581478059957323 -0.9691216679820894 0.5674190138647788 0.4477258354510648 0.2112273171668522 1.2710823873298014 -0.006007618541233688 1.4902611538588428 -0.4929768305762773 -2.0895415784209903 -0.33000868945886425 1.1419885372839709 -0.9601947558670998 0.6286193066259402 0.8951928424026527 -0.8282856825122153 -0.34873442826339035 -0.8071669327647466 0.40914103605904373 1.446881885989478 -2.5516930826967776 0.9203995934681255 1.2112310942387676 0.26323125445092016 -1.1114923915667871 -0.4625199310505889 -1.4789321530172734 -0.6090289239042632 -0.0973561270019633 0.5130149350136493 -0.33392600374308984 -0.07941203486198713 -0.5616141860488795 -1.618225377295694 -1.3482052072816693 1.074083500956562 -1.878186079024278 0.34460225376740994 0.2602172682126357 0.5692445287786801 -0.029931680049029095 -0.22414668399516466 0.5210797763764586 -0.5733051343693475
לתפקד 4.834873358417527 0.6620507030517843 1.2205906726285025 -2.086985334229719 -0.5369778193263821 -5.433513560754448 -1.492726160041841 0.5159367244827459 4.058296691283648 0.42319321796248593 4.756278527953122 0.10568601607704182 -0.48692673340945924 -0.8353813712261556 -1.1517824719611227 7.036874147698071 0.09104832343426718 0.6249895901166637 -2.851610779197618 1.684529418312483 -3.7260234350651014 -0.7877172959690085 1.2744890064114114 2.5553072398554746 1.4617078857387642 -0.036851060449153594 -2.555742327815664 1.6717528871111753 1.918079367105271 0.8458430209258918 -0.6564849275838212 1.8415713338050674 0.12569984973976805 -0.615195449625228 1.0914445294061557 0.6992930130243217 -0.4138755519905968 1.7037525365861166 -0.4332012172090058 -0.5622824772337148 -1.5841480231858305 0.702414498562062 0.9318327687887319 -2.188817514103489 2.811824386669735 -1.4274088916573935 -0.7112375283426825 2.207809054239665 0.22522509066246824 -0.07235110624229309 2.844461007509505 -0.5997671835407584 -0.032802608604970265 1.3679606242206575 -1.9253514892078745 -1.885814932676829 0.3867336408538256 -0.5938994080285683 0.48583523104745313 -0.44416439224355386 0.24141261429708838 -0.5047190914460988 -0.03501487582299616 -0.11063575917046427 -0.3984111461656277 -2.2363881552292657 0.2580520449451153 0.733515086491161 -0.6977619280171186 -2.483946383274555 -1.3182969145149197 -2.7064792799291313 0.43996952064928735 0.696771891183536 1.2163379876085054
לתזכר -1.9105694792877812 -2.7694857808878193 0.25635256376800614 2.731858446890844 -0.40250886736694014 3.54486586440899 -0.5412552886769659 -0.8171281410245556 -1.5386965851372152 -0.8255265656322394 -0.2776844439478783 -3.916720905525735 -2.6140908047880935 3.1382538165679383 1.8234418243534196 1.420120738395986 -2.2629911898414172 0.7661505231135198 -1.7680627554472321 0.803358825459622 -0.38942556926574134 2.119879223517113 0.8605854360572873 0.9648390989128859 -0.07837033467912664 -0.2852993876600589 -0.32061675913896864 1.345775383795408 1.603554305452122 -1.2707572844094854 -0.6064455150874194 -0.659077515629095 -0.5761279273437127 -0.46403944272673897 -0.6932091022130232 0.23316106074956322 -0.19936704624520063 0.0623656257841448 0.7090061766441336 -0.3283841922122624 -0.07044371915461327 -0.9736283548576512 2.3772037046209626 -0.9692190559798447 0.7877234682642242 -1.4730448282688091 -1.3915164814421113 -0.3600440650655552 2.476013165060866 -1.7604720642722917 -1.3134600467487252 -1.124698547884793 0.9019139018341388 0.10664474547988316 0.10359827964393918 0.5827717668099952 -0.44190511558255025 0.40670384529967274 -1.1101823169791658 -1.2701929023899072 -0.29654772940843827 0.02090241044503094 -0.8408260413081816 -0.6531362871440931 -0.3428568659696735 -0.21314130186883673 -0.4990896406736474 -1.4313585503881245 -1.9585162982699886 1.4038420913838736 0.526614553418036 -1.770749603876907 1.7345672320360577 -1.409400721433 1.430428794660708
להתרגל 3.19149453993875 -2.457297889589457 1.6780741151038354 0.7985163117723747 -0.45114807181562594 -1.827137768374141 2.701374514087168 -0.6781245792300745 -3.4753922734224343 1.6182720442640548 3.5523965825825643 -1.3604279245312623 -1.9950418118826823 -2.6779915633986913 1.1323964708522523 -1.85210445700148 1.5563622178915315 -0.7275838958503852 0.3991256561078688 0.9830009375695895 -1.3012098152545617 2.8907793286685943 -2.574662147712142 -2.5071565706292525 2.6426704324543877 -0.29077671214815654 0.05955051597749557 -1.3692275670969956 -1.7809020876467823 -0.5075331758395396 -2.9114212005897047 0.4190618566923342 2.309248699480788 -0.3450707599307558 -2.9375719714625466 -1.9700531709039393 -0.5818112307371939 0.8246175163511615 0.9938225834752787 0.20127837343147437 0.28472053306166006 1.0249200973921841 1.0196052271719414 -1.0965835562265733 0.4005865217529856 2.1364609121296785 0.28844728419172466 -1.9360265030384536 1.2394628926113618 0.4678418370971155 -1.9463160663065715 -0.5490536247790632 -0.9754322089384121 -4.365284699174872 -0.5383737889268736 -0.4016858099970398 -0.9925594191583265 1.301352515358333 -0.9287808841722703 -1.0680032110195692 -1.6155325870277686 -2.977330608908347 1.0467024974737733 0.8445923413305017 -0.4549474500083693 -2.5173512590114377 1.379948907221431 0.39581795152687677 0.9071259577264038 0.9552100425835057 0.11939450970291807 0.304178484647548 2.520132999062908 -0.37098193315496936 1.584192522698362
תגמולים -4.1787296688512825 2.8638100785486 -7.295695583140531 7.725877073231031 -5.341196189817771 -2.2816896454438926 4.011131401232845 -0.9907695414870795 0.7937038847282181 -5.340516812540331 -0.39157695959448025 -0.9845099864659514 0.6330409321900035 -2.0116003190470626 -1.897869629381375 -0.5209950496822207 -1.6109615914440913 -3.436274383272453 0.5225163047393478 -2.057438615364121 -2.0303401042669926 1.164589933304994 3.0974690178400004 1.924662358497541 1.4859441843977248 -0.9768881859087226 -0.5663357474030423 1.548156170479021 -3.3244401049752756 2.838207136883824 0.1913994381186279 1.248814332838581 0.6489442932881443 0.6324310339932634 -0.2320727943817847 0.8221845622539712 -0.6212763095560928 0.4260456803806226 -1.443660041503393 -1.1478188358942907 -0.8272330028531142 -3.5183584065140012 -1.0678993092735887 -0.9230673080742794 -2.276178177809646 -2.783741615326083 -1.3350928255779728 0.6834762520356115 -1.97017165815881 -0.611727045477622 0.012233762205248902 1.082995257866746 -1.033316719630791 -1.1436559031134996 1.7485839478266394 -1.906972695708549 0.28815724267174053 -1.6111190946113039 -1.4485243643128225 -0.7099513658261273 -0.9812222309581172 0.3998205381818712 0.8533131621084779 0.8889117449609589 -1.9744031919568006 -1.106570493006605 1.636902551104856 0.8553822128140406 0.4264036150954556 1.0175396016669114 -0.7270741130195604 -1.8664245171912506 2.373853979542525 0.4627441389410005 -1.7363982498283448
לצלחת -4.553887574664908 -0.29091836891435185 4.827673500109297 -1.7733476542438067 -4.030198756300425 0.18325383007877738 -0.5129903861897537 -0.28361319499858606 -0.4385610418532129 0.8642242041391041 -0.3429789038829361 3.2811707486123733 -1.357162521566145 3.949956110426816 -1.3516898830989392 -0.5413899448748327 -0.8483981501989367 -2.188086585944054 -1.6229950190061455 -3.079300418373515 -2.298010642544104 2.6995264219164876 2.3179328596756967 -1.1342247305715587 -1.3028624306435976 1.1862878088866342 1.002926921108197 2.437350689493934 2.8112169204427264 -0.2351853062178637 -0.09412516871265611 -0.7494962103109479 3.52211575547418 -1.540621756585004 0.5796674984688596 -1.9953275460762683 -0.6250910793974874 -2.193052684242016 2.2738239169617995 -0.9802115693752781 -2.7739686435162465 -1.1199801041838877 0.250524583041706 0.0919546282215602 0.6978275026522335 1.1183886659506124 -0.444638342592181 -0.35787341511183546 -0.24731750651047105 1.9354204812980378 -0.0757879524492235 -2.4506244197842575 -0.09764288544645221 -0.14457642445495966 0.9431299569580925 -0.6025814198632101 1.2764380745829411 -1.8857696518240854 2.4615470751332675 -0.24138211429313228 0.17265709041914676 -0.11177700113467526 0.46326025087019423 -1.5895953278804669 0.1402448463158889 -0.29909126189778673 -0.09149137704508084 0.6115427423549307 -0.33416427515933006 0.9397310602335218 -0.07720942459338503 1.8071457729580758 -0.9232595708567621 1.6037855073288017 -0.11098683627343177
לסמר -3.4989421386259263 0.5230950011548094 7.2396009081743635 -2.9041975385913745 -0.663339021199331 -0.7073420152496234 -3.1002009240123245 3.085808348712425 1.6337980465549182 1.9072876255180402 -0.40501111721635613 -0.21481392720839182 0.3852404956778707 2.105527703669304 -1.8912777399193095 -3.1135389782587954 1.8307127902069418 -1.970665138714011 -2.526859870639334 0.8456045697320846 -0.19659688794708916 -1.8305361826535247 0.8749679604366182 1.302945908702601 -1.5162534903837348 0.42072045570927746 -0.27283838407794386 -1.803763662896611 -1.175791666448202 0.9083711834457932 1.909129521704384 -1.271166757811434 -0.7961245732568605 -1.359197913384915 -1.5858383481226817 0.11105300213616387 0.1266798888860257 -1.176525010898784 -0.7201780966977677 0.9110082674162705 -2.207183592076978 0.12371549733642513 -0.1164207042113932 0.24797238360132762 -0.9357502509883091 -0.3840100480220229 -1.280267120937616 0.4962539439755699 0.9006637095057073 1.1609223707838139 1.7996415298622304 1.703493137951982 0.6988542924399833 -1.372471348278328 0.10955068577655311 -0.16712438571254087 1.1776775834282798 0.12997544124439078 -0.7899544226802984 -0.9539822470167006 0.32282161161115364 0.5680912864100075 -1.0384274710384414 0.8121824123629694 -1.0307871933798984 0.4969300353403474 -0.482982223092612 0.8743721654022774 2.558366082370368 -0.03573052764174966 -0.47142763995989184 -1.1478395446145744 1.30553952360179 -0.03439125489862034 -0.3593155180091163
מספר -3.8474068546179185 1.5427677494935959 -1.042920547502593 -0.16898638018836099 0.36178286508444457 -0.9996600592129017 -1.6918152202929413 -2.5272830426715216 0.11639048112586774 0.9635470473805896 -0.4987612436075206 -0.19496252560135685 1.1159941447844224 -0.8520210218703731 -0.5386015861126714 -0.4154353222351668 2.8246517327214913 -0.4055180457823568 -1.3409979263259553 -2.910623333107897 0.5701893126363998 1.38504268263777 -0.6994685957458145 -0.4319085556530684 -0.687688050915511 -1.4464677525643692 0.15973338691885644 -4.056237480464059 -0.7682593681299927 -0.31172737242208703 -1.011164347812967 0.014941890814620898 -4.326852501303989 1.1155074883063183 0.7181731342580238 2.6274552560018405 0.9627169927065184 -0.7379824013629932 -0.19061702695825639 -1.9970056325033392 1.6187325099478123 2.5275069412439506 -1.180012787229175 0.5907440665843868 0.21095089716628268 -1.0998167717160041 1.5599874359420773 -1.2178266522610348 1.1568728952865743 0.08819408961671428 0.6983213432058373 -1.2587829478893302 -0.24322678346325066 1.3903237518211526 -0.22750525682578943 -0.23201521286754093 -0.15755429574436536 -0.850271533114473 -0.16568698532809276 0.5287103322319201 -2.6370917254672244 -0.6522404705558593 -1.8030087391157696 0.5952193354104557 -0.866798219107379 -0.7805067089720201 -0.37473454531894645 -0.35359237318343256 -0.24840778404378452 2.4090379439151524 0.702719699009589 -0.17916424205421858 1.41186443989436 1.0124471413431704 0.6531357460967245
לסמוך 2.4070223572231306 -1.4292258417395554 -2.1923581251779725 1.0292954298623103 -0.4890891479754388 2.0978724883798505 3.1747088766251226 2.683274439835769 -0.9683818569692347 3.756755501891685 0.8557982808123611 0.3642853344821943 1.1338116322540648 3.3550080609056656 0.45308670970132425 2.7067414363509306 -2.3922584571273386 0.7611827722306073 -3.264849143552826 2.6178964333395056 3.192105574656956 -0.6278431382818721 -0.8479690499338115 -3.390281170518953 -3.2448264300328584 -2.288927812741094 0.32240305667977953 0.8308782951044128 1.0739297375854662 0.9852996508991234 5.202069285836947 -3.824232145229116 0.7518635018043083 0.9107345119110817 -0.4275921616462661 0.33561757624540756 -0.44474487160697396 1.6350057194006726 3.142358461371715 -0.40944220953707355 -0.43839710910511515 1.051471039074396 0.022282713539227412 0.5151321394039152 -0.15534724803724395 0.3516264990280006 0.3178034769607891 1.726095127378552 0.9390768024593591 -2.47160132414153 1.5438977022872502 0.07377590885039467 1.1813238384713403 -1.730085213775411 1.6901021290939193 -0.0685142873045789 0.2797902414006438 0.23635665563778446 0.43034115374941934 -1.9081484784740612 -0.006484405784200632 2.087609291980885 -0.06580959957373832 1.4222769517679452 -0.5144840405799461 -0.1257731779072723 0.7004675103313999 -0.7477482791227352 -1.560998961514595 -0.43858698399571916 -2.10539585303412 -0.1568780269978249 0.703382023495013 2.013474180455011 -0.1635931041723424
להעתיק 0.6513411901025369 -1.841916840136027 -1.9226003838477412 -1.4556827493516202 1.2439316813003591 5.0372688540733614 -0.7397108779365205 1.8184222130836085 -4.321912196365342 1.7761711942061427 5.933157272212213 -0.21303458736718878 2.042185649343083 -3.695680862758709 0.4107514357784214 1.5105973878699817 -0.9086317558570968 1.5625217114511476 0.23163151702651916 0.9699084565303426 0.4511938030378185 3.5281122434610963 -2.830258987460411 0.5472992299157904 -0.23951139828812532 1.7673884237132158 1.947219082620922 2.2157235806678335 -4.5089919069182 -1.9976315827404338 2.1974351610215703 -0.39555605475783845 0.0272815845195557 0.38958743609114105 0.6812402594207916 -0.5061443353997759 -0.29389001264580955 0.966648685436902 -0.1272704002899305 1.7944556313803555 0.6338829461462142 1.3700309421563848 -1.6095203796892037 -3.2340948251296764 -0.687482115524403 0.15143269324250463 -0.24210415112910585 -0.7812964029511722 -2.3199760268286806 -0.759972064645364 2.5145422929872474 0.9440838765593164 -3.327904865308655 1.8524287389025635 1.795743440113644 2.7875743049635093 0.06808131323823173 -0.5331545134915133 -1.8909879674204015 2.175315367964704 -1.7700292463094778 1.1990937400286732 1.3450274479570947 1.5539462730487492 -1.0835321256901098 -1.3510895301338461 -1.7242016865664942 0.25803023387225776 0.8548516834424569 1.589986820932387 0.35619208250105694 1.0108280279121697 -0.9888803641534789 0.9847155043830804 0.10830733493975803
מרכז -2.8988225370038023 5.703130751952656 1.3107280005012223 -1.966068666436457 -1.191234236364748 -0.025670835763802354 -4.7173805489544325 -4.129884501864026 0.7343928333229557 0.009882593140134961 1.9447357267692311 7.351444294013091 1.9593612345081468 -2.473560423441873 6.59299515451041 -1.4194252643983611 -2.470702051549752 2.244609108794615 -4.889116848848423 -0.6829585667776358 3.1138124647830794 -2.3639329935775883 0.5802348633793232 -1.4697402967257707 2.8919181093845356 1.8755031260474808 -2.9530832773451166 -1.3854440067152647 -2.4606594887376323 0.48991783241587095 -2.2341228486357854 -0.989100947408239 2.0180838906134806 -1.3532857602140003 -1.7379863173635446 0.7945104247682716 0.28473409161060154 -1.1771500969806623 -2.832910676148306 0.8119627214957157 1.0671958775385677 -0.8920022261009132 0.7139646651438607 -0.84546621571024 1.1238209691908625 -0.19057936064803896 1.2537544623360986 0.39682493581962347 -0.4568943619988354 -1.858826754989741 -0.8869226718678507 -0.2855018994629428 -1.8579535757197192 1.114678137948273 1.5117587827559753 -0.7597715567946991 2.0438946561697624 0.8141010326814326 -0.1844202316448832 -1.1191316538299523 -0.6478021023434919 0.21328491210963174 -0.38718920387183103 -1.5968637915671495 0.35932008356430534 -0.2092248513733237 -0.1564719332465684 -0.6131704802432474 -1.4064873353908274 -0.10505094983778385 0.6663721256250879 -0.5088015149343323 0.5998385325252565 0.923913458439422 1.117175675368356
למספר -3.9680205929556767 0.14408103545086148 0.11988595712482124 -1.3837905557483856 -0.05125239411512982 -0.6697596676478337 -4.704662990566698 -2.0888228227141465 0.030570746492902316 -0.520447250316221 0.5808932776498593 -3.4512257141219993 0.7436466157452684 2.086531035902365 0.5780504858680806 -0.1498365791450316 2.0817978331727054 -3.3165828569770666 -1.749372689377878 -3.649474643321013 0.6341907042895897 1.4720437975393854 1.1927179270321235 -1.4025892455232496 -1.3135111073908505 -1.398308957151408 -1.140901924820145 -3.9606416539479423 -0.6772748934966356 -0.7551674327168798 -1.3897849035011318 0.3773790391565293 -4.89224398793151 1.1450475047905708 2.2545258673371205 2.701969603325118 1.8278421798341415 -1.3879707343430054 0.23340488897623682 -3.064716280040748 0.7523836025731371 1.73744860325661 -1.8903378996863318 -0.40734160838047967 -0.5274217465515996 -1.1934481918181912 2.4351986640835928 -2.091052359748035 0.8774654042010664 1.360270065242112 0.6958640439090462 -3.3061047945225703 -0.11605419911202892 -0.23413919696554156 0.33292092897549364 0.04127238922949817 1.3644604141114904 -3.0357164077363983 0.3125359578199726 1.1948459972415213 -1.5939322584417457 0.6425816729889648 -0.9037979627824474 -0.13410263444330947 -0.548900367079764 -0.36766494398197064 -0.19532644457918527 -0.9491922591646922 0.568603325965588 0.8764200935320614 0.35876541268891027 -0.022209701267594043 0.7302055443238514 0.9799972802479341 -0.8967691440457934
להשתכן 5.441249535946083 2.2238093308371516 3.0529638128751553 3.071402563140284 2.78666621327919 -0.4723564558907411 -0.41439850718771853 -0.33158585730999207 2.0386048806525587 1.8061951913690086 1.9949323421096992 0.7873241370474489 3.9034925960879603 -2.3202212802290996 1.8594827438135115 -1.4166857778398927 1.9347237153049777 0.7660167802455825 0.9907129318314406 1.0816410139775716 -3.9861588827326053 -0.11022129453153909 -0.9611261180895072 0.8570003643038493 -2.2692973575673707 -0.9352117781494186 -0.37914722018609626 0.7708948042698082 0.48615422754985294 0.9127798101760777 -0.9322441717694416 0.0571348558474422 -0.6664091113924971 1.390256547103141 -0.30018326467021333 1.2475719675772734 2.913669423433547 -0.72430991629798 -0.7378775106047056 -0.6151999735185739 -1.6448971477375425 -0.9017225408182427 0.8411725574848614 0.10973216694299744 -0.9446710784625019 1.9654129317162807 -0.23652254204153683 -1.3152125747879848 2.0347884774017913 -0.26580436213306663 0.8309373191643739 -0.41192264715154125 -2.7499300325869065 2.987046889335609 2.328663338038897 0.4073797666097215 -1.1162371383736098 1.5637589338827367 0.9082445136586834 -1.8911873003573807 0.401496260956135 -0.15938320556341973 1.6755807104330769 -0.06745723328803459 1.1038584919569785 -0.3887395344694119 -0.3452688301991425 -0.34771502207901517 0.1325425035462469 1.0975146870631405 0.8081391102488715 -1.24914900943262 0.3376393111534034 0.25132501517767103 -0.9822092351619459
להצליח 3.3482674535613564 -1.221375405761861 -0.6142850487183675 -1.6381031070101288 -0.16865674096005764 -5.28088078120263 2.5731348797952323 1.5750264728882277 -1.1216473216950258 -3.4916415879757854 0.9375869411106181 1.6472428352273203 0.10461366382276725 0.6731687940783825 -0.42753418365018453 -0.6281799521477537 0.6549971407351459 2.1350651022556515 0.19550327013494842 -2.174018436673468 -0.9523779995564102 -2.399400503423835 -2.2095062968987698 -0.9175053454991222 -1.2743574174012817 -1.6027604583902946 0.10605553081978415 1.4081708516289928 0.21843327873491833 -1.287095395257369 -0.10263833646283602 -0.684695948557392 -0.01507368505075906 -1.1749963110206085 0.3335574969315975 1.0939972447898798 1.668157395255413 0.848673821312404 1.42295006571114 1.2335015649387338 -1.087977253527557 0.13956913744434926 -0.7608836479288177 0.13228658387767123 1.086612958545035 -1.5957764876051856 -2.0285801877797978 -0.8131213446727136 0.8317044286433737 -0.8908765739753455 0.9193595978677135 0.22535032807080954 0.7591701531296157 2.0284028613333906 -0.6841786891103357 -0.7505275256662475 -0.41617341400307734 -0.6340359027321604 1.3913662498085135 -0.41411780785384417 -2.1526908662976703 0.44408497301909533 -1.5805352666141421 -1.7900011498786437 -0.6062497001558577 -0.3814102493586088 -1.8194895874674415 -0.037522949314381104 1.074643049087976 1.1090389499247104 -0.18609082691642564 0.549405769382905 -0.16207758101992095 -2.0622066719575978 -0.9134340504105721
לאזרח -2.0344073120157695 3.021966476141688 -0.5131516400088418 4.4280929057380085 -1.1245405383325568 -0.7898806172197453 -1.9623209190937991 5.814001171416181 2.6692073713795588 -5.230933722845161 1.7181885013741642 -2.2460406743021797 1.367755469984239 0.3424728576198116 1.6053179089307397 -4.21871396549492 -3.388793280661532 -0.6938384144465325 -0.703494122884307 0.713543669716533 -5.511248862460473 -1.921621082850316 -0.541292132397138 -0.9718353848208456 -0.2999814214308071 4.1390591319620125 -0.9144228086039696 -4.08125309244085 -1.666817001650324 -2.500083522470224 1.6185454968779687 -2.8182645323061437 0.633871292519497 3.463093760602595 -0.1840336939879898 1.0470208667708834 -2.758643037416822 -0.1639091901425521 1.2133838677846147 -2.9797893415049344 0.704776961348603 -3.2192462135174553 1.580488711923316 0.7292142677094767 1.8631720302143413 0.22601294418974083 -0.14435425119287448 1.2125951723275281 -1.9312548095306783 0.9115710029949943 1.7683735075584128 -0.1165836425503918 0.08583708342852103 -1.9006287200454313 -0.9562123267523822 -0.3117576624548807 -0.22427461954981143 -0.598821100019871 0.25456033141366263 1.4935603384241474 -1.8899542968178231 -0.40533443958459087 -0.14542141455683394 0.19740541434871242 1.4177945075239333 -1.0019097846099907 0.10349651171624946 0.030623421726890566 -0.8040057393853729 -0.09548236119803444 -0.3854377436844525 1.2337469995255772 -0.2171841880875392 -0.0909041150723352 -0.5429590498365152
לבחון 2.251846788168392 -2.4335687754431734 -4.947190305309746 -3.666610573101239 -0.7980691478237544 2.1510916153088298 -2.4642055823737903 -0.10558897359375248 0.4363362606096212 -2.033056820987966 -4.279585412741128 -0.7456774497268844 2.114050217253711 -2.007480586980579 -0.7672587144797747 -2.125909901047577 -0.05224047428638959 0.4675596991847517 -1.1246029490206901 1.689821722887997 0.16087063607716431 -1.024392108471796 0.7718769602665588 0.15268424437898614 -1.8318644410129077 0.8419894960869814 0.39669742836288224 0.6713181645180225 0.39499321898386436 -0.8614548842523799 -0.8489372495092904 -1.1371942020205847 0.228110187137425 -0.1889097004095455 -0.9750232532375896 -1.9311815642139911 0.7425533475112058 -0.13145125185550763 -0.26145130693460117 -1.2714488891785791 0.3545342575891424 1.3138925732712023 0.07619889355954386 -0.7000049368628265 0.9849296452823513 -0.8551535383097323 1.1475082091970088 0.9806082323134584 0.442113892086333 -0.5972520851896712 -0.21757049653610852 -0.5954594975368418 0.0013289292579290687 -0.12564596057440297 -0.5313685588446118 -1.0189202274961209 -1.0218410502990858 0.05061642325001008 -0.5836838764110786 0.7624579126317031 0.2955267690845377 -0.10299121888011702 0.4529673328911287 1.023320832767923 -1.9115178556889119 0.5200947507001563 -1.261768847764906 0.613817426029682 -1.9811424600500094 -0.301002656905565 2.2356816710020513 -0.835675022066448 -1.5541425070538306 -0.19638223770476274 -1.624507832718012
להשכין 3.481737546035687 0.400386469456045 0.5155762889368154 2.113832813846771 0.16022510976321952 3.41831262738046 0.42843073545634963 0.7092508090533981 -2.174000236108536 -1.3288656548858775 -1.1778838732052954 5.074177821607825 -1.5010503744351862 1.1932772611775804 0.7013377545558814 0.8724244877786115 3.3496661191457946 0.08049321792576415 3.745808549494038 0.19946531882953908 -2.2790070867478294 -1.1243446706972509 -4.820825561016686 2.544304725068374 -0.5487814442148538 -0.36225069564238105 0.2917885925483582 2.5381666174308695 1.4449795632499922 -3.549846404948296 -2.649378162951223 -0.4050002582897587 -2.4704068029204564 0.711857824449025 0.6761539275565336 -1.3055101845388952 -1.5471533193649696 3.1734750317096925 1.1048973466467116 0.32067044172733555 -0.7771250673257434 -2.2816764609428053 -2.4963770020660836 -3.4625281947722577 -3.1777308132706126 4.202257175295677 1.2172280773740844 -1.522821165419437 1.0841806189811103 -1.0536681173867664 1.4897865860613926 -1.2782388694144315 -0.7951619887680658 -2.464464742228938 -0.8299633013504154 -1.1093682806585357 1.7001949055174228 0.4205822920942721 0.6436363358242243 -0.7325994151832044 -0.14601609822630007 3.0736434727653346 -1.517093619566376 -0.79097787894456 -0.5357586359211862 2.298107488489595 -0.22450269223708522 0.42089157043398406 0.0413680290702123 -0.4650203820597104 -1.924495666343558 0.8333126860814238 2.76672244422611 0.334246642384423 -0.016063550772206343
תגבורת 1.7688724776309686 11.19679885085814 1.637394078891083 1.1342774055104325 3.346003005763998 3.2826281389838625 5.421627538549503 1.6800815360210806 2.9332232498843793 -0.8391420966604733 -1.575636660922411 -1.2526839000491778 -4.834976769658288 3.792495255442843 -2.3222771349069764 1.151219201470079 -0.9449600672462668 -0.6940239001411731 1.9166549354146345 -3.063015241065089 5.871952935347416 5.513510142525973 -1.3772727208700235 3.2492690243671327 0.4896936234249827 -1.9200123592001845 -2.608479339425021 -1.5050548532964267 1.832189415542512 -2.5344110264832795 -1.9124149566463282 1.4969764953897036 1.283012144091947 0.5914295288929222 -0.9383914141382045 -0.7407845491898787 2.9523171908390102 1.4597068166733533 -1.77311224123178 -0.07687576517774791 -1.9276926049809215 1.3457882060032065 -1.2450269441125323 0.6957121210549504 3.5221636974366137 0.00971994347078219 1.4532003948007346 0.8171765277733539 -2.1513257594944615 -1.5260638849567176 0.936079926612795 4.029024180155049 -1.7959976999869687 -0.612626394974955 -1.2613233286097427 0.3439945502556511 -0.7757037128100346 -0.7952164211065466 0.05175238466499356 0.11497096441255499 -1.4651123955542862 0.14922219866506103 0.2691175652339849 0.31271966967326104 0.2628540432938917 -0.681395698476258 0.24597650965418272 0.23013422132872177 -0.7676305529250753 -0.2724103061770569 -1.152242240012425 -0.43901007021566035 -0.27781429954487613 -1.816737413272404 -2.0990741531052115
לחשוב 0.7877753636880526 -4.406973022828896 -1.320889058042514 -0.681161580948418 -1.0501904842668448 -0.392618157818572 1.8147943536641205 0.6596476241884743 0.48876958148558064 2.848056542380077 -0.5231238141688292 1.1918216177255432 -0.5690998221646733 1.3129825382632028 2.233371940477793 0.25718540087033526 -0.061740184184369266 -0.528181967939768 -2.3785406496914985 -0.8922736592772519 -0.24237106030685557 0.39666899459733834 0.1046652946455552 -1.4417694671984351 2.610347013631531 -1.139087892474187 -0.2904704502550517 0.8715700752033201 -0.33977299726307536 0.9171015995946794 -0.7116778747104932 1.3382260825656287 -0.2615419849744626 0.18859760890792632 -1.915452176781175 -1.2701258913057065 -0.8627008080241684 0.8975962803096077 1.5188510945857994 -0.9562055306793596 -0.5371284993722091 -0.5076968042337364 -0.011753318615106615 1.6853046387233854 -0.5193350950397552 -1.6114260594768886 0.39651185727855565 -1.5038222283550673 0.6568699849476571 -1.5572766961000681 0.06436161399528749 0.552786468998743 -0.6704807912823628 0.34121825429714536 0.36471883647819 1.3312443873835866 -1.6935237820029359 -0.7363548357740269 -0.6821232326674308 -0.595833343626081 0.7165768603131916 -0.8981266064340014 0.2542845048227715 -0.6827540688467281 1.6933564223451003 -0.5271142320302697 0.8131318071208851 -1.9500985460760527 -0.11017418209887361 0.3832287841349767 0.6902427264643086 0.3275534982748195 -0.38025560341759107 1.6100089493549814 -1.8841103649241473
למסמך -7.287153670619633 0.36559600926220864 -1.8574972501914464 -0.7237061383716069 -2.807329072679918 5.930939832372791 -5.686279590174846 7.339066576791753 -3.9002225855054955 -1.4363084710808203 1.3885197876141986 -1.5826098285368733 -1.4138760849732843 -0.39875320289303723 3.416915899084674 4.939617357721289 -2.7062723284485615 1.3299671394735941 1.7793517689536897 0.08324727792171559 -1.561423594157364 1.8445994087650615 -2.4088836096134645 2.8927017282679306 -2.9577540067551533 -0.7741603209850252 -0.5941656746364394 -2.533550720201664 0.3850598457340921 1.7519777253259086 -1.9959429546709593 1.842683450924793 1.9314888099419514 1.1293854695246206 2.1219075621193975 -0.4218303119334478 -0.9107988400210751 -0.5035019897522628 0.3309147315021031 -0.7028508848099109 0.4338167977294712 1.5404866422853787 0.45319763590405193 -0.18796317443984303 -0.8953684522832884 -0.8061398044892248 -0.1156348232089078 -0.3794370172631762 0.9257112871854472 0.9233201601232093 -0.25360391439955254 0.11003853130506248 -0.16871312289242615 0.18991851185794623 0.1205380718469101 1.1161263192754205 1.4660109350057993 0.02806572182357608 0.7957665060427792 -0.7154928510133753 0.5761648126058623 -0.288689673426326 0.42686983905620585 -0.3728926128350674 -0.16044834149634477 1.0508943144879337 0.02976456977971073 0.021029628170789304 0.037478953224843056 -1.040367680982023 -1.0192889610350813 -0.9256337409377203 -1.0103269485812556 -1.4140160857075585 -0.8861405294125916
למחשב -6.129302763200971 0.2751145969859677 -1.1070451286879128 -5.489654728881829 -0.3661696740397171 -3.2212498008776516 -1.5769986420360766 5.949004808373815 -7.579083791728786 3.8562631310639603 3.6157427105474733 -4.90461603623911 1.0653075432429655 1.3718136470611046 2.5637990347876407 -0.5072072245902605 -0.20250746607545783 2.257137343268781 3.539994444451047 -3.0442860332298496 1.5345338918307123 -0.2630968450535908 2.2963955886287857 2.1543944649482873 2.2915728117715353 2.8003188530217886 1.6612470686496015 1.3258061428112093 1.5357540035395756 -2.038646383967085 2.4499045470866068 -1.6812774098676824 0.2956728591473978 0.8755923675545784 -1.9155661289045869 0.32765538035807634 -2.051769169414948 0.35132661146030175 -0.521013226336787 1.3534793924387338 0.39730349653889785 -0.28710303400629034 -1.8775350102748427 -1.674915836433171 -2.0223250489948876 0.8061478765236331 1.0584835264534493 1.3461451216242388 0.4588782313927883 0.6731109020977221 -0.048516613787128245 -0.02514453846493711 0.9490348707807308 0.03271372044555871 -0.48737435857197653 -0.06587372416567473 0.2044587708806773 -0.44646409907159945 0.8400734392031178 -1.3591719425949838 0.5957641020633195 0.2968700717396883 0.18154998597445457 0.5445777831541286 -0.37374271168470885 -0.9878479940512387 0.37616215120189067 -1.3737695862394812 0.019046471281739596 0.36121406720127697 1.2898758771378456 -1.2149965633217814 -0.7195299271357605 -0.10122562247566372 -0.7175708076955682
למגדר -5.705083305522639 -4.825642410909496 -0.8269006302964317 1.3030614447448672 -3.831031279721047 -0.056631044425406764 -4.9825157834502 1.2985307896228964 5.397418309146887 -5.522466134573322 1.94126996188059 -3.9652718561166735 -3.2408158516835814 4.87850524789586 1.5312771098935065 -0.6281740088286444 5.173505201824997 -0.799748062218514 4.195380277313361 3.8325658342425344 5.19092992377035 -3.0693756279222013 0.971874293760567 -2.364763903041044 -1.1038790345133 -0.5228770659802331 -1.0026315524913516 3.215925672358976 0.20909302969219273 -1.668914059695196 2.066782957044971 3.706140469632507 -0.11898400139940651 -0.5567064717771532 -4.256913139910334 0.9777348271096664 0.07688289536042864 -0.3239792986087521 -0.6496780399185559 0.8623358324933353 1.394466642970147 0.24467459739509603 1.6659223933736211 1.1103277540497063 -0.5324118243509983 -1.0289721842171538 -2.6870940727461967 0.6667718782455788 -0.7980456296561402 -1.012938857668189 -1.3162245163721686 -1.1861652595632812 -1.7141621697657994 0.7487275311638393 -1.3904511443472305 0.9545996784142318 -0.4512788571670323 0.1992604369440238 2.08233801512851 -0.14110938395116748 -1.2073512228199226 -0.46772975969284947 0.8032148889380042 0.8197539356448444 -0.16758803943675601 0.7579328001482976 0.9031131224076985 0.36057756648530476 0.571854742518861 1.1712978472234228 -0.2768200481213505 1.3107129875851793 0.6114749275903621 -0.38801242873694425 -0.4173465836044311
אזרחים -2.2011259014377402 5.027876449551438 -2.205197260805605 4.148845077669144 -0.3904823581250865 1.2049098684483748 0.6130524101429746 0.8796731971861577 4.19651407832828 -1.2240518467743637 -0.10732989666231527 1.1597061973762322 0.08299726869371 0.3883573014352903 -0.6215291296407054 -0.3315486630994303 2.597473899576783 0.45601817962748 -0.9370393474481012 -1.0997289857929722 -1.542018514086229 1.2339129276522134 1.3327603216673534 -0.2678917090981393 2.822983671731012 0.9893749232037694 -3.7721288467770204 -2.6527148875221105 1.0792599895427861 -0.9689864333919213 1.7036687716412484 -3.342488513470691 -1.1560089902079038 3.397517133157645 -0.5123689448741158 -2.357654676244428 1.762631413711576 1.9037541508068792 1.4195082739475948 0.8304065042643543 1.2020089595685495 0.05075060314301057 -2.111051855999682 -2.2513636591378625 -1.331973340594647 3.7136847070497354 -1.4276766399205991 -1.976559647476981 -0.009277567456016671 1.5476895196571026 -1.5194778277385244 0.09847036623886045 1.8076327402231047 4.407843377156238 1.2277317417120583 0.8916614675479543 -1.8950996878371316 1.1258020699079538 0.7412642211341414 1.1234135265201945 3.405156411462713 -2.279818242016479 1.511495772696586 0.36874265701703435 -0.25250940640184166 1.8645913694682283 0.9715952610577909 0.7405266068610824 0.2742988958418887 -0.718044582704411 -2.3203973100011255 -1.1820987729541608 -0.08653392548341413 1.3863912071023923 -0.9628702064439594
לגמול 1.6455604973600881 -1.1445461557488346 -1.221631777168235 5.875332060663717 -3.0412508729647416 -3.7794309797916505 2.558932853751182 0.4321665609835008 -1.1995342353916547 -2.0872183702932445 -3.334385962071404 0.41117051863307363 -2.930424859239944 -0.24409940975739733 2.5390204622717536 -3.188224610946214 -1.9610115533409822 -3.864653160451741 1.5682064983071549 -0.8451087631590373 -0.743793587851849 2.276707299101464 2.630722682095991 -1.6720843227082034 -0.14600520308755058 -0.6601488908275225 0.015261576741378693 0.8983312847139228 -3.6798607838770088 -1.5209064673332466 -0.651616383225212 2.310537537101635 -2.2266230979045156 -2.8898170684314217 0.13409743459271228 3.1965813051502505 -3.5791297090460854 -1.5994693288192814 -0.28723522063371093 2.675560944026958 -1.3298686663069854 0.7878109030352423 0.5185027039365505 -0.12530650898074733 -1.6782100210923778 0.1915218391622696 1.7784668978940503 3.119471292151815 0.5224846513931727 -2.8053728183852136 -0.008784114335070856 0.5519288448521632 1.639720473524357 2.2203107214923894 1.7840689289981324 1.2341778586468566 1.567349296128251 -1.427812543378839 1.515481550601625 0.908244764238433 1.087069113079392 0.8691228141177807 -0.17938412119616406 2.3257144115462833 1.976499164259141 0.48763419228128063 -0.2519518487310188 1.2875902252217966 -2.5325184482992853 -0.734511335990978 -0.4397048354961845 -1.5871575858443112 0.6017748419095321 -0.7776474133608758 0.9360305851960768
מחשב -6.453151350213819 1.4784420171690578 -4.341833607176493 -5.982296265289257 -1.0622712274998467 -5.538745263949937 0.23082018320682027 4.0704520437817076 -5.450090673676397 4.268807126021165 2.3133192902584256 -1.5954458158970786 2.399847437482338 0.47759234468022227 1.2046132201508517 -0.7276231149302805 1.4873768875133555 2.5000235067589123 2.664797790934246 -4.1391408887884245 1.350847274785013 -0.08647180953689289 2.175850125638016 2.3327826066346233 1.9641895608459428 3.68020829318052 1.2081340160535032 1.5714713020680333 1.5518981847883295 -2.3161792619522017 1.2969063243501864 -1.15946418551047 -1.8135901475950948 2.377947453344731 -3.159228282124671 2.3749227890553 -0.7621860968631224 1.5201912523098045 -0.7010357327376708 1.8962124625932129 -0.7410695341720118 -0.6194306709311342 -0.7229014253689073 0.37117521702390105 0.49792940142641834 -0.055225532912308126 1.4854720254308504 0.5545366046811209 0.7589243476126489 0.05882663125359806 -1.7135768994341898 1.2985406453113997 0.3812408102492878 0.6735260561878353 -1.1842499677313318 -1.1225611816925534 0.5131812997724436 0.8141858608171042 1.9019355138136562 1.2471613727518969 -0.9733288355715842 0.25567161326663934 0.6803546619344012 -1.6198861245383651 -0.36379420837538345 0.29536628439719603 1.1434339668871147 0.07727063040845264 -0.10734563053599969 0.007843664791814989 -0.4477170232119598 -1.4308834707524711 1.2228589063328887 0.8160218415325643 -0.3803473460327068
להיקשר 4.061741766567503 -2.5616305016248275 2.2859215738786918 -1.0788161081350987 -0.8866164092222794 -2.3893596635593686 -4.138666946092995 2.8700639659072174 1.650343512213037 0.05363092877490239 3.5780355979283462 4.864790179887846 -6.587486714437014 -3.479689023366476 -3.636947835185678 -0.053467407566355346 -4.643127013029713 -4.218141129213276 1.7323496611767737 1.1406018563087017 1.3821182389394304 0.4074045389418874 2.3840166600450816 1.2625082567831327 1.2821522891400794 -1.0099683666072523 8.187609775552119 -0.578070971711503 -1.5882726404636804 1.7293747861313358 0.6557155738253202 0.24767249957028262 -1.218903771353224 3.6778534801933227 -0.665588141093114 -1.0631030156929484 -0.22077439936199228 -2.778988257970615 0.06547036499559404 0.5443289246866785 2.4779792385161237 0.5697275081280669 0.7926219180544426 -0.3183378457895622 0.7348105641939386 -0.8812661217406437 0.889951569599292 1.004700487581997 1.9010465222294546 -1.166361231009329 1.1401473101715347 -0.8387864545790482 -0.07916892286026744 1.9640200233524963 -0.5989341698826169 0.5885126828041348 -0.9506555949961215 1.4102136342691582 -0.3117990426476837 -1.273655617716251 -1.4587238081482716 0.034703092548374115 1.4532039631135096 -1.2975258446554956 1.051496003116642 2.9718612550260235 0.08052018163515218 -0.14706058715391543 0.1466772911807174 -0.3410940979166355 -0.8149184628620593 -0.31514370790999485 1.6816682168618842 -0.05018313151226111 -0.9373279884793713
חשבון -1.8220915056355997 2.1056222926525043 -3.8427515464743083 2.6690201490376637 -3.45733637882373 -2.155005321028921 2.463527582856696 -0.9417023738383505 -3.553179916532294 0.2626896093997208 0.3633024760093434 0.33031263118636117 2.486527073002387 -0.5962639689461822 3.500858040752659 -0.6754356246378973 -0.03188187453498365 0.00926647263573205 -0.39629950107670686 -0.8395617882350229 1.2751957099281896 -0.16975509191107555 -0.33311057097474983 -1.2538650708779198 1.5943042491492434 -1.8197362959936572 2.409997453717522 -1.878750905092001 2.1319581286107967 -0.11410114584750597 2.048864213600737 3.713463603289532 -1.938425659637996 -1.2249083882188947 0.41310903171659824 -2.476201334798657 5.406389178337997 0.7380967666308318 1.7568592204821363 -1.539793098494735 -1.0232078851525344 0.013271169395297187 2.597622433040867 2.5018423305345463 -1.281483552186979 0.09095368639468236 -0.5934028287973424 3.8225197365574557 -0.1920721722488405 3.970639722825602 2.897144921346041 1.739077164974388 0.6412694941768602 0.584744381496791 -1.2749744495536495 -1.0658144616241838 3.400189880000068 4.166970048216385 -3.208486524296453 3.818246236684576 0.32579185959379653 0.4821347032717249 0.7078819943515108 -2.1505890363400493 0.3710947939057692 0.42847733698756973 0.0336805188518406 0.4522562029995307 -0.7973992326180348 0.6156307434587084 -0.2707246227862885 1.0955746800431065 0.6757269784573686 -1.0317040026864779 0.3592668925638707
לתצפת 2.745227403205298 4.681013280676705 -0.030094941711625026 -5.086110791678017 1.0983087706818722 1.5408072190613078 1.4774476246413049 -0.16873677210798144 4.197023060889712 1.7532085861134807 -1.8116010806806724 -3.474922021754414 -0.3514235215544681 3.9017184763146493 2.527887271826473 -1.331670796388894 -2.493535703536275 -1.7106651706547764 -0.3588075437473999 -2.0635984097219904 -1.300585999238425 1.080319581497049 -0.26997049062819745 -0.9085378009999492 -1.8776763895321351 1.3345228770202153 -0.4699489276324159 2.6687913555459724 -0.2810258279484034 1.6790475604596788 -1.3629013072648168 -0.6283527955673006 0.7458437252781135 1.0019008678083459 3.118192412930125 -1.1398299977289823 0.440997299281996 1.867352839934994 -1.644470792203906 1.8735460565187179 0.06307538269096824 0.09154493997724722 -0.6087540618028419 -0.2784194503087177 -1.5116434176059976 -0.22007273246079564 -1.267730947761679 0.6313730502957715 0.12113254510225882 0.21045062128803232 -2.0328887205620427 -1.1236447999542827 -1.369168537386982 0.4023712367222493 -0.7449241522362 -1.9817176633874571 0.7091171699240303 -1.7786757942890592 -1.9413861934664545 0.8134152312776253 -1.2232699853446274 0.2555954130769105 -0.22340643101890786 1.5064590904660315 1.8174757207873127 1.2137108049048264 0.6374804089155369 -0.9190079756568652 2.628453543339228 -2.7416160144887654 1.8905788795197314 0.5413994560109413 0.09931174922574515 -0.5476267791234651 -0.21783028848457606
תעתיקים -5.5632196273977375 -3.099304150157958 -2.573054805836118 -0.6493360807553118 5.585347073161854 7.076719683144164 3.564693989371517 0.209462158048441 1.142874762924248 -1.1180223397409843 7.310400122632643 2.4167489868809557 -3.5332042528877605 -4.551340143985383 -1.8408809957825114 -2.0549298946489594 2.809173256139667 -2.5028937602973653 -1.8370096825621236 -2.4765935490835527 -0.6128898643359932 -0.1734211165852781 0.6787288837935633 -0.693339575364238 -2.226029567481557 -2.9004876783951885 0.4334722360505431 0.11273690139314879 0.8631852111266489 -1.6824370850035342 -0.2916231423654305 -1.9801409607652505 -0.530689838053138 1.4131318576250138 -1.2727489735145983 -1.497145203328172 0.43569300858756266 0.7689476905280477 -0.07680886139694097 -0.8070640339199083 0.37670704222369705 2.091308352594922 1.6323963860071764 -0.37368941032214986 -0.07381892161705611 0.6189260109458914 1.1689397519251998 -0.8510274117883221 -0.7833994609824403 -0.8776344149174116 -0.45781527392572025 -0.18292648810328618 -0.3816216251850947 1.0453888749049165 -0.9151743917633303 -1.3628205911133116 -0.09268370498477006 -0.8812963857088456 0.18259946943312433 0.3505606448631693 -0.8689811587669304 1.8353789621322552 -1.4441329764091257 -0.21397897591906428 0.8855235214855468 -0.9540813007482484 0.37199117106919066 0.39005492160947763 -0.04684314966260328 -0.5987554975941827 0.9577111287412569 0.4158925120216504 -0.25328891122000624 -1.6236234916017878 0.0713102201206197
לחשב 0.6482537612904233 -3.8623892608042816 -4.57309079581618 -5.28344929326524 -2.419834698285317 2.148116582424184 1.0336070237610138 -0.21146263076078187 -1.5127811807301004 1.2730546872339958 -1.8206520796567738 -0.1753037629215568 6.360833843615496 1.153329870474228 -1.2018210764088646 -0.6415981856311509 -2.7979960113053677 -3.3739595586215887 2.0971326079650385 -4.039974708279784 -0.7452630319548298 -0.710546082025124 -0.13808793054972254 -1.2659335248139607 3.5656918111398697 0.311892144450024 2.4792143713413686 -4.15418582965356 -1.428068513444227 2.7522625163839867 0.7412177745333565 2.6985272740558313 2.4247919127566666 0.8509708334681922 -0.22575026771825232 -0.0015232394313388945 2.6242139938609164 -1.8961063149701134 1.8129605465109642 2.1311192549195144 -3.113271171826916 -1.8867530521578624 1.1614811106021856 1.1740092477096271 0.8149538666608162 0.9742413620763312 -1.611727194581861 -0.30831682175266156 -0.29751842132180817 -2.7280042289247373 0.021516591212615583 0.10770262979488021 -0.8974772268850602 0.21711469783545087 -1.1565331058476478 -0.37672002685665695 0.002497915151742648 -0.7622647890670666 1.6383460274312 0.4317392189029291 -0.021770992118876092 2.1906585711553093 -0.9383578988137455 0.9186846279948877 -1.894652598440483 -1.280530571727934 -1.9475587174890547 1.1591070500019516 1.8502483145284125 -1.6967759531146116 -1.5184217119978103 0.471829814522009 0.28382346079585896 0.7582630027224665 0.19047157754952945
לצלוח 2.837317402023425 3.482615314526461 1.7744931114910572 -5.052445829314821 -0.7393323623369936 1.842200252459688 2.5168646302043367 -0.7558746667280609 -0.6651846237766733 -0.8408484861622487 -0.8136541362541317 -0.22687437318119227 -2.1550580618735053 3.6964476955153405 0.003100168250612301 1.9897640232085378 2.9555008089810646 2.312459228583342 0.931454693695156 -5.387557145275636 -3.9742645105930525 -2.006592038536991 -4.772538009092043 -1.2139862274322861 0.2210565195771694 2.6105063767302843 1.8528949216379882 3.313859808848778 -4.462830184010177 -2.205313979197415 1.0619939277730808 1.0400272351653406 1.360848398672712 -1.6145518115469286 3.1443870161004672 -1.4148873235913304 0.8474903120037108 -2.2908508418038425 -3.487035305555449 -0.6107798132705453 0.14123555651176956 0.5889092509768535 3.246508720490743 -0.08328786695764705 -1.1146651444441806 -0.905498241279014 -0.8564435888008898 1.6744659521019727 -0.30116912517336075 1.3410683816938174 -1.9483190319792139 0.6368758674519169 -0.3600195907381074 1.5323419259629019 3.5525742571511816 2.545850063161916 -0.6489249370040164 -0.13234015270781357 0.1391249264527865 -0.3493900341031838 0.5412040992327322 0.11990728651643569 -2.1338373502750967 -0.8096894533015468 -1.293948784821849 -0.14488432454641748 2.984639807303728 0.6894740075416128 -0.7618481251651865 1.5969260453176373 -0.3329423795505202 -0.12444678037939458 1.2784067047883758 0.2916702718115517 -0.6297558840616164
לגבור 4.384576036199618 0.41252271162627363 0.7968727741319412 -0.5273228529632601 -1.4140814584477088 -1.366360821749001 4.005189939906429 0.7611446317506871 -0.7926288688238721 -2.6041860104339185 -1.5907673562551838 2.540715171871231 -0.9537153793171803 3.5299388892425037 0.4832951108386522 2.020573758622634 -1.2278919034194962 1.8017918134631183 -2.4597435754838455 -2.1824275875884642 0.8905590024391661 -1.7162389556995303 -1.524951814171264 -2.834030893555541 1.2879359615389343 -3.735131811403912 2.5496216104247473 -0.7938304522112763 0.3041010783006787 -3.3278989517945443 1.7436941251719658 -1.3448595731168513 0.30394632756798545 0.9174670737695224 2.6003420668427353 4.267746976489172 0.8453806539806835 0.18229579200327015 -0.31843356478497575 0.9417440126656105 0.11936814110556557 -1.147961904710388 1.5438111323188728 -3.631720405431963 -1.6344064813780712 -1.8256270718248253 -0.251920122180601 -2.0690379867075688 1.8289465650557344 -0.31248579865111326 -2.558711070629595 -0.2947233251863319 0.7204864213471395 -0.37732938177946074 -1.2220974052478346 -1.9132671236638659 -1.4024623589731002 1.1953775230602468 -1.8992171730015461 0.32655209989945694 -0.25905333405367753 -1.6715570076228532 1.721779367913194 -2.183913415752563 0.19768710647205828 -1.5696453290599328 -0.20201060787118852 0.3591521808131972 1.2086746203562773 0.29422039877840833 -1.0117089084772675 -1.8025648194823094 -1.9419938426250918 -0.7116888857420488 -0.35518178304911663
לסמור -0.5991664749895697 -0.017898831325117062 4.071560907072286 -0.4173869535562005 -1.1918281386435554 0.1371846071998609 0.6834831325217372 3.5911403672033866 0.8580749216531929 1.235931381860796 2.640589857408736 -0.7401659682005892 0.8798847254786339 3.417732665623179 1.1540392870652356 -1.5298982698472703 -0.49637689529783846 -5.144795326549166 -1.0790793967507308 0.847982301067331 4.379732891065921 -4.201759288321048 -1.5912837604212857 -1.3564257938223097 -2.6228598016420057 -0.28242791488092917 -0.3276360666702443 -2.202290469221236 2.081038397789738 -0.6854893639767629 0.663890989760115 -2.2075792246592774 1.1268600576231307 -0.9262332445971342 -2.111818951692501 -0.5110122168123117 0.9605605540276133 1.6893981025554172 1.3059052559376427 -0.021005533995859846 -1.0848749386363625 0.7584695676239881 0.30953852726872594 -0.1733994071127184 -3.556311145047984 -3.1252311501469863 0.016705853507047987 -1.8248136437367093 1.1529638844426238 0.8290805798527489 1.8676967288429127 1.869435276999722 -2.7398081092506366 1.591626833827727 0.20836255964122105 0.6890073089759012 0.3805910234513847 1.0029759729997496 -1.1187758365869727 -1.4333466985480356 1.0065222799763671 -1.9797645325227757 -2.386403254459969 1.4022695660627882 0.44665827990498147 -0.30181807537605354 -1.482858600128795 -1.5516211988389113 0.7457010503109386 -0.4637520251280578 -0.6190700073862301 -0.979901699998867 1.8320128666384001 0.30504236503356613 0.12530810375275617
תקליטים -6.8759285644343775 -0.3058947430181941 -0.93337499642623 1.649119799216934 12.954466281249767 -4.358205732443748 -0.718591378870191 1.6513965115799711 -3.7655496361532337 -2.8594632532187227 1.1903182119770932 4.500780626879141 3.4021381124020724 0.8711932365747788 -4.490695729844696 0.7187216782959217 -0.9013136843363172 1.497032303180448 3.8641685026520767 -1.406145625086904 3.987417120828406 -1.932155334285591 0.01617797209294283 -1.129877381794561 1.1371728640274796 -4.802377518572789 -3.469539229064507 1.0811702779756318 -3.0863075688977646 0.9099118853103593 0.2128213403561603 -0.04006386147242425 -0.42229490267517783 -0.8246833094665262 2.1157340444861226 -3.435969431836794 -1.9863594166571847 -2.057344923767187 0.9632477230034852 -0.7183136686175928 0.02534123112937579 -1.8941051152926933 -0.38931132863800616 -1.1102870724249785 -0.8108121718667042 -1.2846934122969365 -1.0834718156362164 1.7286673270224464 3.8476914263469926 0.1714097142862909 -0.040004245985030364 -1.017635066836998 -0.06307118307856188 -0.3021028794087646 -0.3636000490200781 0.7725850076407159 -1.2450961928051516 -0.6114356418196433 -0.2732980064244504 1.4284924403334365 1.8233418707591513 -1.6755277521031477 -0.05190468265413799 -0.13601585012697548 -0.9487727175112395 0.564536427630793 -1.1181938435570296 0.286644100224695 0.4953573731751164 -0.95844662402313 1.3349194337348689 0.7643156919623026 -0.24004776204319161 -1.0937094492520278 -1.703314296063243
להחשיב 0.6679440826451875 -6.076782317629541 -0.4811124891831477 -0.9988719452297211 -0.9739714385963455 1.144431288792935 -1.5385973398605208 -1.1075507561819191 3.009295417190167 2.1750528240423166 -1.5771060391914191 2.9872380059484653 3.5482428476126646 4.860193838924315 -0.8830387256304687 8.03104111012218 -0.10720250796172949 -0.22896516302961128 0.2616175770933124 -1.0485142869591115 -2.258578829702891 0.9896472846299317 -0.11652804964858128 -4.2019607979826 1.0987834541843886 1.5165379673286532 -0.731537071053929 -0.3526231178212282 1.038793666155735 1.3803351864298072 -1.6864297208711705 0.4058727024965806 -3.1109789942158987 0.2412209888754533 -1.8680380535578465 -0.9910896138317176 -0.061643427107960294 0.8259405437206399 -2.0305387979173757 1.708358618960988 -1.1479900116889918 -0.9875492881304762 -0.20899685547773747 1.3898840811745234 -0.6090806730045005 2.2086984760481507 1.85129183143506 1.434756918748076 -0.29220432643719724 1.8527571281684836 0.8071289630111744 1.3924790364054775 2.463751322439251 -1.3545659107147474 0.9326058792827935 1.1354920688710624 1.0098272351700615 -0.41242784445655023 0.027855219117597873 -0.4487319367467295 -2.263773604899152 -2.2533986543733056 -0.7325510046395272 1.9014744463994198 1.587385975823778 2.1701902000996625 -0.47017209772147717 1.240800461087368 -0.4482181467982249 1.104247495906681 1.6122559788625668 -1.419966193122068 0.37981960076861254 -0.8756533614544417 -1.3864431670211301
להיחשב 0.3269925903407054 -4.057704322551447 -1.4443732537309977 1.2623492363978162 -2.66022107434068 -3.494434284028794 -2.4143555520111764 2.4197902962412834 4.9571901578040904 0.36431429694516865 0.19063316364468783 1.3442546182370565 -1.188429518024767 0.8719315951113656 -2.071084870095728 8.917888977698738 -1.6434586049662856 1.5413873759042538 -2.1819271513196297 -2.6877317541616743 -1.1356685016152281 -0.30218201167750264 -2.434540152940054 -2.655907231448647 2.6883318388386184 1.6672572801530317 0.11280186240081368 -0.1459632754676108 0.2004286996378076 -0.31875574865156864 -1.284182815278643 -0.7721066376986553 -2.5635274774946684 0.6617785094597026 -2.7071124171983616 -1.0743111397039782 -0.1244331624456737 -1.9418609215790152 -1.8586614679541347 0.7910293435411155 2.3610737264892396 1.113683818768277 -2.1158929268343862 -0.02366263037839003 -1.1765683368630857 -2.042087365992737 1.7758583680067384 -0.1482876072594149 -0.21270727176980486 0.04939465988634726 -1.1102450955857546 2.349057872124872 -0.38809704909947224 0.2477837880867674 0.09741795357045172 0.7806165663018718 -1.565211749972074 1.3629045459463258 -0.7101565079313188 0.358774820378749 0.5270691714182644 2.7254408330984754 0.554684253584037 -0.3564323867970782 1.943746857838325 -0.6104541027336767 -0.8403370203749191 0.26363200634531936 0.2325238736001009 -0.9782868689755545 -0.2469632634027742 1.3274372438854067 -0.6268646011340541 -1.456596861601787 -0.08166705908243152
להתמרכז 1.4158306310276734 2.142109573848385 1.7209130981659855 -2.8092535952269557 -2.8737756349271573 0.07306313947021134 -3.175206742200048 -1.1472754132133829 -0.0033610231865030447 -1.9199324395493347 3.2327037214482175 3.019483279370664 -0.12997791319064741 -0.8901351147039309 3.4450364666076325 -0.5292466647118944 -1.4118844016511025 -0.41776365534894067 -2.167110569499666 -0.9073593694833055 1.5802586602022841 -0.06311453892964662 0.38733634588697297 -0.654596045000987 1.5275840397914473 -0.00824645407049024 -1.162848727385556 -0.2511639657799545 -0.7651197918460775 0.8739575634216726 -0.4674085726799802 0.2902779286483039 1.0908460761688907 1.5750109390659237 -0.3949556978940081 -0.41661245419659865 -0.14562779648676902 -1.0278411281449509 0.35440901639034006 1.2930949389950666 -0.6473786600195505 0.037572472452681034 0.7398065077085697 -0.7860424387420505 -0.5502649176045842 0.8540790004573474 -0.9810843153339415 -0.6696396699264489 0.20559337025476845 -2.1191022254382568 -0.8117519001278094 -1.2426568434953948 0.8734061929400466 -2.2000512015761577 -0.7889359262025151 1.459430822156906 0.13409323307962168 -0.7297112591091927 -0.1136097314309589 0.8717340484734686 1.2921427684204347 -0.28870636916392645 1.156382202224804 -0.6853425624741722 0.3600950186721344 -0.6327613534378328 -0.1669130098723256 0.3916013228308291 0.6486718816593666 -0.00337019909134787 0.2788176077978539 0.24407485265999354 -0.575634836493807 -0.8097327070246152 -0.6546434977357485
מסמר -7.550395946937362 -1.6338328076989654 8.914595955739495 -1.5177748298434175 -2.1399926801090743 -1.1141830169364924 1.1077712037953542 3.28189359495329 -1.456043524320485 4.246877240135811 -4.352743316435807 2.7876379504371873 1.6174821652787756 1.5325524837539153 -5.557799503669927 -1.9810113689072564 6.906393050226959 3.972041089078002 -4.86504268025631 2.1575821336549135 -2.025163301767018 2.5442914234593412 0.26899936730271057 2.8518885632531856 -1.714551417879062 -3.5311622217784198 -0.6554033085167827 -1.466452403344687 -1.6871989778744754 1.2572866590514693 -0.2747253743572637 -0.3522529051096642 -0.6451354835148257 0.20793134912779795 -3.801071504602126 2.4083500778273423 0.8680017232757666 -0.16323546004065695 -2.159508024872216 0.5633975594440129 -1.8233204871231945 -0.5384322274002724 -0.027699469427045455 -0.8878820803797343 0.5901617912415623 0.529638554650189 -2.1213322293898695 1.30018664501326 -0.8597137271101217 -2.4284621844838785 0.9365009995800994 -0.51217219635331 -0.1543809404209764 0.3556930014339167 0.4895847262319013 0.014301397203137277 -0.7364274911182586 -0.11369694111114743 -1.620202786192928 0.9729515656439791 -0.041026029887176664 0.8165156550641425 0.8578361938920249 -0.2724180455671295 0.44928604414822004 0.2161111045893282 0.9780447964407878 -0.5730122280782998 -0.9965516178107253 -0.7722526491428615 0.04657630855435709 1.4126768589706016 0.8606850067040924 -0.10500657945434294 0.3560655243579828
לספור 0.6350711337659855 -5.189013153928482 -0.0729750035970775 -1.4837966337099882 -0.22783269271643639 1.474196117344448 0.7062166833497016 -3.0201902752897687 -0.5303065780555778 3.22629280339881 -1.9029537248766148 -2.4998665439611583 3.3179963361241738 2.031197006310236 -0.6089976397395399 1.0332380161761872 0.8265769318984925 -0.83764299986892 -0.7799935455232238 -2.6546873023671913 1.4673409145393856 3.493371410944366 0.2911150138884862 -2.80923214198406 2.45005425141521 0.5921739384394855 0.3111967095285841 -3.1442332811433653 -0.6606450748512002 -0.4840089568452219 1.8383979139508233 -0.3533327814355887 0.3255726702079203 1.2970547786922153 2.0237836508521814 1.508492638242919 -2.239447040171238 1.8335499681806962 -0.7256335338055061 -4.558537104351328 -0.03370742578224587 0.29509860857004 0.6385594058352527 -1.2690392047765249 1.6820121412888287 2.6263449465632203 1.6518531842883017 2.5658829778935752 -1.6259670510844595 -2.695225370591216 -1.2258194067629957 -2.488558911481589 -1.8763457738462126 1.529465278390704 -1.3184550468867342 0.6963186841688771 -0.669485511478387 2.231885417568538 -0.4003858477253361 -2.118977923494151 1.6715153317717377 0.05666326076557617 -1.4179273393591252 -0.9106735999652799 0.10844514885406721 1.3965623114001022 -1.222843774757972 0.5098427404219894 0.6614560312311005 1.6370717590802015 -0.985292108210462 0.27255429836801165 -0.6759641185784484 -1.9766741907304293 0.6945523606894594
לצפות 1.8784595123861834 -2.0567174999389057 -3.056862553561252 -2.072991639224259 1.1197931639527634 -2.0986956662390415 1.7082752359767253 -1.8533144716154357 3.380942796715366 3.8927073251324806 -0.5772733959112958 0.2720685382426989 0.4608387256841999 -0.14495134548068173 1.4261037964427121 -3.2025095475805028 -2.5939539340378968 2.316380922232483 1.6663357120963618 -0.5869472658231338 -0.9855309337814865 2.141438090296212 1.6098065215277464 1.398919315341708 -2.801168823091672 -0.3792920949199184 -0.21632784792026744 -1.1156457655201995 -3.2012954214053635 -3.014953277986713 0.36173379469334493 0.8081683088427881 2.307405515831096 -0.7455651484731036 -0.6819325096666864 -4.1630107066343065 0.2512272481465056 0.6212787235541213 -0.8293441745162037 -0.23051648063198546 0.39558740248823265 1.7908274938908915 -2.1704076134116184 -0.35420900779212616 0.363723189794962 -1.7248857908553468 -0.9844606977678838 -1.0853385330359464 0.5529713937441441 -0.8681128383371414 -0.07928164736494676 1.1238811457183637 1.7282492798886169 1.6051408885751637 -1.8598255674012116 1.2222207150419906 1.9143326992435716 0.765415412817337 0.41669174691450617 0.9063883598375903 -0.14805614698384037 -0.130577756957767 1.2035467218661016 -0.0039381377557322185 -0.768615971688085 -1.0991597284243928 1.3638946283240965 -2.0037647834201295 1.455849829895967 -0.401440890217415 0.4632881136241962 0.872627886809331 1.0861506119186357 0.5526904271870503 0.994430898187404
לבטוח 2.838671052151019 -1.7353830712271627 -0.0769171794117636 0.9620540200641867 -0.9104853316041476 -1.9274763748191122 2.6554904601805895 2.8985936302006694 0.6579365448346914 2.186225630357745 0.7074361896756093 1.6188798655584238 0.6654245889907082 1.4813754403024826 3.180929796435468 0.06497997330401649 -1.8504083888523832 -0.9979322726276333 0.6571516314109473 -0.24161902961967482 -2.1367024694813495 -2.5637553353041853 -1.3084176288154385 1.2253567331287294 -1.8540862128402553 -4.225076907036975 -1.4763274803628474 0.720128113176238 0.7138424572288056 -0.24660950641631305 -2.9598527674831123 0.009598254660055644 0.8463320965239398 0.7106885963577078 1.0097780615367482 -0.1021839891634348 -3.026114144761916 -2.1299156712212133 0.38579626200372863 -2.172500535305238 -1.3513293039534229 -1.0659430222286332 -3.4132285036198153 1.9159432406367705 -1.0074675992597157 0.14425777738517906 -0.8666915271557959 0.6500801630482659 -1.5185682879902194 -1.1694357868083711 0.6836901038728008 1.4352002180138255 3.683182506169706 3.3508169215558383 0.2267184544236974 0.8584037029915332 -2.363573109420876 0.43154979089756124 -3.1236466589632736 -1.358390786188161 -3.107215184959103 -0.20376770491883878 1.167221989117604 0.5708933121163451 -2.2340014531793417 0.39916568118237394 -0.4225024962027946 0.18903565282522752 0.5668230154201696 1.1889717406445415 -0.01501861481856948 0.10814061071508184 -1.5705931501130967 0.6115907005566008 2.238941938951626
לתגבר 6.1162039787658555 7.687350059080687 0.660670987755951 -3.5076384616039076 2.752784371725686 5.2675997454910135 2.4159256105236566 -1.087261318191067 -0.7695985174196486 -4.422236290222474 -0.8472476498789112 -2.7373506934953307 -1.3108915815727697 4.753641189810356 -1.0087120171557906 0.5777497625843884 0.6028869506356376 0.38641617845441883 -0.33342834969381724 -1.446822814233611 4.463446358932993 1.1733441885897387 -2.028651714088315 2.937555011308429 0.527148941761236 -1.4989258838503832 -1.2496782899598966 -0.016831337237040396 -1.2150503256084275 1.4634760677484664 -0.6284079843553566 0.45655015606039806 -0.9578330607438185 0.22073897983475252 -1.4617942901352452 0.7938387440535395 -0.14955617648142983 -1.7706565728811268 -0.3729521894783773 -1.0538704949808793 3.1276006490921167 -2.5428975513977083 -0.24457904850998752 0.4994398633168093 2.052794761715507 1.2483687809063662 -0.5193487228501105 1.5545852582422253 0.04371816412562137 -0.42570333781318026 -1.1419515788932706 0.8089965267733292 0.06625208622910929 -0.24265086998619875 0.6248909910375665 -0.16229005262640286 0.3207382159225352 0.6418422522410503 0.5610548235533304 0.6948739556236662 -0.7834104897410437 0.08631201671637782 1.2934992544592472 0.9160395679353754 1.7383422839178053 0.9181242679357985 -0.6819477739122959 -0.7936055765694675 1.242959330171816 -0.24569296913551822 0.3682656661419442 -0.03303020269512354 0.5539237015974046 4.462919029542086 0.8804863514860799
לפקוד 3.9535498250371943 0.9024043825590498 1.4815188204724967 3.3975230998130566 4.088837587069167 0.6292509598408176 0.44692447795129453 -1.636345096405198 1.6154700615080473 3.268777145512775 -1.315955746242764 1.0471483851580254 1.445785941808801 -1.1751861832713342 3.1299206918528357 -0.6908106159582004 2.7536112373798507 -1.9617569807470643 1.0731633948295571 -1.6746498207292195 -1.767785073197034 0.8654251726764415 1.1940928883506126 0.05729969160826174 0.04268001096400509 2.535679346693788 -2.3676897975591116 2.6085054292781824 0.05733784404988796 4.4329070607386765 2.5835089180303203 -0.3885044608405857 0.48828382098438233 0.7099439644712934 0.03333110743088329 0.42835694309480954 2.2744330053913844 0.9846340269009852 -2.723362083391949 -1.0427096672931901 3.190193448572615 0.058657259267016745 -0.17568942079135458 1.0057632785041595 0.04361671468289801 -1.4185430872063678 0.22204888015473243 -0.15192625773648663 4.726608110930135 0.06711180793415757 1.3255207358700747 0.5994685252368308 -0.5580001532025689 -0.1356050441850102 1.3697394203338469 -0.6748757500221424 1.376621776294509 -0.8600882323048027 2.521848529137083 1.385822383306265 -1.6873290030160688 0.45475992425450684 3.401768600761724 -1.1564045609285514 -0.12745999640821337 -1.1853577229296786 -0.834899126429032 -0.13657237473455333 -0.12996744416022107 0.735195876235064 -2.5125584642436003 1.3554843835851602 -0.14244408246272927 -1.8504561964880193 0.14902783793530572
לחזק 4.605044255250135 2.6213158924364834 0.04358179279317354 -0.49570965277541246 -2.194346182002243 2.75772209054106 -1.3908884815627949 -1.5530252678856968 -3.0001296361923773 -4.085095449361266 -1.4357516515382813 4.2648600789906554 0.06853660784668122 2.052646774814018 0.07049004710005591 -0.15175968675805884 1.2214828700098759 0.20533368426661472 0.7183584612136331 1.5465563794754733 -0.4995841652772675 -2.4523273990568306 -1.3590854113587292 1.8669262463085543 -1.666153129460374 -0.6614403511609348 0.9077702002849347 -0.7287032278840263 2.878031362387414 0.28921737455206964 0.9087115888284303 -0.760311313742904 -3.116595792912914 -0.849896616953997 -0.7778124060152599 -0.02733436744943557 -0.2547822116702351 0.3955937652867793 -0.7808729409189152 0.7917436209742182 1.6034327472460221 -0.6986848921883224 -2.735541062222728 -0.2648969690712977 2.199373738568161 0.4789021340289227 -0.45609038895986664 1.2082950306965294 -1.5670216061552078 -0.23261025263397794 0.9483013869694527 -0.9793435109690958 0.6174856523151103 0.9216972208518494 -1.0748809888647268 0.15825000143128357 1.5577707996133123 0.42259435046844207 -0.04757682115581532 -0.26465756473503266 2.1352236777405245 0.1955599142845617 -0.3479316497650261 0.43609521537028373 -0.48511848046111256 -2.612376358562807 -0.7735257311337016 0.058712950590962446 -1.3878450827960769 1.848105345068711 2.618939171650333 -0.148926452018923 -0.06592285358179063 0.047368351868790494 -0.8665484646290791
להתחזק 6.999413816497418 1.4023335346809922 2.196109030293918 0.652089170093791 -2.5339198970339676 -2.721206408719497 -0.2411079928285361 -1.9373202448918558 0.36295611399174155 -1.8109903385212294 0.8949563163122543 2.2573631130652205 -2.7186269601528332 0.9489579570243704 1.5341834952653304 1.1433400550004225 0.5251669403991306 -0.03433422755821863 1.7540919843636935 -1.218509989404176 -1.6002770402825734 -1.4213215965514518 -0.33072640363747824 2.407907183993103 1.5766443377243735 -0.8338335894002619 -1.2588932346829032 -1.546083476219233 2.1914073760237525 2.0230686803123046 0.9187272473339989 0.9383056243431663 -1.266428789961401 -0.05811065686266229 1.3788109308612655 0.3789058223280573 1.1854758683069353 2.1658945866344967 1.3832176085829995 -1.0258323062702601 -1.2146258449943987 0.9593470189523445 -0.23830519374725864 -2.1018695175906497 -2.1212426879303155 -0.16078317498565986 1.0149603042938138 2.202684716059962 -3.23730527921322 -1.97495154556154 -0.9476124225978086 -0.29755414725101015 0.9438792171149705 -0.8302517127497979 -2.5346713488248818 1.1794814785686245 -0.5238660669273735 -1.7773247702400796 1.0376172110304054 0.2136263987924632 1.3603447722736304 -0.600174276854223 0.418758620292706 1.141012695056376 -0.8715168477486014 -0.5530836554352537 0.02558811522312172 -2.1731890972690406 2.415833438600966 0.5951629910583429 -0.039656008520336364 0.5631504651106113 1.08643883600496 -0.8354738984273564 0.29488901356812863
להיספר 1.190466503398172 -2.9131099191946848 1.4120302041553312 1.4808725398764477 -0.23792715907740392 -0.1769232093275528 -2.8798646072963865 0.45533745794424835 0.6390461898920173 -0.8009075566127181 0.31111372585559705 -3.2270578413881186 -1.6364689380613477 -1.336103311068083 -0.752426858995676 1.8031037395230989 -1.458365227428637 0.20725438534929425 -3.35276542794676 -2.59677066836807 3.6869102854641542 1.2179192774410676 1.3656286237348347 0.6645383009992656 1.2190239961981442 -1.9697202725134082 0.8990069121699972 -0.5486714629084505 1.6785824760722852 -0.5119217620037392 -0.0728753160544186 -0.460240293062833 0.051196210055185744 0.1861925680198556 -1.2556425243216052 -1.5081300217864715 -1.0237012028121535 -1.1917136554772474 0.20222119926489426 -1.4690292092587025 -0.205211821523308 -1.1788110141031658 0.10403172338407075 0.9078312319087413 0.699480345855475 2.1603459555081264 -0.8462332703940302 -0.34569769252844945 -1.0600511898927552 -0.2945093336370508 0.4620262926314171 -0.7407917483415947 0.5999791037309543 1.39167252097649 1.594115904980905 0.2313198460453975 1.253968241861004 0.4609489355780414 -0.1370124260419334 1.114143747874205 0.33016570532372796 -1.1225545410491855 -0.23622291728671596 1.0266782033181787 0.9367199965916713 -1.532179713687039 1.2152698935743342 0.8317970020661956 2.1487949458130426 1.8220003537622147 -0.460279137490702 -0.3910438567039612 -0.47803466110546405 -0.9306160345823529 0.03807627100440488
תפקידים -3.536529001456626 3.823272052846193 -3.5875513487249453 0.5576239610182694 0.6729128704833864 -3.8133317318236313 0.8466479894998823 -3.1562580185024314 4.413079070566155 -0.8803400033033708 3.0966386494866467 0.18845066234023783 -0.7563961027778641 -0.4827324958329081 0.8412654492331375 3.43446486871556 9.036809927846004 -0.6148732353017805 -1.2433758625123204 0.3371604456012873 -1.4495148748831475 -2.9813698658078804 7.631836556113203 2.170108365251633 -1.7518832410671592 0.060571265420295124 4.8644906898144775 -2.7557644438512363 -0.873836273839875 -3.073282988692047 -2.1060685146656954 1.3457556590026734 3.9011004894079435 -1.9202947407297486 3.847867453201307 -0.17777624332493452 -0.4724900255203239 0.8808772054947415 1.7750227387876776 1.46440898003987 -1.7588357502305456 2.9210383807611144 -1.011003747849837 -1.3947315996292764 0.9178647449194814 0.23194320648968741 1.8333403951653973 2.392956457758245 1.5415510590958217 -0.3891928273076675 -1.5839985087780548 2.5404938405769832 -1.5829126531060314 -2.4124220200388624 1.733930116998447 -0.23595650871249643 -0.8995317886977167 1.1034461506787778 0.000404054570639943 -0.32283132324601765 -0.2980538727726176 -1.0655339018882701 -0.6083626951321361 0.9198502202247472 0.5068382564103999 0.7744266762768887 -1.6240250939810352 -1.4653285761319916 -0.533647813900047 0.20949735458796048 -0.23418959706371512 0.761022532329194 -1.3701565103449034 0.9149561043354552 -1.1867007297434802
משכון -5.460974836451283 1.6689659837145858 0.17180464286688799 7.500580023423891 -2.5546909873688 1.198136271968041 3.69840826816288 2.508285607318544 0.5232916644473158 1.8331710348840273 -0.025851619591219416 0.8635175841693759 5.716754911956813 -0.8672544991470451 -3.575616505117086 1.4022904295738376 -4.848306528909954 -0.14966858495036647 1.8592796262438744 -3.389242926295245 2.210527280002547 -1.4471779601288117 0.8662076089090697 0.9818314641362007 -1.1183257606836077 0.2551648191292981 3.811499880664217 0.6278560500384154 1.2509908910065155 4.407317189842693 -3.2471058911058863 -0.0028285982160773148 0.37147542815005985 -3.671870516452363 -1.2715186438980612 2.3769552707821537 0.6774911018424207 4.0926146823281515 -2.7047136521598945 1.065511827215298 1.8738353684102087 -0.6502182422981359 1.4235457474701079 -3.112494459656174 1.127433910559963 -0.5217193149518777 0.7670034478262302 -3.419649202845948 -2.825318120809891 1.8245899151870877 1.0600011386031873 -1.4490066929481145 0.11239785726469284 -0.9700069221729819 -0.6740034562886555 -0.24402835400905853 -0.3731030704212785 -0.5400053603840139 0.3981178268479662 -0.6437504569840934 -1.0609286848480943 -0.8395126288510975 -0.4048132737308213 -0.2987291315025991 0.6207268566656212 1.4494360010475016 0.4991092673591368 -0.5135505279090623 -0.44317793152403107 0.19895560741434956 0.19637316567258237 0.5548857977367044 -1.0843028839170867 0.19889729958569444 -1.1793506418660673
למסגר -2.5864037961802504 -1.6006402716568386 3.4380740566759256 0.7702596798976122 -1.9332189178931418 0.39595873792602043 -3.9075342264437043 -0.7353653980462866 -0.23781043851379302 -1.1636737609400036 3.170124482659019 -4.220458637165854 1.1227706713546317 1.4508809875412594 0.265624398383587 -0.899037855618076 0.07964730249503965 -1.06161874811126 0.27888224870149153 2.233495291607736 -1.5870701359508144 1.7967467214325366 -2.359379161705972 -0.7786033139450746 -0.05939954856664305 0.4386650686749158 2.2889218670126117 1.9986597274997306 -0.916457084076573 0.9023063542383916 -0.7336794886192026 -4.187215764874947 2.3673931801226966 -3.636390258825219 3.6760341604273283 1.0073171035390507 3.4957166654546357 1.5283182016804604 -0.1132801554395363 -0.31963830104617885 1.8756590865459755 -1.8749313160717058 -2.821821280997858 0.8934756186010202 -0.7649140335747943 0.2956722986080605 0.9018302276172161 1.1916088892889571 1.8136400490302298 0.2313729316449723 0.8347675920679234 1.9978305712975188 -0.7778005158278437 0.5308621079119858 -2.0343370835495524 0.4561552276994284 -1.8729024390879554 -0.7798087543687208 0.048231565328073635 0.7940533536787933 -0.7902626417166622 1.0598340725045943 -0.322753650661155 1.3965033455924414 0.2201602044599758 0.17866472010043968 0.8506364268827811 0.09559441888645713 -1.913881486001873 0.514995716803398 -2.1552828517821174 -0.43003314417818295 -1.313866023231407 -1.9712525263534386 1.982279060097153
