מגדרים 0.054420769817120275 -3.1837647514939826 -1.600870512266168 -0.05099132042271171 -0.08886669699887007 0.6423514045338066 -1.8603957988617357 -2.264297439325237 -5.093507241831731 -0.3918061777332096 4.837729005528297 -1.4719671457054333 -0.5011168178697182 1.6665628331893518 -3.769851757417277 0.7113343288532483 -1.1125608041862194 2.2451250933990052 1.613419201417693 0.19065824970670056 -1.1422076971762956 -0.4036576028984617 -1.686746117949765 -2.2173372599289465 3.1068473261781437 -0.7362111655134724 -3.735891828678287 1.9051273563739812 0.9079207891892279 -1.0870604772871517 -1.5073563427492973 -0.9820360400630714 -0.3665944333633566 -1.487352601345007 0.5948225753856009 -0.5558353396181596 -0.9352487646341974 -0.34102071651358357 -0.2311514377310155 -0.01177362227462756 -0.9407724256720631 -0.39185672485488393 -0.35524366612627645 -1.2348123425550595 0.6018466167994408 1.7836129495367399 0.7919066325841796
להשתכן -3.344630612827538 -1.605331078945155 1.3003145451360323 0.12488768198862339 -2.971820319896968 -2.155080714468824 -0.6874793752327101 2.2042378540622667 -0.2025637634721632 -1.8889552078240137 0.03181578345314182 0.9473089046017543 -1.0037401981762548 -0.3460484878955104 -0.7299311159114523 -0.5555478788568281 -0.7555305139663286 -1.6151330364749072 -3.2802941474046365 2.964813452798829 0.6683566759187038 0.06809488332143794 0.9792014145855237 0.8958437060990837 1.035074651565131 0.1599972119627382 0.10151987125401499 0.45771495545970897 -0.8836918289146144 -0.33875905562446684 2.7226456097172185 -0.536422616643171 -1.2697284154651487 0.28649567619397254 -0.21835567102574585 -0.06359271522886746 -0.004523429783835085 0.02864316995000089 -0.8153174842887169 0.23785240110444564 1.2329950358391368 -1.5881275804924673 -1.7854260839860814 0.32924384438924675 -0.3082209900865228 -0.8612596596560815 0.3466271244200071
לצלחת -1.3090800228689092 -3.8590033676424587 -1.4013657022659955 -1.319817075600439 -1.0841461252760842 0.1553666375294656 -0.793525744103953 0.6616377505069803 1.9738765113936254 1.3755409372766185 -0.172560556632095 -0.6885332520690025 -2.53717137927255 0.7600160000361006 -1.2414010196774483 0.06607789040214752 0.28041260236357546 -1.579346391017733 0.8554723914816736 -0.8955309872373979 -0.3466568195363824 1.4626681326353728 -1.4160628143120848 -1.4151402567651366 -0.8402072890471954 -1.930097520441735 0.25684468822727013 0.9458475115026923 0.06843568849945744 -0.8431474515032372 -0.459937405322532 0.15358974380131948 2.190960756015681 0.5631960968946227 1.0866196408104265 0.5925998893244404 0.46040225286338 1.7411249650306884 -0.662452868455529 -1.6906806614143888 2.735867766938368 -0.9467073226358517 -1.305348644278222 0.6767263774273783 0.9914609392013735 0.7531218490009304 0.9247063452470207
לחזק -0.24431715752306335 5.471540859217893 -0.1649952385781495 2.12834188351289 -0.7720920928431789 1.0194493659328336 3.426518762697936 -1.4529582898379791 -0.6908802025229528 1.0669184255434079 0.10236615960874372 -1.2659015905961715 -0.7462400099136094 2.13965095297022 0.6154011873740076 3.2316542621089384 -1.1572743247666355 -1.1843680049936096 -0.33354296784513443 -0.3358679638331774 -0.17763639212636403 -0.026973438337686343 -0.6702933518816444 -0.9937910615456615 0.2041508371947674 1.5715187775742625 0.8084031909162631 0.23163445617823294 -0.03953263636781362 0.5079464896086736 0.5792843299159915 0.2771183807340173 -0.3430032557819101 0.04450899973805742 0.4561032973877327 1.317564306958573 -0.15235415284409032 0.12690256699562602 1.791644121858475 0.6540770741115715 0.2600628770148783 -0.02979350340205105 -0.5019045299617609 -0.5251444879958543 0.3362010297952464 -0.42755439968523545 -0.8074671376658321
למספר 5.728417083015463 0.560536088035895 1.1804804221415823 -0.3051632980148524 0.6404999780495797 -1.3772821783712974 0.23782512091391902 -2.309096996668307 -1.6894764625838028 -1.888323883400613 1.6978713966138121 -2.5172819643997837 -0.7967202117192109 -0.7933068822263907 -1.1927622639370814 -1.5840878646657008 1.8201196482088686 -1.0957211893019139 0.9851397758279886 2.206269271162908 0.8593172729817129 0.20969499127921512 0.12302834854429376 0.8822978899903584 -0.5255417690681498 -1.3285596491430758 0.6600451721305967 -0.021022385524494282 1.6125695220245733 -0.07885430485276425 1.2732215396455038 -0.4744894829162829 0.46836869683129057 -0.9972481892646006 1.0998023578627063 0.17647568601713037 -0.2537508452218275 -0.6621124030448897 0.9872921637599635 -0.9093046796183365 0.7663023624318843 -0.6167324877423068 0.08414678656724865 -0.14523360814274058 1.5030924010673448 -1.2657419495550821 -0.31728437625610295
סקרנים -0.8809548956026421 -2.2493892093827648 -0.05152261509199704 -1.087948590155943 -1.0067548952008036 0.8591971180261676 -0.6634710612035654 5.638542357519021 -0.6416769652440617 -0.40185056778060035 1.2900632821635654 -1.1322062659568064 -0.6244925371593968 0.03231354861671098 0.8529161305400585 -2.4152866872998033 -0.49567535355712034 3.4262691896639046 -0.8047240335564871 -1.2486574981681975 -3.279908738779042 0.6042591291700811 0.08170485757725836 -1.1401564259326078 0.3101297771504889 -0.5443222265405996 1.568568457236945 -1.4984765245135885 -0.17676430621252212 1.6667377697969623 1.4454839805397406 -1.9170268973208158 1.069172682149621 0.14108474372656418 2.2569460740872427 0.4268485345300787 0.8131101119541457 -0.597031632281928 -0.19827978705054428 2.347824419014341 1.2690767553163578 0.9696022559569747 -0.6013290109833983 1.374984729654633 1.0176515355190139 0.33324290166983334 -0.13731556223980212
להזמין 0.7131708220314708 0.8274537679509439 2.3272994487206597 1.0928557700816308 -0.11251633933031832 -0.8147104509878428 1.26500861217227 2.6446653113279632 2.186071261607638 -1.0098802387546748 0.7242431174303348 -0.018267478785670383 0.294127535832239 -0.4649541657717959 -0.1494387159056743 -2.356476829094365 1.4470797881856996 -1.506601886751571 -0.4276723246730719 -1.354925924905559 -1.5382892609007033 1.99230751495143 -0.6387383897379635 0.6894577590907216 1.6342860105061214 -0.05217986049717328 -0.057580578108185766 -0.04877918774949995 -0.3305136750824037 -1.1502147275926513 -0.2328704908804274 -0.15749732552868656 0.10432712636176567 0.3815320319271317 -0.09162720694401352 -1.7131263930909602 -0.8553938095510387 0.5816208170977819 -0.8357056160770255 0.29978218198749157 0.45699103635702315 -0.09672016852569704 -0.40573855836228984 -1.3222572143995737 0.5794097804320254 0.29169047952043864 0.5433150076170569
להיקלט -1.4480756410490918 0.4927890169806915 0.26839304066836983 -2.5459253810786633 -3.7258807981102384 -1.053118256253291 -0.9694244104126218 -1.0347168502101411 -0.08075605668179489 -1.2421299126886396 -1.482884875853142 -1.0204434469578447 -1.144247267881275 0.1252337974039747 0.8370187809009423 -0.4896635035071127 -0.41873910780359697 -0.22044919883729955 -0.60249398830813 0.14622671012959151 -2.0919696367676495 -2.69277552215678 -2.699777364974384 0.13745503558248098 -0.366826913884052 -1.5224542860301504 0.12986864857636737 -0.6466028173793695 -1.0471348722196427 1.3362959808659287 0.1884361241603142 -0.14222518504728177 -2.2945530780667784 0.9965063334734244 -0.22602506441502268 1.3437827494984822 -0.07631627157901952 2.126157818847034 -0.1565591170780361 0.9936288218739338 -0.8652923924311947 -0.2659554988215131 0.2890608713611265 -0.5073811332845564 -0.713406390175669 0.7802181398996539 -0.24132092971179925
לתקשר -0.28621874509107015 3.643794795640481 -0.6771031956875587 -4.153538858346037 -2.39191367878164 3.6299141180858787 -0.5807000922937716 1.1467985279483517 -0.1454332657637939 0.20220069342519223 2.385014076586848 0.15057805000042196 -0.6391880206334783 0.3964260168980194 -1.8194609968498032 -1.2781362063825168 0.22604229127338718 -2.4814527227613064 0.5371834969035835 -0.15220889416606093 1.1086626082463984 0.806133016427888 0.5670993680898362 0.07012970404849012 1.9467421795701758 1.7807758359290708 0.3055025350358935 -1.9138794179973504 -0.9377343733999536 0.5493266727651859 0.14927270077472268 0.43847580358014304 1.2383043998102616 -0.09353037550163819 0.6805427326775066 0.2035490410132396 0.26813580489772637 0.6576147384158837 0.02029626623453417 0.6378805709257976 0.4107806446000643 0.5841155979320815 0.29345394190204693 1.390527086128025 -1.0834499518168665 0.3736868171224131 0.11977042775398002
לפקד -0.5731184562817779 1.8894907952904887 -2.28953923595588 3.647643490105299 -2.218740874858758 -3.0145044976643276 0.2680897927932992 -0.5328509247497629 -1.2850780383741967 1.0243283462008748 -4.46337528652803 1.4449304113818842 1.3851462532665286 2.1108469814112767 -0.8289377630628959 -1.9103381759187696 -0.4452463676089957 -1.185634049187091 4.356299522376938 1.436909039078773 2.4840328000998633 -2.4585083947871875 -1.0042375155647716 1.4589028651040372 -0.9397172181143602 -0.027242695012779403 0.6114223459734471 -0.03945258724018704 -1.9992102723818699 1.641262092292681 1.241670356511417 1.972351427667131 0.7571585865691521 -0.3326768315614682 -0.4582652071264414 1.7835249830150797 -0.4335239699169558 -0.40144492040128393 -0.8302806087241271 -0.08286742530238399 0.38584911222927365 -0.6709101429404387 -0.6465524485950834 1.728988548864497 0.24948675152831398 1.4946015527688974 1.9769572326183296
להרגיל -2.708679613054679 0.7064505255689496 -0.10739580870558155 0.9142290891946931 1.1286709503770218 1.4047916427211389 -0.3121949868113081 0.9952848159221213 -0.2848007763199907 1.2838617397720702 0.3664291829671039 0.653598922258284 0.17256683735425185 3.1028417670921526 0.12266110640866455 -0.08641598581519319 -0.4681401317144838 0.10790325545905761 0.20819691491887568 0.30704898958591104 -2.2187580326161926 0.942440771166191 -0.16487679705794245 -0.9457303273416423 -0.07542988794384815 0.2928471174522836 0.825238192150907 -0.3991693635922821 0.5136167396421736 -0.15687036441208568 -0.7296451250386281 -0.23532876655831655 -0.2925260520269658 0.71088519587078 0.9226538138653577 -0.11325823247620675 -0.3366923851281412 0.22242592140157846 1.5275779626610142 -0.5725685515535258 0.30320977886391665 0.8577169769935646 1.6057613719782728 0.5235706428554783 -0.009334197602738493 -0.5353890865365639 0.3123013228467367
תזמון 2.5889300683777137 -1.04265477438607 -2.250498350123384 0.7604561124451693 2.553196950916388 2.095876344232351 -1.2564626250074824 -1.3574502559001647 -0.5229696395468694 0.22075014241421143 -0.6836543684287213 -1.6854915284271075 3.807951972071505 -0.6922653183798109 0.6466436543098437 -0.4306949269088649 0.27100017717008484 2.7862233201721702 -0.8813886391911903 -0.5334337096674435 1.3606546883501152 0.7031674197401334 2.31270705865311 2.8140557729011637 0.18362926433084165 -1.2697599023180461 -0.3652103602797114 -1.4853106346851879 -2.215951906915104 1.7176081240300056 -0.33937089886479116 -1.8180375018322843 -0.21651895825103018 0.05978839773709474 0.6279069064592258 -0.27047819062599404 0.8076552909970345 2.4457240088147767 0.9047863204621479 -0.8846703250201392 -0.48047982681210877 -0.4929538495962414 -0.7184139099885375 0.1984942327290131 -0.2890151809597025 -0.9911820930295134 1.0630763282211302
לפקוד -1.0374763675442218 -0.24227881291732728 1.9892698554092951 1.2980896270691187 -0.42368181343021594 -3.6636530181040303 -1.6008454532057443 4.0147075465642414 1.8284375685734622 -0.528611667927745 1.9185640431556674 -2.6701468548100737 2.8150711452562565 -0.07353845522312187 0.06969422264077509 -0.28975373035242324 -1.385198106285873 -0.9103641143582608 -1.277027238025583 -1.0935370861067664 -1.0970877265686698 0.8305808159316843 0.16734811026498986 1.3570509998512854 -0.22810172336539936 0.9447408820267695 -1.456476900504585 -0.1918923369078132 -0.7198745005580097 -0.6553939748907063 -0.3603018155635492 0.9994885022772658 -1.1130550037238742 -0.14787719108291886 0.5690115032286142 0.9066567105004056 0.8820173541736831 -0.6681280319988233 1.4950442836737199 -0.012551924310538207 -0.05977521451484423 0.27391420776348124 0.03376413401528437 1.4653101490900091 0.7489111417655783 0.5296804547558688 -1.5508493896621276
להזכיר -0.2141504135859397 1.4927618891008034 1.3613629047667901 -0.9563808190428292 2.883264162286147 -1.91981287601275 1.3053870852735476 1.3540929645232642 0.1830853415899627 0.9243808338427395 1.456690850849473 1.0189196352997674 0.8690408279276242 0.6076507580806306 -0.46401452045840497 0.5895818208684098 -0.2492954411744436 -0.8270083902764741 -0.0923159521495481 -3.049147476831677 -0.44933532823413547 -0.5799800545545484 0.6636800194726603 0.7242070418245576 0.3535345395503059 1.5797956989972872 0.32858302891231295 0.8439120384631246 0.7459779277008598 0.40925271876012825 0.16257454989539086 -0.037456768021328746 0.19492912205953897 -0.8115330079349007 0.7178881828079234 0.6144781740814889 -0.3849831052430593 0.10400544554220366 -1.1478392498729175 1.900076437516068 -0.45386186098233594 0.08042728653398784 -0.38169002328955826 0.7200558882246568 -0.216568796308226 -1.2841856896492942 -0.09125943644089805
לקשר 1.498098707953537 0.5534359952517892 -2.1109391628062157 -3.5509173073727536 0.9838216983647935 0.6346362382376128 4.205606342111512 -0.12813449082206835 -0.5632468387278194 0.7810630422782698 2.081135999884403 -2.2813666942467177 -1.9133429497394412 0.4102176534975773 -0.13925613408955323 -1.0802666451654763 -0.5859353074518253 -0.9443589951603812 -1.0832806779882984 -0.6276581585393293 1.5702626965833713 1.0630074330222394 0.7320260051315229 0.5722196281353933 0.0015848692106838454 -0.16536788171105984 1.113327261912128 0.4466076983502452 0.8157437553676629 0.29764139365552755 0.1194271365047726 -0.5748727066482942 0.289879369084756 -0.4453124519102497 -0.9118343404022317 1.8544358537179668 -1.1125260535697734 -0.607009643180734 0.32878633005071517 -0.8243942580050689 0.37295769140014023 1.141516615074272 -0.42842824859294826 -1.8092551387388671 0.6843769609774465 0.2336163563608696 0.9711024232976468
להתחזק -2.1118184068489194 0.39221483963591597 0.9700082707289046 -0.28331339257473276 -2.1527957396629938 0.41307187509528065 0.17733111778162663 -1.45797212202961 -1.1507228246500147 0.9761849438433146 -0.0376761971784178 -0.8051124518147873 2.9318117796751975 1.0934651092759426 1.4331623428603957 1.2070152614523075 -0.5525111858244448 -0.004857333001438038 -0.8198898890602981 -0.4503331110983339 0.7443582790812047 -0.9364453749083874 -1.1124499292504473 -0.4464829428010146 0.5295368043790472 -0.6708608616190275 0.9792602192102426 -0.9165338380234526 -0.18591155978782395 -0.9615577935245789 -0.45952757409970485 -0.3749047047697011 -1.0308013194052867 -0.6651109056573782 -0.51455699756347 0.11093656411511066 1.4475914929026181 -0.9500443476302829 0.39944575528841 -0.9406936752245993 0.7685701792672108 0.0911996824573177 -0.9120544642902575 0.9700189879691533 0.7870616154007734 -0.24311359093655938 -0.02295006277020038
לקשור -0.4395910427892509 1.606068710157621 0.19781272953606632 -0.3952542500821696 1.5332936101228951 1.9137833091268333 2.0366171445914607 -0.2325067493833051 -0.6245733157241875 1.2126055404001435 2.526732714522029 -1.9202004031070878 -0.9430336671587006 -0.4969794834461226 -0.25299353143622216 -0.14819607508290078 -0.3537004873649095 -1.146291443373114 -0.6406066254921549 -1.2966441060613811 0.6168946045780908 1.099099309184544 -0.0815166080946576 0.5872488772476508 0.18099693645382717 1.0389008503461978 -0.8863498122308372 -1.951900093626414 -0.9110711494810606 0.08698782188164106 -0.4793982251820113 1.4992752395849558 -0.9450704709751214 -0.31686197764425156 -1.2357129443678971 0.8724391685997891 -0.9502119182736561 -1.2919973530645912 -0.21472266046977548 -1.0407585621776767 0.7920118266488868 0.9203578893664367 0.21003217190039786 -0.6175619544284044 0.8629891553342397 0.3339835812664475 1.9199350613034782
לזרוח -0.9940589465736744 -2.5629816028407126 0.29148881802895155 -2.576198080962208 -0.7014518514726213 0.8615317416636482 0.29249817628305086 -1.5418425778530505 0.030283426362778386 3.0768543146800518 -2.0413436134400658 -0.5831411819336818 0.20100792472830445 -0.7670054804382089 -0.39039486736750634 3.7082218863518226 1.902182683678922 0.9073415490617939 0.40168167604059574 0.09455733844560191 -0.09573648556962942 0.6304024375764893 -1.33606631448114 1.2978812207220054 -0.3870154389560711 -0.6645935359471657 0.4263961946395863 -0.7047196108994898 -0.21445032946022705 -0.004462237031833597 -0.012957570009974858 0.8374711553621922 0.8245154617360092 1.813047672422611 3.492227337271313 0.45957479660312067 -1.1921019481474324 0.48881566132978055 -1.7674740549221872 0.06071081994881388 0.04208682492651322 0.7152738620469149 0.14137030786933974 -0.0212407681652632 -1.0757835595215277 1.0580944511591872 0.3185265415827311
לתגבר -1.9416108836499233 2.8199855401640894 -1.8733022085368518 4.659300613177362 -2.0434557689327524 0.7323539269553813 0.6796565344026502 0.540814415404597 0.4321641318873789 0.5144075426485852 -2.3871572129926797 -1.1518475148887402 1.3200832867591454 1.5330196567799521 -1.3831350249735668 -0.5988909598917763 1.5567335204909256 0.26762253659587726 2.1678352974703707 -0.2648333765927939 0.8219306515690291 -1.504377181451106 -0.9067239493091224 -0.8353452011254813 0.4126489540582868 -0.7585371417296441 -0.09122427204737582 1.8611327597027465 0.9029240812774263 -0.1907392481135929 -0.15827981935025923 -0.6269900834211278 0.6516881371008084 -0.2737610582021896 -0.29022049414933504 1.7731559504476064 -0.00036518742450376097 1.5370258119379838 0.21889212343181158 1.6029927600770715 -0.6179081488829217 -0.014295535883471863 -0.9478158450779502 -0.07328870546289633 -0.09093390981067684 -0.43246454374052623 -0.08588959489529842
למסגר -2.093510350580425 -1.2716639750290961 0.9090550732667801 -0.8424575050743367 0.45973053618654197 2.4622208500648366 0.8228311407729295 -0.07323970283755714 -0.24849282398117095 -0.9088642884510034 0.32008981717335955 -0.9186257726562531 0.8545043142918056 1.3006679920523958 -0.10358051678187999 -0.733311708284686 -0.33041074653089625 0.5041332262443865 -0.03725904315099499 -0.05133615743139968 -0.6633028335527178 -1.9191837793791886 2.4785261921085446 -1.896850646395402 -1.2829124958420584 0.4093269193946746 -0.4734490244944082 -0.28878452700055346 0.07317748995770529 -0.3168514759301637 0.6929818436510443 -0.7310385671289716 -0.23895192137862326 1.7780571518217705 -0.3330879924398182 0.13169736890567554 -0.13613309427116896 -0.6892865688192947 -1.4565292007505255 -0.483933130192739 -0.4385057197641251 0.867602515687893 1.6990132158674565 -0.7060375525316297 -0.3297741456934018 2.052883463010888 -0.6190749768250595
לצלוח -3.2119672564163717 1.0287280606315181 -1.3893001177532247 1.99460395854528 0.43348805300133214 1.9008796838988926 -0.3201342831539901 -0.47671022711742317 -2.4038664019541622 0.41707536096282755 0.436064011229409 -1.1274280886176253 -0.32760205366075784 -0.5984253237584513 0.5005009916404927 -1.070344904317277 -1.515312673694718 -1.5358669631169455 3.4486535668822684 -0.19994732929366268 -0.586708033482171 1.024920163445529 -0.038081932978483696 -1.7229248897163516 -1.9210883833129393 -1.2628987066830668 -2.6664276868181296 -0.5637750773207814 -0.6838552678238544 -0.2897414020064567 1.816405841206225 0.8718125055727187 -1.2789279451798847 -1.175932503419533 -1.3005247816676284 -0.005766753399993676 0.5362536446405053 -0.3553908129688035 -0.38108565713352616 1.5789930171348683 -0.19541573288013842 0.38490375269290444 -0.959570272318245 -0.17840279498730233 -1.197833139739254 -1.44598238826351 1.4430736074570298
להגביר -0.16018925498272313 4.45269617947541 -0.02452129339368394 1.2405313309117725 -0.1696162628593928 1.63419428789075 1.2263251343284152 -1.6745661534965557 -1.5430354425901822 0.8951562867996181 -0.2832053604629009 -2.1590495529543303 -1.5975776614359962 0.11543488320187124 2.0935422382010445 1.871572699163868 -0.12612166095548744 -0.7038538866130842 -0.274760532052872 -1.9218580812725832 -0.40031814396563026 1.324669015106794 0.4022789985248912 0.06377153561395973 0.5852003627483384 0.9900081522056052 1.9277058156374816 0.4413537662033053 0.05420755505218371 0.26399870799763625 -1.2757540390853777 -0.6583674593812021 -0.30782739871873144 0.27606667403892426 0.7941312175745827 1.0436100181300327 0.08263739178465011 1.0265583946815313 0.13043745870552353 0.632367808741399 -0.9497974629936267 -2.151624568838952 0.3179603293511325 -1.1689662244012806 1.5768662116615269 -0.6807908575456149 -0.6325415198920928
לתארך -1.0339574808838512 0.9708901696354051 2.1617044939112273 -0.525549730207609 6.345418924159382 -1.395124006982316 -0.8645632333206834 -0.07285643642405037 1.8677805653649073 -0.43788495888469736 -1.1090287033660482 -2.800503195418597 0.3497508856559069 -1.1486951434940016 0.6322747148545382 0.8471600833882806 -0.3746155469569067 -0.7065037878243967 -0.48232357683115895 1.2745192485488808 -0.7985477021776344 0.6992775172708768 -0.6395215644909399 -1.132295778237845 -1.289433158059753 0.40870986816816 0.3634304548444642 1.0218640785061541 0.046322007169641626 0.05988906638312006 1.7426643166502522 -0.6749786848605838 0.6381642673712944 0.440186578254503 -2.5620396392124873 2.315197593406674 1.3356399839153907 -0.526832315679755 -0.4777443469694034 -0.7387509144842628 0.7537144617170871 1.345342295408635 1.8610889766944219 1.014752076798302 0.36937233788603907 0.1410575544046325 1.5701952569798396
להחשיב -1.9140594162823144 0.24733381330723325 1.6028120771105079 -0.2928302501967122 3.4314949664991543 -1.478293171947667 -1.9370885522276162 0.6718735324686607 2.622134468367605 0.46380466574543827 1.2494863352364638 -0.6652146469895919 -1.1283919765207295 0.8506157461269179 0.5595025025430915 -0.31700047071763376 -1.5304594562564449 -0.054122438804450494 0.7113482431209379 -1.6441684494297273 0.1839456198632625 -0.868654341702433 0.514834160186524 0.7953748719334301 0.8152832199768096 -1.5478670801100012 0.01564255006835136 1.0042759882017802 -0.4004927947042799 0.4590430902421709 1.443791663308225 1.1431107931004143 -0.2425097136061294 0.5018417248914462 0.04561035364929207 -0.4572363414446774 -0.557649484885903 0.15723141560824838 0.09361699062096586 1.6066909542830414 0.13725232340148835 0.03847167416943605 0.07011590166748116 -0.0876005971070876 0.8848291927314433 0.20868613908424843 0.231347753815819
להיחשב -0.9708986608162796 -0.2913203663073442 -0.8560195954718565 -3.263750190155609 1.9886418769956957 -2.413181663161099 -0.12776205115823316 -1.1270895880208962 0.5220447602763405 -0.8234846655718788 0.7848852121445832 0.31049691996842904 -1.9789093368975046 0.27560669333989524 1.947841302303323 -0.2928436778471031 -2.0587647849390116 1.5673477789255057 0.9767397846612138 1.030327511772887 -0.12581158051570546 -0.09414037701978227 -0.5928039056517769 0.28027470195841026 1.9567665325252435 0.0629464822979595 1.0921468750439036 1.895937758236069 -1.5316939636834044 1.1691717502345704 -0.6455396376945823 1.5082247933283828 -0.34250108894260045 1.308993242129924 -0.11263515954922552 0.11604183898637783 -1.3925135783364544 -1.131360214162696 -0.9896571715175235 -0.6340784803058321 0.9037187079959249 0.5691778089022783 -0.6903772259646777 -0.6790163540192123 1.0173744888435694 -1.361304857646012 -0.5393767443189406
לתצפת -1.5193577717986075 0.3957038308102461 -2.0082336317028786 0.7024031939874607 -0.909775330389401 -0.34484921989081907 -1.2095520048805704 2.0459289834236944 1.1976244511974532 0.8964727799252206 -0.18600764698705155 1.6248863749755804 0.8209320173912994 1.2641477522960196 -0.9092490297744024 -0.24537721266218035 2.2068755741297856 -0.01040655621628118 0.8682886742676486 0.4312093828218388 -0.8601633157149309 0.5592210553561481 -0.5533222217956096 0.6740033623451009 -0.5558098975794784 0.3157578757530037 -0.5307858155477534 -2.06595714056028 0.6981162053774062 2.4263118891522493 -0.4373347432451733 -0.5421017819850572 -0.521976369552203 -1.2680000020672262 0.14024367798935966 -0.36814968523406366 0.8251693223714841 -1.1682728750261295 -0.6588860394114028 -1.1554703208109378 0.06761209601382602 0.38749748070933926 0.9029440619316165 0.04626090792902999 0.7365164697868205 -1.6915326114413038 0.23331047717941655
מספר 8.823066766386445 3.2196353269904754 2.0620824867779883 1.707953010746373 0.3292627671885952 -2.304774752604915 -0.12453780086789683 -0.9364988179617366 -1.3779506801208603 -1.282336992037578 2.6215560743382915 -2.322874430932124 1.6742811414122922 -1.6171490924925092 -2.4616926999327347 -2.5107306077230733 0.36779418164181177 -0.880290998954669 -0.060549023063616134 2.7669510438148057 0.03778618180475086 -0.8990233778788655 0.057985978661236205 0.6333359174323846 -0.9991401275390861 -0.8087466550654685 -0.3352445017513533 -0.38146557986736007 0.8757614306003637 0.24413043122591233 -0.3706042514090208 1.0719247409040837 -1.0985492518673317 -0.03199864871870989 0.1559365727870817 1.1903486021821104 0.8197238230113132 -0.1421690695178218 1.179023547948624 0.2040619582505367 -0.07907867242433553 -1.0116012279704834 -0.8712797960655422 0.7903425078905422 0.09487220433794069 0.01947163636396172 -0.8466408443036887
להתקשר -0.7692168472237826 -0.012653764076536305 -1.3307258116349951 -3.2598838672992274 -2.4196935867694815 0.3704789302313763 1.2867588524129727 0.0856976221893771 1.1304313298187454 -2.2570264761407173 1.243715026915841 -0.1269186417266557 0.4850644114035312 -0.06259066034404527 0.18649871674910937 -1.7051772514898575 3.6680700053570163 -2.448443480977267 -0.06917234282531644 -0.8214086568637321 0.93099765372164 1.5773965483755923 1.234807413550281 1.0079662201009612 1.5606326442340877 0.04481628785848052 -1.3710579166160142 -0.9279915628673939 1.4177460627057221 -0.44583689951564975 -0.6425116328891826 0.7778397041799168 0.2356534866851853 -0.44479492647441543 -0.8600227302917757 0.5509294959279023 -0.4793584529579632 0.7611513745266316 -0.8672024284183809 0.24637800601711227 0.8913732158506543 -0.2735241483758014 -0.1335675300164618 -1.4458964394026237 -0.9009214051068498 0.6538951449285132 0.2028124227594032
להתחשב -0.8166725207271017 3.3114589574750615 -0.4802138706346877 -2.2965769873461794 -0.6265579870450041 -2.0757559562528316 -1.7178851084308444 0.31212081870223807 0.9338741388595634 -0.6204440184183951 0.20670604717416893 1.0986862200402803 -2.052252067181243 -0.8939992206494249 -1.2173930256383847 0.5021912611953456 0.11511002816303285 0.37434175523927055 -1.168288767349583 -3.7540006366826435 0.778343659649423 -1.3189106543844848 1.6311336567900103 -0.7552721357458788 -1.560114673520186 -1.1404464320406342 0.5577707889041917 -2.312851438845947 1.6358842851776134 -0.10814143639114414 -0.17951356298339013 -0.7575909115650226 0.06706300237360152 0.5526359785875053 -0.4868113733587381 -1.0442179348118905 0.32314076963937277 0.5190661272628625 0.6466922127875533 -1.0493587528791382 -0.9552326291002161 -0.6286458924595402 -0.9841256473445386 -0.1321780720863308 -0.07544295940695629 -1.598899940550807 0.2302226855877321
לתחקר -1.6312473817554332 -0.3704217462093625 0.5843041122486057 0.9451325378227492 0.4436584683678139 -0.3877576706742081 -0.5860413463408161 1.8448969124780525 -2.278511343863831 -2.1796414552795245 -0.8304413455921168 -1.3930136099296035 -0.2018694582317831 -1.3143673106385558 2.3780680837716495 -1.7084164876381558 0.916465567839312 0.41754614617567853 0.02647099571556029 0.401654030559277 1.1160217509635868 0.3020598777486277 -0.2358268981644968 -0.40210683596024605 0.6674203992913751 -0.6530005869177189 -0.5889315030222674 -0.01984299374710681 0.03552337692402471 -1.3355052017791744 -1.2796097403574258 -0.3700375131507946 -0.1694671518338129 0.3979409850948361 0.3291299307731402 0.42079955440197503 0.12419984263735931 1.0734603506592713 0.29423783493985367 1.1659775971421793 0.11486706354318554 1.6838670143683205 -0.8057907216703653 -0.15289508694630818 0.1228484700642173 -0.06422133268803551 -0.12040860596629888
תחזוקה 5.04515157692007 -2.2428337320080636 -3.5119932046099667 1.673013432085777 -2.8608552171231056 -1.3427680825324395 -3.298217201049778 -2.439218115568122 2.6349020996939947 1.5126671501169355 -2.0804109164859215 -0.7678018369807788 0.4843575838303312 -1.0163317871262127 1.8149245421670972 -3.3904498503770157 -2.8537385875792847 -0.5442920067184582 -1.2500615493072105 -1.4473097856346955 -1.5705365172378885 -0.6446033179182254 3.4365091534799213 0.6734337687457633 0.6239532543964618 -0.1783940692748724 -1.1217361448241951 0.88531368152121 -0.9833334368595873 0.867733827394575 0.6090226716529231 -1.1373685849709563 1.617551414019362 0.8105122327265571 -0.24469525864669586 1.0937672499046125 -0.6797610886082318 -0.6092385619231763 0.06087342561797678 -1.663843648282358 -1.5904644785394084 -0.10193494838872554 0.020183028964230437 -0.3958519441775955 0.20605574986584144 0.17795752059329228 0.860185910547598
תמריצים 1.6336834812741294 -0.8309296603050776 -1.8815516472617133 2.4437611969182007 0.14285826896555007 1.6692452216262244 0.6354584372824562 -2.753084421224124 -1.9182865323927525 -2.6322388027555395 -1.3648568018523013 0.25057099007239847 0.1031133768797146 -0.7433554259942508 1.7296641300394167 2.2084683010897552 2.972465531170387 -1.8879516174715527 -3.5302964377930266 -1.6070728204939724 -1.169299648451106 1.3149332304106327 -1.502229051854367 -0.7815435286948352 -0.7646351825937132 -0.2879324487869898 -0.696030992542862 0.6915642422570164 -1.0829030113343276 -0.2120225092525609 -0.8182205109469164 -1.0356577104257196 0.3919919098868794 -1.7023313880453206 0.25000474337827416 0.6903628892533835 -0.3795489664777227 -1.1222547124262856 -0.8018711879636774 0.027075200466535918 0.6720444187334677 -0.844762615845808 0.45780175758605574 1.3641207834760944 1.252942664442247 -0.1009254489643423 0.057427136426713765
מלכודת 0.007647318068740558 -1.5314024912914506 -3.091934008456108 1.0352777351998066 1.481825877019824 1.33170676954704 0.4278225091448644 -2.3800805767108213 -0.7311214166609799 1.8156994219823395 2.260383256352915 0.8901134777940792 0.7180834018364158 -0.717125137077447 1.8863641071548496 -1.4104354679207063 -2.1137667785165397 0.9087573509381615 -0.04438284290723088 1.8124235471165835 -1.85078799241103 1.8144868252411104 -0.5863689014958944 4.683471857743721 -0.9725300360366617 0.3399573236407999 -0.030876106068574636 -0.6739980108686723 -0.12448851911361083 -2.2897285928241256 -0.39315290285058174 2.523296467142233 0.6055383545153264 0.4558444752668934 0.6181990896689736 -0.9091687348986359 0.9057802666853406 0.3547228510528531 -1.5213781858532645 1.9764142374603801 0.40082207868754155 -0.49078124816793106 -0.5649836403276375 1.2918526758749427 0.27340798730594684 0.16093370406470445 0.7670477785877416
תחקיר 4.633479779185338 -2.7971419515419598 -2.4459680886980153 1.043770455261181 0.8139948746975723 0.41525099296473716 2.6259311491990087 4.992360621466382 -3.4613913072867475 1.2240958576311751 -3.8415105708493287 2.2738098402330484 -0.3905277926725779 -3.6495076489315657 0.01897913555468273 1.1143757794012907 -1.5892555189180335 2.7007999919906727 -0.9114805909716281 -0.9880533724438428 1.021431204108149 -0.768348620457294 -0.5409813641394152 -0.8292249575836335 -0.21303065808157345 -0.6326764663158132 -2.7036823344987875 -1.6987563645709847 0.41457472700694414 0.3933053929946402 0.32026795728053303 -0.24837151276393402 0.8033869698704599 0.5009703105682816 0.5616888144339296 0.6438585580434016 2.388682879291829 0.07318296858837896 0.36343124816477357 0.4961215572002122 1.3192648128677842 0.7226628787194627 -0.0030870985925324453 -0.8417564369875215 1.121719299244574 -0.4163737977523872 0.3286866889682004
תזמורת 5.6271653802495 -1.808355698184539 6.517163037725134 3.8437832539303285 -3.415641886128707 -2.0337589126623246 -0.10495374760713923 1.2230115765769909 0.1137921461047566 5.145323526360253 0.9024444527072901 2.480484806699411 -3.794356697586088 4.881072029396456 1.194574068503237 -3.0828444851390846 -1.8460392127473593 -0.6598117362040348 -0.9036463928189452 -1.1735331810626621 3.3002141772213776 2.209357562644299 -0.38206504363251514 0.6856761231281667 -0.2802504520029847 -0.07662320718228821 0.7732043292079066 2.3506824426947435 1.5362286499508855 1.560194795382168 -2.1241398043986286 -1.3762418569678856 1.169519965142837 -0.7576806869561485 -2.097016082008387 -1.0466405737696818 1.210262324589229 1.318705158820011 -1.6089142714964335 0.5101336137205745 -0.279252912494504 0.1653876318317196 0.6088207564074436 0.03457396206476931 -0.463142527032899 -0.334080021057109 0.08149759135153403
לסקרן -2.289424602840201 -0.33831437806729125 0.1584465208083061 1.6061926215740514 0.7436427815923995 1.992412358750331 -0.17117915935809275 1.2218545444285318 -0.7574206497520891 -1.2590952714626704 0.5807561892798907 0.9790371154837022 -1.3904560965574664 0.564848382826957 1.0161599729944435 -0.12623590147039118 -1.146787291287666 0.1902167640487588 0.5293526339697238 0.48646289850603636 -1.0123868614938791 -0.6711636464630799 0.24769438980246986 0.29026777271855186 -0.6594530254590683 0.6355795957225683 0.5945856783314977 1.2371106058346983 0.10215091274158561 -1.0325644056801473 1.6863907811883754 0.49758507918548767 -0.5873733779816834 1.5646446892991548 0.5495895735963258 -0.17674357812165833 0.5716027462311678 -0.39525624212496013 0.26818228356314816 0.07732978067643967 -0.726955605824549 0.7378439359990031 0.3883968533310739 -0.18819104281035398 0.8497155449757271 0.13282516124985197 -0.2525193374380446
לתזמן -0.9612498062659758 0.3638647575449174 0.2861876388505259 2.6422588407643546 2.298726002393631 1.5587892724844234 -2.0910471640654564 -0.4846133900704234 0.04072078708034829 -0.28871630509074575 -0.7408885992062294 0.22398540691183744 1.2453009817409888 1.2888870113022057 0.43115365271245104 -0.6091334944358864 0.15524105456075327 -0.617795186130188 0.07833114904654305 -0.1954315287663464 -0.9721878975490125 1.628711938749387 1.348753296381599 -2.526382993942993 -1.7824788811623944 1.951826922847455 0.08342507669627025 -0.6839127084595918 -0.2818579782776619 1.109613270517229 -0.41627276594833923 1.1057543499253313 0.10314337758964216 -1.4619059945628443 1.2061431223796937 0.652459124572167 -0.6212644602226193 0.5331640809797804 -0.4564635421641732 -1.2607660693585168 -0.009819969791725908 -0.1325647125522976 -0.9048448073079514 0.5576049397894204 0.41905654594219 0.06168187102545214 0.03743396826575002
להצליח -1.7088620666242607 4.62969109906974 0.8257753457653186 -2.6041236966846966 -1.9971624848150444 0.5530729168885081 -0.21653054806825173 -1.5021928859899596 -1.5013688682736412 0.82093224331595 -0.129383025613836 2.2268710266191643 -0.8771305259239305 0.1348524645310901 1.2786715581098347 0.20550928419611159 0.16425336052420184 2.0102757621679954 -0.4501815602414035 -0.22529195090221146 -0.6980261121456257 0.9276742828812256 0.4511186455844993 -0.2422444615668098 -0.11671814607059139 -0.8958676350042194 -1.0792938378411865 -0.6084977218995303 -0.7509097034965847 -0.7370693294247487 0.6430442891385472 0.4616836606639238 -0.9382089055519907 0.9827743930011296 0.7350672217559767 -1.4382390116886963 0.8154636726250458 -0.3728061010804945 0.8007662004226356 -0.8809213994303948 -0.09059421258007008 -1.2339586679082502 -1.0179567208929454 0.4236696039834507 0.6827028833786175 -0.20163325454031836 0.25659818640879867
לאזכר -1.6361887430827382 -0.6134735226592334 2.2586012654016026 1.7282222216292287 2.4052617989935663 0.8957948905513069 -0.12467770953444117 2.27596191280258 -0.14723390041732498 -0.5727017903634655 -0.28954205486277573 0.16041808074347177 -1.124128491594149 -0.2293089652708331 0.4723939811364718 0.6739750626267428 -0.4547462808932045 -0.696906546915689 0.8688038409133935 0.22385184107321185 -0.16114813604130593 -1.7511163765312225 0.2670813278298406 -0.6452292609669051 0.13025466862368543 1.7379548762349695 -0.6714247768580328 0.30567947626668446 -0.9929166097083361 -0.5024554813122031 -0.4173926668687382 -0.27732231945854163 0.20935567910960634 -1.6884753917099158 0.8022396614079388 0.35253247816142974 0.034987612039956435 -0.3581376318483986 -0.1443467482942241 -0.5564080469870466 0.17086241224990215 0.24347957488443256 -2.2050025540892983 0.5360563125312159 -0.345616609095018 -0.3113219946502447 -0.18877121421536228
להשכין -2.4017785167689905 0.6785233419496337 -0.0942303935725679 1.0895039571832232 -0.6906725555713783 1.425882852220159 2.497439643998925 -0.8856758478086177 -1.487201381625352 1.0917561935892888 3.064092551225411 0.67817505132867 -0.6353853841665266 1.691712958713617 -2.7150531733269987 2.8600616119941487 1.0454973481453433 2.0790922149898843 -0.42804550168065786 2.6344289921740134 -0.17478968023456706 3.760215881516581 1.4747556373636421 0.7681776854840435 0.30745050335738383 0.9172280335003934 0.12167920857156168 -1.3462595068985685 -1.3980190139968127 2.388557392931521 1.860072956346534 -1.7651736413597425 -1.130053892398373 -0.5635457156486587 -1.3427486486049158 0.38177488078559374 0.9494574017145688 -0.6730012609261273 0.14615273504574222 0.9116661489361598 -0.3270345412656856 1.2724904724318995 0.07651876854245446 -1.0955463357911883 -1.5106824260073286 -0.48760289370946797 0.6897332736225175
תאריכים 4.180117964793262 -0.9349782557609064 4.658159462414804 0.8842338610289495 1.8758233250833445 -0.8355290840917183 -2.986896758045705 0.17688401975281168 -3.130527778567223 -3.056771422942296 -1.479984662676784 -1.5095059613145991 1.7610305022904664 1.6119292843728557 -2.55860129079329 2.635530262274499 1.542120725698553 1.523707528268259 1.3541634652766787 -3.0801309357627082 -0.7034414177425815 1.48424925545751 1.9725034697684416 -0.5262881005771384 -0.0959422215261401 -0.12356475574939332 3.8526812764508764 1.173776240220399 -0.6698434886086189 0.8447028814517568 -0.2727185769632733 1.0313778343265327 -0.7081980003232563 0.2914371426021029 0.4178240206004542 -0.20287284194254607 0.6645921051344545 -0.3412203624503589 -0.6137287528422803 -1.0217941835791073 0.3284682824967337 -0.26988542214192657 -2.0631263079727766 -0.9094964053401783 -0.7532216016834145 0.42728428752911846 -0.8172769440194986
צלחות 0.7978152002776634 -1.9905619587585872 1.3504025554390322 0.8493723771863202 0.9356370508314962 2.8253289375730413 -3.140084068643206 2.0195292049021933 1.8438545761181377 1.6566155965917704 0.7693620758319569 0.2284133352897844 -2.6808018901804527 -3.0793234120750785 -4.191904907365349 1.5491307188589776 -0.3808788302200258 -4.416835869030603 -0.03952995113580025 1.3968916549742427 -0.8620404007567594 -0.9119290118720443 -1.0494890900950538 -0.07979600455090462 1.0543088626744332 0.8907040556565561 0.18320179007576634 -0.743623487030875 0.24095662135230544 0.47451934031282994 -0.7049321496273091 -0.31313718877164365 -0.5628244104534477 3.0769874997886544 -0.9006080153840397 0.2868646440642418 1.0136745714959814 -0.13338791183810797 0.965274901016179 -0.3775259998857358 0.5954573163884805 -1.5919677094695313 0.6249469047829819 1.322965425957601 0.08387169802871158 -0.08067651523045134 -0.6103642274817436
לבחון 1.5554214816688978 5.261968778135112 -1.2279818597988257 0.16925703913574353 2.2120010480861882 -0.47332150469408757 1.2656431811301387 1.521816199720769 -0.6506016890698029 -1.0077290294377756 -3.1276651796970123 -2.2199187184322318 -1.9858506020662283 0.7998377267655777 0.3248461966725724 -0.09817244174012217 -0.14239930010070265 0.5609769856711504 -0.907582056931222 -0.6539698576354317 -0.6076187063697714 0.16439401066654324 -0.11855108498895621 -0.119402114015856 -0.22909341851755538 0.06195364179407328 0.20994214402297437 0.16755365597949204 0.7664803052531356 -0.9238853238301143 -0.14101024281966315 -0.7029693461753782 -0.8328273189950794 1.4937132596897835 -0.567469026713176 -1.5356699980486392 -0.8322112105245562 0.03334666231907138 -0.6320923953111467 -0.04831504215313737 0.0751499434589195 -0.9086638266840283 -0.042446423996534366 -0.14183050386611734 -0.514871987118725 0.5306108237317022 0.5807847359811583
תרגילים 2.745707646906301 0.3627053003308985 0.04428171635036992 2.3094453332483074 1.5598438361654718 1.1865029636121411 -2.8721359311200167 -3.0457949623245093 -1.5573236399338757 1.531371097180043 -0.5875987409678772 1.3319692401867154 -0.49407102615878196 0.28164689232697837 -2.0703715740979045 -1.3954612244809876 0.20739542293431246 0.2061899592667627 -3.5182775484855315 0.969798040450682 0.3240875190390576 1.2534218859745694 -0.6869220177857129 -2.1538433091164153 -1.3118851393670208 1.3205268827639474 -2.1653202642256177 0.13419332415719168 -0.5809311506487944 1.6058050894218066 0.38452711958737057 0.23601485393561622 0.11331136413726636 1.7479418802855207 -0.9208825541799408 -0.48247235258072685 -1.4256005436512302 3.237413707672584 0.3600998352110561 -0.689712222036933 0.6929083058557711 0.30965320790635786 -0.10380647259827908 0.2568624105233073 0.33204683445426203 0.4572206721431596 -1.0103688652614382
למרפק -1.2108571474750287 -4.277546936565088 -0.4180417051464603 1.4231277447103758 0.7436482695788197 1.9935196875267744 -0.5202124932959312 -3.479748666440801 0.5317258032014747 1.6713469979246773 1.241481154938223 -0.9846156909580659 2.4808341401152907 -1.2381541737087463 0.5239713147511854 -1.426885156374326 0.3851781398698772 0.22002879674454826 0.37594563167176664 -1.4788117472275066 1.738913779446893 -0.6031994520722366 -2.268018742015532 -2.4320787577898417 -1.6793451590243118 1.6290964405922739 1.4662677404770161 1.488174024721195 2.4653206997057158 -0.2408442522988292 0.3756442823401587 1.522520985361589 -2.0335612847856783 1.0745005880126526 -0.460392056521659 1.053378224598651 -0.409066348977997 -0.20533002883288234 -0.2817367984919477 1.3152215838350028 0.1445786260643718 0.2640650961688126 1.4180921671779387 0.4320912127000785 -0.5076029731822387 -1.2049241575649379 1.070004579657309
תגבורת -0.36411523346569297 0.2984134376884629 -2.593004017501924 5.094777806847168 -3.758446955773281 -0.0568495037509461 2.852006657723838 0.5258558592118358 0.4697726408923699 1.9016437236657147 -0.9339426715420116 -0.06179502698901709 0.2804728671799793 -1.19420193223202 -0.5014175209455252 -2.1930629472432366 3.2291338645097514 -0.32604712279379133 1.804666541116623 -1.5574035922159353 -1.8592923924761973 -0.38744225689488493 -1.1573591693948144 0.5203256012030241 2.3927893920551937 -1.2846637513414854 1.0027837089089224 1.6650877838954234 -1.5051555515168475 -2.2731504649294374 0.17517459871872743 -2.1290820491900115 0.9684576039051443 -1.1475603637987952 -1.9578291169636977 0.22312828564561527 -0.03102075326957799 0.2234564002676486 1.0099045785808214 -1.2239505723268287 -0.7076111269854939 1.8072065317315709 -0.7178556882143634 -0.04946129603226619 -0.1602826262400014 0.19649181940868674 -0.38474483724233044
למחשב 2.8142519517101223 -1.0745401350055968 -1.0282432591205606 -4.870253321905239 0.2548807162669102 4.541811228614829 -1.2382340043815756 0.08648779486950249 2.271214371863807 -1.9615735997051276 -0.5984142515648717 1.0381828716164871 3.442282974407338 2.396934925890693 0.7723022125116684 -0.656364978620473 1.2193803367597609 -1.256914678598303 2.9631372508347913 0.08521318400484289 0.8885945783105471 0.5648071785087303 -0.33424472525940413 -2.0666478102417996 1.0676702821105815 0.24729984791509377 1.4724018292388033 -0.2632279873130943 0.9839703672497837 -0.010854251510516876 1.0716050628986507 -0.11903596299953685 0.4910151737426017 -0.652360321502369 -0.33987002937212196 -1.2721894219530505 0.12415587570127835 2.122699625693409 -0.06835616458207698 0.10822325566286943 0.37949669970851124 -0.8748313814077486 0.7079353377605875 -0.3760199985631258 0.9646380706321986 -0.2770729074150902 -0.33088545751594484
לסגור 0.5723235939501695 2.4817549356175723 0.47079970147620165 1.7159736423389278 -1.3988314129100397 0.8451400992474767 2.1588869765932355 0.04258436117659087 1.5754598735988004 -1.0643377193984471 -0.22930689798532888 -0.40259697197860417 4.158548547133233 -2.2250564969985396 0.663671127126471 1.4821063899997473 -2.1568668021500463 0.12789750805464029 -0.4879971957634543 -0.36523421715814935 0.38632435885025124 1.6742103529683994 -1.7051484287238627 0.9205684092041357 -0.2925252102502669 -0.5145442397604111 -0.6812063411066325 0.2993535381171247 4.428925422438496 0.6084117803533033 0.8812328830573077 0.008937090551582908 0.15277922238886463 -0.22713383529307507 0.6011051414011586 -0.7054990570145003 -1.3788218551537315 -0.08044843699726961 -0.2505556615388523 1.5290070946114176 -1.011266705582641 -0.683508808059765 -0.7578823745057275 -0.742820992799994 1.4065825791503466 1.6576143088061488 -0.2353950279505889
תגמולים 2.1495488328886068 -2.0487410805538615 -4.375832901933484 3.411099826897829 0.39259102478754854 -1.759625515536686 -1.9008872136046504 -3.7745027694983855 -1.2140562793792695 -1.7759371816130591 1.2569699229913018 2.270028076312636 0.47506445936291397 -0.11912788168634213 1.1956039703266261 -2.1719551344775487 3.2631974361129146 -1.4594481071679621 -1.600889551508906 -2.0980511266543806 0.450082826885671 -0.4204562343507059 1.6794778109452375 -2.259049273593576 -1.2713280397897389 -1.8641070459860964 -1.436056710007694 0.14785374550030358 -0.34613751970143153 -0.3644281512312499 -0.8300695438507816 0.3832455498928105 -0.1039470605861051 1.0718733235847018 0.5681987457114022 -0.5067754162319756 2.7264142435250442 -2.7672154648696012 -1.1672189912799604 0.6272301274888907 -0.3797199576995699 0.07440453235526831 0.9757984128346572 0.3631494859947986 -1.0374739124034222 0.578835561221264 -0.42961339355329264
אבטחה 4.743098263293215 -0.4717196728584571 -4.668267963774465 2.3666834352064314 -2.129396583688019 1.3762249952083543 -3.6138959975364826 0.9332303607224124 1.7581356599039504 -0.5036306580670724 -0.46270242081116386 0.1398361703841229 0.7124078641111424 -0.2973094988641681 1.7546747592859055 -0.25597479125363065 -0.9411912399693706 1.4857721790398122 1.0331104897034915 -1.0627124903987764 0.5689508984882736 -1.3903114024714642 2.796799550198053 0.31043312803489753 2.0870141586063946 1.988561483276575 -0.7909417249126065 -1.0633645213867782 0.9401941506336322 -0.5802855444423392 1.929785412987556 -0.28273421242139113 -1.0621094135960556 -1.2233897942599308 1.2059507065185762 1.0361688908714115 -0.3909665992582001 -0.1748943003303627 -1.465762291310968 -0.07102604867511232 1.134802437561576 -0.7137451346294325 0.5500810294386826 -0.07836393443985824 0.17105976521394942 -0.05573492163717817 -1.2126666344501504
לזמר 0.9394170580410584 -3.625787305711614 3.5365114484199496 -1.8385543332975711 0.6931802658709707 -0.4249848584284038 3.0526015136741678 -0.5747458307838392 -0.4310058197906454 2.427614956767722 2.4129937927348206 0.5846860125425574 0.05008161919636422 2.8600265406576484 3.219107795186737 0.48639602642063035 0.5706001222564138 -1.0543954546840333 0.4786231850332524 -0.7630327809739261 0.8541474610128614 -1.0110427890689857 -0.18016870669891363 0.6910570756387573 -0.13603931219395377 0.23533955280022628 -1.7370558469500537 0.9365677537702242 2.4188288555412054 1.9094054873447508 0.39336730143011067 -1.39769683116155 -1.640924912746769 1.2391091157874685 0.6331300115798725 1.8830142914829355 0.3546562915617467 -0.4495795423773312 0.5336248450324587 -0.8074591126899989 0.5805172016574324 0.012896008562488199 -0.9730256538743692 1.018985307200604 0.7665447593826347 -0.03900269831665122 -0.7047938889815653
למסמך -0.2693952486458296 -3.8639607702317376 -2.6322001267087876 -1.4866590148337506 3.830870132018777 -1.6595191773968043 3.116752316347849 -0.6827669964349565 2.5561126535983387 -1.3742842410741276 -0.9897734318564633 -0.09629354946729878 -1.3420021519710073 1.4052592678068792 0.057199306325892756 -0.6088130743545501 -0.36458869022889395 0.5908892042337931 1.3992698629193183 1.4710791573683517 0.09258786495043264 -0.9830259952336433 -0.0365041014441512 0.651860291201335 -0.15235681065156945 0.17276175248533684 -0.2660214101016988 -1.310157105341712 -0.060311415172777244 1.9766176920482321 -0.2928149779675244 -0.16357635839928925 -0.7252212658648456 -0.7185167744737126 -0.12087040668812685 -0.3869630544748577 1.8216596318014509 1.2679405180999397 0.09821252074656522 -0.15938771991527462 0.6405543405785037 0.46707883154769775 -0.8586529303450154 -1.0564771357622125 0.5839149617645684 1.2767144736231284 -0.9440210696225284
לאזרח 0.3281956407089976 -1.3307709880712364 -2.7507687472028945 -0.6369458339404818 0.925647038528392 -2.0896612724866364 2.1459479311034615 -0.8827431798816846 0.7489386239286648 -1.2179616963741051 1.954286838255017 0.12891140756516822 -0.906129373343694 1.893067420756354 4.498504342458068 3.0417599183550923 2.6950268304326075 0.18706068179712276 1.7076645540867788 1.0408187782445608 1.7771632156457933 -3.4136742627897267 0.9125424616555148 -0.09793188039408937 0.607959856002794 -0.5412783237443117 -0.7403302428689346 0.4915556244843584 0.5852963246218519 1.5182353344377195 -1.1672041922703382 -0.5039087354529499 0.5983931538875087 1.3682364914830343 1.1071835113921016 -0.06096173996419083 0.08025536693614854 0.39713290279680424 0.8470533343425332 -0.7850891510664432 -1.0593556403166557 -0.43751992898121034 -1.2235535737815402 1.0010072789225466 -0.4014254228875987 0.021177938834660803 0.936862543448176
לסמוך 0.11053166656007944 2.7891165952820614 -0.6585645557158315 -1.544641987288387 0.8377522582273479 -1.6508865933370633 -0.10441199827887174 0.2867403854687229 1.6198241358663679 0.7178715011732987 0.9286794574235767 3.0507957714083718 0.6449929864558291 -1.0228636289300905 -1.6532969567421112 0.30300671182659794 -0.07967337108502193 0.1549747804963319 0.28457439476730084 -3.6479825677588886 -1.3445674755684744 0.19532432305883982 -0.6177837645840701 0.830867831899134 0.04732262183723042 -0.398741796907513 -1.2527204072221432 -0.41726687734912976 -0.37635674493588855 1.2069554405490641 0.5715338845551625 0.303666290945569 -0.6886058404048416 -0.1787410489655915 -0.7475295378363477 -0.7409340665924443 -1.5410757868429996 0.9812046340887486 0.47730056409807203 -0.005707773288308255 -0.3033997676346969 0.3239814314659433 1.272363966092871 0.6338875894635541 0.4197892257935856 -0.5880006381671231 0.7964290716558481
לשכון -2.169482425878143 -1.1702340876836572 -0.524401038558199 -1.6170334865645888 -2.9378511788204658 -2.1565092350116792 -1.7457555618595837 -0.46878944517561216 0.3247781911165486 -1.953615678455531 -1.6555623560919186 -0.23037825805874804 0.502016976871415 1.7024642227777311 -2.7922191571104533 0.26384419588085395 -1.0956623118480493 0.30323587882213926 -1.656781393389981 1.4069772127467017 0.5788486920538797 1.8476091556382932 0.27480303869598727 1.348274192768959 0.4571014289124295 0.5578702764401239 -0.4348449461626692 -0.4473966949559223 1.0094910768145227 -0.8843938330105088 -1.094213187821494 1.199543173645394 0.3098529325346457 0.43881189648423835 0.15574119721338792 1.567493452096255 0.23941315776471156 0.46284807821956675 1.170420715014493 0.052048945178936476 -1.8053984708490345 0.07953564855398934 -0.44365022580903263 1.0209439253956911 -0.7410160846346107 -0.6361019838669844 0.13305798864103494
למלכד -0.5725167513352171 -1.9585229644283986 0.6392130840804041 1.6218558332387054 0.13360359885724712 1.2591166169137766 0.5119064344782848 0.5354976615052762 -0.1371036742545158 0.5929656556032915 -0.25562078289372137 -0.7512182357409172 -0.1980441210417751 -0.173953051626449 0.28644780149393867 0.6851903199969295 -0.9645433202675171 -0.5793137106834223 0.3381595593672575 0.011356760164252057 -0.8683225367492909 0.28584589030619406 0.9053288374165733 0.7293589385554478 -0.34562698254974394 -0.07967489922655936 0.7231953902970183 0.08665993276181275 0.48328805887354126 -1.071138724658574 0.9020233524998758 -0.5251363312278144 0.5995196256331629 0.3596190954192875 -0.049897741381698967 -0.5877984757062751 0.47606854053759484 0.05891236604453756 0.12703465801336478 0.0027023032224022143 -0.9519133302725311 0.5090470734032958 0.5712284043056304 -0.5392138086026299 0.36903508956429354 0.14237460792792742 -0.9144178023929039
להיגמל -3.549519789959663 0.0295688773044784 1.497738807812905 0.6227170745543497 -1.4903080335479004 3.056944534298483 1.6157709408024263 -2.2708724922855987 -3.239399124936706 0.20351182082683691 -1.616597426328641 1.4336738112002794 0.9386973564254811 -2.1640049810313866 0.9522471842736744 -0.9463805222611367 0.22708554773425638 1.4572637478831882 -1.7313773539966861 2.5700214836908284 -0.3743336106255372 -2.5579453293444727 2.3260615109892515 0.7031452850431095 1.6640588879865257 1.4862095861333502 0.2893478183845081 2.0530176954621044 -0.06484062730899864 1.736318249597389 -1.699720429414498 -0.5520220136781799 0.6666285824806932 -0.11187177342027183 -1.0797421812909245 -2.1098792658395014 -1.4253814485324798 -1.2992984482740935 0.921171792895933 0.8667832043318172 1.0831544129368231 -0.9712244158629005 -0.08231787361857372 0.1688192902323719 0.6536680866177744 -0.2696552597348501 0.21218786982914192
להתארך -3.1151332501197895 -2.6279440408895485 0.23755314576022363 -2.1326929950363747 0.6039389570440478 -2.1669803001225443 -1.2149480789812663 -1.1895684261633523 -2.0144860088489747 -0.9599230554647992 -1.1316080301718145 -1.4889338656786917 0.42324761885229595 -2.639997021056331 0.21562741500972518 0.8164466724135891 -1.3635487944689704 0.46686310611179455 2.8906386540269553 0.30436370530513984 1.5763426120378707 3.310146261538431 -0.9939720132719448 -0.6075698544695464 -0.9581014516590286 -0.15875890485402885 0.6405839524904289 -0.5264531886580319 0.5858826021364292 0.4691242160110307 -1.3195512615752956 -1.0438711645775336 1.135485192998272 -1.7429750555282593 -0.825849753357485 -1.0070791833257267 -0.7304340204589941 0.3948801069330104 0.9237744222983304 -0.6812747143736809 -0.5777799661252294 0.004963901074719329 0.7168453106137181 2.488636726003686 -0.8476083536882479 0.8984657276315462 -0.6239367062836204
להיפקד -1.9332962975334507 -2.6449269880358304 -0.2896469141575009 0.12977342181369728 -0.4136850127181822 0.3201129640915271 0.657346990329647 0.40499980919319933 -3.266329167733067 -1.351255126942372 1.9473485493941032 1.4913384054247207 -3.6648122394181843 0.2350382379153852 -0.6876785120320021 0.912949864058428 0.3246559636493746 0.5694570601295786 0.964416689162203 -0.4001378290668457 1.346628927755431 0.25287123168928227 0.03560406631466765 0.11718376993773978 -1.0765653430192665 -0.11030715358061445 0.7218559871865478 -1.219102551477119 -0.5183248517828564 0.057748313214329376 1.3968348849827765 -0.8828811942585075 -0.20131327583303305 -0.7560592327559678 0.9005271738606399 1.5614951290815637 -2.2368614759710215 0.11727570330712524 0.7343519360600801 -0.03160078160805988 -2.5488091058131332 -0.5472363766462581 0.8203339084199494 0.9723849706922327 1.0703819013361195 1.3659757888999497 -0.7076783275324268
להסתגר -3.4281820755780745 -0.5709553424990049 1.6801857681965602 -0.212770183434178 -2.368055413532376 -0.9078987011956725 -1.1399971448181467 1.831678182284129 0.5837020488717415 -0.14349922537386672 0.8076917769981161 -1.0308774333231703 1.8064121933569812 -1.0826572352969028 -1.3157538307080534 1.4807399841856654 -1.246801476814876 -1.0895758459075446 -2.5394071326021512 -0.14554908918637013 2.8866682929166725 -1.339837591939725 0.6811535134521235 -0.01383065019394677 1.0795268326268892 2.0659078675110276 -0.024711538389739687 0.021306691984816918 0.00845535146979799 -0.34908323474956493 0.8108279582429982 0.4636557153937916 0.7006179126749812 -0.9363106649769178 2.3458012564700943 -1.0718275056779367 1.8440169722177338 1.2391552165066324 -1.8875017451404659 -1.6524040977671872 -0.7836287156643579 1.275458339094212 0.5606035814897298 -0.5737270776816497 0.7545202149896715 -0.6210874297388576 1.5767535456971167
תפקידים 6.132715303507421 0.1817675842692419 1.1854919324325193 0.5848103744106736 -2.994059714532758 -2.425348163460666 -2.883891821578134 -2.8149254687676626 -4.502250862377751 -3.572755144808265 0.11030192634079013 2.554107207907515 -2.5258710074729485 3.321389424683518 0.0570886770213015 -0.03494397884674604 -2.309681780517889 -1.680441835380067 1.679955374154855 -0.2603829077086284 -0.7792930849837809 -0.27266857336816763 -0.5021181848065238 1.3243472178365125 -3.1976632791475947 2.449865952303275 -0.49261007533378076 -1.827528948512715 0.6489499178292762 -0.966634635501149 0.7124454024052235 -1.2172765783489983 0.5081301433708404 0.784466783494319 1.4162105026506504 -2.1467571982408824 -0.31876969199202143 -0.8214640452055576 2.009970183389196 1.057253466503325 1.3238374305731935 0.7192798013635826 0.6196983362237293 -0.7066077600754899 -0.21810067328341728 0.7518736999568677 1.3811744072610022
להפקיד -0.6761808228401874 0.14947743581694248 1.564486749199664 2.8606186713806023 0.5931034164382163 -0.11767368521421061 -0.6566613042161664 0.1979329003967529 1.6050565205940688 -1.81386547278312 -0.8215756160323124 4.122673113583045 0.6349835443469448 -1.2150638779900313 -0.08374084700757077 1.424864462940559 -0.10019121527848272 -0.7478899772790488 -0.08057872723233499 0.9482456444745692 0.5546268384518768 0.6473679833070982 0.526050168148955 -2.1390824118333676 0.13099444575006375 -0.7015983158585587 0.5066518934557549 0.14026759924606336 1.58061252469226 -0.34990716332804694 -1.2059880095463673 1.058093735107373 2.104318686883432 0.9621588022048345 0.11284450941690637 0.06467488780015658 -0.727221517286205 -0.06358524079822454 0.03984178369221024 -0.05723865165647914 1.043784579078021 0.502664097475139 1.408547945456915 -0.6158167492817648 -0.1886241087059216 0.6975440882613526 -0.516134108127545
לצפות 1.3168941625483404 2.5949511970743897 0.5586069481242903 -3.5421751043319945 -2.46624343934394 -3.177648049180259 -1.1317266683948473 2.8007991658536735 0.47273536003313055 1.6264257150344152 0.03689116195588094 1.0094200787583825 -0.45033018845165995 -1.1431070282270082 0.49972451270723545 -0.9446423418154726 2.5635668888539054 0.9732231916784627 0.10419576568756708 0.41439388657535636 -0.10766200269291756 0.4775051206956661 0.6219953610841656 -2.4593631083405185 -2.673939928817604 0.8232477218485763 0.4338153199643232 0.01422878999890321 -0.8100735613951657 -1.3000057688369733 -0.691837301180837 0.32367301174090296 0.6851386530647745 -0.016891094632508503 0.9605893822658942 -1.1063393889268853 -1.0339523464315838 -0.7891476085087115 0.3650723613287797 1.6044774256227252 -0.3817968644130474 -0.21700428293565033 -0.518807990725989 -0.47981060376166085 0.4513291059872761 -0.5532162713500719 -0.12991624782349426
מסגרת 3.402547192689921 -0.7000918423279787 -1.530521041494401 0.42882770148604227 1.1397772579031245 0.5392968781213634 2.4604709934616182 -3.6986026189314636 1.8177995005939653 1.5939470311703385 -0.7156138460276323 -0.7229208787002541 -1.7337494403673546 0.5989645692049796 -0.3572227852082677 0.6667901351445474 -2.641121916287471 -0.9841398123548979 -4.006945980687261 0.5393838817107292 -0.3183975230401255 -0.20650765371149704 -1.2632916990528709 -2.8132893733839275 0.7733011483805738 1.243602782485044 1.9763543380411774 0.3327326057794427 -0.47951304303379677 -1.0823178177887054 0.6575075142541819 1.095119844034374 0.016088862700404338 -2.174994726740635 -0.2964722446080673 -1.7900412873026352 0.2724309319877999 -1.264686579021805 -0.48364143963544604 -0.021689034338574303 -0.20088952523842302 0.07030065544234496 -1.8272650723262853 0.7143878346714769 -0.49927550298471673 0.20695515144681526 0.42393742544320157
תקשורת 7.782653998548911 -0.5836721728363479 -2.6225008497551876 -2.9614062161257424 -4.094991401720858 3.1903075134588184 -2.194610925094269 2.1643679269714355 -0.06694735217453628 -0.8597409022367738 -1.1470427664736393 -1.298461835358466 -1.53715614337744 -0.4691609395609334 3.286775348740795 3.9643682958924287 -1.0867237117057322 -1.6889979633380552 0.29316538775409906 -0.0207180765519066 -0.8010782092296411 1.512030382869697 -0.8716454552211382 1.0307428128202516 2.6268209417372796 -0.4604139131961255 -1.2471132697584022 -0.5640949715186158 1.9257584844375133 -0.18331100854919005 1.2034273856402058 -0.5953373803830488 1.1893789659391292 0.8994459475369805 -1.6544018143997705 0.6153081236665526 -0.11914408333267353 -1.411627436376626 -0.5240468387616904 0.5370439751299976 0.6236572958896313 1.6280375549964214 -0.6495634764952184 0.30267224283561706 -0.7354618464077806 0.25476963747613707 -0.10448934128362816
אבחנות 0.2546419058509513 -0.6635543809341181 -1.5446299978923925 2.0824426804264657 1.7515568012515288 1.3993991952316376 -1.75519547224386 -1.1792421448483477 -1.1158303946398707 -0.949652108907411 -1.3453882405177686 -0.5785814291976359 -2.978633569580793 -2.38610269277626 -2.0705467435311404 -2.6675102689923187 1.4958188224401379 -1.5319848995950995 -0.48494636973526367 0.3617480819739694 0.8550383805150584 -0.2107292230799907 -0.8502981463255854 0.5972015263030983 3.7674000399635617 0.5045259778340484 0.4510807167568897 0.22036329618351116 1.9230084061615786 1.1805746920318652 -0.4435563035103883 -0.590881449828234 -1.2269365884607346 -1.3264412915336417 2.45700023636212 0.5678627135483005 -1.088714534635862 -0.08549004586559254 0.21820257659011064 0.4831760752898423 0.2668502502278077 1.187638894197514 0.9311852928848704 1.5866334763618408 -1.6416748981597615 -0.9826064732846131 -0.8955269036819054
לתחזק -1.8298598344180068 2.134375240668812 0.95941771324402 1.0871369136636437 -0.47143652594667734 0.8978947618541339 -0.9612173770808939 -0.6155600409906156 2.1751259855653378 -0.5413866188136169 0.13926675234382138 -1.070132079098013 0.48113506276824114 1.058837359144901 0.30241044435258996 0.5814925437228481 -1.6864019589166988 -1.1371027753828478 -0.9092223742635293 0.15424084096437576 -1.270912967941938 0.7743612175435608 0.9242309813356265 -0.4634370051939431 0.05052827275183565 -0.12493427989194238 -2.1403324859250645 0.15513156767049704 0.06994740711786442 1.3122419579020623 -0.1607563324538895 0.32482776700306043 -0.02725703005393561 -0.29932324369765323 -0.02491254680347186 -0.007015861241212728 0.5310447444482845 -0.0017080846006511795 0.4739009686041353 -1.1922031703196823 -0.37861977708247313 -0.02234013754332935 0.5204624667579721 0.020818827056769962 0.41152258410170484 1.268730196710616 -0.07175933092524993
לספור -0.9605637738843305 1.454369439139243 3.5969967134125453 1.2410797527472004 2.7829066572002783 -2.2150331301512627 -2.5960917162886945 -1.2308433578450468 -1.5275001241377242 1.7775105479498636 1.5349388530469397 -0.7531755067765279 1.3585994393884715 -1.8281210025211987 -1.3827933084102502 1.4012368448508972 -0.435517864869246 -0.6180133441291278 2.65116676480514 -1.368293333985237 -2.36491227591687 -2.004514098075462 0.1601385356420506 1.3303511672471988 1.7922314983194327 -1.239273179997161 -1.2302029528928153 -1.525672425567738 0.8769351511445165 -1.0632159574817244 -0.45734837470335327 0.41541496571307646 0.8192973005289175 0.7381258158913366 -1.4257887954878101 -0.8628492141839469 0.49376353474402257 1.2732963769891532 -0.2576351421768402 -0.09017370112881459 1.1992419480068237 -0.11155938855493511 -0.2982135472895334 -0.22156319462143914 -0.5831600727230349 0.5740497251355908 0.9603818403044425
לרגל 5.413705575041072 -2.8124767078417072 2.786518683064887 0.6543778656879796 -0.3126404145699547 -4.9094068178198444 4.7032434272413335 1.9817692241130502 -2.3775711277370233 3.879215568999169 -0.2939784001806559 -2.4182730696219377 2.0432388206159042 0.4426804048395375 2.1240903040614114 0.4208175534872526 0.8817539519580626 -1.7796812901769488 -0.1376920781565547 -1.1620188536551672 -1.9432855998664158 -0.2278994115669526 1.1381394016940949 -1.4407367335318362 1.4775070040995706 -0.0682343878086636 1.7180930889194137 -2.3932008577707053 -2.0330246219873462 -1.4871507512168771 0.093531903298274 1.6034838130152702 -1.6668425183715576 -0.2107931086727648 0.675653827550986 0.4884810728040323 -0.8569980471450687 0.5234924331503304 -0.15861684315861022 0.2766692981566619 0.07333968137270026 -1.588177489111596 2.333757117493061 -0.23929981624208166 -1.0473228085360398 0.015823929745805945 0.046808852047040474
להסתקרן -0.5888098893035846 -2.428227181139788 0.23250350669545655 -0.7980199957035901 0.19849405153345978 0.442915080611765 0.16791467884053873 -0.16333842276827726 0.014566953282730942 -0.08825724767137405 -1.009749478357928 0.10540026832259321 -0.5533093629826851 -0.9371956749940682 -0.27795872300210717 0.5370685672043195 -0.70341459893072 0.3660520641046905 -0.272734625045834 -0.8163324067047352 -0.04297042535016438 -1.0758469908637511 0.43237319769281424 1.299074506955894 -0.8585467967368139 0.6368996625359333 0.6232035252631443 0.8646067699204157 -0.24736869244528853 0.38590670739104566 -0.05995075852464056 -0.6224139263854375 1.0553683787583201 0.2522115553800211 -0.10214022151713271 -1.273881469108253 -0.37804824561978806 -0.5701695425895089 -0.31926163432996496 0.45181145200103995 -0.6453904242969746 0.1917538203647189 0.7701986376127774 0.06041024821447942 0.0290479704078865 -0.24299996667221913 0.6319453494832584
לחשב 1.3646207297706712 5.5968391180288055 0.04083482834340233 0.2659040818148821 4.831858853486299 -0.9214581194426636 -2.5955121912793695 -1.0395543235062372 1.4749257319748805 1.7181868645885 -0.7049694580075746 -0.10409784586431824 1.6201738767280678 1.3802252182655497 -0.333069093571815 2.003899182721995 2.97777344587783 0.04349807644507227 0.6502598560159754 1.7182565117070985 1.2520390907523857 1.6589001532585141 0.18035415937805518 1.732782376715701 -0.5841486777840267 -3.2993488175965657 0.2613334325624419 -0.35544787459905325 -0.32446568424102323 -0.610755002631013 -0.6806691823488046 -2.0821894840322637 0.7337371088613297 0.43516406824018256 0.9560225167659238 0.10815813339246705 0.006742995587060355 -1.0991117206199348 -0.23336700431703108 0.5539882443738844 0.2708816951373587 0.5107986194985988 1.157726923060134 0.19276701434460883 0.6898279466881574 -0.48213703039104233 0.532587997985158
לקלוט -0.2532762100802488 1.9323406984830735 1.6049388293322886 -0.8591030559090208 -2.0827844727139393 0.9284798994169099 -0.17605272221860438 0.589341151245932 1.8614447831952077 0.5272219596828578 -0.19455715633009033 -2.0562964870819807 -1.1533372724139441 -0.7083328131453562 0.8206493123363499 -1.1262400350560156 1.2819031041310283 -1.1319184675576108 -0.17416680250515845 1.8285453563978842 -3.8792315490452745 -1.6985009723176079 -1.6211426552619101 -2.398547341188473 -0.6759299463145102 -1.492584262307174 0.47879668462211106 0.1894820432159785 -0.1434217224497579 0.6464403192698385 -2.4613808635769807 -0.8206010276359158 0.09433154762920913 -0.7061547897318676 2.45824171850016 0.3175129316882401 0.724357539891517 0.5437049923029714 0.5340452892363572 0.7795951337832537 -0.516467639022379 1.2765398110205555 0.2772993580333473 -0.7748438405072583 0.18015508224594484 -0.16720794394558552 2.324004385381112
להגדיר 2.2527698944423884 4.802514659309917 -0.10472989922401398 -0.713608687903753 5.388229993924788 -0.4356293578345359 -2.153372155962531 -1.7046566087814414 2.3296162815548698 0.28540576472539064 -0.06183252860640087 -1.958313660997866 -0.9865783672737417 2.680602199750074 -0.06583957052876384 0.18670614856063583 0.1897917761840962 0.7640536149161696 -1.040576213379287 0.6373081450735311 2.2524699192965163 -0.8609627322685378 -0.6138318846352371 0.979176348628965 0.7768182113108184 -2.239233819376764 -0.6120709004183892 -0.07370292712573101 -1.2866238991686627 -0.07901992158515113 0.2633759502219965 -0.15868549647673935 1.0531030495134113 -0.9651732479563976 0.09282210510643629 -0.8752266401864292 -1.0339660787060714 -0.5994664768281773 -0.5783949245332207 1.3511585074541188 1.1616487823445913 0.7467027209444048 -0.5338584603229534 0.6893403057269103 0.16526667262721315 0.4684586429179108 -1.355707966522529
משכון 0.35188294063596676 -3.0607810165901665 -2.138792758282648 1.4559199637865932 2.7694170197942904 -1.9796452104145512 1.3020187763109121 -3.6310646337171693 3.765467987729389 -0.03407699830345657 2.433940876941304 3.4234498356110477 0.14819832024060176 -0.4760811350472671 -1.5263723800149804 -0.950214927181048 -2.0130273837554356 2.5945517143782513 0.802975691066262 -0.4720621187229972 0.09133897321680982 0.9799889143554321 -0.3303951256697218 0.583871494259247 1.8838044737651092 1.5188796502341166 1.985987121834733 -0.86203902657964 0.26388699065996396 -2.1065126547837365 -2.386976794141526 -1.393514349333736 -1.4464821581558576 0.9411589546211491 0.715640960000219 1.0585642735255918 1.495555736564626 -0.10932844781617948 -0.6755347107756668 -0.13066323258359766 0.318066601980978 -0.640588363050422 0.39796067262901597 -0.022346359784119668 0.39256483125408703 1.1328751461108117 0.036468721782378
לתגמל -1.7694274758423814 0.48272471841564263 -0.7222250272150998 1.882868622731249 0.2652165027267127 -1.0924298247797244 -1.711475424460487 0.3451482787956273 1.166060562445695 -1.7950217169161515 1.5866158088207742 -0.2700441641487252 -0.4092409199861263 0.6567996348877081 2.466909276796511 0.7640954597127431 -0.3786125565836359 0.5592277697899651 -1.0177292323431943 -0.49451656095835095 -0.7671093699119634 0.8152342909381572 -0.7068762080575945 -0.16927521250166033 0.5906310054134053 1.0140734439303396 -0.28464603581760045 -1.2176882977165846 -1.8894999763273967 -0.3773719614140208 -0.23354462569391046 1.1437167206653223 1.8382606415517273 -2.4849351865284857 -1.035337579360627 0.7889485858889999 0.2181639504929616 -0.10708770483527971 2.0840546305334757 -0.34457353985373224 -0.19867662652640725 -1.5567791082762086 1.2845049052838238 0.14123374959821253 1.0345580828471488 1.007863194234346 -0.460422730537541
להעתיק -1.0206983161569043 1.788214256161176 2.500496288011579 0.6783533145797467 0.21572032809821318 0.4543647587496535 0.6525858993978483 0.9509530876578631 3.2155524684317776 -1.9614372434165803 -1.8015090615263545 -0.3282953693950082 1.3370123133694332 1.2153525265002607 -1.0720988546132089 0.09668478812042738 0.9157876841986993 -0.7399003078237513 0.1975936162371435 0.6481697726366527 -0.14365129120750117 -0.4009010934702372 0.625418867602872 0.3163934433567394 0.33142446303760187 0.40483081568025725 -0.19057445472921594 0.9359658863555804 -0.8278023046859851 0.7667109490617352 0.07029462028184573 -0.4010126150429222 -0.22211221529806313 0.4631106571179331 -0.2768225287121885 -2.128573997351722 0.1652147614292701 -1.3238561704242517 -0.4166131605645235 0.4255427060560743 -1.162926172815555 0.45079206349041206 0.4031742093155796 0.4855423320219837 1.1168968227452403 0.3095893487935181 -0.4008061694891067
להתרפק -1.3753037030089597 -2.954396478365234 -2.0823285200879056 -0.524941738277342 0.6062327904354089 0.6487275140696541 -0.8459413775208148 0.6782928231499593 -0.5456500850398067 0.2648744997149079 -0.6343379805906394 1.265589852928989 0.04844371312141343 0.16620003954824655 -0.28008516366382435 1.6434583904439035 -0.2634517418790739 1.0102586541235585 0.2998256290790612 -1.03993573003085 0.38826809804009993 -0.33631708669322613 -0.789686854141797 0.08593369922984274 0.6560442303596327 0.7855224131354201 -0.2333995208210508 -0.2353960408708978 -1.253863614701626 0.8045511160180732 -0.7946018552368619 -0.20866748116816608 -0.5922287174597657 0.1222919553788153 -1.1404982108829613 0.05360737566152464 0.6927955882321816 -0.4910942683749821 -0.9155306437672731 -0.5677034660036379 0.33186413354089556 -0.6958407953823506 0.3011589158783451 0.0849255618378803 -1.1895658742197328 -0.5966858522666351 0.010466767965574575
ללכוד -1.1540653064248416 3.9055872200376003 0.3557522648816442 2.216195562156238 -1.0202104237211618 2.09491606025477 1.0972849273088279 1.7077409479647703 0.0535300648761519 0.673268657217413 2.256286095684951 1.0434011271144155 0.15841583119050467 0.0443941765881748 -0.055678565261222335 -2.199562654134839 0.20634513375963454 1.9808404868562581 2.4883337443709697 2.00851301771444 -0.22884230628907634 0.09338640367156628 0.7035194060123853 0.7639123053656446 -0.79783119756933 2.112894575252321 0.6559096902532369 -0.024256300294715254 -0.9332199624410555 -1.9773393702467181 -0.8483759145896279 0.23148547439606235 0.5680850436010436 0.7992278248140416 -0.5582220245809766 1.0734922514314336 -0.3287907194030971 -0.6278236230421964 -0.5912294806522269 -0.591009673802971 0.7546221731645305 0.8545868110011735 -0.8792463955773386 -0.4261869308728076 0.404526694449511 -0.5181641316913311 -1.3738287982247732
להתרגל -3.312058791249333 -0.4726119515562534 -0.5694283507938885 -3.9531185277545835 -2.029013754780042 -0.8991491918370605 1.9849058132130788 -1.6553216144364324 0.059205482074344805 0.1117453073229892 -0.5478139461952864 -0.40260149534503925 1.084042189040988 0.12178301156297955 -1.0470740329803458 -1.589138277608873 -0.5241735637203628 -0.6433031202524454 -1.212290650581686 1.0525706042456149 -0.30075531427812174 -0.02206129050828649 1.1731062650911563 -1.1452368308092602 -0.12106286350873825 -0.6988941371257694 0.21714359814221235 1.101907142465317 -0.08974119817438776 -0.14455804139421774 2.37957743483089 -1.3663356939371223 0.7704818588898336 -1.0239756188051845 0.3137582055185509 -0.30328454749754313 1.821042839357616 0.6060911348974116 -0.6066906238649364 -0.19969787797187905 1.0432824143640842 -0.023760447172634827 0.6901307083824119 0.3424755353163352 -1.0941673338926725 0.8802097603857167 -0.7284499454723689
להבטיח 0.9337071887578325 5.334816590154332 -2.8315839541102736 1.971878519686232 -0.3348233397875586 -0.36851614893660256 1.7256778331395286 -2.572141913292716 -0.1703565297069603 -0.2147118213263287 -1.1973289757782684 1.3197898857062833 -0.9235806724019145 -0.5112004434276244 0.40812782681541354 3.0224158513315054 -1.5939557203051853 -1.2157170873527048 -0.6171775479766306 -0.975745321499755 -0.8101649813020546 0.10142461621044069 2.9078151854520358 -0.8317102586697405 1.0083546608914804 -1.1138021151919788 1.1845706718908697 0.7874100973188713 -0.9916639215428998 0.05045379363559631 -0.22840919223208442 -0.22316227926856574 -1.0820379259949655 -0.12741922652570223 0.7335915973622837 -0.3519355252780586 0.04777290571101243 0.6097367585012875 0.06132098894230979 1.309567998254705 0.6388037290088356 0.953118447132403 -0.1992556787231406 -0.1695946919339845 -1.5033075164941794 -0.644366338166859 -0.4630808011537628
לתעתק -1.02569313078022 -0.8586773463974227 0.7479894986506992 -0.873051656398924 3.7197574278411896 1.853029312299543 -0.5611500216426747 2.0901111701603328 -2.001205084856198 -2.108438411600917 0.8909200138581109 -0.8084714774471299 -0.0016958512370247518 1.8698132060552977 0.064219255524498 0.0807696420688704 -0.046109360001566284 -1.6470129393577 1.7739654924697776 0.5403077796635035 -1.3978864549415342 -1.5407386476831026 0.2904369870895041 0.7377657183048608 0.12414046496194443 1.7672415959055596 -1.858821468506383 1.5110403575938525 -0.7936292295147501 -0.15207333618897345 -0.7973807729326463 -1.89443453414618 -0.4082167709858304 0.17075868590528306 0.848633011725069 0.4491530551245649 -0.49196338736846923 0.07831917344424383 -1.9678505798213024 -0.4561174526545525 0.04760594977898093 -0.771144313502862 -0.3049604585236925 -0.046438849021980415 -0.16507480232285163 -0.14323868355349126 -0.6296370336184359
להקליט 1.9671547017548923 1.437651047319982 7.924121353246462 -1.3217648853973827 -1.7922696818881443 2.209763442902495 3.0676467849229665 -1.0333050547879306 0.3592711282662042 1.146680321037951 -2.160958256972645 0.39996280909925835 0.3907391305758206 -0.09453731798159341 -0.1762830220142028 -1.401039861751529 -0.15709338854761906 0.47079125760311746 -0.5234025870350868 -0.29399791974802003 1.7574295023741515 -0.6134724246276905 0.7111129473592029 -0.6608239024043713 0.5682658886330223 -1.2472127050437998 -2.4850683698343197 -1.2160668368722274 -1.1385157757885755 -0.955900697857991 -0.35501836807885456 -1.6485148852204785 -1.6711123073579217 0.30553090237070074 0.1857722153326064 0.08227151549865062 -0.9053435214554364 0.8657937980033253 -1.5166025248478787 1.1967452299628074 0.3395943939102397 -0.11360844235210128 0.4018195086724911 1.03479980953798 1.1545118425051302 0.908593087351616 -0.3807118623715924
לגדר -0.49355489935293456 -2.3560385624074027 -3.147622010580146 0.8051996972270518 -1.5635559414353772 -0.07382402150825736 1.3298764571963606 -0.0586129468266377 1.9975962147704118 1.315653453208147 2.1965591405590654 -4.086053625102639 1.7412592285177189 -1.097608457248492 -2.1233563732423613 1.6055191851267532 0.8922182500844098 2.9995980437151553 -0.5455381209710164 0.4564018260620252 1.995156505920301 -0.5100502843958362 0.9219490441038543 -0.7046996129984581 -2.1744868804544986 -0.3248564739374505 -2.302413958119901 1.2126063006646461 1.172944249625076 0.4438415735628171 -0.07457623586518898 -0.1805199436490244 -0.10279044457599251 0.11335876374783425 -0.7150947467530792 -0.9036513408756397 -0.7404070059209176 0.3153165163409857 0.23026327521301637 1.8430326823867211 2.710964194199599 -2.168233183638475 0.8194843489141321 -0.5947791134862486 -0.4450020864991945 -1.3283172175524522 -0.07368898006796724
לבטח -0.599328360918536 -0.8356345992161046 0.2373266863307215 0.32912022417505354 -0.27181215753577637 -1.8596327107227242 -1.2259954087992901 0.671105576460381 1.345887843002054 -1.3130762597701728 1.5753389819135482 1.068105215655368 -1.3059093126206485 0.4769650538322277 -0.7870608597607847 -0.32994801943554236 -2.503553881142303 0.8325501724194097 -1.1991544885195433 -1.4147736755933884 -0.9204075007065253 1.4492351854091272 0.22654456117103874 0.2778783111710013 -0.5199332404590827 -1.781705901662438 -1.7236749514729104 1.56742540121716 -1.2106488636086674 1.2514159216306917 -1.323648952663857 0.9005373011779978 0.5450511566478345 -0.0532753422684968 0.6491576610118771 2.3757233610145865 -1.503234312436108 0.3805226247230403 0.6206560177531967 0.46729182557673443 0.7431611330350973 -0.4462450050103618 0.00450839825871177 -0.42753683719971186 -1.6071920984654489 -0.721620740239985 -0.3540902508924578
למגדר -0.23129498377691418 -3.9986958698176163 -3.2152513510209775 -4.227589154780915 0.3452962474983167 0.5149511113560088 1.8819550027044691 -0.03815962494025255 -1.054208062953172 -2.438314674316648 -0.7537373227065383 -2.332477602301059 0.1938296722138955 2.6518544280923777 -1.7415751130113812 -2.0630194648844387 -1.8554598476382325 0.577227971173584 0.3547745254246748 -2.8977793684618964 4.088169616707631 0.25449025932475366 -0.3544498254577737 -1.9075076455462006 0.8784996130746525 -0.9445064430973942 0.7016779145849223 -0.7087425453711264 -1.5997646168270911 -1.9041360231008715 -0.05161136455612417 0.557114086947999 -0.031216170545888714 0.5141816278899702 0.2396741901364164 -0.6159709176879236 0.10980729307577508 -0.3175783740706679 1.7344496439284858 0.8068121897050495 -0.358803432185041 1.0063736242704342 0.10281238219316755 0.8321229968561757 0.823848360125324 -1.1134163229152607 0.6348213873311572
תקליטים 6.6393448929064744 -2.3024257869729805 9.814159542810813 0.885484891527066 -3.1222184216608726 4.792036975867566 2.0110387338729137 -3.2734882613607477 5.55613344247388 -2.9994185666926083 -0.5813546487571882 0.23589004090131277 -3.2715288999821355 -1.8433895790261354 -0.4542662762333073 1.1833343781338614 1.8460673738961988 5.169707472542346 1.969871971106842 -0.5256971517093698 -0.39325224625432526 0.26646426356655234 0.37708487226798193 -0.025329902950744308 -0.02576160193308404 -0.5137326753135234 -1.4776512688676844 0.3148888458135151 -1.8188830294843759 0.10324838515704583 0.9386028532828811 2.136671673534302 -0.6737913738456864 -0.8445355318635267 0.2117492807714645 0.7667769426219376 0.12851703315416046 -0.530946702500613 0.31897226174955423 -0.7596262145978372 -0.3593246570674746 0.3259433136074841 0.3819543584295951 1.0126834087225924 -0.6646217391326726 -0.20063251666488813 1.0373148976624624
אזכרות 1.6433017714315516 -3.0940716692084163 1.6313591078067984 1.2956238483298013 2.076631270188621 -0.9696785890322323 -3.292354980447968 1.8219690695455604 -2.81121802631044 0.3569585246908978 -1.581301908590973 1.8334617892696248 0.2496872054908465 0.7125747020434428 -1.3680711105610046 1.2690839979444126 0.624992390074425 -0.10320242693390125 -1.5997769475902608 1.9857908257836268 -0.9585412608393099 -1.369735359481961 2.7890309096915034 0.5157289605692207 1.4244248924247072 -0.16376510532396357 1.2500924413626673 -0.5529277310671887 1.96568701104165 -1.1432747834366637 0.1606482854838984 0.6920301995113828 -0.9503040861135301 -2.5343154904094756 -1.3126012214227536 0.20834684014267368 -1.3053260823102601 1.1949569475766548 -0.09225583285025117 0.3647089535431935 0.4828457858720354 0.5619149661105933 -0.6480110557489125 -0.20540567692483946 0.6152758216131978 0.09234827036853828 1.4909071302442614
לתקלט -0.8463983081916502 -2.8005807487990673 4.632398790883543 -0.3160851689305283 -2.748210461509742 0.13673531348776868 -2.8323679117735976 -1.668276362327371 -2.9501748191643107 0.6411345875458058 -1.8116646486998327 -1.526554940712647 2.454297835459013 -0.2837502211306944 1.8213961403654022 1.0183181186704542 2.0819665263069767 1.20603679654009 -1.1942067255266102 -0.4484215610201359 1.5587538337803535 -0.8306609467891933 -2.742247448125526 1.407216004228528 0.9960414742181652 2.7443549308369266 -1.0121053112508607 0.19500402362121116 -1.0318457367844978 -0.9678682528571293 -0.9253098698501928 0.20175066985597623 2.0698479295552468 0.028068366074106822 -0.8711491624654973 1.4279853889015066 1.748456280578493 -1.2514409300587854 0.8828488281210038 0.8967834801288913 -0.21370897317641196 -0.04801375499464822 -0.08407911423036868 -1.0638670257919198 -0.0837490687391367 -0.7146044403103475 -0.6216599844427108
לזמן 1.8529387417950973 0.8535040468912237 0.13858276109296816 -1.4208233194928273 -1.4128854266105253 -2.9338474232570397 2.3777492897649437 -2.659878682654589 -0.9447569258369172 0.1842775289254752 -0.19458835713232178 -0.0033844394002580645 1.9992036994227373 -1.2860182975722498 -0.1438386418018018 0.06131963715376921 -1.0661589223059293 -0.0788335960603749 1.4894373595622001 1.94406478379309 0.7788934646372794 1.6416889236557564 0.7281224080680745 1.0919296692499236 0.9068650052110532 0.14036879357428622 0.9933873581494761 0.951411547586041 -0.2300786569285598 -1.5760368073667461 -0.557647580835915 -0.8530776740470074 -0.15499927034460445 0.48584960282955975 2.1951916307323214 0.12553631438620838 -0.040004803385023865 0.14392093697854333 -0.2253825771085036 -1.5826114692116557 0.8063303912140624 1.4662961420659402 1.549002568080596 -0.6559330737741186 -0.8819297600271555 -0.8855147242210756 -0.646854997694013
לסמור -1.142751762105635 -4.995664099940119 -0.5524100122244712 0.22721908118761816 1.4901523596245743 0.350251551405895 0.9832817771727945 -1.6339503981489882 0.32874975818947255 0.24787503759311774 -0.7503211805211387 -0.0583617069415288 -1.2029558134347993 0.1230938386303298 -0.4132100154964575 -0.6741992042655945 -0.3885259144774329 -0.6997615702716763 0.06329002800431931 -0.9265987543183498 -0.9459475400888511 -0.06834815557301654 1.3611825716869734 1.9413726556717512 -0.710287744216069 -1.3471400436151766 -0.274151210443589 -0.6684090329516613 1.3207144166618952 -0.5913383376029431 1.0725083054938922 -0.8768927103517407 0.12207650429903988 -1.1370644335174078 -0.445270849334587 -0.667779018348651 -1.2059773352029397 -0.13706839161799736 -0.4922269227456187 -0.5817506530430037 -2.678661151513265 -0.2674468316443836 -0.40042776082612846 0.4685047218283369 0.07648075602393985 -0.5639035797452908 -0.5415565852510857
למסמר -1.45539027006196 -2.3373734343361185 1.0174868430746593 0.02653362373365519 0.6895475047605817 1.7821744152640742 0.06238890632533251 0.13180155814649155 0.766917680001404 0.6846028154839918 -0.561344509825694 -0.33073854937146063 -1.0115471459867644 1.753193878369683 0.03991580917505672 0.9676443614889566 0.7673989302353457 -0.11838574665243352 -0.5110950047397493 0.24512719747571252 0.3687991356170668 -0.21222592480708297 -0.014551039103580233 0.9055495980600688 -2.0018981582799067 -0.6791734032349082 0.569795529909536 0.100422317692279 0.5219816974762352 -1.3933330011231735 1.347853884428863 -0.3712390231440859 0.9907986197256058 -1.5429824349429295 0.5398998337689115 -0.1896689479922392 1.6724571701255537 1.7862427254069932 1.670034611973672 -0.4887740029908669 1.033332704515468 0.44725451547268363 0.05006286635862578 0.17006759716303768 -1.0390353487373232 0.610015545302793 -1.0532791817770735
לתמרץ -2.293088522159566 0.23836459442083452 -0.4815799965418097 2.2257332908858345 0.6739614814593267 2.8153309308973347 0.3073085593228903 0.26064492162112474 -0.25085129967650904 -0.04665130855726689 0.3883961421016876 -0.230767065066011 -2.407621787154412 1.5874054399026993 0.7747197327251139 -0.9394420473185556 0.5148710091030364 2.170117943984112 -0.7116120085751984 0.11167835758617123 -0.6772771187499581 0.8391376783967152 -2.697098626047814 0.9464469986424878 0.33675768487768193 0.21702393464972125 -0.14671224856200074 -1.2870268489068017 0.21556241650821922 -0.19180484070201004 -0.8404017425520167 -0.040498558896207494 -0.22246418234877396 -0.01407660704562724 -0.5333775982211898 -0.8344073437541137 1.786181157587149 0.16935421627877767 -1.5008853152434332 -0.3937826981002463 -0.39009584980969014 -0.8113242434606512 0.12539399226947004 0.05612104748606024 -0.31804640639385134 -0.8642535596133212 -0.10399117689888428
לאבחן -1.0982365744438616 3.8825355968551567 -0.3740035542152234 -0.35238308113722316 3.2440387742195544 1.0007880815939016 -4.2938680385172585 1.660842829850373 -0.6752609462997619 0.16354233405849408 -0.951883995924027 -1.2874113309789965 -2.0463596640692 -2.0113815373180173 1.069647209595151 -2.8267804564610963 1.5354788167517353 1.869790595763277 -1.2448385064925938 -0.6169960123442538 1.9789470217248228 -0.8782227882678554 -0.6404177892849404 0.8324622139188972 1.6686138347534663 1.0445020459497387 0.9102139472685539 2.552821048266484 0.4296484634197097 -1.4245008283160097 1.2729837936040742 0.22683195645184318 -1.3516219989245153 0.2753968107811845 0.36068581231973695 0.1425692899138258 1.3713750517025918 0.4100987903702703 1.7161163909716879 -0.904250001191033 0.03378190737375573 -0.8584179908178177 0.8534542732204986 -1.7708358373740434 -0.3431419117583031 1.6734815061779813 1.281189597436723
להבחין 1.4169247707785775 3.6479897680754023 -0.28173909066489095 -4.391038458532373 0.06596737156403899 -0.6501676556511768 -2.591876761689685 0.1565991426762259 0.39901594859225925 3.2912168723179547 1.634383948232287 -0.6639201840401263 -3.047329661322215 -1.5972509687280343 -1.8794970277370306 1.046603389188031 1.3307158642147534 1.7409176753039015 -1.0554661618182548 -0.20390736484454747 1.7055542796682452 -1.5577906714803778 -0.6570975955580899 -0.33941152646243034 -2.1815666930547035 1.0089313994745124 1.3686599987215389 0.33125382017541627 0.4754598952720912 -1.4711221061637914 0.685649015202218 -1.5611057182045331 -0.05911730703631353 -0.2831891977901266 -0.4113102144672303 0.8900461731935903 0.7863198679309497 -0.5795233995141151 -0.6446288338843073 -0.1565908016924317 -1.1802209058626572 -0.8812688508395453 -1.1263124748137976 -0.4606404221135403 -0.401290283609742 0.9321471391916353 0.5120786310926561
מרפק 1.4071424651691182 -3.470344185366476 -0.8967687743673523 0.9600193966012746 0.35653041529481017 0.34674131794063506 -1.7753447565711487 0.8574241044327382 2.342562454776492 3.748508211009968 3.027755197411178 2.080355568834849 3.7783672125822347 -1.9278122844172985 2.1087992537429474 0.9185411611173773 2.6647698339330277 -1.1715354921762111 -1.0216510330706272 -0.07167380090673293 0.6265457315537439 0.795524505824268 -1.8322567721844045 1.0873743526792123 -1.0550145543355127 0.8703455293135255 0.11315688462623118 -0.10220964408753475 -0.7536448358578548 0.754066174009642 0.4687046096769746 -0.8506205946890671 -1.240148743675455 -0.06144345230809656 -0.11210327489922119 -1.9895251921316073 -1.3927444659632107 0.11621981510662123 2.285560071257599 0.0795037190390186 -0.6246083096764059 2.2787310602769986 -1.6193077956511006 -0.6575650181360008 -0.7650481643829985 1.7737015759668573 -0.2966944797896845
לסקר 2.7272042656749766 -1.159033547983721 -1.6386350654827704 -0.16735581945271044 0.8250684798676987 -0.6396234209178036 0.39411559017963393 6.240449207581906 -3.950724853574972 -0.03938789344236224 -1.0188348167307912 1.5121592229863277 -0.0765429452784075 1.0285051756424577 -0.5913766455962767 1.6354024045939572 -0.05865878171129524 -1.0422037478037882 -0.32252957142354444 1.1181241161382047 1.5662635856091642 1.713854693579472 -0.09750933967937328 0.6022664753047535 -0.07356718838709218 -2.745297117638952 -0.434821018661002 3.175421503903693 -0.25409015252291983 1.0610058856147144 -0.41260916844142004 3.302857099664271 -2.172325834678328 0.7538358858783045 -0.003331603690388167 -0.27630983648097235 1.8144610510843544 -0.36803216408155426 0.07982065627839104 0.39028313877383325 -1.4203633345572 0.47836837875896737 0.5886436836461604 -0.257371097720029 0.1371914215216865 0.8723335707135559 -0.3730195968900281
להתפקד -0.8856865590071952 -2.7681481422466683 0.2454644165925394 -0.9986257234108262 -1.138989309551149 -0.10330450401170785 0.5742510228748604 0.7938518888221233 0.7995132665629596 -1.0117451893416995 0.9671262024476014 0.6030264903369282 0.1236140779746018 1.8560767204581545 -0.9903146313936186 1.5407627445939425 1.6456467314943106 -2.3060063259395864 -0.7084896557846682 0.4056712622042165 -0.3575361815659575 -0.5600189866070174 -0.7660615072944724 1.2365075459969672 0.9318405007196738 -0.35690849242239425 1.0445489171014652 1.3323754113294861 -0.5367032010602146 0.5562817892557957 -0.16863525938467588 0.1017051977675361 1.4325683651911134 -0.682233325672893 0.32396656801921886 -0.8876154468878679 0.8687488918417231 -1.9733059117009923 0.75022737583295 0.2817468248207766 0.5239843037689701 -2.078485846263 1.0082915686190903 -0.18030117678414792 -0.08629290680302404 -0.11930054439455233 0.30728088903725836
להיבחן -0.7389208480213951 0.32972159531572715 -0.42480475814467655 -1.9096767319790697 -0.563986304069168 -3.1331096351172767 0.2580904647502485 -1.0723866489277822 0.24329152239940915 -0.34306053719526164 -3.76219344395901 1.591616404817253 -0.5902073925231368 1.074840955977542 -0.9008086667289855 -2.5381753024809606 1.9400359925771111 0.6273815574121557 -0.2841882699737444 0.10239819982719806 -2.2017940448832634 1.2263310326936003 -2.234026648756693 1.251001980000029 0.6793489218661656 -0.456096485739964 0.022215976721823173 -0.574382347977738 -0.4403298657820476 -0.18769631232159203 0.14332683110198913 -0.2668965134757578 -2.201547285685866 0.47811383881301506 -0.14825436402099246 -0.7451832380276738 -0.4205365641794605 -0.3836429253343806 1.1772165996436974 -0.45483839597198655 1.315056351157047 -0.7928485320379469 -0.7317016390402507 -0.3489813781631092 -0.2696714952725558 0.1172389124381177 0.4258223229657116
לזכור -0.36501210878283485 3.035133696476551 1.0641321148335026 -2.0161643844008035 2.2923299917405853 0.28504449084198374 -0.5151495150351351 -0.05109748362735735 -1.0949764047526322 -0.37950528869271755 0.9852836308903761 1.8864072784594872 1.0523779944794887 -1.107575711159573 -0.8278540733803077 -0.18232213061533606 -1.0145532547975458 0.46994684745625076 0.0401041558388723 -0.8830841910354394 -1.51034954390207 -0.764842816808803 1.2069449278934776 -0.2609319316491951 0.1309867435175489 0.8317765886096593 0.7363851957620696 1.2925019621709775 0.25779654040672445 1.160291711715717 -1.4187696611921452 0.28359044770259817 1.5272815523153696 -1.0479344594262332 0.31917364016748573 0.4031724590840166 0.9609643616884126 0.15500255458886145 0.27187519216733724 1.5427506884645255 -1.0675292439911122 0.05926372828998559 -0.4064235422565024 -0.11957343891389273 -1.2951471300761612 0.30049491798712874 0.9756071349142117
לארוך -1.7802145749705443 -1.4871178352075156 1.6121608657339477 -0.8623479894784702 1.219895232042536 -2.819135912411719 -0.11489582084436517 -1.332765767270393 -1.1998551609985293 1.5187446712133301 -1.5176066452390355 -1.4745476987482904 -2.9441520233482397 -3.9914734381515906 1.3695847180247638 -1.6393411447086828 0.10462852579769255 -1.113703024525024 3.8126822826113176 1.5838152411342648 0.6317696194680387 2.6182721872101613 1.2700383643028108 -2.507903367785087 2.3484039417420965 0.2305803482554585 -0.33632008238077626 -1.8483308381619892 0.1929914542101072 2.6361472449194014 0.25640056915421927 -0.1859336231075727 1.184595653178033 1.755187719444059 -0.9541027854869109 -0.7287094868656214 0.8856120833690431 -1.7166189335420046 0.5953733930963898 0.17008879365843302 -0.8707464229699496 -0.8222785603360975 0.05451675135631291 -1.4010509135994145 0.6097345668814977 -0.672346771696704 -0.6071282786522783
להזדמן -1.6054880108776488 -2.143887242971049 0.07518315470457555 -0.5644396799631195 -1.3304284174345027 1.0261485117535822 -0.28657165719327493 0.5956568771887084 -0.5382701559497814 0.33471464765692716 -0.7878159957009565 0.3740988479917484 -0.18162088653151606 0.24661059541130542 -0.130179581018298 0.2477730618354425 0.8344108649846932 -0.001660089363781959 0.9394000636160114 0.34711000435708295 -0.15965722576825742 -0.4322910160363431 0.44225862022069024 1.165570447560844 -0.8636344054775866 0.14047200881847563 0.9434163965841608 -0.19716667905102778 -0.27770800241148463 -0.627502213154404 -0.01650564947548023 -0.042678131371949014 0.7891908587640197 0.4436732887467979 -0.31966169513644105 -0.3962313622169548 -0.9641255747408858 -0.2929726012596065 0.5600145522625696 0.2647056372244149 -0.5756602508686792 -0.991825128125945 0.7011318383263376 -0.8137093377547929 -0.7581410079853007 0.037314948027658515 -0.014642882501617493
תעתיקים 0.8016589057916164 -3.1190193932464156 -0.45691490012070485 -0.1409698348960085 0.1527473307885366 1.9435340039611089 -0.24311429939771353 -2.488518642725522 -1.5327824377446844 -1.8058254408712715 -0.9048118623171861 0.13949566990576331 0.46710628660093495 -0.49993873725571636 -3.7728871917963582 0.08132341566095455 2.1309157609772202 -1.5669035160152098 -1.876048378589158 -1.5193999885152678 -1.4309350008122037 -1.4312052283471048 -0.1160976321937773 1.9633730120719737 -2.5585415192241756 -0.04538716694371089 1.5963947753674073 -0.3167676467253264 0.17419573951680134 0.32385304386414004 0.5505145645480395 0.5796691691324097 0.9275189602902943 2.0262794562475928 -1.163365839115366 1.75236864413039 -0.13543394968363393 -0.23551498279261018 -1.1802627117410556 0.44027913996950246 -0.38393147223992524 1.6183962022696206 -0.964120306619447 -0.7042837769727391 1.2303716566496086 -1.0446251531675572 -0.6390463327926239
מסמר 1.6882400684476724 -3.4528990413534735 1.215382996258787 0.8639542551718913 2.2598288044302297 4.514542271834659 1.3845468294393035 4.200029932595958 0.22424446460057504 1.4672352676656268 2.1817737467915843 2.0503089111017476 0.5797943351056517 -3.997670857125445 0.41962116943116073 -1.0020405797139984 -2.7357220279907626 -2.279001722485284 -0.47537182493310287 1.135802447764037 2.54258900347715 -0.6916234394816835 0.23939509839362155 0.34514185780910345 -2.2110602255842164 -2.770129789937718 0.539782300743848 0.5839538656752231 -2.7413018809740595 -0.5949716245258109 -1.2046695882447664 -0.9533350275428044 -0.2899116914920094 -0.7079631590500242 1.6030493111203583 0.13012974151722329 -1.3213551417009493 -1.203911847667206 1.0608728621170094 -1.241584793026517 -0.23743273543470828 -0.9435414871384461 -0.4294600082830084 -0.88797544004483 -0.732344383331919 -0.4852616267137403 0.408027575158594
להאריך -1.8172596013362496 1.9723737017771492 1.5916828587359115 1.3692816415303977 0.8021388562512132 -2.7853526008745426 1.3908520106377755 -0.660490735733378 0.21992962086039794 -1.053218294095363 -1.5306978048130429 -1.0917065311893244 -0.4735198982014948 -4.029047982783462 1.454392382498613 0.27640735407829004 -1.1191460719036834 -2.7282853547965535 1.426843444688956 -0.30745447609882215 1.064014315316252 1.8667792615495424 0.23852886273603185 -0.2259364016861421 -1.8601730831020593 1.4410635286063005 -0.7120368689685648 0.30664616100962855 0.2398580808482315 -0.9449338751656999 0.6218006283237549 -2.316291686171815 -0.12874493433287829 -0.23506914251795835 0.4033213076435344 0.10150710305360924 0.6928636728365417 1.039430117694245 -1.0390643292953476 0.29910382515429573 -0.7436027867261493 -0.9099949421006438 -1.142113442683414 0.48212247933247937 -0.5607964841696651 0.006755554109491721 -0.41946015833631883
לתזמר -0.838152538600857 -0.9777563032024466 1.3351179829007658 0.958998414978578 1.9893930383589347 0.6309689093848334 -0.22688529447828995 -1.0188632427080995 -0.7524116751773743 0.6018095844120253 -0.9593592339949087 0.5289566227499293 0.8315129442836944 0.9551350009501826 0.9192439376013039 -1.2015525396829108 -0.9717785141771028 -0.3391423370432886 0.35894627171409144 1.5680892579298829 -0.19483199050950134 -1.1219092770979426 0.34498907649991745 0.002243815610384916 -0.6611402729845143 -0.5485395264112328 1.308395258611038 -1.1142949054212958 0.25294974092165523 -0.05954872740118855 -0.6142269465907947 -0.14045398146552507 1.2682429569235663 0.11584424439226546 -0.5036311421295202 -0.35738252858116293 -0.6424127338178061 -0.02968666983388649 -0.028370560358320154 0.8277619500541084 -0.42244217073347085 0.7331704260020925 -0.1573330877770307 -0.14978984659498717 1.7708097599183725 -0.6837023719240483 0.33487597180764633
לאבטח -1.0762750580192004 1.8678507659861188 -1.676311012544254 4.316767604484344 -1.0046187371047615 0.8704224382117053 0.08268418861181766 1.5953015077785584 0.10029555775019969 0.7644064144845242 -1.0260129298067489 -0.596532964269614 0.7982983864535829 1.2802216279196983 -1.027781723280513 1.0757875631042624 0.004160906919527144 -0.7097306394882443 1.6339754498594852 -0.21357271753100274 0.21021193748319408 1.629472256481549 0.14930359724782144 -0.3399173292742147 -0.5569357939349819 0.3916470579192654 -0.3726382904608972 0.5930179778270321 -0.7703518607412468 1.3040626691073096 0.6020610570813326 -0.11783902308778266 0.14982482321674673 -0.5555973295964566 0.2238456873578056 0.6631542465654883 -0.5880718823988235 -0.015961801501007306 -0.2253487649764649 -0.34149043021836895 0.1941697408713074 -0.6205892219505881 0.35298402435554366 -1.5798289177291454 -0.5559332985813445 0.6214437553539789 0.8823520730567298
להסמיך -1.404125990575399 -0.26979031264077996 0.7770283993909592 3.479564031518921 1.9489941112875426 -1.2788009972336738 -1.317554502617739 0.24972637438241962 1.449434582222332 -0.9481038635584597 1.0979353994398091 0.1603790232445642 -0.6038702032170538 0.5394803173855625 3.038460489956715 -1.8275266326843582 0.7124541310431951 0.5464146885222615 0.547928695021409 -2.019969133867596 0.15995949396339762 -0.4195222197926432 -2.7568871857052852 -0.22779319306978005 -0.37160149868821973 0.8995020478862276 0.034553976489682614 0.005489243895878316 1.1916727066351946 0.8645685977913865 1.654969672294224 0.47538112559977985 -0.8743526474824225 0.6090999321631113 1.2174806967964418 -1.0283977224904035 -0.3283578720959019 -0.6263180677786679 -0.5071774072269424 -0.8381275591917708 -0.22323402118266159 0.7067810398205234 -0.34993947178082374 -0.43554378242011815 -1.7678099691649076 -0.9719289185655463 -0.6022824384313886
להתגבר -0.5220388066041866 5.5185608102247325 -2.0265818428301876 -0.7387389938382789 -0.9234555380881411 2.4464459476051337 1.3706294714215204 -1.279265998903623 -2.112948584402841 1.3297319963865468 0.771032448486238 0.988736743713564 1.4593927160477944 -0.7747801376831863 -0.06514515887426413 -1.0154854232681387 -0.6518603035065033 -0.46901415715799233 -0.7443270380637756 -0.1625867095892983 -0.24080293336839537 -0.41517807546092145 -0.14113042408052906 -0.10690775633791307 -0.04013894617756778 -0.2907410058437381 0.6782993149898329 0.8707681250888082 -0.7604015440971307 1.2686290086844538 1.1864344797419721 -1.11093301198213 -1.0148406217988444 0.54339569118508 -0.004180629851970088 -0.09164018276816259 0.9343757509687143 -0.017888242123042044 0.41378840856974575 -0.026498638349081838 -0.1407666961862277 -1.1418296387415752 1.2474879737318414 1.2937169345768547 0.041778840750162985 1.2837817572208683 -0.06502674818985865
