להסתמך 0.9471161962250523 -3.19556973402934 -0.15190649579321994 -0.7929053397128242 -1.3703547169487762 0.19277107974381175 2.973952267222288 -1.1092062596607974 -1.9864032219770444 1.740917440502012 -0.24652457000205802 0.9109267209370079 2.7597585110104617 0.06453982306074837 -2.2982371003282953 0.9468913413911468 0.26329591903776 -1.5347786389785265 -0.5437252953363372 -1.82187011686082 0.16858582139887193 -0.2531279909947987 -3.016942144997113 -0.9222501911221515 -0.4715020453239391 -1.0647980597899764 -0.07237324464571987 2.4521619934668926 2.3456361937794585 -0.9091950821745451 3.8780021475471163 1.3520454259262196 0.6120383612182425 -0.5476812997764761 -0.5323391282749129 2.50448553265724 0.25665668943500236 -1.1848326063842889 2.434816755827449 0.11327525668274335 -1.1644488701872695 -0.24054238754726368 1.600749198156602 -0.291249188196545 0.5268972494802145 2.682521028453279 0.08772882750853005 0.7818673898500141 -0.2911958166230734 1.105409481623292 -1.38098507962682 0.8886957571327674 -0.6958670611957353 1.8395849582382906 0.6585183686965643 0.5965982424531014 1.0735693738942036 -1.426923534594448 0.04038833979930604 0.5221186305397234 -0.7276497762979501 -1.054356412381322 1.2772239566850567 -0.4507080484587577 0.022882890703965368 1.251106041127079 1.842704801302801 0.046495250507245095 0.6279263627723284 2.064697044828165 -1.4816675483825217 -1.961744477995916 0.6686421191500197 -0.8975637485450483 0.5910118467223175 -0.5046891363496807 0.4937163031422906 0.34893155328331305 -1.9897938668355488
לתחזק -1.4630251621238324 -4.293786764090496 2.06275686803571 1.1203348527331405 1.7847697165188445 -1.9101062696643227 0.9319602424885581 -0.9341759726865759 -3.2091400676602486 0.6271668464078054 0.8585750148909974 1.3520350277361433 -3.0431019686222704 3.1229003839622327 0.6794015109775031 0.5575774279290066 -1.0785571638481044 -0.21366594588819932 -0.6135683065406569 2.185802783534543 1.833732318550572 2.517603810429591 -1.8068709052915632 -1.6313899559473073 -0.8086867827507448 0.10527466130315706 -0.3248433760351383 0.9932876329034022 -1.949828359170631 0.6657919186563436 2.6940510443078707 1.2772437546744841 0.8829076812601355 -0.17553529998665812 0.3224429657747691 1.2818792990497867 -0.7612690970335547 0.799998234566268 -0.8594999371348017 -2.1957069425712956 0.10930891604753655 0.3647293294261504 -1.0128300472405252 -0.7788913405603206 -1.7216091362496657 -0.5074100674369291 -0.10412338289598748 -0.39261125574676503 1.0014482316397306 0.8257929271671381 -1.7708517591696593 0.4611063580843242 1.856319332382251 0.30457227036568235 0.24510090219913586 1.5511102007811393 -1.2304412440886072 -0.45997347697376184 2.517958814437561 0.12269570358945905 -0.8713055476508627 -1.2704190072249801 -0.9720693660667851 -0.9941977771383441 -0.24538727159161838 0.9081134054145866 -0.6508617404140654 -0.5490956909662077 0.5931314586221333 0.4709384584213345 0.9280351406397961 -0.6592997261861734 0.3370863825862051 4.286671397301723 0.42741284693997705 -1.262986679061294 2.6669002007761557 0.9119518495032607 0.46370681172038347
לתקשר 3.1720996700863657 -5.529038994773246 -3.2068861357618244 4.310186952057187 -4.421253434902289 -2.291835840255204 1.636747759034118 -4.169575741271117 0.7259197254383929 -0.778425373742493 -1.418613918764995 0.4544858312218344 -1.7536655548802382 -2.9935432830385853 2.4847766491763763 2.5323095004017566 -0.6100631306539587 0.9263505530037522 -1.2644796521971589 -2.59680728990611 2.3588082579910323 -0.5024913987126631 0.30235328958312613 1.5145609897271617 -1.1989926709904524 0.7567680662579566 -1.753702191090428 1.7651554547094812 0.8696304168578801 -1.5878600231987718 1.0068664361855537 0.8931153697207365 -1.0976191696919346 -1.3164060159777962 0.4897704230044986 1.825643748135977 -0.14218165801832736 1.1823338225883109 -1.3123087627246077 1.6530986227025104 -0.1321840951423033 -1.5025011526384313 -0.45546300805841883 1.4245824679764494 0.5081074762525295 -3.305255041644865 0.8739101592365297 -1.61265407908775 -2.9570454198164593 -1.8462768196647343 1.141416713664962 0.5492043707386578 -0.8577565059086713 0.42049152540914314 -0.8596127471250902 0.045402566849228866 1.2169090918404784 -0.6919903157231956 1.612895580512859 2.183501131331029 2.101916224303311 -2.1121975429259474 -0.46626888241954967 1.266204407272704 0.20753610066594477 1.7011678993913546 -1.2399386971895723 -0.9998127808168299 -0.5455930544265638 -1.4841602723039187 1.713535903187926 -1.2930579248563108 2.2282180758256693 0.507758986944727 1.7108146925674061 0.5050984832594616 -0.8575248069319308 1.7657640578557476 0.40521238210837696
לתקלט -4.424594287513941 3.9961946321167083 -3.6670217920793164 3.548517693146798 0.36559358089154936 0.38253458830682074 2.907877408046364 -1.1592358867707022 1.8376629763932677 -3.6954067384970575 1.4609080769033813 1.4387013204707462 1.6034479601594271 1.915164262729341 -1.5900713190130225 -0.5618064017276408 1.7105901793971607 -2.5378224295216403 0.9639831896126143 0.6311614754089023 3.3935108715031475 -4.827054735997595 -0.2729706317083517 -2.5910356494444873 1.4550494957991567 -1.0485146327225265 -5.078016160638185 1.6457399111091482 1.0088921891231797 -2.4112269532147064 -1.7406507928447685 3.2445879618768947 1.2548168155878883 3.4889842397682704 1.7028813218902583 -2.05821386841242 1.241951922569656 0.9310995515669083 -0.21843425719446552 -4.098118160053483 0.28634285697922013 -0.6258791045472867 0.38065335161287694 -2.0837030000595007 0.05869834622705946 -1.1499574079158585 -0.2732578189307328 1.527207157091543 -0.854472810697637 2.429147043069241 0.5082315440498523 -0.3279157973871481 0.6003527968281576 0.21955279150673015 1.569940679483599 -0.29171561387611306 0.821482054095122 -1.7228950388111857 -2.005139196919843 1.6537268156490765 -0.3759715470144594 -1.0276120381302098 -1.8875027971553444 2.920082280101198 -1.56129350363266 3.9640728502440727 0.003277330945195066 -1.6992589707770696 -1.471379662008077 0.4210228284768529 -0.18197881966584245 -0.5214759887673897 -0.35350472366760843 -0.8698379985870922 0.6640714431898992 0.16761636018202844 -0.7585420407275295 -1.748599574294656 0.263779629366408
לזכור 1.6782536378755963 -5.069646678700816 -3.793862820864339 -1.3629596719977348 1.4487130412223128 -0.47509849087343203 -1.1092386252806465 1.3437540992786219 -0.8615151680799547 2.035213465057449 -1.1020233836460889 1.5270691011560273 2.0598776731083324 0.3219592875520309 0.4119794007588476 -0.17129778176428687 2.9557911441822955 -1.3708419238857208 -1.2521819697338568 -2.6099878468745787 1.0365361381127665 1.7707123467733734 0.019862745668219904 1.7132548614050287 -0.9570755458709949 2.923864466530269 -0.1938803576077582 -1.3605839624560199 0.23350299799366883 0.9909366411133158 0.783743271391631 2.4445028290133073 -0.6211301470740017 -0.8048633443103954 1.2442194544113632 0.561859822309145 0.4679350333530219 -0.2879543963070816 -0.43179871418195304 0.7473982087637105 -0.4491359083242389 -2.7054159728391873 -1.6711290943612653 0.5010248622584285 -1.8446536397447886 -1.2281125720154003 0.7425647441878092 0.006284978558050868 -1.0906850041587572 2.325936644973509 -0.7064921770460975 -2.299966265597735 1.0082518813916996 0.1402758870036112 0.6439389192260996 0.7632740224805 -2.5172113242443106 0.44186781781442025 -0.867992175806295 1.5641160407528294 0.09022298087800745 0.3491346535257822 0.3409223623416846 0.16438536227199463 0.4469292977736463 -1.1474342703812137 -0.7236894968743184 0.14142723753272182 -1.685173496676653 0.4999731939881352 -0.22250486939973588 -0.15362504274132865 -0.7533397273241144 -0.5808481632180976 -1.071477299986953 0.20433569947392216 -0.40115719860858173 0.3190875491384171 -1.8579770247270557
מרפק -1.786512851879409 6.467044501447875 -0.5054753452227047 -1.5413775303688286 -1.5339587645790276 -2.0703915603272147 2.577963393560543 1.984726720723652 0.5129764597611928 4.463185244642104 1.483045432216111 -3.6888094711715302 3.2934048277332204 -2.275151818859522 0.9436676319767724 -4.85679124741877 -4.34521857215687 -0.8462220725642987 4.101408553229672 -0.3759732896551686 -5.0569796432882566 -2.1341301274005646 -4.211924303303158 -0.24273102902827332 1.569494381153479 -1.4106060087765453 -3.5288575400263413 -0.9229849413329103 -1.6281980613728884 2.2377899934993355 -0.7556225765466072 -2.993350770445241 6.147367594095592 -1.227752156097067 0.18524407314229868 1.9161161136732312 1.6626867226450541 5.6594309470550535 -1.4143106459315402 0.32255814245197845 0.31126003717112277 -2.220428823657321 0.43359362278600616 0.4799168608725875 -0.08099814485887873 -0.09380947605250915 2.3368285797848802 1.3727393163151052 -1.066560146924288 -2.175308084428832 -1.2846893055143127 -1.0171615231303446 0.6833999761536232 -0.8673369747892443 0.1488340772413834 -1.1139967164757947 0.2710208129591315 0.33000744197112414 0.007740809117439986 0.7830911230034553 1.4166936395831442 -0.07680363981254694 -1.9298025944301662 -1.3446176328811439 1.3892657442777816 1.2347793660744517 1.0740069915235684 0.5908438049858149 0.4642183930730768 0.33891408801301426 -0.2495406458638435 -1.3395517497122011 -0.16192765814766677 0.8338191226310496 -1.620985976775889 -1.0085367768684619 0.07327267588322105 0.8570168761755802 0.08103190313033232
להיבחן -1.8050504292624048 -0.9029900897949424 -2.794671379803481 0.9575165820199977 0.5166985071211501 1.9807146104385331 -0.21614238550857948 1.1789791996633452 -1.0756951284456484 -2.3349630583085226 2.1800076487605304 -0.5620895922392606 1.6441700622332422 1.2266515083803446 -2.773049443900538 0.7249177234986784 -0.32739375959382827 -2.0772891632745623 0.6827396993836903 -0.7206808449576456 -2.9310866780996228 -0.00031037332386887683 1.4783634471779137 1.9759185116526816 6.984765270480748 -1.1984608083715425 1.4584408260214565 -0.18473036122461928 3.1055686798295503 -5.224689638791929 0.5998950468340165 -3.2319260359401114 -1.6585507132494888 2.7691558149069793 -2.383267822880911 -4.6250309322497 0.592321106136155 -1.3806177548750542 -1.681709714307529 -0.29495179775706165 1.311241517875098 -0.10001527735404495 -1.1708965190658847 -1.2370022450548295 -0.05078871078948852 -0.742167083414578 1.5297441296426546 -0.31712955496124307 1.3029179559717774 0.8181451374635417 -1.8230088441318948 -1.0524997336250559 -1.5201097559968089 1.0020434028730112 -0.07151426714053054 1.682360673228846 -0.5796927674476328 0.15194975989335727 0.04593590952506209 2.673679203315515 -0.0004958711418932911 0.1869873062411029 -0.9667084366736259 -0.9188857570884831 2.0143865549937754 -0.890221277263109 3.1301321339475963 0.6316094755561187 -0.05920368776744652 -0.9478974347312888 0.2495555778383757 -0.9088677715437607 0.3319911027539144 0.5528211572091994 -0.22961266513240278 0.8951599608463257 0.7268071992757975 0.659292941360594 -0.5804101980288235
ללכוד 0.6076498521686945 -4.652713193417282 3.0046588396165697 2.4611843350491953 1.016569378360909 -0.4140990485641569 -1.777054305899775 -0.8161861661204445 0.5420385084025597 -0.6045965763550339 -0.1727599907404952 -3.5214859949672217 1.1209925308631756 -2.803381541849668 3.5129096747208117 1.425866669512292 -0.34631355883867726 1.346780898398132 -1.6885164164869322 1.943374201428975 -0.3133875593659972 -2.7317383390246657 2.5689152226874516 -0.27360004062555543 -0.24521239974508136 0.8455129966910436 -0.506278926909289 -0.3365414986210121 -1.9947111646256477 0.9969937531096037 -0.3837551219651297 -1.384697605853166 -2.9555327429462563 0.36503669872674843 0.3242607782194551 -0.3330352707058698 -0.15708787598030258 2.63228872167308 -0.8714506501136181 2.405479374566838 -1.0278352957916856 -0.07829985763265411 1.29349602292013 -0.3674840795602367 0.9419346289216725 -0.3694967872918484 1.521896130110758 -0.3340990063846479 1.0177790974305019 2.859274553634442 2.760434407699712 -0.668731360367849 -0.5085256382008598 1.5325678631093067 -1.5532440296995242 -1.8386483761668448 1.5631469845388353 -0.02136452812427687 0.726376216555147 0.7177022016358684 0.958939379845142 0.6915317730722973 -0.6689734405369598 -0.9936082143637949 0.689559188620547 0.9490842762385627 0.8500904054814548 -0.44105937729558525 -0.8277791776014717 0.30832707203603277 -1.402938928807885 -0.10837748513476228 -1.054206509691902 -0.9207598475560917 0.45074330785845335 0.624698531967278 0.2173850218536948 -1.755315322343865 0.02995494681491568
להתארך -3.7584958425213104 2.120754306802908 -3.2818707029570815 0.09336546357593596 -4.494101861013148 1.1353455347691226 0.47015654495386694 2.2799896307004626 1.203380099705976 -4.220477923504279 0.33326163507345186 -1.5512304193393756 -1.3315283496156207 5.256797897869574 -0.8013049360328123 -1.043044381075676 1.3684980450066355 3.494703880984258 -1.1226551968676979 -0.25145605567546114 -1.2408822708554939 1.7769572946608392 2.493970322186518 1.1057826445145864 -1.6449037615848456 -0.5377139213952031 1.9697255508544023 0.6579881730622416 0.041283264613147505 1.8016388453178371 0.22886861350968735 0.18288356175420292 -0.04703477791539709 0.3544312335214112 -0.031428610033413594 2.3586432872720846 -0.47153252259968703 -1.9257950868881022 -2.125086571703749 3.268980659494403 1.1656924603009147 -3.1543658163232164 -3.37274591630869 -0.05889382382150841 -0.5892912827760729 1.992881089496068 -0.9761175917575969 -0.4631545528285547 1.2050843685074522 -2.6697144354484057 1.5776979691916522 0.2575356137075525 2.8925411521818702 -1.139892808014874 0.5901144619973974 0.25544332869525394 -1.0901689353029447 -0.826874365217245 -0.1384998766719435 0.07380839269469773 -1.6842882749187698 -1.6427102033721972 -0.8249732684802755 -0.4288581511031668 2.592678431707156 0.5983986557364848 0.3879172390004341 1.048558271393625 1.2156698426677763 -0.12208494754641062 -0.26783375749504174 -0.48172871324132294 -1.2698619386402878 -0.49199611690793343 1.564264667507482 0.4568980481490905 0.035351363855279996 -0.33671789655207984 -1.1541526068403245
להזכיר -0.039504904323770615 -3.138922598050711 -1.8865236291018999 -0.9779065440364176 2.888806008019946 3.482902341238375 -0.9022288284260155 0.023484999114492446 1.0587009591622332 2.418253839403173 -2.112609002711184 0.7906325043234903 1.8924014114116374 1.2053284283572698 1.7847941534330636 0.696736649544814 2.6506193446221236 -0.9803990702058554 -2.2576682353037363 -0.5786425944502084 -1.1651802667776048 3.08705593245718 -0.2432632677696083 -1.4307339942446122 1.3543339806542867 1.7810774174493913 -1.3183493480018202 0.3377855124542057 3.128428393195416 1.7747114218363758 -3.0954004628857765 -0.6185973067462814 0.4161138078263672 -0.23896990012623354 1.1836266810113172 1.285068229147247 -2.3991061661740387 0.434704064759777 0.18064976696992913 -0.12796488774145706 0.6920620893027737 -1.2251768097491769 1.2663757912102331 4.7207607223826 0.7323510785306137 0.09662697967712025 -1.4925950842776872 -0.2515405415398056 -0.5802916925163155 1.7252800515009028 0.21769570238880576 1.839733012320869 -0.6789905609420195 -0.48737827237567916 -0.8296522349486498 0.35535753126200526 1.0366149627519363 2.809584002217485 0.708952162586944 0.12265910708124601 0.6411117480269185 1.5057297907349374 -0.0218031189047177 0.6437204893034112 -0.7130748721047827 0.061382317738833674 -1.1789995000864113 1.407714617925719 -0.443783492017147 -0.07393039381341981 -0.9596227761046323 -1.2581688016430983 -0.21660164855218036 0.488288572986708 -0.49505302820379093 2.276388368154853 0.015505808469239515 -1.4552961656966992 -1.3300526838601674
לארוך -2.5028122332629916 3.4185623169923676 -2.521351000448655 -1.2685885700671113 -3.6754829425649813 3.8515562119313307 -0.1071639939206035 4.258894998314468 1.224783440587493 -1.5139864470662558 0.1890809966780468 -0.9602066439261934 -1.3181319775222435 6.18727322455361 1.8656010749711585 2.7572940592951154 -1.3984586741010987 6.9073707109720806 -1.3715765710463466 -1.1292103444632755 -0.26777626643562735 -1.0675003470946263 0.3584921376132443 0.8685078339247015 1.832807808965886 2.8542431265970434 2.114361974270068 -0.6317584978751009 0.08430018678526761 -3.285459331401955 2.365475805099295 0.28504375683665545 0.2765905859708967 -2.6886925861950774 3.7000642094203573 -0.3733045825249095 3.0897253597175003 1.2040621185572031 -1.0968119936424605 3.6878110052748507 -0.3973521626951083 0.8424839156376084 -2.359713201439401 0.3825081349595592 -2.430600160644899 2.4069261813872984 0.7244690987301813 3.719219269074398 1.4094972596940498 -0.31868467408775863 -0.5710447501714474 1.3286750624478065 1.3470903670478487 1.0537396962740706 0.7945687731981521 0.4497667850749171 0.4467287112322118 0.23880141909250127 -1.810359816086454 -0.261438427717286 2.7090712956567558 -0.25158197118342773 1.6878912274905356 2.4068197492571355 -1.876262946275203 -0.454592578686222 -0.8735697483874237 -1.80046295535168 0.5910397881185124 1.0793311228892282 0.5527761761202723 -0.4888096373644403 0.245037417578116 -0.02975276057201994 -0.19862949196360774 -0.6871316108689004 1.4201921275251128 0.11568853595771493 -0.2795406609468626
לשכן -0.9744721824475487 -4.110280845775732 3.6823046270643713 -1.639140690906515 2.3938147421159663 1.7830828338918459 2.4884976065585347 -1.7022009725300002 -2.492028948553989 2.39666011759353 -2.964012594003535 1.132259865850645 -3.0071668941807297 -1.252357639962278 -1.8731128764236906 0.782949963855991 -1.102659304345996 0.014992856941342834 1.8680932740808465 -0.05739543969105326 -0.560060755050974 0.23422225550121614 0.9335332730855551 0.5129534915439812 0.7151977349466471 0.02302552019887526 0.6541454613564928 0.12748505351327682 -3.1083049659323403 -3.0441562238860795 -2.452881538438245 0.21005401983725158 -2.1690318172126504 -4.2930905301132025 1.2865534878684424 -1.8241859692108082 0.07656450456728948 -1.024638023688375 -1.4254995350185693 -0.9669684997692005 0.6021257451217549 0.6746180967039228 -0.8652627374450168 0.037361063016711174 -0.44230542142568896 -4.453146293767499 -1.9274908686112 -0.6692889954983903 -1.2366890843086928 -0.6511302258073484 2.3661050827225885 2.4253979062838495 1.3059174055910545 -1.0340643165854992 -1.0250388173329243 -2.2283036475990614 -0.8774544791340447 -0.2596735648262276 -3.8935466977011517 -0.4391359903406729 -0.758233731073667 -1.5680660842564516 1.409807353603603 -1.3570948478631186 -0.6342336868148903 0.4625731096193538 0.5843740201769918 1.7870767016280444 0.07512039133874836 -1.0950373968251934 -0.05297482826175479 -1.1362395102815845 0.31042225134175216 -0.9267439852587889 -3.4203770357416623 -0.9930299790174689 1.2811898062335796 -0.607332890785985 2.013955793844246
תזמורת 2.8426487232722573 7.946079640864893 0.07398677745251771 9.428687714913986 10.98830960728224 0.009306977025210128 0.12664592819613013 1.1659957822340448 3.2363363271564127 9.352671781427109 3.6431186302142957 1.5454901100600777 -5.434813355807407 -0.13559855545078917 -1.0614228053299324 -1.42644413832719 4.92098218200552 0.7232829434150545 1.0194568879739063 5.70067661789056 3.2970495140136555 1.5785284221741414 -0.1502706652938937 4.2743891404108165 -2.4148770116874396 -3.15177741408549 -0.058063349685418084 -0.42428344211788804 2.969867008736322 -3.078606084159213 -0.7007904355938691 -1.1412186618451796 0.3976071685520763 0.7326811302378332 1.773667027714528 0.5339121747802991 -1.3039792583970207 0.8539037325280351 -2.9515209981823047 3.4661789170884134 2.6098231559678986 -1.8598991627215467 0.9579956662959537 1.7176618180590786 -1.239095331441717 0.9403596104451885 1.5998722960664389 0.2934644640312256 -1.3878392880847705 -0.47489591270780873 -0.9738756887144148 1.7245890900621754 -1.3726823681620475 2.6335273630191307 -1.4208922691184023 0.5163426526210574 -0.2619773262554602 0.8878739610990196 0.4445303934398822 0.26777989285888704 -0.17179679724426225 -0.7332540326557396 -0.22244526741183515 -0.9464459893206723 -0.04414039836839743 -0.5871657400334923 -0.26423857786367966 -0.5640688825954004 -0.95654449198995 -0.2983129148439936 -0.5510897525409231 1.063952604985178 0.8743438115587139 -0.5306220925558842 1.1820912764347946 -0.9786751747037364 -0.4165174043204899 -1.016959321665862 0.22389530948696296
לספר 5.033733906113648 1.1556144568911189 -4.271239697132482 -2.1121065306060722 -0.40862275688946575 7.912098012729279 -6.7954712812349 2.2172276770480197 0.3692478621219318 2.8887645959420913 -0.5590215199741756 -1.8989861622277358 2.2319958970648535 -1.4274121926401364 1.976808086972547 2.7435373365651254 -1.9966652426526281 -5.739044000098677 0.08783996167219663 -3.1289352539774398 -0.942560003536766 3.110809706852741 -2.424738775529796 0.7580390146818937 3.8578251708431837 0.924817341998469 0.05021191671123871 -2.1658097683498188 5.21703196659337 -0.43430837133664535 -2.2224122719305948 5.251680528417011 -1.4672440431590796 1.723854852490259 -1.9722019386023635 -0.8573432088156692 -2.2779113036574206 1.8711846058644794 1.2691316349457322 0.4532833363528564 -0.9995346643216644 -2.0739652275448544 -1.5860670594101804 0.10189771176807523 -0.7338345596652776 0.27039919457268413 -1.9565305710180754 0.37016853655846077 -0.9366439118566846 0.030015433115302928 0.3939444301515565 1.5045382175101014 0.8243994945707181 -0.6767056833429328 -2.343444733437142 -0.030792265834792533 -0.318960944098507 -2.755893069297911 1.8398721140559602 0.4280028463730441 -0.7852777413341144 0.567700031099735 0.5718220657210416 0.35361188049338105 0.300436138043933 -0.9737607258764893 0.9003021736608319 -0.3194719166205921 1.3285306185968666 -0.7223559338648379 -1.0094918692986836 0.2209188793915026 0.6503272175194533 -1.9950896762164303 -1.564563417881825 -2.274676223752684 0.21715536756950957 -0.5220314004318494 1.982179882511109
אבחנות 0.7833987048804097 1.227686895892192 1.3736382043706399 -3.612971749595304 1.1582761849257135 -3.0750127550818633 -0.7650746369274025 1.5097740311429624 3.6501620297227686 -2.6791689137203996 -1.5741639840260324 -0.7193559932905501 -0.884544394144743 -1.226425779784404 -3.731064807253533 -0.59688526955501 -4.843548159759666 4.012653806751169 -2.2385351452817317 -2.120920188230625 -1.1805930049712523 1.5384606063655646 -2.571108799950019 1.1282110054710273 2.552430236486418 -1.7779987809141005 -0.7383838613902756 1.2025528075263483 0.5764509356452645 -1.9318273771838939 -2.159802773317017 -0.725506417339684 -1.5659438174237554 -0.7812771864240502 4.349273919926677 1.2155456712839003 -3.9624485618915086 0.6828303838199982 2.033571443915359 0.2541809730069012 -0.943099029938104 -0.7184023734068905 0.9039445558037825 -2.13686570696537 -1.2418970914723009 -0.2928916864137358 3.7075615990488315 -1.9748105137739465 -1.3635829179237544 2.43098771429952 0.4460616181046477 4.1883684162144945 -1.0016699792754458 -0.7036343396415353 2.1129455373463912 0.1971460927003739 3.2998319399774485 -0.4627396189710331 1.569006597515179 0.6585917200699676 -3.246704817439032 -1.6673236886202196 -0.7649237561353982 0.1969769571083243 2.0755788970257893 0.3618646565499278 -0.4665249495033774 1.0332584117715156 -1.4997737573858765 1.6614062469325042 -2.1743986320686433 2.7715068010449344 -0.9690400352694883 0.17554930162502186 -0.10830595871043594 -1.3433954453139072 0.443993991571654 0.4792338368373286 -1.040699949571307
להבחין 5.976661852398734 -5.454672187059364 -4.6604536012272755 -2.90618344771178 -0.8379877063967418 -0.482375290516535 4.433780142244219 0.4374228574131938 6.5431613749054645 3.6802798464480215 -2.5156265670519247 -1.9726476227008227 -2.437487297352637 -3.2805558168020386 -3.6491845960650546 -1.5920616197604711 -0.0786852848401881 1.0798865304510505 1.4500546950968487 -0.020355030661935815 -1.0373935611310983 -0.23094989819013165 1.991414618095211 -1.6993163012079806 -1.3632766448059312 0.1066904658204174 -2.748013325393233 -2.1965244687377683 -1.210557691276859 0.17286244837699366 1.129087143160425 0.24521316498569923 0.47195732947964425 1.2011761596993968 0.5684648098580725 -2.2117430334218673 -1.8969759568350124 -0.5921847219103579 -1.4417869205803318 1.5009911292934277 0.7539523485792615 -0.3394694611080987 1.7818499493853328 -1.3746772717543636 3.0356826564074306 -0.9308198504330066 -1.23286389751832 -1.0456462320682904 0.34790625903671085 1.4187929655052043 0.7904748849179927 0.89740110720686 1.5433502209412673 -0.6828298954354288 -1.348423865618879 1.3144301474787283 1.355583264794555 0.27342447664159364 -1.2323530164709444 0.18043221156882805 2.251396113962521 1.432327861281863 1.8354685573910694 0.5539980297843956 1.6443841580397955 0.35960896383319924 0.5847391205423703 -0.9149080638414133 0.4408193766785374 -0.001559555175514654 0.5198449648107755 -1.4781731199103614 -0.16284576343851026 0.7631085117565791 0.5787529056458215 -0.4784673239732374 -0.15058366499774878 0.11278207550210455 -1.1169035838045043
להקליט 2.1787819982602517 -0.8003411276776473 -5.362342346945985 8.55724015922565 6.0143912312447325 0.9559344320805865 -3.6612762632274145 -1.4177645112852757 -1.0940468234625902 -0.4680303382058584 2.056412960165573 -2.065099157128647 -2.439755117225067 2.7097334474623898 -1.5968282211842095 0.3566796492829084 -2.633400322436827 -0.9259492896856485 3.0644293483876153 -1.7861800010588649 -1.804642387146207 -1.5552533518201688 -0.9989194017194434 -0.5077450377167856 -2.911110529012662 -1.1158707339200524 -1.3825659643175168 1.4941700999414445 0.1308671932771944 -1.5791982420305342 1.5740040703271452 -0.2549784114175824 -4.117038636506251 -1.49848907193192 0.6877514577506818 1.3520149310661302 0.17208560881191973 2.3192274768485146 1.2211056514942271 -0.6707539968322255 -3.3511517060694684 0.47286884331513435 -1.0406254064262617 0.3227292960634494 -0.8856772140991186 0.5284045222611805 0.5532835103135119 -2.4255906506912814 1.5287159859918091 0.34035486597336545 0.9892319194552803 -2.0864759728874462 0.8851540867099813 1.0943258427874125 0.6503779627010026 0.46570604150955824 2.814547906516299 1.8087998225249828 0.25077479791755436 -2.4028517631856863 -0.03954078593047278 2.243624413655969 2.0137026382105105 1.876988581645541 2.4891961958062807 2.2265176664877533 0.11668144765957411 0.3521978580542355 0.427389636436904 -0.8814145349056963 0.6977814382516564 1.0510746189329094 -0.22546309429586034 0.6418076459034968 -0.9187783534875876 0.34062204324024326 1.15374999093676 1.7807955003425278 1.0053613137186548
לשכון -3.3744074933905157 1.6151811234499334 -0.9297625669182354 1.3631626100547212 -3.0992550501314713 2.1931690409195466 4.128145993760489 0.10300033446822757 -1.8898365278955975 -1.8967295848681933 1.681373298087596 3.1373918234309257 -0.931933072622101 -2.4690560869685783 -2.71885293352237 0.7738493299561963 -0.38229265299883336 -1.1539094367707112 1.161061412758621 0.2619027288165618 1.933442794505628 3.7188738481385744 1.5283692518781882 -0.16551750812477808 3.4877533741917355 -2.422123580602117 -0.277214275057571 -1.3067051767373923 -4.946759067789646 -2.3227112401782057 -1.6345513205566597 2.472672380140062 -1.3810087594537466 -0.8112537978273999 1.0819006552906147 1.113135755328692 -0.5125936183305374 0.5428480617734358 0.3613178156755461 0.7120005516195944 -1.3761940297537472 -1.8423598921375177 -3.0663110679236216 0.9701263044616452 2.2570198874953626 1.659374620993366 -1.1267006083622426 1.221464660381685 -1.6526664823474497 1.9512497850240846 -3.003231292988853 1.4514213100834457 -2.7990907206414777 -0.9369514783670271 -0.7794371976738276 -1.8610890728298053 -0.7149834792372322 2.261770648407578 1.069454621251722 1.7544618537660943 1.3112387345431098 0.0646673108736623 0.7875419524014431 -0.5233216946569463 2.5663403645565332 -1.7304672595707369 -2.6967616548087254 0.7184805596860429 0.2697054102643294 -1.0330491690817292 0.6881231327762866 -1.6285131932231112 -0.9268878841539384 0.5960945940206334 1.1514991699186574 0.7051204757812136 -0.2530675292113936 0.6091552205537213 -1.5434321244961848
לתארך -0.10983896754089378 -3.8196007331316215 -4.069923477912026 -7.977799070385674 4.06334955978709 -0.23990542428943587 -0.43125993139414087 0.11292361875408706 -1.3564879677028898 1.6174512622822423 0.38994394982159586 -0.31505553716668394 -4.4450758718615075 2.1713466509376147 0.47620159789009187 -1.0521929911543217 0.8033770044926325 0.1818815892339376 -2.0449004724778264 0.9785791224497404 1.932051435282931 -1.3612829521602323 -0.9257284727671296 -1.3290940984340107 -1.248459375973834 -2.0672411414304332 0.6212046624465047 -1.140211651573116 -0.973212507408757 2.284020235646143 2.496877726467967 3.5344386482714087 2.516310433274751 3.1426870317387117 -1.6433506175122001 1.3858016161064035 1.60471466960925 -2.522177300089309 -0.35628311304155075 0.41978036555404546 -0.45684627442005693 -1.3460088001552517 3.451610736469919 -3.3903439719198443 2.5150697884672595 -0.12256881857993454 -0.4046761415852841 2.9167939277264017 1.965245472845044 0.750665606569414 1.1755410873521384 1.8706264109817003 2.1921723623751177 1.6882883377714777 0.000927548437741755 2.5693342597296067 2.351186007657857 0.6465473450576088 0.16456779138833488 -0.17611561345765894 -0.7669494444094646 2.03635562469412 -0.9504708339161098 0.4892462858703082 0.09079183427751264 -2.0492909996185102 -0.14452466243893014 -0.1298747472503906 1.7229096190819326 -1.930885898802261 -0.8056876921650697 2.14254728455869 -0.9562702713884932 -0.7666872618043238 -2.2483457028335287 0.48445673920350085 -0.9861279502008314 1.180328213202443 0.15511407987317447
להתפקד -3.2360255673081033 1.9326783620708623 -0.8476273206682975 -0.03734328777795866 0.041196855705387864 1.5800625098458196 0.605496624852178 -0.7294765780830951 -1.6931878641551874 0.9822092662408877 -1.5084492669973228 1.2311689308404539 -2.183424325501044 -1.5737606658624133 1.2887225347706912 -0.48051657165668366 0.07588822774606238 -1.68414753760526 -0.2457086216819631 -1.7157637046536558 1.0869943625682779 -1.114268462864571 -1.083774188737438 -0.06012272153479844 0.025819887391409235 1.2415117774139226 1.9780749275634206 0.571035505361079 0.4412284150087007 -0.30524682365766304 -0.16819076406158795 0.17937280328509453 1.789961742684161 -0.6777517075463524 0.11995308562987587 -0.667926937180555 0.6075603226994938 -2.652475735381401 1.5616886941228103 -0.34278770808669684 2.989977278994784 -2.0506277276345988 0.6791063726161791 -1.187251675890353 -0.30499181822681853 0.6282988791778695 1.4424002648071366 -0.7885567151007689 -1.7513817169304375 -1.8296250477539187 0.0960767065325573 -2.932179390167578 -0.720650741383578 -0.2934911265641141 0.9538594760115908 0.17393089010532414 0.4173756895799788 -0.6827462700154238 -2.513948629887162 -1.0630982170403194 -1.0964704174178344 -0.26190467932166756 2.5314713566810414 1.9192019202093484 0.2768238101923505 0.9434600227198523 -1.754665226598711 -0.08553148714134826 -1.7124283165500698 -1.369178642597041 -1.079066441280339 0.6684187416920117 0.23398493397151351 -0.19032590656312448 -0.2995966922743989 -0.908360243339624 2.533388792584618 0.622745247193691 0.49196045209185
לתפקד 1.2157690461541677 -2.5101011957160466 -2.377990100684007 6.54061699562029 -5.287176435960153 -0.9307681071150845 3.533603716572467 2.681071793985834 -0.5947670267068464 -0.5970614733811622 2.4434583695379657 0.5980287736479027 -1.002460638962719 3.762991142788986 -2.152688187477514 2.475383511893108 -0.477219479488014 -1.2353377666519163 -0.6026904266199128 1.9850356214037095 0.20026895854351606 0.2869489784703153 -2.102252755433585 1.1895488679573896 -1.8236416685211245 1.1325985471129005 0.4539429281413566 -1.2627653562338992 -2.503921584091817 -0.15962362630025428 0.5793740118478027 0.3000732651524432 -0.11087920225201037 -0.6163395861895725 2.2826173422332814 0.18950532123507652 -1.2422629143150004 0.0569330705715585 1.2097719710097277 -0.7828496293559176 -0.754580872457622 -1.738617791031329 1.6741201223618898 -1.384309728801378 0.09943282893270566 -0.8528668536060284 0.1997335625635045 -1.3764833702798498 -0.15818135761030366 1.376607101703285 1.4275026682790777 -0.43746129417332036 -0.8045006941591105 -0.24547118590020994 0.43039231510784093 2.4590056097156245 -0.5888021978400264 -0.871822229459595 1.11099860863086 -1.3023416161221868 -0.28284148393624103 0.2851194175328792 -1.9652656077596502 -0.22231606249312924 0.4955523093538076 -0.3961553493156267 -1.409589060538862 0.5398281030998723 0.87843226344174 -0.5171790018469737 -0.23578615208750106 -1.177954506035692 -0.6049685915925858 -0.8256529130462399 -0.725593676374723 -0.46362768737579374 0.22231253220064742 -0.3378715120483174 1.7070085925108778
להתרגל -2.9594325063477522 -2.185121696351769 -2.671685412454398 1.363691350974578 -4.640462975813528 1.400312706544009 -1.965569027310932 1.565869628105506 -2.2445592811425557 3.2616603267995803 -0.4290446672788902 0.028728559262709036 -4.167903728243157 -2.0059390033754827 0.2082009401094901 -5.208092837864565 -1.4804381461669294 -2.1948538659665053 0.5551791803976068 -2.1595336306261395 2.849451307913937 0.010649315674326648 0.9161162072301221 0.40993725064688585 -0.9911910248077377 -1.0675601812528597 6.249864003034443 -0.5303075860392942 2.8193285029803814 -0.24139431967658773 -1.0207150315578932 2.002678934328047 -0.23491327668426404 2.4495837048694082 0.7747347905696237 0.8776441972804276 1.8608182234529227 0.3541787300118143 1.1730025140191676 1.797815999839723 -0.7746748526900964 1.9786926549271806 0.9781765168269227 -0.9187030009467194 2.8110237329871253 -0.38222183269665905 -0.04063326206613183 0.2318059859722144 -0.6017526390966582 0.547309623188816 -0.7384871817178752 -0.7319002905098999 0.7122504906812887 -1.443716266894973 0.6462353030893035 -0.15183335254346197 -0.9823601040979019 1.3806745524660462 0.7748232161052976 -0.2260937998540823 0.4221159519827686 1.02213244485237 -1.2592051276480074 0.003415194511896354 -1.1284206710895381 2.9483699423793857 0.8129367539768471 1.3673125313462269 -1.8365911300538615 2.4732182760086965 2.471866878507516 0.3559262752802093 -1.4705805025081309 0.34378226700480063 1.687648394321028 -1.9039187651522465 0.13508496993684144 -0.9453542728450172 1.5826415273393513
תגמולים -0.6794591592090292 3.729703025697655 2.1472405800994285 -4.110755703897737 0.2671706392972431 -3.7225547891429267 3.1322808336700487 5.92610909181276 -0.049695237911417535 0.4742329795450277 -2.5293016917113325 4.688955858702747 0.3520639144094093 0.23630273949196515 2.3290563550789782 2.3928951275989396 -1.582390249831243 -4.049103464627755 -1.3832569941784947 -0.20505279340944793 -0.8270035486359645 -0.45691215392785267 6.546865369765068 3.402866583733789 -1.431603506214717 -1.4351091356326524 -1.8406622321925619 1.1534517711083856 2.0180522197201376 0.1994425963652846 3.6163205025802054 1.0573314537398852 -0.07808953602513181 -1.4973277716978919 3.1552656404909425 2.8504803089557362 -3.3223462583930417 5.232346218408231 1.491731659925396 -0.649276849989905 2.6524841342416474 2.394779232297188 -2.8094528757667354 -0.1992741372266718 2.430004007339854 -2.365371423800764 0.11805258175929342 1.510800067872258 2.332949829856949 0.22657140173159052 1.2444578695457604 -0.8995430525099285 0.4023423617317837 1.0802828799808604 0.4818316335815386 -0.06171028634220838 -1.40294859467495 -1.8005973018015369 0.9340896959242618 -0.3776032761324612 -2.184840893863131 0.745401263570073 -1.607696152066459 -0.17896325157349094 -0.8561134572297103 -1.044540150291373 0.2651498635113528 0.8372970538725067 -0.02584740450726864 -0.4561885990833835 1.4476090715045349 1.0629677473818306 0.5116881818620546 -1.5426937427717644 0.7621650931001918 0.5144509634724801 1.6669690519789437 0.05833489400601079 1.0303461725691347
לצלחת -3.2832981842271938 2.58703200083258 0.606981943340153 -0.5774730809089917 -1.502867262722707 -1.7897157433801707 -0.3505138126242824 -0.7644722192797819 2.695106840099165 2.0289045390410503 -1.9081690506770643 -1.6825201885819483 -6.057058357237852 -1.9170560523493163 -1.186282482540694 4.0375636659362915 4.5811674757696945 -1.6261806299545583 -1.379319844445488 2.5115597540022465 -1.5097169325224669 -1.076266542822814 0.7236056991003768 -1.6833091831642943 -0.4340294820484328 -1.8245766557020868 1.589574345477774 1.886107221978778 2.2911525430488933 2.0372680775781276 -0.34761395575826365 1.5734059510834013 -0.259376185206539 -0.060727923079019024 -0.3366399209613581 -0.5208845984385385 -1.269984386657289 1.6759710049036383 -0.8995713191404464 -0.7514113837974394 0.4658047583388067 0.9441819893787805 -0.572872567718009 -1.3950625559825258 0.0074142685736561555 -0.31511433956226 0.9202446797533422 -2.4935195843694946 1.6909278932536214 -0.9173852641727562 -1.7340692760719636 -0.1584858098113516 2.0704362748634475 -0.15605888463506912 2.143057737634003 -2.9239718926079292 1.8853482291201056 0.8124365948446645 -1.3811204568547224 0.6778014179902645 -0.42525552801089783 0.4966296457238867 -0.2184561895828049 1.7610648380427334 2.2988961172118088 -2.61971296796909 -1.4319034201699026 0.44125095325902364 2.6011175204914516 0.4963856922958408 -1.5518455133858602 -2.8668314228329406 1.7915878703940948 1.6152742592104579 -1.2395181769124306 -0.6123586139051823 1.1305019428870104 -0.17384174093173166 0.8388540512612747
לסמר -2.267656755613045 3.141839670612331 0.14664248099174498 0.1193868514065986 -1.8741030837909491 -1.6000697061727256 0.11358071860625518 -2.2554964114727447 1.7650303071851177 0.00766773781035206 0.2055839903844418 -0.4068826620652139 -0.8745756683889216 0.4106805311772695 -0.327996467318963 -1.2695009872766958 -0.509366255000394 0.6880718943066806 -1.0473400367554129 0.9069948361219252 -0.3019001674399367 0.33167775536919464 0.7450495598333304 -0.9115437880091698 0.04804786442420862 0.17072071170089823 -0.7636609903251065 -0.8884798229131532 0.1862061993901979 0.6838533104405278 -0.5383797478602685 -1.149620458717011 0.5965249558899945 -1.0042403742502062 0.326794883165341 -1.0534551322039218 1.593102698129406 -0.31393820360267116 0.5421959456306003 -0.5043423741985857 0.2883796543715026 1.3480774226641072 -0.9284145611501139 0.26201017934824533 0.8336434649051128 1.602850042587572 -1.1440445038226532 -0.09612954569566055 -0.7412399007318093 0.8027614581951193 1.5582885494550913 -0.868603387002942 0.29467906848204495 0.32601209696894695 -0.7779637540063424 0.05406006754720745 -0.31521850879222374 -0.29588696021197974 0.3782852916299478 -0.2231133926176096 0.8526855324891978 -1.3246829453892035 -0.14925607905319305 0.2097981352110129 0.647698049948389 -0.39076057827420885 -0.07053702049836734 -1.4849486626939772 1.1897772823478194 0.6406185192315623 2.2923130885231355 -0.523114728461877 1.65147359372795 -0.16165347335802913 -0.26173437133122385 -0.7662640457460499 -0.3355528954221766 0.5215358449940949 0.5544982711993522
מספר 15.526954208460534 2.5591904852146463 -0.318429729560342 -1.011699717979996 3.423305258888482 4.765173081915694 0.5898167887272465 7.3311784084817635 -3.5041663477812257 -4.082946457177675 -2.347078487961226 -2.90653639798988 -0.33644450840801143 0.04404148638447802 1.5168213092757683 -0.5563839112755646 -1.4517177735392346 1.8553408782697838 0.7699016152607452 0.4030419196737136 2.0381727496259217 -0.44328712166276324 0.29227621583825325 3.86311256382474 0.4967269896200259 -0.8632290459564999 0.4177466848579397 -0.5080348544304514 -1.0851385021431195 -0.8858303636200696 0.1790677851042107 -1.042575716602258 -1.4290302277708766 -2.2211999490548133 -3.723397480695925 0.231646742518482 0.6213269375144724 0.8305988148412294 -0.2636879849454934 -1.4423910382109093 -0.21557108751844908 -0.1922443659960276 1.7040460109800246 1.9206924038377005 1.0035884320571362 1.1636201670151054 1.452760959782602 2.5066921475596575 -0.6411149057267365 0.32893725729487666 -0.35712474859856 0.8227738973906181 0.44234130466928345 -2.565150950613697 0.043824073810939286 -1.522188401618195 0.45405696962126246 0.2073963041736384 -1.2340711779028632 -1.1788572880287334 -0.5953977366958584 0.6337904549307508 -1.7168951778693318 -0.2964588370022493 -1.8583461296602224 -0.04136562682066094 0.013638943558854259 -0.5777070374455056 -1.6212124045353906 -0.5825985066172704 0.6514382556812294 -1.5834814586207908 0.13689289902235094 1.0455158321036955 -0.873187371823092 0.7548216337612352 0.5363179258055648 0.9800432368918691 -0.2522265496267982
לסמוך 0.6566465840998774 -4.597370054075181 -1.682262703482805 -0.6018180070232175 -1.49930673269573 -0.32368438337281946 2.5047997622329765 1.0549031426773294 -2.1144535265243736 5.1112534207152205 -0.6931129046841601 -0.4514051919544118 4.582554259482569 -1.0719525268045458 -1.1134969213317831 -0.033324297986534614 1.307399826488856 -1.1534714465446452 0.0020510953617310346 -0.2319965477458547 -3.8812880718702925 1.7082930571719688 -2.45507129189559 -2.0484283928417995 0.9336998583583804 -1.1093631353885807 1.107840786960346 2.8244505567861693 2.483068318327331 -0.265170566298877 3.745655087527716 -1.651103968174398 1.3155399801764773 -0.27489905521350294 0.09674447335143427 1.025336846376119 1.318444280768457 -1.233540929532654 1.513172902760529 -1.3205834019724345 -0.8147334448926224 -1.5981083589724348 -2.177602760749156 0.6096924271354284 -0.7117827073740401 0.40307081257123245 0.5792237701819066 -2.0118447925914857 -1.2209915669292473 -0.8774272335149272 0.14161191076763116 1.366247154508345 0.9023962355582446 0.5836273806669646 0.2529398206626402 1.2771341316226579 -0.28418188060523786 0.05481045835679812 -0.08798187360189734 -1.3069124087782484 0.7481375107939263 -1.7676645563700886 0.7080178008584997 1.0415787660630231 -1.0587122495507575 0.9220235901284783 0.17065396248432896 0.2544133553652407 0.5055020917728654 -0.5134131456199396 -1.172773433480813 -0.5315853163876253 0.7979014076602334 0.5998708572087431 -0.328935682313636 0.7097519170756252 0.17937336695355896 -0.6208067337958803 -1.370810887025537
להעתיק -0.3459340093779016 -2.9171809665028117 0.4816120341013324 -0.1847937850690653 2.7369460599984645 1.1813937434413786 0.8330110088543907 -3.586721359373772 -5.349557267595692 0.9144538172927728 -2.1330375230309118 -0.5556467717173675 -2.47926495283703 1.517376413520985 -0.87103319197387 0.16193886332254254 -2.8323231167130087 -2.114777497676669 1.4905353918457833 -1.1285593364538018 0.8404622583927112 0.6225403746460837 0.07562216431706699 0.5023135925595547 -0.44244081844528854 2.367585065172271 -3.4823714008756306 -1.8332992333614035 -1.0387596816417477 -0.8111953237094606 0.22638188456184014 -0.7088644944050749 0.11214116179845243 -0.17487715104769896 2.7271764004257513 0.3158365072522977 2.374294969534286 0.5622959387481767 1.7257772566617469 0.08849972313067811 -1.07650623888349 -0.15054349183609814 0.47903718084412106 1.4574585456378406 -0.8808412425726887 2.8870424086714355 -0.7022711791701549 0.9821098984092548 0.7183588796453958 -1.8300628180681968 -2.361355463708551 0.10796458946364315 1.555398335039816 0.7505250981700553 -1.4067046219237014 0.22991461850075967 -0.501698383094646 0.8470559906668808 2.654367509213881 -1.2829441885340211 -1.4124508677277932 -1.6875588090439195 0.5065329285760738 -0.4326033233153617 -0.19924844071514503 1.089080806741011 -1.18425079672268 0.5264104545286457 -0.24636961655028813 -2.195161789316029 -0.4038643306369963 0.26180195651959304 -1.0711405214755831 0.17778561167578127 0.6150963967088338 -1.540555566772238 -0.09331078650727087 -2.074072990643428 -0.4210950751658662
למספר 10.216315523419226 3.5223965008276124 -3.5671296418620106 -1.0333676377576175 -0.12904505657420176 1.644289845135971 -1.4357967924407706 4.984238214641418 -0.40357410852245146 -5.376226177969293 -1.6417637661730098 -1.2432523936731525 -2.231812095805076 -0.39709903430233295 -0.2101195271880857 -0.968272692084908 -2.1908491314735405 1.7169834827331527 -0.5666904651984247 2.1788395394803612 -0.7562911202039316 -1.0044691546945657 -0.23174206503102707 0.4770798065362096 0.8199309007123757 -1.2761403551538542 0.08805138114108627 0.5710569043270358 1.80283418502579 -0.18324824445893295 -2.1672450670097105 1.035276498805928 -1.0668943198116556 -3.112812482375689 -0.9740040851280395 0.1122739477927375 0.14133400844878116 0.19404576487263442 -0.02791327191395464 -1.1197932420668821 0.3922183299935762 1.1702158837722416 4.388687431368587 -1.7097201937158675 0.5326862521362419 2.337720906666342 -1.142776822244531 -0.7218763192679984 -0.527453559303538 -1.471169945597019 1.2374363159574802 0.9877945577242991 -0.8871814642598982 -1.114296773176378 -0.2133929612279482 -0.8135611299201022 -1.9628427798792232 -0.8260682644989302 -0.5645508965089397 -1.3492103039906127 -1.2850192089971968 0.23954405853496386 -0.15654112721519475 2.134002026736293 -0.05396589104053055 -0.4688008525263757 0.022582332123878737 -1.142691232557196 -0.5725881997627373 0.21302411408543598 0.8011711464413515 -1.4286248679105165 3.117927238885451 1.4911874581602353 1.4395459101869224 -0.5818654393803351 -0.7207969232445686 -0.3737370420531018 -1.1002102021450297
להשתכן -5.096663687845063 2.427717812907248 0.45965764358919897 1.4004386357978498 0.3365701378546272 2.25256330975277 3.0898585842252473 -0.06932556915762642 -0.7514657226655193 -0.8046889263200828 0.8298967098103455 3.841114259790695 -1.4680125684314969 -2.110318039374984 -2.0391719692214245 0.28996149613031924 -3.868616948001359 2.355478483369815 1.5961841153268608 0.5931704403249187 1.1444912408376555 0.05036586537250892 -2.6414186531198145 2.1274679276877784 4.003541741144575 -1.4690064220116887 1.1849860683592595 -2.859390121678604 -1.3969763983560237 -0.15718804758105395 -2.1333111434185343 1.2998594345216832 -0.159268804666496 -0.9139479726047345 -0.7326511054613603 1.977509684552264 -2.2777816975125234 0.6974692768554105 -0.8578296221113751 0.4720192980481302 -2.156815619446564 -0.01281154129737792 1.447574850274611 0.05608297707245656 0.12065144845919032 -2.2485639060169067 -1.9090942942003835 -0.8425883070873833 2.1526970363248004 -3.342908887714162 -0.9806573580279544 -3.0326687392064877 -0.3692207349567442 0.9760859820668517 -0.004996198636644792 1.4755395758144814 -0.4382653040832283 -0.8456620610216765 -0.8693168898654503 -1.0006042247065199 -0.9057692200000589 1.708969138257257 1.4705949764612176 -0.7320827765128078 -0.031045174974957377 1.6118279717956725 1.0300661927253052 -0.7279051049839783 -0.8688894240783848 -1.502538918033803 -0.45641123988921484 1.1861413863324564 0.44436016987842364 -0.1009955982665481 0.3442338038452284 -1.0488413215208645 0.2280413045250574 -0.7416693002293113 -0.9741600474487181
לתזמן -2.1484997693465067 -1.7488808501714874 0.7161936949752682 -1.1445823506586503 2.546482663112311 -2.4749068514507795 0.7298335926420321 1.6948095525484899 -1.0797805053660547 0.1464368165940707 0.770822193946971 -0.4511020246315395 -1.1189686994628056 0.8688460355945523 1.4104078608390391 0.36616247781625083 1.0873991141770298 -1.7571050942004423 -2.1395256638097218 -3.332601838133844 0.5720973897931553 0.28725920448859704 1.6002017863850402 0.8301984799503905 -0.9935772938353848 2.532109483507376 1.1580819888641856 1.6022917991554353 -1.0820364113400214 3.5015107448129617 2.040454045786383 -0.2940244602646106 -0.9645170711243561 0.3959876683988213 1.5496896291206754 0.6111024837973057 -1.3314603573437667 0.5501008022222246 -0.810005558501483 1.0070520660620184 -1.020756170111867 -0.13134480084606265 0.45278601606794794 -0.6272428979289686 -0.5828863968993012 1.0382579028197998 0.29065914131302467 -1.0179227205060584 -2.616335302155274 -1.6568186262209839 0.7070056052639709 2.5231301820059624 -0.3585407992248766 -0.12207988631244754 0.8676422196039202 -0.07963023443472785 -1.0788507650971557 -0.19819790632831344 -0.17691151512655914 0.7195106519528299 0.41779752833781336 -2.177631985315101 0.6064609027840774 1.4249747354636315 0.11079455138018164 -2.075337980676115 2.663811499240582 -2.782405930577148 -0.30281260204629407 -1.550835520030171 0.9722245352463181 0.0056824219437135665 -0.6320194197501554 -0.7995904817972336 0.001359824950573973 -0.23231587123960673 1.9080470425820992 -1.1205993616235623 -0.791825020051553
סקרנים -2.420595163591125 0.9544109864779778 -0.5611151564078425 -0.17673875711120085 1.7097163184232034 -0.11826758806738981 1.8834545033293109 -3.4035050172203607 3.477484840349513 -2.636580938276906 -7.283211817242603 -1.919389930649319 4.776643243116459 -0.011357210118497588 2.206583018510746 -0.17554223036678382 5.082295386319458 -0.7238337053168711 0.31051667465757515 1.4462288549611941 -1.0840080696051586 1.2633066103233397 -3.2697273192364262 0.7981695833732161 2.117165391146965 1.8225997131583627 5.59728874901523 -1.7108424061647123 1.398806238221134 0.06112032157875742 0.23065031915852502 -0.4063247124435646 4.630926515338665 -1.0252583271044673 0.6211197305990656 -0.5958066815642248 -0.16687204002747205 1.1840994430391172 -1.670985600097408 1.3270790008781168 -3.4583331107987174 4.936078377434199 1.8134155407175236 0.33018241801261855 -2.3278821210349085 0.16104587046670235 0.35678088372801775 0.6814931236680833 -1.3230023462049152 -0.4724189494144412 -2.2021887756817775 -0.25286381861796675 0.7515510617967265 0.8985457278701273 2.2360421736865854 -2.391126090511138 0.8841188734969854 0.0669803160673404 0.02132057259669123 0.40788986940310096 -1.74121094564599 -0.2224708815131899 -0.40121700524586434 0.032317640558657997 1.3201586352473058 0.8754268285708219 -1.8379645346431763 1.2759168844742357 0.17144326982458144 -2.4131300805649682 2.4990820403831764 0.5911056019454247 -1.3898616785787412 -0.6113360547551768 -0.22009501411134014 0.16876776528505738 0.33275239944393215 0.9926091047585152 1.3182246198380758
להצליח 0.03359642259972156 -5.164807768047173 -2.660927191613257 5.424492136719877 -1.59824164016389 -0.8545446133851256 -1.2682106734719274 4.55503760119469 1.3917687543430366 0.04490233613909234 1.5582930605160847 0.5349215416121137 3.055661977851754 -0.7915417900599144 -0.5951985566512313 1.1283317387423906 0.1919359331848013 -0.5780921884104223 1.4960289156692341 1.9505320555098231 1.5099112712784861 -1.3656302177412962 -1.2546383679263242 1.2383369522310224 1.4340799561905848 1.0482363062899762 0.23597342118715123 -0.6620068699816032 -0.8158270825835653 -2.062385306128182 1.9172484526832203 0.20854452062365933 -0.1534244067591963 1.3053955432219968 -1.5004422905044725 -0.9337580493182627 -1.4251000563222334 3.2680723987288474 -1.3197588976859198 -0.6405499523578878 -0.2734878689471602 1.4412771567846823 -1.0662389851696092 0.6940044361087522 -1.8553544846753143 2.085571871282861 -0.964812970124171 1.7405367476134315 0.6192766792448148 0.45576756685100434 -0.03606740761943426 -0.638263158101461 -0.3449132203142404 1.481376870834265 1.9602584278701232 0.48637242837826733 -0.7666940562838245 -1.6755809190156843 -0.3594387913282824 -0.7934430214941978 0.9917870909300018 -0.2859645618843925 1.1955832069965142 -0.20656532841318476 1.2285427554169805 -0.48421220488438244 0.538520658540234 0.9419246040535668 2.0116827268864417 0.7844978701044535 0.16060306096774182 2.7796595736134875 1.6889787608277034 0.8022373833162095 -0.024254001189347445 -0.4219261802301266 -0.35649118881854575 0.003942273079260401 1.5747817341267132
לאזרח 0.3736758113803751 2.6665752603153865 -0.33794596925274234 -3.437314677805287 -1.470076613884833 1.7202436093474618 0.5112225175422414 -0.014926274400326425 -1.4902057489816392 3.0956594155009705 2.600273915387898 6.145448934968328 1.0426646241289947 0.5325048733759595 2.6127206627010597 -2.5407580227109285 1.4592970794464577 1.1329772931794753 1.5639272132030957 5.169152752283917 0.3251866587382832 0.23742883891695085 2.248819246583373 0.6996709061182905 -2.561155581171297 5.646998363715616 -3.3975510073726287 -1.1023429847652721 2.60138734796156 -1.0794140389606595 -2.0292509649076442 0.895714107435841 0.610426441254414 -1.039133585127541 -0.29228968979975173 -1.6831781715045204 0.9694710189860063 -3.462807667926408 4.062823619499501 -0.9082887907051714 -1.7557314851058818 -0.3046650786192849 -1.176511679464746 -1.1349010292051698 1.3074077080074271 -1.5109632142371152 2.634481491240916 0.5288313720352726 2.027678936540404 -3.1832326002566536 -1.172005795917267 1.9996500098739867 -0.8360966793390642 -0.36015033800819846 4.671565156024636 -1.775930681417977 0.21608625833794776 -0.7436877794826358 2.562407932285526 0.524892696769168 1.4096100308640174 1.6897646296770137 0.2816977370523527 0.20324920613591416 -0.47733165954804474 -0.586960463366536 -0.055893771021511524 1.0833279285155948 -1.9859318809224655 -1.5853231893016548 -0.33430854454420705 0.4792525286284293 1.9380377495319168 1.539859611548309 -0.20888024645298983 -0.3172097512572482 0.8202983137998889 0.19111272349902306 0.19086505476655014
לבחון 5.110981606709461 -6.434764944528453 1.9071596528928143 -2.740520208048538 2.548630884321356 1.5059044447346632 -2.301761493653582 -2.2947101827410235 3.355333192347165 -1.7440672625120819 2.7348940288964783 1.6398407725163213 0.2442819060990283 1.3461044103366364 -2.5891467671865853 -0.025720026230972127 -1.412291191690224 -1.8941361622770156 0.12471855628550844 0.39264951979874146 -1.0785354032342633 -0.05550734274229625 -0.008725525651819919 0.2916736954537453 0.07611195077176303 -2.3348655099084192 1.2257948222640138 -3.405502607572234 0.7227251941938463 -0.7340325244670561 0.7500715752841093 -1.607322630438805 0.8265524864273689 0.039566920183925006 1.4801146980621023 -0.6499255966352114 1.2074077990545964 -1.3825016451957104 0.5600430916822087 1.0297066001437547 -0.3692411389201903 0.5902994307360263 -2.120105377172468 0.6868045509581366 1.376730886009806 0.14182278638579043 0.5484834010781903 1.1286038154358837 0.273370976021243 -1.42655036284664 -0.8942130662090024 -0.8664399358688223 -0.10202199700605875 0.13541635922515977 2.1747552615020167 -0.11872436292040021 0.07422591894797399 0.961119960816591 0.7202027845668477 0.23519951455532898 -0.5932015620394729 -0.04629413833751307 -1.8026032886805454 -1.2296297756999086 -1.5021257576380729 -0.22904911175788686 0.17476814037348112 -0.8516502633322075 1.6337047488139989 -0.17537897682755696 -0.8829054335513116 -1.1981447559283402 1.0390578664177779 0.2551162217781951 1.4927443166260004 0.45689365981377494 -0.0500762607205196 1.026809104431632 0.29857973925907055
להשכין -2.2851743473980064 -0.9889939583877427 2.682606509564977 2.3192262737161236 -0.05006352799568975 -0.10324107409470223 -4.585368963673839 1.9007935298936742 1.9471930217241329 -1.0850541124807045 -1.4427479798384177 0.6049216238741902 -0.172353704514776 -4.675425558578874 -3.571035005184434 -0.1613216190770378 1.9183664695035934 2.6852787782970062 -2.340664243141267 0.06280545784688585 1.1974929406576218 4.331206906656583 1.0932233858345939 0.03398342218982288 6.027598371092729 4.565590932784542 -0.19631904770686553 0.8136510899016058 -1.6143229858173962 -0.9597803032315795 3.0126497259010363 0.27869311116146506 0.7936707705204933 -2.289498712529104 -0.4394555986576043 0.4936390258068495 0.20498657584577004 2.729922100374854 -1.649579209227826 -2.604390825082897 1.3922293905275271 -2.7107211568687624 0.14820834408880343 -2.4853322710133674 -0.34924144110488514 -1.605131601928563 -2.9425938940868597 2.161776397512881 -0.3912573771003594 -2.781073313749638 1.890490514401511 -0.805754799612087 0.8236306634519964 0.8113812247263823 -0.28047216737373176 1.3279282043970415 1.1536099448771608 2.931770974152818 1.7392487319368766 1.5594305078865216 0.21382252267509902 3.680331940318412 0.7375314428590374 0.11802702833679274 -1.0617629090236163 1.7746832593345612 0.0580410532196145 -0.5849702754046002 -0.6235046522332114 0.18761340335988716 -1.0844671085063675 0.30218947793829054 -1.2008846079325706 0.49443260526951943 -0.6435246178340623 -0.10725982886440949 1.3199282347970969 -0.31228240867822377 -1.1634615277794735
תגבורת 0.2927957467421461 0.7212689283550111 8.971566562734278 3.2709595041447956 -1.1520285364532556 0.13441202896539514 2.0987534914490706 -1.4710581223295291 -1.261631696355647 0.3059641241752174 1.0957465555596562 -5.03564052106466 0.2369156628724577 -2.15956109560558 -0.6418099517477679 -5.36916573022092 2.612254038324347 3.410250044188643 -1.881736280337959 -2.7213516640324213 -2.9829927901332716 -2.3707673117367456 2.0568363227372424 6.251552354868313 0.5308114271631124 -2.70194138258175 -2.6528425637050153 0.9928417140909925 3.168342032039984 -1.7066793014359212 -1.372148859940772 2.5134456249885986 0.307031603918144 1.7089203517423959 0.10311206161265445 1.6603036184026394 2.0350466003087075 0.08761634055037856 2.273040097889517 -1.382389104905471 1.4860991388058402 -1.6268329473931284 -0.2047534972579597 -0.03707510316707271 0.8465121989923862 0.5923454931626787 -0.8450594994702901 1.4641091748551214 0.002016350487239098 2.334869735136281 1.4148692938904603 -0.0017708077157460856 3.118280752962267 1.587927130042912 1.8680959236721346 0.20738632460853604 -3.004499466966425 1.9265397893663214 0.06143516475493837 0.42606690282518217 1.4676549039724307 -0.7768803669464661 3.3936769291415296 0.03978683422026214 0.578602871372993 -1.3823734929000004 -0.6426637914356169 0.040565337586337916 0.8902502826972674 -0.7273848176142347 -0.5908795610314687 0.36092163077072187 -0.5499288190630764 -0.1422360878115697 -0.4427119832365034 -0.2174246051354692 0.3338475405548252 0.9973831498426041 1.5093586866770818
לחשוב 2.8525863983321202 -6.032803682439065 -6.022906184617678 -1.0032856957428993 -2.533925077894895 0.9564992196851974 -0.2967738839457668 1.3084261727359165 0.7003502695801698 1.5620492229897835 -0.32169616253862154 1.428190127677655 3.795789692133196 0.1929760557641515 1.7237112624752342 1.1492453639656985 0.4877209377778443 -2.7244809376574866 2.363631105072958 1.5418799679387984 -0.6551656624659343 -0.16880881934375339 -1.5477987576464838 1.7256889159264854 0.30776136774811874 -1.7320356927386833 -0.6972043204578282 0.6312038827383347 3.3797197360499402 0.631665156514719 -1.7563948653430532 -0.19169104668610604 0.6275486249144472 -0.4091831941624335 2.3047742296768563 4.865966501332661 -0.45809060042577116 -1.6753934363391536 -0.5672815541762881 -0.36343065015353343 1.770202644678272 -0.10146618791451305 -0.22687168742571917 -1.320366902706281 -2.3817897317841794 -0.7101873611254307 0.679421280342578 0.7234887224503523 1.5701161228704612 -1.1029398819760197 1.024673869753722 -1.8609761130123224 -0.07788049172342042 -2.67716558008301 -0.5279343895466296 -2.753623859074189 1.1821082916723717 0.7045104576282413 -1.7298811576557651 0.43097339786868843 0.754463600146978 -1.4753012855127685 1.2246918229627466 -1.2980228025076275 0.2689430429598086 -1.1016225162366076 -1.4720623187153126 -2.1495908732215465 -0.24637713896972607 1.803859899664584 -0.46867280117573334 2.0274831766310384 -0.7621429295515076 -0.5212797641035083 0.7173462683268991 -1.675187718493271 -2.1840938504753025 -0.03975787408401917 0.09217005534180779
למסמך -0.8000388800970601 4.349845686621154 -0.16975966529282835 -5.548899053551511 -0.8613907032062037 1.6226997178627778 -6.260754521803627 -3.208087990236804 -2.5298361196939334 2.6419781522399437 2.401729432300223 -0.368920989385077 0.6026207100407802 1.2366929480366522 -1.978038570603475 3.451225656461224 -0.3468029472416421 2.0367928617003317 -2.4541281303352185 1.526871082166885 -3.4104753459041603 1.2661052241266937 2.241736133349553 2.80070625758222 -1.403281061832673 2.1595981345825694 0.055621969211817 -2.0151278527382934 -0.20349411199897519 -2.7461154782405184 2.22246480605676 0.7905797932771401 0.8398394662399513 -1.8119243390075823 -1.9519182093990044 -2.1113050896250507 0.881800383946818 2.0303700724882416 0.03835119156297168 0.7755683604233152 -0.001055175926048811 0.5852006718242605 3.411055672053114 -1.547320291588171 -1.4948897442303013 -0.6796475022272098 1.0569790903845844 -1.3931630124306968 -2.40217639567823 -0.2881909592467789 -0.012832476422146315 -2.8350915376820156 3.3568493289227885 -2.245003671995314 0.534450540527741 0.0030814076026779874 -2.1383753242622485 -0.3398503195797134 1.1022767606726636 1.4234627090332155 1.059786294807415 -0.9075127329643459 -0.7481894017107016 -0.8485526234913648 0.24912563585462705 1.1825670348225046 0.3793185222126195 0.5632812186592472 -0.8484756578654062 1.2552162061467147 -1.8941718567416088 -0.23705513199170672 0.37894528262651717 -0.15099198069154518 1.6375395365290335 -0.24726803852614831 -1.7409043278631402 -1.1585452293727045 -1.186498913956603
ללכד -4.079938570051747 -2.7971546134283476 3.5455930868514804 2.1396679194306745 0.27579259377441184 -2.2228095496270637 -3.7968939268058297 0.14774417486839533 1.2949135937400889 1.0913231458299826 0.030269145987238188 -1.554742256335462 0.5818742105479595 0.36062366878554863 0.027909328184839096 0.056773455364538164 1.0629301798106263 2.3100535789949306 -1.6886763141526067 -0.04768338372641097 1.9160856008572669 1.0668258825798365 -1.2811419421026862 -0.10975003145112269 -1.8372448343837042 -0.09505374147826322 2.7599438153785663 1.3400458534618542 -0.5488605132252617 1.7964219624424151 -1.0128352929770041 0.08905342030229377 -2.7289159357911617 -1.3721080815417155 0.4431762215681744 -0.2769813577897037 -0.5337439008819423 0.6773490738799606 2.9205719826194305 -2.1649220301618706 0.3148812979684068 3.02549538830644 0.7980684387076628 -0.46321315330004353 -1.1929673869648292 -0.31449934514248934 -0.1653568254343369 2.69562984966038 3.7232621422177337 0.11766072455757834 -3.317532406432381 1.5104281999837117 -0.3569173379994602 -0.015680545779001857 0.7281780351138751 -0.0888426291314548 -1.0471597359582396 2.625354472796459 -1.2270746486781254 1.0760478870094394 0.610362124597288 -0.5262679934989297 -0.606445179217696 -0.5680486782479702 1.7529461576946288 2.132192761401026 1.4615038570422683 1.8677318903610265 -1.7795352590628701 1.0962589679321544 -0.8768715091383158 -1.3992393828707386 1.3161479789774075 -1.0615083503347453 -1.2998656210438 0.6647329355117177 -0.2854187043651223 -0.3656759920371571 -0.8444236390542417
למחשב 5.536985355304066 1.7772311611736529 -3.8780081259954517 1.8130334937444563 -2.551906034852675 -6.783713859721372 -1.886136677451527 -6.089415539859875 -5.635804306212374 -0.08517779613274915 4.386280711458885 0.397133121513573 -2.496497214185783 -0.5282020705395253 4.468710383009791 0.8326333511977952 0.7847951547354113 1.6256101284940245 3.696452445595525 -5.648694909963046 -1.7449036624243994 0.22659785897153434 3.1219248114896425 -1.5840444883868323 2.660714368322539 -0.1697428655755888 -0.31630570612069053 -0.6167407314696834 0.9677884558338962 -0.3288494697513312 0.12360021022925922 1.1491385949402566 1.535999125353721 0.6522917077497562 -0.38843624732189885 -1.2181311715103482 -0.5822571222689228 0.32509940854056424 0.958205074826521 2.4853382295261035 -1.278700663363924 1.5137019027815315 -0.23917788294925868 1.0752873254391044 -2.1074276463594397 1.8394058955154866 0.020671827565098767 -0.4490650731366223 0.5371026376329326 -1.062525602110326 0.4863736598016481 1.5888209844262995 -1.5432690344833957 -0.39643439062706426 -0.938717665826707 1.1810150088930667 1.11854657717646 2.571077290480669 -0.35014965632419504 -0.6443768773717772 -0.03859707423301706 -0.06665122622150704 -3.804157850098717 1.382609817569754 -0.017133847812682124 -1.8133593256874874 0.3136968646986601 2.615992390576182 0.6230633455975231 -0.5153809317217999 -0.25661375833041555 -0.8995793706443492 -0.3701528757705998 -0.019280490517474554 -0.18127938109208103 -1.3334187023660955 0.11564944805742582 -0.6358278355697056 0.4813604607554602
למגדר -0.7249004100667532 3.4621598079435154 -2.248492224542626 -1.8649564753990948 -6.857427763208681 1.7249706468920751 -3.579342641242319 -4.294049370052941 -2.3416278679728735 -5.954007490218634 0.8729763266934228 1.5952100066905006 -3.1041474103987214 -2.4828699448815774 -4.609698974044569 -1.7491544052372465 3.6477773325284804 -0.9219453894033252 0.813263678098056 0.15872674291617353 0.3100863046020277 2.1377959771975914 -1.850296763413188 0.7885050436764997 -3.2718150546097893 1.1990606198418152 -4.1145703477458 -1.9496056802071737 1.3229508630211748 -2.6628994636169185 0.9089450152516816 -2.578575164663467 -3.859586637562749 2.6903726173637024 -1.537508852257545 3.742775384328316 1.1132377774980493 -0.47910321895101593 -1.6987308429892982 -0.007654584087232602 1.6269956478809549 4.179382822053734 -0.4241548499538566 1.6856949148185714 0.09751809607070087 1.5782297478867402 0.2451825314142467 0.9632863683914628 -3.9789895650685683 -0.15000540929547931 0.8890566030508819 -2.25892592124936 1.0744608256124546 -1.4133709439002595 0.7759902552842041 0.9496956188720495 2.530615974737716 -1.212960622808068 -0.9603012052211488 1.039526941645844 -0.9896604097122468 0.13252915113658167 0.5474122124575073 -1.087706511070072 0.5000098278807469 -1.5601007503959916 -0.4384247778093571 1.1929961312379427 -0.09951277859442807 0.7490425555449922 0.9413721587209212 2.318800903615364 -0.36619594040293385 0.48888502381880666 -2.6641353929600484 0.501020404551309 1.1683954324673558 -1.57696692889862 -0.1924144833586506
אזרחים 5.918569356273174 0.7171022902551142 5.393970199631812 -0.169975457637226 -0.8345342279663356 5.844269518967402 3.3903986514122613 1.1843667442835897 -1.4087050923219016 -2.0187741252972264 -5.343040724832329 4.079081492042184 3.1656315083916398 -3.1197783865491644 1.9015557647960786 -3.9879422682220875 4.030029632882168 3.3297580243770915 1.6495789084188235 2.762709068470319 1.9367390217195326 -2.6069980049048596 0.7942124307525933 2.135211602697182 -1.6177803140021587 -3.5318913557271965 -1.292476736174046 -1.5382184981161706 2.228543913574909 3.968979601578644 2.505167942178224 3.5898133393894476 -0.5254441578454605 -0.0729768910777637 1.0830843851509615 -2.4801457738895696 3.905882410717706 0.6334409976082123 -0.22569529306891858 -0.17545938973560135 -0.45730561351858984 0.7758106475834187 -0.24549113596988975 -1.8183542917789708 -1.728007852924759 -0.08677495803601244 -2.148386025243506 -1.889031139837499 -1.5202232062858576 -1.1721023277934786 -0.44593920228292955 0.09571391078093515 -3.0894985664262786 -2.391301970885609 -1.8120880888335589 0.8337292131709112 2.0050029185413516 1.808365812375154 0.14868897954157748 0.10039661930385779 0.2875462999529262 -0.8760975095542869 -1.9882725985521401 -0.07200792282063992 1.7877918997341171 -0.15068395612702395 1.5130232972168545 0.3236914008248629 1.810611106868644 0.3567136951598141 -2.442442728093915 1.1261895974536462 -2.3586721752415656 0.521057038025461 0.9237759114442365 -0.4660509027151144 2.0362673632203516 0.5287737000317085 -0.07370566978838976
לגמול -2.916073145718625 -0.7141155980458764 -2.7824093354221517 -1.1886963578773486 -0.6371572309905799 0.42408794510903874 -1.10921359096235 0.9267576122493494 2.3436033207607467 1.1811234808659135 4.269340070857347 1.5218491387286586 -1.7172898317125014 -1.3790082658588254 -1.296775214826797 -3.4724844880335914 -3.7722666867727264 0.7843664870634385 -0.6403559540756574 3.099614374179833 -2.832101505667513 -1.819835262513543 2.497652388408973 1.0382527758257223 4.334114343540271 0.5892316543221752 -0.4717865710024266 3.611795598340814 -1.6903951098722934 5.268681666137598 0.9977161380689995 4.215482307240603 -2.578916545794706 0.43039221233464947 -1.5310552724148794 2.2112623499885107 -0.3763728788824315 -2.0385448843547826 -2.268657344029515 -1.134683541715955 -3.5382556178264988 3.325263401546524 2.7881515095883835 4.526540321502319 -3.1368346565251755 -2.475684563860121 2.068771616470645 -2.0257426643887704 0.20758503730701755 0.1077359907213904 -1.5074061507177883 -0.9320616221771095 -0.6996195564137727 -1.5531272028092706 1.3320285169025445 3.43745583881574 -2.2047191509677466 1.0871175660162078 0.9477457807354756 1.3464827324990425 -0.4359580265448935 -0.8285499258619513 -0.09000144840620268 0.04600146394316541 0.31690891717296077 -1.6835148534642619 -1.7163218112312424 -2.3635727053215705 -0.22758901253648725 0.6911280583689473 0.8129115486545978 -0.5382571735426142 -0.5151898642277826 -0.7874567135325296 -1.0217586974304997 0.32531266308359075 -0.5039679887015993 -0.15697870087122112 1.435840721413273
מחשב 11.91902871363256 2.449840048021378 -4.00587925829382 -0.3017896431260903 -3.665490650750828 -9.598273260946142 -1.0730397145401933 -6.303870281201651 -5.18115094566518 -1.2996076083073105 3.245881617163557 1.0429379434866053 -0.3858379955843635 -0.7674374951202222 3.9117635548728686 1.0311853162234974 1.2703021007347752 3.162190174854456 5.184497086568129 -1.8119240631543945 0.3098191103360816 -1.247551798273661 -0.17956238426033028 2.6134538581318467 3.2594219525914374 -0.09792889065968532 0.3526457399273265 -2.375972956695065 -0.8708723140208109 3.9352300288459783 1.5479760801272096 -0.06728089299208058 -0.7310623064255855 -0.13613741626102074 2.9050322612559487 0.8211378085421368 -1.761576999171401 -1.1884705462107412 -1.5946011849295576 -3.181440159256546 1.1970522873326757 0.08938876556499623 -0.6511257067929793 -1.054441690421727 0.4868450246726445 0.2749291423403207 -0.5863841353410963 1.039901691914334 -0.02573824386872602 1.2893085413478198 -1.244000409035887 1.2840942449509616 1.368818883614724 1.9013843285877021 -0.4175472369405634 -1.6899750243724145 0.3623714764667124 1.809615940085327 -0.6641268273137358 1.7599596610243204 -0.7687077267197644 1.4594404888611432 1.5741539705883294 -0.38801087656480554 -1.1170865165335402 -0.15000443944692124 1.9116175684136483 -0.42006727255018383 -1.4814244113028967 0.3462853230134306 -0.38361516543792623 1.3139174774001072 1.1983726900927303 -0.23211574822997058 0.4427675418878191 -0.08200460044781387 -1.1622187765077427 0.17422223711110538 -0.157332952215987
להיקשר -2.241882166455375 -1.8375150634005213 -2.620980958058546 1.1167656598053088 -4.933147492251545 0.1906301709156076 -1.7683383175243663 -1.9491959148063231 -1.2671654760324496 -3.498656705024034 -1.9319738951748995 -2.324281764769791 -3.2475208855975892 0.31766442066844225 1.2015958242249065 -0.5889061926432948 0.8094496631324513 -3.4030261895516047 -5.189345999298552 3.9529567054866663 -0.5966442459119846 -2.1697870763317697 0.9369586716511701 1.857622884175501 -2.479929705750456 0.028094421219504357 -2.359480294032685 -0.21480536027714717 -2.544919315865163 -1.0175533508755843 2.3328083968440105 -1.290324539089561 2.0266325381640073 2.4638029035292397 -0.9327171949358333 -1.2479410191289468 0.16041765236202912 1.2709719598803668 4.345449470483026 -0.9201434918884595 -1.157887085544087 -2.8555107224597904 -0.16584548753840808 1.476959825761347 -1.755257025590311 0.04461765098919979 -1.9602264509637946 -1.045610172712097 -1.4492469653264688 -1.0875871352084046 -2.939523241509657 0.12915807684896832 -0.9864769000474731 0.17760672019447563 -2.892831491894098 -0.7895461191246171 -0.5106072510575411 0.2843447625424293 -1.429193621247587 -1.841086932456693 -2.1256224993180517 1.0648327808912594 1.7883849312713762 1.0942101131485638 0.7719406496534403 -0.7140526465269786 1.445513320477862 0.6782192795815164 -1.6167297189769685 1.2370271359139926 1.015163470774344 -1.2510094891023074 -1.1478933923570258 -0.8062184837138497 0.7605771775830882 -0.19579165755184616 -0.3600679336773836 1.867619535112436 -0.4612773952812625
לסקרן -3.858390193992333 -0.5346477935951036 1.7201129681961487 0.42719461328034947 0.7919889260321419 -1.0657530198318856 -1.4848387323221146 -0.991862898735334 0.4739719112983377 -0.8872424564684789 0.5824004481248347 1.3138778344301818 0.40022081369473694 -1.8505837519922907 0.5835872954562777 0.7716683515176237 -0.7814899456543106 1.122374630246169 -0.32069229145744976 0.2524223310442171 -0.15693929766593262 -0.0975837875883648 -1.092643417105636 -0.41949001616568315 -0.01602683771918079 -0.3065695170362913 0.41248002648840676 -1.586213644035254 -0.3476252531826781 1.8912620657537127 -0.7804662464517109 0.4860218752836629 0.6323895714739598 -0.07492403285228677 0.4650615509929151 -0.9624925955504098 0.9964739411881218 -0.16695693758729593 -0.6925766934534239 -0.4742903927150894 -0.9654806245364956 0.1143181639652347 0.44883373061868176 0.37673899288921986 0.7421856562669226 0.27109593560426587 -1.0489379912704786 0.11575838067225797 -0.026273611252961796 1.2697210595059982 0.8087609230232616 -0.2810262728054952 -0.16475391480586 -0.02139276194324948 0.458176682815655 -1.8843237016567116 -0.8659202244863555 0.06491695422707834 -0.28319008376000626 -0.04173076137286769 0.715967676844678 -1.1708365455977605 0.12042884620238516 -1.7405611964069312 -0.3571175395403226 0.4010652542864391 -0.01340233358932477 -0.4305298688497823 0.11841161940265316 0.7217663920275172 1.218601956311842 0.7148719418400971 0.49248961300532085 -0.02853960164362955 -0.6733893394797479 0.7473357493114237 0.9056713633232045 -0.9854347623488632 0.3888998479085138
לתצפת -2.6349602057501107 -1.9581274021325399 0.4614234618529567 -0.7487557772718522 1.3836912597699118 -1.1617590206794701 3.5567641036951754 -1.7328463601546187 0.8124133082032258 0.6406122263937934 0.7387283771761519 -0.20147269367656379 0.600585274553353 -1.1284947125271245 0.8285804126019303 0.2342113732819104 0.07680562796467594 -1.2932839609764237 -0.17487381151480214 0.18349942198895458 -1.2049974584885363 -0.09867000847318881 4.091810718827562 0.5168236630895132 -1.6853085941411345 1.3830051773478036 2.2785399190307767 3.453503401450427 1.571713371410402 -2.125357871927189 -0.4213111427133099 -2.076974588649723 -0.07273090524377168 -2.273246963037162 -1.3786706884012792 0.868888923140307 -0.2168855693213678 -1.319556845036868 -0.23014575453251881 -1.4981509261282624 -1.8963181807588454 -1.0118433240460378 -0.40407209760877943 -2.8774472387470773 -1.07766125734945 1.7631153554744345 -0.04284105750669037 1.0009032975546133 -1.4641549082534684 -1.0459872016356937 1.6929709727694953 1.4348832249389851 -1.6899004464480147 -1.2583788901367208 -0.278297930675927 0.5451491835849581 -2.00887676179361 2.5273316832709964 0.3146166562114673 -0.05708268172595837 -0.6611721365337776 -0.8131765454505677 0.45214640511669696 -0.7142297603454529 -0.806700503965222 1.2864011877844868 -0.050547851714068726 0.12285048060017748 0.8721527700553346 -0.0001510340288137168 0.7417642221805433 1.4658981345665651 -1.3738394056551702 1.298088273492313 -0.49304871470257705 -1.1374154879840186 -0.741228315236366 -0.4077153475793274 1.0609603773859178
תעתיקים -1.1983851198541435 4.434535742111251 -0.35642774335436944 -2.1960334448584895 0.07388112158768712 -3.1875806937221807 -0.49529874897728987 0.5777713284829872 -0.8938030815919283 -1.83916421096595 -1.071878478380908 0.8815913223459532 -0.24498737571812357 -2.3153414554125065 -2.1459349823059504 -0.6740702322773703 -1.2682935872807521 -3.790409513062135 -2.218526668993683 -2.0916135146597767 -0.5045506205523403 -2.7965751326729182 1.8596947841697138 -0.27713701997267365 0.06551662278554617 -4.139819337485383 0.042448169384652214 -0.08704081953734621 0.4869552231439071 -2.0414652812392284 1.326527264452185 0.574999811386853 3.707540956208146 -2.929731488064117 -2.768452246478388 -1.2850598256825871 2.775114652992543 -1.5267768920230964 0.6324459894311635 1.800331166867066 -1.7435543419115853 -0.7919095508899129 -0.8020696265528029 3.220002802085628 1.5171749483568178 -0.7280337583925394 -2.1637166954668605 -0.11412157582574173 0.5023677298250386 3.307680418301921 -1.1102216069398305 0.5972100352121104 -0.6840397633311494 0.8609016627313042 1.853843423092069 0.3303565674307756 0.33109616566714006 0.142503010288179 0.9390390629161934 0.7669556975947993 -1.6076571388847165 0.25177890285066445 0.26073443236103644 -0.526724569707015 0.45854428960497706 0.04025209179285002 -0.2824876513826106 -1.1729791211275131 -1.365081792979349 -2.2188571150762475 -1.2978500687981624 -0.5265137912891961 1.04383027523109 2.4757268586914085 -1.3046097354172135 -1.4690780276585396 -0.36505611883400607 -2.320328225021889 0.5585092932127375
לחשב 5.60965432590275 -6.507229191989568 -3.661089237859036 -6.46833248223428 3.014503119961252 -4.492104164015984 1.0679338962839007 2.9082009717892157 -0.8999009392440875 0.24081783970373397 1.3133481557549194 -1.4053148341778916 1.1243831592259705 0.2827503194677752 -1.916550491084069 -4.164799199317469 2.2343256037855412 -0.49325630984124075 2.8132228721206594 1.5122369414879564 1.6631105767982288 -1.8724092774645076 3.183575499567954 -1.936780179434978 0.20491297961306293 1.4145486494286073 1.1799938041898204 1.763332014097048 -3.1048656566467963 -2.839904514308478 -3.994111598776033 1.396777265174281 -0.16612481575052113 -2.909794154568162 0.21259797350008003 -0.032199695965417635 0.7925505721610611 1.0197094672940121 -0.5114478314444402 -1.7910495864389044 -1.629238932778497 -0.5049869779866157 0.05821231579448631 0.8010354646685985 0.47949820451281 2.1364759908326785 0.6883931147249731 0.39797254809842975 -0.9347492899512896 -1.7802881530700738 -0.7140453682929283 -1.5591263256794223 -0.7755576541899099 3.538061308577895 1.9413554619687519 -0.6019587095545302 0.7210102351344372 -1.9813287674617108 0.7071309189599403 3.243074114672051 -1.9032379890136193 0.37465921170334043 1.0367298164611871 2.2936797924028136 -0.14933352014461648 -0.6663596176672705 -1.4002141252113027 1.1142701834739217 1.9045536833199341 1.5941110165382009 -0.5274183001635314 0.7373447769098243 -1.6604152642978967 -1.144578842119894 0.5445989969237325 0.6942514139600583 0.34586246997363324 -0.46258861122610695 -0.7516028750519307
לצלוח -2.4338774789352433 -2.093882052454377 1.8049998404740148 -0.09150201475399941 0.4499492642869228 -1.9770847744228395 -1.2553048994209883 2.9122814984763354 2.898581141827085 -1.9323687523394737 0.5433059219295346 -2.1633603006251922 -0.6319105869585306 -0.5168191220570788 1.8864443304165308 4.226842401564676 -5.40948364633315 4.132635203429118 -0.4034542144119363 1.253922113291496 2.0964359812269793 2.445385756571489 3.462293271959185 -1.8885079114829435 -1.034283518797539 0.3059909447050556 0.06179467181161569 -0.5786923525584913 0.7826383389999765 -0.4836118618305821 -2.1468610589063917 2.740784983207732 2.3749831158952834 6.928638813279645 0.4381750349172418 2.5313941883111704 4.973403964616163 0.8614820382564895 1.369107372797918 -3.8203462307758005 1.5163096716221334 2.6665654609513973 -1.678346898136103 1.288628333307412 -1.4485234765726722 0.9212275321863725 0.9898356583651595 -3.14507317256802 -2.47781596396116 -1.752829999998568 0.31403342760408015 1.895147862943962 -0.5464594875558919 0.9073951464440098 -1.1602806287819627 -1.0578774895181242 0.09830312409715637 0.6490464487756042 -0.698815823089768 0.7140492324834063 0.47546455239493235 2.37295216873625 0.4434728004898768 -2.15766999633215 -0.1309248101585588 1.2673340511908588 -1.2293914708327054 0.8402451711586969 1.4482246389971833 -0.8205850549844499 -1.2032347995471921 0.03286772073283031 1.542919069803255 0.955953874206254 0.031484721454785244 -0.2802903825543777 -0.4806211101353752 -2.0655863068979725 -0.2776405359489003
לגבור -0.6665496780679516 -4.08612655771361 0.930344315497961 3.2629855694938046 -1.566790808251922 -1.9468740570928758 -1.3786296112753307 2.935369025719521 -0.4491372678842664 2.8104663456161076 2.0360486190006273 -2.0953642575957834 2.6631506312914026 -4.408852579816689 2.2329137046482015 1.0623282257750273 0.5199069675080786 2.50040676561048 -0.5179950258960804 0.8307377740447033 1.8156224475280185 -1.6815768958246013 -0.34769018986634165 0.2907232078886223 1.4889390011227985 -1.2589506874709295 1.0627912863677453 1.9892200590442841 1.4179278197991685 -1.8843261523204646 2.5597710824222055 -0.2008882960057966 -0.40189657504966625 -1.0912823951763095 -0.6437517158991816 -0.008918088518720363 1.4787862156125071 0.15316847287851812 1.5118427027701042 -0.7111282349839664 -2.393730019745654 0.9371244306867866 0.6824638398704227 0.4893817470850147 0.9756086020128687 0.04631879822566987 0.20546744889325178 0.2940802662722865 -1.1054200403002468 0.11581185422547105 0.7308173147815707 1.4831204925906838 1.5775298473652402 0.2722733418837834 0.04941673819932916 -0.3875713174612399 -0.4847043430408798 -1.5837150478347592 -0.19449573848807541 -2.069615861592287 -1.6415377758689085 -0.37510187054802135 1.3725545251198625 -0.993384012772401 1.4982343127363922 -1.8865781858642376 1.6656772030692788 0.6835855686690967 -1.4839104284063038 -1.8422557908893489 1.1013158608514515 0.35920743142050404 -1.4856468442919168 0.39834118168238813 1.3331160370472848 2.95646293452439 -1.3761287616892142 -0.4696508484492214 0.506440260800678
לסמור -2.944607894277081 4.258346745358816 -0.5415556560706192 -1.916475729937735 -0.8321179913190995 -1.0240640283236273 -2.1817219088026203 -1.1571787209422562 0.2614460004071689 1.2403547081318043 0.22189277880499356 -0.40066987366597306 -1.2000706303248878 0.2222295781515331 -1.4486782781356375 0.022773459206403855 -0.4692423894771933 -1.036486396216878 -1.4148041020210096 0.9036727772867009 -2.569905770392132 0.9557588285364944 -1.1139425035737012 -0.6721674833500678 -1.433378202309247 -0.9950124032034209 0.6465393490135625 -0.2851169229143427 1.2390294675853128 -0.2665573890434974 -1.9030701864106143 0.2792522774919638 0.46985703861801825 -2.873834631472529 2.2251386283042707 -1.112290973564894 1.8488455585915258 0.32355636580784586 -0.43547021498135735 -1.780783893090172 -2.5702132017391635 -0.9948353880156541 0.05615372155708661 0.5505198506161609 0.18035508844233852 0.17850966169745228 -2.833040580265618 -0.8221195888916237 -1.163705731952491 0.3898388155376219 -0.27520016915651213 1.8331143270954025 0.5167357225823125 1.5588095639756525 -1.6012571277340393 -1.1220356828522127 -0.1533622119453621 -0.45265866733426147 -0.2625364166337055 -0.47345349773640943 1.8524931163727427 1.8689613748739475 0.21639046633516046 -1.1608791588185052 1.0828803806851353 -2.298661574234726 0.2877538358508236 0.09693060969391865 0.10769263034383648 1.333966929753285 2.769486338861681 1.651690220884133 0.4741790905040368 -1.0218915455731385 -0.08075436745521232 -0.0764901459357093 0.04747666833389151 0.27841224337495446 -0.9048640001576878
תקליטים 7.146656507605935 5.705294971906709 -4.692965294000508 12.304464681226975 9.925911167696166 -3.7904570678598963 -3.299862668669038 -4.607262651750704 -3.029801119644394 -0.9941336439992621 -4.585659216362765 -1.5533545139531224 4.550238207338517 1.3649394798083496 -5.8327096956121505 -2.1458457077750537 -2.711078150286777 -1.1512119322674508 -3.489928944684327 3.3349531275483506 -4.173946379366217 3.570090956788738 3.2842666712212414 -3.439437088460242 1.7101251536201605 0.8062574345831365 0.3525793441634064 1.9831360606327906 -1.2863950477605555 2.6659667314448683 1.9594522880331395 3.3199284471506734 -0.3639080921239782 -0.10818960918043533 -0.3320433801623546 1.7637074479367403 2.326522063097292 -1.6537386232260423 1.6532250510899202 1.481280748193302 2.0041857464212525 0.8725330222204838 -1.832102822901784 -1.3647501963207684 1.0428373965525217 -0.5264602179288927 -1.8864921755881217 0.6231655876506907 0.9631813069447396 -1.2876949218391027 0.13467402353643523 0.37067647577124296 -1.1819003609779717 -2.5385058209020865 1.717540681984324 -1.0231423965655717 0.5873751144326465 -1.7160337942447794 -2.2853728453919917 0.8135422309275295 0.39304754133343195 -0.6967603888808483 0.00395000011603654 -1.0650655784377288 -1.4164660060075516 -0.4181651730354216 0.5170750854594901 0.344508254268271 0.3905218525081964 -0.515659057669242 0.3282351778478944 0.7800967308541182 -0.5445538350403005 -0.37288352592403706 0.6475081715673805 0.3270815804471008 -0.8193744996036153 0.15834496457153135 -0.0482793139258821
להסתקרן -2.7106722020269247 2.6423548414323386 -1.4422757347212654 -0.3408063500843357 -0.8207015558169246 -0.9423525097741504 -0.09818710867317271 -0.21152609737677758 0.5900429834788495 0.4544738302272441 0.07044091363879525 0.6347134148627341 1.5266758994399399 0.2547954058462927 -0.8598661672107634 0.23378175235953405 -0.3890529375013057 -0.9986082397743775 -0.08146783583376399 0.3873090284941341 0.3648689510196458 -0.45327750576236253 -0.53452463068285 -0.18951973499395186 -0.6529602512828085 -0.04514806662817148 0.05749884312681368 -1.332159899504413 0.307674379855077 0.8117304272418113 0.21628412044615375 -0.05552145476324104 0.8712017071435804 -0.6122844635364473 1.190588877981277 -0.05918560138938016 0.3760013440593553 -0.6197879200182341 0.09961598073757101 -0.19865438854103123 -0.6184687410439151 -0.579777284850126 -0.23773393581950017 -0.23651048149507822 0.3315462003197401 0.005840330386645966 -0.5090137031602537 0.22307236904569644 0.9235131458132974 0.668461414960579 0.45196137992661783 -0.05121055941174785 -0.29117078925754525 0.4938070532516821 -0.9571339692264816 -0.12387756180533557 -0.74316534933531 -0.07498066653941848 0.5005229576191601 0.03744597418218342 0.5034940558956288 -0.5217528784481185 -0.49791988818976723 0.2873665125604699 -0.7505064966663513 0.29268850469412633 -0.5590805771390972 -0.5977863382592611 0.1546031998568364 0.17456716944031797 -0.546222053605053 0.14545838014922996 0.6142132907848656 0.04590848838966552 -0.8476396403697875 -0.5701613751342215 -0.3847151122893387 -0.23986579828979962 0.25487698726390107
להחשיב -1.820722936651673 -1.6574117584593242 -3.452819393080538 -3.7614710767973727 3.5382181351353825 -1.5966817452400763 2.2086856184146173 -1.2222702330786188 -1.3580637232031691 2.209264460493075 -1.1485550557661817 1.0076634347781375 0.6950527801957573 0.6950058644752507 -1.1956916604251415 1.3201716812504931 3.0279458369715 2.6503270644649484 -0.28359462502260147 1.6131333159996908 -2.0634112610841013 1.7461402653335691 -3.6626621118335096 -0.34302420643080817 0.5838138530397605 -1.1058797315512796 -1.3480467740263864 -0.9346505819376572 1.176265007398328 -0.7791530341102177 -0.4178355715182017 -0.5942387069417081 0.4435229172362862 -1.4590110465945019 0.25029066771048747 1.0165532053410575 1.6938946633662824 0.8956852898733362 2.5033651360915536 -1.968531646474062 1.294552572587748 3.0197487127801894 -0.5356176646699662 0.33977822396080776 -0.2043623318333895 -1.1358662179643697 0.03626851165818625 -0.6388542286924002 1.9033894285896122 0.7340808069235414 2.1821854584680356 -2.2600378086403925 1.8189127359799424 0.9722445667127871 -2.4076589989362374 1.3318761374115902 1.0474177938230933 0.7666294995302236 1.112745707844088 -2.5668338460891054 0.6286715719275037 0.8327494829246065 -1.121103849245306 0.24640809367401356 -0.17429917496768582 -0.9149592555717753 0.363753585818677 0.41798002457654254 -1.7173761551686717 2.1551367717115064 0.8297705279252657 -0.463600289806153 0.5119582830613078 0.9234914123385934 -0.45645816745334616 1.3669934501355434 0.1631750089576874 -0.581031089084173 0.007123984358942546
להיחשב 0.3386138301808132 -0.2075740470297916 -3.347858480769264 0.3411078114606477 -5.827218644295692 0.9342366378948698 -0.6864902643625733 0.8104988880836687 0.39673855921734263 0.36957054160212155 -0.05758146163010085 1.6227332627887245 1.1881425700303112 3.5687675329865094 -0.0018234804452636458 2.700806074192263 1.9874341218607698 3.4299770601093518 -1.5853122523487615 1.4171733945726426 -2.458213791114757 -0.7511272662493315 -2.3719708819222163 1.3647357955292114 2.368278332750578 -1.0237155998378196 -0.7214379891546151 -1.2591273443759186 -1.1613350001066203 0.4056406345543082 -0.16444119047142225 0.7229932229524911 -0.09155763347283682 -0.6662158807220632 2.7545232315789296 -2.0834466034908954 1.872225438869725 0.7623449759853472 1.864401229369502 1.679912413306636 1.623786975813582 0.5773255093333141 1.0500477144182487 0.20968792643275566 -0.8555051939703836 -0.348082906082685 0.1924448717559616 -2.69169185804072 2.207947439639182 2.7085663008952237 1.8626414896665775 -0.27930648000168135 -2.443830148519963 0.1687414473378767 0.13644306333894363 -1.2033806350531142 -0.19441151571875412 -0.24680454269852742 0.4092296095068215 -1.9248462277218439 -0.5056225436093877 0.8003801549908516 -0.13855870272002554 -1.2716589061540584 -1.1918046700328697 -0.3170919825642407 -0.708374336747003 -0.014864989504839929 0.21395167978299834 -2.7662703822055392 -0.7231871462860024 0.19031102273980774 -1.0336986281978826 -0.3022744352398709 0.23523725903232318 1.042918491975503 0.780014754268731 -2.6716811655673 0.27448475412607837
מסמר -0.9271148941906355 5.825367847763046 -2.49307952457089 -2.2767552709641725 1.9973159083360885 -3.7998788143152518 -1.3372210377684983 -1.4155472800786408 -2.881494360674363 0.6085985041274604 -1.4264009143772494 -5.3199746405447055 0.6914217380236223 -3.4134237682993356 -0.8841197042229941 -4.986290269767099 1.6280996215008157 2.28267290801656 1.427012705864157 1.3206098716080243 -1.2274356153239532 -5.274232922612026 -5.96306711768871 1.641764930757639 -2.515730498147406 5.5706475832244085 3.2389943929232636 -0.6281231311082582 -3.048047710907842 -2.7500569978833704 -0.01937774111742258 0.44947087180541806 -0.4529287818248858 3.391651919340476 0.721641091657334 1.6079307966626217 -2.824826184933208 -0.6400179068049797 0.9762807689524742 -1.482741365512293 0.12696290346811034 -0.9772651068874136 -3.687167863839955 3.0931426682270424 0.5908592908684518 -2.167458397738045 0.19058961149496859 0.7178252433303819 1.3065827101118714 0.5155893459678894 1.9010137572812096 0.8300253842076367 -2.3345939984199675 -2.9509855445192614 -1.0452499585634034 -0.45797836562473276 -2.751272514084705 -0.039882026448799096 1.2067517696071783 -1.0649194628880219 -1.61678308419903 1.9390918525465117 -0.6648934724464055 0.5815460919529679 -0.046710974317046954 0.47948465405041457 -0.6172423458147812 -1.0311571276276632 3.0621958436780052 -0.027252887342382615 -1.5395453209435956 -0.8275080130754406 1.247098884057675 -1.8712222881414948 1.3751299840729994 0.7119680130394312 1.463829001539304 -0.32291807515361454 -0.1489058892793243
לספור -1.6510715629889856 -3.4845980426143743 -4.4567102630384445 -2.029170141568757 4.427129755122609 0.9797246179669256 4.40965039806977 4.4043814902274345 0.31789518982029386 -0.3054727086253658 1.1010238423439025 -3.1390134063948216 0.8138557874136373 1.4067449706284918 3.038374773891452 3.5743948734953648 0.2029965060791068 3.3742397036996366 1.8174297242221644 -2.6233228728314852 -1.7932608207471288 -0.23000276597553057 -0.17983964993612825 -0.18673346185697645 -2.031860950526527 -1.6348373968616674 0.439536485502102 0.6463906887929617 -1.6327587686978977 1.1917380858855982 0.7641724984040562 -1.0250924855280303 -1.4139058092034325 -1.8842025414764423 -1.8518567012847025 -0.6108271002288757 2.031600447579777 -1.2860844891054295 2.077480058245924 -1.464369065086682 3.535086292071941 -1.468189392863937 1.30274940512781 3.646653154528817 1.0025378085201306 -0.3841901502735677 -3.2339375339917207 -0.9351503487573216 -1.2313046105007717 1.503782251591939 -0.3811426380390488 -4.062360947157085 -1.5366115073047026 -0.7846016180638762 2.2925276532309566 0.8380834571875238 0.06988616516423006 2.0454696127286534 -0.4672837001977895 3.0139874261179607 0.7333738551901043 0.20453194857559015 0.17782069067633283 -1.0544030311180903 1.3423499802812546 -0.07417059512893691 -0.5093995056795699 0.7894354924702175 -0.6086445191961847 0.41964324470996295 -0.0669310976541559 1.772073060493409 2.396042080099851 -0.8304910257850038 0.900298922539895 -1.4633705181677843 0.646345445376292 1.5939727899499831 1.3379069152612175
לצפות 5.03820943938508 -4.511033512987157 -4.022346270346651 0.9586808789617406 -0.31202380355829246 4.150399738143685 6.337822027203616 -2.9527017765866135 3.973291946778015 1.962393659207964 -0.5325168680642347 -0.3951492071721144 0.08124778470385245 -1.67558591335597 -1.1002588524210828 -3.2020268553905353 -1.243217715572574 0.4231158896431846 1.5946295714084295 0.4185222580352319 -1.8348478367982841 -2.4602936761518674 3.357598614159701 0.40608672462097534 -0.16913404709671473 2.080248381003437 1.0302109215351416 -2.9752757134590335 0.5408614703322999 1.2872398638541847 0.9984878290127358 -0.5837993788589322 1.437049593728311 1.4363858075347697 0.30868481298641537 0.6430655107040634 -2.5279152817312136 0.8848012738028347 0.07897550733681949 1.0277088321828476 -0.2412572866563856 1.3827483239682314 0.35454885062328534 -0.6088548970422641 -2.480943515616501 -0.6135458178427758 -1.5243610099747673 -0.29461667071179776 0.29034053631983325 -0.002409643176049423 0.6221194777911289 -1.6346211931531252 0.9900078090867378 1.4090046568513674 -0.043732970414463 -0.9211855776134119 0.03190862789914336 -0.6597923113519678 0.5522464867424128 0.9080552656630949 0.5125357770868852 -0.7938019437663233 1.787244635799924 1.9429344335495609 -1.1512106958226045 -0.9597590549570725 1.199990084084727 0.806793936806807 -0.9725903077973834 -1.5699849843522635 0.9008721141108629 -1.2395396540902468 0.32861213111907495 0.13687755245374902 0.3247722359469723 0.5008059905091602 0.3209164594689985 -2.2318560734436144 -1.339445372052419
לבטוח -2.6829363257495475 -1.9398596950974003 -4.931572333973757 0.5904549014164586 -1.906104383980068 1.0967037692543196 2.6769964681914753 -1.1940619503703975 -0.24654798494010924 4.242317575382188 2.738511872990906 2.8142166517496565 2.4675428033546862 -1.038156385076515 0.3230948421284056 -1.4847738879416799 -4.084322366650997 0.47611325639440777 -1.2029526962478325 -2.267218549025539 -2.873924373008031 2.480949003234036 1.126483945282794 0.5193954295166014 -1.4984812842907116 -3.654316536753846 0.46538821552996656 0.14245555165495744 -2.943988320202254 0.3181843775882095 -1.285155929256153 0.14418634430276286 -1.109668935200663 -1.06235223807745 -2.581074059016802 -2.0058832632043777 -0.3849027434412032 -1.4940745639639292 1.7592082033820287 -2.350773895694825 3.3400758082076747 1.2244142436136674 -2.0187001173768784 -3.0699633165612603 -1.4821284036859992 2.1444691178076467 1.7563894084251763 2.988883566064579 0.6279714709698966 -0.6422833959665205 -1.0700009621633244 2.140463287019499 0.10325836496532012 -0.2992874009089125 -1.726396019247141 -0.9983696737306947 1.5146755173615456 -0.216636247504746 -0.47582623061288953 -1.8558482706402417 1.4011708968833168 1.88726540694047 0.07797571510541557 1.3422758520677986 0.8203744836401053 0.46594876470715635 -1.252578961881023 -2.2299241422288243 -0.22593770425708512 -0.5201676967053381 0.9303823457928392 0.27219791365617013 -1.274509870702144 -0.7157842413287909 -0.37000186295453447 0.7805345118969086 0.5086074311036206 -0.5407764107686762 0.7488572187087612
לתגבר -1.3322496229412994 -3.743365452832733 8.464159147181737 1.6547123263079158 2.0369145169142446 -0.9289757489084706 0.42473527262287986 -1.9452354993537002 -2.576766311662873 -2.379159126704379 2.958094786621165 -4.308590602299493 0.8183057509300058 0.012289347148454418 0.1751017198465455 -0.7677605346849224 1.0558845038957372 1.4371042507396798 0.135059542412557 -2.5680556225420013 -1.2565456851331305 2.1581682578907007 2.133976992268518 1.5478495873141076 0.18550819360215365 -0.1815958778155419 -2.501454224499898 -0.8845661650223535 1.5424207252536553 -1.0936468413748075 -2.0790861764373276 1.7474612549778832 1.5698644534017023 -0.16758204367813795 -0.9780828643476835 0.8349321175119924 -1.6849121373468265 -2.633024708178615 -0.2398807330006565 -0.6727817850038642 2.4649400067724585 1.5118504078350614 0.8915677630070172 -0.2924017587932093 -0.5186679771482507 -1.7541736141322974 -0.3432816843369248 -0.3583641473944989 2.0043492176031927 1.4932439600895904 -3.119718780175039 -1.4941105740167413 1.0157563174495339 -0.4791915220196435 0.4358729027790598 0.20016574368573012 0.7727988415185473 -1.505087851589687 1.777515099806875 -2.929624456227689 -1.4768261065364936 -1.5142343915772138 0.07602043805868888 0.703090964434381 -0.399638214207602 -0.03715610757100119 -1.6277035297293947 -0.9814667269098387 -0.9518970759582525 -1.1076471031119117 -0.05897881226719763 -0.870136924050433 -0.5523211952846834 -1.4736639130836986 -0.02603424724271292 0.1024193735504481 0.13310354258630572 0.42973023007159045 -2.0692893956024516
לפקוד -2.1034505732615774 -1.4081816572518973 0.11265473736646042 0.19529711032628883 2.2839367059440017 3.645824551436715 4.842273486949985 -2.469633333156622 -3.327184659645866 -1.1396501782727 -3.566662538980902 0.5814506946363571 -0.6337431487281509 1.9575338835135168 2.5674667088468905 2.209576174934241 1.445168580175722 -0.313434397795269 -2.2407125406420674 2.415834181724375 0.8134082483123135 2.047617261617911 -1.420109621239584 0.6496420395104189 1.2925086476610288 -1.0957394690838502 0.07288579724000886 0.020571767699934716 -1.4904953781107668 -0.13944010470156284 1.200034895763565 -2.331801497405877 -0.01657398295251264 2.042403075456461 3.0410532157567083 4.687097077793938 -0.27821016270306054 1.6787841108939392 -1.840386232428823 -1.831209627859516 -1.4862174216040454 -0.5147396913905273 1.1528473503191656 -0.44877485093823777 2.2881193297571754 1.9872777547037839 -0.22708336626678077 -0.6687101471694467 0.7250838441184149 0.7807459020656103 -1.9064459923537558 0.1683144555575416 2.1895974469572397 -2.8342698597221703 0.5802303518357903 -0.7146423226965699 -0.7464416495786251 0.7373363144911884 -0.241109601647674 2.4221475039198865 -0.696612904654352 1.898192334219587 -0.2930883945903116 1.0550548641245838 0.4463082620454241 -0.0921747150510934 1.9050274051396583 -0.7969798119042089 -1.9964728044492137 -0.6901039329859809 0.25125033026728927 -1.282461191100863 -0.6186626983033553 -1.4909566927957545 -0.516649484431054 -0.43694433878838074 -1.0372653068889026 -0.8760172369363436 2.384659336647622
לחזק 1.7140934630995828 -5.148039909449937 7.737996670576334 2.794039033171191 0.23060462298876275 1.8524248346319254 -5.274653427427446 2.6206245465460607 2.0348462599727157 0.5939188052188032 -0.022884262044624067 3.015204446902149 -0.9472871471094481 0.6737627914207042 -0.4092590984324494 -1.3497704928718646 2.7644891532907065 0.49798663761011447 1.7385427668200988 -2.3961056799473424 -0.7016622224939821 0.3016380194176367 -2.4446755412278187 -1.2093007707103625 2.2246266705380546 1.1344657879983682 -2.0017549619540422 -0.8606817050449721 -1.5812528237445407 0.5741366619316335 1.614898567157182 -1.1658121990749126 1.3141274957726476 -1.2489795835905553 -1.1022424895634724 -0.1172273634701184 0.20932042188653657 -0.987177230758839 0.15653225562601902 -0.6886381869816794 -0.18164806684801849 -0.9085633700645184 -0.572516938949786 0.5738734432418379 1.2300532100706898 0.4778114320914317 1.0069589551945521 -0.25597649502266423 2.2080682506510168 -0.49560135311161857 0.24928200186951296 -0.24440255117621934 0.02759025709998972 -2.042426967229779 0.48550778090743246 -0.8360609779513201 0.9464773368578567 -0.3567185453952104 0.49913096972238247 1.4574375979636194 0.5304037342545068 -0.2832340403986416 -0.9945331304130302 0.47804895932624986 -0.16571273140254428 -0.10897744585710874 0.5199218655438663 -0.2600101717536791 1.7427528707094613 -1.0491385031732572 0.8167469477650767 0.03583735722897541 0.4950863324962654 -1.1545648116641578 1.0905289254213166 -0.1491443624076854 -1.4421522382642618 -0.9069794623172499 0.8989469117111595
