לרגל 5.413705575041065 -2.8124767078417157 2.7865186830648474 0.6543778656881797 -0.3126404145698231 -4.909406817819826 4.703243427241326 1.9817692241131466 -2.37757112773701 3.8792155689991445 -0.29397840018057864 -2.4182730696220016 2.043238820615914 0.4426804048395928 2.1240903040614048 0.42081755348728495 0.8817539519580326 -1.7796812901769494 -0.13769207815654122 -1.162018853655185 -1.9432855998664076 -0.22789941156696755 1.1381394016940898 -1.4407367335318253 1.4775070040996081 -0.06823438780868943 1.718093088919318 -2.3932008577707395 -2.033024621987324 -1.4871507512169437 0.09353190329826147 1.6034838130152822 -1.6668425183715485
לחזק -0.2443171575230469 5.471540859217895 -0.16499523857832293 2.128341883512879 -0.7720920928431576 1.019449365932828 3.426518762697939 -1.4529582898379416 -0.6908802025229932 1.066918425543376 0.10236615960876273 -1.2659015905962114 -0.7462400099136467 2.1396509529702112 0.6154011873739759 3.2316542621089357 -1.157274324766665 -1.1843680049935914 -0.33354296784515625 -0.3358679638331757 -0.17763639212635382 -0.026973438337664836 -0.6702933518816403 -0.9937910615456371 0.20415083719478436 1.5715187775742712 0.8084031909162847 0.2316344561781968 -0.03953263636783371 0.5079464896086704 0.5792843299159929 0.2771183807340227 -0.34300325578191104
להיספר -2.8961746734547917 -2.702297904010674 0.8683566070204516 -0.2707541531280751 -0.4938312950640939 -1.5292369792411422 -1.0132530702041063 -0.03686054157234388 -0.9292448356005112 0.9856223329419561 -0.11832453455428807 -1.4354593982934392 0.599121150608515 -1.4256318655022082 -0.5089506363317694 -0.07025162528643297 -1.8750262469847716 1.6907579805434154 -0.07781224840913223 0.6910868405191538 -2.1643908360359148 -0.07771962491184935 -0.026270102798913713 -0.7066635684621928 0.2412165881278562 -1.8512804266510667 1.2563304407236968 0.9575835902915733 1.4839944332381059 -0.6392369245676484 -0.4856492138658111 -0.29463917253397526 -1.1410744191001467
מרפק 1.407142465169107 -3.4703441853664874 -0.8967687743674276 0.9600193966012158 0.35653041529478435 0.3467413179406358 -1.7753447565711529 0.8574241044326772 2.342562454776477 3.748508211009973 3.027755197411242 2.0803555688348214 3.778367212582251 -1.9278122844172043 2.1087992537429536 0.9185411611174178 2.6647698339330104 -1.171535492176214 -1.0216510330706416 -0.07167380090672257 0.6265457315537455 0.795524505824307 -1.8322567721843859 1.087374352679205 -1.0550145543355187 0.8703455293135073 0.1131568846262367 -0.10220964408757102 -0.7536448358578762 0.7540661740096205 0.46870460967697486 -0.8506205946890767 -1.2401487436754381
תקשורת 7.782653998548906 -0.5836721728363641 -2.622500849754995 -2.96140621612594 -4.0949914017209075 3.190307513458746 -2.1946109250942483 2.1643679269714458 -0.06694735217444515 -0.8597409022367876 -1.147042766473658 -1.2984618353584776 -1.5371561433774132 -0.4691609395609244 3.286775348740793 3.964368295892423 -1.0867237117057775 -1.6889979633380354 0.29316538775408557 -0.020718076551914603 -0.8010782092296459 1.5120303828696897 -0.8716454552211154 1.030742812820269 2.6268209417372557 -0.4604139131961342 -1.247113269758433 -0.5640949715185717 1.9257584844375342 -0.18331100854914859 1.2034273856402176 -0.5953373803830402 1.189378965939122
למגדר -0.23129498377691968 -3.998695869817609 -3.2152513510206533 -4.227589154781167 0.3452962474983359 0.5149511113560025 1.8819550027044667 -0.03815962494024068 -1.0542080629531438 -2.4383146743166817 -0.7537373227065695 -2.332477602301027 0.19382967221385256 2.6518544280923537 -1.741575113011404 -2.0630194648844626 -1.8554598476382158 0.5772279711735855 0.35477452542466975 -2.8977793684618467 4.088169616707662 0.25449025932477076 -0.3544498254577666 -1.9075076455461972 0.8784996130746844 -0.9445064430973926 0.701677914584873 -0.7087425453711164 -1.5997646168270514 -1.9041360231009081 -0.051611364556135166 0.5571140869479919 -0.031216170545885064
לחשב 1.3646207297706818 5.59683911802882 0.04083482834339528 0.26590408181489444 4.831858853486272 -0.9214581194426049 -2.59551219127942 -1.0395543235062936 1.4749257319748585 1.7181868645885354 -0.7049694580075394 -0.10409784586434072 1.620173876728043 1.3802252182655743 -0.3330690935718467 2.003899182722007 2.9777734458778293 0.04349807644505231 0.6502598560159789 1.7182565117071231 1.2520390907523642 1.6589001532585155 0.1803541593780838 1.7327823767156532 -0.5841486777840298 -3.2993488175965884 0.26133343256239344 -0.3554478745990279 -0.32446568424098954 -0.6107550026310193 -0.6806691823487906 -2.0821894840322765 0.7337371088613216
לסקור -1.411977968465491 0.9783089305568005 0.16851321765078758 2.213357833845197 0.6816829768772026 0.11037180176939741 -0.8059542500038592 1.6986844489226696 0.731695475526738 -0.8035815362115732 -1.4551238910523527 -0.9273724603188805 -0.7241958889385655 0.943223299376933 -0.9996193540973838 -0.08803451729199101 0.9108972455969412 1.3596045713259792 0.13442018900765948 0.8856580443724457 1.4348528049553964 0.7413524643310864 0.5740053854035292 -0.8321720509493032 -0.22411268010958388 -0.26415237616033416 -1.6460053681582183 0.2949692046961388 -0.036005728415347216 -0.5057539442882073 0.008700812298991419 1.2974514356489397 0.3504369437309062
לתפקד -1.5912053226956078 1.8140637603542957 0.5750573275549652 -3.322878355415423 -3.2707586419544454 -1.730476657299265 -2.045541924067861 -2.9107483875795523 0.6008481834155498 -0.5249945368026447 -1.4392851286559807 0.0991041445992271 1.3683608725639096 0.23926836006926402 0.9286437346358245 0.45919996981038325 -3.650760144295104 -0.6792711288105218 -0.32504992741631755 1.1457337118542807 0.9379154898744569 -0.6638709511122203 -0.4526158592709655 0.29988139486141446 -0.9633244820303664 -0.14645280935166494 -0.3448180740921012 1.6330776253502544 -0.748926733469577 0.773923091869758 -0.7650514697493618 0.132621391200421 -1.0990073306822785
להשכין -2.4017785167689905 0.6785233419496338 -0.09423039357266119 1.089503957183214 -0.6906725555713723 1.4258828522201474 2.497439643998919 -0.88567584780856 -1.4872013816253886 1.091756193589226 3.06409255122543 0.6781750513286461 -0.6353853841665918 1.691712958713582 -2.7150531733270267 2.860061611994147 1.0454973481453516 2.079092214989884 -0.42804550168064326 2.6344289921740143 -0.174789680234592 3.760215881516554 1.4747556373637107 0.7681776854840496 0.30745050335740753 0.9172280335003734 0.12167920857151679 -1.3462595068985999 -1.3980190139968611 2.388557392931483 1.8600729563465517 -1.7651736413597328 -1.1300538923983656
מחשב 8.409031188284901 0.48866479487933223 -1.1861511926364008 -4.961398029445183 0.8799776738678687 5.3192061605722385 -3.3676313172686463 1.5009483996621327 1.8814919228859999 -1.7456519521320712 0.9799577711878967 2.1505294550238694 3.1869408104300057 1.458489325591881 1.9886346310350018 -0.6881934629575543 -1.4728778256832329 -0.6100912541740044 1.4229407030673058 2.916649448931764 -1.1765067101717115 0.07179891759548758 -1.0114850423586972 -1.9725199626844048 -0.10101709784688617 -0.5102065028702891 1.2356785390924496 0.3493252534183677 -0.596819315824231 -0.8567498011818145 -0.32982253156028046 -0.37710697856277275 -0.7998098316105404
לתעתק -1.0256931307802226 -0.8586773463974156 0.7479894986507544 -0.8730516563988808 3.719757427841159 1.8530293122995958 -0.561150021642735 2.0901111701603674 -2.0012050848561076 -2.1084384116009587 0.8909200138580837 -0.8084714774471234 -0.0016958512370466971 1.8698132060552846 0.06421925552447946 0.08076964206886726 -0.04610936000158419 -1.6470129393577106 1.7739654924697723 0.5403077796634912 -1.3978864549415364 -1.5407386476831153 0.2904369870894538 0.7377657183048766 0.12414046496191633 1.7672415959055745 -1.8588214685063285 1.5110403575938836 -0.7936292295147332 -0.15207333618897179 -0.7973807729326249 -1.894434534146185 -0.408216770985837
למסגר -2.0935103505804276 -1.2716639750290915 0.9090550732668384 -0.8424575050742702 0.45973053618651627 2.4622208500648473 0.8228311407729241 -0.07323970283755597 -0.24849282398115943 -0.908864288451025 0.3200898171733518 -0.9186257726562456 0.8545043142917883 1.3006679920524056 -0.10358051678189839 -0.7333117082846907 -0.33041074653089497 0.504133226244388 -0.03725904315097282 -0.05133615743140551 -0.663302833552718 -1.9191837793792368 2.478526192108509 -1.8968506463954098 -1.2829124958420448 0.40932691939469523 -0.4734490244943936 -0.28878452700052976 0.07317748995770708 -0.31685147593016444 0.6929818436510413 -0.7310385671289545 -0.23895192137863258
למספר 5.728417083015466 0.5605360880358881 1.1804804221416163 -0.3051632980147682 0.6404999780495927 -1.3772821783712859 0.23782512091391908 -2.3090969966682557 -1.689476462583843 -1.8883238834006764 1.6978713966137822 -2.517281964399749 -0.7967202117192048 -0.7933068822264387 -1.192762263937059 -1.5840878646657013 1.8201196482088668 -1.0957211893019425 0.9851397758279784 2.206269271162916 0.8593172729816939 0.20969499127921315 0.12302834854430202 0.8822978899903248 -0.5255417690681586 -1.3285596491430818 0.6600451721306146 -0.021022385524502016 1.6125695220245728 -0.07885430485272471 1.2732215396455089 -0.47448948291628673 0.46836869683130194
תמריצים 1.6336834812741297 -0.8309296603050835 -1.8815516472619045 2.443761196918055 0.14285826896552792 1.6692452216262048 0.635458437282451 -2.753084421224059 -1.9182865323927953 -2.632238802755537 -1.3648568018523384 0.2505709900724108 0.10311337687974463 -0.7433554259942322 1.729664130039422 2.208468301089789 2.9724655311703656 -1.8879516174715416 -3.5302964377930306 -1.6070728204940035 -1.1692996484511102 1.314933230410658 -1.5022290518543158 -0.7815435286948544 -0.7646351825937036 -0.2879324487869713 -0.6960309925428596 0.6915642422570338 -1.0829030113343099 -0.21202250925257035 -0.8182205109468966 -1.0356577104257378 0.39199190988688126
תחזוקה 5.045151576920066 -2.2428337320080822 -3.511993204610081 1.6730134320855305 -2.860855217123129 -1.3427680825324975 -3.298217201049713 -2.439218115568204 2.6349020996939228 1.512667150116992 -2.0804109164858957 -0.7678018369807839 0.48435758383037236 -1.0163317871261948 1.814924542167117 -3.3904498503770233 -2.853738587579278 -0.544292006718426 -1.2500615493071703 -1.4473097856347308 -1.570536517237882 -0.6446033179183033 3.436509153479905 0.6734337687457721 0.6239532543964451 -0.1783940692748691 -1.1217361448241898 0.8853136815212338 -0.9833334368595984 0.8677338273945757 0.6090226716529237 -1.1373685849709543 1.6175514140193468
אזכרות 1.6433017714315445 -3.0940716692084256 1.631359107806701 1.2956238483299225 2.076631270188598 -0.969678589032206 -3.2923549804480112 1.8219690695456292 -2.8112180263103914 0.3569585246909203 -1.5813019085909636 1.833461789269601 0.24968720549082324 0.7125747020434522 -1.368071110561008 1.2690839979444075 0.6249923900744152 -0.103202426933898 -1.599776947590246 1.985790825783611 -0.9585412608393369 -1.369735359482023 2.78903090969149 0.5157289605692487 1.424424892424696 -0.16376510532397137 1.25009244136267 -0.5529277310672107 1.9656870110416595 -1.1432747834366301 0.16064828548391477 0.6920301995113913 -0.9503040861135102
להשתכן -3.344630612827549 -1.6053310789451485 1.3003145451360223 0.1248876819887154 -2.971820319896939 -2.1550807144688595 -0.687479375232684 2.204237854062279 -0.20256376347209318 -1.8889552078240062 0.031815783453107004 0.9473089046017867 -1.0037401981762462 -0.3460484878955346 -0.7299311159114439 -0.5555478788568367 -0.7555305139663269 -1.6151330364748833 -3.280294147404657 2.9648134527988135 0.6683566759186563 0.06809488332140552 0.9792014145855468 0.8958437060991088 1.0350746515651257 0.15999721196272915 0.1015198712540322 0.45771495545970137 -0.8836918289146216 -0.33875905562447356 2.722645609717227 -0.5364226166431457 -1.2697284154651403
לשכן -1.5229627751786428 2.0765521004673526 0.018918857630353808 2.388192301292073 0.28901459929012663 -2.1014992986882537 0.10851348238988097 0.017377850670502168 3.2559798771101214 -0.2024646878020876 0.8277740461429131 0.26819184101728544 -0.3457826893576687 1.6247762679868214 -0.6136729518894527 -1.2218066117676853 0.11548523883113192 1.0827587800347187 -2.782998608957271 3.8435799467232856 -0.1482010220366394 -0.8961087438595369 -1.283923273804308 -0.21225383775400175 0.3726662151969518 -1.4284975487430636 -0.0433255948427415 -2.5965898868346 0.8448719594701248 0.08714454303156617 1.4128930609820265 -0.13814476708741788 1.3374442726734337
להתרגל -3.3120587912493336 -0.47261195155624436 -0.5694283507935832 -3.953118527754624 -2.0290137547800113 -0.8991491918370841 1.9849058132131108 -1.6553216144364342 0.05920548207428919 0.11174530732300517 -0.5478139461952806 -0.4026014953450342 1.0840421890409877 0.1217830115629814 -1.0470740329803487 -1.5891382776088787 -0.5241735637203536 -0.6433031202524373 -1.2122906505816868 1.0525706042456067 -0.30075531427813595 -0.02206129050831937 1.1731062650911657 -1.1452368308092657 -0.12106286350872181 -0.6988941371257423 0.21714359814225678 1.1019071424653217 -0.08974119817439566 -0.14455804139419906 2.379577434830885 -1.3663356939371236 0.7704818588898402
לסקר 2.7272042656749713 -1.1590335479837306 -1.6386350654827735 -0.16735581945284642 0.8250684798677373 -0.6396234209177942 0.3941155901795865 6.240449207582019 -3.950724853574809 -0.03938789344236547 -1.0188348167307917 1.5121592229863074 -0.07654294527842782 1.0285051756424637 -0.5913766455962862 1.635402404593965 -0.0586587817113034 -1.042203747803784 -0.3225295714235667 1.1181241161382236 1.5662635856091423 1.7138546935794567 -0.09750933967934632 0.602266475304745 -0.07356718838709586 -2.7452971176389283 -0.43482101866094436 3.1754215039037184 -0.2540901525229502 1.0610058856147389 -0.4126091684414181 3.302857099664272 -2.172325834678327
להתחזק -2.11181840684892 0.39221483963591997 0.9700082707289189 -0.28331339257466004 -2.152795739662999 0.4130718750952564 0.17733111778164257 -1.4579721220295663 -1.1507228246500483 0.9761849438432973 -0.03767619717839181 -0.8051124518148084 2.931811779675182 1.0934651092760015 1.433162342860362 1.2070152614523177 -0.5525111858244498 -0.00485733300141514 -0.819889889060307 -0.4503331110983295 0.7443582790812092 -0.9364453749083609 -1.112449929250457 -0.4464829428010085 0.5295368043790539 -0.6708608616190338 0.9792602192102159 -0.9165338380234653 -0.18591155978780868 -0.9615577935245921 -0.459527574099702 -0.3749047047697083 -1.0308013194052854
להיקשר -3.0601826900259725 0.19266614040677432 -0.5146411448319508 -3.236239913739964 -1.166861026537761 2.2932766280334578 0.7703941670651064 -1.3781341635403885 0.6971162513144153 -1.0791288695688894 -0.029694632630965917 -3.0003782278436217 -1.1293361236316646 -1.1087676773332533 0.5674788655318784 -2.209277324752067 1.3387407574725236 -2.683507351286043 0.42929847835805157 -1.0869787957865558 -0.08186382058242031 0.38182834166232976 1.4621456078106945 2.2833714944324335 -2.3600518787394003 0.30224359360417163 -0.1913726548932746 -0.90666234216647 -0.22086977738817015 0.9902730499865234 -2.40852392526597 2.5971653311159053 -1.5714032321446105
ללכוד -1.154065306424838 3.9055872200375994 0.35575226488146 2.2161955621562672 -1.0202104237211802 2.0949160602547714 1.097284927308833 1.7077409479647692 0.053530064876172075 0.6732686572173976 2.256286095684963 1.0434011271144124 0.1584158311904913 0.04439417658817432 -0.055678565261215125 -2.1995626541348448 0.20634513375966007 1.9808404868562306 2.4883337443709803 2.0085130177144475 -0.22884230628908103 0.09338640367156653 0.7035194060123736 0.7639123053656609 -0.7978311975693299 2.1128945752523007 0.6559096902532245 -0.02425630029472897 -0.933219962441023 -1.9773393702467434 -0.8483759145896295 0.23148547439606013 0.568085043601038
לפקד -0.5731184562817764 1.889490795290483 -2.2895392359561493 3.647643490105136 -2.218740874858712 -3.0145044976643556 0.26808979279333206 -0.5328509247497183 -1.2850780383742308 1.0243283462009676 -4.463375286528012 1.4449304113818584 1.3851462532664969 2.110846981411298 -0.8289377630629085 -1.9103381759187603 -0.44524636760899744 -1.185634049187104 4.356299522376914 1.4369090390788193 2.484032800099871 -2.4585083947871498 -1.0042375155648575 1.4589028651040195 -0.9397172181143795 -0.027242695012803905 0.6114223459734482 -0.039452587240231964 -1.9992102723819143 1.6412620922926433 1.241670356511397 1.9723514276671321 0.7571585865691528
תגבורת -0.3641152334656979 0.2984134376884519 -2.593004017502313 5.0947778068469765 -3.758446955773244 -0.05684950375099761 2.8520066577238876 0.5258558592118502 0.4697726408923472 1.9016437236657424 -0.9339426715419872 -0.06179502698904058 0.2804728671799997 -1.194201932232018 -0.5014175209454969 -2.1930629472432153 3.2291338645097696 -0.3260471227938369 1.804666541116637 -1.5574035922159541 -1.859292392476177 -0.3874422568948696 -1.1573591693948342 0.5203256012030324 2.392789392055192 -1.2846637513414807 1.0027837089089302 1.6650877838954137 -1.5051555515167918 -2.273150464929449 0.17517459871873464 -2.1290820491900164 0.9684576039051471
להסתקרן -0.5888098893035896 -2.4282271811397864 0.23250350669551856 -0.7980199957035748 0.1984940515334565 0.4429150806117674 0.16791467884053735 -0.16333842276827795 0.01456695328272536 -0.08825724767135616 -1.0097494783579317 0.1054002683225957 -0.5533093629826723 -0.9371956749940743 -0.2779587230020967 0.537068567204311 -0.7034145989307126 0.36605206410469454 -0.27273462504582335 -0.8163324067047425 -0.04297042535015683 -1.0758469908637474 0.43237319769279375 1.2990745069558989 -0.8585467967368254 0.6368996625359211 0.6232035252631754 0.8646067699203804 -0.24736869244530774 0.3859067073910465 -0.059950758524651725 -0.6224139263854404 1.0553683787583248
להיקלט -1.4480756410490891 0.4927890169807025 0.2683930406685592 -2.5459253810786415 -3.72588079811024 -1.0531182562533439 -0.9694244104125771 -1.0347168502101298 -0.0807560566818025 -1.2421299126886294 -1.482884875853166 -1.020443446957843 -1.1442472678812612 0.12523379740395635 0.8370187809009376 -0.4896635035071123 -0.4187391078035911 -0.22044919883727807 -0.6024939883081392 0.14622671012956603 -2.0919696367676557 -2.6927755221567238 -2.6997773649744445 0.1374550355824506 -0.3668269138840632 -1.5224542860301562 0.12986864857635735 -0.646602817379378 -1.0471348722196687 1.336295980865898 0.18843612416032104 -0.1422251850472639 -2.2945530780667807
לזרוח -0.994058946573677 -2.562981602840711 0.2914888180291371 -2.5761980809621896 -0.701451851472634 0.8615317416636405 0.2924981762830498 -1.541842577853037 0.030283426362726577 3.0768543146800766 -2.0413436134400147 -0.5831411819337323 0.20100792472830362 -0.767005480438198 -0.39039486736751333 3.708221886351836 1.9021826836789186 0.9073415490617882 0.40168167604059607 0.094557338445604 -0.09573648556963157 0.6304024375765298 -1.3360663144811242 1.2978812207219843 -0.3870154389560754 -0.6645935359471966 0.42639619463954104 -0.7047196108994946 -0.21445032946020787 -0.004462237031848781 -0.012957570009983896 0.8374711553621814 0.8245154617360061
לתחקר -1.6312473817554323 -0.37042174620935797 0.5843041122485292 0.9451325378227848 0.4436584683678195 -0.3877576706742025 -0.5860413463408356 1.8448969124781116 -2.278511343863756 -2.1796414552795467 -0.830441345592144 -1.3930136099295796 -0.2018694582317389 -1.314367310638539 2.3780680837716686 -1.7084164876381442 0.9164655678393212 0.4175461461756714 0.02647099571555151 0.4016540305592919 1.116021750963588 0.3020598777486228 -0.2358268981644873 -0.4021068359602469 0.6674203992913746 -0.6530005869177168 -0.5889315030222864 -0.01984299374706906 0.03552337692406635 -1.3355052017791769 -1.2796097403574134 -0.37003751315080585 -0.16946715183382358
מלכודת 0.007647318068735243 -1.5314024912914614 -3.0919340084561817 1.0352777351995832 1.4818258770198025 1.3317067695470495 0.427822509144857 -2.380080576710812 -0.7311214166610763 1.8156994219823117 2.2603832563529473 0.8901134777940575 0.7180834018364327 -0.7171251370774198 1.8863641071548516 -1.4104354679207087 -2.1137667785165157 0.9087573509381716 -0.044382842907226265 1.8124235471165577 -1.8507879924110426 1.8144868252411313 -0.586368901495869 4.68347185774372 -0.9725300360367105 0.3399573236407354 -0.03087610606862729 -0.6739980108686611 -0.12448851911356394 -2.289728592824143 -0.39315290285059035 2.523296467142225 0.6055383545153337
להתלכד -2.2808262975531437 -1.5201494146940069 -0.11982767344762449 1.040084438132717 -0.7124293530371023 2.0793064804690164 1.4104911894764818 -0.34684937778581176 0.0853822723364873 2.337513607977203 0.8336466007822216 -1.0696162782823826 0.6047110565648167 1.6634379989043304 -1.847876869659063 -0.5134160257459287 0.07659217462995223 -1.4377311644055044 -0.7447055580214308 -0.1379115583988221 0.5717022627070766 -2.3849855079621616 -0.09595399032047423 -1.5561182788984849 0.9079055295594267 -1.629327825975149 -0.33404129564240403 -2.166895403574554 -0.2288484786487554 -0.026774135534857243 -0.797019762837195 1.5743366889874524 1.1396916464947529
להבטיח 0.9337071887578449 5.334816590154326 -2.831583954110423 1.9718785196860236 -0.33482333978754036 -0.3685161489366175 1.7256778331395426 -2.5721419132927044 -0.1703565297070309 -0.21471182132629366 -1.1973289757782783 1.3197898857062798 -0.9235806724019047 -0.5112004434276209 0.40812782681541826 3.0224158513315116 -1.5939557203052075 -1.2157170873526872 -0.6171775479766126 -0.9757453214997697 -0.8101649813020548 0.10142461621038064 2.9078151854520367 -0.8317102586697228 1.008354660891506 -1.1138021151919684 1.1845706718908753 0.7874100973188479 -0.9916639215429097 0.05045379363558146 -0.22840919223208034 -0.22316227926857046 -1.0820379259949535
להרגיל -2.708679613054681 0.7064505255689505 -0.10739580870566358 0.9142290891946836 1.1286709503770025 1.40479164272116 -0.3121949868113291 0.9952848159221254 -0.2848007763199736 1.2838617397720613 0.36642918296712756 0.653598922258245 0.17256683735420075 3.1028417670921598 0.12266110640862989 -0.08641598581519871 -0.4681401317144924 0.1079032554590635 0.20819691491888132 0.30704898958589444 -2.218758032616199 0.9424407711662007 -0.16487679705792338 -0.9457303273416399 -0.07542988794382853 0.29284711745228936 0.8252381921508986 -0.39916936359229716 0.5136167396421738 -0.15687036441208235 -0.729645125038632 -0.23532876655831664 -0.2925260520269724
להתפקד -0.8856865590072005 -2.768148142246664 0.24546441659261886 -0.9986257234108112 -1.138989309551134 -0.10330450401172621 0.5742510228748685 0.7938518888221068 0.7995132665629904 -1.0117451893417084 0.9671262024475855 0.6030264903369288 0.1236140779745709 1.8560767204581394 -0.9903146313936368 1.5407627445939474 1.6456467314942909 -2.3060063259395984 -0.7084896557846794 0.40567126220420946 -0.35753618156597156 -0.560018986606998 -0.7660615072944863 1.236507545996984 0.9318405007196638 -0.35690849242239747 1.0445489171014888 1.3323754113294513 -0.536703201060237 0.5562817892558068 -0.1686352593846918 0.10170519776752503 1.4325683651911225
להסתמך -0.09789798624821186 2.618905015450537 -0.9573456140678616 -1.021080376660391 -0.21467894709164898 -0.4179126670560018 -0.5934298483839671 -0.22762715834398203 1.227194995617496 -0.3921655760426721 -1.0461318431347688 1.5452181988734737 0.4382276364872816 -1.1449346485216596 -1.775035405424335 1.582266239637133 -0.3570793199894441 -0.6573390965637799 -0.22482928690976717 -2.249133056271782 -0.5484764634919332 -0.4641083760635602 -1.5035583847446432 0.3247276607413213 1.0323772578945247 -0.6676295030016902 -1.2680393278259687 1.1471825508688962 -0.3275966345946335 0.8193123317817892 -0.5375111073001773 -0.2987284361324163 -0.6856690423426205
מגדרים 0.05442076981711318 -3.1837647514939853 -1.6008705122661673 -0.05099132042283678 -0.088866696998903 0.6423514045337959 -1.8603957988617543 -2.2642974393251065 -5.093507241831766 -0.39180617773335763 4.8377290055282955 -1.4719671457054457 -0.5011168178697835 1.666562833189299 -3.7698517574173076 0.7113343288532267 -1.1125608041862 2.2451250933989924 1.6134192014176871 0.19065824970668208 -1.1422076971762813 -0.40365760289847763 -1.6867461179497818 -2.2173372599289216 3.106847326178136 -0.7362111655133993 -3.7358918286782457 1.9051273563741118 0.9079207891893019 -1.087060477287112 -1.5073563427492604 -0.9820360400630902 -0.3665944333633632
צלחות 0.7978152002776557 -1.9905619587585925 1.3504025554389554 0.8493723771864254 0.9356370508314228 2.8253289375730617 -3.140084068643221 2.019529204902131 1.8438545761181773 1.6566155965917742 0.7693620758319657 0.2284133352897889 -2.6808018901804362 -3.079323412075168 -4.191904907365307 1.5491307188589665 -0.38087883022006935 -4.416835869030604 -0.03952995113583745 1.3968916549742323 -0.862040400756769 -0.911929011872023 -1.0494890900950755 -0.07979600455089594 1.0543088626744312 0.8907040556565408 0.18320179007574017 -0.7436234870308921 0.24095662135229007 0.47451934031282683 -0.7049321496273233 -0.31313718877161284 -0.5628244104534722
לתזמר -0.8381525386008598 -0.9777563032024474 1.335117982900697 0.9589984149786832 1.989393038358914 0.6309689093848666 -0.2268852944783103 -1.0188632427080853 -0.7524116751774131 0.6018095844120449 -0.9593592339948973 0.5289566227499125 0.8315129442836807 0.9551350009502101 0.9192439376012955 -1.2015525396829092 -0.9717785141771036 -0.33914233704327795 0.35894627171408 1.5680892579298846 -0.19483199050951536 -1.1219092770979344 0.34498907649989563 0.0022438156103706435 -0.6611402729845091 -0.5485395264112528 1.3083952586110081 -1.114294905421325 0.25294974092164885 -0.05954872740119765 -0.6142269465908083 -0.14045398146552335 1.2682429569235694
להזדמן -1.605488010877653 -2.143887242971047 0.07518315470460837 -0.5644396799631164 -1.3304284174345182 1.0261485117535656 -0.28657165719326827 0.5956568771887272 -0.5382701559497657 0.3347146476569369 -0.7878159957009518 0.37409884799173604 -0.18162088653151864 0.2466105954113066 -0.1301795810182986 0.24777306183544667 0.8344108649846941 -0.0016600893637948191 0.9394000636160231 0.3471100043570869 -0.15965722576825728 -0.4322910160363358 0.4422586202206713 1.1655704475608313 -0.8636344054775924 0.1404720088184548 0.9434163965841479 -0.19716667905105137 -0.27770800241148214 -0.6275022131544113 -0.016505649475490925 -0.042678131371945045 0.7891908587640237
אזרחים 3.726670169712562 1.2833351400212831 -1.9111006765164078 3.8083222148283604 -3.547292829412696 -3.559453516062769 1.1412977084048064 1.1380740923935992 -2.256071613191747 -3.5439844649125045 6.805772074418486 -3.1676325245326407 -0.24515967808409336 -1.8491017499802473 1.5433348695969291 0.9248766493708457 0.08683452377164216 1.8252248988111177 -0.6896832135227824 1.0760305142977982 -0.3549490543655812 -2.0110064922075948 -1.239634109074779 -0.7124828589624914 -0.48762652981613824 -1.066878117650548 2.47970391282809 -0.5355752208394273 -0.870374301826978 2.0740872708324023 0.3366293107102642 0.9617793778022411 1.6006822281017874
להסתפר -1.6886801520415036 -1.7034240940351817 2.2672959165472957 0.5561360014347411 2.2955321222689813 -2.784406270766149 -1.275294457788554 -1.1001762506668251 -0.4993928054362769 0.9593209149551521 0.9569767811599796 2.4999664994317707 1.909303760933548 0.6125955577679723 0.02301250512799972 0.9524935181017665 0.5190681607473981 -0.3430179284066882 0.5489495793864424 -0.646165567777795 1.1744323606072629 -0.46467326396749253 -0.6883634161999795 -1.256762814628694 1.6607019026094838 0.45384312519011877 -0.09270385637519545 -1.302111422148413 -1.1620747959502011 -0.804793109534257 3.083212814280993 -0.10616750668374372 0.1330929140984419
לזמר 0.9394170580410516 -3.6257873057116115 3.536511448420091 -1.8385543332973062 0.6931802658710023 -0.4249848584283839 3.0526015136741536 -0.574745830783811 -0.43100581979068725 2.4276149567676715 2.412993792734865 0.5846860125425055 0.05008161919632357 2.8600265406577003 3.2191077951867104 0.48639602642065316 0.5706001222564007 -1.0543954546840362 0.47862318503324175 -0.763032780973914 0.8541474610128633 -1.0110427890689941 -0.18016870669894547 0.6910570756387545 -0.13603931219398932 0.23533955280024996 -1.7370558469499864 0.9365677537702464 2.418828855541181 1.9094054873448192 0.3933673014301399 -1.3976968311615425 -1.6409249127467898
לתזמן -0.961249806265975 0.36386475754491693 0.286187638850322 2.642258840764378 2.2987260023935834 1.5587892724844525 -2.091047164065479 -0.4846133900704394 0.04072078708034302 -0.2887163050907321 -0.7408885992062283 0.22398540691183141 1.2453009817409761 1.2888870113022266 0.43115365271244094 -0.6091334944358755 0.1552410545607374 -0.6177951861301799 0.07833114904654442 -0.19543152876634462 -0.9721878975490119 1.6287119387493718 1.3487532963816398 -2.5263829939429954 -1.7824788811623544 1.951826922847479 0.08342507669626885 -0.6839127084596118 -0.28185797827769227 1.1096132705172144 -0.41627276594834856 1.1057543499253235 0.10314337758964577
להיסגר -1.2361172803823732 -0.9612741055421055 1.5501816994788935 -0.6890371910429639 -1.6279612708218048 0.3336514498960298 0.256040357132661 -0.43939875161621783 1.133893019274192 -1.3927769210192675 -1.0486869888359025 -1.4167924642366663 2.6218624065022818 -1.8800650966410977 -0.8164640837837648 -0.6344062090869161 -2.079632925974575 1.3340789559082928 0.6498831325586828 -0.14357016440940917 -0.8285417368610916 1.257053404353789 -2.1061785597320877 0.5691493560918004 0.28749272837793943 -0.23310178573821771 1.8872713369259475 0.5825309601465037 1.4220589937834278 2.7204622148663917 0.6728207169598385 0.2965709703377238 0.19829888045560118
להסמיך -1.4041259905754018 -0.2697903126407737 0.7770283993907064 3.479564031518979 1.9489941112875442 -1.2788009972336487 -1.3175545026177498 0.2497263743823728 1.4494345822223482 -0.9481038635584695 1.0979353994397945 0.16037902324457884 -0.60387020321704 0.5394803173855808 3.038460489956719 -1.8275266326843502 0.7124541310432055 0.5464146885222512 0.5479286950214006 -2.019969133867592 0.15995949396342032 -0.4195222197925878 -2.7568871857052994 -0.22779319306978363 -0.3716014986882276 0.8995020478862362 0.034553976489722624 0.005489243895859163 1.1916727066351682 0.8645685977914109 1.6549696722942164 0.4753811255997877 -0.8743526474824073
להבחין 1.4169247707785875 3.6479897680753983 -0.2817390906645582 -4.391038458532391 0.06596737156401485 -0.6501676556511762 -2.591876761689693 0.15659914267620847 0.3990159485922539 3.2912168723179205 1.6343839482323315 -0.6639201840401449 -3.0473296613222196 -1.5972509687280954 -1.8794970277370107 1.0466033891880215 1.3307158642147732 1.740917675303884 -1.0554661618182546 -0.203907364844543 1.7055542796682437 -1.5577906714803422 -0.6570975955581025 -0.3394115264624404 -2.18156669305469 1.008931399474513 1.3686599987215866 0.331253820175383 0.47545989527210775 -1.4711221061637867 0.6856490152022289 -1.561105718204531 -0.05911730703631107
משכון 0.35188294063595654 -3.0607810165901657 -2.1387927582827215 1.455919963786444 2.7694170197943198 -1.979645210414524 1.3020187763109183 -3.631064633717285 3.7654679877292647 -0.03407699830341647 2.4339408769412967 3.423449835611079 0.148198320240592 -0.47608113504727523 -1.526372380014978 -0.9502149271810677 -2.0130273837554005 2.5945517143782464 0.8029756910662746 -0.472062118722999 0.09133897321682083 0.9799889143554613 -0.33039512566970164 0.5838714942592942 1.8838044737651276 1.5188796502340853 1.9859871218346834 -0.8620390265796741 0.2638869906600093 -2.1065126547837556 -2.386976794141518 -1.3935143493337359 -1.4464821581558789
להחזיק -0.45830239109632737 3.965182162569889 -0.08997653685182554 0.6441443384373547 -2.8298255629707136 -2.4287675917768112 -0.6683142459798188 -0.7431803916945348 2.389041682913732 -0.8752061458063028 2.204304227547709 1.8706450721687178 -0.29851696639545977 -2.0315167083688683 -1.1825869049458206 2.76251368672389 -1.3302353266132525 -0.826742893740388 2.161505226664074 0.44735835991904505 1.3847616974818397 -1.1626102870137691 -0.8548971703240845 -1.1378382101791518 -0.2871032247654766 0.25451276780395 -1.2389321800674848 -0.35476410238437583 -0.7876908089943301 -2.489021488437439 -0.28394236954512536 -0.2722409984608468 -0.27330689967415617
להילכד -2.564827146491142 -0.2039022136943822 -0.5515851723172186 -0.03818413467409032 -2.675032967225549 0.8382319025468502 -1.7042277022790149 0.29139387279085516 -0.49208652316802504 -0.12817585370259402 1.2944565212490402 0.8823073641941777 1.1297139064524635 0.09062248769687746 -1.1460837366010408 0.3303442047979459 -0.9134857507214157 0.15708967268062116 -0.014982321329536566 -0.923858688337712 0.7360664249237638 0.3112185626450378 -0.39894528588192374 0.9606000125475538 0.48816015255100875 -0.5908468020124541 1.2767378654351382 -0.8533493166651894 -1.2667308343572468 0.10583650601926041 -1.691690397848057 -0.73014297091711 0.7081281070277134
להזמין 0.713170822031471 0.827453767950948 2.327299448720577 1.0928557700818047 -0.11251633933029109 -0.8147104509878375 1.2650086121722728 2.6446653113279073 2.186071261607704 -1.0098802387546677 0.7242431174303147 -0.018267478785638874 0.2941275358322635 -0.46495416577180115 -0.14943871590565705 -2.3564768290943614 1.4470797881857003 -1.506601886751591 -0.42767232467306854 -1.3549259249055803 -1.5382892609006946 1.9923075149514364 -0.6387383897379239 0.6894577590907279 1.6342860105061177 -0.05217986049718964 -0.057580578108222154 -0.048779187749495224 -0.3305136750823735 -1.1502147275926606 -0.23287049088043277 -0.1574973255286722 0.10432712636177581
לספור -0.9605637738843305 1.4543694391392463 3.596996713412468 1.2410797527474773 2.7829066572002694 -2.2150331301512143 -2.5960917162887265 -1.2308433578450106 -1.5275001241377635 1.7775105479498254 1.5349388530469708 -0.7531755067765448 1.358599439388482 -1.8281210025211911 -1.3827933084102475 1.4012368448508934 -0.43551786486926397 -0.6180133441291403 2.6511667648051658 -1.3682933339852577 -2.3649122759168417 -2.004514098075483 0.16013853564198616 1.3303511672471833 1.79223149831939 -1.2392731799971812 -1.230202952892874 -1.525672425567693 0.8769351511445626 -1.0632159574817215 -0.4573483747033699 0.415414965713088 0.8192973005289083
לאזכר -1.6361887430827429 -0.6134735226592284 2.258601265401469 1.7282222216293914 2.4052617989935565 0.8957948905513485 -0.12467770953447632 2.2759619128025794 -0.14723390041725992 -0.5727017903634672 -0.28954205486278467 0.16041808074347141 -1.1241284915941472 -0.22930896527084083 0.4723939811364803 0.6739750626267402 -0.45474628089322244 -0.6969065469156879 0.8688038409133879 0.22385184107321301 -0.16114813604130565 -1.7511163765312299 0.26708132782979627 -0.6452292609668795 0.13025466862368024 1.7379548762349917 -0.6714247768580102 0.3056794762666915 -0.9929166097083201 -0.5024554813122153 -0.41739266686873305 -0.277322319458565 0.20935567910961275
להמריץ -2.569152977629512 0.3657618298687794 -0.6675972830913104 1.7759104662735925 0.6472249028484626 2.689291707928163 1.0896632624303613 0.20471870359069835 -0.82503384058995 -0.6424799651215688 -1.1776497766443 -0.8237440939862474 -0.15749783225605746 1.934993499509005 1.6049754423020022 0.4375597843797728 -1.970787288428638 0.2835120942783906 -0.046844748236991085 -0.1352589301611053 -1.9447860887585373 0.2399846791099713 -1.1561418786543323 1.0385954763267817 -2.042009850077728 -0.9647801276178587 -1.18542015042408 0.06858890267985689 0.6145103850470517 -2.250422342763307 -0.41148362118722 -0.5938402835283665 0.6608427843579384
לבחון 1.5554214816689071 5.2619687781351185 -1.2279818597988403 0.16925703913564727 2.21200104808622 -0.4733215046940592 1.2656431811301085 1.521816199720784 -0.6506016890697469 -1.0077290294377643 -3.127665179697027 -2.219918718432232 -1.985850602066225 0.7998377267655463 0.32484619667256726 -0.09817244174013794 -0.14239930010070034 0.5609769856711524 -0.9075820569312221 -0.6539698576354431 -0.6076187063697721 0.16439401066655152 -0.1185510849889435 -0.11940211401585545 -0.22909341851755638 0.0619536417940725 0.20994214402298486 0.16755365597949295 0.7664803052531474 -0.9238853238301069 -0.14101024281966545 -0.7029693461753571 -0.8328273189950796
תגמולים 2.149548832888604 -2.0487410805538673 -4.37583290193372 3.4110998268975044 0.39259102478754837 -1.7596255155367073 -1.9008872136046375 -3.774502769498362 -1.2140562793793506 -1.7759371816130565 1.2569699229912679 2.270028076312665 0.4750644593629353 -0.1191278816863144 1.1956039703266472 -2.171955134477509 3.2631974361129137 -1.459448107167982 -1.600889551508892 -2.098051126654381 0.4500828268856834 -0.4204562343507514 1.679477810945244 -2.2590492735936145 -1.271328039789721 -1.8641070459860642 -1.4360567100077029 0.14785374550037492 -0.34613751970141887 -0.3644281512312395 -0.830069543850785 0.3832455498927953 -0.1039470605861199
להיסקר -1.5255555906660814 -2.5620927852268136 0.3409402516939224 -0.4583871085664377 -1.1176657146888023 0.3173628774752163 0.05542916725929395 0.6010980439336894 -0.17189806982710124 0.5638568963378758 -1.2928208173986488 0.7371760602397298 -0.8172430547545438 -1.4642063965370034 -1.4183981356395312 0.43539219977638177 -0.2681696902853944 0.3613564041101878 0.8989851790156398 -0.23787473533534617 -0.7396906150543309 -0.4448700343801828 0.43111092024419106 -0.30524500633817664 -0.8526209937545906 -0.9557494351038677 0.6810813624139646 1.3513206047365467 -0.821053485468598 -0.0467169243077683 1.6307727900867537 0.5202755001721535 1.1916650371095425
להגביר -0.16018925498271316 4.452696179475409 -0.024521293393792203 1.2405313309117654 -0.16961626285940518 1.6341942878907503 1.2263251343284136 -1.6745661534965075 -1.543035442590221 0.8951562867995776 -0.28320536046288247 -2.1590495529543654 -1.5975776614359882 0.1154348832018675 2.093542238201046 1.8715726991638797 -0.12612166095550092 -0.7038538866130776 -0.27476053205286594 -1.9218580812725927 -0.4003181439656187 1.324669015106808 0.40227899852492033 0.06377153561397822 0.5852003627483588 0.9900081522055921 1.9277058156374782 0.4413537662032457 0.05420755505216607 0.26399870799763614 -1.275754039085374 -0.6583674593811943 -0.30782739871873965
לגדר -0.4935548993529374 -2.3560385624074 -3.1476220105802097 0.8051996972268107 -1.5635559414353486 -0.07382402150828914 1.3298764571963884 -0.05861294682668684 1.9975962147704165 1.3156534532080753 2.1965591405591005 -4.0860536251026325 1.7412592285177138 -1.0976084572485085 -2.123356373242384 1.605519185126738 0.8922182500844317 2.9995980437151495 -0.5455381209710014 0.4564018260620436 1.995156505920315 -0.5100502843958735 0.9219490441038533 -0.7046996129984856 -2.1744868804545154 -0.324856473937413 -2.3024139581198355 1.2126063006647052 1.1729442496250764 0.44384157356285125 -0.07457623586517856 -0.18051994364901372 -0.10279044457599722
תצפית 4.150685089326781 -0.9943883738241255 -5.949445371273528 -0.6494441621610306 -2.2586303810327246 -1.8742942075792748 -2.4173384684898793 1.540751757625778 2.8927100009318822 5.818336211303098 -1.8049259942771478 -2.7095707032639456 -1.560072529560102 0.5334036401230038 -1.8707905538139262 1.2286891922671772 1.163015539306187 1.6174282125517125 1.7662609756613286 1.3965238154779687 -1.2825220168474127 0.3420104128851545 0.8463886393087202 -0.6037498745591456 -1.328224022595141 3.4131227455605337 -0.26286808824852903 1.0442910537644345 -0.372610686355695 0.185894087081967 -1.090576991490285 0.7714324390978052 -1.1528596372557502
תעתיקים 0.8016589057916125 -3.1190193932464174 -0.4569149001206927 -0.14096983489604126 0.15274733078850136 1.9435340039610989 -0.243114299397714 -2.4885186427254844 -1.5327824377447352 -1.805825440871268 -0.9048118623172252 0.13949566990578335 0.4671062866009298 -0.4999387372557499 -3.7728871917963516 0.08132341566095844 2.130915760977224 -1.5669035160152254 -1.8760483785891446 -1.5193999885152927 -1.430935000812201 -1.431205228347075 -0.11609763219378924 1.9633730120719388 -2.558541519224193 -0.045387166943749356 1.596394775367409 -0.3167676467253856 0.17419573951677142 0.3238530438641353 0.55051456454803 0.5796691691324272 0.9275189602902909
מספר 8.823066766386448 3.2196353269904585 2.062082486777876 1.7079530107465395 0.3292627671886185 -2.3047747526049025 -0.12453780086788868 -0.936498817961702 -1.3779506801208803 -1.2823369920376408 2.621556074338274 -2.3228744309320835 1.6742811414122993 -1.6171490924925362 -2.4616926999327244 -2.5107306077230778 0.36779418164181865 -0.8802909989546797 -0.06054902306363701 2.7669510438148084 0.03778618180473162 -0.8990233778788692 0.05798597866122059 0.6333359174323645 -0.9991401275391014 -0.8087466550654722 -0.33524450175134807 -0.38146557986734353 0.8757614306003584 0.24413043122593445 -0.3706042514090142 1.07192474090408 -1.098549251867339
לתמרץ -2.293088522159566 0.23836459442083674 -0.4815799965419908 2.2257332908857954 0.6739614814592936 2.815330930897343 0.30730855932287704 0.2606449216211323 -0.25085129967650244 -0.04665130855729443 0.3883961421016872 -0.23076706506602485 -2.407621787154434 1.5874054399026674 0.7747197327251032 -0.9394420473185606 0.5148710091030662 2.1701179439841103 -0.7116120085752015 0.11167835758615843 -0.6772771187499628 0.8391376783967737 -2.6970986260477923 0.9464469986424877 0.3367576848776696 0.2170239346496984 -0.14671224856204176 -1.287026848906796 0.21556241650823146 -0.1918048407020257 -0.840401742552023 -0.04049855889620869 -0.22246418234877927
לספר 3.7664735810178507 -0.006765772969595054 0.23289477523708346 -4.243271963047511 2.4449579240180634 -1.5096226454974175 6.429219929112608 -0.3233517461122388 -1.7403968033555115 1.610193957420831 -0.11851898618981964 1.8664254439070656 2.1834091831998386 0.49720297527565593 -2.3305194109692393 -1.828677951832065 0.843615964134437 -0.11988842258316101 0.040092960106222014 0.1984888071005248 -2.77389672076754 -0.8203780811516979 -1.1705984678369894 0.06980505886672421 0.1140265108467298 2.1794986659875546 -2.6376912523667624 1.511464340207929 0.8500676954825935 0.10371846415438316 1.9583361493391738 1.2158923629573077 2.1263456013727726
לבטח -0.5993283609185373 -0.8356345992161033 0.2373266863307019 0.32912022417506975 -0.2718121575357636 -1.859632710722733 -1.2259954087992775 0.6711055764603375 1.3458878430020857 -1.3130762597701782 1.5753389819135226 1.0681052156553936 -1.3059093126206534 0.47696505383219334 -0.7870608597607933 -0.32994801943555985 -2.503553881142288 0.8325501724194325 -1.1991544885195244 -1.4147736755934102 -0.920407500706519 1.4492351854091126 0.22654456117106597 0.27787831117098405 -0.5199332404590922 -1.7817059016624186 -1.723674951472898 1.5674254012172175 -1.2106488636086707 1.2514159216306904 -1.323648952663842 0.9005373011779841 0.5450511566478181
לזכור -0.36501210878282864 3.0351336964765507 1.0641321148336602 -2.016164384400719 2.2923299917405657 0.2850444908420201 -0.5151495150351632 -0.0510974836273419 -1.0949764047526447 -0.3795052886927055 0.9852836308903701 1.886407278459498 1.0523779944795002 -1.1075757111595623 -0.827854073380298 -0.18232213061533767 -1.0145532547975389 0.4699468474562531 0.04010415583889249 -0.8830841910354553 -1.5103495439020598 -0.7648428168088168 1.2069449278934592 -0.26093193164917255 0.13098674351755527 0.831776588609678 0.7363851957621093 1.2925019621709481 0.25779654040669053 1.1602917117157323 -1.41876966119215 0.28359044770257225 1.5272815523153658
להיפקד -1.933296297533456 -2.644926988035828 -0.28964691415751886 0.12977342181366303 -0.4136850127181762 0.32011296409151796 0.6573469903296377 0.4049998091932928 -3.2663291677330406 -1.35125512694243 1.9473485493940703 1.4913384054247274 -3.6648122394182026 0.2350382379153382 -0.6876785120319885 0.9129498640584295 0.3246559636493798 0.5694570601295609 0.9644166891622092 -0.40013782906682926 1.346628927755429 0.25287123168930065 0.035604066314670425 0.1171837699377111 -1.0765653430192554 -0.11030715358063241 0.7218559871865283 -1.21910255147714 -0.518324851782856 0.057748313214311904 1.3968348849827956 -0.8828811942585043 -0.20131327583302233
להעתיק -1.0206983161568994 1.7882142561611833 2.5004962880115307 0.6783533145799348 0.21572032809821726 0.45436475874966437 0.652585899397854 0.9509530876577749 3.215552468431815 -1.9614372434165308 -1.8015090615263805 -0.32829536939498216 1.3370123133694207 1.2153525265002594 -1.0720988546132293 0.09668478812042015 0.9157876841986906 -0.739900307823759 0.19759361623714636 0.6481697726366584 -0.143651291207507 -0.4009010934702551 0.6254188676028573 0.31639344335675224 0.33142446303759837 0.404830815680266 -0.1905744547291956 0.93596588635557 -0.8278023046860058 0.7667109490617269 0.07029462028184238 -0.40101261504292235 -0.22211221529805195
תקליטים 6.639344892906473 -2.302425786972988 9.814159542810733 0.8854848915278082 -3.1222184216609405 4.792036975867543 2.0110387338729754 -3.273488261360873 5.556133442473807 -2.9994185666925643 -0.5813546487572497 0.23589004090136412 -3.2715288999821124 -1.843389579026191 -0.45426627623328597 1.1833343781338534 1.8460673738962388 5.169707472542319 1.9698719711068924 -0.5256971517093714 -0.3932522462543093 0.26646426356653535 0.37708487226797355 -0.02532990295074994 -0.025761601933087255 -0.5137326753135056 -1.4776512688676886 0.3148888458135579 -1.8188830294843608 0.10324838515701507 0.9386028532828855 2.136671673534293 -0.6737913738456831
לאבטח -1.0762750580191975 1.8678507659861154 -1.6763110125445935 4.316767604484216 -1.0046187371047637 0.8704224382116895 0.08268418861182349 1.5953015077785664 0.10029555775023673 0.7644064144845317 -1.026012929806732 -0.5965329642696358 0.7982983864535604 1.280221627919697 -1.0277817232805317 1.0757875631042622 0.00416090691951461 -0.7097306394882554 1.633975449859483 -0.2135727175309928 0.2102119374832019 1.6294722564815451 0.14930359724783832 -0.33991732927422535 -0.5569357939349684 0.39164705791927756 -0.37263829046088415 0.5930179778270219 -0.7703518607412707 1.3040626691073018 0.6020610570813334 -0.11783902308778083 0.14982482321674748
להגדיר 2.2527698944424013 4.8025146593099235 -0.10472989922394976 -0.7136086879037573 5.388229993924763 -0.4356293578344703 -2.153372155962574 -1.7046566087815338 2.3296162815548467 0.28540576472537893 -0.061832528606392004 -1.958313660997868 -0.9865783672737853 2.6806021997500475 -0.06583957052879819 0.18670614856062176 0.18979177618411022 0.7640536149161773 -1.0405762133792904 0.6373081450735462 2.252469919296503 -0.8609627322685348 -0.6138318846352501 0.9791763486289562 0.7768182113107983 -2.23923381937677 -0.6120709004184134 -0.07370292712570246 -1.2866238991686438 -0.07901992158517467 0.2633759502220004 -0.15868549647675825 1.053103049513427
לאבחן -1.098236574443852 3.8825355968551563 -0.37400355421519815 -0.35238308113725214 3.244038774219499 1.0007880815939456 -4.293868038517301 1.6608428298503637 -0.6752609462997025 0.16354233405848745 -0.9518839959240326 -1.287411330978985 -2.0463596640691586 -2.011381537318038 1.069647209595191 -2.8267804564610963 1.5354788167517743 1.8697905957632504 -1.2448385064925898 -0.6169960123442519 1.9789470217248282 -0.8782227882678456 -0.6404177892849436 0.8324622139189464 1.6686138347534525 1.0445020459497436 0.9102139472686316 2.552821048266457 0.4296484634197236 -1.4245008283159801 1.2729837936040755 0.22683195645185272 -1.351621998924517
לחקור 1.9012390196095885 5.632141973795344 -0.7242969261160404 -0.49216599330634103 0.7636593570374893 1.1641900152807512 2.232623992401026 3.6462492755806 -2.2525534566882746 -0.9079201269467057 -2.014783983571484 -2.07296323585197 0.29698446054758326 0.35578803129046294 -0.20341815626419787 -0.8618483570419936 -0.10852356965119915 2.0354209477007217 -1.1471450029133392 0.04772801393027367 1.046523221181473 0.11120150395696549 -0.4592017371605149 1.0983985742417395 -0.5861697421085243 1.0521467609455313 -0.46401792900779304 -0.5193612608030848 1.636027059512106 -1.3245376207070965 -0.7816969853696754 0.9274597814977829 0.6141745084963024
לקלוט -0.2532762100802439 1.932340698483071 1.6049388293323392 -0.8591030559088972 -2.082784472713958 0.9284798994168892 -0.17605272221858037 0.5893411512458856 1.8614447831952212 0.5272219596828519 -0.19455715633008008 -2.0562964870819904 -1.1533372724139253 -0.7083328131453818 0.8206493123363607 -1.1262400350560116 1.2819031041310114 -1.131918467557607 -0.17416680250518027 1.8285453563978484 -3.8792315490452904 -1.6985009723175681 -1.6211426552619392 -2.3985473411885043 -0.6759299463144811 -1.492584262307143 0.4787966846221133 0.18948204321598314 -0.14342172244975812 0.6464403192698367 -2.4613808635769803 -0.8206010276359468 0.09433154762920118
לתצפת -1.5193577717986093 0.39570383081024757 -2.008233631702936 0.7024031939873137 -0.9097753303893993 -0.3448492198908347 -1.2095520048805668 2.045928983423665 1.1976244511974985 0.89647277992525 -0.18600764698703925 1.62488637497557 0.8209320173912741 1.2641477522960263 -0.9092490297744202 -0.2453772126621731 2.206875574129783 -0.010406556216300471 0.8682886742676549 0.43120938282184385 -0.8601633157149358 0.5592210553561586 -0.5533222217956034 0.6740033623450786 -0.5558098975794901 0.31575787575299064 -0.5307858155477861 -2.0659571405602954 0.6981162053773645 2.4263118891522515 -0.4373347432451677 -0.5421017819850656 -0.5219763695522028
לסקרן -2.2894246028402025 -0.3383143780672895 0.15844652080817567 1.606192621574058 0.7436427815923743 1.992412358750341 -0.17117915935810973 1.221854544428547 -0.7574206497520511 -1.2590952714626844 0.5807561892798672 0.9790371154837062 -1.3904560965574702 0.5648483828269533 1.0161599729944464 -0.12623590147039887 -1.1467872912876655 0.19021676404876 0.5293526339697269 0.48646289850602553 -1.0123868614938856 -0.67116364646308 0.24769438980244995 0.29026777271856136 -0.6594530254590699 0.6355795957225734 0.5945856783315426 1.23711060583469 0.1021509127415873 -1.032564405680138 1.6863907811883694 0.49758507918550327 -0.587373377981678
להיבחן -0.7389208480213961 0.3297215953157313 -0.42480475814451557 -1.9096767319790942 -0.5639863040691283 -3.1331096351172825 0.2580904647502647 -1.0723866489277842 0.24329152239937196 -0.3430605371951734 -3.7621934439590206 1.5916164048172499 -0.5902073925231348 1.0748409559775285 -0.9008086667289844 -2.5381753024809584 1.9400359925771362 0.6273815574121347 -0.28418826997373753 0.1023981998271734 -2.2017940448832745 1.2263310326936425 -2.234026648756672 1.2510019800000167 0.6793489218661561 -0.45609648573998 0.022215976721795108 -0.5743823479777417 -0.4403298657820346 -0.18769631232160824 0.14332683110199296 -0.2668965134757416 -2.201547285685861
להסתגר -3.4281820755780763 -0.570955342498998 1.6801857681965762 -0.2127701834340576 -2.368055413532371 -0.9078987011957002 -1.1399971448181274 1.8316781822841197 0.5837020488718002 -0.14349922537388632 0.8076917769981179 -1.0308774333231543 1.806412193356985 -1.0826572352968906 -1.315753830708055 1.4807399841856577 -1.2468014768148863 -1.0895758459075224 -2.5394071326021717 -0.14554908918635603 2.8866682929166645 -1.339837591939743 0.6811535134521209 -0.01383065019389439 1.0795268326268863 2.0659078675110267 -0.02471153838972084 0.02130669198480053 0.008455351469800523 -0.34908323474956876 0.8108279582429861 0.46365571539377143 0.7006179126749909
לקשור -0.4395910427892466 1.6060687101576203 0.19781272953608944 -0.3952542500821569 1.5332936101228893 1.913783309126859 2.0366171445914416 -0.23250674938328603 -0.6245733157242015 1.2126055404000669 2.5267327145220477 -1.9202004031070967 -0.9430336671587025 -0.4969794834461427 -0.25299353143621106 -0.14819607508290167 -0.35370048736491916 -1.146291443373106 -0.6406066254921655 -1.296644106061382 0.6168946045781031 1.0990993091845453 -0.08151660809463623 0.5872488772476556 0.18099693645381784 1.038900850346165 -0.8863498122309079 -1.9519000936264073 -0.9110711494810504 0.08698782188160328 -0.4793982251820078 1.4992752395849602 -0.9450704709751215
לסמוך 0.11053166656008677 2.789116595282061 -0.6585645557157073 -1.54464198728843 0.8377522582273681 -1.6508865933370505 -0.10441199827887282 0.286740385468674 1.6198241358663545 0.7178715011733436 0.92867945742358 3.050795771408384 0.6449929864558404 -1.022863628930084 -1.6532969567421032 0.30300671182659944 -0.07967337108501783 0.1549747804963249 0.28457439476732616 -3.6479825677589033 -1.3445674755684436 0.19532432305884148 -0.6177837645840725 0.8308678318991166 0.04732262183720951 -0.39874179690751815 -1.252720407222149 -0.41726687734912005 -0.37635674493590215 1.2069554405490563 0.5715338845551646 0.3036662909455811 -0.6886058404048371
למסמך -0.26939524864583747 -3.863960770231732 -2.6322001267086534 -1.486659014833954 3.830870132018839 -1.659519177396765 3.11675231634783 -0.6827669964350379 2.556112653598325 -1.3742842410741025 -0.989773431856488 -0.09629354946728111 -1.3420021519710268 1.4052592678068523 0.057199306325882084 -0.6088130743545598 -0.36458869022889434 0.5908892042337905 1.399269862919316 1.471079157368368 0.0925878649504221 -0.983025995233639 -0.03650410144418418 0.6518602912013305 -0.1523568106515831 0.17276175248532424 -0.2660214101017138 -1.3101571053417316 -0.060311415172812716 1.976617692048215 -0.292814977967534 -0.16357635839929302 -0.7252212658648444
אבטחה 4.74309826329321 -0.47171967285847083 -4.668267963774655 2.3666834352060837 -2.1293965836880613 1.3762249952083037 -3.61389599753645 0.9332303607223549 1.758135659903991 -0.503630658067054 -0.46270242081117074 0.13983617038413623 0.7124078641111609 -0.2973094988641447 1.7546747592859067 -0.25597479125363926 -0.941191239969369 1.4857721790398055 1.0331104897035275 -1.0627124903987704 0.5689508984882861 -1.390311402471533 2.796799550198022 0.3104331280349422 2.087014158606379 1.988561483276578 -0.7909417249126024 -1.0633645213867666 0.9401941506336504 -0.5802855444423187 1.9297854129875776 -0.28273421242138636 -1.0621094135960425
לסמר -0.7017576833817574 -3.7351474104977602 -0.6116256851798221 0.6496724054262863 -0.48702174978959395 1.1353970235698052 -0.44544442160375264 -1.2232157861157265 1.6278439399718907 0.8704554041868542 -0.6043362836369169 -2.5765736421789196 -1.54556386802286 0.3346550899527339 0.2571413757696872 0.4043872295308326 -0.4049190558804243 0.36773924706357897 0.6145144047844412 -0.7107788044009669 -0.009708968069925817 -0.46212100915623394 1.5137536462064958 1.5174820284280233 -0.33055656228224034 -0.12855472175984464 0.9081392168736205 0.8175449599307798 -0.6343066789746625 -1.054465412612106 1.492786656934741 0.434029188924428 -0.25809066081322124
להחשיב -1.9140594162823137 0.2473338133072437 1.602812077110545 -0.29283025019659287 3.4314949664991508 -1.4782931719476176 -1.9370885522276409 0.6718735324685723 2.622134468367632 0.4638046657454289 1.2494863352364716 -0.6652146469895834 -1.1283919765207406 0.8506157461269028 0.5595025025430844 -0.31700047071765075 -1.530459456256445 -0.05412243880444721 0.7113482431209529 -1.6441684494297288 0.18394561986327523 -0.8686543417024508 0.5148341601864914 0.7953748719334287 0.815283219976795 -1.5478670801099987 0.01564255006837147 1.0042759882017804 -0.40049279470429494 0.4590430902421759 1.4437916633082224 1.1431107931004243 -0.24250971360611936
לאזרח 0.32819564070899665 -1.3307709880712266 -2.7507687472028395 -0.6369458339407014 0.9256470385284554 -2.089661272486644 2.145947931103456 -0.8827431798816963 0.7489386239286673 -1.217961696374146 1.9542868382550052 0.12891140756516142 -0.9061293733437122 1.893067420756396 4.498504342458046 3.0417599183551194 2.695026830432576 0.1870606817971052 1.70766455408678 1.0408187782445915 1.7771632156457782 -3.413674262789749 0.9125424616554282 -0.09793188039408514 0.6079598560027737 -0.5412783237442911 -0.7403302428689114 0.49155562448436757 0.5852963246218353 1.5182353344377377 -1.1672041922703464 -0.5039087354529588 0.598393153887488
להאריך -1.8172596013362459 1.9723737017771568 1.5916828587358296 1.3692816415305182 0.8021388562512618 -2.7853526008745244 1.3908520106377749 -0.6604907357333764 0.21992962086038043 -1.0532182940953385 -1.530697804813066 -1.0917065311892924 -0.47351989820141543 -4.029047982783459 1.454392382498666 0.2764073540782948 -1.119146071903712 -2.728285354796559 1.426843444688936 -0.3074544760988052 1.0640143153162616 1.8667792615495424 0.23852886273606105 -0.22593640168616083 -1.8601730831020493 1.4410635286063047 -0.7120368689685379 0.30664616100964276 0.23985808084824758 -0.9449338751656872 0.6218006283237735 -2.316291686171813 -0.12874493433288162
לצלחת -1.3090800228689097 -3.8590033676424613 -1.401365702265898 -1.3198170756005496 -1.0841461252760878 0.1553666375294457 -0.793525744103935 0.6616377505069294 1.973876511393641 1.3755409372766203 -0.17256055663207892 -0.6885332520690182 -2.537171379272562 0.7600160000360494 -1.2414010196774423 0.0660778904021415 0.2804126023635615 -1.5793463910177448 0.8554723914816548 -0.8955309872374009 -0.3466568195363752 1.462668132635407 -1.4160628143120528 -1.415140256765177 -0.8402072890471769 -1.9300975204417206 0.25684468822726997 0.9458475115027193 0.06843568849948264 -0.8431474515032343 -0.459937405322554 0.1535897438013221 2.1909607560156625
תזמון 2.5889300683777123 -1.0426547743860812 -2.2504983501234546 0.7604561124450017 2.553196950916347 2.095876344232371 -1.2564626250075037 -1.3574502559001667 -0.5229696395468992 0.2207501424142056 -0.6836543684287022 -1.6854915284271046 3.807951972071518 -0.6922653183797497 0.6466436543098238 -0.43069492690885774 0.2710001771701205 2.786223320172179 -0.8813886391911423 -0.5334337096674379 1.3606546883501165 0.7031674197400912 2.3127070586531215 2.8140557729011455 0.1836292643308211 -1.269759902318095 -0.36521036027978016 -1.485310634685198 -2.21595190691512 1.7176081240299457 -0.3393708988647897 -1.8180375018322936 -0.21651895825103862
להיחשב -0.9708986608162767 -0.2913203663073359 -0.856019595471594 -3.2637501901556774 1.9886418769957237 -2.413181663161077 -0.12776205115824343 -1.1270895880209284 0.5220447602763212 -0.8234846655718813 0.7848852121445662 0.3104969199684388 -1.9789093368974988 0.2756066933398808 1.9478413023033232 -0.29284367784711823 -2.058764784938995 1.567347778925521 0.9767397846612075 1.0303275117728816 -0.12581158051571467 -0.0941403770197699 -0.592803905651797 0.28027470195845416 1.9567665325252468 0.06294648229796401 1.0921468750439212 1.8959377582360326 -1.5316939636834372 1.1691717502345473 -0.6455396376945938 1.508224793328393 -0.34250108894259823
תרגילים 2.7457076469063 0.3627053003308862 0.04428171635019758 2.309445333248322 1.5598438361654121 1.1865029636121593 -2.872135931120029 -3.045794962324477 -1.5573236399339683 1.531371097180056 -0.5875987409678587 1.3319692401866936 -0.49407102615880477 0.2816468923269602 -2.070371574097899 -1.3954612244809819 0.20739542293433016 0.2061899592667883 -3.518277548485551 0.9697980404506741 0.32408751903904065 1.253421885974569 -0.6869220177856613 -2.1538433091164157 -1.3118851393670075 1.3205268827639713 -2.1653202642256058 0.1341933241572227 -0.5809311506488243 1.6058050894217846 0.3845271195873554 0.2360148539356464 0.11331136413725346
לגמול -1.625315487828713 -2.424696734947865 -1.7509209837754445 -1.4851534187763604 0.975796139370261 -1.597538359999712 0.9072939008591834 -1.3675209592987816 -0.9489271385927305 -0.16147450115083556 0.07500607657629578 3.1912795427598253 -1.2760215834281237 -1.8332244722573554 2.821046050990321 1.0068299347052905 2.8760982549469034 0.4849285854896725 -1.3659736922792263 2.4366586551020606 -1.1581243091016178 3.0794090880258684 1.1222823794388839 -1.5399449706324593 0.3311893377713205 -0.5426207835086339 -0.4009729722359315 1.5860151049700366 0.08221630958916606 -1.5059177003172137 0.6353584555635869 1.5845311055124853 0.02186032583467908
לתגבר -1.9416108836499173 2.819985540164087 -1.8733022085372182 4.659300613177221 -2.0434557689327493 0.7323539269553495 0.6796565344026756 0.5408144154045981 0.43216413188738867 0.5144075426486151 -2.387157212992667 -1.1518475148887555 1.320083286759118 1.533019656779954 -1.3831350249735836 -0.5988909598917713 1.5567335204909327 0.2676225365958474 2.1678352974703654 -0.2648333765927748 0.8219306515690449 -1.5043771814510942 -0.9067239493091607 -0.8353452011254898 0.4126489540582852 -0.7585371417296107 -0.09122427204731315 1.861132759702757 0.902924081277435 -0.19073924811355436 -0.15827981935024743 -0.6269900834211304 0.6516881371007942
לארוך -1.7802145749705482 -1.4871178352075074 1.6121608657340367 -0.8623479894783441 1.219895232042564 -2.8191359124116944 -0.11489582084437343 -1.332765767270357 -1.1998551609985815 1.518744671213341 -1.5176066452390229 -1.4745476987482966 -2.944152023348174 -3.991473438151625 1.3695847180248326 -1.6393411447086714 0.10462852579767232 -1.1137030245250417 3.812682282611301 1.5838152411342963 0.6317696194680472 2.618272187210128 1.2700383643028366 -2.507903367785078 2.348403941742136 0.23058034825546192 -0.33632008238085437 -1.8483308381619923 0.19299145421005962 2.636147244919393 0.25640056915419696 -0.1859336231075509 1.1845956531780226
להתחשב -0.8166725207270952 3.311458957475068 -0.4802138706345065 -2.296576987346217 -0.6265579870449952 -2.0757559562528414 -1.7178851084308353 0.3121208187022109 0.9338741388595854 -0.6204440184183805 0.20670604717414934 1.0986862200403076 -2.0522520671812305 -0.8939992206494595 -1.217393025638369 0.5021912611953376 0.11511002816303031 0.3743417552392656 -1.1682887673495463 -3.75400063668264 0.7783436596494477 -1.3189106543845013 1.631133656790002 -0.7552721357459171 -1.560114673520183 -1.1404464320406458 0.557770788904158 -2.312851438845951 1.6358842851776116 -0.10814143639113304 -0.17951356298340282 -0.7575909115650086 0.06706300237359915
למרפק -1.2108571474750363 -4.277546936565091 -0.41804170514655975 1.4231277447103492 0.7436482695787735 1.9935196875267789 -0.520212493295922 -3.4797486664408197 0.531725803201365 1.6713469979246578 1.2414811549382543 -0.9846156909580713 2.4808341401153085 -1.2381541737087036 0.5239713147511953 -1.4268851563743103 0.38517813986989047 0.22002879674454048 0.37594563167173384 -1.4788117472274842 1.7389137794469258 -0.6031994520721753 -2.2680187420155384 -2.432078757789839 -1.6793451590242832 1.6290964405923132 1.4662677404771072 1.4881740247211481 2.4653206997056905 -0.24084425229877873 0.3756442823401638 1.522520985361616 -2.0335612847856788
לגבור -1.8709887121415723 3.904425448871427 -0.43954548771093477 -0.42665536283754407 -2.216727658199571 1.695101854814701 0.7405466316602183 -0.3918834577713415 -1.7351832430225111 1.4094170408876416 1.0784208855407897 3.5775264858232414 0.6620362853714881 -0.010798428704539564 -1.001426585626234 -0.46044343492619527 0.22859557771824976 0.904329937993227 1.0072485038908159 -0.32816068963336464 -4.5320812348847424e-05 -0.08687147477896677 0.6801433566881986 -0.18871659624669862 0.3247212432532652 -2.068163671939872 1.018494216641718 0.05138378089627064 1.0960106225813722 -0.41127076430695714 0.6435317187900897 0.7178161241091785 -1.8756211468710742
לתרגל -1.6004622041877343 0.3548902568915798 0.3844140642414999 0.20879333295377925 1.3676737671196686 0.640449535491259 -0.9213174904642155 -0.8036738369262268 -0.6436169223280809 -0.41629995684442084 -0.717323864147519 -1.3297695153661204 0.6669077633132617 0.5486039598697305 1.0758621323349258 -0.312231123057952 0.2557751676612167 -0.4137148950611478 -1.5751053990836552 0.9753520932025568 1.5599688665559144 1.0246207589287377 -0.36655676898981293 -1.170063871468588 1.826380936573062 1.6864727284775378 -0.9285052329493225 -0.6536849643110954 -2.153769663851543 0.13535267238951154 0.03752424066124517 0.9210384571925702 0.8474582427959938
מסמר 1.6882400684476586 -3.452899041353488 1.2153829962587128 0.8639542551719795 2.2598288044301955 4.514542271834711 1.3845468294392733 4.200029932595939 0.2242444646006422 1.4672352676656322 2.181773746791603 2.050308911101761 0.5797943351057032 -3.997670857125415 0.4196211694312044 -1.0020405797139924 -2.7357220279907706 -2.2790017224852543 -0.4753718249331334 1.1358024477640556 2.542589003477133 -0.691623439481676 0.239395098393606 0.34514185780906 -2.211060225584206 -2.7701297899377306 0.5397823007438373 0.5839538656752409 -2.7413018809740444 -0.5949716245258575 -1.2046695882447584 -0.9533350275428316 -0.28991169149200746
לשכון -2.1694824258781407 -1.1702340876836506 -0.5244010385580736 -1.6170334865646279 -2.9378511788204578 -2.156509235011728 -1.7457555618595495 -0.4687894451756177 0.3247781911165633 -1.9536156784555079 -1.6555623560919492 -0.23037825805872933 0.5020169768713851 1.7024642227776985 -2.7922191571104773 0.2638441958808303 -1.0956623118480406 0.30323587882214903 -1.6567813933899864 1.4069772127467046 0.5788486920538611 1.8476091556382896 0.27480303869603556 1.348274192768982 0.4571014289124214 0.5578702764401053 -0.43484494616269914 -0.4473966949558951 1.0094910768145475 -0.8843938330104921 -1.0942131878214851 1.1995431736453872 0.3098529325346315
תפקידים 6.132715303507425 0.18176758426923204 1.1854919324324737 0.5848103744107681 -2.994059714532768 -2.4253481634607126 -2.8838918215781097 -2.8149254687675342 -4.50225086237778 -3.572755144808283 0.11030192634071989 2.5541072079075247 -2.5258710074729955 3.3213894246834896 0.05708867702128307 -0.03494397884675378 -2.3096817805179066 -1.6804418353800716 1.6799553741548492 -0.2603829077086222 -0.779293084983778 -0.27266857336813344 -0.5021181848065425 1.3243472178364886 -3.1976632791476107 2.4498659523032402 -0.4926100753337903 -1.8275289485127197 0.6489499178292877 -0.9666346355011485 0.7124454024052085 -1.2172765783490085 0.5081301433708516
תחקיר 4.63347977918533 -2.797141951541977 -2.445968088698102 1.0437704552609897 0.8139948746976206 0.41525099296474927 2.6259311491989727 4.992360621466492 -3.461391307286649 1.224095857631239 -3.8415105708493154 2.273809840233036 -0.39052779267253357 -3.649507648931538 0.01897913555471532 1.1143757794012894 -1.5892555189180193 2.700799991990702 -0.911480590971619 -0.9880533724438423 1.0214312041081635 -0.7683486204573036 -0.5409813641394169 -0.8292249575836481 -0.21303065808158894 -0.6326764663158038 -2.703682334498825 -1.6987563645709063 0.4145747270069703 0.3933053929946343 0.32026795728053464 -0.24837151276394728 0.8033869698704426
להיחקר -1.0322885108203512 -0.3648487416307316 0.06768034215715997 -1.6920770552578381 -0.25449011356153867 -1.4465292424120528 -1.2020980971162456 1.5472029571609769 -1.4214049452542523 -0.6008416391974668 -2.099813838145729 1.8532978885187372 1.4329868054881492 -0.12858797236424951 0.8907377982778106 -0.9792197312187142 -0.4328910918658946 1.6051640666560312 -1.2590420908668913 -0.15404710961480453 1.1839214323488254 0.2066838603602966 -2.956897671744712 -1.3274709750274998 -0.9123471000145665 -0.07728181087171312 0.9259022636618612 -2.237521841077785 0.24467215701036787 0.9658480171267374 -0.4729622439779515 -0.9985370487379613 -1.3115103063879776
לסמור -1.142751762105647 -4.9956640999401145 -0.5524100122244823 0.22721908118757414 1.4901523596245778 0.3502515514059125 0.9832817771727896 -1.6339503981490022 0.3287497581894251 0.24787503759312832 -0.7503211805211396 -0.05836170694153091 -1.2029558134348017 0.12309383863030898 -0.41321001549644765 -0.6741992042655975 -0.38852591447743234 -0.6997615702716833 0.06329002800434433 -0.926598754318363 -0.9459475400888503 -0.06834815557304731 1.3611825716869768 1.9413726556717157 -0.7102877442160945 -1.3471400436151972 -0.27415121044358903 -0.668409032951643 1.3207144166619071 -0.5913383376029124 1.0725083054939122 -0.876892710351742 0.1220765042990517
מסגרת 3.402547192689919 -0.7000918423279848 -1.5305210414944233 0.4288277014859327 1.139777257903129 0.5392968781213717 2.4604709934616253 -3.698602618931509 1.8177995005938494 1.5939470311703547 -0.7156138460276125 -0.7229208787002731 -1.7337494403673657 0.5989645692049527 -0.3572227852082715 0.6667901351445342 -2.6411219162874744 -0.9841398123548496 -4.006945980687301 0.5393838817107021 -0.31839752304013874 -0.2065076537114659 -1.263291699052845 -2.8132893733838777 0.7733011483806179 1.2436027824850717 1.976354338041201 0.33273260577939445 -0.4795130430337989 -1.0823178177887205 0.6575075142541699 1.0951198440343635 0.016088862700442387
סקרנים -0.8809548956026461 -2.2493892093827665 -0.0515226150919318 -1.087948590155961 -1.0067548952008034 0.8591971180261582 -0.6634710612035783 5.638542357519032 -0.6416769652439027 -0.4018505677806451 1.2900632821635671 -1.1322062659567984 -0.6244925371593875 0.03231354861670291 0.8529161305400531 -2.415286687299823 -0.495675353557088 3.4262691896639113 -0.8047240335564443 -1.2486574981682415 -3.2799087387790347 0.6042591291700959 0.08170485757728188 -1.140156425932618 0.31012977715052004 -0.5443222265406001 1.5685684572369105 -1.4984765245136311 -0.17676430621255265 1.6667377697969468 1.4454839805397361 -1.9170268973208235 1.0691726821496295
להיגמל -3.549519789959663 0.02956887730447417 1.4977388078128497 0.6227170745544653 -1.49030803354794 3.056944534298474 1.6157709408024332 -2.270872492285501 -3.2393991249367886 0.20351182082686511 -1.6165974263286385 1.4336738112002694 0.9386973564255119 -2.164004981031347 0.9522471842736976 -0.9463805222611182 0.2270855477342856 1.4572637478832053 -1.731377353996673 2.5700214836908084 -0.3743336106255633 -2.557945329344526 2.3260615109892018 0.7031452850431705 1.6640588879865044 1.486209586133364 0.28934781838456725 2.053017695462066 -0.06484062730904643 1.7363182495974 -1.6997204294145103 -0.5520220136781814 0.6666285824806975
מסמך 4.005979971586178 -0.8954192205489417 -2.3152485874156263 0.9203700686992734 3.7083817842232447 -0.6209498702636702 5.772006678333637 0.7287235932885857 2.2079952455656 -2.1613242854026997 -3.2848414554185505 2.004344076194392 -1.299336239142129 -1.7364342963608856 -1.4020553143829646 1.398959092256637 -1.5930417888488493 0.2289063313366168 -0.004506379834149252 0.3233010506144331 0.31860334053460115 -2.1831803374753727 -1.529302702040025 0.05269747781521499 -0.09049305862973708 1.460201523361643 0.5193130093292546 -1.9447748917830807 -0.0927904466065413 0.5228784315716244 -2.0577015889363786 0.20753979849609577 0.3110435130339486
להתרפק -1.3753037030089663 -2.9543964783652314 -2.0823285200878683 -0.5249417382775038 0.606232790435399 0.6487275140696552 -0.8459413775208273 0.6782928231499701 -0.545650085039785 0.2648744997149276 -0.6343379805906341 1.2655898529289806 0.0484437131214053 0.16620003954825252 -0.28008516366383507 1.643458390443903 -0.26345174187906834 1.0102586541235645 0.29982562907906574 -1.0399357300308445 0.38826809804011186 -0.3363170866932114 -0.7896868541418113 0.08593369922985954 0.6560442303596316 0.7855224131354149 -0.2333995208210655 -0.23539604087090682 -1.2538636147016406 0.8045511160180425 -0.7946018552368641 -0.20866748116816136 -0.5922287174597703
ללכד -2.921663801923781 1.792772412962312 1.2220189408555104 2.2118325420833593 -1.1559523411782544 2.6435268114692847 -0.11354926311209153 -0.365205727516632 0.7159010467117275 2.4649507840100084 -0.7030743854426054 0.6145028257435672 -0.3304035864805599 0.5527993448514117 1.629188508087886 0.5893730726941387 -0.6456665158257577 0.6201981101253136 -0.04337274785308739 0.07390296399640307 0.6113680233094744 -0.4938538617729617 2.504958692299983 -0.7940496684702841 1.0993802301644777 -1.637126915436942 0.9733918992016065 -2.1129533159461977 3.849495434994608 0.11180796998153339 -0.45611330990254983 2.6330531580028103 0.5593828957122418
לתקשר -0.28621874509106127 3.64379479564048 -0.6771031956872708 -4.153538858346084 -2.3919136787816946 3.6299141180858543 -0.5807000922937555 1.1467985279483461 -0.14543326576376395 0.20220069342515473 2.3850140765868475 0.15057805000042543 -0.6391880206334969 0.3964260168979842 -1.819460996849789 -1.2781362063825148 0.22604229127337178 -2.481452722761316 0.5371834969035693 -0.15220889416604344 1.1086626082464 0.806133016427878 0.5670993680898496 0.07012970404852147 1.9467421795701823 1.7807758359290453 0.3055025350358181 -1.9138794179973775 -0.9377343733999612 0.5493266727651526 0.14927270077470167 0.43847580358013877 1.2383043998102659
לקשר 1.4980987079535413 0.5534359952517902 -2.1109391628059457 -3.5509173073729166 0.9838216983648316 0.6346362382376278 4.205606342111503 -0.12813449082205347 -0.5632468387278304 0.7810630422782009 2.081135999884413 -2.281366694246723 -1.9133429497394505 0.4102176534975412 -0.1392561340895437 -1.0802666451654823 -0.5859353074518225 -0.9443589951603815 -1.0832806779883069 -0.6276581585393209 1.570262696583371 1.0630074330222365 0.7320260051315536 0.5722196281353975 0.0015848692106885393 -0.16536788171107034 1.1133272619121368 0.4466076983502101 0.8157437553676522 0.29764139365554887 0.11942713650478565 -0.574872706648288 0.28987936908474965
להיזכר -2.0822667740868193 0.6561993471887712 1.5054118770791258 -3.2435745889317595 0.275340319759926 -0.8876425514375073 -0.9720626924625441 0.3714054980004099 -1.218073778358693 0.24608810453271102 0.5990089424010534 0.8746208801632078 0.41684374123428186 -0.7454809265567655 1.3064698411973334 -0.5944476555540341 1.1469803606011473 1.2052039737475806 -0.03371635566444801 0.11384062737202649 -0.8685608677580602 -1.2834441842475748 3.037034174132333 -0.4759158380397439 -1.5340105133326942 1.5141121498733816 -0.3264068604371188 -0.24441790749794226 0.7448079650711197 0.7344202089267409 -2.028762642226531 -0.6825189007173604 0.28919623101711417
להסגיר -1.610465618534454 1.085790876221074 -1.3379937758187057 2.3370935650157234 -1.2147790809232695 0.1793769989236682 3.296654355019365 1.924733832116065 2.6122643129113383 -4.854582115695005 1.8007345383312934 2.974565915729232 -0.05581996983052353 -1.035366028304076 -0.3920240128090898 -0.8299568791667344 1.6709501983091823 0.4358087498209184 0.3043852038002632 -0.9574372600863377 1.4422658611916155 0.6762613691144505 0.6703250845946304 0.20647281895066713 -0.36001112618423603 1.5783278867589183 0.8304891184450656 1.602415148871803 0.5884335967458771 0.03532435824515507 0.28749731322368327 0.11107903886132278 0.18710159459374623
לסגור 0.572323593950174 2.481754935617571 0.4707997014760732 1.71597364233897 -1.3988314129100283 0.8451400992474598 2.158886976593255 0.042584361176561204 1.5754598735987906 -1.064337719398428 -0.22930689798533888 -0.4025969719785765 4.158548547133278 -2.225056496998472 0.6636711271264641 1.4821063899997389 -2.1568668021500526 0.1278975080546649 -0.48799719576347333 -0.36523421715814863 0.3863243588502598 1.6742103529684198 -1.7051484287238245 0.9205684092041206 -0.29252521025029016 -0.5145442397604034 -0.6812063411065866 0.2993535381171478 4.428925422438493 0.6084117803533954 0.8812328830573299 0.008937090551591033 0.15277922238887584
להקליט 1.9671547017548956 1.4376510473199744 7.924121353246559 -1.3217648853967794 -1.792269681888161 2.2097634429025046 3.0676467849229847 -1.0333050547879148 0.3592711282661434 1.1466803210379921 -2.160958256972627 0.39996280909924503 0.3907391305758182 -0.09453731798156888 -0.17628302201419718 -1.4010398617515196 -0.157093388547605 0.47079125760312407 -0.5234025870350859 -0.2939979197480064 1.7574295023741509 -0.6134724246277207 0.7111129473591932 -0.6608239024043868 0.5682658886330191 -1.2472127050437927 -2.4850683698343716 -1.2160668368721474 -1.138515775788521 -0.9559006978580203 -0.35501836807882503 -1.648514885220474 -1.6711123073579282
להתגבר -0.5220388066041776 5.518560810224728 -2.026581842830139 -0.7387389938384233 -0.9234555380881663 2.446445947605128 1.3706294714215257 -1.279265998903568 -2.1129485844029046 1.3297319963865457 0.771032448486261 0.9887367437135478 1.459392716047804 -0.7747801376831565 -0.06514515887425781 -1.0154854232681285 -0.6518603035064924 -0.4690141571579774 -0.7443270380637749 -0.16258670958930768 -0.24080293336839947 -0.4151780754609194 -0.141130424080539 -0.10690775633791517 -0.04013894617756283 -0.29074100584372764 0.6782993149898646 0.8707681250887745 -0.76040154409717 1.2686290086844516 1.18643447974197 -1.110933011982118 -1.0148406217988486
למלכד -0.572516751335224 -1.9585229644283981 0.6392130840802756 1.6218558332387496 0.13360359885723846 1.2591166169137824 0.5119064344782792 0.535497661505282 -0.13710367425450717 0.592965655603283 -0.2556207828937118 -0.7512182357409295 -0.19804412104177196 -0.1739530516264477 0.2864478014939392 0.6851903199969227 -0.9645433202675262 -0.5793137106834219 0.3381595593672651 0.011356760164242417 -0.868322536749293 0.28584589030618135 0.9053288374165774 0.7293589385554438 -0.345626982549743 -0.0796748992265719 0.7231953902970252 0.08665993276180133 0.48328805887355164 -1.071138724658563 0.9020233524998722 -0.5251363312278104 0.5995196256331674
להזכיר -0.21415041358593634 1.4927618891008068 1.361362904766871 -0.9563808190427323 2.8832641622861908 -1.9198128760127016 1.305387085273513 1.354092964523255 0.18308534158998585 0.9243808338427326 1.4566908508494933 1.0189196352997607 0.8690408279276104 0.6076507580806441 -0.4640145204584109 0.5895818208684112 -0.24929544117445054 -0.8270083902764821 -0.09231595214952956 -3.049147476831683 -0.4493353282341079 -0.579980054554556 0.6636800194726498 0.7242070418245821 0.3535345395502924 1.579795698997294 0.32858302891235575 0.8439120384630971 0.7459779277008445 0.40925271876015823 0.16257454989540301 -0.037456768021338065 0.19492912205954865
להתאזרח -2.284088904519979 -1.654876380507926 -0.4009438586643735 0.15520612632560957 -0.9744683855696483 -0.389523654009479 -0.1707529479216491 0.9414072504350707 0.1171916900666298 -0.907570844583132 -0.10125700397486732 -0.09863464891431493 -2.4224001834542235 -0.3588858081922276 2.102796785616975 2.1045269060104483 1.3488510584504831 -1.0152218239072963 0.2070580666528009 1.5371129792608365 0.3921882803298834 -2.0265294909705127 -0.5030365724328926 1.4383702836037997 -0.12477997819264923 0.36248472372711743 0.04564109690175442 0.016533401296549875 0.1605500911834857 0.05265349078966169 0.02821279441846504 -0.4011573385754558 -2.419399459857836
לחשוב -0.3229027856145113 3.6589596132379647 -0.22532758931389718 -4.617615941321918 1.5371990463303493 -0.9592693489872276 0.844781692126253 0.7153789544662829 -0.5008318715933836 1.340787473119125 0.8582423558413411 0.8518997938948402 0.3190448639301508 -0.146336513156403 1.2867251021530937 -0.3766810120014116 -0.0006638272988562168 1.2323057427678943 -0.038962030827056834 -1.4740823545962547 -0.37042854562992533 -0.6291127673556485 -0.4135931310536706 0.6028679622582274 0.31717936845727646 -0.43393471340114165 -0.4885519509686937 1.5509523257270827 -0.5451976957430564 0.48602198093947435 0.6594962230655291 0.5066247333378866 2.8210863611927066
תזמורת 5.627165380249493 -1.808355698184554 6.517163037724846 3.8437832539308223 -3.4156418861286886 -2.0337589126623383 -0.10495374760710793 1.2230115765770195 0.11379214610474352 5.145323526360251 0.9024444527073662 2.480484806699328 -3.7943566975861684 4.8810720293964405 1.1945740685032291 -3.0828444851390793 -1.8460392127473346 -0.6598117362040319 -0.9036463928189635 -1.1735331810626306 3.3002141772213784 2.20935756264431 -0.38206504363246563 0.6856761231281758 -0.2802504520029889 -0.07662320718228025 0.7732043292079722 2.350682442694714 1.536228649950835 1.5601947953822137 -2.124139804398627 -1.3762418569678823 1.1695199651428232
לצלוח -3.2119672564163686 1.0287280606315186 -1.3893001177533804 1.9946039585451765 0.4334880530013025 1.9008796838988982 -0.3201342831539987 -0.47671022711736516 -2.4038664019541782 0.4170753609627858 0.43606401122941585 -1.1274280886176373 -0.32760205366074996 -0.5984253237584544 0.5005009916405092 -1.070344904317275 -1.515312673694741 -1.5358669631169486 3.4486535668822604 -0.19994732929365053 -0.5867080334821494 1.0249201634455036 -0.03808193297849602 -1.7229248897164073 -1.9210883833129273 -1.2628987066830335 -2.6664276868181327 -0.5637750773207009 -0.6838552678238394 -0.2897414020064575 1.8164058412062474 0.8718125055727202 -1.2789279451798687
למשכן -1.325869989944368 -3.511936716262429 0.1922626253640116 0.04395608597449182 -0.8590536621814296 -3.62946999002772 2.687308893901123 2.244400236095046 2.9551580085604834 -2.4376663973256543 -0.9100420011336081 -1.7139427641613838 2.1734085794003937 3.1465849431829724 -1.0313496813034337 0.804628047210204 0.015085752309757026 0.4234202024653845 -0.9221730853499203 1.058831842028327 -0.5761719048978012 0.6603272878776258 2.1137449046305945 -1.2967134797859257 -0.12765180316362906 0.2521857106029051 -0.8151514425103658 0.14148747917130602 0.7896768084377181 -1.3523416051454755 -1.3639050242917525 -2.0788039244771155 -1.1765934947180239
להתקשר -0.7692168472237801 -0.012653764076531496 -1.3307258116347531 -3.2598838672993287 -2.4196935867694673 0.3704789302313383 1.286758852413001 0.08569762218934764 1.1304313298187603 -2.2570264761407337 1.2437150269158028 -0.12691864172661696 0.4850644114035492 -0.0625906603440458 0.18649871674912905 -1.7051772514898398 3.668070005357003 -2.4484434809773092 -0.06917234282531545 -0.8214086568637161 0.9309976537216421 1.577396548375548 1.234807413550313 1.007966220100958 1.560632644234064 0.04481628785846404 -1.3710579166160592 -0.9279915628673597 1.4177460627057457 -0.4458368995156205 -0.6425116328891741 0.7778397041799247 0.2356534866851824
לתגמל -1.7694274758423794 0.4827247184156495 -0.7222250272152402 1.8828686227311915 0.265216502726712 -1.0924298247797308 -1.7114754244604853 0.3451482787955911 1.1660605624457343 -1.7950217169161782 1.5866158088207494 -0.27004416414871013 -0.40924091998611933 0.6567996348877138 2.4669092767964997 0.7640954597127414 -0.37861255658364124 0.5592277697899828 -1.0177292323431901 -0.494516560958364 -0.7671093699119648 0.8152342909381701 -0.706876208057577 -0.16927521250164318 0.5906310054134106 1.0140734439303278 -0.2846460358176562 -1.2176882977165855 -1.8894999763273825 -0.37737196141406837 -0.2335446256939208 1.1437167206653085 1.8382606415517286
אבחנות 0.2546419058509501 -0.6635543809341239 -1.5446299978925486 2.0824426804263516 1.7515568012514886 1.399399195231654 -1.7551954722438714 -1.1792421448483303 -1.115830394639896 -0.9496521089074063 -1.3453882405177984 -0.5785814291976112 -2.9786335695807606 -2.3861026927763325 -2.070546743531082 -2.667510268992314 1.4958188224401507 -1.5319848995951255 -0.4849463697352833 0.36174808197396974 0.8550383805150582 -0.2107292230799836 -0.8502981463255818 0.5972015263031452 3.7674000399635466 0.5045259778340543 0.45108071675691086 0.22036329618349132 1.9230084061615667 1.1805746920319167 -0.4435563035103625 -0.5908814498282547 -1.2269365884607333
לתארך -1.0339574808838514 0.9708901696354185 2.161704493911288 -0.5255497302074459 6.345418924159388 -1.3951240069822306 -0.8645632333207407 -0.0728564364241224 1.8677805653649178 -0.4378849588846904 -1.109028703366053 -2.8005031954185853 0.3497508856559325 -1.1486951434940142 0.6322747148545387 0.8471600833882689 -0.3746155469569232 -0.7065037878243788 -0.48232357683117544 1.2745192485488694 -0.7985477021776463 0.699277517270888 -0.6395215644909235 -1.1322957782378587 -1.2894331580597334 0.40870986816817406 0.3634304548445033 1.0218640785061424 0.04632200716962457 0.05988906638312793 1.742664316650257 -0.6749786848605632 0.6381642673712732
לתקלט -0.8463983081916537 -2.800580748799068 4.632398790883558 -0.31608516893018085 -2.7482104615097804 0.13673531348773837 -2.8323679117735856 -1.6682763623272716 -2.95017481916434 0.641134587545794 -1.8116646486998118 -1.5265549407126768 2.454297835459023 -0.2837502211306327 1.8213961403653918 1.0183181186704786 2.0819665263069895 1.2060367965400873 -1.1942067255266273 -0.4484215610201289 1.5587538337803641 -0.8306609467891364 -2.742247448125534 1.4072160042285744 0.9960414742181376 2.744354930836915 -1.0121053112508689 0.1950040236212175 -1.0318457367844638 -0.9678682528571472 -0.9253098698501938 0.20175066985595666 2.0698479295552348
לבטוח -1.893840690120121 -0.1995647372494309 -0.3248629998042417 -3.8759974436471714 -0.5646412888135255 -2.3197075174251305 -1.3555343137721259 -0.3748771768806407 1.0264854243228942 0.573994444743472 -0.0471708894718897 1.7949433226059235 -1.008282273433857 0.0658032313111176 1.771409886574736 0.4023155088351818 0.5454580142855 0.11562486420938291 -0.3876351640336442 0.19795604559465224 -0.018391907483843405 -1.2059430164324403 0.3506185915046749 0.8594044718759578 -0.07110383527392537 -0.48984895886673724 -0.9218499692376425 -0.06223037777593679 1.0661327317135656 -0.7249189877152964 -0.1808612652484496 1.778345756573496 -0.04390416402713131
לתחזק -1.8298598344180013 2.134375240668819 0.9594177132439343 1.087136913663719 -0.4714365259467031 0.8978947618541273 -0.9612173770808793 -0.6155600409906755 2.1751259855653355 -0.541386618813616 0.13926675234381794 -1.070132079098008 0.48113506276823303 1.0588373591448996 0.3024104443525679 0.5814925437228383 -1.6864019589167156 -1.1371027753828216 -0.9092223742635309 0.1542408409643599 -1.2709129679419442 0.7743612175435216 0.9242309813356422 -0.46343700519394243 0.05052827275182729 -0.12493427989192332 -2.1403324859250583 0.15513156767054612 0.06994740711785181 1.31224195790207 -0.16075633245388532 0.3248277670030555 -0.027257030053945194
לצפות 1.3168941625483481 2.594951197074389 0.5586069481245579 -3.5421751043319474 -2.466243439343907 -3.1776480491802856 -1.13172666839483 2.800799165853669 0.4727353600331939 1.6264257150344397 0.036891161955904916 1.0094200787583785 -0.45033018845163925 -1.1431070282270026 0.49972451270725626 -0.9446423418154603 2.563566888853914 0.9732231916784413 0.10419576568757354 0.4143938865753593 -0.10766200269291687 0.4775051206956679 0.6219953610841856 -2.459363108340541 -2.673939928817562 0.8232477218485935 0.4338153199643255 0.014228789998899965 -0.8100735613951497 -1.300005768836994 -0.6918373011808434 0.3236730117408943 0.6851386530647875
להפקיד -0.6761808228401914 0.14947743581694142 1.5644867491994536 2.8606186713807236 0.5931034164382055 -0.1176736852142002 -0.6566613042161675 0.19793290039671146 1.6050565205940708 -1.8138654727830361 -0.8215756160323513 4.122673113583078 0.6349835443469644 -1.2150638779900074 -0.08374084700755449 1.4248644629405653 -0.10019121527850296 -0.7478899772790422 -0.08057872723235004 0.9482456444745833 0.5546268384518661 0.647367983307087 0.5260501681489759 -2.1390824118333676 0.13099444575009292 -0.7015983158585427 0.5066518934557487 0.14026759924608212 1.5806125246922622 -0.34990716332801625 -1.205988009546387 1.0580937351073751 2.104318686883426
להצליח -1.708862066624251 4.62969109906974 0.8257753457655087 -2.604123696684628 -1.997162484815067 0.5530729168884861 -0.2165305480682375 -1.5021928859899096 -1.5013688682736903 0.8209322433159699 -0.12938302561382675 2.2268710266191443 -0.8771305259239317 0.1348524645311096 1.278671558109838 0.20550928419611972 0.1642533605242161 2.0102757621679963 -0.45018156024138445 -0.22529195090221954 -0.6980261121456327 0.9276742828812101 0.45111864558451903 -0.24224446156682047 -0.11671814607058681 -0.8958676350042165 -1.0792938378412174 -0.6084977218994856 -0.75090970349656 -0.7370693294247669 0.643044289138542 0.461683660663929 -0.9382089055519938
לפקוד -1.0374763675442233 -0.24227881291732076 1.9892698554092036 1.2980896270692603 -0.42368181343017053 -3.663653018104028 -1.6008454532057435 4.014707546564191 1.828437568573587 -0.5286116679277871 1.918564043155673 -2.67014685481005 2.8150711452562693 -0.07353845522310551 0.06969422264075208 -0.28975373035243746 -1.385198106285884 -0.9103641143582428 -1.2770272380255785 -1.0935370861067841 -1.097087726568662 0.8305808159316721 0.16734811026501228 1.3570509998512925 -0.22810172336541934 0.9447408820267595 -1.456476900504598 -0.19189233690778096 -0.7198745005579863 -0.6553939748907183 -0.36030181556353613 0.9994885022772506 -1.1130550037238807
תאריכים 4.180117964793264 -0.9349782557609044 4.658159462414734 0.8842338610292888 1.8758233250833176 -0.8355290840916926 -2.9868967580457406 0.17688401975289259 -3.130527778567163 -3.0567714229423175 -1.479984662676826 -1.509505961314581 1.7610305022904404 1.6119292843728452 -2.558601290793324 2.6355302622744987 1.5421207256985567 1.5237075282682309 1.3541634652767274 -3.080130935762707 -0.7034414177425513 1.4842492554575042 1.9725034697684696 -0.5262881005771312 -0.09594222152610064 -0.12356475574939499 3.8526812764509004 1.1737762402202965 -0.6698434886086698 0.8447028814517397 -0.27271857696329704 1.0313778343265412 -0.7081980003232438
לזמן 1.8529387417950993 0.8535040468912206 0.1385827610930937 -1.420823319492808 -1.4128854266104676 -2.9338474232570557 2.377749289764971 -2.659878682654552 -0.9447569258370062 0.1842775289254879 -0.19458835713231787 -0.0033844394002521196 1.999203699422753 -1.286018297572225 -0.14383864180179587 0.06131963715376999 -1.0661589223059265 -0.07883359606038416 1.4894373595621944 1.9440647837931029 0.7788934646372702 1.6416889236557437 0.728122408068099 1.0919296692499467 0.9068650052110593 0.14036879357427157 0.993387358149476 0.9514115475860321 -0.23007865692852977 -1.576036807366744 -0.5576475808359116 -0.8530776740470251 -0.15499927034460967
להתארך -3.115133250119793 -2.627944040889538 0.23755314576039885 -2.132692995036361 0.603938957044062 -2.16698030012254 -1.2149480789812748 -1.1895684261633037 -2.0144860088489875 -0.9599230554648054 -1.1316080301718279 -1.4889338656786728 0.4232476188523378 -2.63999702105633 0.21562741500974517 0.8164466724135867 -1.3635487944689781 0.46686310611179116 2.8906386540269375 0.3043637053051761 1.5763426120378843 3.3101462615384603 -0.9939720132718973 -0.6075698544695693 -0.9581014516590024 -0.15875890485403635 0.6405839524904132 -0.5264531886580431 0.5858826021364217 0.46912421601103343 -1.3195512615752976 -1.043871164577548 1.1354851929982712
למסמר -1.4553902700619672 -2.3373734343361137 1.0174868430746473 0.026533623733724726 0.6895475047605586 1.782174415264086 0.0623889063253221 0.1318015581464726 0.7669176800014094 0.684602815483991 -0.5613445098256812 -0.3307385493714836 -1.0115471459867944 1.7531938783696737 0.039915809175042144 0.967644361488953 0.7673989302353434 -0.1183857466524446 -0.5110950047397425 0.24512719747571496 0.3687991356170555 -0.21222592480707655 -0.01455103910357484 0.9055495980600374 -2.001898158279915 -0.6791734032349147 0.5697955299095623 0.10042231769227157 0.5219816974762539 -1.3933330011231586 1.3478538844288581 -0.37123902314410206 0.9907986197256147
למחשב 2.8142519517101237 -1.0745401350056045 -1.0282432591202055 -4.870253321905309 0.25488071626683695 4.541811228614822 -1.2382340043815776 0.08648779486942135 2.2712143718638265 -1.961573599705088 -0.5984142515648962 1.0381828716165087 3.442282974407323 2.3969349258907537 0.7723022125116379 -0.6563649786204635 1.2193803367597351 -1.2569146785983316 2.9631372508347806 0.08521318400488292 0.8885945783105579 0.5648071785087384 -0.3342447252594069 -2.0666478102417916 1.0676702821106132 0.2472998479151069 1.47240182923881 -0.26322798731313257 0.9839703672497642 -0.010854251510501053 1.0716050628986322 -0.11903596299951641 0.49101517374261033
