להסתמך 0.22914686161804662 -1.8825177579987102 0.2665280360418189 -0.3898656675881521 -0.4955956217441496 -0.6612448799051639 0.9165758540306669 -0.8849151472161132 -0.46044719910132054 0.25005826443169943 -0.08170534955017622 0.5877938582578294 0.46085195209863455 -1.0484253003272956 -0.4016570653937041 0.2642148694911065 0.1395172475556484
לתחזק -0.7455014174581817 -1.9827452368510863 -0.954152032920309 -0.180051953322787 1.0656793507057694 -0.7814331941081027 0.16523068134855562 0.7226259051829893 0.34573369093119527 0.4647231366870095 -0.25780026088292907 -0.30026062579754814 -0.5797447925714935 0.24249452346529002 -0.17365737273724355 0.11137169898813501 0.019239002011025085
לתקשר 0.6034109847168025 -2.283596056537952 1.2378120117057383 -1.0076715741387918 2.2025844971815505 0.9049813388894559 -0.6046923501138627 0.6148031831888117 0.5941389046968045 -1.5157254152576531 -0.15607489319938805 0.25447955765723335 0.28268520914173473 0.4670931414151757 -0.44332018028948106 -0.37431700696410225 0.3811987672609044
לתקלט -1.538728492435634 2.145975688991506 -1.83930666467722 0.2577074176932056 2.335547365356536 3.4967011813899624 0.7229444459841041 -0.28322775606133266 -0.7447634447967783 0.8174237466872738 1.6695246972483577 -0.8389837921619978 -0.6723129932671316 -0.6998442858874278 2.1149975102075187 0.19332631114492527 1.7531156373998715
לזכור 0.29919749157191095 -1.4270694405746 2.1058357877491103 -0.05384713257346896 -0.9733190783944269 0.3480230061821746 0.35663879244632335 -0.19823524707269474 0.4608012979081453 -1.5528466045960614 0.5338430991803479 0.9044386396056872 0.7396199175692979 0.2492261095332879 -0.41240395683714504 -0.1103823574042133 -0.11715757372458936
מרפק -1.8366210093992401 2.66934073199284 -0.0209583209309889 -0.6155626419305636 -0.595080234675345 -0.5164970617271141 0.9607043736458358 0.4986653984236426 0.48369309361541024 -0.8543951632295298 -0.11443075653120849 1.4506264345525361 0.8264750572070455 0.029670683635390167 1.8522419425743146 0.048376288983918506 -1.4825091324274986
להיבחן -0.6761302036824082 -0.3208325858945431 1.6707506428791834 0.9087968343020527 0.3987928964265757 1.461806246051062 0.5461487038218031 0.469891096557703 0.30270778720113767 2.3928817809507983 0.6845198355022547 0.39681351287069544 0.18813367351044513 1.7944239138042188 -0.5728695733775718 -0.7994151406466383 0.07243028207403765
ללכוד 0.3981918774038417 -3.2597234218912603 -0.7883002467095528 -0.5762344646181774 1.2267702006607724 0.1821022142982836 -0.9229696521784325 0.5712872744916794 -0.15828800862247547 -1.3919271865116165 0.3587977053639675 0.24874047929403692 1.6905873916322502 0.28968750931903475 1.0631041939134511 0.3146299408171966 -0.5183792876780263
להתארך -2.0524515138554222 1.1243496294229955 0.5175893609917709 -1.508694992644422 -1.3374940644632953 1.6752226346998722 0.7085036145303458 -1.1255396667592457 2.1735759027103105 1.3635189569504238 0.9519765036418593 -0.6760427538585879 -0.31789237276442517 -0.618719038940081 -0.21236635049282682 -0.011486136575443468 0.1940568353961317
להזכיר -0.6527666320529955 -1.460765977426918 0.5849843814797588 1.4047035485320978 -1.5110609618231707 -0.11836617976528967 1.4911138246539788 0.02939497775385482 0.36919440548134524 -1.439862323351595 -0.19521645969513945 1.3711492540058312 -0.15414447893772634 -0.46189492034993496 0.010260614434757983 0.28254639455706965 -0.10484493151916024
לארוך -0.4159302844401788 1.3336349756430261 0.16633202367680014 1.3592545755867749 -0.3389409686727064 1.6762753505089467 -0.3699039991379397 -1.7385529556550101 1.3681222531700807 1.2568375580524132 1.7757185472835975 -1.408978203513641 0.09631713971466149 -0.33618445541298075 0.05136665898561579 0.6890771763174719 -0.9614015079348693
לשכן -0.5894743280041328 -1.4763415868019496 -0.5573795452859054 -0.5347396968507737 0.12650733286016655 0.021685748269429837 0.5924511697470993 -0.171835309109169 0.5946263323956132 0.24032320522614273 -2.1764657325385426 -0.03422820275503551 0.4418433854490998 1.2519940048536728 0.5272893684694763 -0.9634990637804888 1.1253802651802332
תזמורת 2.435273736543154 1.368704630932741 -3.2428604185579863 2.475806544632606 2.432191781560486 1.0913871321278414 2.767469084900558 5.2344626674239825 -0.43794381295253126 0.7375508005911295 -1.5116695491226715 -0.4117712575121815 0.6229558499365376 -0.42636396555847306 0.5446262963108315 0.5466471873081805 -0.24642364733061287
לספר 3.3294799420357797 -0.3276105564104788 1.940017411209815 3.6197493031815022 -2.3509387149951757 0.9048833451118189 0.41788893884631706 1.756614831170505 1.288622903808643 -1.6335435069567064 1.3418752682452706 2.0275960945314906 0.21503372290727657 0.9266305583823459 0.4530030261190621 -0.25837609778395926 1.3169202049524626
אבחנות 0.21700051787982513 1.8610425680061737 1.5432339116996023 -2.062001850636256 0.4916543546091742 -0.8110336216144459 1.357339748360016 -0.16398156360032756 -1.0611698356901431 0.0760720672273112 1.2062868728562306 -0.10664883145846307 0.35717750981636404 -0.4266250042306289 -1.097823730311094 2.1204393146778675 2.2964663474515863
להבחין 2.24792444781936 -0.2355296852165252 1.5606505903413999 -1.8721013348404163 -0.2736966021739174 1.9182584820019064 0.8473971448284382 0.6591451731643919 1.7576292644044766 -0.7001408205156069 -0.8412241806149886 -0.5887076890780693 0.18258455297051074 -1.9651035923089468 0.5529311847587572 0.2995623785871429 -1.219365715165978
להקליט 1.6817330083841717 -0.8613785242285203 -1.2545113708586841 4.505357669599537 2.8283470990511312 1.6061725848028436 -0.07309975864325313 -0.7841263929445402 0.4515290263959402 0.4452650423680465 1.7500192757885382 -0.8063263355265078 0.3402496457759134 0.580031116824658 -0.02955323532226844 0.19919442778322355 -0.41128769543885413
לשכון -1.585320416120223 0.021687222361570464 -0.47223928902355483 -1.2929489149435907 0.5396839543905554 1.314579510410746 0.38864908623997674 0.5023231041722438 0.5502212738080586 0.6480159126381514 -0.6385673586686545 0.28637194298043217 -0.9078365586986396 -0.26273582592481015 -0.07952409684668411 0.10010609224188681 1.4693417649813645
לתארך 0.5056585388839014 -0.725039170282901 0.6643699991135231 1.0800443400765767 -0.917282047813251 -1.2290506300473127 2.4926679460725687 -1.1067253099282586 1.7343353976983387 0.5802066345587976 0.9341615526367409 -0.9662702327256502 0.3489799529503715 -1.5257931469724897 -0.217528003898856 1.1833335437252488 1.1365137504545266
להתפקד -1.8962067481125815 0.8343081377077843 -1.0521971904159186 1.8574132396723078 -0.8036935721537349 0.5771708301595603 -1.5143334155825376 -0.5502418519881392 -0.5414756132361229 0.11693196565676987 -1.1620105172401707 -0.36921362181470496 -0.17873887762629592 -0.11961775929607038 -0.9389930632836863 0.40398715114561007 0.2558455122527842
לתפקד 0.18798321839354734 -1.705056996733264 -0.1873070142980803 -0.8860214434464513 0.4603439560487631 1.9480958653820877 -0.17460041741842955 -0.7727988987510209 -0.0437916624798926 2.4583088219346716 -0.9097830594777457 0.0037375302486110378 -0.45196017290699503 -0.3791948029392846 1.3082867003146315 -0.4167862654934825 0.08842401504651229
להתרגל -1.8663940140073858 -1.1597433311199745 1.2231520301126733 0.5337954401521572 -0.6585380813454236 1.0642408221489044 -1.4832377029551083 0.9063078086605468 1.0291721758568355 0.7792856624848482 0.5113038408355504 -0.6444730149576632 -0.4258308141082112 1.4232530856255907 -0.5237517939384949 0.4741333661529924 0.5222881474078113
תגמולים -0.12687845579443524 2.083066588261479 0.48198156550128285 -1.4285145725268085 -0.454836501534924 -2.169814154663433 0.4340931665932844 -0.3910134487461775 -2.2750771287130886 0.5211151024161587 -0.040518923551504195 -1.081428328682465 0.7182621868021425 1.5530703541120485 -1.1106739095937828 0.34252284638304514 -0.802828672568974
לצלחת -1.3213632777037931 2.687035280375071 0.9015341501679701 -0.9189365098864387 0.1674962061493061 0.5393532766023156 -1.7932523979686805 0.6967478193983498 1.222691261770977 0.6303914504177972 -0.4226307811369134 -0.7557095919090602 1.0011091346826715 -0.2490725946567715 -1.282736930797632 0.45074049340225036 -0.055240967998829556
לסמר -1.5878106731116353 2.2902804809371116 -1.0257943835896766 -0.07231111309354595 0.22339498144503722 -0.49225884890487254 -2.2445612705795503 -0.025064085118274862 1.1723020384630252 0.09235397916385887 -1.5210091172942242 0.726610159517472 -0.2563443631508671 0.38686888330599456 0.31228320901005285 1.2471873463215075 0.30925196919139164
מספר 7.531395546536111 -0.21399532355157402 -1.174319282896291 -0.17219298199301086 -1.6998021677426518 1.7713984046713318 1.056730127773511 -0.2881892519832593 0.24135329760252414 -1.1285250721651205 -0.1654876507484534 -1.417011072375282 1.1629752259657171 -0.187406964494674 -0.2935083839218505 0.1962059496292669 0.25671358780734255
לסמוך -0.295872451337065 -1.5691224624144609 1.0791303430159385 -0.3464826418830942 -1.412998924715669 -0.164536053816293 0.8312286215681627 -0.9069174000284118 -0.1667430706315912 -0.9203399920163371 0.019312255242367526 1.7338940170162724 1.059456518865458 -0.8398807646636381 0.19296135855874116 -0.35018083508201764 0.02086625681207521
להעתיק -0.24015294018166822 -1.9171117737998031 -0.7692804592383483 1.8399510589625085 0.29286475601299844 -0.9632188238133124 1.7064911301177017 0.08989388770179367 0.7720851996700903 0.17530899583574036 -0.27761890189465366 -0.22535698571198418 0.10961450144895953 0.41940758190114963 -0.5897934540690664 0.3697257325182071 0.5195915940732934
למספר 5.09061254873034 1.119455164063483 0.7635307243726455 0.21476744717548443 -1.198744520623573 1.4924187904986075 -0.3604691691807779 -0.258858568542465 -0.23331873364983735 -0.205250631539494 -0.15052779251533793 -1.9624578381288018 1.1169604901132455 -0.15429427013128336 -1.2818581517100696 -0.05180730234016769 1.0689704511167921
להשתכן -2.6448888202474286 0.21741055710025567 -1.2234482566722913 -0.20645951545310298 0.11923282772084012 2.362718429530285 1.45372341733263 -0.36952266780582194 -0.8274003246605817 0.6552794998504302 -0.835083169087111 -0.26639695331120583 -0.8852770992298193 0.8705306039744187 -0.3011292616611997 -0.29060848992584815 0.678170757621318
לתזמן -1.215032496373409 -0.21513407511712085 0.5466702091221834 -0.6467751509958473 0.910643154886328 -1.4824968502010452 1.3899508176284312 1.0297538132324031 0.1699515124143699 0.15525807644726444 0.8034869728003772 -1.2615263352624893 -0.9680139847273201 0.3369384069948269 -0.4668981426691445 -0.7524699373038641 -0.7832929765071506
סקרנים -1.5304108175542965 1.7158285316564046 0.38370536326516497 -0.3274805423712568 0.6759476637203453 1.4485087510864272 -1.8832913647419787 -0.9154504895418422 -0.0061043349546148476 -3.2741943449720954 0.5288235537049701 0.463416035435486 -0.4166404885319097 0.6222589508015905 -1.1369241557085379 -1.3686393753189918 -0.3859729893431644
להצליח 0.24841421888811485 -2.6260596101174283 1.422181587501357 0.5439496526388854 0.8649638014986941 2.4505344465630903 -1.1000219714736714 0.40944813249579987 -0.91979150090653 0.3889556966323668 1.599237243986316 -0.8720487662445972 -0.39020673725089916 -0.08205593555914521 -0.5340690951778684 0.4863205612151795 -0.4346397212453624
לאזרח 0.21224740266505168 0.7376124840635281 1.0077549660797591 1.1129063961207302 -1.9529314982593402 -0.08802434719906435 -2.8663035634954936 0.3013736495836671 -2.1821893443898035 1.7288469505075907 -0.9582979205967235 1.2495228632535609 0.03468488921100533 -0.7191273521849788 -0.7588635674915145 0.052461218879953725 -0.42618166755586856
לבחון 2.7348395802484924 -2.371076301622607 0.6733256167766409 -0.994452453713192 -0.5103368684616697 -1.4720182125496932 0.7620393956037654 0.2457468532827813 0.010796046966937036 0.26254664211494655 0.7123018018749177 0.77911522129881 -1.6121293480647023 0.3407571111242924 -0.7913868862023601 0.5938071958844477 -0.16242856568971537
להשכין -1.822488649030742 -0.8569520461486986 -0.7005697152003137 0.10583320767583933 -0.48434471701806325 -1.276401520888254 -0.3303394882458021 1.4196990372066924 -0.45505162001472915 -1.4541474813490867 0.9384247045297833 -1.3809313322741987 -0.6431713778820576 -0.3452011419346102 0.12743496623462244 -1.1646764464154762 1.2589477468343797
תגבורת -0.38032844334518373 -0.6654878421782273 -3.1940607932300353 -0.6638971261281361 -1.2270290339728804 -1.1148517942539737 -2.150418331361814 -0.23010518680117492 0.34464094719686433 -0.20615673690772168 0.2716077789674626 1.083801444464898 2.84766611755891 0.4987724073198462 -0.5155076449327691 0.8200521620222213 0.3319872698982622
לחשוב 1.0181559559567692 -2.115850725603217 1.9759257672223265 0.3617356869507073 -0.9203214141787358 1.5408275773763165 -0.8104623571375459 -0.3215910945617072 0.9834864306037724 -1.2678716960717367 0.20393234064272928 1.3264188069421259 -0.08545735949216544 -0.7083431504807831 0.3745518451103092 0.19600423398583094 0.11607916062370201
למסמך -0.3244088197341131 1.7176482625563114 1.572542755138466 2.108333461265149 -2.1049048260308045 -1.3867354809379258 -0.8286437526105577 0.1937655480801748 0.037591711325372666 1.3877880120962494 -0.6430078571189045 -0.024385976836911523 -0.7683418268510399 -0.6362637786385672 0.17954705574046667 -0.6404310524914495 0.2792113664894763
ללכד -1.9153328296978585 -2.481484023113079 -0.6481699009007418 1.0670932335929264 0.936063663272842 -0.9195358558452011 -0.9665060852782421 0.5469646774647468 -0.4454993697894338 0.089660390827623 0.1593779246186229 -1.6415741047822912 -0.3448532273979099 -1.3748538011067317 0.0835696418588872 -0.8534963164679149 -0.20710199329130788
למחשב 2.72029581835829 0.40231347985253896 1.5083278385150565 2.065714614987567 2.478326938449013 -1.4317534618591703 -0.16583687812412853 -0.688907084618406 1.9454445343747533 1.9134905970335494 -0.7107647098730351 -0.021756577187341038 0.41998301414443834 0.8450724029020009 -0.3771121722440425 -1.2252453837107304 -0.40198447107297025
למגדר -0.4721409494162972 1.3738240568891245 3.670077627944749 -0.632668546168241 -1.9216170493066722 1.2629103253273757 -1.5967455843512366 2.168187058509761 -0.5370468924323107 0.30607346818415904 -0.8575382792352915 -0.2008331092266078 -1.9901081995962593 0.39612070547180567 -0.8779539886981679 1.606742181733066 0.12315170438187034
אזרחים 3.451902317950665 0.7432578792176007 -3.512159821222184 -3.007983403524949 -2.839214508399611 1.2562058860258907 -0.7581474654856598 -1.6212522940403988 -3.0172842958463826 -2.2834678070210215 -0.43713662526601876 -0.272799735684487 1.0325448817874958 0.14595290705885902 -0.1806766271125495 -0.30723492068054425 -0.471674389223524
לגמול -1.8584691697220221 0.596229836309175 1.6071951110101785 0.7029965409167788 -1.1598162993392611 -0.4041047586309279 -0.5087001993947488 0.004467412385263284 -0.2803030037197518 0.04297942827362617 0.6990802342760474 -0.6085927068875118 0.5591226473151679 0.7152627901655063 -0.9469264588290891 -0.24707782580696072 -0.7103376937105648
מחשב 5.426133740500263 0.49660360089008654 2.1043256983485796 0.2833983007036137 3.6933705204018987 -0.5838572049873518 0.16490660007021182 0.5411852363476665 0.2223074744874146 1.058403696649 -0.6841964482821462 1.087472885753728 0.8101229645533753 0.07136658578715231 0.43613213002832907 -0.2484831389130473 -0.5427695261211483
להיקשר -1.008866452303524 -1.459205949070002 1.3772217920170056 0.42102970687641433 0.9402148512159998 -0.7332178417798723 -1.0127131557456248 -0.5190199781153789 0.7843169199707641 0.2755073039070062 -1.5107871584566706 -2.028761745564499 0.27112848852407156 1.5056263560956067 0.2012653357908938 0.3135015246988446 0.3013045495078275
לסקרן -2.116288097064132 -1.1849349882342943 0.4699994459162384 -0.0811521606343807 0.8525502640963821 -0.6715901963744922 -0.2516596671456374 0.7962390990983165 -1.642321207147603 -0.6262804284424806 0.2082449424994787 0.18414033797234566 0.5889741914368395 0.26487642069625605 0.44221342356652554 1.1253166361180833 0.2316872852166576
לתצפת -1.8199291605351124 -0.369693403158274 -0.2605283910287797 -0.7404197626744387 0.3929416188637674 -1.324526485073529 0.11882299379151062 0.16877971175938491 0.8972263235091693 0.6351159359901839 -0.06540754260788605 0.6747171106139386 0.6084888124404868 -0.7826519201484597 -0.6698332418720616 -1.2093452088414516 0.10487176673488936
תעתיקים -0.6065096476730255 2.7994659050633994 0.6874835090514274 -0.528834833266558 0.5718561492580325 -1.3690561220973056 0.5402417292627416 -0.45656409902486483 -0.03095994939415445 -0.5332539948542634 -0.4007800432788139 -0.6279735824621365 1.3296881916764722 0.27144291105791835 -0.6122646919870218 -0.3575615682925714 0.5912365037513341
לחשב 2.8225924731609457 -1.6015658808325248 3.0877403868470217 -0.43966075407637667 -0.6810446244061027 -1.4836798390698762 0.03242129125006073 -0.9485550860924529 2.5206778612379113 0.8698972480935421 -0.3677791967813488 -0.9586276633143206 1.6550597920556014 -0.12569754153203305 -0.5147359763667471 -1.0685181505517958 0.4510546555706948
לצלוח -1.1038339025782338 -1.0682262413744419 -1.6284298648525874 -0.9587091837502614 0.12197401134409135 -1.568686124744214 -0.11298501966858744 1.3054376976673365 1.189132292026307 -0.251927542032362 1.7190506691510818 -0.4687486376754109 0.5322121482303638 -0.8245233791863616 -0.13772395967281806 0.13991323662144173 0.36623619967376214
לגבור -0.44180553786277965 -2.8026085309081856 -0.035828107828093515 -0.24432272623126433 -0.19468138753550926 0.10512221032303612 0.11506095441268399 0.6871564053823941 -1.0576842039855912 0.016943884556916776 0.8821078025579306 -1.2755296449971083 1.3165379725199255 -0.8187939711625823 0.2349620846582389 -0.37511030293354886 -0.4198975293015351
לסמור -1.6932193302665561 2.7926334260723786 1.3421227107040685 0.3856339112837616 -0.7644871464099473 -0.9673976732431807 -0.8486964303407277 0.7187510232638303 0.3511988427187028 0.1975423808331728 -0.7379601699236581 0.033713059239496086 -0.13106168908484306 -0.2389058812922023 -0.2414955707687792 0.3851505480547934 0.4514559753065504
תקליטים 3.843220599301858 3.005837141733146 -2.2032627101114652 5.119844301928293 3.0517720460451034 -0.6509748757516761 -2.1242454828734747 -2.674123285695481 -0.6407366762680369 -0.7646274500110899 -0.09517444893493353 0.19960033366024768 0.6564758246992993 -1.1950463386169567 -1.1057262868761382 2.109279558970781 0.9702000838917214
להסתקרן -0.7645927543762557 2.0234839399983984 0.8587436801542161 0.15507159406584262 -0.5895654547230909 -0.3719454275009585 -0.6505519463909103 -0.4174280919368046 -0.30928761311474684 0.05075212270444526 0.17996999373958372 0.8369183204876114 -0.008735325748439287 0.06751755805335626 0.9456825136279648 0.5831730289320072 0.8286681925124412
להחשיב -1.261585365943317 -0.9484310283967345 1.493462998375756 0.8906423336358885 -0.20124572207833039 0.30565856298937566 1.1179716647881506 -0.7829979488881309 0.40932080733049575 -0.28394707294515714 -1.1777394821198448 0.3120168362476788 0.5087838812180459 -0.6687947892256205 -0.36128483483660645 0.323508591948328 -0.5154833959414632
להיחשב -0.36551441530306605 -0.9243113752449882 2.1997509026283963 0.1658340075176762 -0.006289346892837806 1.4793588427063258 -0.4935002739345085 -0.9859567218112234 -0.8585226987752028 0.23590235728556477 -1.520284106632751 0.40953277756410356 -0.3354130600847201 -0.7147509259782238 0.5677102971461341 1.0466672834272888 -0.39888292984421025
מסמר -0.25748917662002024 2.32191499653816 1.0859149299185722 0.3655260078047557 -0.273260569733066 -1.1466569433382805 -0.34429851424294633 0.8974812995390502 -0.7893472811420134 0.4907270743971678 0.6261180273504913 0.4327245805458528 2.574313573631111 -0.9106321093871407 2.2112803226705835 0.5022481826031338 -1.1874887903681242
לספור -0.7122445354661102 0.013368734969484736 -0.1445989605014393 0.45110340415972183 -1.1690444300063563 0.5675907329523264 2.91825167256031 -1.7049649358653665 0.7533945830445989 -0.5769310688354319 0.6268580044995627 0.441240083787878 1.4904074542006778 0.8264972161373838 -0.28718244119179204 -0.19304221992279202 -0.5589707214317995
לצפות 1.8063028463429716 -0.888989354659167 0.8273112776713375 -0.11181120220231153 0.7077787029090716 2.910713136625633 0.21816134786158256 -0.0831236792496551 1.7316110155611197 -0.9509444705246576 0.27173543322201854 0.13733291718428162 -0.7372525330616619 0.01918679585501895 -1.0683018883055542 -0.409456641604529 -1.8386892664312435
לבטוח -1.4571357258443332 -0.8427996644177277 1.5443421761753409 0.1853810139678046 -0.12415601128159008 1.6285581521071535 -0.28507401385351006 -0.165967388954783 -0.31394681530427954 0.9156932802650839 -1.067916380004706 0.9414185221353198 -0.05520025155840275 -1.6348077673737502 -0.24180565834174297 -0.8114358448703491 -0.0937986909889811
לתגבר 0.1262747360175093 -1.4838992644792155 -2.7234773378758295 -1.4064602573237972 -0.46822470847083913 -1.3903019989321455 -1.30282946398901 1.1605813804569292 0.872779398736316 1.0269596065917606 0.2150445558117899 0.158130902333622 1.3651557491049258 -0.48903342445503406 -0.5419560762635395 -0.883947163117137 1.272767316359735
לפקוד -1.3094449206066656 -1.2102482532174825 -2.0220063941728035 0.0870640320108669 -0.08136011210228924 1.734041734227922 2.3781887394047434 -0.004680184064080392 -0.04966834206315942 -1.1746146561607909 0.10961610204991874 0.5791357549126217 -0.14208172190412705 -0.5441822167490681 -0.25027124289280217 -0.3164881982172071 0.1086462947869457
לחזק 1.4672680987655369 -3.2809807976039598 -1.6762638801922058 0.24363770998974627 -1.3725801370354587 -1.4102407576283476 -0.05701530370004116 1.2194777681911928 -1.3011299784995067 -0.45827179891635306 -0.5278848995812283 -1.3926753371759302 -1.3586124256057255 -1.8742373347573422 0.43029011744325824 0.13485943844368564 0.20876269774275302
למלכד -1.136336234963192 0.9478668840630742 -0.6686837224847927 0.530074516432415 0.18345942053870393 -0.6221906414214268 -0.7023264517423744 0.2350380701430653 0.217841680352563 -0.3509692806481401 -0.12667169198233919 -0.2597170038973272 -0.3948734796446773 0.011699803657721773 0.6860699387560523 0.2877026396637428 0.2635018028810493
להתחזק -1.2391802436480217 -1.2273282816950615 -1.281863633003231 0.09349151754499455 0.5139581375885209 1.033176385245167 0.015100521254767444 -0.2921997842210171 -0.33450314001194026 0.9045013686357211 0.30844372490954336 -1.4697445651118763 -1.2342405912265388 -1.2733203670692916 0.811994425089392 -0.05354323554912397 0.6482520000065032
להזמין 0.1232033139806603 -0.969422431179907 -0.6840745754577443 1.4078184245329495 0.8763778117621858 -0.001086700726682354 1.1279559140879862 -0.8820929076780849 -0.5228787276769815 -0.7347901647991896 -0.7567311431026498 0.8211887678409587 0.6657613141520576 1.4060456184481425 -0.6180921210054195 -0.3624188358156992 -0.46554626650637565
להיספר -2.33486095303171 1.0922170386691277 -0.8605435492328105 -1.1551547821132455 -0.9543460164520098 1.6138903215665468 -0.38140837948000345 -0.9358639896004177 1.2566259057496105 -0.6284069061065192 -0.03988532921686388 0.5648011298091831 -0.2951988434063909 -0.7609202145817322 -0.9767366861011344 0.6320352107859627 1.162015989139219
תפקידים 5.312408031283057 2.083618739156437 0.1204526529063184 -1.4231805599430973 0.3203315859622878 2.5750570529513297 0.5121223469703704 2.035397386299279 -3.1201405000059133 1.3354319123388565 -0.7772460586667533 -0.27556512658938204 0.4768095574103355 1.6603792720915123 0.7434063906105776 -0.7697822607132283 0.41861200822503075
משכון -1.20869513851276 1.7276728325843285 1.566997978406011 1.3164267694386789 -1.186471230646228 -1.4099705878788922 1.0628249931269045 -2.1921515406546304 -1.2292627187320389 -0.2570679716529196 -0.9609218051331292 -0.44673811683289494 -0.5734527867198684 0.6311132190833421 2.6699776274837075 0.7382490900689398 -0.4100092253281685
למסגר -1.608450459266084 -0.0015895329243162126 -0.453036475301775 0.6375051929666209 0.1964469109287481 -0.2439607903503935 -0.16903257292499835 0.5817343130703765 0.45643026217316235 -0.9112195097270933 0.4788006788292985 -0.4723401210818525 0.16799128153504134 2.208553252517743 0.6492508797732236 -0.17339736539819905 -0.39065039346588804
לתחקר -1.4963466601267967 -0.5505295601836364 0.3362419436259035 -0.25394893464365553 0.7217688625283213 0.20365263829674493 0.3283920872819469 0.26669709259683466 -0.7838893229190964 0.3779226459627418 1.509088847098274 0.6583995648197292 -0.22774142136298467 0.9013535022231113 -0.7198130537618492 -0.1473107507001048 0.1607853201308391
תמריצים 0.44366339031890245 1.1528130656303714 0.5332755754021934 0.5559868608721149 0.8246446917339068 -2.2069075804252325 -0.34778610418432276 -1.171599561288196 -2.1326130691857133 0.22723680116827058 0.24347501305522978 -2.0697232243441492 -0.5516144135523913 0.5313372160310511 -1.5844853842404354 0.3157816713422476 0.058974850746615765
אזכרות -0.91583083452083 4.525829333538646 -0.29751951384171593 -0.532518358033034 -0.921615612693155 -0.09700040729929221 2.8366372468528445 0.46022530560909897 -0.6547946370412044 0.9963192880226078 0.4911093659624479 -0.08296319359483796 -0.864131145365816 -0.2408352786624706 -1.2552670845208194 0.4546750538749872 0.726700762911248
לאבטח -0.7081139574604599 -1.4819347591699317 -2.1667392160678935 -0.9599365691195543 -0.14155132713253588 -1.8206789342869631 -0.6032076097851146 1.1856214383375354 0.8881410557078263 0.9865196378433633 -0.4896209469387125 -0.35070050840654204 0.22124708701989595 0.0066891029214219315 -0.4599141995121716 -0.48967584752665816 -0.4275624202752019
לתעתק -1.2579190878236268 -0.542125891425676 0.7125023344953941 1.402541580846532 1.406121347266609 -0.6963316833564919 1.9508346023724692 0.4261650444445802 0.37425688910756855 -1.7539440915083495 -0.6954311696075586 1.4653897724269427 0.3256273652527157 0.14922681431737694 -0.06454594236329184 -0.2761341091831632 0.9736853708031887
להפקיד -0.5393392256879631 -0.9730509200274419 -0.2912790430508482 1.2357730563028357 0.3501556467092063 -1.2466985237921375 0.8914816722714516 -1.4485561372455655 -1.1984888770952478 0.9504261289098007 -0.4271966947642508 0.16716563897346598 0.8686099779867467 0.36920292087201423 -0.7202064499378419 -0.6427298117296875 -0.648763083998062
לסקר 0.8011441532468123 0.7387521017578658 -0.3968761594291607 0.5568050514081646 -1.5468253883734568 -1.2695450673049442 -0.46303862953301067 2.6636225882774136 -1.1188687616380697 0.30585468522468995 2.145909308931027 1.145053181861085 -0.32401508097681214 -0.22822976884530477 -1.3005706343319352 0.13408222648867235 -0.19340122035643093
תחקיר 2.5748065572260406 2.403812259669364 -0.29117384427104787 -0.19265662262590677 0.13926140007654025 -0.7008381557973578 -0.9323224076415247 -0.21175061644671966 -0.02614012131195024 -0.39596505115398734 3.6287292421320534 2.5977433676279946 -2.3475447442534993 -0.2587238200887635 0.5011688989138098 -1.830445296980687 0.18494394982954526
להבטיח 2.2266906777988495 -2.8527832629615495 0.019766929912302347 -0.31309255153673277 -1.7469529360362075 -1.1683290611258474 -0.4574578910524068 -0.9607390238233824 -1.0108001952259815 0.4019780239174971 -0.5984005627458071 -0.7143453617947791 -0.5003515789112795 -0.10501021533995786 -0.1363215383849637 0.24653859283799695 -0.434315982414828
לסגור 1.1332733106327504 -1.8749991926968996 -2.276469761458526 0.4594831497160668 -0.44979455480281316 -0.8540592979229744 0.6350894534144144 -1.3443124842066732 0.005615173929516066 0.4555585226669861 -0.08133817754500164 0.06443328243007052 -1.4156116697373085 1.0244465155001392 0.38214744097374337 -1.0809817872777696 0.22442843430619713
תקשורת 5.748178628225592 1.2378913584639981 -0.2985296603829184 -1.1571442842642883 3.28469335683784 0.04522783203789374 -1.7554773119299076 -0.5489648987448283 -0.49742994344348773 -0.4186315098750294 -1.137833601136301 1.487241195794162 -2.467300777001579 -0.7290272926486703 -0.5899514781551785 -1.250692734337845 0.40336825131008175
לתמרץ -2.244342009014747 -1.0098456883796516 -0.22361560554276047 -0.05995955316760794 1.4382213633557646 -1.5687192882546546 -0.05660046668680377 0.39788676506954584 -0.3765421200449806 -1.3681716962745638 -0.7517067331262419 -0.45781217608387986 -1.1850439887928388 -0.011096448439653009 0.38939560870281237 0.24874284441395547 0.07176565468977258
להסמיך -1.7260687053350117 -0.10657006443105602 -0.49340129405404437 -0.38977032228306213 0.0029054062248773686 -0.14144861634684228 1.6585926233940331 0.46481856656438303 -1.8258986596833424 0.6462064759716238 -1.7012518051627927 2.025653990085371 0.5522202745434083 0.2885863844696201 -0.3022698617711735 0.3276706467168329 -0.3043758058394056
להחזיק 1.238213725069113 -2.8254091208872305 -1.3763228452314205 -0.5474938999813544 -0.6696579822539317 0.9527457218584924 0.8219186065224061 -1.2157295647135904 -1.0594863766849218 0.9631650209743352 -1.2553373120338018 0.24089725999322262 1.1636271708987722 -1.3345873161113353 0.12351661924603745 0.6113772729448795 -0.4354931706339498
לאזכר -2.044281737016944 -0.3017245050893195 0.6487052354595173 0.9624867452301576 0.7134126949344537 -0.688681470988238 1.3177799879836545 1.1089526407753056 -0.2044376539866395 -0.3460245115489543 0.45263091213329204 0.5878555054533688 -0.4403028416191645 -0.52130348741584 -0.22487019528337363 -0.13220565916046745 -0.06514299615494529
תרגילים 1.131814953545416 2.694830526224707 0.4114637852402617 -1.7113058898998417 1.6519137573125529 -0.8377730138877911 1.9854278739607187 1.925061531079396 -0.8491322005783991 -0.31814276683451326 0.6801261746337083 -1.7136360982544065 0.7547681039792848 0.46705841584990937 -1.2182352544062751 -0.6806730818563933 -1.2920096037214115
לזמן 2.798409533974744 -0.6840680493297459 -0.43487927427844875 0.37769034755673503 -2.048089217799206 1.690818033261995 -0.7880389287803283 -0.510453531008345 0.550087933996749 1.2160697946989363 0.6092620437352368 -0.1914478489699833 0.4989616410357099 0.6106028872778174 0.8509418315291454 0.22417487627455843 0.02787994433561193
לסקור -0.7421850920913081 -0.12947568042038046 -0.43490473266659724 0.316601139406044 0.5613854543470371 -1.0884692670909029 0.28537253797782347 0.8403564895418194 0.7141075628225063 0.0688618930306559 0.26989470782361635 -0.3591614112405412 -0.7170280724266929 -0.15418939770451998 -0.9766162666803381 0.3871397468938864 0.8878480378696632
להגדיר 2.8678070005891128 -1.5448002360707167 3.0392624140155347 -1.0177307887522302 -0.06223259313264548 -0.8680218273978199 0.7860960142992057 -0.037436664118407084 1.3097611737070256 -0.29721614850438915 -2.619903250558604 -0.5992189680868639 0.3294772694846218 -0.34819801432108377 0.4320727107044622 -0.6019533432438485 1.2902401398055585
להיסקר -1.78138050755622 1.551651558870884 -0.3142903005711606 0.5621655491741543 0.10614264759905771 0.43258953198418454 -0.6816928927748471 -0.6656376286224231 0.43657421161441495 -0.07413816518751978 0.31800538408086065 0.28895541639053124 0.8425347238030995 -0.44506561153361807 -0.5673674862772442 -0.5218048576011366 0.16442272323080645
להיקלט -1.0552801349229288 -0.5639160638788439 -1.5201016648631083 -0.643574463048308 1.2309785555873711 1.5139737909871989 -0.2564105997168564 -0.7311511843127081 -0.9154256561506435 0.5072638600693139 -0.21254405136138235 0.6553193384295279 0.09454234381925163 -0.4725827495136182 -0.7608406145853694 -0.39022385324901154 -0.041816990847119546
מסמך 2.9588103444325173 1.2475598713846408 0.7368269078748193 1.8360178789667583 -2.000236760083904 -3.070010648054988 1.074864960873679 -0.2884135156460073 -0.6715560088246454 0.6425667370812276 -0.3580740724900558 1.506568670723418 -1.4077909911995092 -0.14577957940778105 1.1407831062887699 -1.0024186466757794 0.008620463018578637
לתרגל -1.266034327749645 -0.8100899670376221 0.5028597126402807 -0.7292733918806984 1.608726150082035 0.13787836269166084 1.2092347927128904 1.1222022524630813 -0.39114807632856535 -0.4573265310455221 0.3263385182582347 0.2805534774833424 -0.32635152619621216 0.2726462829665375 0.04049950782821663 0.5580003491638251 0.036086906133858516
להיפקד -2.3069344897702417 2.1738525674053504 1.2798580608284713 -1.0724001444945108 -0.6488604964718467 1.0111458245736988 -1.5090102885067025 1.3997146753064655 -1.4879577245563875 0.13812098406876486 0.144823100662215 -0.8369709036282854 0.7479540833708026 -1.107661285728395 -0.9290430744309668 -0.5367218315971732 -1.319856642915766
להיסגר -0.9004557172933348 0.5928160838665916 -1.0635505891306332 0.22093045580691914 -0.28099732243344566 0.7549090584475237 -0.459665583982079 -1.9352228960359743 0.636753184884427 0.9030996887605481 -0.027452031484180014 -0.5189660250314265 -0.9772234142837692 0.5728927856758691 0.6065754905780676 -0.4240043638383612 -0.22684827673858474
להמריץ -1.3328294552580067 -1.7796833963418974 -0.30673242877947204 0.3778098022081313 1.52048500588646 -1.3895367754738153 -1.0441475839184353 0.8440479235051865 -0.773540596186803 0.3753995667741697 0.0976378037940019 -0.567902745056613 -1.5713639473378396 0.0740346245155201 0.36965317887667276 -0.03978604532773073 -0.32207437996993726
לחקור 3.307421815917948 -2.815649856549461 -0.05962346010024127 -1.2312071592627722 0.00886999009511952 -0.5275765546235401 -0.24406417172727948 0.8506069724666685 0.3946443354404292 -0.186281535792317 1.5857170707885522 1.2811832820224744 -1.2012670502334084 0.6385845230566688 -0.596690235846557 0.8271792241379893 0.6117397168810923
להתאזרח -1.7773940397626478 0.4370946595915291 -0.5593845406108808 -0.1060768587477354 0.0032206052915961167 -0.12393822682043172 -0.14446677147020417 -1.194094308207895 -1.3479520841674575 0.8141610858481556 -1.2802070595171473 1.4562039271768954 -0.2242892442877584 -0.7609950148737417 -1.6632598939251326 0.615424735304732 0.6256111579714312
להתחשב -0.34598962384221305 -0.7665148530732437 1.4841739183313343 -2.0610347868633725 -0.8392464173420674 0.9917755810482511 1.4014073464026546 -0.8797488137392973 -0.6736737902520749 0.5265021807169967 -0.14882968331437976 -0.18872069875051362 -0.7035954400894376 -1.795603243418055 -0.4862829641249839 -1.3750278582977267 -0.5481602219595871
להתלכד -1.9645339829479787 0.1817606626169193 -1.1097544761446418 -0.4182681475189849 0.5604333538927097 0.40408425443930124 -0.10674055577556639 0.5113455766797265 0.5131812651221072 -1.2148514775395718 -1.239978748332141 -1.7922366871699145 0.1260708333358447 0.8191830340207609 0.8135705916435695 -0.6336599523620398 0.4043629151990105
תזמון 1.0203254818672132 1.991896167283453 1.532358950934832 -0.8522652695971352 0.5480359796499167 -1.7968847056846986 -0.3043969029913395 -1.346539974524679 0.2451084360408132 0.34450585540684153 1.440570819064989 -1.1801511354476515 0.05104222686346491 -0.565868621411274 1.359115082341177 -1.2611719622286728 -0.03638311034485071
לרגל 2.154157836285461 1.181281933602956 -2.749849340462306 3.1285115542492177 -3.6100469807846265 0.7471756639137206 0.9527917908043183 1.0240795004099004 -0.04591492684589765 -1.8159681867491342 0.39325186140243074 -0.03827734111766328 -1.6043354855474588 0.7015521911055369 0.21078862461150857 0.2978258081587115 -0.8998632564247055
להתרפק -2.3420706331494223 2.0160400662514077 0.2873689553869537 -0.9853311158469561 -0.6301815135311211 -1.7351356849623671 0.392634669611192 -0.0862838588072883 -0.6492687898037207 -0.6883259378351615 0.361272493721304 0.9796234201100835 -0.09542109219769901 -0.5454189647361688 1.349079852092431 -0.5710286983457123 0.019894996087347874
להגביר 1.5795901400628107 -2.4796928451486298 -0.25804320881884546 -0.34291696616577244 -0.1924749170907981 -1.4962582682980956 -1.0860905419918447 -0.4778023997893343 -0.9075059759821215 -0.44393801534151067 0.7256475335786423 -1.6489073520999715 -1.6606603639052246 -0.8007884603814744 0.41293525655813973 0.9042568720801476 -1.3462635590922083
להסתגר -2.4539823868697512 -0.3869906981201677 -1.684319693052702 -0.6695489204021052 -0.5524441014390615 1.740734295282865 1.8840383882713116 -0.16071758285572085 0.24976531146943878 0.5387577546447543 -0.45377369631438846 -0.16506761412650556 -0.4434325318293403 1.3726508354919404 0.6395429738031144 0.7173856925765005 -0.14239942746319964
לקשור -0.27273791966173305 -1.7346789712189876 0.22962700682678086 0.008596934567171163 -0.005344596580910817 -0.7007914605525672 0.7207882604489919 -0.09154844352347388 -0.4086929144062611 -1.256852149523136 0.07302737353647788 -1.1057084540656958 0.5108147015806577 -0.5442532106376631 1.0582582760354553 -0.2677231465560787 0.6298452159676697
להסגיר -1.2056557649108954 -2.456214752250203 -0.8501357788704138 0.05278659342683051 -1.3053905461865245 -1.0502602300885153 -0.5407364540808279 -1.0433079394162235 -1.959324207919254 -0.9429284978054049 0.2537292867959194 1.3267466813307456 0.8322112506337347 0.9318834927493195 -0.1541165816239777 -0.25425359052576735 0.14340292745569716
צלחות 0.24173917964994365 2.2173741270016527 -0.6998295523450231 -0.0841109282136365 3.122868126651411 -1.265086084545014 1.9127771018261317 -0.6830157699718903 0.7100454395274334 -1.5467601832325633 0.41518569169701114 0.5044980931964812 1.2914339077063692 -1.9732616045356601 0.4259476032491942 1.0563826489756762 -0.18886782555023596
להילכד -1.5104300369506096 -0.07590735737379505 -0.35514589612599134 -1.7132220822571864 0.6892391049053644 0.08571334231134635 -0.7146707278343836 -1.7543137301806142 -0.24748964085893213 0.11222613491859589 -0.2237840790205142 0.5139353177881005 0.7883883221601113 0.04669767796408989 0.314542548165486 -0.16337211454915665 -0.037959439804644404
תאריכים 1.8234978421366772 4.829833269563383 -0.15174145414221046 0.43218484742599267 -1.4609315383465415 -0.17826643931037944 1.6789667872030736 -1.778111993583326 -0.21711441448248214 -0.3437814470872409 0.6603878676445145 -1.8900341775551142 0.39014003854825535 -0.5607774991460046 -0.8002476168612419 -0.9000869543061475 0.015872931841022397
לזמר -0.14513054400204775 1.1175297172853902 0.6529862048146792 3.7948064562434762 -0.22876475993768375 1.4043501195175379 -1.965660535738599 2.6026285169382364 -1.235019349536891 -0.1531084945695097 -0.22416919556049325 0.7333759118616892 0.7905666156147941 -1.2589007203634823 0.013557548112357645 -0.8767761744908487 -1.2928525545035114
להאריך 0.689169637841608 -1.1299416670314406 -0.7758159889396908 0.3559519383087115 -1.5378235663198363 -0.086657780418282 1.1874463833248994 -1.6742664228093662 0.12765216120645326 1.8570712060655787 1.0627085296806833 -0.2600486779284199 -0.7640296011318282 0.5628131976825003 0.496282955535185 0.6066065104192947 0.036136596588878106
להיזכר -1.4822001478573181 -0.7630150578173224 1.3075847862295127 0.2669193416518902 0.3011021590473317 1.4087837898804059 0.42381574336152583 0.4788799576552123 -0.21796752611854628 -0.05460920451390407 0.8031457873997149 0.6318992507683134 -0.11747884480010103 -0.27402159104331125 0.1486070689782872 -0.2766791760466261 -0.36594202594885994
להיגמל -2.012646561025079 -0.962336018908878 0.5359649615985823 0.9960243371943872 1.420368737155407 0.6987455908558918 -1.5981505979299118 -2.047825534755912 -1.1823694169541197 0.1433606485271512 2.1576699666898693 -0.450158528831992 0.1842218976068909 0.07876412242442829 0.931512940964827 -0.02641683907663783 -0.1628069346133295
להסתפר -2.520381777572364 1.416998859824929 -0.20591851214816542 0.8621645628065779 -0.22606091489430052 0.9693764729540443 1.6983588574514583 -0.9199115569051816 0.07144757822258624 -0.05641593953188545 -0.21349308675656573 0.7305235455503178 0.231123421712098 0.056061166116899326 -0.20126149672488072 -0.3990443351703782 -0.9069227481282643
מגדרים -0.1889105181801943 3.6387765519094177 1.0479781577045764 -1.8789166492740017 -0.27775690987490237 1.2693793274872773 -0.8786227388248121 1.2702034624752347 -0.055373510101065136 -3.4956638169588214 0.23738121265954273 -1.0780420643396547 0.2965809377996952 1.0479683431347622 0.6702174245185162 -0.8392639625824672 1.995692732103564
מסגרת 3.021469634316951 1.2433160065357323 -0.0539426800928938 0.4777686367804799 -0.5566444122624112 0.06734146667062327 0.7113046467319749 0.29911150110477297 0.32039775575946194 -0.39984705670863646 -2.787380382002714 -1.235389587658956 -1.3737331920909266 0.7137338578647423 0.8739171232672067 0.5932272035805795 -0.45206767840847056
לקשר 1.6053609170123833 -0.6375887584300998 1.3542464464201323 -0.2568666334981016 -1.5721387871535144 -0.29839616848630546 -1.3200617948183344 0.7662699687751389 -0.07061226243890517 -0.10423952065796055 -0.2968337624146953 -0.6914099316755444 -0.7082312980984881 0.049986507873115885 0.9217118599248617 0.08409311372540314 0.9649553434939646
להרגיל -2.095879621808167 -2.105933201001319 -0.003717016673230346 0.37761072002900403 0.7046423883993524 -0.6109338087784925 -0.1936592300988918 1.2600890309242012 0.019196467557651305 -0.8466860065530182 -0.44201528655480044 0.7294490726648444 -0.4991216412526102 0.06539564308467376 -0.6132065235565837 1.0795463179713896 0.3966739559273786
לקלוט 0.833651778309102 -1.6561866891762793 -1.4644365825698038 0.05636409434011656 1.5036017012209315 0.384218457828184 -1.6101195505921353 -1.1799190659798107 0.7837683159189138 -1.2750561154389322 0.06654858258699094 -0.3114539224470033 1.0978621545817282 0.4022889862404897 -1.0709507799826414 -0.2223683734671263 -0.37464781825806426
לתגמל -1.7046199471407355 -0.7014959685643001 0.3660442886694279 -0.964762283295935 1.1506057297735137 0.2294526955021902 -0.21896098864387806 0.37002519646120385 -1.6776703896202165 -0.866479806410534 -0.9258614670406913 -0.25028657424073636 -0.19420016058205494 0.05751624034036393 0.12883545727720874 -0.7618685938864324 -0.6096034930524667
להיחקר -1.422934999960861 0.49376731393655526 -0.4105313741649056 -1.2534631943218224 1.3760275012104761 1.0090643569882722 1.1049057146415542 -0.34434855962223637 -0.1989680945837989 1.5765519645934598 1.0503599411435627 0.9428890794317092 -1.0753202902265324 -0.3427401985801017 0.20513135057964407 -0.5825267556916224 0.06776532208499318
לאבחן 0.5871583901427573 -1.2680687156386694 2.701154391690549 -2.697559968582333 0.2922569858430037 0.03669283828345307 0.8509210005174208 -0.0106020755746781 0.29308748277852886 -0.03530424209363906 1.4053917577966346 0.5892357344520083 -0.2952434976903153 1.3114246487488426 -0.022829782327224008 2.9746430087119773 -1.1568845844183968
תצפית 2.1042222082633466 1.9688316651130011 -1.7628788302311378 -2.1912149111802814 0.7003189187586712 -0.4431927191484853 -0.3604519691931028 1.291420062721146 3.9914306230405128 -0.5380503798830149 -0.8610893312080284 1.1480788465716045 -0.8451865217301462 -0.6742441830299064 -0.6312182670578499 0.925818801546097 -1.3052433396483965
לבטח -1.3325331568497607 -0.6390292670600449 0.6486228474926957 -0.11819740159486052 -0.03933862484974892 0.6954659703720355 -0.1875011312519798 -0.7817268613992346 -0.6291507678808667 -0.6937078779239148 -1.1496670029085385 1.0108088742856915 -0.06438636149825265 -0.14985202316254348 -0.13357945034388363 -0.4136018975811299 0.46253266095771844
לפקד 1.1495881475663259 -0.2671063548113478 -2.8985878591410623 -1.5759572269625979 -2.0072740869283336 -0.020808663173755532 -1.608253800935827 2.291378393040752 0.9619892193242198 3.8456934855484697 0.9153365056111015 1.5160693749932994 2.446231542748213 0.06905725010399807 0.9467160491876789 -0.33372278275564654 0.7230766160509932
תחזוקה 2.283615190228537 1.8686806136060679 -1.401920453092151 -2.67288587721606 0.8198370797125624 -0.5792493084316308 -0.6522091884290417 -0.8734625031538736 0.07196825151021732 1.851712913520491 0.21171163603465754 0.750740650004692 -0.1885745158447789 1.2131832439808832 0.6860422687990068 0.9260031746255286 -0.1449188903067564
אבטחה 2.984574575609894 1.5602358435023886 -0.7962697772932815 -2.5947841356321906 2.4714993360405617 -0.9394286519351006 -0.0793578287482076 -1.217761226425294 -0.5940263066144964 0.41950147339093846 -0.14313365637180167 1.5424222492931028 -1.3860942582441902 0.19705117190297472 0.15598168669982437 0.19291808394960294 -0.7565836942792561
למסמר -2.0039283690349885 0.9148403952810268 0.5030011186927221 0.7636403073034679 -0.09557096456766272 0.22205666517568487 -1.1136312736155087 1.7133618761802298 0.27026110257496616 0.28396943526546403 -1.0269794449539686 -1.0020619763894014 0.16189580912851378 -0.9488674381411463 0.24411522401426716 0.11504682027958875 -0.11938560106437292
להתגבר 1.3742816512503302 -3.3235345098912217 0.4012853586197438 -1.0159821692803763 -0.4431678423163751 -0.044860514768850425 -0.5867259825590783 0.721138603427361 -0.2447070069885858 -0.48380754287808225 1.7783761824049682 -1.2746525423805697 0.13245020077509906 -0.02541680803372565 0.6323263647585863 0.6315928168461201 -0.434199080915566
לתזמר -0.704861753617767 0.26658101753402763 1.089565844213546 0.6258543968854265 0.3303899929373732 -0.9902583979971856 0.5939990427501677 0.4096951250368093 0.5962656533831961 0.793236480897904 0.8518709655992088 -0.5550342971673 0.93863232976902 0.9833738491219369 0.699852995257247 -0.9630524531136448 0.4376422208502028
למרפק -1.6393003837791797 1.897254040680909 -1.8207289721694897 -0.6205669090704626 -0.6488888636781945 -0.9747056125802745 0.011299899988434748 0.5755055958065879 2.433442595536976 -0.07535418076489402 -0.08620129640169404 -0.799605788661692 -0.29332514419609446 0.4132559648028044 -0.052123271192817684 0.39622962076506757 -1.9651505522086152
להזדמן -1.6901825969876578 1.033429399009225 0.6337508453188954 0.5756997319406971 0.2810383753060844 0.5853434297426273 -1.0610673361094938 -0.09133329989629867 0.6518190352244446 0.40922595038179993 0.09832221716996666 0.17978276377553612 0.2778223461553631 0.9435353046948955 -0.04968910022051247 0.42184325473609463 -0.6338091744927729
להתקשר -0.7868447536469306 -1.7440660661973209 0.578032213463435 0.6797119443306866 0.5850558710739304 0.24620265812507539 -0.8853560832929763 -0.8297632607468884 0.6525555087511425 0.6654026682823261 -0.8733584912140969 0.6944875102665043 -0.14838274373753307 1.4641790159589139 -0.7884401003703051 -0.8141881383069336 0.22638117435523522
לגדר -0.3941408751470057 0.9172767736483155 -2.9698940117248713 -1.0532505935305738 -1.3576905868828677 -0.5625991904648093 -1.5997342494528395 -1.057883049030633 2.5314813770128732 -1.6797722467233194 -0.6703507069595316 -0.30505031270540006 -1.3030622673578878 0.1891428669154778 -0.030365693187760993 -0.690456816702213 -0.6534199774955989
למשכן -1.4372233130912195 0.36440398971813454 -1.865146803566723 1.5911525295798914 -2.4778825035888685 -0.2543287758200866 0.32694036082115147 0.30870498731989093 1.1511575457129155 0.6118937539134149 -1.0880189567276735 0.0035266257664383397 -1.119198412123714 0.903951067396993 -0.5560439628446633 0.1619373899237797 -0.4368107881268501
מלכודת 0.37334477129941224 0.6075536172335148 0.8170531203668248 -0.6753726191570926 0.9890410821605767 -0.26501220085640625 -1.872245466856293 -0.3210911412443374 -0.13788359388704968 -1.1092420273681998 -0.20480606275479427 0.34442391326262434 0.644925643023668 1.243368552983573 2.413560816695489 1.0943313342487146 0.2214768783114124
לזרוח -1.337307772649724 1.517162612004427 0.12104223674695012 0.326737525556266 0.17183462885200537 -0.11813207414875063 -1.7914632860433943 -0.5105569706618545 1.6496413147834383 0.12106669437181651 -0.16628809332508335 0.016537690532772643 -0.5186566340870784 -1.327903089083456 1.4699067729067237 0.047915937512978214 0.09227954869948377
