לתארך -0.5305024879121389 -1.239492798683429 -2.930733774708518 0.9470757662433964 -1.444739241534301 -1.7974837153817715 2.7265166480298504 -0.3623762288235523 1.137075630273543 -0.14126942575598017 0.7049247841311062 -2.5106433572786355 1.4645560498666101 -0.1535773205230752 -1.424783607764159 -0.4281505335512558 -0.37798147819699895 -0.5707406787644528 0.2058030126755678 0.8758967234960536 0.4068565515449587 1.209177198127674 1.142905025924289 -1.0226058673811798 0.030880785490785902 -0.2989370519744032 0.16905461189262386 1.385060496968785 -1.0137955939900483
צלחות -0.7572560966271839 0.9542605486891972 -0.7072871108998645 -0.16772205288049505 3.227428274517972 -1.5160980766180128 3.8718201541594692 0.02738273439033167 -1.69771890911955 -0.3447723696453713 -1.7398730316554818 -0.32756768431649774 1.3580091157911758 -0.8541439901256969 0.8854737668669285 0.39735677272694164 1.5212050666535508 0.18863972898833928 1.2938992884813822 0.643557574098463 -0.7244550533632113 2.0803969067404946 0.12426138903656256 -1.6905185181550832 -0.3098782337430927 0.09751964991796337 0.24075860744852742 1.3296980528923281 0.9225427841668519
מסמך 3.8438189136281924 3.018041078493156 1.2793487711840552 1.2050070574591336 -3.2351738262428524 -2.6826901310448465 0.1399123684657357 2.3114460191678616 -0.3757845872718274 0.7125684896739448 -1.8129154112669332 -2.5391320773181243 -2.1181329742923913 0.02980001990628661 -2.146505235682143 -0.41930422037537074 1.2618437563455216 -0.01656859723151915 -0.7419860334440375 1.0734313650238505 0.4522387789012573 0.645267543079625 0.34795067869600643 -0.21425223529015805 0.8148611310084931 -0.6631910619190894 -0.24465584737580978 -0.5874110089399395 0.912788675667598
לסמור -2.305964906583276 2.9915450891242013 -0.10203588858751912 -1.2652231499658548 -0.902391094160949 -1.4165133458858306 -0.09278849964961373 -1.963340409494416 0.8491574378972072 -0.26154647317903057 -0.08450360631983486 -0.4344066990254294 0.6855605677860163 -0.0010803025248026345 -0.3933822749487591 0.6482288215495378 0.7731495482162858 0.9445817741475565 0.6350221205902692 -1.5908367426124643 0.0579631193414289 0.5576227530712043 0.16719423512907222 0.14413868665023244 0.3663607496495518 0.09513004305412802 -0.807653644858504 0.4177807919262328 0.7828077660962218
להילכד -1.5884138312144325 -1.3618843085508376 1.1557089706506496 -1.9175408588356606 1.0368108682438442 1.0166497555073601 -0.5767337927167193 -0.032080220659397876 -1.940780586273394 0.1751077659733567 -0.026227606085650203 -0.2587906422762099 0.11962953713596039 -0.5238547837565378 1.308457357855593 -0.039292848828006724 -0.3545785819701241 -0.28170942090459744 -0.21560375329843237 -0.3022155106581276 0.7035221388489845 0.11698487585320659 -0.3618150394036286 0.43854179582539315 0.006185501672085986 0.3223837969812414 -1.477397887041955 -0.002937192404822287 0.28588260548288347
תפקידים 3.9877574360303365 2.6201373354550035 -1.3583460295677887 -1.9885366410215146 1.2892184492377954 3.5862324515155417 -1.4957381507023904 -3.271061893600769 0.2842063632437298 1.548375184395502 -0.9515371589066712 3.083022011115454 -2.1740702345393434 -0.4174428521881947 -0.37527245168171225 -2.01333004249969 0.5600857376160436 -0.09936736207685601 -0.3002236747409932 -0.6287540115243078 -1.3097654329204442 2.3801101662169293 1.4658565609919583 0.15501355742617687 -1.414143357474567 0.29267977404061235 1.421648933261991 -0.2897398050879543 0.3554612402236819
לתגבר -0.18635729002087115 -1.321665817553522 4.921444192812441 1.0811729477561465 0.830064824442676 0.4840688748366277 0.3069526554334274 1.392907484307555 1.3607824879669157 2.1856511659204485 2.1854021256519145 0.5068299716948365 0.5133946422702249 -1.3285722418984465 -0.5388671092719988 -0.3470492375128977 0.8329232586460609 -1.0251784493355525 0.4234841567523336 -0.2779835135898806 -0.4367206787187569 0.5450566527199537 -0.2164948213115921 1.0271956048199895 1.9745978116456884 0.27167295773490885 -0.06593443745649638 0.13710637350682922 -0.24771611200934485
להיסגר -2.522572283951727 -0.45901318399264435 -0.6126841246603576 0.6737260594425043 0.7113890571030365 0.8174934442614589 -0.2496811234199539 1.2418531269710176 -1.6093598864160943 1.6618057927302 0.9042250146685263 -2.076947634675471 -0.7216363709805946 1.0964824120964023 0.9381824666189814 0.09199296987369714 -1.7381342928571677 0.9694039243013536 -0.4935135273557112 -0.8859262194954428 1.5494008700720232 -0.17823375777348066 -0.625540852350946 2.1702022427726884 -0.2603290368178423 0.12393063525438845 -0.400718003033486 0.6011987747129445 0.8628257145327936
לתמרץ -2.3239291215759947 -0.9509773624085918 1.7482476517603356 1.1633327187657936 -0.10954971862447985 -1.1600454016844304 2.65722497988193 -0.011212706677800267 -0.4177506383361412 -2.05352279024787 -0.4954867185846211 1.4722039288240067 -0.5558752076383164 -0.7717511457281216 -0.5598135089389552 0.18315926114192502 -1.2182453690409516 -0.12815349911869942 -0.9970917831859325 1.0348324596225937 0.5084629025006302 0.00609867106745029 -0.10361777335747559 0.12572135285390243 0.17820305325242825 0.30131862734327 -0.08280494748809707 0.2354521720985192 0.6069850004190778
לזרוח -1.831919410876226 1.207048592085389 -0.19052717943052574 -0.36899868544364967 1.324982590406847 -0.7947320377771294 -1.0769813674984845 0.5247277553380593 -0.6458640725325443 -0.3489813245063135 2.07622256256321 -1.2368642921501558 -2.048019021232033 -1.7184840196416538 1.0261203189642951 -0.4776890387267832 -0.07347427600050231 0.2359489092003244 1.563609619767872 -1.2217054550227393 1.3708327842602328 -0.2465310443389761 0.01022580508972613 -0.15219337762938848 -0.16216966324806767 1.43243393390736 -0.32048101601625556 0.12943650663764886 0.952567342231409
לזכור 1.5789604738102658 -1.9640696020343211 -2.740955879473451 -0.5571718589950017 -0.9930924946119392 -0.5739669587530902 0.28726807387019976 -0.008154653017757663 0.4436386989218493 0.17402313101022973 -0.5059108009477516 -0.33105167332586194 -0.5823346029533342 0.5696710706128445 1.1767442230031768 1.378481419602858 1.1457515159280722 -0.3749995747533023 -0.5225794447430956 -0.3539233170360564 -0.5317929499052922 0.3773064416739134 0.9682900453995498 1.0776774349459024 0.6471174943967105 -0.6954944808288591 0.3030545089291227 -0.18986833321739224 -0.23995714593393477
להסתמך 0.8516409277596227 -2.7455330542045133 0.1941328104571905 -0.9017455328488088 -0.4597075477282459 0.45784197273275634 -0.2701282679774368 -0.36534029745083246 -0.5881894930225932 1.2147013495584578 -1.026454378485125 -0.7558124471103967 -0.4767790304213699 -1.1988103135724693 -0.14056155193164538 0.5341007533805386 -0.2190373227948188 -1.1951681831961694 0.36333956082786384 -0.850568420734642 0.13756828300824497 0.9911687676487004 -0.4148671531965962 0.06723092001427178 0.09066699531780183 -0.6827724210283188 -0.7548194150167811 1.4607844089425284 -0.16437414837607428
להתגבר 1.6529550301067497 -3.383351644805413 0.6124328002374323 -0.08673751995979254 -0.17737495479254434 -0.015553870850268969 -0.37592962712472355 -1.3199658714339206 -0.2617816263839016 0.7152625474953812 1.7207080137938036 0.5825677310505976 -0.5453779261343974 0.6714905165189728 0.44332136985851317 1.7776526619799775 -0.1922388198129777 0.045184573190133394 -0.14222278360940954 0.674724718909838 -0.4283815838833504 1.4687592065530104 -0.2963353074515195 1.0513055752907356 -0.7593207031551289 -0.08356986774487596 -0.18866127288439802 0.2947812816701366 -0.061076637156295244
למחשב 3.6375517738414307 0.8218526364153973 0.67708758231965 0.1397106804874564 3.2481539363944827 -4.363737929441768 -2.7546298388465815 0.18086478484767068 -0.36994390403116895 0.4215347800464339 0.1959411797009422 -1.254559588532566 1.655353925461405 0.7964957966696661 1.2828544728908013 -1.9638572402679568 -0.5986095758076394 -1.2130753018401423 -0.027581661233356904 0.9364773830728388 -0.07004552639810066 -0.8486059168891814 -1.412374323162832 2.7197199477291725 -1.0045996411276004 -0.5453971247330639 0.8108724469538409 -0.41257391290364437 -0.8919803332278378
תעתיקים -1.0930077355889054 2.7671059608940753 0.46967690793586164 -0.9795017271271425 -1.021235357721149 -1.070573357804803 0.5842783598251279 -1.7750476248058134 -0.3838686775958289 -0.9471079645173456 0.5004550734772858 1.023382224001272 0.6528233362374406 0.35376195493511564 0.6097887602350487 -1.4360646152884033 0.25236425267467844 -1.9229908880060813 -0.2708186431725996 -0.8259229647831877 0.2585277855373347 1.777777986339694 -0.33725520987639207 -0.20386424662053076 -0.1180539750794206 0.041988682832560256 -1.1439312596008402 -0.3114374245651757 -0.5614597277406514
למשכן -1.9193729019086097 1.2989741254554297 0.5723338506884742 1.2547027724888145 -2.1271037801631043 0.5806685282799602 -0.5091607588896989 1.4424365029494786 1.799649959134879 -1.8469671941565065 -0.5612893543094641 -2.292319406849734 -0.073932351507142 1.8270493363807427 -0.5439935277364545 -1.355999459805194 -0.032953002009530684 -1.4326498078860017 -1.0080531311924872 0.7047948436175369 -0.7656524461170384 1.6170391628386478 0.14323982127368093 -0.8222324121354259 -0.33661282761916694 0.8243956410455644 0.7003004245918227 -0.7842697211398156 -0.9358221527446201
להסתגר -2.8414047760513057 -1.0515485370046729 -0.31433001830181956 0.06585241141874804 1.4293188942308226 2.7129829731766235 0.18103949845400888 1.5431158789042705 0.6447380934720462 -0.21224999040179943 -0.4985483634124246 -0.799430553798816 -1.4856398460230835 1.2542044983211125 0.5341891239204974 -1.2120508896085291 0.7721550485490964 -0.10677691666192979 -0.5927558287284534 0.7694403636145484 -0.6439200450017545 0.6543249622535751 0.024748094153134788 1.148310281323082 0.026837191803665138 0.0003148513354119607 -1.3169539320861312 0.24508757539484688 0.18599863741855016
להיגמל -3.124935261981515 -0.5624319480143056 -1.0234473526478045 0.7475893441989483 0.6995086775537527 -1.6304868443334277 -1.1049181991264159 -1.9499351781020426 -2.2426427273468663 1.8617271348991404 0.30168609138836916 0.3017234163165393 0.465574232454887 2.3593210716868684 -0.045215674852189525 1.4495231968938966 0.7308449733729195 1.570821303737694 -2.4283581806974697 0.15816748389430277 -0.3880588166412435 0.23785238561474564 -0.7355661034228537 -0.40932965949430883 0.5311354169740481 -0.6960391770136826 1.1243224384268362 0.4523572595359553 1.3178426083941261
לחקור 3.4809150840781005 -2.710803680996674 0.016512149069870242 0.6570447671107831 -1.1615905297652254 -0.8085805438239084 1.5260529572342547 2.194374759136569 -0.348341132833992 1.7109137779656014 1.278628845158188 1.8929375681741785 -1.0377335844688718 0.9093797560865973 -0.507180188195298 -1.4845720670635552 -0.030328744772963316 -0.2947871549438635 -2.091525266325921 -0.08979325483095466 -0.17984062340869683 -0.6480142253684856 -0.3261879095150382 -1.803722166201853 -0.6365181257949447 0.2883719903681043 -0.8593625230122761 0.17623814696865456 0.8475958970046275
להסתפר -2.940300846747554 0.8437526477328114 -1.6309227805728423 0.1445833135576814 -1.0814058170189615 1.4398732615161909 -1.03442393940875 0.05893172676686125 0.5610024592762272 0.867414854643635 -1.7674498045389235 -0.8402353391773428 -0.43847217937602084 -1.5994896838799757 1.324576921242784 -0.9614155144323325 -0.5222811253902486 -0.9390964905853028 2.1405931218528194 -0.11988997506540375 -0.1640024174564425 -0.775564055041711 0.9670312641726785 -0.3126278461525551 -0.00987482893666657 -0.2997505418329632 -0.3041879996937918 -1.1743729046860678 0.8846446037715021
מגדרים -1.3879383795049685 3.388118969811261 0.18462710252508827 -2.493252383726749 -1.9990218136626945 1.552834812858565 1.5261355633538227 -2.0220784211743283 -2.3685638058376974 -1.560166923508423 2.358760045372428 1.7426618565077472 -3.244787451974869 -1.3704713360495868 2.508585654440813 1.1602104000213382 -0.4504393732535763 -1.853522051881953 -0.9300712124646475 0.716484937004928 -0.8899896898050902 -1.801307539636535 -0.6906410407973435 -0.173279333557261 1.5513955201398015 -0.618117313445494 1.863440082330676 0.5157680833099737 -0.18183966910302451
לסמוך 1.0815564045010466 -2.866560617392441 -0.4834860219647483 -0.7332546745868008 -1.6391668832609045 0.8489041572829576 -0.7112329655899836 -0.14002203765782548 0.10346964718938623 0.6628440522169975 -2.3651256967485703 -0.3754541274173347 0.15942476594058694 -0.7892369332328334 1.2760260735286741 1.8010134151331767 0.7137290166184402 -0.8106341496768817 0.944843638677515 -1.5537554680392212 -0.3105225763029794 0.004365020807895978 -0.28351753517343536 0.4380249433607814 -0.394421298677399 0.3247069276778272 -0.5707248423951101 0.6378827788130761 0.3162481920216558
מסמר -0.5753177099713515 2.5125561206046028 0.06150022925822015 1.256738157772807 1.0349272939550056 -3.4143276299061824 0.7373895038534817 2.6364611579973327 -1.3473305960615753 2.153799479382825 -0.5726460836822375 0.9915654623348094 0.11431179168982973 -1.6981461035855283 1.477325672155291 0.23241784946981012 0.5329984567305521 3.172930538401304 -0.4560808852223481 0.07785903709038769 0.3858841698040371 1.029891088981597 0.5732221657567778 0.7860379088740315 -0.9680983414354389 -1.182830495760119 -1.4466993275739006 -0.6903322506786977 0.587910003396028
להתלכד -2.7829340217303695 0.5651807885835698 1.9782246961391228 1.3814003783786943 0.5826151476786511 -0.034655148311826006 -0.13254302546567265 0.9133935219348612 0.4293907517370221 -0.9467762664449703 1.2742251379635088 0.7943266850306909 -1.3068377838252678 -0.21878186530142033 1.5536628349618078 -1.2209694439801109 0.0186156157157044 0.9860206004620204 -0.020417895656019494 0.7427866527126576 0.47139237167435044 -0.11282762719522124 1.075681658622219 1.075504867610378 0.12196625697303133 -0.9604323978160502 0.02081734240364464 0.8790264142423188 2.152343219692928
לארוך -1.9705403872939564 1.8654601122181964 -3.5860400034893485 -0.2148943766316841 -1.0978352906256135 -0.7637424332280569 0.6426754697668592 0.333057705906016 -1.2742232261927493 1.146737752041505 2.59106300591699 -1.3122915373173876 2.7173700799629636 0.5580516607101205 -0.9224429061522438 0.46975270275743586 -0.8751072152247383 1.352373848628742 -0.1267034573201932 0.26535610456815223 -0.6727162539932692 -0.4737534963936824 1.361567922755392 -0.5992089907760559 -1.3183693197591075 0.6724348397822693 1.0092231942220298 0.6825754096942127 1.2100984273616113
סקרנים -1.1351633628828983 0.33576363468763787 -2.2322720965515384 -0.7805762932341023 0.40016770381003597 0.8108901225349698 1.2413502111723276 3.2016038722396827 -1.53288688210287 -1.8420097145353065 -0.16330665619702825 2.3856667182971765 0.9902448205230442 0.9596212225615909 0.9666362147527011 0.6174619918578707 -1.6160500717377697 0.1293801136056492 -0.0853523934688184 -2.779528612698641 0.54652457322864 -0.08644307105374523 2.454216140539746 1.1978779174220333 0.7147566514238609 1.083520846913147 -0.017432460590981927 0.2194148609318087 -0.6214703003153671
לבחון 3.2233952761430174 -2.9027912614046367 -0.6011875124830105 0.36314534566001 -1.571056211762228 -0.6686574696917899 1.8824160897517337 0.5586326604658739 0.9645607315245575 0.34608791023512436 0.34881687247709897 0.028607776368894944 -1.2186910034180278 1.0671251779240973 -1.4630679660675816 -0.12076674345835178 -1.5212806001778938 -0.3516749622669695 0.06037098247673018 -0.6741991196933022 0.2955314142415654 0.5280448940600335 -0.6448962191717952 -0.6133982198030344 0.5929096663040649 -0.5113466771306119 0.177650699882117 -0.5851417880130798 1.0681582007653039
תקליטים 1.9999205131020643 4.303600468834594 -1.0474687545961017 7.1560631841916535 3.5218107545337576 0.24695311260293368 -1.6273683606776712 -2.3670876773189824 -4.739138503706962 -0.17112798419018424 -1.125050158390971 -1.7227169727805203 0.15763654808477556 -2.451091131098695 0.0018873640261740051 1.0398561086322011 0.9300994125315976 -1.3087763693421932 -0.4970980445480494 -1.7256123406151374 0.4765827137218221 -0.8337452389536893 0.5314929298565098 -1.7134200096907446 0.6629052291863885 -1.0616887290345092 -0.9803279488135304 0.2327493749787539 -0.08503374109232546
להיפקד -2.5126823017103757 1.9582588766469544 -0.44703728218931016 -2.4988970424847112 -1.0252271035426774 0.821426653990404 -1.364786443185456 -1.0761784823068041 -1.3423356062224547 -1.2916332390466718 0.44214574701047954 1.7888009891731043 0.26313301756765123 -1.2095122545629586 -0.7960293886227369 0.10708050392557909 2.085373948423307 -0.04462890765745284 0.20410370591341476 -0.23291383998262957 1.4513827264118246 1.8421125211926543 -0.5096565012983876 -0.7475962268978196 -0.456088645321756 0.6162147538302797 -0.8433263701689784 -1.3510392194193286 -0.26072024407454186
להסמיך -1.6567628036272362 -0.3866034676210703 0.8064990525096306 -0.6627922312927285 -0.2245531733964073 0.6664151133109387 0.7220222075819829 1.32035403682285 0.3822057533932442 1.1317526705881518 -3.13044826478387 1.5875714912873193 0.8966206211025821 -1.5141637214843775 -0.46729151800601 -1.027396108659245 -2.6128668669010846 0.7651875080358076 0.48579957796806467 -1.0768777446234636 0.5248965658195847 -0.4550420908925417 -0.19778995627078197 0.4381839186317452 -0.3839415392045673 -0.457888261331922 0.27692419138389057 0.9613922581255299 1.0107589811967506
תאריכים 0.9745877021421475 4.0447063369590905 -3.6295197600329576 0.3711168908972352 -0.4881481925381597 1.8128414042813803 2.461639076935632 -0.3829368120134861 -1.377418931358838 0.41556429179510157 1.3241189647021459 -1.515309545699329 1.603711078724316 -0.08730352830427363 -0.2635811078850396 -1.9951720836048354 0.8351567178649169 -0.7225490913999788 1.4802786779801618 -1.2184803794033676 0.2169524629387682 -1.4134194685833081 -0.7567439262974133 1.115265336185416 -0.8633334443335784 -1.9154895248480228 -0.10420810227348172 -0.4039387590942947 -0.942700813595307
להבטיח 2.866977552197398 -3.4519887777523772 1.653796250038532 0.32777472893342635 -2.464886313819785 0.7882777790490645 -0.8837657718648185 -2.3136004112780597 -0.2334135078645832 0.5385440138714829 -0.30858384804288086 -1.4549259551546676 -0.47508985781049823 0.6111252008619658 -1.3940176421466066 0.6819968513680233 0.06601070474445003 0.5647162568089106 1.6181726405184995 0.3336608705091501 0.37631581492850413 0.23290548773389866 0.2653720121696538 0.1549853148887781 0.0997829333802745 -0.8762632107189434 0.17394217622982744 -0.6007851904823263 0.7097453890159965
לסגור 0.5573988154749798 -2.0436115412372264 1.6881211340299798 2.461464369958101 0.3118329902357544 1.194609451615431 0.4418703011632885 0.727021769132328 -1.3431668701061568 1.5697193355945995 -0.6407826676071942 -1.774492597462855 -2.388075348288296 2.004991272783843 0.4074013936427584 0.13629985173452408 -1.093955200851494 0.14701453193246256 -0.4141736298167346 -1.7348165178160597 1.0430091327329483 0.16562998892646413 -2.2724647186611002 0.7135189734858792 -0.3831073170280827 1.0041539367283734 1.1251065577183943 -0.3711486761157534 0.09217659026122985
להשכין -1.4526367720843916 -0.9275403990158203 0.9803835743261725 0.9301732672892519 -1.1586761403166264 0.2234077791174938 0.2815753701901373 -0.8115834529199443 -0.24269886879504177 -2.683909197718242 1.499931947073798 1.0938983991507252 -1.3264593045496587 0.32395632780341466 -0.7474251696377837 1.6026232048003402 3.1622823841581797 -1.2984390138803379 2.1391658550344053 0.751280373809069 -0.14687678027490478 -1.4345875628927358 -0.15684462645417308 0.5894814824844177 -0.590885666194717 1.6058579296708468 -1.3116008286416407 0.05923637566815163 0.8580299345109644
להסתקרן -1.4632853502343506 1.3366038446456625 -0.785094948212674 -0.8804686794403025 0.019834568405875445 -0.42343661112121744 -0.44140022078543156 -0.3942893449187962 -0.4226109852004706 0.53942248706252 -0.16815119330435485 -0.9076616465282561 -0.10286161415351652 0.11008074153174385 0.015079751116246121 1.0888540549039234 -0.004045859879893436 -0.228932387665387 -1.3590136757417357 -0.6154504596898474 -0.3561657670969783 1.1197422291133363 -0.11665587089424238 0.39074118963865623 -0.016420416288026995 -0.19151407912457533 -1.0369177388951074 0.9336006039364508 0.022782649161744377
לשכן -0.3340322161421499 -1.544754305461791 1.4833937950482268 1.538210610178877 -0.8568514549902009 0.5694513804868395 0.8305680289907325 -0.13745496134861487 1.7013803674962624 -2.0738150715231156 -1.479895866341348 1.0495040991644171 0.07774319422598136 0.8038591758850027 0.7807690871199163 -0.6228438440071425 0.4599296386246715 0.8084568760651909 -2.2247788253879186 0.458371193085067 1.8037545995306097 -0.4290915739277324 0.6791726348471019 0.48413188040719063 1.5795977268684738 1.487283388377521 0.2176139930170993 -0.5217064462376017 0.8802095278037656
לקשר 2.8543710514851464 0.0976497192426344 -0.26215413298863005 0.0652797149250768 -1.6918317633691966 -1.8494900281914317 -2.0001402071361016 0.454924708193429 0.2758192054696448 -2.396171036163884 1.8843035830516401 1.309653140762357 -0.09612680620190343 1.1970149378754575 -1.243158090699419 -0.4571735390257783 0.20786774250909343 1.2404317750005995 -0.4596327291662737 -0.5824387698760107 -0.9601155444191639 -0.25454259467809565 -0.6900740390746593 0.2776382227637522 -0.36252624792721583 0.7049174232604516 -0.43041764145807665 0.5508843091610458 -0.03763864594902341
להקליט 0.29534743637033445 0.1717791433923452 -3.2606846866165196 6.183100115848875 2.8783289793745155 -0.514683067761307 -1.3682060451765068 -1.7584584216735315 -0.3182311826700384 1.0991749620376803 1.092678636314242 0.5301871594894352 -0.1361117129861421 0.05657046281631633 0.4692990177899352 0.6178657004120427 -0.5169406357125886 -1.1455564834086678 0.247411509198664 -1.055528862959466 0.25252885681802173 0.5131277284358697 -0.2533452853411423 -0.9592935739675339 1.0144901275523397 0.6614099153879933 -0.04829225817765161 -2.1633948864704986 1.1881394005410841
לתזמן -0.9466202240945157 -0.688720979950701 1.2248518690852532 -0.38639236751060785 -0.04256331984050316 -0.3913496191859224 2.6462821668939607 -1.132939926877317 1.178601127196398 0.30054720526722367 -0.1704818817044688 -0.10657277197003043 0.018336300063990847 0.9837076439547116 -0.35528326038810804 -1.1644059592995597 0.940257245131245 -0.056258280232561894 0.7948409499517538 -0.8654614615506673 -0.2103732243770131 -1.4684754818468557 2.236776756266274 -0.2726153883563256 -2.059990271121311 -0.49874760963186865 0.860605651509588 -0.24677748936491398 -0.034020297224874624
להשתכן -3.5791874702330624 -0.34005277228888264 -1.0158777795800473 -0.2094186756514537 1.3866735795048448 2.1661759038501947 -0.9769823018699431 0.18957851799976694 1.1263950398293903 -1.206474303027038 -1.5837806889072485 0.13922878366420174 0.47717441738757965 2.9573578591079825 -0.6491739738528068 -0.6334728608519185 0.7593129741827219 0.622045944254252 0.18625946143085487 0.9889905988333961 0.41626781935843077 0.7264413865549746 -0.365003394161333 -0.6541680766422674 0.8877608352655654 0.5697590318754174 -0.4723180158243349 -0.3473869557387721 -0.35220999737019565
תזמורת 0.9859522145153186 5.139691513175716 0.6881876037650224 4.442264675845974 4.152257509296691 2.9504036308757233 0.7619695509568207 -1.4717323750053826 6.3359101329896665 -0.12542513336245906 -1.771439665588106 2.628189518552884 -0.6344175230854694 -0.21540314941384472 -1.3150989284961483 2.0714137227260285 -0.9571509710509817 0.38086988736046584 -1.063736789604866 -0.16237409735709046 0.6567599090883435 -0.006828281250635613 -1.7692475023277434 0.008889422669357262 -1.365213605915825 -0.6631642749621078 0.5596272889893232 0.4706596302734296 0.614757132254406
לתקשר 1.6742958836424968 -3.2929269512826385 -0.46121823360024106 -0.18405905819161322 2.3033734534090007 -1.6158654905953462 -1.1930348851270662 0.9577366528220154 -0.6389997624142076 -0.8146380460572515 0.055289796040637294 2.1059261779624445 -0.5016478929438565 -0.6298764720526365 0.6341895431678248 -1.635356099374972 1.0323722608464674 -0.6822658150505247 0.9228144897736249 -0.1757980343079282 -1.4204979801617543 -0.6228856124316549 0.24223333116967924 -0.2901491236732581 0.22693535506683868 0.2852726161408753 -0.8735669728476209 0.15597441781768076 0.5112741675097469
לבטוח -1.3531894062426486 -1.3544694394301102 -1.3259933864896283 -2.0383392909234854 0.0817432320686955 -0.25719185915217135 -2.1008080036723 -0.08076482577589757 0.6089536519253794 -0.805169460125048 -1.867674985578083 -0.2897102369078437 0.6141974727484315 -0.11953139523767402 -0.6637195187265151 0.6706497630182914 1.0454667729805776 0.37772563437078227 -0.17397330218200183 0.6902309218433572 1.090641012835068 -1.3839894880988044 -0.9675122827687072 -0.7622681453453612 -0.5137295377496304 0.2658870825753957 0.1428957482227523 0.36068013739524923 -0.2837113402854507
מרפק -1.4133825874185417 2.090447618407504 1.1029924896482797 -0.8075905802551673 0.5055639147025813 0.3325672189107962 1.1451544820008106 2.3715002413792368 1.1391214166002386 0.7106647494147574 -2.3209416502743583 0.07064555066136324 0.4618566124619963 -1.8711980611063974 3.3299585192160457 0.9295109891243383 -1.3123124551933176 0.8155186187167464 1.5087928562102233 0.11026396107837795 -1.5166945899508024 -0.8654302549133795 -1.1983680787285087 1.8596773278994794 -0.3859017684390698 -0.3664304298412407 0.3778542777221673 -1.0637852976950868 0.25009031580479274
מלכודת 0.42802186461819386 1.197969306541713 2.057881959658425 0.027320917276435642 -0.2670673385807705 -1.093873094579541 0.2331791001169581 -1.6775020277144024 -0.5205365593338939 -0.5609578593586726 0.23489754607351762 0.7033858212467259 -0.6974160751182001 0.5314236883554608 2.8809261220798157 2.112341317124434 -0.9187160904184359 1.9782217308373622 -0.5905668564415214 1.3584429436503824 0.6695535014079268 -0.32153950941341597 -0.16330456264408505 -1.8929052421812533 -0.9281418176734376 1.134365876532829 -1.1967481983316715 -0.1475538172131519 -0.5012366297395628
להתארך -2.966093093725487 0.15142727932101382 -2.5513042491761366 -2.369774412914166 -1.1762944317739439 0.8710267624385537 0.8673803165861317 0.49497907556020776 -0.40291682559690567 1.5676454055621574 3.3178424750454907 -1.5391266578783793 0.03601037198213341 -2.205827927899032 -0.7451785106649601 -1.082694592513891 -0.13699353187674768 -0.2521693226562967 -0.6481295552429942 0.533552144858651 0.20931354367740074 -0.600989900651243 -0.5996739484214488 -0.9303351823635014 -0.5390207312995094 -0.1553660343339096 1.1686920895098878 0.44174303549032473 1.3259904819708315
להזדמן -2.2587114979233127 0.42946297160388747 -0.22078549474295822 -0.4077596630024169 1.297091819608671 -0.9985426202490176 -1.4047115921584006 0.63627059668525 -0.40194615248154036 -0.08900485723973281 0.4344015938602932 -0.007415510807147816 0.6655153567499175 -0.17076472607484272 0.39465116510362996 -0.24138289774521066 0.6675413274336172 -0.49518703319731017 -1.0635801351745198 0.26183943991503145 -0.20075261627777694 0.44254670594393974 -0.18542459465725922 -0.03167129065691845 -0.630268493122057 -0.05419751160049433 -0.4949243595109373 -0.7581749162669521 0.43909204334919294
להזכיר 0.2948728519818974 -1.2996151932300894 -1.9113619971250189 0.45070664596998256 -2.0819418581016964 0.08204595123678579 -0.29829358734191963 1.073222391184871 1.1520087178934066 -0.1317013162527093 -1.591115565316069 0.04508144366414402 -0.7157973793054411 -0.021039148315222588 0.8975987678946513 0.5334927099215463 0.3739724138095912 -0.2022863787201775 1.5784193014179047 -1.1351935913490576 -1.2734290445002878 0.45209719876031634 -0.14362536756817687 0.2942012150632266 -0.2853801368587451 -0.7426120965536871 0.09986079854272531 0.5368884974438426 0.04063096444777341
לחשב 3.977792690194203 -2.438653638645525 -0.8967292373384997 0.6699947910603584 -1.8801437763144138 -1.3047759292088956 3.027011574699929 -2.2939137047933973 2.180011026351664 -0.5694941921768922 0.3591355692721263 -1.4767876054234474 1.7640298758593531 -2.719653464562946 0.7932898548810897 -0.9110572108388015 -0.24271389108520683 -0.870821311072734 -0.8396294963852526 -0.6823572264515628 2.24857774904551 -0.6351065233153234 0.416654734355187 0.35701460025635806 -0.7527934046427277 2.3006088821328885 -1.259205221832264 -0.23075132087407965 -0.8124163301593141
להאריך -0.39842110302536726 -0.99328569660544 -1.5930146434785282 1.217593967317826 -1.8925398935779807 1.1987130675326894 1.234073020961437 -1.1522224426559566 0.6003694796901671 2.1685186876672446 0.7462922535657087 -2.19212042879079 0.26467618602656434 0.07217906986608416 -0.931005771699316 -0.5368516147388678 -1.6965767610550382 0.5563570395689292 0.7189465249053866 -0.40988598558874517 -0.5571279164417393 0.5311768184300141 -0.5486420776399893 -0.7929095436695704 -0.754760355067631 0.04620660774642705 -0.25512508337226464 -0.5761566958759384 0.16787187787073576
לתחקר -1.9492612564554779 -0.06365670459212613 -0.4581281532509938 -0.6927578778111627 -0.5479632547355401 -0.16571997275513625 1.0155336101915302 0.5812795994307475 -1.1582694700434164 1.0216130723256929 -0.3464073508346844 1.1355208759877677 -0.33296557796017834 0.8956812795150979 -1.333376585537934 -0.39960390442532207 -0.9005476296440086 -0.3190255677751169 -0.07983352908566303 -0.21710330033525546 -0.692222350519452 -0.7040049843500086 -0.4097239086104562 -0.3554647727472006 1.188129218581489 0.5328086816952741 0.23558045987289605 -1.9708493819786463 -0.7546323095968759
לתחזק -0.96979157850484 -2.9502048203101836 0.9277822953905819 0.9287213932854325 1.046270196208788 0.19337939378246252 0.7333889413539051 -1.4832537484182493 0.8452143323624753 -0.5406059204566719 -0.14921059360823133 -0.5189063701623876 -0.4457774085394697 0.7053343627710847 -0.5545221182686803 0.5041243492210883 -0.34411202252086476 -0.5817239411338843 -0.03793992780988882 -0.12219937899802763 -0.3142046690480829 -0.3709853318745041 0.6444676159954836 0.33873187074170885 0.7753161268474978 -0.46455811831768007 0.7044148334135258 0.1477929260109949 -0.1656904508737499
ללכד -2.2064304230976237 -1.840014622731746 2.4018879627441585 2.331642101583111 1.3893971225160828 -1.3486429093387657 0.16754052530277747 0.022785024073945434 -1.1239673461009396 -0.12947655423737364 0.3284431677875318 -0.023395018762273224 -1.0164693561203297 0.10958899468264853 -0.5860167694011019 -0.1109738683658969 2.045965110070337 2.450814866775896 1.1556585278608051 -1.0330262569952233 0.4404554802658691 -0.5967900191069468 0.823177440723727 0.3552764153038251 -0.2234103810016368 0.925895678597493 1.5521608509709286 0.5018160789178883 -0.75817181618597
מסגרת 2.778667678542054 2.7018753664200967 1.1097639120423126 0.6833340897281437 -0.3738328192609061 -0.4379680868565617 -1.1782348089116383 -0.8688253686682041 1.6261678731741402 -2.1791178677503216 0.3994114599739463 -0.3739521143767574 -2.8777746307071292 -0.1974861663906609 0.36820809126736903 -0.3862309951390493 -2.073635279010616 1.5760825904307532 1.6440393045568766 1.859555845868369 1.2572220040844801 -0.7761881226624409 0.5096255700862004 -1.187599468639789 0.7270362441808008 -1.5260856593233791 0.9297070140312993 0.16605026442837909 1.330615221134859
תגבורת 0.5619579986714085 0.19108352085395358 5.348251486041489 0.6806776363981374 -0.9762215278495875 0.4587246263530135 -1.4192224953651797 0.5680986789273593 -0.06148433715390112 1.0761889934130686 1.867077268876243 0.717302456765592 3.4682851432666277 -1.552817994474089 0.36200739707180773 1.5927311269927706 -1.720569394856128 -0.5494714080032377 1.540358559474599 0.7059897675141511 -0.9593107470611475 -0.16359030681115508 -0.01508523306703947 -0.9188684602431259 2.034246831331131 -0.13066759658705107 -0.023079925727839765 0.47302557247753424 -0.31294495090903046
להתחזק -2.195094264445038 -1.5392407160084232 -0.05042477196287138 0.6162155632812215 0.8589042134743609 1.0296715975355997 -0.7279998817930105 -0.600399742362217 -0.6151459618893218 -0.02339418950285261 1.2952161685934407 -0.45572716896420534 -1.2086717939467928 -0.5185770249177759 -0.6620162776702986 -0.7452470235319032 -1.2540328849623428 0.35929453028283037 1.084156079523274 0.8663978830380076 0.16673350885978577 -0.5190268881605045 0.3502228438100709 0.6436452630732882 -0.3484109389851126 0.38290289895614693 0.047869302245225884 0.9632135136539084 -0.5356458154666682
לתעתק -1.2440502470155006 0.4553558375613007 -0.7318250143016214 0.21778445715287276 -0.8494491548101748 -2.841875684092365 0.8541218460557828 0.20137593407534948 0.9100007970067387 -0.31686087272308383 -1.6208325109290045 0.7739089470992158 -0.08351335457076106 0.03213607643929978 0.5446874171136852 -0.6703520630326582 -0.004805392405256513 -2.196420623905079 0.323417819970814 0.3270517049133085 -2.356117724889515 0.6939341988235235 -0.12304008298691771 0.06816485362918812 1.1370289067079196 -0.11347935780118379 0.40560091773335577 0.730203718956152 0.9332399522797605
להמריץ -2.544618177794393 -1.938784774051105 1.5174463300232455 1.1492055519333884 -0.2988910766852887 -1.588799329282033 0.9733671466320367 -0.9898631393700286 -0.6259038587480377 0.3394624635377917 0.455788667883565 0.5859912694940417 -0.9498209450412425 -0.49693806822773756 -1.539472619039932 -0.304051165966008 -1.5327599839268016 -0.6893426827427535 -1.0630796754733565 0.7695690474126974 -0.0026629690383846677 0.6458148705011831 0.8294873759784428 -0.010481225098405279 -0.7952752278730754 -0.21423846685634407 0.5741096125669222 0.10003899244308957 -0.247843502950937
למספר 5.023399085293186 2.734153286788604 -1.377470755375649 0.4335243920183528 -1.2758823727860953 0.9223985186634647 -0.552839491908106 -1.2382921687635646 -0.34370902801926156 -0.1643046756038075 1.334097124810457 1.394927182523971 2.0316573033658956 -0.12119466696130615 0.9547314896574632 -1.6476478184567345 0.49389249936758584 1.0611735758753291 -0.5330459569145958 -0.24754726917438047 0.6591266074462441 0.41943644845801703 -1.0444922764006928 0.2172755107135853 0.20402474532024992 1.0638110400019882 1.2807059284102504 1.1049973448453017 -0.2209999749561581
תקשורת 6.617407016556249 0.7883519330134539 0.1272727062450022 -2.1285913528566547 4.543827937657604 -0.5314041162819554 -0.5472264340922478 0.8431784294771623 -3.533338480139202 -1.5155959464130209 -0.6605019171322689 -0.1982776073535403 -1.1603231174910797 -0.377554176171032 -2.8288173703047117 -0.14466062762568124 -1.5501913092818629 -1.3564882283333923 1.5913741701797977 0.02127683686096666 -0.3066287996498436 -0.8674653068249523 -0.4714471162216644 -1.0222726497827619 -0.05703622569463256 1.1484934172441994 0.5105397297232229 1.316616728031412 0.3831605940116278
תזמון 2.184356348819115 1.8852868478924398 0.4860702354707593 -0.4846375206030106 -0.3917428991193834 -0.8537193570690461 2.280124280167719 -2.4242941554241555 -0.6259143151116077 -0.09183099372938026 0.6332420942961751 -1.6504004398511563 0.7021748434760984 -0.0791040328696532 -0.6411817513976031 1.2777613208550072 0.7751347482859622 0.843328286659935 -1.0390186162962858 -0.08803027641301993 -1.3336126031472102 -1.288675782325817 0.21205044904659193 2.551310273486453 -0.6789845554113506 1.7192621882171542 -1.2049096404956483 -0.6615132596010638 0.6888926730429322
מחשב 6.509539049518447 -0.34589220540863863 -1.2356575494181716 -1.438797806306157 4.5108107234579045 -3.860033603658689 0.5789542899329069 -0.8942656840248275 -1.2393354853292073 0.7537452371756741 -2.064217145178917 -0.18917322904485123 0.7404996777482585 0.13949619240630265 0.21470212584303944 -0.9521460218434104 0.21263454783928504 -1.1969215333654444 -0.381937888334094 3.3679022775154426 0.7815378955603153 -0.04281481035923342 1.004286753382001 1.8948183884751646 0.01590590619031551 -0.16312067645846395 0.5344531924568182 -0.09471513076065796 -0.1698544064753222
לקשור 0.417164196209812 -2.0366488309072674 -0.3054254632881876 1.2506246290000727 -0.6024059164766477 -1.125111319424312 0.9790372749582683 0.4614420222019278 -0.9584949368886718 -1.5434143378489784 0.40890530389039687 0.7899287743329563 -0.6138477827997251 -0.5885237231677972 0.01649416562443189 -0.9791916366660929 0.9324382297987682 1.1971655836144202 0.6084172216418723 -0.3707565265113145 -1.1957384303248477 -0.666049832154696 -0.3666124507045303 -0.28038344068700327 -1.0436440128905966 0.11716894169121145 -0.7980431939527122 0.30459918417427645 0.031235593608826086
לצלוח -1.7764232067882253 -1.4708820222800392 1.2549192456556109 -0.06671708766221528 0.10906461258488404 -0.0864710640859988 1.7239102351758115 -0.5644257576254403 0.8650783025089173 1.0279123863733948 2.4472598576431737 0.3537487261394482 0.9785869298620754 -1.1417544403162883 -1.0314180662823111 1.4653612768670743 1.4579896540025645 -0.8942130596874153 0.35780219552111103 0.9170518928103173 -0.5097363203079468 -0.18573464968789133 -1.2128183367214664 -0.9417935833251301 -0.6186753314294574 -0.42117208162004177 0.9811343093971894 -0.43083889646358153 0.5843988711433048
להיחשב 0.7849728680785553 -0.9838383302452886 -2.3284195508089818 -2.0660456622031314 -1.2012493735243157 -0.5846186060290014 -2.136260347081149 -0.3826371279026459 -0.19819551078552383 -0.849071938183333 -1.4067119273138722 -0.48119105090703024 0.7356107666219573 -0.9132923564598779 -0.4301295297469253 0.031965451295790565 -0.7664866291440642 2.116374977015462 -0.9083603195845812 0.11750952149655897 -0.7493873755970158 -0.8367202788001441 0.5626784519934462 -1.1888111365370948 -0.29336039861193103 -1.1786777480321335 0.5628409928462808 1.2052523018411148 0.6059491148360588
להחזיק 1.735788229513717 -2.990664768814477 1.2009057244021455 0.26547759344776944 0.30025426874170946 2.9124777484257693 -2.2268050630821414 -0.17638490623851572 -0.815472378697085 0.27632679439276675 -1.750426249466072 -1.8299086904517667 -0.3322816212059925 -1.7539515356600894 0.7885074550910427 -0.3193779175812735 0.8982201149531769 -0.27824958624834245 0.2198460174790977 1.0982255317462921 -0.15789931816067276 0.5503111085989855 -0.5955331082868646 -1.142593714379418 -0.1504756925199536 -0.6570477684079994 0.5492838066455743 -0.02657674680052902 -0.2934228754845313
תחקיר 2.5806794960538655 3.4044495923151765 -0.1198287484932959 -1.3272180462374286 -0.5384186890751449 -0.6851126925074317 2.0136113573316896 4.438235042978477 -2.3151308505629022 2.6920686012010466 -0.37251152752059535 -0.31916473838057663 -2.843978129311009 0.636629603228856 -1.9339794001473136 2.4685047036202095 -0.34599629604269605 -0.324845514959784 0.09490531407441943 -0.8912506771164179 -0.03861015204929452 0.1843433671047549 1.069441062271604 -0.42160869783596405 0.7339111171992588 2.0450963242888767 0.9831457375810451 -0.9657867961474905 -0.6591775077623929
להגדיר 4.655683466549102 -1.7979497300305374 -1.103311190020428 0.7210094353913583 -1.063856625717118 -1.11322690505713 1.9260214726135607 -1.70324961746827 2.6797878057981452 -2.071901356153571 -0.3633546846814735 -0.729987315955134 -1.0683602077019323 -2.1071339424377316 -0.1933155779021448 -0.5399124907321672 -0.17878950443405606 0.8939659629243958 -1.746622310448324 -1.0557844242914607 0.3835444363277089 -1.4251753308638773 -0.4957547729300038 -0.08685168356634797 1.5938524128255958 -0.6644779588099954 -0.10929228490036355 0.10705252756833271 -0.08244998130164047
תרגילים 1.2944097876779905 2.1559190275200586 -0.06793815999247985 -0.7501686065046728 0.8871986132165253 0.5234183927373669 3.1781484445785098 -2.8852676814318223 0.65865985845528 0.5066796848253399 0.2765020792469741 3.014404235407119 -1.1371473539035826 0.2756120848470893 0.2517477464833461 0.06788263713231801 1.1213895677355326 -0.8553086655244937 0.46714791309325326 -0.6223482916336499 -0.08384411147220552 -0.4630340039108249 0.38152433658047735 0.9014962514552807 -0.5341656786271148 -1.4604176709383292 -0.31505510288955363 -1.4371490936685567 0.38751446881380713
לחזק 1.0948923087196845 -2.7022467718083867 1.4115664677890187 2.5008075375726557 -0.9287687962930554 0.6568906533807477 -0.5590591974844872 -0.018861476390956453 -0.03873905948989885 -0.7817615223199483 0.9462953973496839 0.7653408048166545 -1.8614596936085623 -0.3733772926904292 -2.0071081108739772 -0.42592400069665215 0.5687438344918561 1.0067434894540215 2.424448458008093 0.29298150595717004 -0.39616473043831935 0.6120365317430425 -0.0544988091543161 1.0975033296907497 -0.5704306320377143 0.041559986361333345 0.3173345602348087 1.302722326918585 -0.9008631954101981
תצפית 4.455918740815816 1.4310514009410864 2.233040267087945 -2.86577682386422 3.251984837215368 0.40686026801093006 1.0838500537968172 3.3132655534797886 2.931310752521463 -2.1581017380508323 1.1815283154109475 -1.873353472130029 0.2412040561151565 1.1902692268136577 1.1316530673355238 1.6986058699024293 0.2515158992069532 0.09095709279714675 0.7126287212349625 -1.06279479962138 0.2049884218957361 -0.16941011700576003 1.2948335801875182 -2.207816142199475 0.05719242140655785 -0.66971614046612 0.3246665838266097 0.3203192781657868 -0.6311794516597237
לזמר -0.7092105562180205 3.8738666727068236 -2.1744493553647684 1.7141027425205786 -1.2074940221072445 -0.6304122480046116 -2.8448667368467806 0.5411531854370676 1.525758262900674 -0.2347748893284372 -1.2229342579235105 2.563367987203706 2.2636454457056945 -1.26876991121543 -2.1057719953736767 2.08718559844012 -0.6772664061092547 0.852450399897143 -0.3211903747269579 -0.7844989591716982 -1.3325424420757428 -0.014647856724342708 -0.15486745435444765 0.574636405489769 -0.7383959635669938 1.2678287706360825 1.6303177922871332 0.024154355742053508 0.057052322111352985
להחשיב -0.8461054329394463 -0.9807910586426697 -2.176807190991466 0.5259623773562802 -1.1079559052078847 0.060297619053333834 0.7342273165199455 -0.16316620231524517 0.8645829465938965 -1.3794660773257397 -1.5645488312246258 -1.2149612397905871 0.6324373579872316 -1.0428107112362957 -0.3907993519097989 0.7688305301300167 -0.1214237618776495 0.6194521785650243 -0.14531085602030788 -0.866226058570088 -0.47264541298073304 -0.7027895673357577 -0.34167879713572835 0.15058256136576603 0.5186943833786989 -1.1717061714285335 -0.3836593300735794 0.15860106043840577 -0.4531293095553445
לגבור -0.4353640217569012 -2.696120270863374 1.0791126108726334 0.6553566992843874 0.09416404224698742 -0.08483029685238737 -0.504055842017662 -0.540549640020179 -0.7981065589854149 1.7113002773867088 0.21983461509951746 0.7357381305787664 -0.5163422286042457 -0.3324980030470927 0.9435093364186976 1.028398709126837 0.866527765770622 1.3489640650710133 0.804071506307208 0.13964719270790307 1.3975050310495607 0.4349356537338075 -0.8057582501827008 0.8183978201914517 -0.5171271210175407 -0.8278393671489523 1.1293490740507346 -0.03846124090805247 -1.568293520994887
להיזכר -0.8092574624114588 -1.2691703994914123 -2.3291642367391416 -1.0741332203306737 0.03620786904751344 -0.191412451779481 -0.7774640657904667 0.3640980087857619 0.7817271096606443 -0.39825613033966856 -0.34137623608046386 0.7366403199737056 0.3886831898558327 1.0464708795388453 0.4807729937724393 0.46919190635008295 1.166814465054665 -0.05790223414055413 -0.7655964052228422 -0.029015397603156586 -1.5778592117460026 -0.10148403555499777 0.19793945305757554 0.1328806924465908 -0.46693308758723195 0.21614064142046024 1.1450620596559076 -0.3581081065859423 0.34338670849540565
מספר 7.664785380963344 1.8046888108594248 -1.648641547270535 2.5332438548155722 -0.8413524884317243 2.897865948553078 1.617697332183349 -0.0016904909656907602 -0.17507127645998383 0.5881465669843086 0.8240826343777727 0.852219375729225 0.6012195960255381 0.30395924820918585 1.6226905703214758 -1.5212245058211176 0.9274175839989547 1.3295066059160823 -0.693455754365186 1.0621040019358965 0.611788441457503 0.3563681504811313 -1.032588689310362 0.014657349219277721 0.3353892119189484 0.5225814349915237 0.4221013557016675 0.34734824915902884 -0.9703858500201853
להזמין -0.03397529082064114 -0.8273873573152862 -0.4578425626466645 1.8379739545762621 -0.45879486179694157 -0.3188719992591153 0.18026318086229623 0.7223421205919718 -0.08724955793722348 0.4273516202520608 -2.0622432316641834 0.9536688843164953 1.1932577891913603 1.2603218582015059 1.1661506591459916 -0.9329836394779406 -1.7875945543281995 -0.6114163226450341 0.40095457931859146 -0.8075075787752626 -0.6080578055971407 -0.19284430780385747 -0.02164218959928919 -0.8955587201397168 -0.01322456732815738 -0.32970283198551004 -0.026800012228265543 -0.5823564638912279 0.45103636499755234
לספר 3.363807305635419 2.7936956071936776 -2.0701709117962768 1.33368841298946 -3.721980533208714 -1.9361486288437946 -2.7728961715563187 0.9133625656072917 1.2075527780164883 2.072460596160191 -0.03640594355948175 1.2960355234851526 -1.6558773332734498 1.2485819661754967 3.125760118787534 1.7522264591273806 0.6438997163869064 -2.7056920952268437 0.34786855049063076 0.8960821004796984 -0.25799241973977816 0.05534335045783639 -0.4158419540942078 0.32252890203598367 -0.023862587207763013 0.840878538660728 0.13794163202666493 2.2481903782460195 -0.6159547115627896
לסמר -1.755532021164801 1.9396506849725759 1.3953874823289667 -0.22301874541164676 1.4052103259514133 -0.3659214490110063 -0.27171667467806637 -0.5890226150881439 0.38358906195174325 -2.2669418497698923 1.2481369784690288 -1.436575244954868 0.46117393790515565 0.03852183804331535 -0.9581183408482287 1.4921620233939876 -0.32875599164452696 -0.2365875731603776 -0.021598504668434215 0.1705584440147543 -0.2422455191268975 0.7103149707548189 -0.8259142013530903 -0.6187398108576635 0.23545943249591816 -0.2112911287467009 -0.7346460372428189 -0.6443775443807982 -0.7101799801631445
למלכד -1.551546018868192 1.0177093525042358 0.5407396038565683 0.8164980476703682 0.41720038385143926 -0.1960635187782264 0.9664655563551179 -0.040274906008171414 -0.3491040888449827 -0.7289205467410766 0.6405531023270762 -0.6969576334750953 0.03654161933363213 0.4824859316523313 -0.25783971550712237 0.9193637311190943 -0.12842226563047737 0.022135166828759514 0.39615485814123524 0.5227327230086981 -0.03254716400136271 0.3962245823005505 0.2965964124416891 0.3596474019942769 -0.7810378647245775 0.08385833516122372 -0.24650630889132064 0.631354071004734 -0.7887494691288565
לתזמר -1.7154876058345934 0.9616486941651174 0.24678959830690197 0.6952385901876391 -0.8933314386638189 -1.5257692157234042 1.3549327993286613 -1.1496640711352475 0.4959836235744157 0.9727051073072777 -0.09510873266958832 -0.33396752808900587 0.38151076687243574 0.09549611157809687 0.5628158302653316 -0.19151319926240062 -0.3054687388241209 0.2814604595858107 -0.7807785823511306 -0.353559137496352 0.1279007731424098 0.021925041816308173 1.266149486777866 -0.24135762576096154 0.3367554642819432 1.5394289093027522 0.10970325255771186 0.008822534538825902 -0.0812558237333682
אזרחים 4.029833071200703 -0.002901827702456655 1.5947115747702334 0.5880836874912336 -2.4532427399930095 7.017219883965123 0.9063444460332235 1.4884581407199935 -4.159948249838359 -1.4023458816730874 0.20227327891910915 1.6394862753667994 2.410928319794359 -0.06388849626496698 -0.49660963112894335 -0.24350319965040998 0.43157423574748516 1.081431334756687 -1.2224589005224888 1.5358708546946478 -0.030569551352376143 0.5108431410309336 0.6578228695649847 0.9161958677550214 1.2071153826308412 -1.6221346428939323 -0.532170907782029 -0.21915920550413048 0.05546452275459419
להתחשב 0.91372667816226 -2.6335841631178813 -1.6734574908940567 -2.403672490772411 -0.1586328493615349 1.7667133965488928 -0.09526319284002924 -0.5397852771417808 0.29928118443453977 -1.3880763409687857 -0.5628678225963563 -0.8600068910713164 -0.272225875502161 -0.2710270594291502 -0.7257309418241488 0.9338240532581544 1.571810866967027 -0.554323626038468 0.09842065195962654 -0.7757375594582904 0.22602278965083308 1.1888953504744146 -1.0195620830693115 1.2626903860953393 -0.7814071087192574 -0.11358722691378399 0.7790023846371045 -0.4226990903380824 0.7557161801958573
להעתיק -0.6140066755690394 -1.3663848027029142 -0.17898702540559355 2.8727306446114023 0.7948470906720075 -0.5915972859235088 0.5062891183125322 0.10919347012043866 1.4107540222438577 -0.37627480421590737 -0.240375726771599 -1.6407127417803862 0.6304713459324196 1.3050875503917436 -0.05961937143250312 -0.39072087760676844 -0.042459051098694474 -1.7103100477050361 -0.6224194641580993 -0.45776694282614583 -0.022672185083454265 0.22794055672363311 -0.7264014980601713 -0.057532190103485245 0.3637872301410402 -1.100573713223465 -0.33021767094591686 1.1123988065609174 -0.6158843197664587
להפקיד -1.5855955832480293 -0.6068189962959198 1.8522217027741068 0.263406463051213 -0.9098143567537025 -0.7176607885614633 0.15405950444130617 -0.6988530629248975 -1.8070749046309533 1.4329467080966714 -2.506630560690855 -0.4523982439743572 -0.33436025603657993 1.0349261968819716 0.9631272708765962 -1.9123012045345602 0.4707870503777879 -0.07568216365657772 -0.3368092020175437 0.830174485862655 1.488897046799829 0.28905260755147144 -0.07188941227283535 -0.712167310027941 0.16446162929896652 -0.3584807791668747 1.1451173631031126 -0.2148376455919423 -0.21639311776358255
למסגר -1.852983135733971 -0.3712045648440343 0.3513274870401467 1.448057204306274 -0.09493035649948828 -1.3402114798059814 -0.007291269890645505 -0.4666785572272101 -0.8951933631207573 -0.7985247334482303 1.4420180889922165 -0.22020171609003236 -0.542123555389184 2.133580246680827 0.866692093114698 0.16334604854339702 0.8724793276960233 -0.8954964322336888 -0.5650780579016211 0.1504228045548412 -0.851862638641702 0.3905028234539129 1.5948794780790327 0.6976094899451812 0.36910340867412883 -0.708620210222278 0.576508216959249 -0.7539559870885214 0.6623541054063445
לפקוד -1.7955316753671737 -1.1616420979742472 -1.9598639027589702 1.0348905159651614 0.6942286403119184 3.047986273829031 1.1756034216501186 2.1561630371251996 0.49613595533858074 -0.0502452912068376 -1.5798598159903836 0.03283319286196142 -0.3096082874203975 0.8469348619098485 -0.04971644841861876 -0.35199272940547827 -0.3093353287339254 -0.4123369125935815 0.4022636115794258 -0.40720057169668805 -0.808360834592019 -0.20803918734493626 0.1738607399480574 0.15273705307993865 -0.3509039585423774 -0.11477535566677556 -0.5160383942377043 1.1190536514657445 -1.7045342539276138
להיספר -3.117851258262722 0.9457647876153312 -1.7973934180674285 -1.2260828153655199 -0.18075906681493367 1.728941150614358 0.8735007359649384 0.3292929026443063 -0.1075362993781089 0.3523288216165342 1.4243116574482213 -0.5493527741712372 0.45750006613211064 0.5229360207007615 0.18490106602114315 0.19294785477514004 -0.01878274915821545 0.8048586829419218 -0.09072181637166497 0.13861020047702252 1.4799019868447834 0.30496446813380795 0.26346354086967594 0.09051127547449582 1.3790133412050098 -0.050850969487949704 1.2666383955818814 1.3599245782302551 -0.1873849571325873
להיחקר -1.5564076149543769 -0.5543587097419655 -1.0547171289251462 -2.478987885691242 1.1017452907218768 0.7464473599771463 0.4305961677226083 1.516689004566621 0.11239252518668623 1.551670743399998 -0.6781747113864145 0.015484955219899442 -1.0488913525469594 0.7805447340651167 -0.6558317911632768 -0.6401661118526778 -0.3875635600934214 -0.308597919554991 -0.6099495999678589 0.7629144049432037 1.7679671350826185 -0.31236878276617147 0.41192533368407785 -0.3629506801322304 -1.0965075983028487 0.5596950166518613 0.2632861241907996 -0.5553582695060337 0.9554901881389174
תגמולים 0.5443126719285236 2.0165332907964335 3.0274321017533943 -3.261310365945403 -2.573093819201945 0.954335907588269 -0.043538137147603 -3.6729743020302044 -0.266079551986495 0.33535241756611084 -0.44627639077171005 0.7569121780504277 0.5769706148846816 1.8355126259956516 0.8571231943309423 -0.7383683068937179 -1.1702439461932808 -1.412710285247629 -0.609132840513428 -0.645092133087203 0.3263014097608395 -0.8752631042632089 0.9635543149126328 -0.031787449327484084 -1.5018015163015004 -1.4583622426182132 -0.5650391588218019 0.18011030625042046 0.21722464197314253
להבחין 3.9837228898513533 -1.715920115710433 -2.790041931788424 -2.808521646900332 1.1756390171725797 0.788021444866968 -0.26125849786788496 1.2584274972327456 1.6282805568172607 -2.5183223246902933 1.4877870285876746 -0.6302129116485217 -0.44858430041591957 -2.139806871256819 1.094681586113266 0.4819077108242123 1.1272179273900167 0.0627225619951919 0.061857922775559564 0.3093233056059686 0.4355141925296108 1.8246429214034507 0.04716092152357164 -0.5270019981369145 -0.6212975477330906 -0.02872836604542658 -0.5657616344194798 -0.4944944507797321 0.6627978825210441
לתרגל -1.5457832079899085 -0.450490612400915 -1.0522970652133248 0.414776562149532 0.05486656485858001 -0.7712530982697438 1.7149748566692118 -1.0254191203489211 0.6193135896133303 0.1407842511967684 -0.40382159217835506 1.4755572805059418 -0.634409358092106 0.08562683862901832 -1.23309832271702 -0.06870754639132082 -0.783660765641289 -0.2689328991942269 0.7201722306011032 1.2250572396627395 -1.3931578466183867 -1.522258008822412 -0.060806464346643246 -0.3398074396776751 0.4809943415698692 -0.06181297492295979 -1.6888245685757834 -0.4141781010135531 0.3230531558429452
לסקרן -2.3610347373111256 -1.2916557038601815 0.8895364500720074 -0.005781994869721699 -0.36372436199380553 -1.0010173777930342 -0.008820039076004909 -0.6841495585045319 -1.4223864027727176 -0.29518452703383724 -0.5830387211523081 1.4617257727319335 -0.01098041400559474 0.25768275442784405 -0.19344461096677734 0.8113595230242148 -0.42517040828696856 0.2594464318545346 -0.18065772111633369 0.48613607888968785 -0.6462559114812283 1.067532913691869 0.4635396899586557 -0.3756807673413938 -0.343438270476852 -0.8087853623107822 0.33036583399020125 0.21173977138125402 -1.6161974614803756
להיסקר -2.1894570002277924 0.5214337955725766 -0.5110797676303473 -0.7596560398121629 0.9956761120769525 0.03666235065720166 -1.0597683403720666 0.9178395407145661 -0.8183964644087789 0.7041973262770572 0.6783740833468693 -0.6956731917093848 0.34700741851357125 0.25003576973238284 0.38595119896345065 0.812253691034284 0.8032645825178975 -0.5116489299361452 -0.11613100366909168 -0.9044837313860276 0.9000796772925933 0.788325576540174 0.6670494408691844 0.22320240336190617 1.0110192700171658 -1.1679389224343608 -0.4078292526159856 0.07667336733696115 0.016638998364808824
לצפות 2.752684846854415 -2.2443582737369874 -2.8838382323203002 -1.2591565946436698 1.179574502485945 1.4886196757165637 -0.8677153603843031 2.6763980623349557 0.7549342143947346 -0.5611149000529669 0.3601275836952742 0.4846103843130057 0.8327235593190481 0.43209581232607064 1.3467287017433958 0.20146150845409386 0.5180418656903977 -0.5733940561731108 -0.10296467488807436 -0.4014779362684694 1.0572459904764737 0.07321672926716713 0.7444976601926836 -1.1707426716011071 -0.9875591852231389 -0.3262246834593275 0.04815699513970797 -1.4416631093780419 0.45007246166314496
לתצפת -0.8747613647739881 -1.061844448514838 2.3920154646078693 -1.8837760963370056 0.4963564223267399 -0.3681551006867323 0.787964220186525 1.4301118348012256 1.1894479395865496 0.2878744002536604 -1.6945092345506314 0.03253756403965299 1.7393963424691932 -0.6166669254455472 0.29923311187575097 0.25963397405031097 1.0596117991297371 -1.3687672524700283 -0.5929960744573433 -0.07653009798474428 1.4030758791449065 -0.4628823398753819 0.4879779323473076 -0.06513380292610904 -1.1053684592440705 0.8641210395371276 0.256008611510403 1.0796262982285154 0.20084318996384182
להיקלט -1.4951569965442928 -1.5804891716922145 -1.3185904088371811 -1.8007838930577753 1.3935668508186125 2.0501705115697857 -1.5083032095476356 0.03717716767781338 -0.2695607103503762 -0.3144173173333129 -0.06956825678917222 0.15071439866727823 0.8360652658315457 -0.9885870174080503 -0.91140800747924 -0.15874460519367092 -1.2003929775080635 -1.3230087193993818 0.21361705158803046 1.521263315190352 0.40445768453139264 -0.9655712066462923 0.1783709374319681 1.6928455779226803 1.9113839647821684 0.11160606152086631 -0.5276090850613764 -0.5154916378481575 0.1931192408423088
לאבטח -0.6553027226244407 -1.562872351620685 3.842309713686215 0.4039290365341966 0.20558905947978734 0.5854213146416016 1.0265584001924726 0.6488531997492166 1.5898490702959256 0.6786958568678607 0.8541693542599968 -0.1598391466925887 0.877377828746718 -0.06644760660511942 -0.981122177731737 -0.6471557795103617 0.556969429019111 -1.046273898208116 -0.43370271066786603 -0.08299169787867862 -0.6521451587754914 -0.5111655207415758 0.005860143527204451 0.5884600601547965 -0.9254685819950216 -0.2880664577289636 0.34483244909751365 -0.42515103186321856 0.15938796515036027
להיבחן -0.9848740341383672 -0.0660050325491221 -0.9824773207427405 -1.0245125405470026 0.4772501841041243 -0.4509610548804518 -1.8210086433011203 -0.8116052883940353 2.555689708940952 1.7211734804099796 -0.7473409555062519 0.4303220301721398 0.47454550793062045 0.21493001475133094 0.6608465057339893 -0.4093447356601729 -1.5036322294777553 -0.7635294822130445 0.5639393532429029 -0.14538186050440288 1.4558072466117542 0.2149645460020812 -0.4082875251728895 -0.7529689336010524 0.6214999192924121 1.177507299891951 0.5930806084562052 -0.8499855967538342 -0.5503777447925873
לצלחת -1.4094689803394536 2.147558868725522 1.3390313856881906 -0.923716874631057 1.3248957576352254 0.06046047558806011 -0.210633990321997 -0.45591954694195236 0.4362769878204551 -1.2845859348083146 1.4203252409013443 0.0829105291222211 1.4368686249255878 -0.9875911652884889 1.0872750488551999 -0.2849412144217903 -0.7253938978257906 0.1009734022625209 0.22032147847719827 -1.278892196542653 0.5285999817431235 -0.10545729699197194 0.8922944629578968 0.2410418004822579 -0.0853821038324104 -0.3707787265586132 1.1000031275785138 0.1535431384634655 -2.086218958820924
לתגמל -1.3130103369652049 -1.6595962006027971 0.9065232122528021 0.07150648113029373 0.4432507801446722 0.983923399145385 0.7413345408190061 -0.4929950483255211 -0.7057272223513559 -1.6561917197352065 -1.8019057716761544 0.8224419696014323 -0.2779790171213042 -0.16078198763234997 -1.1984982384519494 -0.2634338842235945 -0.5563303696975733 1.4325277509348837 -0.41612526358604707 0.32441192135548236 0.5053038927512294 -0.4504789833757528 0.7715739835150004 -0.8919982763616369 -0.17795141210323778 -0.40141735676038104 -0.17535908967926292 -0.43896340788966554 -1.1035166188264165
לרגל 1.74390677328745 4.085767027786572 -1.6466008768023443 3.1426532776754423 -2.6997115969847667 1.9769262714778966 -0.8081176444974691 3.3396418292110073 0.731173988194718 -0.5433436525628307 0.4927276700665357 0.10518907498034868 1.4772533284741343 2.7052502548581003 -0.16760026753225246 -0.28584933391116446 -1.0259267028688759 -0.1790717065778982 2.99480911657112 2.442219210006752 0.20395115715887652 -0.27803931345251537 0.730878360603896 0.138509896442371 -0.9302273937577359 -0.12124813130068701 -0.881328954068682 -0.02226516122059327 0.39091901324168
לתפקד -0.2916382631964914 -2.7905678796132083 -0.9724574102379284 -1.0964270189933196 2.1464141027469723 1.7516557968425273 -2.633515952172902 -1.2830917795228138 0.9999255105158119 1.6175554080693229 0.8070352526551635 -1.5562022760498337 -0.8697433728782401 0.0038225542647576673 -0.5694235187857866 -1.2465290220204102 -0.5209743204155896 1.3558714452223655 -0.4324876548675321 -0.46026116097874314 -0.6764176344440459 -1.0501033608794552 0.7902831688540247 0.3350463304805286 0.021052370564455324 -0.16438192484437594 0.16323067997736052 0.27140947128059295 -0.07851478369753097
להסגיר -0.17669661720293792 -2.1855131199643947 2.9519969768993137 1.1135459976961721 -2.3859828993279986 0.17475535481371476 -1.389443117147007 1.2031497866581828 -2.3104347066929423 0.45549615086773027 -1.4562810720323123 0.35044861426163115 1.1151918426508733 1.0575049194724468 0.04689040615694752 -0.4523491331511393 1.500587176139949 -0.39058839079344726 -0.5250871076309367 -1.0521473727405382 -0.9719533905623896 0.14720601431348204 -1.5441479099018283 -0.8833281835510706 -0.8808164593199411 -0.3277696978026144 -0.06757387322107299 -0.23451697248452205 -0.34983728136814896
למסמך 0.36753493404771204 3.427328704787151 0.8908175218291399 0.6893910787911265 -2.517224695140262 -2.1880592428627526 -1.1158335446755145 0.7420591666397259 0.9815533400100923 -0.7097944681900668 -0.4831091749704793 -1.4638377894380286 0.08249323207880589 -0.6918526534288448 -1.4790204803190918 0.07011259707890558 0.7548735256182014 0.3338057544688045 -0.8610726475699454 0.045731412566883685 0.6334544065936627 0.20126969629000413 1.2164743723087343 1.4955600369889805 0.12609930193760485 -0.47611853127884085 0.7510445274173484 -0.25102314784739166 -0.4173093902993757
לפקד 0.5142411245940075 0.42761045923164165 3.9211013151943486 -0.7423665736439744 0.756130250653213 1.7398103421498152 -2.143574937321243 0.5520832779200616 3.164295908241685 5.930814158615176 1.6264367271921372 -0.14537213001267132 0.3250225795905571 -1.9907074375995426 -0.43184428995101676 -0.5637952465656995 2.0109529369696593 1.149849013271633 -0.2195558283129943 -0.5354464400219091 -1.09220248915446 -0.1354022152626337 0.9379930400580653 -1.3302262657891526 1.092893479481322 0.34109788946451397 -0.9144069881722893 -0.25920187050042914 -0.328848198584295
לסקר 1.0010568498597967 1.9053510890138465 -0.0481353393098976 -0.786589890940111 -0.2043135009644881 -0.3945550180422125 0.23814637440445596 2.6970883210763033 0.32051417209442734 3.242911009077653 0.27359737779438537 2.1118351327497917 -0.2768393286087907 0.893082372772612 -2.1473233697318 2.341822682456656 0.8406601377167746 -0.9397628551460774 0.06698821495268872 0.16510954825574423 2.755263856291558 -1.7262235827786188 -1.0054613594970638 0.04647488673283327 -0.39201869255925864 -1.7901062149261033 -1.5760542776328674 -0.07999564182145147 -0.48546458430488226
למסמר -2.192818569501697 1.4108034451517861 0.7485253552334846 0.6206334426053443 0.7080943628149206 -1.2943786534351844 -0.1657804577598196 0.3686224945229255 1.0417098493803791 -0.9203804264021606 0.9092216293502231 -0.2116492076219653 -0.3669628078755075 -1.5575570640592646 -0.5015483390554073 -0.3315672019993105 0.7420157293279457 -0.12799350662467632 0.31098511993218536 0.3358580633900916 0.40260535488901206 1.0232363575593602 0.2952334134257992 0.8611213674368541 -0.07906595296850757 -0.14171821164869608 0.9119033044738782 -0.7867543515920465 -1.5461514487686556
לבטח -1.561438301577432 -0.7354631245944306 -0.8844437023941131 -0.6394288665257801 -1.494793312082633 1.5882959442940474 -0.30177739007104415 -0.6595576661345857 -0.02562269059398863 -0.6290681685820252 -2.1680286977404415 -0.009599419799413733 -0.6505254379748904 -0.17651850781914938 0.18674329492452013 0.9338504120821213 0.009676037925501908 0.5030819722036343 -1.5379646569576384 -0.9261161917416239 0.10798868532618107 -1.703359584632258 -0.15791902298563826 0.43202077735638683 -0.06880274290632506 0.31996225315243665 -0.2864344145564329 -0.03936074329149251 -0.23113251370082724
למגדר 0.29473826440058215 2.1759056561633368 -1.0555515554568493 -2.3619726981881066 -1.6954578213691498 -2.00208948311708 -2.533854695917732 1.669920997123381 0.6399348082263538 -0.42707100593746633 2.1728478818453554 1.478745956812833 -2.3466519535017447 -2.196839626472004 -1.771845648196534 -2.296742999614354 -1.2784873674923996 -0.015384991895046373 -0.970105079136997 -0.5513204267494499 -0.4258016971435636 0.49159549886759546 -0.24406553763034936 0.06610691530301688 1.066000576857965 -1.1766134508983328 -0.5280028007357311 -1.0210926260408697 -0.8586312442425972
להגביר 1.7640769163690464 -2.668295881490595 0.7452306264201021 1.0754523371549312 -0.19944299652626932 -0.014709285408366425 0.17851845824887544 -0.747729771413694 -0.44785991801041486 -0.8581449313387198 1.0273510115409161 0.13418607431200524 -0.18357880714359073 0.13051920626029204 -1.97227035217795 0.9696282823657629 -1.6931376968380902 1.3539166175614623 2.122729848633387 -0.2567433053648189 -0.2612079948223284 1.6094840500903778 -0.6301773951364913 1.250991545193982 -1.144795061126973 0.40803183605277443 -0.6705330500525902 -0.3350559745198451 0.2104802010554039
להתרגל -1.8926615226827017 -1.101503515038627 -1.091725205140999 -0.3791937687718761 -0.07060179412655339 -0.6235863858221531 -3.5455572126959525 -0.9573211873386684 1.2507362542233458 0.47832541908737797 2.5437382310153938 -0.3031714563209962 -0.5860978085279529 1.5241982615882632 0.4132239948336665 0.13697918107229684 -0.41620282337516307 -0.6148539003926452 -0.024568657220558104 -0.2613326623934992 0.3258009358118509 0.3260895113288426 1.5037109474707977 0.8294869020585597 0.5395535166769034 -0.9499408888445392 -0.48867597623933084 0.5518204643641555 0.129664141137916
תמריצים 0.27854915268033714 1.0647476133872664 1.6144063522842595 -0.9984046342275965 -1.2940451862389233 -0.4812162051468891 0.44893542173426737 -2.690893273529505 -2.3737928607423244 -0.38948521735734615 0.17945907046924067 1.317506676326016 0.3504112080016697 1.2038121521007235 -1.3445120109261552 -1.3330237613813456 -1.647394932581492 -1.239399424698936 1.2678336247645794 -1.76648406764542 1.8656292796277907 1.4124855407460757 0.14582381525459856 -0.7441690413535202 -0.5657307582701168 -0.16221928672828098 -0.7748840019971723 0.3320965378192601 0.033452844272622
אזכרות -1.1999362802592108 4.460097624966052 -1.6662249364272936 -0.9795100110922568 0.8745331031968455 0.6908837939157164 1.6208996571814105 -0.7202191893706992 0.7931260368245195 0.5146749138932267 -0.9335358371314842 -1.1151418725818574 0.05174334892496761 2.614345810659186 -0.645087344085662 -1.3533012150209303 3.691827587687869 1.5616361091741757 1.6984615379246353 0.06055681856707538 -0.01847690045672875 -0.5640887976931533 -0.21015989926911652 -0.4771321184534471 1.71901997503779 0.10006581703353519 0.06108037100167773 -0.12437889816913979 0.05801649313382078
להתפקד -2.093490098913859 1.2305018254325406 0.43210925943614853 1.1058620967949178 1.1012083683231773 -0.348366661572122 -2.7845385540396617 0.33137880843246253 0.7864305497902623 -1.3001813804011209 -0.9120032098922969 0.5450828852598761 0.5292352528201093 -0.3848354670520105 -0.46219754739614477 -0.5383347455854058 -0.3662041927137448 -0.50268969481949 -1.1442315607346794 -0.08684128708848265 1.0906845912508158 2.1126325885293227 0.33900945085344286 0.11099208427911592 0.18487017449854387 -0.30026519930648843 -0.4923048316691091 0.69193299705439 0.5435485553259318
לזמן 2.254107803068702 0.32329339354613584 -0.43495813804704775 1.0661957125735348 -1.80750931132687 1.0869942177326442 -2.1566622876678823 -0.591869678134574 0.38950140772881675 2.508957422619665 1.955371426584909 -0.8594067934657932 0.37048519625912396 -0.12255779914569956 0.9406717559978753 -1.2233583091441211 -0.21550191135041113 0.35410003420258895 -0.7399459410004136 1.1962943936916788 -0.05603407358127481 -0.5501393483845526 0.7318622942678831 -0.13634239662513242 -1.0814164998466613 1.4655931961504531 -0.9663753994244144 0.37194365398082957 0.02389048906427925
לתקלט -4.457413682825369 2.1812391148884522 -3.902038596315179 1.2145939394578016 3.218049881449974 2.0193246431069394 0.14764056067216022 0.3313442281346075 -1.1643639211947794 0.17702213438683864 0.6729616350000214 0.1696708249651717 -1.4309877889074032 -0.4668642962304183 -1.0042796344502776 -0.5896987047433264 -1.0347877428999797 -0.17264971065697232 -1.9950489441505845 1.6669616871302437 -1.9974138786157947 -0.7592545830539886 -0.2885842600136261 -0.3783404499091554 -0.7562902364642831 0.9696880065996103 -1.4467281893117139 0.6839874322917002 -1.910953769138414
לסקור -0.907472612122669 -0.6240064402043292 1.1109583325369914 0.6586639045799797 -0.11017448152606334 -0.6260496569646729 1.9396833285415886 0.709334228082508 0.08047176499552819 0.4544335359834783 0.425777348485657 -0.15246916985080136 -0.8102303902900346 0.3091745977276563 0.3892576059381684 -0.22471644668986304 0.4412405351849493 -1.0661413556971986 -1.3910803739056319 -0.36282978218576795 1.3618318464238564 -1.338266859457802 -0.46273291226520014 -0.6543797867765642 0.0570655450692047 -0.8641209429144636 0.31945913094224515 0.4645858021018082 -0.8920940251351127
להתקשר 0.058218443184598644 -1.4926676008618696 0.4759295899437324 -0.380877638743391 -0.2712984730703965 -1.2878300890962817 -2.5297920628207944 0.42364087345987145 -0.4619129786576657 -0.7221306932194048 -0.205518878902638 0.16530310231371398 0.6966420206255297 1.3368672017118817 0.3898773067871278 -2.0895429126669964 -0.38326217503775306 -0.6928405632112173 0.19036190836424363 -1.546460544226283 -1.4487617674822457 -1.4666130174303758 -1.3721740115617875 -0.925513127762744 -0.21543732587548295 0.7624925083376161 0.4328622555779889 -0.6158661845479259 0.27821396071930393
לשכון -2.16776931203875 0.32439849634413137 -0.35342641587097173 -1.320979959132037 1.6997983053794727 0.8543353061560115 -0.633535143707352 -0.14853348996896573 1.337196153929169 -0.4554672073199742 0.09121657438012465 -0.15294234539670729 -1.8264801001159532 0.8133333412532775 -0.1434587810236007 -1.0844634679929228 1.4973977999981876 0.21273338515765336 -0.11944956721153142 0.5030852692554829 0.3665167596810844 -1.038302227758454 -1.531212242032705 0.08471793790160578 0.9104340053942973 1.0199420469010017 -0.8923445986971866 0.7410170134009499 -0.5072599464618353
להצליח -0.17815789276800945 -3.9113493858783284 -2.3504084740888604 -0.09151044172042756 0.935429120299751 0.16404319256398162 -1.7298071875934613 -2.053006279221326 -0.5940460704917755 0.41657244321981146 0.6620953578689508 1.0493560581884633 -0.5445847132491085 0.017100320902104265 0.1993640131020801 2.355532013648464 -0.13627902291432553 0.142353190361162 0.48725136784570783 0.7840977448728991 1.0143089202921758 -0.023117780977681007 0.42019268210271693 -0.3792933528648518 -0.13024262614422374 0.45956321464750755 1.3407147854289365 -0.8992416073496436 -0.7735736025194911
לספור -1.5209136132801018 -1.5453658711168339 -2.3608230266038337 1.1332483041189045 -1.0445050967060505 1.8450201617849153 2.6733622584211347 -1.5381659640226304 -0.4709918235162434 0.9656173001410828 -0.23964727577529973 -2.1465158887127505 0.6529534257359996 -1.834529593787365 1.404613433375669 0.2698087738107493 -0.280861708477329 -0.935400648994179 1.109077004021903 1.2590217356196136 -0.9023173764214497 0.02222606678888821 -0.2029492254991727 -0.3170885295979744 0.8304125392900931 0.47738131003674555 1.0248132910256555 -1.106688094538127 0.13963017961194163
משכון -1.1397288082229156 3.0050048326314416 2.303110070359246 -0.09490450302376452 -2.869641930591483 -0.06640954205908739 -1.1024613999901423 -0.49700879502148426 -0.43276700041959937 -1.4260384663365486 -2.756693988291884 -2.6707889993437273 -2.729520620798491 -1.4458180923290187 2.2045386064489203 -0.9669200290017517 -0.9401000622091913 1.6312745189201179 0.09864137351154721 0.4872072881808435 -0.5987398886892706 1.1640366434278866 -0.4127043042898315 -0.08029612847893788 0.04248747720737294 0.9868389554088485 -0.9346256968128684 -0.7176745524541234 -0.7137963799457607
לאבחן 1.507899827846603 -2.5087061379988196 -2.436077738623615 -2.977888225209444 1.1264286455133479 -2.1497120109505006 2.9112357166280436 0.6209026071247751 0.432782975569554 0.8596491041804395 0.43751619583896667 0.39467959641257644 0.8389658299853531 0.45406363236551145 -0.10479491028984261 0.9821471712146398 -1.7067320446020182 1.5559488017433714 -0.53120935086999 1.2287226248787564 -0.7041817390656582 1.6782544611371053 -2.146958214906384 0.0679248788424829 0.6293090616798124 -0.6717333712082301 -0.6784465959309146 -1.4377674297175969 -1.1246870170340728
לאזכר -1.9806509848421718 0.3107350588371594 -0.6601071044265201 1.0522620292339484 -0.3459214155083764 -1.25850774775315 1.3399651479231827 0.4702959324462429 0.8325549534096981 0.5596730294441565 -1.2076915284174674 0.44426680845212396 -0.7995108035137731 -0.928856902440764 -0.5983932177799202 -0.12240996097092274 0.5956477921501834 -0.15751061110211154 0.4855244161677479 0.08114067524559297 -0.8114126799898735 0.5838667238224422 0.8267330162682333 0.5063151476336203 0.7399250467608767 -0.3151737630125407 0.5744881727482726 -0.752355862489168 -0.074682036562798
להיקשר -0.6135499701968375 -1.2893968275693133 -0.3265226553642572 0.5137303089044776 1.5041539604434955 -2.4845075176892273 -1.7347254253087465 0.03624102127249108 0.7477545366299866 -2.0220807182547023 1.90781874086586 -0.24970170064560218 1.6629008710592508 1.3345345767795818 0.5190175865378565 -1.5471294953288008 0.4262993566185677 1.8281152060735424 0.1783330208017067 -1.0385921646930087 -0.5548572830188467 -1.18059035621151 -1.0793865036196768 -0.5869750257974224 0.057138056079159005 -1.6671443904365568 -0.39125017108276 -0.7122288348286531 -0.16364199951153108
להתרפק -1.8836298413020296 1.4078275414031178 1.126981711000609 -2.085719130728153 0.3113479514917338 -0.7885890050433855 0.1866930022309859 1.0108449617564392 -0.7418728029297502 -0.013318700945778484 -1.0206188989206926 -0.7773539774937767 -0.6118790334731953 -0.7818180280710636 -0.41512586006438845 0.97447106947987 0.1754605914971863 -0.1526141300971175 0.024447277101174357 0.8696113203742434 -0.11551167771330384 -0.6049019235264449 0.1799093941509742 0.17138326600789477 -0.7468541078479292 -0.5336838561793252 -0.40160583831374835 0.6611726255204448 0.6556492779189886
לאזרח 1.0677662447056058 1.390893171273156 1.2023111237210389 -0.9548507151174561 -1.7852550463834973 -0.04992419839306562 -2.839018354041789 0.14450954690304832 -1.0463051119430369 -0.40772034847171695 -2.1703776651523508 -0.5563003311822414 1.9317566615926691 -2.18111903678706 -3.1086179024924436 0.5268770943214947 0.7653014082443163 -0.4428804737419526 -1.131124925827662 0.27527537641275834 -0.3333648390849808 -1.4423982512037672 0.31185733685214834 0.5270633397965375 -0.190826953924061 0.5230292159729737 0.5204296693605988 -0.4829364379717043 -0.35637018265514386
אבטחה 4.502968378029748 1.0831838082069634 3.4162130903785837 -2.411863589423409 3.297338071728186 0.5888237095667755 -0.05841213792662086 -0.2861657701200406 -1.0643515824913619 0.12926192584220383 -1.4850551349002854 -1.6495056113964144 -0.5054736685151286 1.3854662808490879 -0.06864175918779913 -0.5402487413418781 -0.2980560950416924 0.9568607543241339 0.4124215303650174 -0.9551932285518301 -1.4157051678855235 -0.21517655971258035 0.7896659223919498 -0.10130338484417058 0.616088728401026 0.5862655586392626 0.4674107867734525 -0.35160243622529624 -0.22685520448284205
אבחנות 0.2812422041262971 1.709415262272227 -0.29378708556248967 -2.5976196683366894 -0.5118624080492026 -1.6445452492318295 2.6592091764980226 -0.873893807266315 0.017284097994928204 1.2887633575661432 0.2790082286857661 1.5325103193821183 0.568737868419951 0.4930753820468921 0.28613848201228786 -1.4890778676095555 0.12723962365122238 1.6118836913863666 1.358121757492532 -1.2437809920018024 -0.3181561142650596 0.7471708685537441 -2.289495734914664 0.23463431711496788 2.50164421452925 0.6339197764204686 0.017466491791296106 1.8242612311140458 0.20996364808489307
לגדר 0.5739271762850721 0.9641105545956671 3.0987446183939102 0.7681033723252363 -0.16935516484436458 2.01939718963011 0.5994966754045815 3.0698132824951405 -0.37338090177767413 -3.7954816534585554 2.6006228011429853 -1.7265454911763345 0.12621434926998226 0.3837727198816946 0.4175691989895208 0.7388380956945538 -0.19831568568517913 -1.1725783235705414 -1.9228786465969085 -0.9956201969288658 -0.6072311882207407 0.2420702792403019 -1.2552211002210452 0.3198668984182957 -0.4370853482830971 0.27654132508723805 1.366724010666119 -0.548734963176147 1.105220174592508
להרגיל -1.9517372581855876 -1.902775667090256 1.2407471936528225 -0.010024420768224676 -0.06764469852025772 -1.032948670762839 0.3706534299497809 0.026303213837934117 1.1720152077484305 -0.33873561355814963 -0.7266759349217515 1.7979845181780965 0.04812506474312791 -0.25638562299324685 -0.1902166763083977 -0.8553618606354698 -0.3523514246107687 -0.6728649320129844 1.0003326201151466 0.9252746871963319 0.34753525530435836 -0.15373661223109214 0.5912835169068175 -0.800834149053576 -0.04002099686735273 0.6048510865214736 -0.16731631950905948 0.7770798534111665 -0.3209285594645082
תחזוקה 2.9230609393416307 2.3052194026801143 2.9968196161675213 -2.7004657834268357 1.494077527024076 1.5044721295114665 0.09828761311013212 -3.553810750698003 1.4285545542850822 0.9704793164569572 -0.14938405343957198 -2.408149750118018 0.7080893652139417 2.7542762043029776 -0.19444593500628196 2.31478109359508 -1.636434579763655 -0.03858939533814033 -1.1630862029757818 0.048176806323353034 -1.9696741026382356 0.34201972784381734 0.8257698695411726 0.06584526351532072 0.5818280164027562 0.18498520554595582 -1.4356667492712682 0.3801647347270053 0.33472138808172147
לגמול -0.9104109994525165 0.8294412177898158 -0.0013162386986429106 -1.5864244410175043 -2.098326451832129 -1.572090531800943 -1.8596547951921678 -1.4997121640356075 -0.8766855578557424 -0.8218733815815704 -0.35951396169731276 0.2433937031164111 1.2169674503135122 2.0195372411837997 0.9416825384172499 1.7224695745959744 0.0138850951003554 0.8090100199656477 1.9858034513238567 1.0893835290206448 1.0256289082374752 -1.4409150885664332 -0.7119106202952985 -0.7922845280711911 0.44436318171491856 0.12145911411840439 0.2418792608155194 -1.2771414702812964 -0.7019453071550568
לקלוט 1.137176985964564 -2.3232424946050974 0.12106498387051012 1.3463924800476557 1.1371924583048143 0.46711758911417633 -0.2251381039037371 0.665618806427006 -0.18029449375798354 -0.9753803190579007 0.7196650769976809 0.9117771740063557 2.405671861895849 -0.08072783454097877 0.44446078394821287 0.06258622625997422 -0.9061429106948101 -0.058756523803860046 0.6873168463203542 -0.11255256524328278 0.7298709702474726 0.1716668707769056 1.4051684411132577 0.5682737925418291 2.069801500813742 1.0933477582908735 -0.3602030993609864 -0.6968458587037774 0.853023835289528
למרפק -2.2372955927297276 2.5654142822650567 2.334935377654352 -1.0557855355090662 0.7792914235396446 0.10630410442824326 0.6568994911027533 1.3078649752506482 -0.34931979563640775 -0.3605951770096402 1.5059319542857619 -0.5685434756727661 0.27013246995240553 -0.9990494371612606 1.6014981941127615 -0.15406148928046015 -1.0056787825374887 -0.20447677254885557 0.050455768370689685 0.5064489189894917 -0.3967036034145419 0.5429378528738706 -1.4783747280229091 -0.804320300256536 -2.2018361362251992 -0.16648797514009636 0.45805790947618136 -0.468199090051274 0.2386946958275819
ללכוד 0.7417764393171603 -3.167460217147597 2.0828273023214168 1.5525492072356473 0.02098102035011127 -0.5041187090542931 0.9382403355092296 0.9275714175045241 -0.752392641377531 0.5811700486104557 0.2184097858872389 1.9862337165348751 0.8071787594916494 -0.4991591444152635 1.998781354891766 -0.30434985422535377 0.7060766384591991 0.8905226367047296 -1.2425152863948765 0.6461645012043995 -1.309858653644547 -0.46589930711289446 1.4759465293441738 -1.0577067577365975 -0.435417365601584 0.10568384689700554 -0.1488070451666914 -0.0642073731193214 -0.4764957983259859
לחשוב 2.4773437386274297 -3.2872689315259658 -3.2143470084156007 -0.08491792927741676 -1.080261516489131 -0.8344577233603218 -1.3343179033328245 1.1210656455503392 -0.0639331782950534 -0.6345669855414617 0.13145126621951359 -0.11542740654722479 -0.914421843141959 -0.5898175192794798 0.5739011957545486 2.117981482582611 -0.030139534581780383 0.3508469011418311 -0.8917411730411413 -0.6549118692691114 -0.2583864855171227 -0.03220069418926865 0.38542275459151043 -0.5480270931640963 0.5817955169870115 -0.8901398963133021 -0.6245334860907255 0.6138498700127077 -0.06747702457793447
להתאזרח -2.081772458623541 0.10978885074333435 0.6114398402501111 -0.771697555956454 0.4367419348597839 0.39287122066433633 -0.577892278670832 -0.1602648889283703 -0.6404252949448556 -0.22763923181865187 -1.4732015416197621 0.055250377333003545 2.63017529004181 -0.49413387552116333 -1.24456396105545 -0.570681222968764 0.7750145740262432 -0.46483770932458834 -0.454386722989315 1.1664246215114822 0.6050319950400971 0.5334563332246051 -1.8262581967810076 0.1446832388424304 0.759863788999789 0.669317070779791 0.3214876929855644 0.728468749072908 1.8191788057301377
