לרגל 1.7439067732874518 4.085767027786557 -1.6466008768023406 3.1426532776754277 -2.699711596984831 1.976926271477836 -0.8081176444975345 3.339641829210995 0.7311739881946882 -0.5433436525628246 0.49272767006653667 0.10518907498034928 1.4772533284741587 2.705250254858085 -0.1676002675322499 -0.28584933391116457 -1.0259267028689205
לחזק 1.0948923087196853 -2.702246771808398 1.411566467789016 2.5008075375726344 -0.9287687962930864 0.656890653380725 -0.5590591974844831 -0.018861476390966716 -0.03873905948991029 -0.7817615223199474 0.9462953973496947 0.7653408048166256 -1.8614596936085577 -0.3733772926904247 -2.007108110873983 -0.4259240006966196 0.5687438344918221
להיספר -3.1178512582627174 0.9457647876153386 -1.7973934180674291 -1.226082815365506 -0.18075906681494863 1.7289411506143624 0.8735007359649316 0.32929290264432126 -0.10753629937810083 0.35232882161654466 1.4243116574482089 -0.5493527741712404 0.4575000661321211 0.522936020700758 0.1849010660211503 0.19294785477514118 -0.018782749158209187
מרפק -1.4133825874185422 2.0904476184075107 1.1029924896482897 -0.8075905802551591 0.5055639147025693 0.33256721891081026 1.1451544820007484 2.3715002413792585 1.1391214166002406 0.7106647494147448 -2.3209416502743663 0.07064555066138503 0.4618566124619826 -1.8711980611063987 3.3299585192160763 0.9295109891242712 -1.3123124551932985
תקשורת 6.61740701655625 0.7883519330134731 0.12727270624500672 -2.1285913528566165 4.543827937657623 -0.5314041162818892 -0.5472264340922522 0.843178429477161 -3.533338480139232 -1.5155959464129622 -0.6605019171322525 -0.19827760735354938 -1.1603231174910753 -0.37755417617104 -2.8288173703046953 -0.14466062762566947 -1.5501913092819117
למגדר 0.29473826440058054 2.1759056561633447 -1.0555515554568569 -2.3619726981881093 -1.6954578213691105 -2.0020894831171048 -2.5338546959177584 1.6699209971233298 0.6399348082263457 -0.42707100593745734 2.1728478818453705 1.4787459568128025 -2.3466519535017607 -2.1968396264719945 -1.7718456481965463 -2.2967429996143482 -1.2784873674923714
לחשב 3.977792690194205 -2.4386536386455364 -0.8967292373384994 0.669994791060325 -1.8801437763143796 -1.3047759292089163 3.0270115746999746 -2.2939137047933373 2.1800110263516754 -0.5694941921769368 0.3591355692721089 -1.4767876054234412 1.7640298758593365 -2.719653464562941 0.7932898548811002 -0.9110572108388247 -0.2427138910851646
לסקור -0.9074726121226687 -0.6240064402043307 1.110958332536998 0.6586639045799665 -0.11017448152606266 -0.6260496569646652 1.9396833285415789 0.7093342280825407 0.08047176499553975 0.45443353598347985 0.4257773484856501 -0.1524691698507974 -0.8102303902900305 0.30917459772766676 0.38925760593815517 -0.22471644668986573 0.4412405351849631
לתפקד -0.29163826319648956 -2.7905678796132034 -0.9724574102379346 -1.0964270189932914 2.1464141027469608 1.751655796842567 -2.633515952172891 -1.2830917795228638 0.9999255105158402 1.6175554080692929 0.8070352526551456 -1.556202276049848 -0.8697433728782404 0.0038225542647676077 -0.5694235187857932 -1.2465290220204057 -0.52097432041556
להשכין -1.4526367720843933 -0.9275403990158212 0.9803835743261623 0.9301732672892361 -1.158676140316637 0.22340777911746804 0.28157537019015927 -0.8115834529199331 -0.24269886879508382 -2.683909197718239 1.4999319470738088 1.0938983991507185 -1.3264593045496575 0.32395632780342687 -0.7474251696377991 1.6026232048003792 3.1622823841581127
מחשב 6.509539049518445 -0.34589220540863375 -1.235657549418165 -1.438797806306129 4.510810723457984 -3.860033603658608 0.5789542899329353 -0.8942656840248078 -1.2393354853291978 0.7537452371756906 -2.064217145178923 -0.18917322904483205 0.7404996777482512 0.1394961924063014 0.21470212584302542 -0.9521460218434098 0.21263454783927835
לתעתק -1.244050247015504 0.45535583756129644 -0.7318250143016205 0.21778445715285583 -0.8494491548101315 -2.8418756840923782 0.8541218460557838 0.20137593407536947 0.910000797006731 -0.31686087272309615 -1.6208325109290005 0.7739089470992211 -0.0835133545707684 0.03213607643930325 0.5446874171136694 -0.6703520630326671 -0.004805392405267964
למסגר -1.8529831357339719 -0.3712045648440406 0.35132748704014416 1.4480572043062618 -0.09493035649947448 -1.340211479805988 -0.007291269890622696 -0.46667855722720886 -0.8951933631207719 -0.7985247334482137 1.4420180889922136 -0.22020171609003422 -0.5421235553891705 2.133580246680837 0.8666920931146785 0.1633460485433989 0.87247932769602
למספר 5.023399085293187 2.7341532867885974 -1.377470755375647 0.43352439201835835 -1.2758823727861044 0.9223985186634365 -0.552839491908082 -1.2382921687635764 -0.34370902801925496 -0.16430467560379833 1.3340971248104625 1.3949271825239715 2.0316573033658876 -0.1211946669613073 0.9547314896574282 -1.6476478184567367 0.4938924993676247
תמריצים 0.27854915268033986 1.0647476133872669 1.6144063522842518 -0.998404634227605 -1.2940451862389049 -0.48121620514690505 0.44893542173433104 -2.6908932735295137 -2.373792860742315 -0.3894852173573121 0.179459070469255 1.3175066763260046 0.35041120800167586 1.2038121521007166 -1.3445120109261652 -1.333023761381345 -1.647394932581507
תחזוקה 2.923060939341636 2.3052194026801263 2.9968196161675116 -2.700465783426809 1.4940775270240831 1.5044721295115047 0.09828761311017818 -3.553810750698006 1.428554554285111 0.9704793164569093 -0.14938405343959316 -2.4081497501180165 0.7080893652139637 2.7542762043029616 -0.19444593500623214 2.3147810935950655 -1.6364345797636775
אזכרות -1.1999362802592088 4.460097624966066 -1.666224936427291 -0.9795100110922402 0.8745331031968477 0.6908837939157374 1.62089965718142 -0.7202191893706608 0.7931260368245309 0.514674913893215 -0.9335358371315001 -1.1151418725818496 0.05174334892499256 2.6143458106591977 -0.6450873440857263 -1.3533012150208554 3.6918275876878743
להשתכן -3.579187470233064 -0.34005277228887837 -1.0158777795800522 -0.2094186756514322 1.3866735795048113 2.1661759038502035 -0.976982301869956 0.18957851799976935 1.1263950398293585 -1.2064743030270628 -1.5837806889072448 0.13922878366421446 0.477174417387601 2.957357859107981 -0.6491739738528363 -0.6334728608518825 0.7593129741827138
לשכן -0.3340322161421535 -1.5447543054617947 1.4833937950482203 1.5382106101788602 -0.8568514549902242 0.5694513804868178 0.8305680289907322 -0.13745496134858176 1.7013803674962258 -2.073815071523155 -1.4798958663413462 1.0495040991644369 0.07774319422598149 0.8038591758850123 0.7807690871198929 -0.6228438440071397 0.45992963862471736
להתרגל -1.8926615226827024 -1.1015035150386274 -1.0917252051410087 -0.3791937687718698 -0.07060179412653354 -0.6235863858221595 -3.54555721269594 -0.9573211873387323 1.2507362542233489 0.47832541908735926 2.543738231015389 -0.30317145632101056 -0.5860978085279479 1.5241982615882679 0.41322399483366806 0.13697918107228516 -0.41620282337516634
לסקר 1.0010568498597983 1.9053510890138523 -0.048135339309890154 -0.7865898909401039 -0.20431350096448914 -0.39455501804220544 0.23814637440439473 2.697088321076286 0.3205141720944779 3.2429110090776705 0.27359737779438525 2.1118351327497886 -0.27683932860879923 0.8930823727725976 -2.1473233697317844 2.341822682456693 0.8406601377167215
להתחזק -2.1950942644450384 -1.5392407160084267 -0.05042477196287266 0.61621556328123 0.8589042134743393 1.0296715975356134 -0.7279998817929948 -0.6003997423622321 -0.61514596188932 -0.02339418950284707 1.2952161685934402 -0.45572716896422333 -1.2086717939467901 -0.5185770249177719 -0.66201627767029 -0.7452470235319131 -1.2540328849623494
להיקשר -0.6135499701968415 -1.2893968275693148 -0.3265226553642545 0.5137303089044777 1.504153960443531 -2.48450751768922 -1.7347254253087414 0.036241021272483985 0.7477545366299523 -2.0220807182547023 1.9078187408658633 -0.24970170064559893 1.662900871059255 1.33453457677958 0.519017586537825 -1.547129495328792 0.42629935661860835
ללכוד 0.7417764393171581 -3.1674602171476045 2.0828273023214234 1.5525492072356304 0.020981020350098988 -0.5041187090542949 0.9382403355092157 0.9275714175045323 -0.7523926413775223 0.5811700486104733 0.2184097858872452 1.9862337165348887 0.8071787594916315 -0.49915914441526327 1.9987813548917481 -0.30434985422537525 0.7060766384592343
לפקד 0.5142411245940073 0.42761045923164415 3.921101315194346 -0.7423665736439573 0.7561302506531782 1.7398103421498468 -2.1435749373212896 0.552083277919994 3.1642959082417863 5.930814158615124 1.6264367271921072 -0.1453721300126876 0.3250225795905314 -1.9907074375995375 -0.43184428995102675 -0.5637952465656689 2.010952936969682
תגבורת 0.5619579986714069 0.19108352085394414 5.348251486041486 0.6806776363981192 -0.9762215278496172 0.4587246263529974 -1.419222495365202 0.5680986789273127 -0.061484337153878486 1.0761889934130768 1.8670772688762476 0.7173024567655886 3.468285143266611 -1.5528179944741192 0.36200739707185803 1.5927311269927267 -1.7205693948561578
להסתקרן -1.4632853502343481 1.3366038446456654 -0.7850949482126779 -0.8804686794402954 0.019834568405894728 -0.4234366111212113 -0.44140022078542396 -0.39428934491881085 -0.422610985200464 0.5394224870625263 -0.1681511933043574 -0.9076616465282555 -0.1028616141535162 0.11008074153173864 0.01507975111626273 1.0888540549039203 -0.0040458598798950324
להיקלט -1.4951569965442917 -1.5804891716922065 -1.3185904088371825 -1.80078389305775 1.3935668508185977 2.0501705115698043 -1.508303209547644 0.03717716767779141 -0.2695607103503855 -0.31441731733331424 -0.06956825678917407 0.15071439866728154 0.8360652658315352 -0.9885870174080628 -0.9114080074792287 -0.15874460519368225 -1.200392977508081
לזרוח -1.8319194108762233 1.2070485920853975 -0.19052717943052352 -0.36899868544364145 1.3249825904068604 -0.7947320377771103 -1.076981367498488 0.5247277553380411 -0.6458640725325535 -0.3489813245062943 2.0762225625632085 -1.236864292150174 -2.0480190212320344 -1.7184840196416307 1.026120318964299 -0.47768903872680374 -0.07347427600048635
לתחקר -1.9492612564554763 -0.0636567045921246 -0.45812815325098977 -0.6927578778111638 -0.5479632547355338 -0.16571997275514028 1.0155336101915242 0.5812795994307507 -1.158269470043396 1.0216130723257202 -0.3464073508346829 1.1355208759877646 -0.3329655779601756 0.8956812795150918 -1.3333765855379383 -0.39960390442531324 -0.9005476296440192
מלכודת 0.4280218646181951 1.1979693065417165 2.057881959658422 0.027320917276429404 -0.2670673385807541 -1.0938730945795407 0.23317910011699497 -1.6775020277144015 -0.5205365593338999 -0.5609578593586734 0.23489754607352295 0.7033858212467313 -0.6974160751181973 0.5314236883554656 2.880926122079855 2.112341317124382 -0.9187160904184221
להתלכד -2.7829340217303695 0.5651807885835634 1.978224696139127 1.3814003783786928 0.5826151476786313 -0.03465514831182245 -0.13254302546568464 0.9133935219348654 0.4293907517369993 -0.9467762664449728 1.2742251379635114 0.7943266850306826 -1.3068377838252705 -0.21878186530140237 1.553662834961782 -1.220969443980131 0.018615615715735893
להבטיח 2.866977552197399 -3.451988777752385 1.6537962500385184 0.32777472893340287 -2.464886313819791 0.7882777790490313 -0.8837657718647749 -2.3136004112780877 -0.23341350786457205 0.5385440138714686 -0.3085838480428881 -1.4549259551546794 -0.4750898578104822 0.6111252008619635 -1.3940176421465906 0.6819968513680472 0.06601070474441499
להרגיל -1.9517372581855894 -1.902775667090259 1.240747193652824 -0.010024420768234824 -0.06764469852024649 -1.032948670762841 0.37065342994977535 0.026303213837944036 1.1720152077484265 -0.33873561355817117 -0.7266759349217414 1.7979845181780947 0.048125064743119145 -0.25638562299324696 -0.19021667630840514 -0.8553618606354724 -0.35235142461077823
להתפקד -2.09349009891386 1.2305018254325395 0.4321092594361502 1.105862096794927 1.1012083683231695 -0.3483666615721229 -2.784538554039675 0.3313788084324269 0.7864305497902306 -1.300181380401139 -0.912003209892276 0.5450828852598799 0.5292352528200998 -0.38483546705201566 -0.4621975473961473 -0.5383347455854035 -0.3662041927137352
להסתמך 0.8516409277596189 -2.745533054204517 0.1941328104571867 -0.9017455328488142 -0.45970754772824174 0.45784197273275645 -0.2701282679774332 -0.3653402974508501 -0.5881894930225723 1.214701349558458 -1.0264543784851252 -0.7558124471104031 -0.4767790304213753 -1.1988103135724726 -0.14056155193162995 0.5341007533805279 -0.21903732279483584
מגדרים -1.3879383795049673 3.3881189698112757 0.1846271025250682 -2.4932523837267477 -1.9990218136627016 1.5528348128585465 1.5261355633538793 -2.022078421174313 -2.368563805837714 -1.5601669235083913 2.3587600453724358 1.7426618565077392 -3.2447874519748776 -1.370471336049562 2.5085856544408216 1.1602104000212767 -0.4504393732535737
צלחות -0.7572560966271844 0.9542605486892032 -0.7072871108998511 -0.1677220528804825 3.2274282745179987 -1.5160980766179548 3.8718201541594834 0.02738273439040989 -1.6977189091195484 -0.3447723696453354 -1.7398730316554782 -0.3275676843164844 1.3580091157911796 -0.8541439901257023 0.885473766866925 0.39735677272695014 1.5212050666535362
לתזמר -1.7154876058345936 0.9616486941651109 0.24678959830690297 0.6952385901876246 -0.8933314386637925 -1.5257692157234104 1.3549327993286895 -1.1496640711352313 0.49598362357443965 0.9727051073072666 -0.09510873266959684 -0.3339675280890078 0.38151076687243524 0.09549611157809963 0.5628158302653362 -0.19151319926241084 -0.3054687388240987
להזדמן -2.258711497923313 0.4294629716038903 -0.22078549474295545 -0.4077596630024046 1.2970918196086874 -0.9985426202490025 -1.4047115921584123 0.6362705966852266 -0.40194615248154986 -0.08900485723972228 0.4344015938602971 -0.007415510807142529 0.6655153567499099 -0.17076472607484244 0.3946511651036191 -0.24138289774520819 0.6675413274336259
אזרחים 4.029833071200701 -0.0029018277024619576 1.5947115747702278 0.5880836874912276 -2.453242739993132 7.0172198839650735 0.9063444460331976 1.4884581407199975 -4.159948249838387 -1.402345881673019 0.20227327891913024 1.639486275366818 2.4109283197943534 -0.06388849626498448 -0.49660963112896567 -0.24350319965039902 0.4315742357474961
להסתפר -2.9403008467475553 0.8437526477328133 -1.6309227805728452 0.1445833135576834 -1.0814058170189844 1.4398732615161733 -1.0344239394087584 0.05893172676683753 0.5610024592762332 0.8674148546436158 -1.7674498045389342 -0.8402353391773356 -0.43847217937602667 -1.5994896838799653 1.3245769212427787 -0.9614155144323626 -0.5222811253902427
לזמר -0.7092105562180199 3.8738666727068147 -2.174449355364764 1.7141027425205808 -1.2074940221072485 -0.6304122480046519 -2.844866736846798 0.5411531854370217 1.5257582629006643 -0.234774889328457 -1.2229342579234839 2.563367987203712 2.2636454457056705 -1.2687699112154642 -2.1057719953736354 2.087185598440136 -0.6772664061092827
לתזמן -0.9466202240945136 -0.6887209799507011 1.224851869085255 -0.38639236751061684 -0.042563319840493684 -0.3913496191859105 2.646282166893979 -1.1329399268772682 1.1786011271964167 0.3005472052672003 -0.17048188170448125 -0.10657277197002914 0.018336300063997897 0.9837076439547199 -0.35528326038813685 -1.164405959299536 0.9402572451312516
להיסגר -2.5225722839517255 -0.45901318399264623 -0.612684124660348 0.6737260594425126 0.711389057103021 0.8174934442614763 -0.24968112341997312 1.2418531269710025 -1.6093598864160739 1.661805792730232 0.9042250146685086 -2.0769476346754723 -0.7216363709805796 1.0964824120964043 0.9381824666189996 0.09199296987366723 -1.738134292857143
להסמיך -1.6567628036272382 -0.38660346762107034 0.8064990525096377 -0.6627922312927276 -0.22455317339641986 0.6664151133109402 0.7220222075819461 1.320354036822855 0.382205753393262 1.1317526705881462 -3.130448264783868 1.5875714912873289 0.8966206211025635 -1.5141637214843928 -0.46729151800599783 -1.0273961086592704 -2.6128668669010633
להבחין 3.983722889851355 -1.7159201157104143 -2.790041931788426 -2.8085216469003154 1.1756390171725848 0.7880214448669806 -0.2612584978679166 1.2584274972327711 1.6282805568172147 -2.518322324690309 1.48778702858768 -0.6302129116485252 -0.448584300415925 -2.139806871256811 1.0946815861132764 0.4819077108242064 1.1272179273900196
משכון -1.1397288082229164 3.0050048326314425 2.3031100703592307 -0.09490450302378496 -2.8696419305914875 -0.06640954205912875 -1.10246139999013 -0.49700879502150835 -0.4327670004196384 -1.4260384663365633 -2.7566939882918864 -2.670788999343726 -2.7295206207984806 -1.4458180923289923 2.204538606448926 -0.9669200290017878 -0.9401000622091451
להחזיק 1.7357882295137155 -2.990664768814479 1.2009057244021384 0.26547759344777444 0.30025426874166244 2.9124777484257707 -2.226805063082149 -0.17638490623855888 -0.8154723786970962 0.27632679439275776 -1.750426249466071 -1.8299086904517585 -0.332281621205996 -1.753951535660081 0.7885074550910403 -0.3193779175812806 0.8982201149531781
להילכד -1.5884138312144342 -1.3618843085508276 1.1557089706506434 -1.9175408588356506 1.036810868243842 1.0166497555073837 -0.5767337927167218 -0.03208022065941677 -1.9407805862733951 0.17510776597338404 -0.026227606085648954 -0.25879064227620424 0.11962953713595557 -0.5238547837565353 1.3084573578555962 -0.03929284882803279 -0.35457858197010744
להזמין -0.03397529082064042 -0.8273873573152952 -0.4578425626466584 1.837973954576251 -0.45879486179695317 -0.3188719992591326 0.18026318086228407 0.7223421205919731 -0.08724955793722294 0.4273516202520618 -2.0622432316641794 0.9536688843165135 1.193257789191361 1.2603218582014974 1.1661506591459838 -0.9329836394779766 -1.7875945543281833
לספור -1.5209136132801009 -1.5453658711168419 -2.360823026603832 1.1332483041188939 -1.0445050967060705 1.8450201617849082 2.673362258421171 -1.5381659640225873 -0.4709918235162167 0.9656173001410795 -0.23964727577531844 -2.146515888712744 0.6529534257360041 -1.8345295937873631 1.4046134333756897 0.26980877381071827 -0.28086170847733416
לאזכר -1.980650984842175 0.31073505883715413 -0.6601071044265141 1.0522620292339377 -0.34592141550836675 -1.258507747753154 1.3399651479231787 0.47029593244626494 0.8325549534097092 0.5596730294441464 -1.207691528417468 0.44426680845211947 -0.7995108035137789 -0.928856902440761 -0.5983932177799267 -0.12240996097090692 0.5956477921501749
להמריץ -2.5446181777943924 -1.9387847740511173 1.5174463300232461 1.14920555193337 -0.29889107668527004 -1.5887993292820342 0.9733671466320674 -0.9898631393700218 -0.6259038587480225 0.33946246353779774 0.4557886678835716 0.5859912694940269 -0.9498209450412489 -0.4969380682277404 -1.5394726190399177 -0.30405116596600945 -1.5327599839268098
לבחון 3.2233952761430227 -2.902791261404642 -0.6011875124830104 0.36314534565998524 -1.5710562117622182 -0.668657469691809 1.8824160897517277 0.5586326604659064 0.9645607315245686 0.34608791023511565 0.3488168724770939 0.028607776368883557 -1.2186910034180156 1.0671251779240944 -1.4630679660675692 -0.12076674345834618 -1.5212806001779078
תגמולים 0.5443126719285243 2.0165332907964397 3.0274321017533747 -3.261310365945411 -2.5730938192019304 0.9543359075882445 -0.0435381371475424 -3.6729743020302226 -0.26607955198647765 0.3353524175660944 -0.44627639077171244 0.7569121780504351 0.5769706148846838 1.835512625995654 0.8571231943309295 -0.7383683068937417 -1.170243946193269
להיסקר -2.189457000227792 0.5214337955725848 -0.5110797676303449 -0.759656039812152 0.9956761120769557 0.036662350657217097 -1.0597683403720852 0.9178395407145405 -0.8183964644087741 0.7041973262770795 0.6783740833468679 -0.6956731917093831 0.3470074185135714 0.2500357697323801 0.3859511989634502 0.8122536910342869 0.8032645825178939
להגביר 1.7640769163690497 -2.6682958814906055 0.7452306264201082 1.0754523371549203 -0.19944299652627298 -0.014709285408375235 0.17851845824889426 -0.7477297714136938 -0.44785991801041825 -0.858144931338711 1.0273510115409275 0.13418607431198015 -0.1835788071435815 0.1305192062602729 -1.9722703521779128 0.9696282823657731 -1.693137696838131
לגדר 0.5739271762850704 0.9641105545956697 3.098744618393904 0.7681033723252284 -0.1693551648444264 2.0193971896300966 0.5994966754045247 3.0698132824951734 -0.3733809017777458 -3.7954816534585385 2.600622801142989 -1.7265454911763274 0.12621434926999625 0.3837727198816953 0.4175691989895292 0.7388380956945424 -0.19831568568517668
תצפית 4.455918740815815 1.4310514009411146 2.2330402670879486 -2.865776823864197 3.2519848372153617 0.40686026801098196 1.0838500537967313 3.3132655534798445 2.9313107525214193 -2.1581017380508634 1.1815283154109384 -1.8733534721300205 0.24120405611517404 1.1902692268136577 1.1316530673355498 1.6986058699024214 0.25151589920694434
תעתיקים -1.0930077355889039 2.7671059608940762 0.4696769079358546 -0.9795017271271473 -1.0212353577211222 -1.0705733578048207 0.5842783598251678 -1.7750476248058062 -0.3838686775958345 -0.9471079645173401 0.500455073477296 1.0233822240012709 0.6528233362374369 0.35376195493512064 0.6097887602350192 -1.436064615288409 0.25236425267468915
מספר 7.664785380963342 1.804688810859411 -1.648641547270524 2.5332438548155753 -0.8413524884317818 2.8978659485530596 1.617697332183353 -0.0016904909656603557 -0.17507127645996698 0.5881465669843117 0.8240826343777692 0.8522193757292305 0.60121959602554 0.3039592482091947 1.62269057032144 -1.5212245058211211 0.9274175839989988
לתמרץ -2.3239291215759965 -0.9509773624086011 1.748247651760336 1.1633327187657727 -0.1095497186244765 -1.1600454016844337 2.6572249798819443 -0.011212706677744893 -0.4177506383361688 -2.0535227902478637 -0.49548671858460325 1.4722039288240079 -0.5558752076383212 -0.7717511457281233 -0.5598135089389417 0.18315926114191491 -1.2182453690409523
לספר 3.363807305635422 2.7936956071936683 -2.0701709117962825 1.3336884129894422 -3.721980533208692 -1.936148628843852 -2.7728961715563423 0.9133625656072255 1.2075527780165054 2.0724605961601767 -0.03640594355948054 1.296035523485155 -1.6558773332734513 1.2485819661755122 3.1257601187875417 1.7522264591273335 0.6438997163868756
לבטח -1.5614383015774325 -0.7354631245944263 -0.8844437023941187 -0.639428866525781 -1.4947933120826467 1.5882959442940243 -0.30177739007103677 -0.659557666134589 -0.025622690594002122 -0.6290681685820405 -2.168028697740444 -0.009599419799399937 -0.6505254379748926 -0.17651850781914646 0.1867432949245265 0.9338504120821188 0.00967603792551997
לזכור 1.5789604738102658 -1.9640696020343198 -2.740955879473453 -0.5571718589950064 -0.9930924946119166 -0.5739669587531028 0.287268073870201 -0.008154653017747267 0.44363869892184865 0.17402313101022399 -0.5059108009477581 -0.33105167332585467 -0.5823346029533274 0.5696710706128489 1.1767442230031793 1.378481419602855 1.1457515159280691
להיפקד -2.5126823017103725 1.9582588766469684 -0.44703728218931976 -2.4988970424847015 -1.0252271035426737 0.8214266539903854 -1.364786443185436 -1.076178482306835 -1.342335606222475 -1.2916332390466503 0.4421457470105038 1.7888009891730994 0.26313301756763946 -1.2095122545629609 -0.7960293886227578 0.10708050392561846 2.0853739484232965
להעתיק -0.6140066755690429 -1.3663848027029302 -0.1789870254055887 2.872730644611391 0.7948470906719982 -0.5915972859235035 0.5062891183125298 0.1091934701204643 1.4107540222438502 -0.37627480421593473 -0.24037572677160562 -1.6407127417803817 0.6304713459324333 1.3050875503917434 -0.05961937143250968 -0.39072087760676727 -0.04245905109869498
תקליטים 1.999920513102068 4.303600468834567 -1.0474687545960886 7.156063184191678 3.5218107545337096 0.24695311260296177 -1.6273683606775948 -2.3670876773190157 -4.739138503706966 -0.17112798419013028 -1.125050158390964 -1.722716972780511 0.15763654808477157 -2.4510911310986985 0.0018873640261808735 1.039856108632193 0.9300994125315942
לאבטח -0.6553027226244413 -1.5628723516206904 3.842309713686215 0.4039290365341859 0.20558905947976452 0.5854213146416102 1.0265584001924468 0.6488531997492331 1.5898490702959427 0.6786958568678343 0.8541693542599862 -0.15983914669259017 0.8773778287467124 -0.06644760660512065 -0.9811221777317507 -0.6471557795103424 0.5569694290191062
להגדיר 4.655683466549104 -1.797949730030544 -1.103311190020432 0.7210094353913371 -1.0638566257170945 -1.113226905057147 1.9260214726135991 -1.7032496174682135 2.6797878057981266 -2.071901356153624 -0.36335468468148285 -0.7299873159551377 -1.0683602077019434 -2.1071339424377196 -0.1933155779021441 -0.5399124907321716 -0.1787895044340078
לאבחן 1.5078998278466043 -2.50870613799881 -2.436077738623607 -2.9778882252094414 1.1264286455134105 -2.1497120109504664 2.911235716628035 0.6209026071248308 0.43278297556958145 0.8596491041804513 0.43751619583896223 0.3946795964125764 0.8389658299853587 0.45406363236549196 -0.10479491028980104 0.9821471712146302 -1.70673204460202
לחקור 3.4809150840781005 -2.7108036809966807 0.016512149069875706 0.6570447671107622 -1.1615905297652251 -0.8085805438239181 1.5260529572342212 2.1943747591365845 -0.3483411328339624 1.7109137779656256 1.2786288451581864 1.8929375681741754 -1.0377335844688775 0.9093797560866085 -0.5071801881953287 -1.4845720670635425 -0.030328744772940872
לקלוט 1.1371769859645626 -2.3232424946051013 0.12106498387051814 1.346392480047655 1.1371924583047943 0.4671175891141792 -0.2251381039037501 0.6656188064270104 -0.18029449375799786 -0.9753803190578947 0.7196650769976849 0.9117771740063614 2.4056718618958417 -0.08072783454099454 0.44446078394821914 0.06258622625995636 -0.906142910694806
לתצפת -0.8747613647739898 -1.0618444485148295 2.392015464607869 -1.8837760963370098 0.4963564223267465 -0.3681551006867153 0.7879642201864802 1.4301118348012414 1.1894479395865458 0.287874400253641 -1.6945092345506292 0.03253756403967452 1.7393963424691827 -0.6166669254455495 0.2992331118757472 0.2596339740503172 1.0596117991297356
לסקרן -2.361034737311128 -1.2916557038601821 0.8895364500720035 -0.0057819948697316595 -0.36372436199378816 -1.001017377793041 -0.008820039075985837 -0.6841495585045406 -1.4223864027727209 -0.2951845270338155 -0.5830387211522926 1.4617257727319328 -0.010980414005597705 0.25768275442783445 -0.19344461096676616 0.8113595230242113 -0.4251704082869821
להיבחן -0.984874034138365 -0.06600503254911823 -0.9824773207427436 -1.024512540546989 0.47725018410414366 -0.4509610548804411 -1.8210086433011226 -0.8116052883940679 2.5556897089409802 1.7211734804099292 -0.7473409555062588 0.43032203017214055 0.47454550793061767 0.21493001475132914 0.6608465057340042 -0.4093447356601977 -1.5036322294777495
להסתגר -2.841404776051308 -1.051548537004668 -0.3143300183018172 0.06585241141876311 1.4293188942307755 2.712982973176642 0.18103949845396952 1.5431158789042878 0.6447380934720287 -0.21224999040181272 -0.49854836341242825 -0.7994305537988146 -1.4856398460230689 1.2542044983211296 0.5341891239204682 -1.21205088960852 0.7721550485491109
לקשור 0.4171641962098088 -2.036648830907272 -0.3054254632881831 1.2506246290000533 -0.6024059164766403 -1.1251113194243263 0.9790372749582744 0.46144202220194946 -0.9584949368886939 -1.5434143378489549 0.40890530389040247 0.7899287743329511 -0.6138477827997301 -0.5885237231677882 0.016494165624404575 -0.9791916366660809 0.9324382297987831
לסמוך 1.081556404501047 -2.8665606173924423 -0.4834860219647562 -0.7332546745868127 -1.6391668832609072 0.8489041572829374 -0.7112329655899926 -0.1400220376578464 0.10346964718938671 0.6628440522169862 -2.36512569674857 -0.37545412741731804 0.1594247659405834 -0.7892369332328354 1.2760260735286912 1.8010134151331607 0.7137290166184257
למסמך 0.36753493404771254 3.427328704787147 0.8908175218291365 0.6893910787911024 -2.517224695140236 -2.1880592428627965 -1.1158335446755263 0.7420591666397038 0.9815533400100745 -0.7097944681900784 -0.48310917497048 -1.4638377894380348 0.08249323207880334 -0.6918526534288447 -1.4790204803190925 0.07011259707893397 0.7548735256182021
אבטחה 4.50296837802975 1.0831838082069771 3.416213090378578 -2.4118635894233806 3.297338071728189 0.588823709566837 -0.05841213792662467 -0.2861657701200388 -1.0643515824913634 0.12926192584221144 -1.4850551349002954 -1.6495056113964075 -0.5054736685151106 1.3854662808490927 -0.0686417591878063 -0.5402487413418705 -0.29805609504168007
לסמר -1.7555320211648002 1.939650684972582 1.3953874823289616 -0.2230187454116379 1.4052103259514184 -0.36592144901099144 -0.2717166746780538 -0.5890226150881337 0.38358906195171016 -2.2669418497699017 1.2481369784690306 -1.4365752449548728 0.4611739379051643 0.03852183804330429 -0.9581183408481948 1.492162023393992 -0.32875599164455394
להחשיב -0.8461054329394454 -0.9807910586426737 -2.176807190991467 0.5259623773562704 -1.1079559052078827 0.06029761905331115 0.7342273165199498 -0.16316620231521914 0.864582946593872 -1.379466077325758 -1.5645488312246318 -1.2149612397905794 0.6324373579872313 -1.0428107112363054 -0.3907993519097836 0.7688305301300183 -0.12142376187764488
לאזרח 1.067766244705607 1.3908931712731576 1.2023111237210304 -0.954850715117462 -1.7852550463834929 -0.049924198393100166 -2.8390183540417997 0.14450954690298604 -1.0463051119430566 -0.40772034847171257 -2.1703776651523414 -0.5563003311822295 1.9317566615926478 -2.181119036787081 -3.1086179024924356 0.526877094321537 0.7653014082442934
להאריך -0.39842110302536543 -0.9932856966054499 -1.593014643478527 1.217593967317812 -1.8925398935779971 1.1987130675326707 1.2340730209614588 -1.1522224426559475 0.600369479690216 2.168518687667228 0.7462922535656832 -2.1921204287908025 0.2646761860265793 0.0721790698660757 -0.9310057716992912 -0.5368516147388742 -1.69657676105504
לצלחת -1.4094689803394502 2.147558868725529 1.339031385688192 -0.9237168746310433 1.3248957576352265 0.0604604755880781 -0.21063399032199356 -0.4559195469419424 0.43627698782044233 -1.2845859348083182 1.4203252409013485 0.08291052912222477 1.4368686249255813 -0.9875911652884961 1.0872750488552099 -0.2849412144218194 -0.7253938978257657
תזמון 2.1843563488191204 1.8852868478924338 0.4860702354707592 -0.484637520603015 -0.39174289911935534 -0.8537193570690403 2.2801242801677737 -2.4242941554241204 -0.6259143151115936 -0.09183099372937573 0.6332420942961602 -1.6504004398511554 0.7021748434761022 -0.07910403286965693 -0.6411817513975883 1.2777613208550245 0.7751347482859591
להיחשב 0.7849728680785552 -0.9838383302452797 -2.3284195508089915 -2.0660456622031336 -1.2012493735242855 -0.5846186060290233 -2.136260347081142 -0.3826371279026815 -0.1981955107855488 -0.8490719381833339 -1.406711927313869 -0.48119105090702435 0.7356107666219506 -0.9132923564598878 -0.43012952974691393 0.031965451295788073 -0.766486629144043
תרגילים 1.2944097876779934 2.1559190275200626 -0.06793815999247323 -0.7501686065046572 0.8871986132165315 0.5234183927373898 3.178148444578563 -2.8852676814317704 0.6586598584553156 0.5066796848253241 0.27650207924697845 3.0144042354071114 -1.1371473539035921 0.27561208484709754 0.25174774648332027 0.06788263713233034 1.1213895677355221
לגמול -0.9104109994525151 0.8294412177898244 -0.0013162386986533263 -1.586424441017516 -2.0983264518320883 -1.5720905318009772 -1.8596547951921365 -1.4997121640356486 -0.8766855578557603 -0.8218733815815614 -0.3595139616973043 0.24339370311641773 1.216967450313527 2.0195372411837886 0.9416825384172663 1.7224695745959688 0.013885095100326532
לתגבר -0.1863572900208714 -1.32166581755353 4.921444192812442 1.081172947756139 0.8300648244426437 0.4840688748366472 0.30695265543338823 1.3929074843075446 1.3607824879669592 2.1856511659204365 2.1854021256519047 0.5068299716948207 0.5133946422702083 -1.328572241898448 -0.5388671092720078 -0.347049237512889 0.832923258646054
לארוך -1.9705403872939533 1.8654601122181926 -3.586040003489341 -0.21489437663168431 -1.097835290625592 -0.7637424332280702 0.6426754697668678 0.3330577059060144 -1.274223226192725 1.1467377520415463 2.591063005916979 -1.3122915373173958 2.7173700799629708 0.5580516607100955 -0.9224429061522195 0.469752702757437 -0.8751072152247465
להתחשב 0.9137266781622617 -2.6335841631178694 -1.6734574908940634 -2.403672490772405 -0.15863284936153735 1.7667133965488935 -0.09526319284002753 -0.5397852771417703 0.29928118443451457 -1.3880763409687968 -0.5628678225963516 -0.8600068910713109 -0.2722258755021572 -0.2710270594291494 -0.7257309418241487 0.9338240532581824 1.5718108669670008
למרפק -2.2372955927297276 2.5654142822650656 2.3349353776543573 -1.055785535509056 0.7792914235396357 0.1063041044282613 0.6568994911027248 1.307864975250658 -0.34931979563641175 -0.3605951770096264 1.5059319542857605 -0.5685434756727707 0.27013246995240436 -0.9990494371612588 1.6014981941127777 -0.15406148928049584 -1.0056787825374813
לגבור -0.43536402175690286 -2.6961202708633785 1.0791126108726365 0.6553566992843789 0.09416404224698494 -0.08483029685237985 -0.5040558420176532 -0.5405496400202013 -0.7981065589853836 1.7113002773867192 0.2198346150995227 0.7357381305787639 -0.5163422286042495 -0.3324980030470908 0.9435093364187017 1.028398709126838 0.866527765770623
לתרגל -1.5457832079899056 -0.4504906124009169 -1.0522970652133177 0.4147765621495293 0.054866564858592634 -0.7712530982697408 1.7149748566692364 -1.02541912034889 0.6193135896133446 0.14078425119675667 -0.40382159217835406 1.4755572805059363 -0.634409358092108 0.08562683862901367 -1.2330983227170162 -0.06870754639131563 -0.7836607656413129
מסמר -0.5753177099713542 2.5125561206045997 0.061500229258241855 1.256738157772807 1.0349272939550385 -3.4143276299061607 0.7373895038534418 2.6364611579973305 -1.3473305960615447 2.153799479382874 -0.5726460836822362 0.9915654623348111 0.11431179168980675 -1.698146103585531 1.4773256721552908 0.23241784946980312 0.5329984567305913
לשכון -2.1677693120387507 0.32439849634414275 -0.35342641587097473 -1.3209799591320117 1.6997983053794705 0.8543353061560404 -0.6335351437073584 -0.14853348996896296 1.3371961539291588 -0.4554672073200019 0.09121657438011745 -0.1529423453967122 -1.8264801001159467 0.8133333412532983 -0.14345878102363394 -1.084463467992897 1.4973977999981984
תפקידים 3.9877574360303356 2.620137335455015 -1.3583460295677972 -1.9885366410214673 1.2892184492377712 3.58623245151556 -1.4957381507023464 -3.271061893600804 0.2842063632437655 1.5483751843954767 -0.9515371589066618 3.0830220111154425 -2.174070234539358 -0.4174428521881764 -0.3752724516817537 -2.0133300424996783 0.5600857376160595
תחקיר 2.5806794960538673 3.404449592315189 -0.11982874849328887 -1.3272180462374288 -0.5384186890751413 -0.6851126925074209 2.013611357331612 4.438235042978482 -2.315130850562866 2.692068601201111 -0.3725115275205999 -0.31916473838059106 -2.843978129310996 0.6366296032288568 -1.9339794001472759 2.4685047036202294 -0.34599629604274595
להיחקר -1.5564076149543773 -0.5543587097419492 -1.0547171289251465 -2.478987885691222 1.101745290721874 0.7464473599771771 0.4305961677225732 1.5166890045666246 0.11239252518670684 1.5516707434000028 -0.6781747113864242 0.015484955219901588 -1.0488913525469548 0.780544734065124 -0.6558317911632814 -0.6401661118526678 -0.3875635600934234
לסמור -2.3059649065832732 2.9915450891242004 -0.10203588858752108 -1.2652231499658537 -0.9023910941609098 -1.4165133458858377 -0.09278849964957842 -1.9633404094944196 0.8491574378972114 -0.2615464731790468 -0.08450360631983751 -0.4344066990254368 0.6855605677860143 -0.001080302524807915 -0.39338227494875544 0.6482288215495582 0.7731495482162846
מסגרת 2.778667678542052 2.701875366420099 1.1097639120423053 0.6833340897281454 -0.3738328192609128 -0.43796808685657423 -1.1782348089116161 -0.8688253686682075 1.6261678731741012 -2.17911786775036 0.39941145997394534 -0.373952114376779 -2.87777463070712 -0.19748616639064467 0.368208091267392 -0.38623099513907944 -2.0736352790106194
סקרנים -1.1351633628828997 0.3357636346876454 -2.2322720965515273 -0.7805762932340957 0.40016770381002414 0.8108901225349651 1.2413502111722705 3.201603872239716 -1.5328868821029062 -1.8420097145352554 -0.16330665619701154 2.385666718297191 0.9902448205230432 0.9596212225615771 0.9666362147527107 0.617461991857835 -1.61605007173775
להיגמל -3.1249352619815154 -0.5624319480143127 -1.0234473526478003 0.7475893441989572 0.6995086775537805 -1.6304868443334122 -1.1049181991263646 -1.9499351781020775 -2.2426427273468335 1.861727134899174 0.3016860913883744 0.30172341631654487 0.46557423245489515 2.3593210716868587 -0.045215674852187845 1.449523196893917 0.7308449733729209
מסמך 3.843818913628194 3.018041078493151 1.279348771184054 1.205007057459099 -3.2351738262428293 -2.68269013104489 0.13991236846570398 2.311446019167846 -0.3757845872718301 0.7125684896739541 -1.8129154112669417 -2.5391320773181327 -2.1181329742923842 0.029800019906302086 -2.1465052356821555 -0.41930422037532167 1.2618437563455065
להתרפק -1.8836298413020318 1.4078275414031296 1.1269817110006035 -2.085719130728147 0.31134795149175215 -0.7885890050433686 0.18669300223096594 1.0108449617564388 -0.7418728029297585 -0.013318700945765791 -1.0206188989206941 -0.7773539774937747 -0.6118790334731972 -0.7818180280710626 -0.4151258600643702 0.9744710694798742 0.1754605914971659
ללכד -2.2064304230976264 -1.840014622731755 2.401887962744165 2.331642101583102 1.3893971225160815 -1.3486429093387462 0.16754052530278632 0.022785024073947294 -1.1239673461009407 -0.1294765542373545 0.32844316778753574 -0.02339501876228281 -1.0164693561203249 0.10958899468266027 -0.5860167694011226 -0.11097386836585553 2.045965110070344
לתקשר 1.6742958836424935 -3.292926951282638 -0.46121823360023584 -0.18405905819160406 2.303373453409023 -1.6158654905953185 -1.1930348851270791 0.9577366528220057 -0.638999762414228 -0.8146380460572337 0.05528979604064998 2.1059261779624463 -0.5016478929438716 -0.6298764720526255 0.6341895431677849 -1.6353560993749736 1.0323722608464756
לקשר 2.8543710514851464 0.09764971924263222 -0.26215413298863455 0.06527971492506031 -1.691831763369169 -1.8494900281914752 -2.0001402071361043 0.4549247081934026 0.2758192054696003 -2.3961710361638753 1.8843035830516566 1.3096531407623435 -0.0961268062019036 1.197014937875455 -1.2431580906994364 -0.45717353902575475 0.20786774250909681
להיזכר -0.809257462411458 -1.2691703994914083 -2.329164236739142 -1.0741332203306688 0.03620786904752658 -0.1914124517794838 -0.7774640657904786 0.364098008785758 0.7817271096606309 -0.398256130339676 -0.34137623608046 0.7366403199737186 0.3886831898558339 1.0464708795388455 0.4807729937724263 0.4691919063500936 1.1668144650546628
להסגיר -0.17669661720294116 -2.185513119964405 2.951996976899305 1.1135459976961422 -2.3859828993280194 0.17475535481367488 -1.3894431171470285 1.2031497866581395 -2.3104347066929467 0.4554961508677651 -1.4562810720323045 0.35044861426164975 1.115191842650875 1.0575049194724435 0.04689040615691261 -0.45234913315111663 1.500587176139953
לסגור 0.5573988154749802 -2.043611541237235 1.6881211340299869 2.461464369958095 0.3118329902357172 1.1946094516154393 0.4418703011632757 0.727021769132324 -1.3431668701061361 1.569719335594612 -0.6407826676072067 -1.7744925974628578 -2.388075348288272 2.0049912727838572 0.4074013936427626 0.1362998517345114 -1.0939552008514832
להקליט 0.2953474363703371 0.1717791433923187 -3.2606846866165013 6.183100115848892 2.878328979374492 -0.5146830677612876 -1.3682060451764557 -1.7584584216735515 -0.3182311826700132 1.099174962037681 1.092678636314244 0.5301871594894298 -0.13611171298614047 0.056570462816313394 0.4692990177899423 0.6178657004120252 -0.5169406357125952
להתגבר 1.652955030106749 -3.3833516448054195 0.6124328002374294 -0.08673751995979904 -0.1773749547925346 -0.01555387085026696 -0.3759296271246993 -1.3199658714339368 -0.2617816263838843 0.7152625474953835 1.7207080137938051 0.5825677310505872 -0.5453779261343962 0.6714905165189676 0.4433213698585392 1.7776526619799655 -0.19223881981300386
למלכד -1.5515460188681902 1.0177093525042331 0.5407396038565708 0.8164980476703654 0.4172003838514377 -0.19606351877822042 0.9664655563551233 -0.0402749060081503 -0.3491040888449922 -0.7289205467410683 0.6405531023270769 -0.6969576334750992 0.03654161933364061 0.4824859316523259 -0.25783971550710444 0.9193637311190949 -0.12842226563049716
להזכיר 0.29487285198189683 -1.2996151932300921 -1.911361997125019 0.4507066459699672 -2.081941858101701 0.08204595123675071 -0.29829358734194483 1.0732223911848675 1.1520087178933955 -0.1317013162527258 -1.591115565316071 0.045081443664146716 -0.7157973793054374 -0.021039148315219112 0.8975987678946515 0.5334927099215397 0.37397241380957913
להתאזרח -2.081772458623542 0.10978885074333392 0.6114398402501074 -0.7716975559564487 0.4367419348597815 0.3928712206643415 -0.5778922786708333 -0.16026488892838073 -0.6404252949448643 -0.22763923181864695 -1.4732015416197537 0.05525037733301984 2.630175290041802 -0.49413387552117977 -1.2445639610554615 -0.5706812229687357 0.7750145740262316
לחשוב 2.477343738627429 -3.2872689315259658 -3.2143470084155994 -0.08491792927742771 -1.080261516489111 -0.834457723360345 -1.3343179033328416 1.1210656455503176 -0.06393317829507521 -0.6345669855414529 0.13145126621951952 -0.11542740654722446 -0.9144218431419632 -0.5898175192794811 0.5739011957545774 2.117981482582597 -0.03013953458178591
תזמורת 0.9859522145153216 5.139691513175704 0.6881876037650394 4.442264675846019 4.152257509296605 2.9504036308757646 0.7619695509568177 -1.4717323750053328 6.335910132989677 -0.12542513336258265 -1.7714396655881008 2.6281895185528805 -0.6344175230854832 -0.21540314941385572 -1.3150989284961097 2.0714137227260325 -0.9571509710510038
לצלוח -1.7764232067882253 -1.470882022280038 1.254919245655611 -0.066717087662222 0.10906461258488065 -0.08647106408598657 1.7239102351758222 -0.5644257576254155 0.8650783025089512 1.0279123863733886 2.4472598576431666 0.353748726139436 0.9785869298620663 -1.141754440316298 -1.0314180662822947 1.465361276867097 1.4579896540025181
למשכן -1.9193729019086114 1.2989741254554241 0.5723338506884587 1.2547027724887936 -2.1271037801631296 0.5806685282799174 -0.5091607588897301 1.4424365029494848 1.7996499591348318 -1.8469671941565398 -0.5612893543094671 -2.2923194068497255 -0.07393235150711723 1.8270493363807487 -0.5439935277364719 -1.3559994598051752 -0.03295300200952797
להתקשר 0.058218443184598186 -1.4926676008618676 0.4759295899437305 -0.3808776387433949 -0.27129847307037647 -1.287830089096295 -2.529792062820802 0.42364087345982926 -0.4619129786576864 -0.722130693219397 -0.20551887890263734 0.16530310231372392 0.6966420206255316 1.3368672017118877 0.38987730678708943 -2.0895429126670026 -0.3832621750377299
לתגמל -1.3130103369652049 -1.6595962006027967 0.9065232122528029 0.07150648113029447 0.4432507801446572 0.9839233991453877 0.7413345408190158 -0.4929950483254989 -0.7057272223513812 -1.6561917197352083 -1.8019057716761402 0.8224419696014365 -0.27797901712130363 -0.16078198763235388 -1.1984982384519474 -0.26343388422357833 -0.5563303696975619
אבחנות 0.2812422041262964 1.7094152622722356 -0.29378708556248556 -2.5976196683366943 -0.5118624080491548 -1.6445452492318189 2.659209176498041 -0.8738938072662791 0.01728409799496875 1.2887633575661603 0.27900822868576486 1.53251031938211 0.5687378684199507 0.49307538204689355 0.28613848201226055 -1.4890778676095497 0.12723962365124716
לתארך -0.5305024879121394 -1.2394927986834388 -2.9307337747085187 0.9470757662433663 -1.4447392415342655 -1.797483715381786 2.7265166480298695 -0.3623762288234964 1.13707563027355 -0.1412694257559883 0.7049247841310912 -2.51064335727864 1.4645560498666248 -0.15357732052308679 -1.4247836077641445 -0.42815053355124166 -0.37798147819701083
לתקלט -4.4574136828253685 2.1812391148884522 -3.9020385963151676 1.2145939394578473 3.2180498814499376 2.019324643106984 0.14764056067216239 0.3313442281346182 -1.1643639211947725 0.1770221343868561 0.6729616350000208 0.1696708249651644 -1.4309877889074043 -0.46686429623041775 -1.004279634450273 -0.5896987047433334 -1.0347877428999777
לבטוח -1.353189406242647 -1.354469439430098 -1.325993386489633 -2.0383392909234757 0.08174323206871546 -0.25719185915217246 -2.1008080036723085 -0.08076482577592548 0.6089536519253548 -0.8051694601250667 -1.867674985578078 -0.2897102369078281 0.614197472748428 -0.11953139523767882 -0.6637195187265128 0.6706497630183155 1.045466772980567
לתחזק -0.9697915785048401 -2.950204820310189 0.9277822953905815 0.9287213932854307 1.0462701962087853 0.1933793937824782 0.7333889413539318 -1.4832537484182258 0.8452143323624717 -0.5406059204566979 -0.14921059360823713 -0.518906370162389 -0.44577740853946113 0.7053343627710837 -0.5545221182686713 0.5041243492210916 -0.3441120225208775
לצפות 2.7526848468544154 -2.244358273736973 -2.883838232320295 -1.2591565946436514 1.1795745024859219 1.4886196757165746 -0.8677153603843644 2.6763980623349597 0.7549342143947114 -0.5611149000529675 0.36012758369527753 0.484610384313022 0.8327235593190484 0.4320958123260699 1.3467287017433898 0.2014615084540825 0.5180418656904034
להפקיד -1.5855955832480308 -0.6068189962959242 1.852221702774103 0.26340646305120013 -0.9098143567536935 -0.7176607885614686 0.15405950444132657 -0.6988530629249142 -1.8070749046309378 1.432946708096686 -2.5066305606908585 -0.4523982439743451 -0.3343602560365736 1.0349261968819852 0.9631272708765571 -1.9123012045345567 0.4707870503778165
להצליח -0.17815789276800834 -3.911349385878329 -2.350408474088861 -0.09151044172041763 0.9354291202997643 0.16404319256399283 -1.7298071875934204 -2.0530062792213597 -0.5940460704917662 0.41657244321981224 0.6620953578689609 1.0493560581884607 -0.54458471324911 0.017100320902099106 0.19936401310211482 2.3555320136484537 -0.13627902291435934
לפקוד -1.7955316753671757 -1.1616420979742499 -1.9598639027589613 1.0348905159651738 0.6942286403118607 3.0479862738290358 1.1756034216500681 2.156163037125231 0.49613595533857197 -0.05024529120684438 -1.5798598159903854 0.03283319286196944 -0.3096082874203885 0.8469348619098466 -0.04971644841862717 -0.351992729405478 -0.30933532873392766
תאריכים 0.9745877021421505 4.044706336959092 -3.6295197600329496 0.3711168908972419 -0.4881481925381801 1.8128414042813772 2.4616390769356515 -0.38293681201344393 -1.377418931358815 0.41556429179513493 1.3241189647021292 -1.5153095456993244 1.6037110787243243 -0.08730352830427413 -0.2635811078850759 -1.9951720836048212 0.8351567178649301
לזמן 2.2541078030687043 0.32329339354612635 -0.4349581380470553 1.0661957125735306 -1.8075093113268919 1.0869942177326195 -2.1566622876678734 -0.5918696781346321 0.38950140772885555 2.5089574226196554 1.9553714265848907 -0.8594067934658027 0.3704851962591203 -0.12255779914568982 0.9406717559978683 -1.2233583091441373 -0.21550191135038255
להתארך -2.9660930937254864 0.15142727932102218 -2.5513042491761375 -2.369774412914162 -1.1762944317739383 0.8710267624385537 0.867380316586125 0.4949790755602089 -0.4029168255968696 1.5676454055621771 3.3178424750454742 -1.5391266578783964 0.03601037198212565 -2.2058279278990267 -0.7451785106649548 -1.0826945925138913 -0.13699353187673943
למסמר -2.1928185695016924 1.4108034451517877 0.7485253552334894 0.6206334426053435 0.708094362814932 -1.2943786534351798 -0.16578045775982694 0.36862249452293366 1.0417098493803671 -0.9203804264021704 0.9092216293502288 -0.21164920762197612 -0.36696280787551405 -1.5575570640592609 -0.5015483390554074 -0.3315672019992992 0.7420157293279437
למחשב 3.6375517738414316 0.8218526364153949 0.6770875823196603 0.139710680487471 3.2481539363945506 -4.363737929441726 -2.754629838846582 0.18086478484763016 -0.369943904031171 0.42153478004644584 0.19594117970093486 -1.2545595885325547 1.6553539254614034 0.7964957966696682 1.2828544728907767 -1.963857240267983 -0.5986095758076158
