להחשיב -1.2805868 2.1936245 -1.5743976 -0.9315198 -2.0390491 0.36242214 -0.8015274 0.55101365 -0.47302875 -1.4998631 -0.1679959 -0.62891346 -0.068445355 0.14867012 0.18926294 0.21434832 0.14238465
לתחזק -1.7139614 -1.9423376 1.3493984 -0.5932789 -0.4096714 0.39764994 -1.4263388 0.19683065 -1.0478333 0.8703602 0.9661997 0.044693615 0.3425497 -0.9419434 0.22439827 0.67971015 -0.19503947
לגבור -2.613227 -1.0677944 0.6916241 0.4249107 1.2045858 -0.04159586 0.43932417 -0.93811184 0.6874063 -0.7154661 -0.8023111 0.49039197 0.21558315 2.3718064 1.885718 -0.024901796 1.4180785
להעתיק -1.2068012 -1.1818588 -0.45756838 -0.32532084 -0.4193163 2.8066719 -1.7362747 0.6769988 -1.0694655 0.62390524 1.0068668 -0.19880304 0.39947978 -0.2840082 -0.022115264 -0.022524841 0.22538616
לקשור -2.7301185 0.25788295 0.031376727 -0.2832115 -1.2021493 0.14620729 -0.67554235 -1.53238 0.57849604 1.2054806 -0.30097637 0.27521214 1.1106025 -0.08425288 0.303028 -1.0078903 0.5340389
לחזק -2.221538 -1.9817443 0.047147308 -0.22560316 -0.9315244 -0.10574978 -1.7891611 -2.0461323 1.4791098 1.1844347 -0.29231644 -0.4645297 -0.30431297 -0.42711365 0.45557246 0.11712154 0.16453305
להמריץ -2.3094022 -1.8604718 0.3861487 -0.87567097 0.73950106 -0.5686867 -0.9405481 -0.73277116 0.63169694 1.6766362 -0.6444116 -0.8566713 -0.30601895 -0.46312958 -0.05695274 -0.3014911 -1.0114416
אבחנות 1.8637946 1.8466339 0.0076706936 -2.690964 0.28110045 -1.703471 0.9109639 0.60876465 1.9674581 -0.42940456 0.60592335 1.5937634 0.1620935 -0.45044613 -0.2749957 -0.5263889 -0.64017045
להתארך 0.61922085 2.9363694 1.4157891 0.4535403 -0.8739304 -0.9871609 -0.64491326 2.4178007 1.5348257 -0.25530207 -1.6826298 0.48682612 0.055102162 -0.17357667 -0.8874505 0.3034527 0.039173417
להזדמן -1.1398289 1.7143825 1.0271248 0.713789 -0.9367643 -0.49598125 0.51869076 0.1610197 -0.25447288 -0.42109326 -0.15502642 -0.3648348 0.66130036 -0.14625144 0.0070757777 0.2444306 -0.1032324
תצפית 3.0166614 -0.5035321 3.7285254 0.9121088 -0.67886084 1.2782524 0.77817184 0.32797912 0.7158213 -1.1969229 1.5462902 -0.56717217 -1.5211551 -0.63133836 -0.179603 0.8298342 0.62391156
להרגיל -2.2834713 0.9916202 -0.25424057 0.48470804 -1.0057503 -0.11349082 0.08418738 0.42592126 0.42322537 -0.37603325 0.8356824 0.5978255 0.3300861 -0.3971124 -1.1631544 1.3073761 -1.7652647
לבטוח -2.1716354 1.0903908 -0.92338306 -0.027752634 1.3684129 -0.8863568 0.98246354 -0.35031426 -0.7062116 -1.9907023 0.2768151 0.019647088 -0.9793378 -0.52377045 0.030781372 0.29676202 0.09657928
להיזכר -0.9779231 2.623004 -1.5183551 0.039290182 2.124823 0.8060452 0.926164 1.1390756 0.22195016 -0.2842925 1.1547782 0.4785018 -0.8078102 0.14036919 0.24342555 -0.4336857 -0.27597427
להיקשר -2.1537127 1.4952557 1.889131 -1.1765481 -0.7756186 -1.2679778 -0.5631473 -0.8648335 -0.8429564 0.56246096 -1.5305647 -0.07262087 0.30344492 -0.32221037 -1.2267632 -0.9118419 -0.8060555
תאריכים 4.9618587 0.59666836 -1.6106862 0.039533246 -1.021881 0.7776986 -1.0733986 1.056782 1.3509512 -0.22626154 -0.8432322 -0.39603767 1.3965417 1.7213525 -0.17567065 -0.69214565 0.26191995
מסגרת 2.4003217 -0.13280375 1.2163218 -0.8104252 -1.7640748 -0.97160083 -1.6955682 -1.4312925 -0.9685861 1.4328787 0.034628566 0.23661384 -1.56289 0.48328075 0.08978747 1.336582 0.7842064
לחשב 0.10570751 0.44506696 1.6058242 -2.87031 -0.37043592 2.0723534 -0.16489659 0.83335125 -0.034409016 -0.16642594 -1.1844668 -0.42455664 0.23506854 0.77203774 -0.9678106 1.3774825 0.50801766
לתעתק 0.98371506 1.1940597 -0.07979879 -0.59331006 -2.5209022 1.335142 -1.5026453 -2.3270168 -1.3301723 -2.1137195 -0.5008217 1.3070254 0.4941237 -0.61345726 -1.7416797 -0.7136778 0.14281718
לפקד 0.34645167 -3.1494508 1.3789184 1.7965802 0.15437326 1.2528828 1.1405848 -0.08082488 0.71589106 -1.8556248 -2.5891807 2.3393528 -0.3598644 -0.48671964 0.28954148 0.8455385 -0.20405066
להתקשר -1.5521902 -0.6924851 -0.52836996 -0.19538093 1.1447009 -0.21952718 0.4949054 0.33945122 -1.6902755 0.17968062 0.37230796 0.25598443 -0.05072286 0.5108722 -1.632076 -1.0704468 0.8170375
לשכון -1.0232612 -0.07008255 -0.07125825 2.1678085 -1.3609781 -0.7211109 -0.71253675 0.43993276 0.17179947 -0.14735478 1.12608 -0.54420286 0.66860694 -2.131018 -1.3899652 0.9216555 1.6037226
מרפק 0.88586813 1.8666674 2.1736042 1.0193746 -0.14754525 -0.49944532 1.9840527 -0.1724986 0.4031629 0.5604039 -0.54916054 1.7603348 -2.3692465 2.0187278 1.0939972 -0.92730975 2.2708933
להשכין -1.7757652 -1.1536909 -1.7918128 1.5267622 -0.84787023 0.93042177 0.47690412 -2.3341532 2.814022 1.0102391 -0.31963885 0.25491825 0.56506497 0.028599748 -0.98288625 -0.6519897 0.6101034
למלכד -0.74395037 0.17346148 0.7979601 0.95148647 -0.57585853 0.15751404 0.6292808 0.71851385 0.022585137 -0.37211743 -0.78683585 -0.9630148 -0.20579666 -0.78534055 0.5165677 -1.133546 -0.34607655
להזכיר -1.0563451 1.6010227 -2.751952 0.12422754 -1.2763133 1.6056017 0.43415818 0.029980224 0.07408994 0.0422249 0.77320236 -0.038166665 -0.32160228 0.3024398 -0.25384596 0.023348792 -0.15085226
להקליט 1.0796429 0.5676467 -0.81504905 1.1562163 3.0077822 1.4109119 -1.7503438 -0.27216172 -1.2759368 1.0507238 -0.6746479 -0.25728527 0.28477758 0.5791687 -1.1292402 -1.3201506 -1.1178348
להתרפק -1.4099157 2.6261032 -0.2466441 0.6504534 0.32354826 -0.23127995 1.0947351 -1.4454901 0.17268683 -0.4940673 -0.20657486 -0.22335307 -1.1915051 -0.12527886 1.1819887 -0.21047845 0.077875234
לתגבר -0.8194457 -3.1427484 1.9977012 1.6824223 -0.16287869 1.4555165 -0.11967317 -0.1848372 1.5817341 -1.577472 -0.6038422 0.8978205 -0.17646024 0.21641187 -0.8761827 0.002360937 -0.94329816
תחקיר 3.599018 -1.8774335 -0.68473077 -0.5241284 2.109649 0.49550933 2.5778913 0.9309301 1.4513108 0.31901434 -0.11367204 -0.97364336 -0.64209884 -0.27716386 -0.06016656 -0.63464814 0.38052642
לזכור -0.7623941 2.0548196 -1.0975914 -1.3494365 0.55512774 0.7670171 0.6784299 0.7012764 0.3704995 -1.2361925 0.7496549 -0.48827654 0.002169293 0.7137062 -0.3852845 0.1838218 0.20549491
תחזוקה 2.6042905 -2.1747038 3.1820314 -0.35614184 -0.23118353 -1.2562265 1.2841221 1.0362856 -0.65229446 0.2203181 0.31801933 1.322966 -0.45621955 -1.2584561 -0.058281574 0.4218238 -0.88456684
לפקוד -0.4310551 -0.44929287 -1.8130587 3.1765032 -0.20459196 -0.111547604 -0.6971709 1.1696213 0.12046017 0.41624942 2.1154108 0.15727027 0.4649615 -0.8490978 0.24772833 -0.6891895 0.22649711
להיסגר 0.5932626 -0.94571716 0.7841768 0.6890323 0.2686721 -1.4836367 -0.5981792 2.9288092 -1.603866 0.7477518 -0.5877751 -1.1615002 -0.8749827 -0.045690585 -0.20309396 -1.0904939 -0.05540336
להבחין 0.37303913 3.0107257 1.4584746 -0.83623934 -1.0828595 0.33194128 -0.87375367 0.56344444 1.2473541 -0.89410734 1.5014347 -0.47479817 -0.5324138 -0.59530914 0.79819256 -0.0939436 0.0025801805
לאזכר -0.0825851 0.66348827 -2.2822967 -0.19306846 -0.96946424 2.194139 -0.32488355 -0.7300699 0.19006413 0.69294864 1.0369167 0.39068118 -1.2420646 -0.73239297 1.2891653 -0.71923536 -0.975953
למספר 2.990747 0.2290658 -0.59724194 -0.5504825 0.281738 -1.4411256 -2.4436913 0.5227444 -0.04279365 -0.94658464 -0.21425448 -0.62561333 1.9887413 0.57602614 1.6118912 -0.063322075 0.6255738
לסקר 2.159166 -2.13049 -0.7539727 -0.143303 2.5967402 1.4955517 0.8681701 -0.1650242 1.9720775 0.24720603 0.14139746 -0.9014021 -0.56560886 -0.5141648 1.7160558 1.648734 -0.10390949
להפקיד -1.1432412 -2.9192743 -1.6060401 -1.0162966 -0.9475444 0.5158505 1.0288463 0.1735361 -1.9352959 0.79665023 -0.12268466 0.032023795 1.091543 0.6208644 0.5960511 0.533709 0.31100458
לבטח -1.2671607 -0.45357686 -1.4365892 -0.21913375 -0.25709632 -0.31638286 0.9171255 0.25162232 -1.1986827 -1.5175382 0.2815222 -1.6059462 0.49785912 0.8196981 0.20745617 0.6146771 0.43591216
למסגר -0.9570542 1.443315 -0.10770659 -0.32257247 0.14354102 1.8070283 -0.8614522 -0.46879917 -0.34376156 1.471314 1.0942336 -0.32740933 -0.141027 0.49607465 0.2059651 0.28951335 -1.1099252
משכון 0.3415947 -0.85767794 -2.012205 -1.490189 -2.5205257 -0.6205775 2.845395 -0.0956116 -1.9050097 1.2671963 -1.1037034 0.25190723 0.43745354 -0.4699145 -0.89399177 -0.48043922 0.66487294
לבחון -0.7762987 -1.1704087 0.07321865 -2.682503 0.44336456 0.896026 -0.344467 0.6700489 1.2857411 1.0246022 0.5406392 -0.30715394 -0.122606754 -0.44170216 -0.2370258 -0.041117247 0.35006756
למסמר -0.52160496 3.2786486 1.3705279 1.1118289 -1.0789081 0.5993105 -0.034752596 -0.5176702 -1.3843694 0.79668176 -0.7184071 -0.6052817 0.39362857 -0.019489734 0.6748884 -0.23247908 0.0027295658
להיגמל -1.3756559 1.4788884 -1.0956655 0.12507674 3.0069947 -1.8843826 1.0926564 0.6814985 -0.4726319 1.2179508 -1.0682423 -0.22627741 0.36279437 -0.31187853 -1.0303491 -1.1533928 -0.57365566
ללכד -2.7144976 -1.5036874 -0.24061985 1.1105769 -0.90852016 -0.33553118 -1.3144908 -1.6905265 1.1705092 0.29864267 -0.56917155 -0.57708585 -1.0966427 0.06526869 0.38334325 -0.48240936 -0.6925921
לגדר 0.70849735 -1.3043289 1.9449232 1.9250364 -1.2997684 0.19197501 1.1703163 1.4828875 0.5027127 0.14839627 0.877501 -2.077192 -1.277283 0.4552765 -1.0412731 -1.099859 0.4298799
להבטיח -2.0745308 -1.8641939 -0.024608029 -1.8625386 -0.4472337 -0.58075327 -0.4016944 -0.4168815 0.12095328 0.38984102 -0.68300295 -0.38690925 -0.12174419 0.9189116 0.30448738 0.6122609 0.28427693
לתמרץ -0.60699004 -1.7801496 -0.013884783 -1.9440395 -0.7829667 -1.9882851 -0.4490059 -0.69626707 -0.63931495 1.037029 0.6459972 -1.3421702 -0.05508359 -0.010261309 -0.6288848 -0.9457096 -0.41577387
לשכן -1.262311 -2.0841959 0.41627485 0.16929942 -1.5526503 0.7815943 -0.57466054 0.47863337 -1.7662406 -0.5360717 1.3839387 -0.029879857 0.016877389 -0.4701971 0.4646722 0.5845502 1.7982429
להיפקד -0.41883546 2.0067692 -2.2220643 1.4664896 -1.2027949 -1.6080639 1.6365238 -0.21885246 0.6397624 0.4932591 -0.10580771 0.2974337 0.3688116 0.061748467 0.34066725 1.4139892 0.08809766
לצלוח -1.1592664 -1.3145036 2.5119753 1.5284783 0.8807569 1.2111193 -0.76761127 0.36682922 1.8366433 -0.5687389 -0.27004185 0.34211838 0.6213199 1.1649225 -0.27386138 0.66919 0.72126913
להתפקד -0.3090661 -1.6847613 -1.8924876 0.83865154 -1.13959 -1.0708125 -1.127328 0.105471686 -0.06194187 -0.8227883 0.2296656 -0.13953853 -1.7346807 1.0924459 0.23235974 -0.9319029 -0.65819156
לאבחן -0.392634 1.9537537 1.2433904 -2.5005727 0.8596482 -1.1096739 0.824668 1.7442504 0.809322 0.3508516 0.13232224 0.7529974 -0.3480564 -1.1542255 -0.16129953 -0.48689324 -0.6957661
להיספר 0.7975839 0.8486134 -0.88218546 -0.5640163 -1.2427009 -1.0180469 -1.2689482 1.9512242 0.40281537 -0.94088966 -1.0864508 -0.6414276 -0.35442406 1.7731663 -0.39790732 0.5179151 0.6482054
להיבחן -0.2715114 -0.11703581 -1.5935113 -0.2345723 2.5356836 -0.43989167 -0.8593172 0.8156816 -1.3786374 -0.23724599 0.00040295566 2.1460388 -0.5694545 0.45807958 -0.7331888 0.7018013 1.07288
למחשב 1.9096088 -0.14888464 1.6105143 -1.9006974 1.5876667 1.5246094 -0.27126938 0.31792322 -2.5661025 0.25616315 -0.7115016 0.54950136 -0.68138695 0.51063 -0.54107016 0.37292048 -0.84633875
למגדר 1.1916709 1.9412729 -1.7142763 -1.7204596 0.20253418 -2.0493362 -0.3650653 -1.5556962 1.4351281 -0.17352858 0.5442505 -0.07123478 -1.5541947 -1.1330608 -1.2961516 0.4139448 0.7542886
לקלוט -0.46710163 -0.7400575 1.898678 0.5337746 0.5562246 -0.41752476 -1.3483642 0.70358634 -0.85802794 -0.632521 0.65359366 -1.0814689 0.7610647 0.4006468 0.15791039 1.6435065 -0.95785314
תגבורת -0.6664826 -2.5009837 1.5382942 2.7093525 -0.6343573 0.8290802 1.3795413 -0.55495656 0.773788 -2.0344527 -1.3698765 1.1431789 0.43614438 0.8609836 -0.8756287 0.14395793 -1.3415794
תקליטים 3.9395595 -1.2099302 -0.734816 0.99890876 1.5320619 0.37334144 -0.20426208 -1.684553 -1.3987063 -0.7871746 -2.094955 -2.034195 1.360514 0.44442415 -1.5870992 0.166213 -0.88868815
סקרנים 1.0245885 1.0739443 -0.0312731 1.6251725 1.5050949 -0.4442344 1.7481707 0.51344395 0.5617291 -0.6625087 2.9164884 -1.7466282 0.76672417 0.662365 -0.45162696 0.048852228 -1.0655234
לאזרח 0.4172681 -1.8281522 -2.303871 -0.403313 0.8220327 -1.5624313 1.0030235 -1.0675048 -0.56577766 -0.97003263 -1.643562 -0.32342395 -0.9106185 -1.687032 1.0623376 2.1197708 -0.012916744
להתאזרח -0.52175355 -1.8000009 -2.787733 -0.14469032 -0.5918975 -1.5699483 -0.16296591 -0.020605372 0.43778557 -1.760113 -0.82124066 -0.26094574 0.5766249 -0.13072208 -0.57360154 0.74042463 -0.11180869
תזמון 2.045663 0.78038234 2.2983267 -2.587791 0.748424 0.034210507 0.11600422 0.22241177 0.38929135 0.8323909 -1.2207614 -0.32183862 -0.3638201 1.4152827 0.039772034 -0.44531223 -0.568302
לסמוך -1.7305012 0.03542902 -1.4908457 -1.0551864 -0.663114 0.75637597 1.8674287 0.21557564 -0.67330766 -1.7458836 0.47908473 0.14373079 -0.107839465 1.013182 0.14158759 -0.2564254 0.2819286
מספר 3.320227 -0.2480714 -0.733595 0.30438524 -0.12396893 -0.9348145 -1.4822103 1.5349097 0.18458168 -0.6048671 -0.10051168 -0.36371818 2.3013418 0.6452115 1.9614619 -0.922932 1.489093
להסתגר -1.995769 0.3634662 -0.9514721 2.736021 -0.22560294 -0.7760253 -0.02179982 1.1083508 0.37236467 0.52962965 1.1908753 1.3413092 -0.5573108 -0.5574354 0.10740684 -0.66032386 -1.2939504
מחשב 2.9069736 -0.39297494 1.9093013 -2.4764547 1.8311758 0.24493338 0.05700721 -0.6703198 -1.5887568 -0.25355798 0.10203485 1.0049248 0.16235222 -0.26297006 0.22829182 0.9023771 0.16510452
צלחות 2.708203 1.2756912 2.5793576 0.6587066 -1.6796368 -0.1859678 1.071495 -0.9090415 -1.1548702 1.8320519 1.4353619 0.27511156 2.3252819 0.2787874 1.1400001 -0.07352787 -0.92205346
לקשר -0.73937607 0.35041264 0.12752748 -1.4490203 0.18889752 0.11240345 -1.1300806 -1.2216709 1.5847654 0.3321046 0.1228678 -0.78305817 -0.47027835 -0.9237327 0.26016983 -1.1526482 1.6594547
אבטחה 2.7634573 -2.4987226 2.3059254 -1.1847187 0.3915266 -0.86187166 1.1630068 -0.018658636 -1.109865 -0.64465135 0.8220647 0.6811981 -0.8689105 -0.27745718 -0.81163776 -1.2296587 -0.36672163
לחקור -1.2796345 -0.952673 0.19803369 -1.3751663 2.0306277 1.1747344 0.4712836 0.57225764 1.7535883 0.3985979 0.19124761 -0.5180368 1.1283592 -2.0138726 -0.15231842 -0.66588897 0.69989926
להאריך -0.92924196 -0.75686085 -0.34276882 -0.708811 0.023038713 -0.3358421 -0.89236605 2.413762 0.42846215 1.8342645 -2.1085937 0.5024599 0.3648643 0.41600546 -0.28206384 0.051408485 1.193123
תגמולים 0.8617731 -1.7574846 -0.5832806 -2.1235366 -0.55343443 -2.2223816 1.9830772 -0.6128465 -0.0073899296 1.5323485 0.62340254 0.6631498 0.27068117 1.3839781 0.30600297 1.3597267 -0.60542434
לתזמן 0.11310466 0.61629146 1.6751902 -1.3873594 0.24159257 0.71609414 -0.9963814 1.0762817 -0.642405 1.5283378 0.17871596 0.9329411 -0.6826212 1.2429667 0.2542783 -0.3801255 -1.1101885
להסתמך -1.0263487 -1.0956106 -0.37870118 -2.1961298 -0.9716549 0.24867184 -0.21326749 0.14946938 -0.39363733 -1.3130115 0.5805786 -0.124763966 0.6298031 -0.04310856 1.2550501 -0.087095946 -0.2828622
להצליח -1.7618932 0.804349 -0.5807608 -0.018674517 3.202227 -0.88007486 -0.9735776 -0.31321082 -0.14152797 -0.44021568 0.2459427 -0.25894752 0.27159354 0.5618064 -0.049776204 0.72372395 0.21213557
לארוך 1.9274192 1.7488465 0.5541902 0.16954482 0.38652465 -0.6840846 -1.0803814 2.8537273 0.3384095 0.303396 -1.2548704 -0.60072863 0.073005624 0.12875454 0.91545 1.0477431 -0.16911232
ללכוד -2.7770345 -0.6239664 2.04212 0.8865223 1.084893 1.0142589 1.212131 -1.4781709 -0.24858044 -0.28550383 0.19124103 0.5571419 1.6804506 -0.4609019 0.46482843 -0.2339374 0.29560873
להיחשב -0.42364594 1.8678423 -1.1121724 -1.6889931 -0.4469579 -1.6621027 -0.6756109 -1.0274916 -0.8096382 -1.9812574 0.0017770777 -0.16626322 -1.3020948 -0.53863597 1.3036046 -0.2698991 -0.1589166
מסמר 1.0829353 3.4785867 1.5039935 0.73996174 -0.7253108 0.7318091 2.1201682 -1.3588947 -1.0958457 1.4692216 -1.11498 0.8197412 -0.2717878 -0.5945187 2.3277166 0.058176864 -0.09411193
תרגילים 2.27119 0.60606754 1.5817499 -0.7359114 0.9393045 0.027273629 -0.21637559 -1.0030783 2.1588714 0.83332247 1.546969 2.5338936 0.88585865 1.070967 0.54890555 0.40402892 -0.50357974
לזמר 2.1408005 1.0101949 -2.4486787 3.1632936 1.6930585 0.5016544 -0.34981462 -2.565545 -1.2258394 0.14498933 -0.3102918 -0.85712814 -1.4566838 0.36710542 0.4749424 0.7561169 0.40599683
תמריצים 0.927543 -2.2273872 -0.2464765 -2.4024575 -0.252292 -1.8093182 0.26245883 -0.8581602 0.13276084 1.5839177 0.4419711 -1.0838726 0.80500996 0.64351475 -0.56202805 0.1547437 -1.0245068
מסמך 2.453593 -2.0963283 -2.0446742 -2.4608128 -1.3294253 1.8381692 1.2720311 -0.7967605 -0.19064589 0.3642827 -1.2648345 -0.2572252 -1.2198328 -0.49744752 -0.07519795 -0.38801587 0.15438357
לחשוב -1.4563689 2.1130183 -0.74785703 -0.81313616 1.2833008 0.531571 0.531949 -0.10128107 -0.29980505 -2.0856993 0.5136086 -0.8536 -0.62458915 -0.25853008 0.012508535 -0.5247312 0.41905165
להגביר -1.4666526 -0.9075499 1.2572722 -1.3477703 0.3400486 -0.86498475 -1.074075 -0.5495761 1.1545249 2.0206962 -0.29663107 -1.5260575 -0.9052706 0.23782901 0.38865903 0.12725805 -1.1850308
לתגמל -2.0091984 -1.3826427 -0.7153291 -1.0829722 -0.07185839 -0.8237232 -0.8577968 -0.76390946 -1.109837 0.08212838 1.105967 -0.2843737 0.009082116 0.6076432 1.275186 0.42350298 -0.32787088
להחזיק -1.6269287 -1.1319703 -0.15081751 0.43517783 -0.99342936 -1.3449126 -0.87382996 0.23623309 -1.3825964 -1.0211753 -0.52613604 0.97083706 0.5213072 0.18496506 0.8610932 0.44210595 0.49191055
להסתקרן -0.14460926 2.7128234 -0.38579187 -0.31735814 1.1110146 0.2821768 0.73537767 -0.5636869 0.13108544 0.30160457 -0.76460475 -0.8730758 -0.073610134 -0.23188671 -0.35807294 -0.4535229 -0.31902766
מלכודת -1.1041015 0.7754144 2.2277906 -0.1877059 1.3404306 0.87733614 3.25719 -1.2445155 -1.2956599 0.92793953 -0.7509373 -0.17485198 0.880927 -0.6338734 -0.013650584 -0.44137058 1.0176845
להיקלט 0.19143678 -1.0302675 1.0237767 0.59265053 0.19349667 -1.339242 -1.4749535 0.20436816 -0.47228247 -1.2093809 -0.20393185 -0.29720974 0.8158435 -0.48632202 -0.53855264 1.7092502 -1.8002998
לאבטח -0.8773451 -3.3285666 2.455186 1.1315506 -0.6475263 1.3909192 -0.05713987 -0.057973333 0.5358688 -0.6379769 -0.08940646 0.41942495 -0.69753987 0.049608912 -0.21485215 0.3654206 -0.17876495
להתגבר -2.4810457 -0.3598929 1.2909999 -1.3104762 1.3840103 0.21452202 0.4808361 -0.13217835 1.102055 0.6956879 0.23681752 -0.34300137 0.19665587 0.683406 1.3836555 -0.42849475 -0.037225187
להשתכן -0.6124021 -1.6346611 -1.4080826 2.8847477 -0.8070749 -1.1969274 0.13671277 1.4294951 -0.941013 0.49277586 1.2616313 0.19071046 0.26299408 -1.1066585 0.17960733 -0.7036263 -0.036094923
לספור 0.45210457 1.7888438 -1.1293768 -0.11694412 -0.71688974 0.9437309 -0.40756878 2.3907843 0.44854745 -0.57133746 -0.6083152 0.7742679 0.7324075 1.9837168 -1.5498886 0.3589468 0.6238836
אזכרות 3.9216604 0.09266705 -2.278411 1.936935 -2.0927143 0.11260445 0.32255968 1.0948569 1.3264827 0.4476662 1.5971178 0.49261585 -0.42018172 0.9922877 -0.64914 -0.470066 -0.5773807
לזרוח 0.18887575 3.4788554 0.5260589 2.1886244 0.85709417 1.7607298 -0.41538802 -1.5899017 -0.27282214 -0.16128154 -1.5575547 -1.5684569 -0.6899626 0.7641133 -1.5958356 -0.20994101 0.07513664
להגדיר -0.28176498 0.36702555 0.3388448 -3.0072918 -0.6850978 0.82236916 -1.623155 -0.9694631 0.066431195 -0.8749797 0.60812205 -0.40992874 -0.7787274 0.29891935 -0.54070073 -0.15432389 1.2507759
לתרגל -0.7313647 0.9795523 0.54297847 -0.22953624 1.2434472 -0.35155353 -1.099489 -0.18767446 0.81389433 0.5321115 1.4726896 2.2335289 -0.14720064 -0.98116404 -0.89755255 0.37374648 -0.3071862
להזמין -0.30624574 -1.1395053 -1.4379045 0.5257886 0.8521233 0.62498015 -0.28422797 0.0061948537 -2.5312448 0.8741655 1.2447453 0.72871345 1.0741682 0.9352929 0.0043158587 -0.42056078 0.59092677
לתקשר -1.5123434 0.8358922 1.0937185 -0.48186 1.5204654 -0.04997766 -0.5464068 -1.371511 -0.3534804 -0.47864562 1.4964713 0.28982264 1.0133095 0.19271472 -0.816726 -0.038695112 0.35386062
להסמיך -0.37091863 -1.3261782 -2.6941154 -0.61186373 -1.6536983 -0.5039502 -0.42996854 0.46685755 -0.92971253 -0.4429104 0.33605406 1.9324226 -0.8280195 -0.19424048 -1.1249808 -0.16095324 -0.2255551
להתחזק -2.2639081 -0.1287646 -0.15185858 1.0317506 0.5988346 -1.5265679 -2.1587918 -0.55263513 1.6092446 0.20916185 -1.3408624 -0.11212918 -0.19836567 0.12030061 0.12499944 -0.59708494 -0.11274357
להסתפר -0.86433554 2.2100866 -2.4319792 1.6189117 -0.99095035 -0.3098238 1.0782106 0.91032773 -1.0118911 0.597651 -0.21205914 1.9497492 0.11212743 0.9368187 -0.75628394 -0.028074315 -0.5226935
לרגל 2.5731351 -0.61860305 -2.5848618 2.7056386 -0.04392011 0.66867703 -0.061242543 0.4642086 0.97154975 2.4474514 -0.8348584 -1.4169317 -0.6402214 0.18839045 0.5746823 1.1900197 -0.7622414
לתזמר 0.43234122 1.7511058 -0.5198889 0.086150065 0.48503238 2.5632474 -1.6970388 0.28309956 -0.7690512 0.41108623 0.23637971 1.2443792 -0.5434507 0.12190578 1.1002824 0.005920849 -0.48251036
לסקרן -2.0554683 1.9221194 0.0005225275 0.021371707 0.20443757 0.11094346 0.6888826 -0.43771705 -0.45589614 0.8459711 0.24860162 0.33899 0.4664915 0.15443228 0.1537149 -0.10467222 -1.2315816
למסמך 2.2060802 -0.65874887 -2.2537794 -2.2820604 -1.5512203 2.0735433 -0.14593367 -0.53221524 -0.13141204 -0.86984384 -1.4039525 -0.110066034 -1.9425261 -0.6063568 -0.030457132 -0.6867868 -1.1720335
לצפות 0.10726941 1.552459 0.2842904 0.367315 1.8182892 0.5906456 -0.44096595 1.6451356 -0.6325076 -1.0965606 1.823173 -1.082179 -0.09327663 0.39535618 0.479832 0.43339702 0.27377257
לזמן -0.27900615 0.57733613 -0.6271601 0.74158853 1.8320633 0.22278117 -0.69224036 1.4390647 0.36538368 0.22688217 -2.8637857 0.57271665 0.8741507 -1.2929957 0.86606365 0.6391453 0.5909319
למרפק -0.07441758 2.3704834 3.5809472 1.3305172 -2.0327988 -0.54392326 0.533068 0.92592543 0.5514566 0.901628 -0.7779253 1.0261832 -0.8352664 -0.080273464 0.18580738 0.23901947 0.10532689
לתפקד -1.0231256 -0.14798585 0.93489474 0.13373676 0.69529676 -2.1803808 -2.2980163 0.78427243 -0.84461385 -0.5190817 -1.1070749 1.1336274 -1.3011986 -0.88869184 0.26069748 -0.28374937 0.34970698
לסמר 1.135473 0.15720314 2.6353986 2.2597044 -2.072579 -1.1941168 0.9739052 -0.10508442 -0.135941 0.49220687 -0.58870465 -1.342071 -0.15431851 -2.1565702 -0.66466075 0.76144165 1.162837
לסגור -1.025694 -2.9114587 0.034481905 0.30745485 0.2706684 0.56185776 -0.12399666 1.40711 -0.6665494 1.8328195 -0.2718156 -0.62139475 -0.45786428 0.6038439 -0.52266616 -0.84380466 1.1346817
להתלכד -2.0509708 0.14610337 1.5143249 1.3408401 -1.942455 -0.020185327 -1.1502209 -1.0770669 0.80541617 -0.043478023 0.02430597 -0.24212836 -0.43698293 1.287311 0.024095554 -0.6020106 -0.086609796
תעתיקים 2.2186985 1.6632773 -0.23535095 -1.6796225 -2.111026 1.6891972 -0.72596866 -1.7132348 -0.23752978 -0.8601217 -0.115887955 0.7906332 2.6641815 -0.7650135 -0.111672685 -0.85649353 -0.73945045
לצלחת 0.79736686 1.4731617 3.176298 0.8370662 -1.0892124 -1.3803377 0.78439367 -0.09749528 -2.4587085 0.5235416 1.1126014 -1.4374967 -0.22061844 0.5361527 -0.43047303 0.14915931 0.7052998
להסגיר -2.5343535 -2.386065 -1.5852958 0.92561483 0.0151845515 0.31179768 2.770094 -0.60429466 0.009881232 -0.13868976 -0.53096473 0.08552413 0.7265087 0.65571904 0.18543825 -0.8573895 0.27512804
להילכד -2.0591748 -0.06366581 3.14346 0.5766057 -0.17608514 0.2681667 0.52410555 0.19572069 0.055203922 -1.2815884 -1.1142024 -0.7036207 1.4120082 0.5870757 0.020115174 -0.90276134 -0.7805879
תקשורת 3.652838 -1.984074 1.2658207 -0.84225875 1.5273062 -1.5615307 -0.26289642 -1.5613395 -0.3089375 -1.1421206 0.9516647 -1.0170851 -0.66382504 -0.7849596 -0.9414301 -0.41050518 0.030265959
אזרחים 1.7863272 -2.3802488 -0.75532085 1.7198292 -0.8562478 -2.7206774 1.421817 -0.052225064 1.2997383 -1.5365697 0.057902813 -0.5144089 1.048175 0.96425134 1.2686545 -1.3809249 -1.1423196
לתצפת -0.8294093 -1.4065192 2.5508692 0.7095901 -0.27696505 1.5447389 1.0725135 0.7531585 0.18269959 -1.4376675 1.3040613 -0.24598204 -0.6374529 -0.3194834 0.26461247 0.60313886 -0.070476115
לתקלט 2.330193 0.43058506 -0.90482223 3.0917222 2.9650044 -1.0636806 -1.9553189 -0.6529057 -0.33358774 0.5107541 -0.31964993 0.25827065 0.5677805 -1.7445378 -0.22367306 -0.8990039 0.3874016
לסמור -0.30633083 4.0551105 1.2274108 0.7881036 -0.9189624 -1.3155162 0.93029296 -1.3149238 -0.1538103 -0.54424685 -0.70099884 -1.0350509 0.33213612 -1.2458383 0.2224517 0.40756273 0.2196346
מגדרים 2.446876 1.0530931 -0.45560068 -0.43695223 -0.4752005 -1.5498198 0.66312635 -2.562672 2.611173 0.7661968 1.3104801 -0.45097432 1.3169152 1.006109 -1.6216317 0.64957166 1.708748
להיחקר 0.5026735 -0.7181025 -1.3999156 -1.8121667 0.65557134 -0.011429476 1.1012689 1.893758 0.38215408 -0.883158 -0.08908095 0.104585245 -0.6836671 -1.717094 1.0562129 -1.7687317 -0.027746182
לספר 1.2353119 1.2186658 -3.0967324 -0.25860032 0.844211 2.819934 1.8584237 -0.470241 0.13188323 0.48920882 0.06120935 -0.11670623 0.73067003 -0.665327 -0.47286174 1.58973 0.16100883
לסקור -0.5318565 -1.9147328 0.8170178 -1.1862475 0.31340286 2.5099669 -0.8365751 0.86218566 0.7672723 0.24653438 1.0398707 -0.3005757 1.233468 -0.9060671 -0.16939828 0.1542405 0.93575567
תזמורת 3.3971453 -1.0494599 0.13342056 3.513815 1.3778399 1.3936888 -2.193695 -2.4420536 -0.44745708 -0.18254952 0.8688096 0.9918121 -1.7873945 0.80947524 0.3550743 -0.47741345 0.083810665
לגמול -2.1030586 0.48912644 -2.0682886 -0.63026947 0.080744974 -0.9863476 1.7798305 -0.25594658 0.45846736 0.6545635 -0.020454708 0.17675774 -0.22470611 0.9328335 -0.14384198 2.0299616 -0.6202986
למשכן 0.43907997 -1.3543984 -1.3905777 1.9363524 -2.0303755 0.772764 0.16421525 1.4543519 -0.9020106 2.4875224 0.27241457 0.095278025 -0.87627834 -0.9546469 -0.06957102 0.9392964 0.5835834
תפקידים 3.0413804 -0.90377045 -0.83421004 -0.08658851 0.38895547 -2.4704862 -0.87603915 -1.6518445 0.33144248 0.00054764264 0.31995997 3.1304216 1.2537717 -0.80879635 0.39382806 -0.38463387 0.8010278
להיסקר 1.5597836 -0.23860227 -0.9667489 0.53888863 -0.354246 0.35098296 0.3406945 0.21658333 -0.93555987 -1.4729478 -0.40523815 -0.9071917 0.9476376 -0.6207144 1.8241748 -1.1357769 -0.65396225
להתחשב -1.0356507 0.37782544 -0.23064487 -1.9047419 -0.8704224 -0.579651 0.15206112 0.6560996 1.2694187 -1.0375416 0.93849915 -0.6444538 -1.2860172 0.8961221 -0.100125335 -0.037288748 -0.27285463
לתחקר -1.0302987 -0.9817641 -0.18483639 -0.036583923 2.2878752 0.33911422 1.7909362 1.3183292 0.51265347 -0.032271896 -0.00066779496 1.0728489 0.18567531 -0.4824182 -1.1639762 -0.3708714 0.42237216
לתארך 0.6554401 1.2571037 -0.8372643 -0.93730646 -2.2723305 2.4539404 -1.0070783 1.3937694 1.533471 0.40728253 -0.7252713 -0.37797827 1.2368777 -2.2578862 0.4167514 0.08376809 -0.5750492
להתרגל -2.6306002 1.4870626 -0.68005544 0.9211555 1.6369224 -0.6528221 -0.94628626 0.4334529 0.11696504 0.13724817 0.25533903 -0.13062398 0.06994035 -0.23497805 -0.3704221 1.0183285 -0.3372667
