לבטוח -2.9151397 2.1349947 0.98729026 1.0618176 -2.594419 -2.51149 -0.9181343 2.6194544 -0.08997166 -0.9282186 -0.05443706 -1.1423283 -0.9990341 2.0551288 -0.18895683 -0.2316917 0.875558 -1.0815197 1.8525627 -0.93654627 -1.076953 1.1205066 -0.1416475 -0.21451175 -1.1672802 0.52878046 -0.855011 -1.2218958 -2.1824467 0.37341276 0.6761974 0.09155442 1.0786049 0.9981292 1.7259543 -1.2862537 -0.30678648 -0.29863527 0.38199428 0.49392235 -0.51640004 -1.3098739 0.3575555 0.742906 0.3351335 -1.347493 -0.8647066
לקלוט -2.9227529 -0.6550676 1.0302627 -1.2136056 1.8722435 1.1142824 -1.130814 1.8462381 -0.6024832 2.8507154 0.6657205 -0.909352 0.89980406 0.7329361 -2.305501 -0.43548602 -1.9992076 0.020477151 1.1162204 1.6255295 -0.9580468 -1.7352476 -1.6019666 0.4134849 0.19387594 2.4951267 1.0906208 -0.9413192 0.60770255 -1.5156237 0.008696355 -0.9985572 0.44682428 -0.93536526 -2.2227468 0.25564736 -0.60568714 0.68331206 1.1991749 0.719198 0.6714463 0.42345703 0.53905547 -0.14702225 0.6694521 0.731431 0.068133734
להיזכר -1.4060485 3.8906975 -1.3493586 0.64635324 1.4273571 -2.5130205 -1.3062546 2.3547308 0.059551783 -2.0172842 0.012020399 1.0893703 0.16390732 2.1033669 0.80997646 -0.46656555 -0.90879035 -2.7866864 -0.06712256 -2.1196318 -0.80915254 2.0692923 -0.69435847 -1.5392383 -0.14221427 1.1915182 -0.54276985 -0.14348349 -1.0158182 0.79860425 -0.73549306 -0.58260113 0.29392302 -0.294841 0.49372852 0.3264699 -1.4143915 -0.25471833 -0.08351126 -0.34361407 -0.8005651 -0.043767292 -0.010940532 -0.42936105 -0.43989283 -0.23820478 -0.9803382
להיגמל -1.439717 2.8621216 1.3690636 1.2945327 -0.8057106 -4.6319785 1.6075814 -0.14717662 -0.8913839 1.4247234 0.15998156 3.131026 -0.87185645 -0.7153461 1.2629251 0.81771225 -2.610372 -0.3890063 -2.4846451 -1.1082495 0.7626813 -0.2786255 -1.8806666 -1.1211473 1.794522 0.6766776 1.3256711 -0.34920442 -0.22239304 0.8019665 -0.32370248 0.78810567 0.3175761 1.0815629 0.51015985 -0.6915703 -0.756347 0.036743242 -0.34488425 0.82723314 0.056589305 -0.43671295 -0.335882 -0.45284083 -1.234823 0.23138207 -0.6646126
מסגרת 4.602844 -1.2706337 -0.26766974 -1.7366116 -2.10098 1.5278383 -1.0674436 -2.0084348 -1.5933988 2.1527932 0.9066789 -1.949399 -1.0615593 -1.1982793 -1.2862196 -2.6708412 1.0427396 2.4308379 -0.102059364 -0.359193 -0.7270194 1.4999069 -1.3950489 2.1018894 2.6541638 0.11523679 0.76451564 1.1680609 0.5066042 -1.0996486 0.094669275 -0.7894098 0.9980813 -1.0615842 1.2537377 -1.6299882 1.9606181 0.82157564 1.3028893 -1.8975753 -0.68500686 0.3241988 -0.07777013 0.29918945 -0.95671487 0.7909082 -0.11172397
לתצפת -2.5208843 -2.7843919 3.3443518 -1.474063 1.8118335 2.6170092 -0.67415386 2.315229 1.7280879 -2.6991837 -0.4258823 0.47098145 -0.25411534 1.5437244 -0.09657343 -1.3292001 -0.6809319 -0.12704246 0.19812094 0.7044508 -1.043617 -0.10684867 0.3643425 -0.5128403 0.21613684 -0.6378041 -0.3735108 0.6028374 1.3455298 0.05339365 -0.52352303 0.30507767 -0.67877513 -1.6049434 0.23010106 -0.84011936 0.26556253 0.26227874 -0.3148244 0.053348508 1.3193995 0.6009788 1.4811687 0.9085665 0.267876 -0.13200828 -0.3299221
לחקור -3.4491405 -0.6950986 -1.1209911 -2.6780093 3.0993981 -0.52141833 2.6406105 2.495428 1.2547481 1.0099661 1.489328 2.6929498 0.43690622 -1.0362653 0.039686937 -0.2645051 -0.79465264 0.7123495 -1.2843684 -1.1753644 0.55259526 0.5108719 0.29035953 -0.8373548 -1.5532705 -0.85024923 -0.63458085 0.92973375 -0.38815928 0.9438707 1.4847323 0.452807 0.5660164 -1.4796604 -0.378546 -1.3567212 -0.256871 -0.23250353 0.333188 0.24353144 0.2803955 0.39329383 -1.0729742 0.24763596 0.65428567 -0.25194147 -0.49164551
להיחשב -0.50102913 3.1760445 -2.2390733 1.0235353 -3.4948678 0.5558364 -1.4560903 2.0872524 -0.9429001 1.4961197 -0.92713046 -1.3755319 -1.232982 -0.4377823 -2.6817136 -0.74306124 0.48386896 -0.8141458 0.8610183 0.11724557 3.7671351 0.76297003 -1.3680252 -0.26393464 -1.6108568 -0.28234074 -0.6980674 1.0893415 2.6965446 2.0078824 -0.8132016 -0.15810625 -2.302972 0.9416381 -0.36737382 0.56625557 -0.294456 0.48522893 0.15967861 -0.17724782 -0.49369222 0.24740337 -0.034841526 0.38185754 -0.30797508 -0.21428515 -0.04343976
להתקשר -2.17711 -0.025943087 0.41655245 0.9383608 -0.897327 -2.6770592 0.20827176 4.2064757 -1.2647014 1.7045765 -1.6410043 0.54902154 1.313185 -0.81445473 2.668848 -3.2956517 0.5182629 0.24540876 2.3514 -0.9389349 -0.6126062 -0.26302254 1.1556195 0.23456939 0.75119615 -0.6445076 0.14907514 -0.65955037 0.63701993 -0.29989192 -0.10089336 0.67846644 2.195617 0.42106804 1.5771502 0.99398535 -0.58468217 -0.27133492 -0.4877523 0.6110677 -0.33613113 -0.5170059 0.22774903 0.46660417 0.28995845 1.0218055 -0.36985168
להסתגר -2.20216 -0.05577802 2.6097782 4.2686725 0.78718126 -1.0416255 -2.508033 0.92121494 -0.2811841 -1.1274096 1.1369121 0.2553269 -0.9123899 0.9687367 3.4530668 0.24150477 1.7210506 -0.37231478 -1.7530019 0.79683954 -0.13910487 1.4571975 -1.1141073 0.7066902 0.98498696 -0.53422517 0.5395367 -1.2109885 1.672201 -1.6585422 0.91257936 -0.078576386 -1.3922323 0.7963027 -0.17032197 -0.38265127 0.35429642 -1.0392989 0.2570173 0.019070368 0.8792193 -0.8257442 0.8648076 0.5214476 -0.1438099 -0.2501338 1.0036923
לספור -1.1723112 2.8249722 -2.7958033 -0.08945687 1.9572678 2.0123663 -1.804162 -1.2992327 1.469453 -2.9552915 -1.3438863 0.3898856 1.2822012 -1.282184 -1.0972905 1.1591499 0.6709005 -1.1902727 0.15843385 1.6578628 1.697092 -1.3702416 -0.26106706 -0.26538754 1.1667275 0.2503293 0.05709797 -0.25407952 -0.5690325 0.09734862 2.0650296 -0.33548412 2.9770906 0.60892606 0.66520315 -1.1989341 -1.2610371 -0.5546713 -0.7267248 1.1059428 -0.117000975 -0.8828107 -1.250711 -0.12681976 -0.50311583 0.42127767 0.09063044
להיבחן -1.7136999 0.7448995 -1.1112146 1.0027188 0.65097004 -3.5848916 -2.0557287 0.80429 2.5253408 1.344212 -2.8856645 2.0227027 -2.0585034 -1.8329625 -1.6997926 -1.8443238 -1.9768821 3.842775 1.9265295 1.4617146 -1.1351918 -0.16804019 0.08030284 -0.2545461 0.5027162 -1.1423167 -0.7483684 1.5490534 0.24875316 1.0010687 -0.07338905 -0.39580202 0.012135947 -0.67761874 -0.13191956 -0.101188205 0.95449656 0.650868 0.44719607 -0.22689877 0.2830499 -0.04068757 1.393397 -1.133517 -0.901016 -0.485806 0.41431037
להסתקרן 1.5963081 3.7541437 0.6552089 0.35327527 -0.6859843 -2.3957765 1.0927234 0.6293124 -0.29674733 -1.4440379 1.1578168 0.015024026 0.20495898 0.7528499 -0.23679276 -0.08150182 -1.209742 0.03353505 -1.9272785 -0.37683788 -1.2573534 -0.34453803 0.69278985 1.1659337 -0.35418278 -1.0591055 -0.521972 0.27739972 -0.11583913 -0.7525968 1.0636531 0.89637816 0.3313991 -2.0941799 -0.122446455 1.3956852 -0.23121843 0.45267075 -0.10658672 1.065058 -1.1199591 -0.42508376 0.8242079 -0.21798356 -0.27261314 0.19900087 0.4585102
לתקלט 2.4835515 0.32006547 0.8808849 2.7481513 5.1855145 -4.7390347 -1.5510316 0.03149385 -0.61495996 2.5214748 1.3545934 -0.2568654 -1.8303308 -2.8817105 -0.39147907 0.91156983 -0.6042353 -0.6438901 -2.2670937 -0.7343721 -0.24469317 -0.26507095 0.42492682 -0.9409604 -0.43798593 0.078489095 -1.7084112 0.39814538 -1.0767266 0.16920634 1.4481649 -0.43288407 -1.3706542 0.9649233 1.708845 -0.13721217 0.8837633 0.8524185 0.40841335 0.9171148 0.2574004 -0.6421412 0.75915736 -0.31693035 0.32095397 1.5928131 0.30336213
סקרנים 2.061282 1.0132556 2.5980036 1.3527519 1.3237123 -2.499641 -0.4093008 2.5608046 -1.0389982 -2.4660432 4.470483 1.279521 2.4684703 -0.768065 -0.021736693 -1.5895058 -0.8422653 -0.74368536 -0.15243076 1.8399625 0.824985 0.05447807 0.076280914 2.69607 -2.1669784 0.29734048 0.48087966 0.0808643 -1.3985882 -0.58989936 -0.02078461 -1.3793627 -1.6218232 -1.5952028 -1.5466423 0.0062542525 1.5593694 -0.6968091 -1.3171556 -0.7395527 -0.19102742 0.42791274 -1.6009825 -0.57644886 0.15442608 0.90756077 0.07314156
להתחזק -3.6818516 0.47589573 2.6493661 1.8785871 -1.4108858 -2.0221167 -1.256925 -2.2328393 1.077172 2.4964569 0.89205986 -0.46918195 0.42027053 -0.67068505 -0.11209395 0.590354 2.3663692 -1.189546 -1.0668889 0.6801054 0.24264844 -0.84725076 -0.5483124 -1.2114925 1.2567272 -1.9311737 -1.5188296 1.4801543 -0.16662152 -0.6075765 0.7696839 -0.4625103 -0.9711187 -0.6227535 -0.3067938 0.0077834763 -0.2773162 -0.78551495 0.6209697 1.0635582 -1.7037101 -0.18705942 -0.3248951 -0.14779066 -0.38826597 0.24172807 -0.19686463
להתרגל -2.7945218 2.0586262 1.7380265 1.4264709 -1.0955166 -3.3639772 -0.8762991 -0.7432193 0.63789225 0.25905973 0.506673 -0.352256 0.3149909 2.1090763 0.93910605 -1.4450842 0.43542528 0.98723596 0.35998526 -0.26952976 0.3544153 -1.1976423 0.12558098 0.96735483 1.8399287 0.84982204 1.1591533 1.045435 0.5252196 0.6793603 1.2624482 0.09611302 -0.7593008 -0.12941088 1.2883117 1.0719792 -0.20115201 -1.3725917 -1.569731 0.825051 1.9396904 2.6229913 -0.33238053 -0.30105975 -1.8873508 0.27678427 -1.375526
להתחשב -2.2411535 1.3796213 -1.5367771 -1.0427606 -3.1389213 0.53408784 -3.7717857 1.4825722 0.004818174 -1.3407841 0.85391515 0.46987113 0.9503851 -0.42214134 0.09975176 0.65580523 0.30693808 -1.4096824 1.355234 -1.1884749 -2.4602833 1.8690906 0.60385835 0.41575852 0.8837187 -1.705111 -1.5387455 -1.1994941 -0.7575956 -0.13090737 0.8913275 -0.2113941 -0.53288156 1.1418232 -0.1433459 -0.04388271 -0.27228504 -1.9039004 0.18479984 -0.091627404 1.7117273 0.42273298 -0.95235515 -0.5746294 -0.08356292 -0.6240987 1.3117032
למלכד -0.1203157 -0.48179594 2.4985712 0.41672012 -0.43336326 2.2218897 1.5066831 -1.0369898 -0.9994001 -0.9828513 0.19193053 0.76085114 1.4173256 0.7019662 0.93879074 0.10474258 -0.8083831 -0.98539114 -0.9203629 0.9426525 0.11154078 -0.0049342117 0.46909782 1.0246538 -0.85261714 -1.4097767 -1.1019223 -0.1368386 0.33411828 -0.026492456 0.19969395 1.6745633 0.78584754 0.38204288 0.23080884 0.9232549 0.39903986 0.084087566 1.4104689 0.13156752 -1.0617831 0.30509207 1.4295002 -0.97942454 -0.08375142 -0.943626 0.18023686
לצפות -1.21825 1.8338178 0.72769517 0.38501152 1.3808767 -0.26993784 -3.0725794 2.9335306 -0.002528176 -2.1742537 1.2637218 1.52764 1.892425 0.18687302 -2.5197794 -0.9832471 -0.12603545 0.18905155 1.8714355 0.3934623 -2.6312325 2.5361528 2.3557918 -1.0479908 0.6468598 0.9668106 -0.44766042 -0.3918456 -1.2112737 -0.4452007 -0.36442843 0.23068392 -1.0064942 0.3418132 -1.2585932 -0.839779 0.379396 0.5016385 0.33402088 0.29466015 -0.23159885 0.6016927 0.5988778 -0.37649703 -0.4824953 0.9382764 -0.892229
לתזמן -0.24547833 1.6079842 0.3008598 -3.42951 1.6535532 0.6639347 -1.1800357 -2.2929132 -3.577323 -0.8827696 -0.6369797 0.26744822 0.23984724 2.315798 1.0800296 -0.47003338 -0.086525746 -1.5188712 1.6437429 0.4291289 -0.0473181 1.1720273 0.14078286 -0.7490889 0.54208887 0.12239053 -1.2780973 0.8456234 0.4350692 0.3785458 -1.1603441 -0.5389712 -0.40115255 0.028951824 -0.65756863 0.03645759 0.099975064 0.40835318 0.7517956 0.38741162 0.36606804 -0.1875436 -0.16845255 0.32254195 0.11256067 0.19625835 1.0201058
להצליח -2.4172337 2.0259106 1.5935731 -0.17649217 -1.2043415 -4.922344 -0.6246193 -1.0962121 0.69153786 -0.94026655 0.9138722 0.98091465 0.008392813 -0.81882876 -2.2498758 1.4279038 -1.2399231 1.1737083 -0.4370918 -0.56251717 -1.5657958 0.43414712 0.5276328 -0.01093168 1.1354263 -0.3304527 -0.5430316 0.7253404 -0.27691844 0.5127537 -0.8335275 0.73767316 0.7690013 -0.14225188 0.5305241 -0.69389176 0.6498109 0.08106922 -0.83659995 -0.54312754 -2.005449 0.5473547 -1.2717619 -0.36294645 -0.5352048 -1.3946544 1.112137
להילכד -1.5978472 0.96293527 6.1588936 -0.65175796 -1.4451778 0.8073883 -0.11203522 0.08899985 1.0691905 0.6733482 -0.85676265 -0.5348293 3.7324114 1.4456367 -0.6766662 -1.0207369 -0.48099318 -0.5180092 0.28277034 0.7315886 0.62037075 0.9484309 -0.0549104 -0.62615955 -0.7206038 -0.18845482 -1.3153069 -1.387313 0.70196366 -0.7333208 0.60309696 1.3899028 -0.7514722 0.25025046 -0.38934708 -0.061462667 0.43832418 -1.1600071 0.18160477 -0.51857734 0.2779361 -0.0020884732 -0.4004059 -0.19453314 0.4504136 0.72729236 -0.32102033
להמריץ -3.816789 -1.3520194 0.7092485 -2.6221175 -0.8385098 -0.94845754 2.771773 -3.63281 -2.1878302 1.2832361 2.3531795 0.3441573 0.38358647 -0.6832568 -1.1773565 -0.61799145 0.0061425846 1.2446787 -1.0763557 0.7355884 -0.963975 0.6336255 0.480723 -0.93093944 -1.30404 0.24748167 -0.8722216 0.80811787 -1.2396683 0.46843386 -0.09297406 -0.44691187 0.49952304 1.2651688 1.1009791 -0.20375489 -0.66922414 -1.1235287 -0.7108011 0.30188996 1.3566558 -0.45123526 -0.6734274 -0.18554738 0.35601822 -0.36231828 0.36980045
למסמר 1.0519047 4.8413177 2.9561758 1.6593105 1.2784753 3.0490468 2.9369688 -0.4910033 -1.9769102 -0.3761523 -0.32260913 -0.29074472 0.23400563 -0.43679103 1.3206869 0.27962908 0.48932377 0.71051276 -0.40448162 0.20884284 -0.4722546 -0.41170636 1.701329 1.1216292 -0.9156478 0.22566588 0.6257978 -0.017640721 -0.37065893 0.26833275 0.38190794 1.3727764 -0.10324167 0.34485233 0.5507406 -0.84833604 -1.1995664 1.4077667 -0.21792507 -0.24405456 0.16800049 1.3489574 0.2198663 -1.1228039 0.19294629 -0.32810393 0.90966725
לספר 2.1603217 1.1618533 -2.8475766 0.96303725 0.30681008 -1.9759918 4.529067 0.06881802 2.7057216 -1.3335674 0.23484592 0.57640135 -1.1493751 2.9929557 -1.0055039 -0.68762624 0.84198713 2.5098426 -0.11168899 -0.84500885 -1.7621065 -2.2486513 -0.9224687 1.9253184 1.1209755 2.4334557 -0.08931406 -0.7860657 -0.9441913 0.85221875 -1.6220956 0.62939805 -0.04440229 -0.08800747 -0.9291933 -0.010783914 0.28955624 -1.4887409 0.07661994 -0.21158274 -0.46835166 -0.7141162 0.7995744 -0.051102087 -0.8291032 0.051347595 0.2709823
תעתיקים 4.9496236 2.4668837 -2.9419107 -2.3104446 -0.07345432 0.5735124 0.55088097 -0.018777693 1.76697 1.5497264 -1.4344388 -4.1367793 3.245857 0.57926387 1.9799043 -0.74391633 -0.29067695 1.0859075 -2.2677393 -0.25959897 -1.2367628 -1.8424109 -1.3792518 -2.023925 -1.3527294 0.95137674 -0.9364437 -1.9217602 0.45445848 0.38697127 -0.5285296 0.34860787 -1.5989789 -0.44513497 0.90792835 0.52664226 0.1824399 -0.675514 0.6342751 0.58702457 0.9530839 0.10207971 -0.24419853 -0.4546894 0.77417773 0.7213056 0.288706
לחזק -4.53596 -2.440757 -0.58609915 -1.5140857 -0.3420028 0.22978853 1.4039694 -3.071327 0.49236628 2.096823 2.3898933 -1.6332088 -1.1413728 -1.8984975 0.76560926 1.2215686 1.5326064 -0.91631573 -0.07863937 -0.08846088 -1.6482903 -0.53934795 0.22988296 1.004187 -0.09057553 -0.52216184 -0.32590434 -0.39365178 -0.5578551 0.24900551 0.26174203 -0.28117368 0.04713346 -0.46683827 -0.9616014 -0.38182375 0.29032323 0.097164355 0.41571447 0.037968528 -1.542116 0.12598072 0.40225476 0.17377973 -0.5708204 -0.5679976 -0.45626065
לחשוב -1.8308561 3.342486 -0.400721 -0.66139597 -1.2132884 -1.5230107 0.7648613 2.4099333 0.60250896 -2.2972858 0.56224126 0.5049179 -0.29221225 0.4938219 -2.8141668 -0.085665956 0.88697803 0.5302527 -0.10684231 0.56782615 2.08538 -1.5155096 0.34212318 1.0927697 -0.26591757 0.27878147 -0.9512235 0.059854012 -0.60930103 0.30686453 0.16624191 -0.13141838 -1.0747719 0.6362003 0.4072916 0.1927689 -0.35630763 0.7679843 0.38708067 -0.56603974 -0.43498906 -0.20749219 0.78555864 1.4141995 0.43074968 -0.18102077 -0.8318619
לסמוך -3.248878 0.09955445 -0.80251956 -0.3200259 -2.3456395 -1.0836825 -0.5491181 1.0622253 0.43729255 -4.5570965 -2.9729056 -0.05055818 -0.23895408 -1.0577625 -0.96904004 0.14823392 1.5182008 0.9194078 0.69795406 -0.8544103 -0.8286081 -2.6080835 -0.9504057 1.7200778 -0.029369045 -1.5643495 0.49881333 -0.09829491 -0.8071715 -0.00786257 0.31332368 2.1165864 -0.10021267 -0.47414958 0.23642932 0.17066024 -0.3374961 0.3793357 0.9768546 -0.086264424 1.4064144 -1.0049704 0.04275322 0.70691353 0.6852092 -0.07047267 0.25024962
אזכרות 4.914261 -1.40688 -3.2576783 3.3149092 2.3754416 1.264298 -3.4488027 -0.5048924 0.9604079 -2.055757 1.4585102 -0.53624606 2.4628415 0.60929906 2.7996826 -1.7092977 0.38625592 -0.87845707 -0.07363196 -0.90394795 1.1632932 -0.2745968 -1.2924733 -0.26613462 1.0293726 -0.74274987 -0.59463704 -0.42315453 -0.58542246 0.47628158 -1.769346 0.69594574 1.6996402 1.1988076 -0.49330732 -1.1115458 -0.4521512 0.618179 0.12038824 0.32003677 1.0750027 0.2406966 -0.8856958 0.6719891 0.42578575 0.12200832 -0.30130854
למגדר 3.7569652 1.3977734 -2.2160285 0.41095108 -2.7527292 -0.82194954 0.74022573 2.6539395 2.0327585 2.4632642 1.8298625 -0.051218677 -3.2038367 0.24645889 2.0720265 1.2474321 -0.7254841 1.3720201 -0.5704528 1.9311799 0.6958215 1.252507 3.462591 1.0897413 -1.4148859 -1.9101592 1.0747299 -0.22416885 0.51217324 -2.140967 0.7696855 -1.1506387 -0.57725805 1.4638743 -0.12492646 -0.7118139 -0.869586 0.38724416 1.2200259 -1.0107055 0.93214047 0.12845291 -0.5621193 -0.5825302 1.293306 -0.32753354 0.30342567
לסגור -3.1111422 -2.9838514 0.71524274 0.70204806 2.1396744 0.98792267 1.101008 -0.0100554 -1.9725893 1.0999182 -1.5504304 3.5898297 -0.6045363 -2.0119221 0.48790282 1.3881457 1.483113 0.64799386 -0.002803627 -0.6881225 1.5300574 -1.1349058 -0.22674398 1.9794787 0.6353833 0.5534624 -0.890792 -1.4623463 -0.4115045 -1.0376831 -2.2254605 -0.4754553 0.59206283 -0.731014 -0.62131846 0.10761758 -0.5601657 -0.6736169 -0.15909222 1.2346389 -0.6112041 -0.31306717 0.7868846 -0.068734005 0.3703386 -0.1557209 0.5443562
לצלוח -2.7513885 -1.438927 2.5705767 -2.7409124 1.0259117 0.61128145 -0.58061826 -2.7183557 2.4778304 -0.9393887 0.24879256 0.05940074 -0.7597078 0.950992 -0.26820183 -0.10031269 -0.27016485 -0.5484717 -0.5441905 0.17656036 -0.05028263 -0.0658671 2.476068 0.44023466 -0.26804164 1.7583236 1.0547818 1.2861588 1.7364595 1.894557 -2.500348 -1.1273324 0.61727476 1.0480562 2.2797768 -0.28827032 -0.32873416 0.008469081 -0.19657323 -1.1391737 -1.3075283 0.5447824 -0.33661973 -0.2885681 0.3165528 2.2821758 -0.18155336
לתגבר -3.5693493 -4.378081 1.9820083 -1.101996 1.5076959 1.5581299 -0.15752055 -1.3079301 3.1721978 -0.80391836 -1.4526329 -0.8664097 -0.47050196 -0.0057989135 1.0016078 0.29539374 -2.6135035 -0.625542 -0.87617564 1.2395054 0.22482781 -0.37260735 0.6575379 0.46612749 0.84226507 0.0014283897 0.07133214 -0.87632155 -1.9370595 -0.021786463 0.55118287 -1.1811799 -0.7469982 1.2410467 0.11708508 1.0950321 -0.5464353 -0.97595805 0.5316709 -0.6746759 -0.50826955 -0.012296395 -0.17369698 0.8354981 0.025014313 -0.10595456 -0.21365206
תמריצים 2.059348 -3.5166261 -1.6126533 -1.7748468 -4.723034 -2.4133258 -0.87225306 -3.0045085 -1.8493121 0.8679035 2.2097526 -0.10490456 1.4710572 -1.2737061 -0.26528 -1.6443961 -0.8911951 1.4972615 -0.7971509 0.7354672 -0.68783444 -1.2334353 1.9805313 -1.4417659 0.4382179 0.454958 -0.5870514 -0.29130667 0.06466238 0.25930688 -0.26802558 1.2172086 -1.3835598 -0.17649391 -0.4951191 0.17568651 -1.4177147 0.13591972 -0.8573796 0.10200338 0.4044841 0.69082546 0.5846459 0.14146414 0.28006092 -0.3521942 -1.0521444
תפקידים 3.4495218 -2.80384 -0.7603348 -0.7050982 -0.17439732 -3.5280182 -3.8082967 -1.0079249 1.6020375 0.12829594 -0.36614162 -1.6901723 0.106005155 -0.5351037 1.1234496 2.4758337 1.7600577 2.6171837 1.4699838 -1.1661319 -1.0409393 2.3258672 0.3712242 0.49491015 -2.7707796 2.062726 -0.982273 3.0400224 -1.4972763 0.5294514 0.63338494 0.31258 0.0675644 -0.8766634 -0.52747065 1.1515554 -1.6182793 0.50138885 -0.18302512 0.4621465 1.097933 -0.5969802 1.0575842 0.77885497 -0.8882867 1.2505227 2.0692108
מגדרים 4.5488605 1.2210932 -0.7964117 -0.10898181 -3.163455 -0.84295446 -1.0999851 1.8750992 4.484355 0.6047851 2.9141715 -0.47077298 -0.6835296 -1.929466 0.120027095 2.3373942 0.95371556 2.0196285 -1.2415463 1.3528514 2.6191 1.0602301 1.8583349 3.4930654 0.9940529 1.2450726 0.7265676 -1.2838576 0.27023968 -0.15583828 -1.103846 -1.3659191 0.7385214 0.5816643 -0.4945862 2.9850943 -1.1631761 0.0016402379 -0.3918524 0.3067086 -0.17273751 0.15326235 -0.29036 0.47930193 0.15131736 -0.20377615 -0.45774835
להיסגר -0.89177704 -0.07095431 2.16763 1.920643 0.3654855 0.36216512 -1.3370236 0.30575097 -3.2990124 3.1249185 -2.2271502 4.1172137 0.5106673 -0.91464794 -1.7721608 -0.4250293 2.1321394 -0.0286134 -1.0373757 -0.8085465 1.1907676 -1.035052 -0.7222953 1.818494 -0.58545685 -0.13516366 1.2635695 -1.9284766 -1.7697963 -0.16059124 -2.311175 -0.77244735 -0.8595246 -0.41022688 0.3164036 -0.65306437 0.52468 -1.3669058 -1.1623162 0.016169513 -0.3392601 1.1679331 0.49494514 0.8348434 0.56785375 0.51940304 0.19717856
להיקשר -1.5327389 2.445489 1.6436104 -0.79002106 -1.7748281 0.09459822 0.54323727 1.0869328 -0.45158345 5.621329 -0.67369616 -1.7269608 0.4268024 -0.09455457 0.8532301 -4.0075707 -1.0981907 -0.5493648 0.23747186 -1.8370484 1.6487594 1.5803962 0.0028580641 0.08735626 -0.5323802 0.6612419 -0.98860604 -0.04313276 -0.8003118 -1.2549443 -2.368458 2.497685 0.26903188 0.1978872 -0.11615108 -0.25150216 0.29845423 -0.22693495 0.0170677 -0.64983994 1.1748366 -1.0087893 -0.26705608 -0.13502437 -0.9790727 1.1877863 0.5520699
להיספר 1.300509 2.7603235 -1.5040522 1.9779488 -1.6924534 1.8009654 -2.1159449 -2.3919873 0.19743894 0.5477567 -0.60974073 2.8169515 2.6593432 0.8045579 -1.9166222 -0.07382279 -0.034573123 0.121439636 -0.5828539 1.706008 1.2168177 0.27834445 -0.20550643 -0.91819936 0.5970461 -1.1638532 1.7507881 0.46619177 0.44278306 0.6905932 -0.32522503 -1.7876079 1.6856561 -0.17395575 0.80626345 -0.3787924 -1.5570796 -0.024847468 0.8310408 0.7263495 -0.11691258 -0.9182745 0.34969118 -1.4520621 0.05961614 -0.20482633 1.861025
להאריך -2.7933886 0.40618083 -1.7937909 -0.3341493 1.2839028 1.7214223 -1.8108712 -3.290478 -0.4978345 1.991916 -1.5920916 3.2960794 -0.766305 -0.78837574 1.1010666 -0.4385163 -0.037803873 -0.630706 0.15728205 -0.86944395 -2.3858695 -0.31229538 1.5640984 0.8746136 -0.14064012 1.9384862 0.63169074 1.605983 0.7011411 -1.0965501 -0.005351828 -0.40659755 -0.4110201 -0.47567746 0.47519565 0.38292345 -0.5148286 -0.08856509 -1.4244367 -0.54301655 1.6968808 -0.9134225 0.75012004 -0.9710273 0.7124641 -0.30653912 -0.30809107
לתרגל -1.2344217 1.6777761 -0.4402481 -1.3302839 1.8301644 -1.6970922 -2.0661511 -1.8246642 -1.137525 -0.72730154 1.6272968 0.5351228 -3.3322787 0.6490912 1.9033433 -1.2989002 0.21012418 1.2788669 -0.6792637 2.444041 0.69356275 0.54165375 0.18064904 -0.23497231 -0.62560153 0.9518153 -0.15433474 -1.6409204 1.2964834 1.674975 0.84545225 -1.6463237 -0.12016822 0.06458784 0.22513139 -0.48682705 1.8670181 0.8507639 1.8360207 0.7461291 0.09448206 -1.0359478 -0.82782423 0.022272302 0.30230862 -0.26501614 -0.096824355
להסמיך -1.7043618 -1.8095329 -3.9556909 1.8273576 -0.07090656 1.3925922 -1.4543982 -1.1145352 -0.3831635 -0.07457169 -2.4963336 -0.012442022 -1.5742246 -2.2283316 1.9575342 -1.0832982 -0.99260426 1.213184 1.7246217 2.3803456 -0.030200962 -0.2812864 -0.78256017 1.6825547 -1.7522607 -0.122926615 -1.0957589 1.1702638 -0.57308143 1.0553449 -0.3494735 0.5294961 0.40446898 -0.074320324 -1.1496792 -1.2627679 -0.9423031 -0.81309414 -1.3379872 -0.5903745 0.8650592 -0.15097485 -0.7786572 -0.8118854 0.17244475 -0.25443223 -1.0391713
לאבטח -3.1578314 -4.9864435 2.294637 -1.70796 2.2068892 2.6337469 0.6521407 -1.1923523 0.77574545 -0.9248957 -1.1703254 -0.5694833 -0.6212379 0.8721602 1.3218471 0.07762425 -0.13958053 -0.61582327 0.6819433 0.111433335 0.29012048 -1.014165 2.0831664 0.9703586 -0.64894795 -0.14889257 -1.2257924 0.0069400663 0.30665833 0.8482824 -0.44031772 -0.49171633 0.2795599 0.4718894 0.360205 0.46731538 -0.12105758 1.0001961 0.5057333 -1.59103 -0.5925551 1.4646131 -0.20637794 0.043958955 -0.40273213 0.20164992 0.08867845
להזכיר -2.6489744 2.417305 -4.0313354 1.3160334 1.7974107 1.2940761 0.3059068 -0.35279912 0.3809824 -1.9710104 0.5297675 -0.8716291 -0.038281098 -0.5535688 0.8904652 -0.3939423 0.758519 -0.57674885 0.7509193 -1.8549049 0.0378716 -0.95808977 0.044772435 0.8874105 0.38109943 0.83381283 -0.30846846 1.393106 0.76745373 -1.0093238 -1.3652382 -0.34014103 -0.38420758 -0.740767 -0.588991 -0.28200004 -1.3586798 -0.3051868 0.2747966 -0.08573349 0.48609284 0.47533524 0.84993213 1.0065956 1.1224484 -0.22051397 0.38448486
לזמן 1.4648601 0.041697092 1.4310777 1.9339604 0.9851478 -1.120904 1.1898215 -1.9354762 0.8197262 1.3425994 -1.7320962 1.541917 -0.22641277 4.4862146 -1.0574238 3.462205 1.701855 0.9205561 1.47259 -0.44441432 0.6141546 0.32709184 0.08335811 -0.4018732 -1.1540332 -0.6287395 -0.6603957 0.87695 1.6105316 -1.4279199 3.7121427 0.9474462 0.3325826 -0.9012426 -0.77202314 0.04508561 1.0033824 -2.009152 1.3804696 -0.060984753 0.5076971 0.5248423 0.46420422 0.035762917 -1.3473989 0.931721 -1.3693674
להרגיל -2.6709983 2.0682015 -0.44548613 0.21009277 -0.6943476 0.57593936 0.33408445 -2.338664 -0.7576016 -2.239307 2.440039 -1.0631707 -1.817653 1.2966994 2.156825 -0.9022909 -1.0337275 1.1772696 0.58512473 2.1840372 0.40551364 -1.7366099 -1.371953 0.42815462 -0.9982159 -0.20552623 1.0271455 0.9130716 -0.65555114 1.2708282 1.2192703 -0.5867798 -0.36518577 0.5901163 -0.46447837 -0.4781455 0.20857956 -1.3012972 -0.13114513 0.24349794 1.0551093 0.29726842 -0.7334309 -0.34211236 -0.08894744 0.86604685 -1.1138524
ללכד -4.326222 -2.1187618 0.8493237 0.147388 -0.951872 0.49738276 2.8304086 -1.987027 0.18475527 0.08790587 1.6752298 -2.167914 0.20629855 -0.54716164 -1.1004441 0.65809226 1.2917279 -1.5610087 0.6096455 0.23715949 -1.3562934 0.9564996 -2.335016 0.3859478 0.057299703 -1.0156925 1.7283043 -0.26117113 -1.1141078 1.2243202 -0.32368264 -1.2406791 0.67732227 0.10813708 -0.46784467 0.002483019 -0.79925066 0.3433623 -0.92803043 1.2113321 0.14664745 -0.4176488 -0.24371329 0.26263142 -1.1777986 -0.8689505 0.6589705
תקליטים 4.994727 -1.4600623 0.047987387 1.6145896 2.6501412 -2.2362483 1.516531 0.84467137 -1.0153505 1.007006 -3.7210407 -2.7124748 1.7916427 -2.723996 -2.3912272 2.1917586 -1.9689567 -0.50573945 -1.4913169 -1.0828661 0.1303991 0.4336092 1.6558753 1.95156 0.66273755 -2.3455608 2.8506007 -0.09970155 0.32686108 0.96554965 -0.72266996 1.0207589 0.19516252 0.2037576 -1.203011 -1.096138 0.3712461 -1.0255631 0.89825433 0.99020374 0.2680915 -0.9003884 -0.2949413 1.5797471 -0.28287858 0.97058624 -1.4583372
תאריכים 4.8600154 -0.73250765 -3.789454 -0.46542042 2.2613244 -0.97423726 -3.3400462 -2.6675527 2.210765 0.104402274 -1.1947352 -0.47174758 4.27001 0.626639 0.30140352 -1.0605131 1.9671589 -0.11232086 -1.2162735 -1.6316617 1.3542283 -0.050560553 3.3020618 -0.41249126 0.14969797 -1.7486254 -0.1280605 0.43564996 -1.7101514 -0.3112708 -0.14193304 0.7513939 -0.83530927 0.1934501 -0.048210233 0.35848853 -0.55403185 -0.47876757 0.053885914 -0.16491371 -0.9978667 1.9293617 -1.2306324 0.7977586 -0.15161945 -0.59791756 0.6068554
להסתפר -0.15338594 3.1107547 -0.95750284 4.87123 0.08492157 0.26908126 -1.1278648 -0.8385799 -0.21078098 -1.9132301 -2.519929 1.2775041 -1.251467 -1.3078408 2.1694384 -0.917288 -0.011752957 0.63275546 0.65331644 0.47495407 0.13185601 -1.488636 0.8028976 1.5371132 1.4932809 -0.07960674 -0.5226406 0.8214239 0.3307028 -0.62592214 1.1507663 0.1798956 0.14526916 0.54353 -0.95491767 -1.1733166 1.4827775 -0.2418777 0.32153347 -1.6284801 -0.53506297 0.48715052 0.44274116 0.5011331 0.3589282 0.55508536 0.080521934
לתמרץ -0.9872015 -1.6771992 -1.5866927 -1.5911031 -3.617567 -0.444009 0.8314669 -2.1534624 -3.9144645 0.786601 1.9858549 0.87517434 0.8956204 -1.8516656 0.6465951 1.1614462 -1.7433518 0.79970556 0.47882873 0.6878223 -0.5278603 0.2146706 0.63474786 0.031161565 -0.5993071 -1.2702972 -1.8177549 -0.1205303 -0.0004518389 0.5457513 -0.8707148 -1.0191134 -0.45737407 0.82072556 0.15021245 -0.046170272 -0.19374062 -0.35178566 -0.110413164 -0.077223785 0.19049478 -0.41536596 0.33315393 0.30817866 -0.34166956 0.33391294 -0.5774901
להזדמן 0.70588946 2.9801104 2.2162948 0.9225351 -1.9400877 1.6469471 0.2562111 0.35388044 -0.85553336 -1.0882857 -0.719711 0.11990315 1.827566 0.41270643 1.447298 -0.84509325 -1.4635423 -0.86257803 -0.6392215 0.63370556 -0.37924898 -0.079767115 0.99511117 -0.29835942 -2.131179 -0.592413 -0.67608654 0.36555108 -0.27412063 0.353465 -0.7381278 1.3352729 1.0663581 -1.2210239 0.28396827 0.22494875 -0.22783019 -0.2633518 0.8209798 1.0640074 -0.012762566 0.84107506 -0.34802306 -0.54706347 0.44753012 0.23555964 0.36198616
להסגיר -3.4891102 -3.3082783 0.23870955 2.1811655 -0.7247226 -0.16278519 3.3426898 1.6945161 -0.12932447 -0.08779183 -2.5531352 0.23526758 1.8268243 -0.9675788 2.3915994 -0.6228378 -0.62864244 -0.5500601 1.060634 -0.9454078 1.2197275 0.16576692 -0.13222831 -0.9710827 -0.2934175 0.95855767 0.9982651 0.75852776 1.5447983 -0.090741634 0.12549289 0.20389071 -0.49500418 -1.6560186 -0.42597467 0.8241059 -0.75949806 1.4362478 1.4137089 0.13094072 1.2379632 0.37655032 -0.06458593 0.83979917 -0.74039733 -0.6893491 0.84745634
להיקלט -2.219912 -0.31992084 1.2304395 0.483752 -1.4345647 -0.0074796937 -2.9251215 2.6005788 1.3724142 3.1636782 0.126364 -1.1009095 0.3911328 0.8306622 -3.0890856 -1.0932193 -1.667637 -0.6215113 -0.7500651 1.2873696 -1.6984085 -2.2406986 -1.9621769 -0.40860638 1.3089808 2.4562688 -1.2995783 1.0221678 -0.49593133 -0.14907153 -0.019575961 -0.9777015 0.6691489 0.84012747 -0.9802877 0.15716957 1.0980551 -0.34660608 0.26929927 -0.03783629 -0.6641407 0.53499436 -0.8597006 0.80247444 1.1638497 -0.29479793 1.0033953
לשכון -1.5628661 -0.77004 1.90076 3.4099486 -0.29676917 1.5833954 -2.1590142 1.5884824 0.83923906 1.7281414 1.4922851 -1.2069244 -0.5260865 2.73316 -0.3058222 1.2871364 1.271488 4.3135076 -2.147925 -2.630707 -0.19997928 0.101007305 0.49176696 -1.2685115 -1.3644328 -0.38599515 -1.402586 -1.5725725 -0.5487169 -0.3707031 -1.1430279 -1.2256701 0.6726006 0.079664685 -0.69882846 -0.95157737 1.0820694 0.2261288 0.3295053 -0.30578762 0.11891758 0.24944384 -0.76190263 0.8722784 -0.01639657 -1.0188087 0.4796233
לתעתק 1.4735956 3.6309142 -2.9374607 -2.2883146 1.4868178 1.5797662 1.3635439 1.4379097 0.8548139 1.5450186 -1.983285 -2.755759 0.49862587 0.63394827 3.24473 0.6117159 1.0433142 0.6142701 -0.80689496 1.8793967 -0.35556638 -2.2498097 1.0995607 -1.3018607 -0.70753855 1.5276501 -2.3406262 -0.7351625 -0.56425333 0.32416725 -0.6958207 -2.108607 0.43763644 1.6172804 1.16049 -0.58026433 0.1316054 -0.30331525 -1.1130593 -0.25388378 -0.1802615 0.11445412 1.6899831 0.12031418 -1.409847 -0.6941628 -1.6556927
לתחזק -3.6210036 -2.4308114 0.6719116 -1.6775506 1.393112 0.6010011 -1.4540248 -0.5414374 -3.1121085 0.3641528 1.0825582 -2.2670968 -1.289165 1.5555738 0.3038719 0.69785863 0.73065454 -0.21276045 -2.0038192 -0.805388 0.2651704 -1.063825 -0.29792982 1.4423208 0.109751344 0.7034865 0.6188977 -0.7917565 -1.5134764 -0.87406653 1.0825025 1.3294377 0.6794592 -1.767199 0.111216076 -0.018731311 0.25604373 -0.20563823 -0.8554835 -0.16052015 -0.86139035 -0.8287607 -0.63584095 -0.8503664 -0.87088937 -0.4623655 -0.27565825
לבטח -1.2954932 -0.46874216 -0.71695894 1.7182715 -2.6604643 0.0460729 -0.27355736 -0.31065014 -2.003781 -2.3094773 -1.408622 -0.915843 1.1670469 1.1377017 -3.0442736 0.8269343 -1.1407294 -0.8520295 -1.2579594 -2.1766016 1.2733679 -1.2924817 0.35375127 1.0519172 -2.4038606 -0.56692505 -0.59802425 -2.095077 0.27176052 0.79717594 -0.7588657 -1.719252 1.9652325 -1.4142505 1.7366953 -0.43017033 1.663441 0.11382139 -0.91105795 -1.4801497 1.323587 -0.14022169 -0.47045755 0.22172417 0.19214888 0.8175384 0.105070844
לאזכר -0.26629966 1.3264921 -4.546137 0.9759926 1.729211 0.7131417 1.7188966 0.23919006 -0.11641337 -2.1795444 1.7117078 -1.6664945 -0.7688007 1.1535225 1.4345363 1.1849711 1.0161549 -2.0122805 -1.2422261 -0.09804654 -1.3762877 1.6069858 -2.3272352 -1.0367877 -0.23138748 -0.41503718 -0.54744995 1.3299255 0.39215672 -0.4511912 -2.0049984 -1.1868768 -1.0044771 0.048375625 0.30977497 0.5427095 0.5428407 -0.4777447 0.054582927 -0.1599098 0.13318338 0.13532977 0.05001856 1.6539015 -0.5317483 0.018955372 -0.22915411
לתזמר 0.9616166 3.1518111 -1.6729726 0.1291902 2.7991965 -0.924394 0.34850842 -3.0145519 -1.236978 -1.170286 -0.6744729 -0.6677954 -0.4334058 1.7118977 -0.47531098 -0.74351263 -1.9399514 0.7111693 -0.000893484 0.96053225 -0.43170953 2.0292933 -1.4981943 -0.02217265 -0.32760957 -1.5899429 -0.740371 -0.24953611 1.2130555 0.86929226 -0.32015172 -1.088426 0.7902499 -0.49321944 0.15075152 0.9081293 0.013969945 -1.1416596 -0.9618379 0.7952051 -0.8828541 -0.3894513 2.718315 0.34765738 1.2407752 0.3298181 0.20477232
לסקרן -1.0446522 3.0750022 0.9946507 -0.2443548 0.127796 -0.8322419 2.005616 -0.68739885 -1.4155515 -1.399286 0.2414011 -0.93674767 1.4493507 0.21554458 1.8786999 0.48769388 -1.9551404 -1.1899619 -0.8777611 1.6492462 -0.30065426 0.62308365 -0.63057816 0.835258 -0.99091995 0.4597469 -0.44998252 0.5426381 0.92273813 0.2917667 -0.37155652 0.84045786 0.27621233 -0.8875556 -1.4071418 0.16411608 0.5825984 -0.25549912 -0.63552064 -0.87202436 -1.07008 0.27029696 -0.32316136 -0.8229909 0.3112083 0.3124436 0.3160089
לאזרח 1.4525906 -3.2547224 -1.564489 2.105237 -2.3378448 -0.7989719 2.7707894 1.0565673 0.15953252 1.4372308 -0.641288 -0.64491063 -3.5158608 0.3424232 -1.3437854 1.2509617 -0.6885897 -3.556069 0.8110472 2.109091 0.12040551 0.51320815 1.8896978 -1.692291 -0.17880222 1.6833818 0.6557916 0.34797975 0.48820212 -0.8875739 1.173639 1.0412493 -0.56485486 -1.3509063 2.3034675 -1.2014959 0.4651526 -1.897238 -1.1389251 1.5584016 -0.6734016 0.4875152 0.3059656 1.9129533 1.2591716 -0.93927246 0.9147341
תזמורת 4.1430206 -2.397744 0.7608093 2.5073175 4.7628555 -1.8444567 -1.3149824 -2.7593443 0.52503103 -0.16024338 -1.755074 -3.9807363 -1.771961 -2.2690294 -1.852261 -0.93384075 -2.8910935 -1.1639502 2.2866328 -1.3722042 0.64423865 1.7982035 -2.3149457 0.08759223 -0.8033463 -0.9894974 -0.12131189 -1.6408101 -0.5701193 -0.75041664 0.120454825 -2.2803283 0.15326104 -1.2504295 1.2217697 1.0102516 0.4905612 -0.25000647 1.4522479 -0.94027406 1.3398387 1.4178946 0.14569016 -1.2518927 -0.047013856 -1.9939027 -0.5465332
תצפית 3.6937134 -2.9528718 3.8073237 -1.69813 1.1741542 3.6364615 -2.596896 3.0463371 2.110128 -2.4030702 2.3344996 -1.7314566 -1.3703872 0.36102816 -1.549449 -2.606679 -0.5805593 0.33330068 1.3469641 -0.5882026 -0.5655087 -0.2890521 0.18368997 -0.31715098 0.9874902 -1.6858332 0.3884915 1.3030064 2.0196393 -0.30964795 -0.7264199 0.00023045744 -0.47861427 -1.3796941 1.0086973 -1.3606914 -0.48526454 -0.27864888 -0.5032129 1.8135751 -0.5088829 -0.62055033 0.26106337 -0.3908445 -0.609712 -0.33032387 -1.2619637
להגדיר -1.9629984 1.3493168 -4.1390505 -3.253218 0.031424567 1.8733915 -0.58121306 1.7583238 -0.18383466 0.6546114 0.10555284 -1.9415503 -1.5112448 -0.8843183 -0.95886296 1.3604271 -0.79151016 0.2302894 -0.107176125 0.95216703 2.9776115 0.7098826 0.43033367 0.78218514 1.1587427 -1.0490624 -0.9975383 0.46926808 0.3571183 -0.21494944 0.6575285 1.2285088 0.20190255 0.17858444 -0.25101295 0.113253064 0.7837201 1.6771543 -1.0753441 0.42193523 0.28353894 0.39401767 -0.27140516 0.9690506 -1.0909415 0.1926168 0.28213495
לזרוח 1.8099707 4.225383 3.7909029 1.6809279 2.0526927 -0.7489415 1.9314483 -0.6958231 1.7848175 1.2183028 -0.5110983 -2.2355394 1.0170509 0.15786111 -2.4741383 -1.3227226 0.433945 0.6051259 -0.1863609 -0.34257585 -0.10927215 -2.0545778 2.9936893 0.13180575 -0.46414298 -0.6771279 -2.1175284 -0.45948315 1.2064941 -1.7385212 -0.08127638 -1.2991267 0.28939745 0.24939467 -1.8155292 -1.5548222 -2.171561 -0.011259433 -1.333552 -0.70325637 0.122907214 -1.9158074 0.7227525 0.32942143 -0.9306955 -1.4930624 -0.4067122
להיחקר -0.7646663 -0.2750293 -1.4935538 -0.65144473 -0.4446561 -0.18048328 0.7172182 3.6912265 0.43099526 1.3556327 -1.3393933 3.7165804 0.78369063 -1.4235018 -0.6744164 -1.3935394 0.83323026 -0.2330647 -1.6694466 -0.8178765 0.7744489 0.84775543 -1.1052471 -2.421899 -1.4055628 -1.4672563 -1.413071 2.1775126 -1.4395375 1.872403 0.4786463 -0.43193653 -0.21515197 -0.7822939 -0.6552207 -0.45038316 0.06556043 0.81652844 -0.38273555 -1.6938461 -0.8348118 0.42493978 -0.57609016 0.34025759 1.0349724 -0.8393794 -1.3914566
להיפקד 1.1447695 2.1209424 -1.4105986 4.696453 -2.9652286 1.0808076 0.5536441 -0.78320926 1.960834 -2.1097813 0.768387 0.029709924 -0.09208004 -0.9357283 1.1345422 1.1423657 -2.0959308 0.3080196 0.6620663 -0.6633294 -2.304024 -2.2161496 -0.34085387 -1.1495754 -1.2113076 0.28867033 0.50866693 1.0300533 0.12514089 0.053266965 0.1490132 0.5761451 1.0848725 0.5027188 -2.3100424 0.0035240995 2.1696644 0.5390076 -0.47058922 -0.8013856 0.6254992 -0.707436 -0.80245036 -0.20378232 0.57618576 0.24221332 0.23595037
לסקור -2.2805645 -2.4134393 -1.4323949 -2.8825521 3.6673403 1.7588266 0.8942086 0.8412619 0.86317027 -1.0576499 1.3287338 1.9721061 -0.10569388 0.6219185 -0.9345156 -0.23417062 -0.35749805 2.5208762 -0.967455 0.5510692 -0.744443 1.982026 1.7846287 0.33000237 -1.4164116 -1.0061017 1.0901444 -0.79692274 0.5080801 -1.1535184 -0.7346037 0.7634962 -0.8807532 -0.0055802776 1.2411946 -0.30116695 0.49210203 -0.8032803 -0.951777 1.1956819 0.16006504 -1.1115767 -0.4691678 -0.14402784 -1.0528322 -0.3074604 0.19980799
משכון 3.1899343 -1.72019 -2.6240916 2.7065659 -4.5286474 1.539108 1.1274887 0.00943054 -3.079284 -1.9658084 -3.3183029 -0.055973314 0.10595789 -1.5501313 1.4484429 0.9843719 -0.6424431 0.8675907 -1.4961721 -2.573919 -0.1312631 -0.040140215 0.9454355 -1.4794747 1.1441593 -1.0718436 -0.708931 -1.2992345 0.43674242 -0.015780613 0.57263464 -1.5686878 -0.90937227 -0.46733382 -0.21628079 0.58475083 0.97978336 -1.0369505 -0.056311756 1.3195658 -0.94685656 -0.4215659 0.05986396 -1.2530391 0.38337266 0.35911384 -0.34446836
לגמול -1.1089228 0.24914749 -1.048141 2.2138267 -3.943502 -1.701374 1.4116735 -1.5741 0.45983285 -1.5299532 1.1927241 0.15817231 -1.2383037 2.717236 0.5662131 -1.2719225 -1.7026902 0.4435156 1.4112854 -1.443678 0.86875415 -0.49325603 -0.0960317 -2.4668128 -0.15857205 0.96174496 1.825952 -0.9073909 1.7990391 -0.48421538 -2.0734584 0.0978669 -0.6094609 0.4086423 -1.2999226 -0.84806055 -0.58258384 1.5945102 0.49930015 1.1279355 0.070410274 -1.1240519 -1.403327 0.71952474 -1.3774942 -0.29771864 0.31324524
להסתמך -3.4842985 -0.25749817 -1.2106085 -2.2382317 -2.0112696 0.051895782 -0.9393159 0.55163807 -0.012782992 -1.2350127 -2.120093 -0.114185624 0.11499992 -1.0985241 -1.9162728 0.5523315 1.607196 0.7254544 -0.9124069 0.5752837 -1.7797189 -2.335024 -1.8405081 -0.8339152 0.41853404 -1.9044192 0.09680609 -0.3945282 1.2078708 -0.057214648 0.41627604 0.81495774 -1.7896701 0.47302127 0.3573491 1.1776544 -0.3480858 0.019545231 1.2126442 0.08350483 0.6238286 0.12838542 -1.7477632 0.2418182 0.66238695 -0.5096398 -0.8828696
לתארך -1.0370144 1.8369799 -4.232199 -1.5641017 2.3397784 3.3505468 0.19708054 -0.2053744 0.91998243 1.5622464 0.8446983 -0.67698777 0.75064754 0.6181803 -1.4224895 -1.609707 0.97187924 -0.8943503 -2.7508206 -1.5522069 0.8677847 -1.2231859 0.17496595 -0.9584093 0.018640917 0.79504436 2.1861503 0.5472217 -0.48015258 1.1686116 2.1681077 -1.227745 -1.7417445 -1.3592669 0.8666905 0.30717665 -0.76450586 -0.7662561 0.6586256 -1.1519341 -0.33599487 -1.362192 -0.2945566 -0.8384695 -0.59142554 0.58807784 0.03291406
למשכן 1.1255345 -2.6898913 -1.1616566 5.1874585 0.46208215 3.1270318 0.34121418 0.43170768 -2.4631183 0.11786293 1.0373456 0.2823818 -2.638496 2.6193788 0.1145468 -0.20139818 0.92422724 1.9851 -1.0399421 -0.5177548 -1.4197435 1.0723006 0.5464418 -2.4830527 0.94985783 -1.1088294 0.3675975 -0.069202565 -0.7762229 0.9502773 0.24254991 -0.7036038 0.28555274 -1.1369894 -0.47388685 1.1075512 -1.9806776 -0.6369917 0.24289359 -1.9084858 -0.54362196 0.71194524 -0.30856857 -0.36244032 1.0744218 0.42983678 0.9059964
צלחות 5.673529 0.9527688 2.1250806 -1.1395475 1.7943996 1.9868376 -0.7604816 -0.16272664 -1.9037783 -1.1011592 1.5611308 -1.0283773 1.4638331 -4.3046947 -0.95436674 -0.7357079 1.8528074 1.1701901 -1.317807 0.6843104 -1.664658 -0.9731257 -1.3949612 -1.6689838 0.6561308 1.7536561 0.32429975 -1.5547057 2.5154512 1.6420466 2.0004687 1.9000187 -0.20237178 -0.0032325662 0.2580732 -1.2703218 -2.2214413 -0.27112585 0.19884253 -1.9207759 -0.11314235 -1.0537271 1.1052195 1.5711409 -0.41967934 -0.42890027 1.2987334
למחשב 4.6159015 0.41646108 1.3938111 -3.6052184 0.7710561 -2.3293552 1.9430889 2.0240614 -3.4207478 0.026847683 -3.1479857 -0.23163034 -0.7079928 3.5731006 0.35727632 1.2724437 1.7370874 -0.43335593 0.86616975 2.5130835 -0.5615881 -0.62077427 1.6697673 -0.8348112 1.2284886 -0.14018393 1.5355003 -0.026987566 -1.979335 1.1186546 -1.4268215 -0.089907624 0.035253417 0.060422592 -1.379214 -0.022303538 0.41214177 -0.77291226 0.9729625 -0.2895506 0.07008166 -0.8491549 0.08998332 -0.4936407 0.0949516 0.59772706 0.060497023
תקשורת 4.4975643 -3.5811565 1.4354287 -2.4712994 -0.011207626 -2.703044 -1.130052 3.071917 -1.8615143 0.41238487 0.9150691 -1.3337066 -0.31974307 -1.7375607 -0.29792547 1.044973 2.2635925 -2.4015694 1.0432445 0.11129725 -0.51366174 -2.609583 0.63773084 0.15652296 -2.841455 -0.92061263 0.44944394 0.23578767 2.1465485 0.9033495 0.035164427 -1.9665354 1.4175032 -0.1277486 -1.0128965 0.8588984 0.19119011 -0.16488464 -0.5138715 -0.31791916 -0.53096926 0.038568214 -0.039226227 0.027624046 0.029454289 0.25275823 0.6378839
למרפק 2.753779 3.2125766 4.4399805 -0.61890256 -0.2476759 4.177455 -0.8965411 -2.3913405 0.18491283 1.0129029 -1.6034023 1.7098819 -2.0362217 -0.48864976 2.006922 0.5591018 0.9781817 -0.9637332 0.60450965 0.48195428 -0.48767716 0.635637 -0.30944344 -0.6860517 0.11705991 -0.328141 0.5780985 -0.5822012 -1.9154572 0.095153525 -0.99729747 0.6748201 0.7870182 -2.052447 -0.17680106 0.21002515 0.660434 0.06469223 1.5533925 -0.29729497 -0.6744017 -0.5020825 0.08246243 1.117897 0.09932046 0.33211643 -0.06447002
לחשב -0.8919415 1.6194482 -2.0392296 -4.055172 0.42594415 2.5285895 -0.5464911 -0.66490054 0.025981247 -0.7926313 -1.0978266 0.31673566 0.052850712 0.10275022 -1.9522611 0.21113175 -1.4526813 0.121999495 0.88535094 0.23506364 2.2822752 -1.0581628 1.5151118 -2.4796758 1.8928196 -0.55752414 -1.2268128 -0.84178877 -0.97303575 -0.68799174 2.1598902 0.3022631 0.7303952 -0.25296307 -1.2787837 0.4952457 1.3106291 -0.6242852 -1.7399856 1.2012465 0.22302823 0.5201526 0.6954947 -0.31732574 -0.63288254 0.5627633 0.98390466
לתגמל -2.9151175 -1.5514026 -2.5174284 0.38150075 -1.8313146 -0.613631 -0.8672831 -1.2351795 -3.4120665 -1.9270195 0.7086751 -1.701656 0.54658014 0.009767379 -0.37442228 0.2533678 -0.027904818 -0.17051533 1.0878292 0.7828831 0.16868626 0.482191 0.36291036 -0.7227015 -1.7163681 -1.5285534 1.2729492 -0.29485574 -0.5300331 -1.2841389 -0.28215107 -0.25482017 -1.5958704 -0.23496303 0.9781057 -0.54817545 0.19170097 2.0361912 -0.868588 -0.44703665 -0.42431846 -1.762762 0.34011903 0.4190771 -0.2645878 0.90896964 -0.97433263
להחזיק -3.4956055 -0.52351296 0.86253947 1.513934 -0.8872979 1.2026649 -2.1585286 0.43667537 -0.6577105 -0.44095814 -2.7283976 -1.1549244 -0.043543704 -1.0010263 -0.42815486 2.645296 1.5613005 -0.2605858 0.055282217 -0.7273567 -1.4626838 2.2659345 0.9102715 1.041284 -0.44918406 2.366716 -1.1565026 -0.31699392 1.7055515 -0.49286708 1.0348622 0.006386407 0.03839905 1.6689515 0.24220064 -0.17628697 0.20708825 -0.57497525 0.7092124 -0.3500669 -1.167781 -1.2038649 -1.3603059 0.042446803 0.015301329 0.27111322 -0.53255194
לזכור -1.335565 2.9586987 -2.2619977 -1.6120284 0.12520246 -1.3039014 -0.10883537 -0.7067064 0.9892866 -2.7141757 0.08132356 0.054885674 0.5049002 2.2831123 -0.2036948 0.3221171 0.23616603 -1.011493 0.15351145 -1.2178849 0.50992286 -1.1639916 -0.004835061 1.9907973 0.91977316 1.6387895 -0.49935812 0.67649174 -1.018972 -2.457289 0.39970395 -0.9188032 0.7427454 -1.5787416 0.84419954 0.44783 -0.6688095 0.8317575 1.1119161 -0.8522241 -0.51985884 0.09179512 -0.6090884 0.5077699 0.10971053 -1.5931486 0.4957854
להתאזרח -0.99748015 -2.045079 -1.9299848 3.4945297 -3.1691313 -0.29019007 0.3610516 1.3491411 1.5298228 2.2645414 -1.4192196 0.35736558 0.49350035 -1.4898666 -0.040320914 -0.18394901 -0.8402685 -1.7618997 -0.53435093 2.8371701 -0.5824774 -0.033022616 1.838951 -0.62377304 0.5758258 1.4046232 0.43642724 0.50661147 1.8815007 0.50672054 -0.7659225 -0.13852206 0.83797324 -0.6954219 0.56517905 -2.6265278 1.2628897 -0.81610477 -0.057450786 -0.21218246 0.03359643 1.191212 0.20844547 -0.011338015 0.0023354506 -1.216465 1.1028115
לתפקד -2.9607117 0.4472923 2.3221617 0.32677135 -0.80709326 -0.99123776 -4.2401395 0.64381766 -1.3710684 3.454039 -1.2320927 -0.9618181 -2.7379036 1.8548274 -0.117917664 0.95258766 1.7558922 -0.19393593 -1.7625967 -0.9621071 0.623153 0.53032756 -2.2586164 0.31710288 -1.2900652 -0.042730466 -0.1359735 1.4336342 -0.046536673 -0.92442805 0.012412596 1.4340035 0.23802745 0.48044127 -0.72866464 0.6442899 -0.88302195 -0.108105235 -0.20030892 -0.30740514 0.8665978 -0.25102416 -0.5034273 -0.9636322 -0.8283312 -0.06343538 0.22136459
תגמולים 2.5901356 -3.4290185 -2.1128137 -0.8490919 -5.7306547 -1.8152989 -2.0011292 -2.2726402 -0.2638743 -0.94117785 0.14802948 -0.4558625 -0.57977116 0.9233265 -0.15628664 -0.8458473 -1.5216067 -0.2711667 -0.6327159 -0.7769732 0.8746034 0.66803175 1.1443994 -1.0085913 1.3481303 1.7318745 0.37792566 0.2482185 0.06868019 -1.2414223 0.43949595 0.9213336 0.3728133 -2.2685251 -0.97746986 1.0605377 -0.92292863 0.3562271 -1.3202827 -0.19057958 -0.78914815 -0.44372794 0.05649464 0.75510746 1.3816396 1.0216197 -1.3184855
להיסקר 2.606046 -0.3328714 0.1079686 0.56726307 -0.59453285 1.036416 1.3077033 0.3420173 -0.38716167 -0.81588167 -0.09465715 0.42829207 2.364105 1.3019058 -2.2542586 0.19460808 -0.53644997 -0.45128092 -1.8515079 1.7328538 -1.0964899 -0.98982346 -1.4162536 1.4205426 -2.5535283 0.15173101 -0.8527878 0.5627671 -0.71695817 0.49818495 -0.32586777 2.3128073 -0.02198587 1.6421689 1.6209685 1.1453954 0.51198053 1.5093005 0.52087855 -0.40470955 -0.50824296 0.11664008 0.9713891 -0.7294144 -0.7528496 -0.7232228 -0.384778
תרגילים 3.9783912 -0.01618388 1.030938 -3.1201632 1.2130104 -2.9239407 -3.1525967 -3.2873385 2.087697 -0.9397666 0.19344446 0.040185176 -2.1831968 -0.55924475 1.7276238 -0.7475986 0.8941757 1.164259 -0.3637162 1.4365703 0.5657472 1.3117617 -0.8709102 1.1156871 0.10887233 0.6732464 -1.7780527 -2.692173 0.8279671 2.984251 -0.07571866 2.2208357 0.7600143 -1.9564571 -0.002322018 -0.14224441 0.22406474 0.3762649 0.5160767 1.4200763 -0.28833786 0.9973368 -1.2306765 0.53790206 0.8135924 -0.72681165 -1.1284668
מרפק 2.9328096 2.0398276 3.6898427 0.3984832 0.40178034 0.84215873 -0.15411885 -1.9525868 1.563668 -2.037266 -1.8239391 2.0729845 -3.5401833 -3.2605908 1.056912 -1.7691828 4.2484455 -1.5919791 0.453375 1.3733578 0.56597614 -0.8849176 0.7174267 -2.6067073 0.040147018 0.5251235 -1.4559888 -0.73553914 -0.1601468 -2.3538733 -1.4663148 0.14382952 -1.1092981 -1.036012 -0.22455512 0.27901408 0.46375856 1.856254 -1.0844647 0.7293221 -0.56487244 -0.71941465 -1.4426858 -1.7601892 -1.0176706 0.1421152 0.016714469
אזרחים 2.9625978 -4.5413947 0.6230662 1.7522007 -2.974409 -0.666728 -0.85374933 0.78341764 0.93402565 -0.025531802 1.3512802 1.0743184 3.2649355 -1.018778 0.87163776 0.44779477 0.31318858 -3.4627101 -0.9421702 2.2187254 2.741699 0.937949 0.32907698 0.7842732 -0.3555168 2.9675777 -0.24726102 -0.52217454 -1.8429724 0.6257465 0.9769504 0.42461997 -1.0959079 -0.79871106 0.03715591 -0.064288676 0.023552356 0.44281948 1.6480197 0.471661 1.6599312 -0.85174704 1.781912 -0.957215 -0.07228475 -1.0351473 -0.15609169
לרגל 3.8826945 -2.174534 -2.0836792 4.1366134 2.3291988 -0.98729897 0.6771255 -2.6176 -0.105753906 0.12821823 3.999001 -0.104393385 0.36442018 1.5728718 -1.0395857 -3.6823506 1.2098554 -0.37158382 2.0611496 -0.40516865 1.2930357 -0.64756113 0.69630563 -0.4114771 -0.0900223 -0.5768502 1.3845187 1.667889 -1.0158349 -0.7093071 0.29252222 1.2352678 0.6210614 2.6469154 -0.6765264 -0.7506848 0.24538264 -1.3216898 2.2506247 1.0509517 -1.737005 -0.40274215 0.39132372 -0.19559914 1.1769601 -0.3697825 -0.69449645
אבחנות 4.074623 2.0993748 -2.1393654 -3.9638422 -2.5326276 -0.7066037 -0.75425076 1.1730803 2.6091368 0.8052578 -0.35999364 1.2965306 -0.9063029 -1.3109984 2.3797035 0.373541 -1.7218461 1.0397147 -0.88570833 -0.33191592 0.2876069 0.7821479 -2.7307315 -1.0337692 -1.3148004 -1.0328599 2.0565863 -2.425897 0.42409834 -1.1998848 -0.6397388 -0.028374763 0.6237699 -0.15109314 -0.21988977 -0.7723076 -0.7640788 -1.6399887 0.413409 -1.1518424 -0.8829141 0.5535467 0.9916852 -0.18038563 -1.4170911 0.025456473 0.03585439
להפקיד -2.2339687 -3.159053 -2.79783 1.0637774 -1.0004736 0.9031018 0.13279194 -1.037735 -2.3190129 -1.1736199 -3.0594504 1.0256306 1.2305492 -0.44362944 -1.3867743 -0.6119238 -0.21601515 1.1436437 0.3470495 -0.6933433 -0.9679268 1.9621941 1.2978547 -0.8686004 -0.613151 1.929646 0.54410523 -2.0737512 -0.22511289 -0.4582456 0.98159033 -1.0693012 0.50460494 0.6244358 -0.5489692 1.8886166 0.5058972 0.727421 0.46943632 0.30095083 -1.0250754 0.2701321 -0.41109774 0.3569941 -1.2404805 -0.22044529 -0.22978546
מחשב 4.7056813 -0.20136718 0.8241416 -4.5738616 0.2402907 -2.7181666 0.113101915 2.3649085 -3.262379 -0.9930471 -1.3880981 -1.0815408 -0.18009365 1.285248 -1.1440401 0.5587637 2.555304 0.67477816 -0.19698969 1.1922257 1.1079763 -0.45261633 0.41806632 -1.9654962 0.5531531 1.305027 1.7948173 2.3307636 -1.0121411 0.8716602 -0.16577716 -1.4285464 0.9232622 -0.062075425 -0.855805 -0.023922637 0.8277983 0.71307606 0.8055731 -0.0024924923 0.6715321 -0.21901281 0.08726041 -1.4730427 0.40283516 -0.7298536 0.24093086
להבטיח -3.6603432 -2.2407 -1.0403875 -2.3631828 -2.563317 -0.2769896 0.08037489 -3.367983 -1.2463201 0.037543353 -0.1534412 -1.1961466 -0.021566013 0.9131278 -0.5570382 0.21036316 0.074257985 -0.5415799 -0.06521172 -1.7121743 -0.30945277 -0.013727879 1.5490128 0.9268088 -0.50721055 0.6483069 1.1399167 0.051727243 1.0772759 -0.82048637 0.40516934 0.7672266 0.894972 0.7612632 0.20237921 -1.6273371 -1.0968382 0.5370016 1.5716972 -0.9804339 0.2534478 1.4482033 0.69020665 -1.5352156 -0.3880615 0.66318566 -0.8928691
לסמר 3.3682232 -0.41706356 2.6887035 0.31527945 -1.584275 5.067528 -0.47307464 1.4553876 1.2786374 1.3130035 2.0193026 -0.33759212 -1.3505228 -0.87334955 -0.29081976 0.5246454 -2.9793007 0.09402026 -0.93913156 -1.6656903 -2.0843704 -1.1955925 1.0797853 0.034369916 -0.23615727 0.7719735 0.11335499 1.9924482 -0.7659573 0.9008525 -0.4113522 -0.03220614 1.1670165 0.5731901 1.1811705 1.8387473 1.2369827 0.6674145 0.82424396 2.4858005 0.04815583 -0.8787166 -1.110992 -0.09332648 -0.17192869 -0.09977889 0.0052079544
מסמך 3.8302724 -4.0125704 -3.8707395 -1.1951183 -1.759253 0.81015825 3.9366865 0.68807554 0.6656917 0.94976026 -2.2444913 0.5624061 -0.37938166 0.35390073 -0.7733775 -3.7633183 1.9482448 0.04734521 -0.8782611 0.28825325 -2.164572 1.2800528 -1.5842476 1.6993183 0.08764044 -0.052331552 -0.48826465 0.024207814 -0.83033407 -1.4323845 0.8399692 -0.73487455 0.055846535 -0.19806693 0.94885343 -0.9560221 0.32586852 1.0607598 0.071154594 0.8762447 0.7846802 -0.36389598 -0.7214859 -0.03249355 0.6626655 0.44409764 -0.43067318
לצלחת 3.9883735 1.8918979 4.2070856 0.70603883 -1.514669 3.1074407 0.5620311 0.049938295 -4.1754785 0.6612391 1.5783234 -0.44312435 -1.544645 -1.148092 -1.2173784 0.16030118 -0.5721728 1.65828 2.6884918 1.8665478 -0.687208 -1.3214738 -0.3575091 -1.1417495 0.49577573 -0.2043224 -0.11342601 -1.3044564 -2.239276 0.47624153 0.8391149 0.11603608 -0.26647425 0.29591513 0.5300518 0.519046 -1.5815073 -0.03607479 0.6702566 -0.41094136 0.27416193 1.0131108 -0.8866863 1.5778193 -0.4851135 1.1668518 0.08081337
תגבורת -0.20413049 -4.245792 4.4768944 0.6529111 -0.3194108 0.22165327 0.80401003 -1.2694778 4.259858 -0.77584034 -2.262052 -1.4162328 2.373401 -0.49001837 1.001518 -2.1523266 -2.73143 -0.17128138 0.14727873 1.0379492 0.3716068 -0.33981827 -0.60452425 0.34246847 0.8571042 -0.2881124 1.3399087 -0.025363473 -0.79659873 -0.1536306 1.341551 -1.1514422 -2.030073 0.71601015 -0.24643856 0.78190845 0.28045064 -0.7760549 -0.7553443 -1.5592631 -0.54461396 -2.1393976 -1.3294761 -0.9452133 -0.19836499 -0.55458134 0.6384954
לסקר 0.6109244 -2.9192975 -1.7913475 -0.9739735 2.830447 -0.33980668 1.0737427 0.6647186 2.717698 -1.6751596 2.3592637 1.349979 -2.1063201 0.08579242 -3.392231 -1.0855805 1.4466732 -1.1834929 0.17152975 0.042240623 0.48448333 0.13653769 0.8234672 -2.575774 -3.0203004 -0.02640464 0.8057376 -1.9499276 1.275659 -1.3921813 -0.5940609 2.3319232 2.4280465 0.78321236 -0.60087097 1.7416593 1.058069 -0.7871113 -0.35414273 -1.2022293 1.1232947 0.5927584 0.42335725 -0.83587277 -0.37905464 0.19126554 0.03624912
לבחון -3.5776138 -0.43843332 -3.2838664 -3.8899503 0.83704025 0.55644226 0.24397694 0.6420926 0.19293423 0.8136069 1.6370393 1.8447552 -0.4566929 -1.507895 -0.83149177 -0.5194243 -1.3752787 0.9168078 -0.26015526 0.107481845 -0.60045296 0.83981526 -0.062816784 0.36935005 -0.42043096 -1.0183531 0.084134035 0.9564802 -0.20455869 0.6670837 0.44088608 0.36101103 0.64353055 -1.0285808 -0.34017098 -0.25806558 -0.8024645 -0.99628216 0.3461402 0.032511637 0.40753213 -0.3065388 -0.13727887 0.2089743 0.33675197 -0.2741917 1.0298686
תחקיר 4.8902392 -4.322904 -0.7574225 -0.9484255 0.12911402 -0.7825969 2.3740141 0.29470262 1.1990918 -1.7520919 1.6923449 5.361501 -1.0037076 -0.93194985 -1.1193662 -0.5691074 0.8103833 -1.7779872 -0.9861862 -2.025881 -1.4987342 -1.1300672 -2.4363308 1.2097542 -0.9897607 0.8768237 -1.0995739 -1.1524835 1.4440079 -0.9166511 0.8449283 -1.365862 -0.59793484 1.7622373 -1.0136852 -0.6643829 -0.8866985 0.47415295 -0.13449928 1.032617 -0.35747114 1.5774808 -0.3852374 -0.27074102 -0.46829987 1.7958181 0.64270115
להתרפק 0.29119706 3.4504344 1.196725 1.0811379 -2.489581 -1.0007284 1.5540832 0.69251513 0.26915002 -2.7149115 -0.050583266 -0.7160557 -0.89933485 -0.96451896 -0.20489395 0.07349884 -0.45593706 -0.2545532 -1.3254342 0.23490061 -0.5862053 -0.04369503 0.23456976 0.56909513 -0.37221235 -2.068683 0.36208203 0.6619095 -0.0149291605 -1.3523592 0.6799931 -1.0320201 -0.98617303 -0.1580498 1.0897646 0.19679937 0.28885373 1.9289188 0.5028622 0.17804833 -0.46758232 0.6943792 1.6401913 -0.06121917 -0.93002325 0.7209662 0.58401316
מלכודת 3.1611147 -0.10952993 4.5089183 -0.9034357 -1.3776048 -1.0262642 4.415875 -0.58429927 -0.5733438 -2.286383 1.0693116 -0.03650234 0.9078215 -0.6494886 -1.1346997 -0.33667782 -0.79497236 3.2081027 2.1777925 -2.5827239 4.153195 1.4458245 -1.2025555 -0.89906096 0.74174255 1.7394427 -2.1523757 1.4839731 -0.06547798 -0.4869696 -0.58038473 -1.3513486 -0.477414 0.06567434 1.0497274 -0.6272725 0.6349771 -1.9531802 0.0885336 -0.45477682 0.23555586 -0.35818154 0.18533035 -0.15535249 0.12523758 0.12424251 0.70344555
להבחין -0.6363384 3.7448516 -0.9730475 -2.1404421 -0.6597246 3.1089704 -3.2576063 3.0644693 1.9355943 -1.0564369 1.3499497 -0.84545285 0.9347952 -1.9435835 -0.5519056 1.3660667 -0.2189541 -1.633596 1.1775162 -2.057453 -2.285393 1.8246064 0.37465096 0.20817983 2.4697342 0.45913833 0.4276696 -0.4899039 -0.5770966 0.83462685 0.020809308 -0.7112906 -0.8403476 0.5816253 -1.1841352 -0.07859597 0.34057492 -0.07555977 -0.066372454 0.054375704 -0.09886485 0.21907498 1.5204157 -1.1151261 0.43245253 1.189238 -0.598493
ללכוד -3.584157 -0.8902578 2.849989 -1.2175685 2.4362755 0.57506156 2.7133303 0.19579276 0.3333961 -0.71606165 -0.40714014 -0.88781655 1.8763521 -0.44804966 1.7604233 1.4249942 -0.41032264 0.6080985 1.3849187 -0.9934941 1.0062766 1.522663 -0.24558052 -0.5397069 -1.1390967 1.0407183 0.16496937 -0.2880367 0.4161206 1.3444823 0.779064 -1.5787753 -0.89254385 0.1798435 -0.7731151 -1.3486804 -0.73041654 0.693141 0.014506879 1.3076731 -0.39322847 1.0369668 -0.28163505 0.14159259 0.19895686 0.6685349 0.12560482
לסמור 2.36764 5.1540856 2.552092 0.621118 -1.2622187 2.8132637 2.0974636 -0.42483783 0.17382991 1.2440461 0.1464607 -0.7636573 -0.37381405 -0.734483 0.44052032 1.2734443 -1.5249294 0.9245861 1.3112103 -1.7931837 -1.1276989 -0.79136896 -0.23420921 1.3108784 -1.9835969 0.21908814 1.3066193 0.9198591 -1.1352335 -0.7551306 0.2952348 -0.4150838 -0.35679138 -0.9362466 -0.08756472 -0.27914533 -1.2207482 0.1307642 0.15228619 1.8052858 -0.39693487 1.8888608 -0.24038212 0.40517446 0.26518938 -1.240858 -0.5249534
להחשיב -2.286873 3.4805987 -3.621982 1.0138638 -0.33528703 3.0757117 -1.0023985 0.7763617 -0.8122587 -0.90148944 -0.57582366 -1.5291817 -1.1169792 -0.91910994 -2.3065271 1.5485489 0.82173175 -1.0100167 1.5527205 0.5404616 2.5350885 -0.44443265 -0.40665323 1.3029876 -0.83133984 0.9227017 -0.16869393 0.4414633 1.1636587 0.9325924 -0.86181533 0.8777747 -0.7457513 -0.009515414 0.36956063 -0.49615335 0.2345603 -1.6594418 1.2923521 1.2005029 -0.24763893 0.5176908 -0.93906057 -0.9366096 -0.37205705 0.91305417 0.6665913
להעתיק -3.043671 -1.0106679 -1.6556329 -0.23465864 3.805189 0.6163504 0.7766875 1.6610345 -1.7985808 0.6391624 -1.1709151 -1.5439329 1.0122555 0.6983887 0.8232716 -0.49698558 0.3095457 1.6088532 -2.0404768 1.1362667 -0.33106428 -0.021683836 0.65717614 -0.61843884 1.3221248 0.06710692 0.47014746 1.010813 2.0435019 -1.082914 -1.7628295 -0.27490732 -1.2834522 -0.64312303 -0.7448036 2.3705294 0.39184788 -0.6543406 0.34746024 0.9595541 -0.62643844 0.82736313 -0.6561415 -0.16399696 -0.2589744 -1.1071471 -0.15552431
להקליט -0.367803 1.297562 -0.10694186 1.0390755 5.872705 -3.4134736 1.095457 -0.25110635 -1.3611821 2.4525895 -2.036747 -1.0140425 0.10689564 -0.35667542 -1.6806945 0.06370519 -2.028404 -1.0710533 -1.6316599 -0.8143944 -0.63220966 0.16584952 0.2611776 0.6393038 1.7195069 -0.46964794 -0.3058869 -0.25290138 1.057727 0.38221148 -0.18791878 0.3888755 0.807421 0.9478381 -1.4360857 -0.037858192 -0.98319477 1.8017035 0.4739285 0.57900614 0.82143015 -0.016366454 -0.7020312 -0.7182407 0.1850816 0.20573331 -0.4721462
לארוך 2.1109443 1.9878519 -0.3258982 0.5983381 0.13242133 1.2999727 -1.8062282 -2.278105 0.044840094 2.6338837 0.26665798 3.5470626 0.946503 3.237324 -2.3058312 -0.7398359 0.5677945 -1.383686 2.3634403 -0.68761075 -0.41260388 1.0133898 0.02787028 1.5473726 -0.46342665 0.1456026 1.8246409 -1.1052155 0.8695051 2.5108306 0.581755 0.11433395 -1.8535576 0.49587616 0.07749844 0.62595206 0.61813504 1.5125804 -1.0796949 -0.44216567 -0.58442897 -0.40903133 0.19318025 0.96234936 -0.53038466 -1.5689241 -0.120446146
לזמר 2.5227556 1.131035 -1.338798 4.751791 3.1146998 -2.33879 1.6054133 -1.8787493 1.1683358 1.5086514 0.060596026 -1.9499748 -3.5072339 -0.4553551 -1.241805 0.9867997 -1.6397423 -3.740024 1.7123168 -0.51689404 -0.38887215 -0.8123054 0.6822113 -0.8882761 0.9000143 0.19073845 -0.6505273 -0.8998551 -0.921753 0.6421802 -0.24829815 0.44072104 -0.70733273 -0.8866115 0.71725416 0.5127694 -1.2427388 0.5670423 -1.2248833 -1.3312545 0.52586234 0.33425418 -0.6255302 0.012504991 0.12947015 0.8979234 0.2829531
אבטחה 4.004001 -5.128086 2.204826 -2.9430828 -0.33655858 -1.292704 -1.7478185 3.1340067 -2.0842874 -1.4474894 -1.4657109 -0.3674027 -0.21237332 0.7507844 2.6527493 0.47946307 -0.13096914 -1.3524089 0.5083461 -1.2455606 0.5180402 -0.2981933 -0.25896427 0.91243255 0.54665214 -1.2234974 0.003653391 2.0226953 -0.09423204 0.38810483 -0.17103289 -0.31045848 0.27139935 0.50619096 -0.5879201 -1.4665791 -1.0740904 -0.05719629 -0.5911869 -0.61497396 -1.0824223 0.24471077 -0.32365355 -0.11191866 -0.8611588 -0.6859097 -0.54665715
לקשור -2.9735448 1.2365475 -1.4402685 -0.71159977 0.021172483 1.6036204 2.4224603 0.2631279 0.4316133 2.856466 1.76138 -0.7359978 0.91612077 -2.404621 2.5603647 -1.7643027 1.9162136 -0.49874532 1.4550799 -2.6120625 1.4124727 -0.64785266 -0.1769847 0.18332818 0.48448595 0.41205913 -0.63124466 0.66727275 0.8906449 0.24409875 1.0439951 0.94260794 0.5719142 0.6511278 0.5463447 1.0851315 1.4728068 0.08632536 0.5572533 -0.3052709 -1.3883752 -0.4916949 0.15102933 -0.082725 0.2737433 0.07072366 0.22335425
להתגבר -3.8980517 0.5332014 2.0733652 -3.0478306 -1.6211443 -2.1612964 0.7154709 -1.3430085 1.6768469 -0.7327247 0.46041447 0.67195684 -0.23899433 -0.42590472 -1.287017 1.3954103 0.7289575 -0.03792221 -0.934351 0.1863215 0.49355233 -1.2521517 -1.478411 -0.74035555 2.4332962 -0.15498482 0.49556416 0.20535794 -0.22407174 -0.56379086 -1.0114348 0.55598366 -0.7413025 -0.16857153 0.34596124 0.600388 0.5383932 0.08651726 0.36292464 -1.274812 0.556167 0.6732932 1.069137 0.5159635 1.6012062 0.28443292 -0.83033466
למסגר -0.35113046 2.6723151 0.28952667 -0.34830472 1.3830609 -0.6711388 1.1074258 -0.15724029 -1.7637539 -0.8530353 1.1187013 -1.4648123 0.17799805 1.7805926 -0.45268807 0.16282202 -1.0053566 0.20631126 -2.5542011 1.0227343 0.1814057 2.8272882 -0.02610945 1.764395 1.1252935 -0.12672918 -0.8083237 -0.13279228 1.7812823 -0.84111995 -0.1319547 1.1707854 -0.11978538 0.04147941 0.26444006 -0.21142152 -0.6208011 0.5451646 -0.59234107 -0.56060034 -0.50493246 -1.0174469 -0.8364549 -0.52688855 2.6228466 0.39675832 0.72802824
להתארך 1.4990244 4.626482 1.2598343 0.6064841 -0.6094595 2.4077015 -2.5600681 -1.9685848 1.0477978 2.8596437 -1.5468377 4.0963864 0.2595973 1.6652892 0.7761598 -1.0761942 0.35232317 -0.120913886 -0.5943308 -0.7504492 0.24346453 0.00546768 0.9316038 0.48253146 -0.801453 -0.5246906 1.4562241 0.1145427 0.656768 0.9035951 0.40976378 -1.5852478 0.061913636 0.1597431 0.3943799 0.71476126 0.709367 0.5376892 -0.48462224 0.5797392 1.3386514 -0.52513355 0.5442742 0.7068148 1.0559556 -0.16416502 -1.1847473
מספר 3.9878764 -1.8140466 -1.922745 -0.30846965 2.6588435 0.1529929 -1.4259809 -0.8294524 1.4729959 1.3310565 0.7489499 2.3860426 4.734242 0.04015999 1.1028358 4.2437205 -0.26730305 1.0002108 1.3158364 0.31238833 -0.5636183 -0.52378225 -2.5038116 -0.1841974 0.35802212 0.54612374 -0.35780498 1.5268404 0.73238206 -2.393989 -0.58977425 -0.012876965 0.45150003 -1.1014816 2.3618581 -1.0922698 0.77303934 0.6832695 -0.1840318 0.07567067 -0.20809099 -0.6588092 -0.51705873 -0.069661155 -0.024244951 0.59091187 -0.7939445
לקשר -0.5164255 0.3550205 -1.304756 -1.5693343 -0.8448016 0.32448056 2.374747 2.1568046 1.6771898 3.6970334 2.5929046 -0.61983615 -0.71489275 0.883367 1.6278812 0.16260658 0.96614325 -0.83893096 3.9696937 -1.6088967 0.34900337 -1.0114135 -0.6387329 -0.015633559 0.78804123 -2.169906 -0.034839794 -1.0287133 0.34338593 0.4120349 0.74554694 0.373828 -0.04296745 -0.15899807 0.7455327 1.3288307 -0.1523675 0.46696216 -0.52599174 -0.5945604 -0.880335 -0.042827643 0.19177927 -1.7295574 1.4450803 0.40269342 0.021903591
לפקד -1.9318334 -4.257629 2.5641625 -0.4891242 0.67207384 0.90200377 -0.759058 -0.7836312 4.800226 -0.4967102 -4.408188 -0.9250168 -2.178152 1.4102772 0.0042136246 -0.45432928 -1.0259373 0.77505726 -1.1070523 -0.031200342 0.43354678 0.52409244 -0.81348836 -0.6291451 -1.7052722 -0.27443284 0.52480036 0.75499195 -1.7366719 0.0869677 -0.2691903 1.2009249 -0.73286664 1.9833932 -0.12674595 -0.025648922 -0.06779027 0.485442 -0.2858708 0.6662439 -0.9475374 0.022574537 0.8862735 1.588871 0.9835796 1.494644 0.9934031
למסמך 3.652295 -1.2898223 -3.988043 -0.42735314 -0.752343 1.7562296 4.7499833 1.4727494 1.2022858 1.3421642 -2.3050032 -0.014659334 -1.3233068 2.8875678 -0.6174347 -0.67573464 1.724534 -0.78403467 0.53680044 2.1834865 -1.2449063 2.0025637 -1.2349421 2.5647306 1.1862459 -0.35715163 -1.3524672 -0.35444373 -1.2769319 0.5223707 -0.018118782 0.49240017 -1.5905637 0.013687828 -0.5539585 -0.92788804 -0.4070746 -0.011703135 -0.8230927 0.38424954 0.14615709 0.1072947 -0.5222867 -0.95640564 -0.5341214 0.31655523 0.49967018
להשכין -2.703619 -2.0200295 0.14153223 1.8979374 -1.1973149 -1.351892 2.5496552 -0.9751829 2.7976644 -0.21946196 1.5003769 -2.223637 1.3382833 -0.09921373 1.5707216 0.53336966 3.0372415 0.24101712 -0.41656327 -2.1262655 -0.39703688 0.35771132 1.2345034 0.47764763 1.5722721 -0.82931787 0.86562943 -0.8280125 -0.15836298 4.2459435 0.22665496 0.566962 0.3391484 -1.0196154 -1.0413617 -0.53560376 2.597309 0.77307576 -0.87862253 0.18884405 0.89790887 -0.27673355 1.1625849 -0.4320073 -0.32849106 0.06839548 1.1224262
מסמר 4.401843 3.1972315 2.4777575 -0.2107175 1.5214486 2.1644082 3.5084314 -0.84572935 -1.4744499 -2.548135 -1.3303919 -0.05818289 -0.997428 -3.3913367 -0.55392313 0.90010315 1.9239552 0.4684851 -0.8847312 -1.2903486 -0.16760407 3.1425028 -0.6963994 -0.7894415 0.1781274 2.1113837 1.937547 2.1665008 0.24415146 -0.4742785 0.8150812 1.0009984 0.48549148 2.1276393 -0.61148465 1.3062435 1.2916319 -0.508695 -2.0254912 -0.5870241 1.0166504 0.4651813 -0.40923616 0.34403935 1.1493957 -1.5615655 -1.3143679
לשכן -2.6020138 -3.1852849 -1.5186652 1.5807108 1.0071152 3.1296551 -0.22830814 1.9414692 -0.7188507 -0.22213592 0.64589196 -1.5887835 -0.6544607 0.7678696 -0.52232397 1.799225 -1.2669713 2.6988595 -0.13641591 -0.24732661 2.9257 0.4056363 -1.1933117 -0.79611075 1.4983486 1.0412687 0.01948611 -1.732996 -1.7706909 -0.73595 0.8205666 0.6634986 0.4247504 0.67431253 -0.35525927 -1.3772272 -0.05852359 2.426205 -0.9232265 0.55252075 -0.10653017 0.47633553 1.0995705 -1.5612279 1.2907639 -0.45679948 -0.59694666
לאבחן -1.0121696 2.9781065 -1.3703858 -4.7398305 0.8199861 0.43469587 -1.3027776 1.0382531 0.67701197 -0.018883897 -0.04967822 0.8926254 -1.3441007 -1.8618923 1.672452 0.76727515 -2.8006983 -1.2520716 -0.47695097 0.07796824 0.9050583 0.91575927 -0.6688145 -0.8307951 -0.35873634 0.0610572 2.7497513 -0.07513832 -1.5565948 -0.8932207 -0.5777414 1.1972525 -0.11505142 0.4506579 -0.291065 -0.39705068 0.5637384 -0.52604324 0.19085728 -1.2976537 -1.0556555 0.097829714 0.49633977 0.3721015 -1.282467 -0.4340184 0.709205
לגדר 2.2700558 -3.2039647 2.7636178 1.4079803 -0.1699161 3.968486 1.8450825 2.2889826 -0.16031718 -0.40497342 2.445784 2.9270751 -1.542928 0.6645711 -0.5602036 2.2638144 -1.2436156 -1.2307224 -0.61909354 -0.16335478 0.6537781 0.44647634 0.98260033 0.6689695 3.4334576 -0.945849 -2.241939 0.47182763 0.5274741 1.4589968 -1.2310451 0.4883938 0.5748317 -0.42373633 0.6690484 1.1169086 -0.87502915 -0.73221093 1.04407 -1.2581127 2.16143 -1.5105621 -0.3671445 0.1689901 -1.2207304 -0.100364916 -0.8923961
תחזוקה 3.5942183 -3.9323719 2.4314888 -1.8001814 -0.8394536 0.7246753 -4.234313 0.41249192 -2.5273113 -0.3181823 -0.6793873 -0.27181855 -2.0417554 2.0032918 1.2096782 -0.3302304 -1.5031409 -0.32017693 -0.14148559 -2.4615242 0.6782029 -2.2480516 -1.7787066 1.4489815 -0.6784047 0.021214249 0.112462744 0.11625991 1.4598095 0.53755856 0.85883653 0.3665162 -0.33528984 1.144486 -0.3245424 0.12515154 -0.24860153 -0.78342944 -2.2355886 0.69696504 -0.76520467 -0.5113539 1.2110655 -1.0813357 0.97017056 -1.2356019 0.7292212
להזמין -1.4305757 -0.62135375 -1.7949961 1.359897 3.3756154 -1.5923916 0.22219738 1.2650944 -2.8819687 -0.41284966 -0.30391142 0.8016477 1.8821294 -2.0519335 0.4060187 -2.0210748 -0.53908205 2.3744664 4.3616676 1.0084171 -0.26721174 0.17374697 0.052444026 1.1581061 0.5005215 0.35431877 0.22403996 -0.9959286 0.08640365 0.055047538 0.2680107 0.8626821 -0.41137627 0.63659155 1.2520564 2.1935184 -0.021741465 -0.18448177 -0.0035891107 -0.11289373 -0.92222315 -0.2959364 -0.29262495 0.4240353 -0.18993214 -0.35359854 0.7307913
תזמון 3.8365905 0.6368998 0.41163567 -5.431197 -0.25024927 -1.1449862 0.1566309 -2.5266392 -1.9180775 -0.12252972 0.12717023 1.1525364 0.26556218 1.8195245 0.74027944 -0.18862522 -0.9350952 -1.5351963 -0.41712958 -1.1144111 0.3336216 -0.97677094 0.49758643 0.042231828 2.3703303 -1.5183152 -0.51716703 -0.0031120689 0.038098775 -1.2038769 0.5270107 -0.30337265 -0.51835054 2.2897043 0.4686911 -0.42322156 1.4016109 1.148944 -0.2961899 0.3374472 1.8555936 1.4984426 -0.30859855 1.1705228 -0.05682262 -0.69072783 2.1035242
לתחקר -1.6161437 -0.93864197 0.21084602 -0.90090585 1.3180357 -2.0936573 2.2826047 2.2742574 0.2803276 -0.56802887 -0.80703986 3.7550957 -0.67935294 1.2980992 2.5002096 -0.0644013 -1.5869188 0.29679468 -0.13736273 0.09163584 0.97597134 -0.49499917 -0.082737975 -0.35484552 0.24653871 0.3786079 -0.41042423 -0.45436364 0.9163351 0.6453687 2.5541775 -1.1370808 1.2302209 0.13654077 -0.12733488 0.644099 -0.8029195 0.9365493 0.9478672 -0.46276066 -0.33454636 -0.5601339 -0.38614947 1.1374583 0.09026293 0.3333141 -0.008299201
להשתכן -1.6543765 -2.7730901 0.43371466 5.853136 0.5045327 0.33841792 -1.3637434 1.9739249 -1.8274614 0.19798082 1.9510665 0.4523527 0.64188284 0.20526646 0.6915365 0.71421206 0.18620647 0.8453838 -1.7026346 1.028807 -0.7196099 0.32839838 -0.33863991 -1.3790123 1.0845025 0.92897564 0.617432 -0.31694677 0.306203 0.38465673 0.07958996 0.8986728 -0.6696856 0.28590512 0.8106255 -0.56389946 -0.11299789 0.33784884 -0.16266824 -0.40048394 -0.70474255 2.295017 0.46798563 -0.6214974 -0.774881 -0.13355346 -0.22323288
לתקשר -1.9705477 1.5551919 2.2798724 -2.1382296 0.640665 -3.0542622 0.23265512 3.6502218 -0.20539749 0.81813216 0.19476159 -2.2401254 1.1881297 0.33143777 1.7962698 -0.2947562 1.9077529 -0.09837758 1.3362483 0.80980116 -1.6972734 0.09350557 0.23059833 -0.5565552 0.3955325 0.11721842 2.105355 -1.3214979 0.22494237 -1.0703477 0.63842124 -0.5659031 1.4195055 -0.14716028 1.6774173 -0.26074713 0.57474744 0.062360976 -0.88431597 0.09371811 0.76593614 0.34834465 -0.84701085 0.3763335 0.9644796 0.13969672 -0.030318147
לגבור -3.6685352 0.084667265 2.9532614 -0.34801152 -1.3812119 -2.415098 0.8842358 -1.6122155 3.3060033 -1.5402368 -1.1728123 0.24758296 0.8378256 -1.6519477 -1.1300199 2.1765718 2.5954807 1.0901225 1.2024462 0.2700944 0.34136906 0.26866698 -0.6646328 -1.1949762 0.35272366 -1.2664411 1.1925 -0.20213883 -0.01878703 0.021188656 -2.1030781 -0.2377193 -0.25052327 0.55370176 0.881154 -0.20636734 -1.4949657 -0.056908235 0.66943604 0.5257629 0.44724014 0.19749725 0.20023602 -1.8273579 1.7502098 -0.146508 0.087172285
למספר 3.7161686 -1.1472034 -1.2877008 -0.04762328 1.1974046 0.21292327 0.18115267 -1.2101 0.9421128 3.0945232 0.6503283 1.4254673 2.5698829 2.2183158 0.37378222 6.3254113 -1.1050043 1.0566127 3.958447 1.1981653 -0.70110536 -0.79437464 -0.9734275 -1.1096869 -0.033690255 -0.51771504 -0.1094992 -0.37633866 0.9453124 -0.19314668 -0.76597255 1.1789985 -1.2285473 -0.10775819 -0.16370952 -0.25878158 0.6418971 0.87646747 -1.0873045 -0.99405426 -0.58090097 -0.6767928 -0.8202363 0.0058302 0.39304557 -0.30067134 -0.16535807
להגביר -3.5738444 -0.7009839 -0.43571422 -3.2278852 0.26072636 -0.42809847 0.34734696 -2.8940675 -1.3772769 1.3806268 2.6814423 0.27646658 -0.2394773 -2.0382493 0.3963474 0.3501116 -0.19382407 -2.0205398 0.5294991 -0.44951442 -0.7274186 -0.2710048 0.4256439 -0.042517368 -0.40047148 -0.025726758 -0.9704999 -0.4894736 -0.38186896 -1.1812378 -1.0025537 -0.52043664 -0.3013282 0.30822527 -2.1206765 -0.14506496 0.99679255 -0.66390944 1.3897367 0.28820598 0.5996733 -0.59947944 1.1179246 0.7991341 0.48114663 -0.848897 -1.030476
להתפקד -0.33503726 -2.248406 -0.9309945 3.107423 -1.8853608 -0.36116335 -0.12554832 -0.15652762 -0.20154704 -0.13541389 0.1206357 -0.69508785 1.4346634 -0.018744163 0.3743576 -0.4916093 0.6440733 -0.92227167 -0.64965546 3.5335815 -0.2966882 0.71449935 -2.160356 -0.6641064 0.80423445 -1.3804184 -0.487959 1.4684724 -0.057732098 -0.79421735 -0.86263883 -0.6129202 2.847943 1.1168103 0.048556257 2.0966835 -0.15919025 -0.01032914 -0.71036804 0.051546086 -0.04219059 0.4201406 0.8793018 0.30086792 -0.85663253 0.35763198 -0.34636182
לפקוד -2.9417331 -1.5347191 -1.3375158 3.3195739 4.2905693 0.33215407 -1.7909081 1.3674232 -1.571054 -0.90269107 2.7588196 0.23842672 -0.35023922 -0.626658 1.1472737 0.67458904 0.74098307 0.8979972 -0.21455707 0.2571203 1.5702372 -2.4414973 0.5204645 -0.31330103 -0.6828017 -0.6709407 1.4021845 0.84700733 -1.4205569 -0.51268506 -0.78264594 0.5624526 -1.0139652 -0.11814532 0.8565155 0.108475424 0.6484311 0.12399946 -0.41572747 0.031859055 0.99742424 -0.72037536 0.33358097 0.6669625 -0.024962487 0.16803871 0.42554036
להתלכד -2.1220493 1.1315426 2.949052 1.5016985 -0.84248644 2.3588548 1.003924 -1.6286131 1.5245312 1.8681469 1.1605059 -1.0630267 2.134627 0.18922691 -0.83399105 -1.1155373 1.936994 -0.33088484 -0.41625303 1.7111295 1.1596855 2.2907743 -1.6111531 -0.04902309 -0.06756505 -1.4355057 0.5167762 0.090903856 0.21713576 -0.58972245 1.2003716 -1.2279735 1.7720094 -0.52708936 -1.4795305 -0.019504141 -0.4958487 1.0758849 -1.5980724 0.20676248 0.127702 0.34009337 0.10441329 1.3354787 -0.19954571 0.67527455 -0.2038494
