להתארך 2.7357144 7.320588 -3.0650218 2.1303523 0.73458815 -0.06956506 -3.744262 -4.5035076 -5.3835998 -1.7913096 5.3956223 -2.4537609 -0.6471232 -1.196204 1.9957174 0.6445318 -0.4531221 -0.09084976 0.097770005 -1.8642436 -0.60410637 -0.641513 -0.42170498 0.5548977 0.9779796 -0.94531655 -0.58309156 -1.2178317 -2.162855 0.5163883 -0.6501037 -1.1969715 0.408108 1.715142 0.17199159 0.09679599 -0.7310646 1.0190014 0.9969586 -0.35712865 0.22849514 -0.1685518 -1.7910721 -0.7652401 1.8675656 -1.7213784 -1.3438848 0.8669669 2.0510437 0.7217176 -0.02593566 0.359908 -0.25546932 2.4338338 -0.0495935 -0.44217166 -1.8907393 -0.5164611 -1.7712972 0.4744842 -0.22427274 0.2870659 -1.6741372 0.4536838 -1.1114233 -0.84935546 0.42494443 -1.2385447 0.43077707 -1.6657333 0.5737184 0.08897535 0.36636776 0.076340154 0.23226993 0.5567383 0.33822292 0.55908173 -0.55247456
לקשר -0.22715683 0.6897554 2.6756477 -0.54256606 -0.38141295 -0.35596994 -0.9681492 6.8513174 -4.9296384 -1.3647332 -2.638283 0.58388245 0.72587836 -1.3684906 1.8425988 3.3883722 4.1045647 3.6648827 -0.32606357 -4.437431 0.050908964 -1.844314 -1.8795481 -1.2584851 -2.000443 -0.8832151 -2.7732632 2.8624194 1.4026605 0.8037674 -0.49025118 1.110559 2.3846653 3.5493665 1.8001322 0.5216472 0.31436914 -1.1281555 1.4358028 -0.860039 -0.9583943 1.3909354 -1.6878382 0.28784785 -1.0249017 1.1412989 -1.3657212 1.0904222 -2.03589 -0.85099924 1.0467242 2.0901735 2.1318874 0.42291343 -0.9052901 1.2611904 0.44143492 1.3608394 1.4341397 -0.1853579 -0.73976105 0.20975788 -1.7691122 0.7227195 -0.62685937 -0.035742197 0.31518006 3.1707826 -1.3900591 0.19870877 -0.8864338 -0.89484733 0.51785994 -1.0353584 0.34356475 -1.1629287 2.2351255 -0.98593897 2.1696968
תזמורת 5.062344 -4.6486773 -1.3484086 -2.253049 6.1683073 -2.788689 5.9949484 -1.4692584 2.742919 -1.2721368 -3.4836123 3.4409163 -0.9575953 3.5382113 -0.31483397 -2.7774956 -3.2851188 -0.7054314 -0.15042064 -2.7868035 0.49985713 -1.708507 -1.437801 3.3075197 1.2887962 0.5515689 0.7348196 -0.5419207 0.3317239 -1.0493463 -1.5708282 -1.5228978 2.281634 1.183503 2.5683625 4.490208 -3.1853418 -0.4086927 3.0515578 -2.493587 -3.1781433 0.49029702 -4.731634 -0.54485947 0.84721714 -3.3100712 2.7319472 0.25893468 -1.57043 0.023245104 -1.0006392 0.5910296 0.9938828 1.1978121 1.6584508 0.31369036 0.39669392 -2.0683005 0.3604845 -2.552318 0.5605864 0.8571789 1.8806144 -0.19455914 1.203517 -0.11527253 -0.80500543 0.27033278 -1.6351337 0.10597517 0.03972697 -1.238292 1.1742954 -0.35635206 -0.87439036 0.5724769 -1.8191915 0.3111469 0.81021285
לזרוח 2.109258 6.599387 -4.920858 0.6765252 5.0251303 -2.817141 3.2183995 2.6672144 -1.3749751 -1.3231367 -1.3946282 2.4567423 -1.4313431 -1.1051666 0.29792798 -2.6084454 -1.8497986 -0.42826614 2.7732508 -0.5071991 -2.384236 -1.7124287 -3.9244483 -2.832509 2.2528815 -0.0056216223 2.1146145 0.8050691 -1.0791043 -3.8373938 -2.8700647 0.068484575 -4.4062805 1.2892028 0.120910875 -2.2124937 1.8392007 -2.0186052 -0.036273096 1.2267654 1.6378182 1.9605552 -0.36849833 1.7016008 0.9131918 0.33570057 0.8977364 -0.7446918 0.4720979 2.6815045 0.58970505 0.3267218 -1.9887882 -2.4858062 0.6367267 -0.7254675 0.32597396 0.21460825 -2.641972 0.90989286 1.0891767 -0.5447433 -0.66711974 0.100304455 0.1670787 0.12696692 0.6776114 0.77349186 -0.62139934 -2.980132 -1.6407489 0.3825575 0.3460895 -1.3518121 -0.7133367 1.0615789 -1.2359868 -0.01634841 0.1761268
למסגר -0.5886644 3.2558036 1.1491096 -0.2745907 -1.0839305 -1.7810414 3.2445295 -0.3405606 -0.36217323 1.6947048 -3.2777684 -2.2387593 -2.2607045 -1.9405476 -2.656878 -0.9203615 -1.1917433 -2.3974423 -0.38398373 0.25239274 -1.5487921 -0.86223674 -0.459898 3.1154368 -0.98726815 2.4060678 -1.779532 1.6145805 -0.55652046 0.46502528 -0.30865178 -0.8744332 0.052628204 -0.22308299 -0.9528883 -1.3401797 -2.5494764 -0.54287255 -0.14935277 1.6856221 -0.021035058 0.29936165 1.6066723 -0.34392008 0.6187119 -1.0615033 -2.3137867 1.7456131 0.25866944 1.2455765 0.8669032 2.0861192 -0.47322518 -0.25537962 -1.0222248 -0.45967183 1.1093032 2.7772188 -1.9732009 -0.04431635 -0.50079143 2.2681732 2.4296153 -1.4846009 -1.4291149 1.5212363 -0.45339704 1.0990905 -1.4815695 0.4558479 2.9438188 1.1567482 2.9261434 0.3346383 1.1068766 0.5505354 1.071499 -1.3047547 -0.35801625
לזמן 2.337359 -0.06920035 -2.2317328 -0.25182813 1.0608459 -0.2964702 1.3586856 -2.048775 -4.9099298 3.2201073 2.45443 2.5206394 -1.6986037 -1.4558464 -0.44415385 -0.7694124 4.3127384 5.348512 -0.018745448 -1.1827363 -2.1680458 -0.7804352 0.20423776 0.58291763 2.1833627 0.7300541 -3.7867093 2.3008492 0.57560563 4.933121 0.8413021 -1.4058514 -4.9124575 2.5851839 -0.5864648 2.5921974 0.51495147 0.3297363 3.2022464 1.2782223 -0.47481626 4.252842 -0.96297055 -3.9611127 -0.74539375 3.782442 2.3779955 0.71603364 -0.47860372 -0.7597933 -1.0410218 -1.3352447 -0.6471016 -0.68105215 -2.087634 -1.2440653 0.8848513 1.1125098 -1.607484 2.0695975 0.81975317 -0.4841941 1.1578937 -1.0135822 3.297232 -0.3661849 -0.6617921 -1.6452593 1.5269924 1.1153898 0.042186417 -1.3284378 -0.4958487 0.94440573 0.4601194 -0.04308423 -0.18769263 -0.93494314 -0.43868288
לבחון -5.156989 -0.97320855 8.414799 1.0441139 -0.5838902 -0.750352 -0.9458822 1.1100197 -0.12996882 -2.679255 2.3814266 -3.4627457 -1.9220841 1.3709722 0.490665 -1.9997072 -0.3622331 -0.49612305 1.3502625 -0.68957186 -0.1337458 1.6570785 -0.35575616 0.3809696 0.32324314 -1.0494769 -0.20507187 1.1012518 0.4091819 0.366448 -0.9102939 -0.4773297 -0.73729336 0.3464457 -0.042344805 0.656564 -1.6888782 0.86131334 1.6349643 2.45273 -0.8608639 0.40217295 2.4790463 -1.325362 2.2932944 -1.1286825 0.099161655 1.8601727 -1.5628469 1.4900897 1.4850376 -0.18044822 -1.4858406 -0.5727379 -1.0136563 -0.63127846 0.99889106 -1.2368132 0.52406156 -0.58260787 -0.32113302 0.39084724 1.4715793 0.98610723 0.9657498 0.62724847 -0.32676098 1.1665103 0.8036232 0.77773243 0.21670516 1.1171347 1.7022834 -0.43719676 -0.111349024 1.7060091 0.96148753 -0.13522506 -0.8878299
ללכד -6.9789753 -2.611185 -2.2071276 -0.014979361 -3.1468787 -3.6429935 3.390897 0.7926939 -2.054752 -1.9972668 -2.9588225 2.7980566 -1.0149368 -1.660281 -1.1961378 0.56965315 1.1844121 -3.900123 -0.8047618 0.72577333 1.0848521 1.9702913 0.50375974 1.6627346 -0.34306964 -0.4817815 -1.0627884 0.8014766 1.217747 -1.9046139 -0.12920888 -0.56160504 1.44432 -0.2106482 1.4397525 -0.9104787 0.5142417 -1.0720549 1.5193183 1.8067492 1.2348281 -1.7992073 -0.2888189 0.447124 0.9891023 0.7392536 -1.1542004 -1.4707652 0.38550925 -0.11604478 -0.6238262 -0.5209647 -1.0362068 0.8766929 1.5999112 -0.42702854 -0.051392674 1.4527276 -0.698213 -0.18909244 -0.0053073554 0.3703523 1.2138474 0.10581976 0.20768446 -0.47654396 1.0219408 0.3644235 0.43277374 0.0581462 -0.56209904 0.48927644 -1.5741314 0.6405261 -0.76150554 -1.2426025 -0.09902791 -1.854063 -0.1414033
להקליט -1.0141784 0.63336045 1.801934 -2.5353985 8.786374 -0.04193649 5.3304324 -1.0705062 -2.6551895 2.568797 -1.8151776 -2.282965 -1.165807 1.4977518 -1.4679972 -1.6758963 -3.0556717 -2.1916382 -0.8333914 -1.2160277 0.19506107 0.38117442 -0.34626612 -0.7187603 -0.62333894 -0.851233 -0.26069194 1.2603884 0.62078136 -0.19346435 -1.9872252 0.84309363 0.37725905 -0.1273348 -2.3886654 -2.015968 0.5659031 -2.8816242 0.43115193 -0.96492386 -0.9382848 1.2720108 -0.5167886 1.3671238 1.0906787 -1.8550136 -0.5994404 0.25727302 -0.22456244 -1.8419776 -0.11669853 -2.7837367 1.1108546 -0.23037373 0.9809611 0.84866846 -1.8112621 2.2537901 0.72913295 0.6400449 -2.5702438 -1.1183509 0.773312 0.16587907 1.638514 1.7347597 0.22135022 -1.5996428 0.97921854 -1.337601 -2.3072748 1.637156 1.1744334 1.0831299 1.5562742 -1.1888274 1.4584194 0.7744427 1.4073737
תרגילים 5.67107 -0.6024755 3.4488835 4.2537627 1.9248903 1.8137591 4.7413826 -5.0525146 2.5581331 -4.196973 2.04324 1.2055737 1.5921208 2.3010142 -0.3653842 5.014719 -1.7900547 3.4602625 -0.47027904 2.0667136 -1.1510499 0.011751302 1.2926313 1.6744467 0.49386266 3.1613636 -0.9581558 0.25802535 1.5819551 3.595012 -0.77636135 3.180687 3.8719182 1.3758689 -0.5180853 -0.6873911 0.2401724 0.97845334 -1.4322166 1.7080795 1.6160107 3.2452412 -0.5961374 -0.6453465 2.3239036 -0.50431824 -0.29647186 2.130525 -1.8202829 0.5275083 -3.260455 0.91391575 -1.3405851 -0.84920007 1.2968673 -0.9362034 -2.8858445 -1.9353508 0.5987425 0.90480876 -1.606631 1.4118918 -0.9962216 -1.0889447 0.69478977 -0.008873666 2.3433886 -0.18342067 -0.40671033 -1.64954 0.19288418 -0.7377214 -0.92083573 -0.7925341 -0.840724 -0.14390977 0.340644 -0.12550674 0.3555353
תקשורת 6.7339387 -4.7220907 1.4950453 3.9805963 1.7785017 4.2780585 -1.150287 2.7069235 0.23931901 -0.050482832 -5.625795 -0.18944854 1.2088327 -0.29712138 -0.2147482 2.5514607 2.1808817 -4.035242 -2.4027166 -3.6298833 3.638075 0.236079 -1.8933153 -0.25466606 0.36392266 -1.2525299 2.3870654 -2.5856767 -2.1835663 1.0433477 1.67678 -1.2792199 -0.85390717 3.148741 0.45287365 -1.999666 -1.3758371 -3.578503 0.8958569 -0.09177306 -0.7903167 0.39561313 -0.24739012 -1.673472 -1.0097439 2.555806 -0.44857115 1.9146426 -0.2748506 0.6211333 0.69249624 -0.5890403 -1.4304235 -0.7732253 -2.5236418 1.1989534 -0.4962201 -2.0621164 -1.8196634 -0.3970983 -1.1759589 1.2085673 -0.042475708 1.6823666 -1.1639488 0.9526023 -0.7184479 -2.3000739 0.7313342 0.06993251 -0.23066303 0.5003619 -1.2260271 0.3971706 -0.32490748 -0.12892687 -0.012718169 0.1266507 0.7610123
אבטחה 5.6481333 -7.33032 0.8229956 5.755958 0.7091532 2.539967 -1.633395 0.31167853 2.5787435 4.8527064 -1.3461325 -1.0401323 1.1397437 -1.1675003 0.7344681 2.6635358 1.1404706 -2.1062305 -2.657021 -3.2867947 -2.5680943 -0.011026608 1.3602611 2.1437466 -1.5290916 -0.9288734 2.710118 0.84463346 -1.147895 -1.7001325 2.5116677 -1.109499 -2.581747 -2.1866598 0.8451998 1.1308278 0.8270123 -2.5391145 0.54557073 0.013317165 2.4659636 0.73027444 2.6233597 -0.24842569 -1.3336698 -1.4862196 1.2890022 -1.5641791 1.8844649 -0.80188406 -1.037641 -0.1965014 -1.2035046 -1.3894721 2.6006367 1.2964787 -1.0588098 0.53370404 -1.4236062 -1.0157554 -0.8415601 -0.26818532 -0.67430395 0.48342693 0.1912683 1.1699089 0.32842684 1.2563531 -1.3904192 0.9452725 -0.08103284 0.50753534 0.24113782 0.017912032 -1.8538358 -1.590909 0.62223166 1.2008722 -0.21545675
לסמר 4.5300775 1.1523225 -4.354695 3.4010406 -1.8489772 -3.4391315 -5.089765 2.492108 0.17804618 -3.0944061 1.1170912 -1.9159088 -4.974458 -0.86040694 -2.1816711 -1.917511 -0.8470477 0.9266568 -2.155884 -3.2734249 1.5810862 -1.5677686 0.0064840945 -0.2796053 -1.6853229 -1.5047513 0.19024481 -0.14533046 0.6881894 -1.1700143 3.0399432 2.9723012 0.30516672 1.2723873 0.34811774 -1.7497098 2.7174187 0.03033947 1.2456708 -0.6468623 -0.39094663 -1.873867 0.26608196 -1.1854589 0.11196714 0.32455936 -1.0259778 -0.81963384 -2.1807024 1.2333505 -1.874416 0.008869352 2.0306892 1.9935665 0.20725647 -1.8448771 -1.1128868 -1.6601492 0.8279941 -1.2735732 0.009099549 -0.9633991 2.1631649 0.8720613 -0.3617831 0.20847064 -0.7057379 -1.5219266 0.51647604 0.38983327 -0.42549583 0.7707643 -1.2981584 0.29585755 0.77554065 0.6841878 1.5489824 1.1430696 -1.2331504
להבטיח -3.9346595 -3.3912375 2.5034945 2.1742253 -5.478911 0.570826 2.5155048 -1.4577382 0.19052 -1.3427223 -1.8706785 3.6470358 -1.9484957 -0.5309311 2.1441612 -1.6406271 -0.030302888 -0.83823127 -0.31768665 -3.4892795 -0.05381682 -0.31433022 0.60533714 1.0726526 2.57267 1.0793502 2.3472042 -1.2667855 -1.1751993 -2.8112566 2.3428545 0.16954853 -1.8153294 0.22322981 -1.9253505 0.73090595 -1.9817029 -2.4334447 -1.561546 3.9371722 0.2232628 1.88972 -0.32809624 -1.5827754 -0.21072616 -1.3875242 1.7323635 -2.4477742 -0.2177436 -1.9353615 1.052846 -0.33508897 0.36871058 2.7495806 0.8851888 -1.8641212 1.044169 0.89197296 1.5029308 1.6953006 1.426504 -0.045633104 -1.5348694 -1.3819808 -0.08036953 -2.135969 3.264416 -0.16933125 0.45866486 1.0445518 -0.7795173 -1.996873 0.59277445 -0.32695046 1.6625975 1.3173531 1.7685083 -0.34251502 -1.0808077
לרגל 4.2679224 -3.5360656 -0.2939222 -5.41832 2.9527986 -3.544494 0.26403147 -2.1447353 0.7288645 -3.6733258 -1.5508641 1.4163938 -1.1033778 -2.7397149 6.093225 2.5219624 3.0527 -2.0849721 3.1951041 0.5835939 -2.402595 1.290232 2.7288074 -0.66149217 0.15723665 -3.0173626 -0.36804965 -1.2155689 5.2955623 -2.2191412 1.2770824 -1.2680708 -1.9661893 -1.5197579 -2.706732 -1.5048324 -1.440677 1.6616904 -1.6497123 -1.3008007 -2.1567447 4.421397 2.5087955 -2.0795152 -0.58838284 2.002597 0.6926902 2.325794 -0.4829993 -1.0506071 1.7443542 -0.8189261 0.8308183 -1.2019154 0.74835485 0.9210913 -0.88017213 -2.360798 -0.47056696 -3.0108898 1.3165548 -0.10745069 -1.071997 -1.6631825 -2.5557427 -0.5542812 -0.78010875 -1.0690544 -2.122182 0.5151305 0.028108539 0.89645 -0.6181518 -0.5486985 0.61830866 -0.067922555 -0.09785781 -0.6578783 -0.54326034
תקליטים 6.1265783 -1.9123477 -0.44860348 -2.2271469 4.6193123 -0.35577932 3.6336765 1.3609713 -1.3421009 2.8890843 -2.876927 0.12684885 0.7165217 3.6830182 -1.6812551 -5.369251 -2.9756732 -3.3908849 -4.59456 -2.5197268 0.27180082 1.7009177 3.2016096 0.1471205 0.483959 -3.971424 -4.076909 -0.8633198 -0.8744862 -0.41040537 -1.7477165 0.13940096 -0.19760537 -2.2925136 -2.921937 -1.8738278 2.427175 -1.0998045 0.26673442 0.1576888 2.9688764 2.6394072 -0.22388528 1.5015057 1.3146589 0.7467664 1.2232089 2.7061994 1.1546113 -0.492919 1.8991673 1.8973296 -0.9107994 2.5073888 -1.5984336 0.7074185 -0.9202452 -1.7011281 0.8972547 -1.5939134 1.008497 -0.95637953 -0.63049173 1.0130187 1.0174291 0.428613 2.7243316 0.47749892 0.9002128 1.3164575 0.8058371 -0.3752945 -1.6505858 0.20676999 -0.9472413 -1.2634081 0.23185013 -1.2870685 -0.93295497
מרפק 4.9978743 3.1640055 -1.9788376 2.837209 0.7614426 -4.260754 2.0139806 -0.5485171 2.5777836 -2.0328097 3.963032 2.6071591 0.35810128 5.5031753 2.083693 6.164127 0.011151949 0.59763205 3.679424 0.582128 1.7878486 1.7904695 -0.33656764 -5.4733777 -0.65361804 1.8884304 0.73138136 -0.12118414 -0.07412004 0.5630834 -0.52096283 0.72366124 -2.4859447 -4.447215 3.4964807 -2.6145067 -2.834741 -3.201485 -0.4263154 -2.2000422 -0.1033528 1.9437746 0.20874402 2.2915258 0.19444765 0.5902681 1.3038181 -0.23313065 -1.2950959 0.3888059 -0.47917208 1.3551968 0.48051062 -0.34450006 -2.009926 0.8278428 0.52069455 0.50965333 0.4545541 1.3646643 0.9715971 0.40179458 2.0948534 1.1408674 -0.5002619 1.2751782 1.0541526 1.9995451 1.6168685 0.2407197 -0.7311642 -0.11856984 -1.046707 0.011243562 0.6221755 1.0204227 1.103163 0.21138696 -1.3714066
לתצפת -3.983478 -2.8190894 -0.9096931 5.128762 2.724888 -2.4678676 -3.2536402 1.008293 5.726082 1.0321823 1.0867014 1.2388386 0.15980808 -2.8458211 -0.86785114 -1.4730222 -0.7837628 1.9343982 1.6185204 -0.35842225 0.76261556 -0.64073694 -2.3697057 -0.68146235 -0.4282759 -1.1842035 -1.484277 2.876606 -2.3853333 1.0990157 1.3829051 -0.19150412 0.7375267 -1.058185 0.8658147 -0.24596293 -0.49460584 0.75347656 0.059089802 -0.7427484 0.027639527 1.6529423 -1.032121 -0.27638492 2.2872233 0.20856099 -1.9810036 -0.20525105 3.3676014 -0.56013185 1.782605 -0.8301283 0.7409936 -1.4890399 0.21216986 -0.4119256 -0.5791253 -0.7731913 0.8962786 1.5055773 -0.027792485 1.3809956 0.120267004 -0.5848369 -1.4950114 -1.7468414 -0.64088476 -1.0938658 -1.5823474 -0.5293446 1.293668 0.14360556 -0.3608773 0.800164 0.3780156 1.1846529 -0.35838613 -0.2852005 0.7668875
מסמר 6.4445624 4.604855 -1.3857323 1.5373368 0.7969049 -4.853811 -0.33158392 1.2480314 -0.262638 2.6846626 0.70466673 2.9659894 0.50366807 5.3338017 -0.7121082 3.1324556 1.087404 -2.6643095 -0.06464581 1.876708 -0.21018657 3.6518266 7.770416 -0.14514412 5.084719 1.2851529 0.10340093 3.3005855 1.260617 -2.169736 0.09386393 -0.7877106 -0.75416327 -0.10623801 1.3165354 0.17776348 1.8747348 0.13578252 2.885044 1.932612 1.0683954 -3.637429 1.050551 -2.6701016 0.96972483 -0.27357528 -3.461395 2.4183326 -0.4798147 -1.7165359 2.015196 1.7753361 1.594986 -0.33036932 -2.1260362 -0.32540432 -0.90567553 -0.27583727 1.0057597 0.71241057 -0.0575975 0.33848464 -0.024562387 -1.3543482 0.66359895 -1.9303567 0.1491295 -1.423346 -0.61792594 -1.656267 -0.5276951 -0.105307736 1.1308502 -0.0074194125 -0.095511116 -1.0093325 -1.4833567 0.6345654 0.45033547
להתקשר -2.56743 -0.0057346504 -1.715049 -1.1119626 1.6160421 2.7979727 -1.7408895 3.4552836 -2.0128455 3.8507524 -1.6156164 -3.4982796 6.184038 0.37820137 4.687599 1.9492124 0.54363894 0.56360847 1.1572108 -3.237015 1.6225108 -1.7955998 -0.611088 -0.95089227 -0.7667437 -0.37589025 -0.94389164 0.21012083 0.09606155 -3.5554743 0.53328407 1.0392063 1.8652056 -2.137354 -1.5986688 -1.0495852 -1.9540267 -1.7460725 -1.5749242 0.7083888 -1.2883043 -1.8913426 0.47865638 -2.2300458 1.5403903 1.4877353 0.01963221 0.5312694 0.40037242 -0.5976233 -2.4559424 1.2998781 0.49841172 -0.5899824 0.90714586 -2.098135 -0.23652248 -0.32056862 0.3035824 0.67393494 -1.3882693 -1.3457147 1.0898821 -1.3012294 -0.35219774 -0.71726406 -0.47676694 -1.6805712 1.5889838 0.6954188 1.2715591 -1.9760054 1.177443 -1.1327381 -0.04605325 -0.71355253 -0.6432612 0.7416452 -1.730355
למסמר 2.5844038 8.427162 -2.9708226 0.8337937 -1.1266366 -6.9796853 0.21650329 -0.3314873 0.052929223 3.4953601 -0.7106716 -1.2746867 -0.3012395 0.03719404 -0.656505 0.6254276 -0.7414066 0.27273524 0.25145838 -0.13697067 0.9625091 0.2500548 -1.5054709 0.39047578 -0.17362428 -0.07751301 0.011563997 -0.80799407 1.6059742 -1.8700845 3.159685 -0.5181181 0.009095962 -0.27514264 0.23945178 0.15324777 -0.3215915 -0.1397749 0.925108 1.6276269 0.27977115 -0.45472935 1.0724124 0.14257233 -0.19420157 -1.9907855 -0.11833699 0.5150282 -1.4057685 0.24169867 0.106750466 -0.3700379 0.70277625 -0.46585986 -0.14512078 -0.9738752 -0.6120046 2.360938 0.18424092 -0.8026865 0.2004297 -0.0070913695 -2.5454166 -0.08201805 0.27336574 -1.5507394 0.76382357 -0.57088757 -2.0066438 0.8580931 0.95843333 -1.3921716 -0.09593617 -0.47489312 -1.657179 0.7303746 1.505231 1.3728106 0.94653314
להיסגר -0.32562932 -1.1924305 -6.2193456 0.7330755 2.8158147 0.8858286 -3.3236125 -3.6047637 -6.001535 1.896453 0.89200026 -3.487158 0.14315702 2.8536432 2.973748 0.0074116685 -0.11979672 -3.65314 -1.5071123 3.6143818 0.4058363 -1.4795957 -0.30354574 0.16540234 -0.45639753 1.1258453 1.543438 -4.605394 -1.0316732 -0.58184695 -0.825273 0.1321132 2.6726942 -0.26853085 3.9108512 1.2762525 -2.2640362 1.5270382 -0.5716071 0.9484981 2.9544337 0.7250369 -0.31514686 0.5520488 -1.7865089 0.32407534 -0.7474578 -0.020440707 -1.9251012 0.0175373 2.602798 -0.038058978 -0.047652863 0.25756678 0.35245103 -0.9780745 -0.041732114 -1.2085875 0.4941343 0.8457285 1.2475499 1.7563561 -0.7849307 -1.6329117 2.7394369 0.62413657 -0.30293825 -0.7225356 2.084733 -0.26465118 -0.1566398 -0.70753855 0.932911 -0.96393585 0.5401122 -0.7809158 0.449593 -0.7644955 0.64619696
למגדר 5.852448 0.95885724 0.9936405 -2.8808634 -2.3378904 3.7966104 -0.1688017 6.32902 -1.7975892 -2.3794765 0.05004962 -4.706872 -2.0994875 2.3955183 -4.676447 2.8457575 1.876541 2.845199 2.2775967 -1.9135647 -4.918539 -1.6395519 -2.8532233 0.19483015 -0.9510316 1.1777437 -3.2948709 -1.5178608 0.22984622 -3.099717 -0.08285406 -2.3147366 -0.6770564 -0.17924465 -1.0010104 -2.5910468 -1.973571 1.7925178 0.9406976 0.48468375 -1.7770586 -1.6044271 -0.43902463 1.1830525 -0.4973061 -2.216523 1.3276497 0.9118326 -1.3089418 -1.1708474 2.095651 -0.35808197 -1.0333982 0.014109357 -0.67056245 -0.43185166 0.9240327 1.6837491 0.01816438 -0.7777322 0.7900729 -0.20839064 -2.4266322 -2.1582272 -0.4168137 -0.6372586 1.3668622 -0.64452034 1.4181076 -0.80607265 -0.07684028 1.21053 -0.30721885 0.38221663 0.70625365 -1.7213304 -1.8797258 1.9746312 1.2857412
לגדר 2.8504336 -2.3143303 -3.2164967 1.7502536 -1.924042 -3.9200592 -3.7046025 2.8507495 2.8404684 1.720321 -0.09542295 -0.84251636 -4.1944456 4.359541 -0.47794372 -2.5042424 4.619795 -0.46456692 0.20308363 0.1423209 -2.4515116 -0.23743547 1.0712266 1.656254 -3.4736862 2.3820937 -2.3856988 2.2212393 -2.5321755 2.3619876 -3.1350217 5.9707956 -0.3317851 1.5209012 -2.382657 1.1006088 1.9618998 -1.632348 1.0388737 -2.5722847 -0.12092317 -0.4023454 -1.7691041 -0.5754944 0.8533834 -0.8282119 3.1396616 -1.1490575 1.5938673 -1.0496616 -0.51249635 1.4403683 1.1318614 -2.4134712 1.4900303 -2.2355087 -0.55629593 -1.9311928 -1.207891 -0.5650536 -0.34310403 0.6598202 -0.103171036 -0.6272928 -1.2510244 0.09994568 0.62869006 0.80554646 0.7132284 -0.24215998 -0.9099369 0.2747845 1.9716656 -1.9611796 0.93753296 -0.97452825 0.3148677 -0.2588759 -1.3697627
להסמיך -2.4050345 -3.023714 2.0845256 -5.4038386 -3.8200877 -0.50002694 -0.05087367 -1.4904941 0.86202365 0.93628806 2.2796552 -2.099741 3.590932 3.6128976 -1.9967189 0.6945094 -1.1479352 -0.81204355 1.7378519 -2.9549131 -1.3566211 0.3395869 -3.8050683 3.711352 0.23277089 -2.6139023 2.63757 0.34973326 0.21131043 0.95251656 1.3786573 -0.025062852 0.64786875 -0.47090963 0.94174874 -1.0845212 3.9092777 2.0988212 1.2039765 -0.19398317 0.17830059 1.1076218 -0.57161045 -1.3235915 0.81995285 -0.92833185 -2.1059384 -0.8136435 -0.94400597 -0.5403288 -1.0104846 0.18878536 1.618742 -1.562224 -0.43781748 -1.8385744 1.3862513 -1.275758 -2.7494416 1.5397341 2.806998 -0.13878231 1.5312264 0.9280176 -0.1797586 -1.1369705 2.7132933 0.228714 -0.9762578 0.72187775 -1.0194552 -0.1299215 -1.9671812 1.2411476 1.2720037 -1.1832939 -0.97640127 -0.2381694 -0.6495336
להתפקד -1.2239716 -2.859784 -3.5708017 -4.409046 -3.930306 0.7899176 0.19739151 0.033713866 0.34582427 -0.52103835 -1.333511 -0.9379599 3.2694817 -2.290259 -1.648794 1.5061573 0.98993844 -3.2856367 3.44698 2.2691646 1.2781563 -1.0213048 1.3980159 0.22614789 -2.041898 0.9299314 -0.531402 2.0648828 1.4506208 -1.3498791 0.4271293 0.7632728 1.1235152 -0.85487646 2.0826292 0.5677963 1.1933455 -2.2490606 1.8935512 1.3775446 -2.271344 0.67969877 -1.3793606 -2.569177 0.5384233 2.1835587 0.7813746 -0.7129997 0.8176911 -1.5168934 0.44012275 -1.116185 -0.7390828 0.9659782 -0.51342225 -0.04376605 3.0542727 -0.30369908 -2.6772559 -0.7170795 -1.6005896 -0.45396334 -0.21128857 1.5867411 1.4410872 -0.39411753 0.8483341 -0.9953284 0.15726526 -1.6718898 0.18150796 1.3568592 -0.08597762 -1.536701 1.7141472 1.0865027 0.26460928 0.58836913 -1.5803555
להתרגל -3.469278 3.2127683 -3.3333566 0.07192115 1.4535699 3.281055 4.2520947 -2.3463771 0.91841674 -0.08191065 -1.8859167 -0.42621052 -0.7043424 -1.2241157 1.4312146 2.392248 1.7329686 2.4043603 4.1475973 0.1232616 0.24015477 -3.8353922 5.4142838 -0.61406684 0.068578005 -2.3842442 -0.60750276 -0.32887697 0.63827366 0.6954064 3.1805725 0.9793369 -2.1739924 0.776071 0.30745617 1.8814713 -0.08477863 -3.4817433 2.1272383 1.3999296 1.2337216 0.2923437 0.38969266 0.79677284 -0.26312253 -4.0585766 -0.07721152 2.4398804 1.7792366 -0.6789673 -0.3439478 -1.545785 -2.7151518 1.9598308 2.128819 -0.69373745 -0.95248705 -1.5535215 2.005159 1.9446406 0.51306915 -1.5712293 1.9194864 0.4542212 -1.2041649 -0.5180704 -1.1661942 2.155298 1.687909 -0.78204936 0.54625696 0.90162677 -0.08470357 -0.46669826 0.83461803 -0.6807274 -1.1315435 -0.072917044 1.8177624
לתפקד -3.030072 0.41206354 -3.8995636 2.3343303 2.5582256 7.702663 -2.4591231 -2.2673948 -3.712028 -0.037866887 -1.5165179 0.9838038 -2.434858 0.5284108 -0.05667069 2.6829712 -2.1417336 -1.8712952 -2.9332132 0.98818356 -2.4773345 0.20287573 -2.0008821 1.4237055 -0.15781441 1.8739018 2.140533 3.3687747 1.5376782 1.5404646 1.9049116 0.5253624 -1.1139346 -1.791025 -0.54244775 0.5887963 0.29189277 -0.4821363 1.6695666 0.8280703 -0.39121938 -0.017951006 -2.077396 0.3126416 -0.7955188 0.5075221 -2.334736 -0.20361878 -0.90082175 -2.1627169 0.665654 -3.9395108 -0.014179884 -1.0860425 -1.850147 0.073740676 1.7120011 -1.6304463 0.7305718 -0.0031911987 2.4333558 0.6831965 -1.5359751 1.7039075 -0.7130316 -0.09777136 -0.108513854 1.6426052 -0.5629347 0.556344 -0.71866107 -0.42071062 -0.18237385 -1.202114 0.6169123 -0.026771067 0.37913844 1.6564069 0.53156006
להיגמל -2.4561853 3.3708937 -2.6851692 -0.28466254 0.90742284 3.1820896 6.580671 0.86501545 -0.6297782 1.2357327 2.7596571 -3.3936849 -1.8674108 2.909099 1.9732214 0.6798646 -0.6761252 0.6157315 -3.801125 0.72950345 2.6802921 -2.0510073 4.098412 1.5579702 -4.2479253 -1.5320706 -1.6586558 1.81022 -0.48240322 -1.4644895 -0.24383976 -1.7462397 0.4017107 -0.5592731 -1.2355007 0.67201185 3.070811 0.91382605 1.2844378 0.99043816 1.0704718 -0.41054612 -1.0169233 1.0772601 1.6301607 1.4791863 -0.5759419 -2.3204715 -2.7335382 -0.36038706 0.61812353 -0.64406514 -0.058048457 0.37959614 0.42967227 0.22971171 1.220914 -1.6347516 -0.025473328 1.1205945 1.2572708 -2.6883283 -1.3786776 0.14054252 -1.3480626 1.3355536 -0.5650127 0.15579936 -1.3983907 -1.6095395 1.5676754 0.38622132 -0.044144552 0.7402394 0.8979951 2.968572 1.629781 -0.4110094 0.19378017
למשכן 2.1380115 -3.3610253 -5.4590273 -5.7218866 -1.5478243 -2.8134441 -3.516611 -2.328288 -0.6831629 1.6738839 -1.7968913 -0.441942 -4.1934023 -1.1565677 0.11766879 0.7478176 1.1402941 3.3431892 -0.74572486 3.4627578 -1.5548369 3.7452903 -0.79157573 -1.6298939 -3.008382 -2.8422575 2.2429826 1.1125563 1.2293539 -0.1933727 -0.4189222 -0.23027146 -0.0647797 -0.6541589 -3.6932175 0.66260076 -3.3714216 -1.4406716 3.879511 0.47733605 -0.80808437 -1.7913568 -0.58564067 0.96101594 1.6976317 -1.1176653 2.0264795 -1.4746705 0.032182768 2.904618 1.458926 -0.1516558 -1.6029993 0.007314525 -1.2241945 -1.1456583 -1.1138717 0.081737235 0.5890241 0.81853247 -1.5402367 1.4142382 -1.014988 2.711479 0.62650055 1.2140715 -0.2515902 -0.14500341 -1.3412267 1.4008082 -1.5155534 -2.1754286 0.0045148255 -0.6565222 -0.28551498 -1.2121574 -0.23658332 0.2117353 -0.4643202
תחזוקה 5.591735 -5.423519 -1.420933 5.346135 -0.7134339 3.1048522 -3.610636 -4.4725084 1.7547505 2.6447065 -0.5040973 -0.6498288 -2.187872 -1.4490345 0.38975462 5.1831193 -1.3447882 1.1832453 -4.4439774 -2.1189508 1.294828 -4.4752774 0.8584238 1.8089284 0.7460626 -0.16323948 1.3057781 1.3738133 1.7858398 -3.1895113 0.26332095 0.9370854 -0.47993422 0.35232195 0.98756 0.42373458 0.86795676 -1.9503714 -0.29409194 0.08505032 -0.98579717 0.94289434 2.1503928 1.5368605 1.9606537 -1.4809526 -0.19067174 1.8427693 -1.0110214 4.1835093 1.2946283 1.6991267 0.52790296 -0.0793917 0.9874708 1.3445989 4.600245 2.217515 0.42018828 -0.59770024 0.5774762 0.4359026 1.2748369 -1.8346373 1.1517969 0.6407378 1.563044 -1.6395113 0.8757421 0.71931034 -0.4641312 0.81274086 -0.62909824 -0.6791831 0.22003826 -0.45056355 -0.9834222 -1.761757 -0.7352453
להמריץ -5.3664327 -1.4137166 1.6838804 3.234986 -4.7951536 -1.4978355 5.419051 -0.7871158 -0.85713714 -0.9587891 -2.1493838 -2.1641548 -1.9811442 -0.50086063 0.5047178 -2.0345886 1.3581266 -1.1340046 1.2145813 2.6532536 0.4150537 3.2192752 -0.88023484 -1.9027572 0.65544283 0.43687713 0.20682344 -0.1776885 1.4760225 -1.1145298 1.2041844 1.876411 -1.1540496 -1.2766984 0.7714332 0.34474066 1.609161 -0.0186396 1.81184 -2.2879672 2.5539668 -1.019046 -0.8433167 -0.03859182 2.1657138 1.068663 -0.1571269 2.7149534 -0.50085783 -0.47736636 1.1451079 -1.045205 2.0761364 1.3457124 -0.49009663 -1.6734612 0.7568805 0.25462142 -0.46406537 0.8961792 -0.5820858 1.4506598 -0.7660595 -1.4797018 -1.0879946 2.9114368 -1.0992343 -0.67099 -2.1135006 0.1779515 -0.48075956 -0.527042 -0.6727538 -0.75275123 -1.5231965 -0.3048375 -0.15010779 0.18489881 0.7455147
סקרנים 1.9942858 0.90726185 -3.1131213 1.2774312 2.6394298 0.60387754 0.14715654 1.13994 6.962658 -3.2592545 -2.3862164 -5.4332643 1.3067104 -2.9008243 0.9259709 -1.4373596 3.4518676 -1.9648316 1.9041961 1.271055 -2.6976042 -1.2617 1.848585 4.2923865 2.0176556 0.26448217 0.38211396 -4.5313053 1.2678077 2.0775156 -0.043372903 0.1276899 -3.3879402 0.62240803 1.0913246 1.9287963 -0.839183 2.1622841 -0.048663393 0.665897 0.1694206 -1.5428315 -0.7236743 2.6878076 -0.020719822 0.05473378 -0.298497 -1.6523445 1.0571827 0.5184776 1.2773467 3.5711355 -1.6945624 -1.8542365 -1.1625198 0.47795042 0.5343917 -0.5783024 -0.22490261 0.4908712 -2.4197538 -2.4700708 2.1248178 0.015703809 1.1837088 0.40329096 0.27710035 -0.10069681 0.132384 0.32493433 -0.48143137 -1.5952542 -1.483262 -0.11768599 0.4813243 0.9303464 1.4304477 0.74481565 -0.37115875
להיחקר -0.9008283 -0.07647527 2.7330291 -1.6264144 1.7152054 3.878325 -2.247355 4.4967747 -3.812988 0.6936068 4.647879 -3.0053592 1.086602 -0.5984105 2.3533714 -0.10643656 -1.4446949 -2.886886 -0.81852585 0.03557714 -0.8097732 2.5654757 -2.1786509 -0.34239274 -0.9286304 -0.4310007 1.4752611 2.833715 -0.7897187 3.0523357 -0.108945645 1.4533144 -1.0502112 1.0695268 1.0232743 1.3991344 -0.009123426 -1.2040546 0.4854358 0.10058533 -0.1506298 1.8241906 2.5453324 0.6287878 -2.0662336 -3.9143655 -1.4869491 -1.922841 -2.0891151 -0.5454561 0.75693154 4.505169 -0.79589933 0.9823739 0.84437925 -0.27519566 0.8525628 -1.1072083 0.7754318 0.39737383 -1.2384489 1.7778006 -1.456185 -0.0026508418 0.599264 -0.3352035 -0.7781503 -0.9262927 -0.442852 -0.22832575 1.3076706 0.20148623 -1.705844 -0.6875887 1.1343023 -0.1170252 -1.5939149 -0.49607605 0.73111403
להסתפר -1.0032988 4.4835896 -4.1135235 -6.1956267 0.5124328 -1.47641 0.26789963 -3.1012938 4.1021204 1.4411559 3.8720548 -1.3277128 2.0178804 3.0538564 -0.12908256 2.7976117 -0.21997568 0.621964 1.4994794 -1.765617 -0.7615827 0.12240387 0.45038003 1.9755667 -0.5298883 -0.86150616 1.3933479 0.46824723 -1.2555624 -0.0032832553 0.23748906 -0.94814444 -1.7341937 1.7323372 -0.13121578 2.046713 -0.05443843 1.032339 -2.4912994 -0.28181413 -2.9306676 0.60012627 1.1060724 1.4433391 -1.5529498 -0.78165895 -0.0644701 0.7571214 0.40957573 0.5283447 0.80515176 -0.66297835 0.96194094 -0.03326004 0.3888228 0.94311017 -0.62734103 -0.4197354 -2.8549898 1.1548965 -0.44879988 -0.67973197 -1.0222918 -0.30568716 2.2625606 0.45130432 0.14180815 -0.20408395 0.025323475 -0.65622365 0.85386163 1.1561158 1.658326 0.25759348 -0.8452623 -0.9421158 0.60264224 0.8933321 -0.44244686
להסתקרן 1.6509835 5.768355 -1.2562408 0.07310136 -1.593099 0.8913875 2.3949947 1.2648544 2.9171786 0.16992615 1.7796277 -3.1028285 -1.1345636 -3.544084 -0.80731815 -2.0475655 -1.824529 -0.80130994 -2.2719343 0.3896547 -0.73910195 -0.66539663 -1.1061308 -0.55741423 0.4820809 1.4109216 -2.2936034 -0.45659998 0.5948604 -0.80798554 -0.31538466 2.273111 -0.5794046 -0.2752715 0.37236536 0.04986721 -0.37113604 -0.5046267 -0.83866364 0.7616691 -1.4790905 0.75291383 1.020101 -1.0954232 -2.2303958 1.0454254 0.40792397 -0.17449623 0.08589653 1.5478585 -1.6571848 -0.3925056 -0.1502184 -0.51657766 -0.9953854 -0.98103476 -1.4404895 0.22514063 -0.016177194 0.8886667 1.2150397 0.2858353 1.097093 1.01205 0.58354455 1.3176625 -0.19029333 1.2624505 0.545747 -0.5716283 0.21132697 -0.33386323 0.04171215 -0.99496317 -0.7842719 -0.19279785 0.22573203 0.23312733 0.5791301
לתקלט 4.024109 -0.7877881 -1.1806214 -3.4368937 9.107704 1.1678225 5.7457027 -0.23367776 0.32455802 -2.0828848 -1.177551 -3.3392885 -1.1825026 2.3327372 -0.38781917 -0.31660792 -1.7026353 -2.6297085 -1.1370823 -1.4320123 0.13305967 1.366253 -1.6602615 -3.18201 -1.6566756 1.0352411 -1.667714 -0.12935863 1.8952247 1.6955528 2.2012153 0.15966769 -1.8708538 1.9683378 0.47770202 1.1371644 1.0484287 -0.7565559 -2.5678585 -1.3734893 0.14687301 -2.9295623 -0.21365918 -1.4353887 -0.6802376 -0.41917747 -0.5403973 -0.5725076 0.896595 0.2757999 -0.24536948 0.9462653 -1.4191016 1.5328517 0.64775485 -1.4830142 0.5492082 2.8075943 0.36270696 0.9478861 0.7491977 1.5003778 -0.49044332 2.100771 -1.5882423 -1.2231098 -1.966018 -1.9080755 1.7282939 0.2081653 -0.1779568 0.47685948 -0.4456763 0.5073978 -0.43573618 0.9977731 -0.6281862 -0.7824455 -0.04451022
להאריך -3.4482884 -0.3597281 1.1212397 -0.87533015 -0.5778609 -2.6519418 -0.2837463 -5.4037275 -5.445503 0.16961639 3.275145 -1.6814166 -0.31034568 1.1311814 2.1678762 -1.1275922 -0.38444775 1.160969 1.3992783 -5.1983414 1.841736 -1.1131737 0.69236916 0.17555965 1.8632804 -0.4860079 -1.3952109 -3.12071 -3.9334857 -0.03731093 1.1599219 -1.0913028 -0.88919526 -2.9828258 -0.26279983 0.28635395 1.4247111 -0.725296 0.966303 -1.0195931 -1.0824993 -2.9608164 -1.2952955 -1.8357852 1.3289499 -1.450401 0.5694148 1.5923312 0.43600583 -0.15319178 0.09963684 0.8005849 1.433032 -1.4030856 -1.6411803 3.6221232 1.5892063 0.35475126 0.57423234 2.7252457 -1.9491225 2.1196954 0.031081207 0.474385 -0.12586433 0.9059792 -0.23913991 0.6943176 -0.83247834 0.38371783 -0.15544492 -0.04255776 0.1127256 -0.98485345 0.07127286 -0.2014941 0.34846964 1.4367306 -1.3396256
לתגבר -5.6524577 -6.6190343 -0.39846957 3.3783066 1.136072 -5.027018 0.6083362 1.2907349 0.23412369 -0.9965662 3.7016408 2.1776712 -0.09726002 -0.88858145 -4.1234665 1.0178128 -2.4852486 0.61822176 0.8441463 -2.473874 -1.8526987 -0.2597878 0.8344878 0.62324065 -1.5769745 -0.99100995 -0.79289633 -1.0007906 0.6822592 -0.65019333 -3.5825732 1.3918194 -1.3905709 0.65179896 -1.437475 -0.04203874 -0.40192014 0.71352077 -1.6354694 -1.0036253 0.5552996 -2.8612866 -0.60892606 -1.1157907 -1.8661451 1.3742641 0.2836079 0.11733372 -3.0184112 -0.57496846 -0.069511704 -0.39753646 -1.0196254 -0.6839442 -0.0545936 -1.8099718 -0.016730757 0.7410349 0.24613808 0.7429273 0.660691 -0.69777334 0.086858496 -0.72731674 -0.30967394 0.32344663 -0.82996756 -1.6325831 0.76824135 0.48918033 0.6310743 -0.06292515 -0.62126595 0.3170065 0.045908164 -0.18545482 -0.94911855 -0.7160872 -0.10733829
להיקשר -2.0265374 3.2579288 -2.7662933 2.6525025 -0.68745965 1.7699645 -0.45502186 3.6526866 -5.499299 -0.9708922 -2.6964493 -2.4499683 3.2968762 -0.15320078 4.8959737 0.08486355 -4.4490733 0.42465714 1.0225519 0.24708219 -2.4776409 -2.0556817 0.17168006 -0.9326495 0.028540248 0.6959394 1.0540091 0.2791934 2.1411557 -2.6575089 -1.1590973 2.0680559 1.2953143 -4.2353277 -2.6143615 1.9646747 0.81258416 2.2482584 -1.9761169 -0.23977946 -1.4780399 0.58732677 -0.71421903 0.39851964 2.836052 -0.98701185 2.075733 -1.8763531 2.216349 0.058169246 -0.46376345 0.6614627 0.78497106 -0.15971428 -2.8617954 -2.4166167 0.15010741 1.0721412 0.15175788 -0.06397221 1.3555241 0.3736378 0.29421812 -0.38447252 0.5587997 0.24026744 -1.1313953 -0.9706387 -0.460463 -0.10490926 0.84349346 0.6143425 -1.8768489 -0.52949464 -1.0550606 -0.8816126 -0.055157404 0.12641415 0.5684101
להתרפק 0.26157808 6.5872116 -1.957451 -0.6367857 -3.419921 0.7665288 1.5865949 3.2240942 3.1533186 -0.29289895 1.2554268 -0.72597045 -1.2248896 -1.0798043 -1.2594829 -0.26937345 -1.4753369 -2.0218372 -2.147201 0.53765535 1.0016451 0.26061875 -2.1265244 -1.423069 0.7851747 -0.04030176 -2.9277282 -0.16497585 -1.064562 0.36950314 1.0228386 -0.65712476 -1.1120163 0.27695486 0.44765437 -1.0893869 -0.9380233 0.5794075 -0.52600926 0.27561927 -0.6749867 -0.3577402 -1.2818382 -0.34752735 -0.3191374 1.4765549 2.8289027 -0.50990176 -1.368363 1.7899684 1.8364731 0.26090908 0.680679 1.2292241 0.7062824 1.8644247 -0.4771509 -0.93330765 1.0678548 0.45018402 1.6141242 -0.5628066 0.47912714 0.1882893 1.9062968 -0.7233471 0.18997543 0.45212093 -0.99599075 1.8570113 2.752157 0.42270944 1.2244754 -2.2327409 -0.85123736 -1.669959 -1.502803 -0.34735838 -0.5315125
לשכן -4.236627 -4.9772477 -0.5851126 -3.2865493 0.76542467 -1.4350847 -4.6806684 0.4418136 0.049040657 1.012352 -4.4929814 0.509077 -1.7818872 2.107308 -3.920209 -0.95098543 -1.0536478 4.4070144 0.18377665 2.5839899 1.2254621 -0.8608825 1.7688706 0.6430164 -0.26317117 -0.09510592 0.7685252 -0.05443342 3.6276968 -1.0176775 -2.6925988 -3.2442214 0.16243441 1.0749186 0.62787896 -1.2868847 0.7046968 -0.029455908 -0.9137874 0.25636825 0.6910903 2.985018 0.38492075 -1.7686172 -1.573817 -1.757644 1.7223206 -1.1426853 -1.1729127 0.07556433 -1.5204808 4.0431957 2.4533265 1.4958072 -1.1175227 1.7770711 -0.6480297 0.066775985 -0.7777761 4.7094874 -0.08943219 0.5980687 -0.91083044 0.3416779 -2.1300075 0.14164554 0.62657785 -0.05340225 -1.2649777 0.17444207 0.658832 0.0051970175 -0.85430795 -0.5577166 -0.3926963 1.1456434 -0.024433978 -0.017501282 0.84123033
ללכוד -6.2731814 -0.7831681 -0.37127584 4.047023 2.0713964 -4.343712 1.2456038 3.199256 0.3888516 2.0848963 -0.17330208 0.65323126 2.8051925 -0.10480241 0.98650295 -2.8424437 0.5677559 3.2619743 -1.3557072 0.6856892 -0.31012848 1.6396892 0.93128973 2.005368 -0.66371614 0.79781014 1.8033302 -0.23266806 0.23262206 2.3677495 1.918102 -3.7770863 1.656594 1.2719445 -1.3899571 -3.3279183 -0.33035243 2.0064366 -0.47418827 -2.2051086 -0.08753957 0.98564315 -0.07341107 1.3989518 -1.0179452 -0.5218631 -0.7192395 -0.9041349 -1.1733843 1.8209662 -0.8884485 -1.9935633 0.029075999 -0.122313306 3.3170443 1.7056559 0.25787884 0.3873086 -0.9710552 0.7432143 2.629406 -0.44746912 -0.46294436 -0.822348 1.8770319 0.14817914 -0.7094156 -2.3512084 0.17737329 -0.25013995 0.3363124 0.53701526 0.1780141 -1.346206 -0.07109109 -1.9125364 1.707113 1.0169882 -0.13681725
להיקלט -2.24534 -1.222071 -2.84087 0.52788305 1.9061548 5.2625175 -1.210353 0.9573368 -4.102955 -3.6927762 -0.43620577 0.13251704 -2.7570388 -0.9164049 -1.9869426 0.27272707 -2.9283135 -0.37527326 3.6050715 1.5287861 4.6629972 1.105543 3.2366927 1.0021337 -1.6986102 -2.2068055 3.5637472 0.25308254 1.1291304 1.5866212 -0.7942286 3.063552 -2.6004877 2.441758 1.3994715 -0.24143122 1.1256641 2.1449926 -0.3438652 0.108072534 -2.8596582 0.48604223 2.3560755 1.2358128 -0.8850528 0.691315 -0.18078102 1.6101035 1.8949398 -2.6556284 0.1796955 1.6003741 2.0943818 -0.22545117 1.0020883 -0.40684244 0.014353564 0.7067393 -0.58362174 -0.7928007 0.18828602 0.03270163 -0.8617778 -1.7201799 -0.024864761 1.28266 0.4983676 1.8414241 1.2428132 0.56750107 2.1830657 -0.75400954 0.73080647 -0.21185513 -1.6727421 -0.10858325 -1.3182304 -0.08587681 -0.49051514
לצלחת 5.78371 2.5250447 -4.055567 3.9005663 -2.5961874 -2.697565 -1.8759263 -0.026532758 2.5694435 -0.0148053765 -5.4860926 -2.6375184 -1.6908175 3.927274 1.06395 -0.41846496 2.02798 0.9944152 4.3932185 1.0047213 2.1725295 0.10708437 -3.8810754 -1.4047846 -0.07807619 -0.9520485 0.79908735 -0.5476807 3.4967368 2.8358152 -1.914177 1.3888854 0.97997326 0.5419338 -2.712496 1.2596856 0.1028093 -0.7278272 -0.6231602 4.8796787 2.8191736 -2.7052379 -1.275761 -0.73842907 -2.1219175 0.40717977 -0.385227 -0.30282527 -1.381752 -1.7184595 -0.629983 0.4567998 -0.98795587 -0.022386318 0.08658409 2.7004058 1.8926301 -1.1784835 -0.8914774 -1.2646453 0.9962956 -1.7833847 0.04088302 -0.3763707 0.16835901 2.0505784 0.53651065 -1.6086627 0.48476428 0.009163072 1.6721013 1.5792494 -0.54576385 0.2484387 0.5327568 -0.17938747 0.1437522 -0.40716055 1.5612954
להרגיל -4.4587173 2.8567183 -0.8144781 -0.9745546 -4.5979013 -1.1352297 0.99276996 -2.306781 4.0851946 -1.2517172 -1.736531 -2.3012035 -0.37681967 -2.568897 -1.6851373 2.9384942 1.0612379 2.9157658 1.0242959 0.16636923 -0.57678807 -1.3762928 -1.0616685 2.7107882 1.3510417 -2.8629615 0.74032027 -0.39012665 0.57745737 0.66099465 1.4736416 -0.9488214 0.7043583 0.10675127 0.6261536 1.4481434 2.6515496 0.18319961 -0.12945296 -1.5744332 0.19336691 -0.80378175 -1.0992533 2.9327402 0.59064525 -0.27285948 0.35037845 1.9683149 0.3525303 0.39398414 -1.0304489 -0.3121531 -1.682625 1.5622867 -0.06297048 -0.18172719 1.4459931 -2.3917003 2.6202767 0.93367475 0.14162341 0.6802797 -1.6439728 -1.4530977 -1.2152541 -0.040165875 -1.4770035 -0.13681874 1.8929945 1.2856088 -1.4391226 0.35900933 0.3355782 -0.117924355 0.81880563 -1.1169684 0.4258465 -0.7792261 0.4252161
לפקוד -4.1607757 -2.641624 -1.687733 -4.7215776 4.6277514 -1.7617689 -3.2679799 -1.7083712 1.308641 -2.0806606 -2.515102 -2.5323362 1.4918785 1.2543004 0.9049954 0.47757295 2.0018501 -1.2812015 -4.1046076 0.39844993 -1.9910401 0.093752585 -3.089497 -1.347044 -0.15781541 -1.4326664 -0.9643619 -0.02453451 0.49155405 2.5229478 0.17470863 -0.97191447 -2.9886541 -2.860836 1.6315224 0.6056622 -0.19097063 3.6339045 -1.1506056 -0.93030435 2.3996613 -2.4887185 -1.7395827 -1.5973938 0.4488404 3.1063943 -1.1013393 0.76198864 1.3668001 0.14096318 -2.1417112 0.8626386 1.4117589 1.588181 0.5843259 0.662483 1.418611 0.39001796 1.173601 -1.0166045 -0.53557515 -1.3609712 0.652275 -1.0521286 0.5151497 -1.296791 2.437209 1.4616746 -0.11212422 -2.3992949 -0.31074548 0.901056 0.85515517 -1.4429905 -0.974664 -0.70451754 1.3893456 -0.84477675 0.7626729
לתעתק 1.4556204 4.336838 4.0674925 -2.6912322 -1.0944977 -2.891981 0.024953282 2.2694361 -2.0010378 0.0361412 -1.3109268 -1.0478082 2.9437973 -0.55984324 -5.010701 1.8798313 -3.2389627 3.5613346 2.408142 1.759774 2.0194387 -0.45936778 -0.21927397 -1.3982167 -0.5229469 1.9840281 5.0197873 -1.5311844 -2.4804704 -1.5169159 1.503265 1.748389 -2.213238 1.117446 0.9130616 0.742887 0.9470997 -1.615897 1.2512662 -3.688157 3.7604694 0.055304386 0.47111157 -0.79045856 1.6153421 0.7810957 1.6413937 -1.0365936 0.6140065 -0.7101194 1.2607723 -0.7590358 0.8808221 -0.14878742 1.0737274 2.426851 -0.3541086 -1.565461 -0.9693927 -1.3938249 2.340267 -1.9118632 -1.3301804 0.664713 0.062049683 -1.272429 0.022086509 -0.07900834 1.0610787 -0.7063637 0.516317 -1.050613 1.7428105 0.021005647 0.3988217 0.51116765 -0.76734483 -0.99494267 -0.5337618
להסגיר -3.492779 -3.3718984 -2.0987937 -2.4525733 -0.98699194 -1.8339863 -0.012353088 5.4046946 -0.17086194 3.48708 2.302258 0.14119285 4.6003504 1.4920995 2.9234695 -0.744018 -0.809033 0.95924515 -1.2745811 -0.36165282 0.3448973 -1.5005004 2.7696154 -0.71224684 1.2591387 0.52895874 1.1957414 0.6954554 -0.75326043 3.8978436 -0.29178762 0.49661133 0.9602729 1.2092125 2.2079864 -3.5384526 0.21700437 -0.7012638 1.6976422 3.1601586 -0.03505012 -1.1497413 0.2716431 2.413615 -0.06250714 0.113313116 3.6955323 -0.15581459 2.029938 3.4016664 -1.767064 -2.9138007 -0.7463964 1.4173142 -1.355948 -0.3015766 0.7264479 -0.24981572 1.8056993 -2.8867612 -1.3803322 1.7589285 -1.5851438 -2.0380435 -0.55099475 -0.88847643 1.4026028 -0.07017227 -1.0102706 -1.2493634 -0.21343918 0.08608365 -0.886251 0.65794486 1.6392034 0.13394034 0.24654357 -0.24119516 -0.5100528
לאבחן -1.8620374 4.10479 7.2121525 3.5708475 0.3398755 0.7576743 -1.0877768 1.5384157 1.1963438 -2.1853986 1.7030659 -1.8351233 -0.85630924 2.9566882 -1.2057253 0.70754147 -2.7314372 0.33892623 -2.0192363 -0.9637716 1.485955 0.27316114 3.3684928 1.302111 -0.67147136 -3.1439102 -1.24404 -1.951441 2.4887464 0.80570143 -1.2177362 -2.9719405 0.22233334 -3.3502755 0.93165445 1.4861575 0.03217318 -0.10828803 -0.043509275 0.75862974 1.0772703 1.0205226 -0.69645405 -0.3428461 -2.1344378 1.0367918 0.30865055 -1.3905973 1.4678833 -0.66720974 -0.44448778 -1.0383306 -0.5740947 0.38214344 -0.21377417 -2.8872082 2.1216216 0.28544557 -0.70157516 -2.5325592 -0.33512005 1.4096802 0.34099075 0.81074494 2.707308 0.4366447 -1.0330802 0.51684314 -1.7758894 -0.3797722 -1.1783413 -0.33647254 1.5746161 -0.5035984 1.8622292 -0.37060368 -0.3938227 0.8155564 -0.36365765
תגבורת -0.21685928 -6.6777663 -5.3026986 4.0317144 1.4202626 -2.5181723 0.36744153 2.7360072 0.66391176 -0.14474042 4.193555 3.5651345 5.210331 -2.5707233 -1.2471849 -0.905669 -1.843536 -1.0804423 2.2535362 -0.6905517 -0.1447537 -0.48734614 2.9219418 2.189016 1.99901 -2.810073 0.34471947 2.5350997 1.0678098 -1.683925 -2.793697 -0.84248555 -2.1305277 0.2667331 -0.18018238 1.2911851 -0.8034005 -1.0676024 0.35013568 -2.559421 1.4409146 -3.8701324 -1.539048 -0.36682823 -3.5231757 -0.054844398 -2.2604704 0.9599318 -2.5113447 1.1425104 -1.8549142 0.87491035 -0.6345067 -0.20480968 -0.8317064 -0.65735143 -1.6259539 1.5781348 -0.67496383 -0.7292327 1.2883078 1.2306836 -1.2693224 0.7569771 0.12505813 0.9383854 -0.5314477 1.9399738 0.5544996 0.10410541 0.8120764 -0.7881421 -1.1157364 0.5756097 1.0675005 0.35223228 1.2089304 -0.75596744 -0.6047648
לאזכר -0.9921751 2.2557344 5.3945146 -7.145211 -1.4991616 -3.011919 0.6103528 0.6559818 0.74463385 -1.1657997 -0.71666986 0.87351984 -0.9422877 -1.5216267 -0.5013413 2.0410776 -0.5503155 -1.0678197 -1.8726509 0.6880218 0.56981254 1.7644287 1.3129832 1.2307647 -0.8101234 2.1286633 1.0629896 2.4762979 -1.1957426 1.1719701 2.9719954 0.9853609 0.2082899 -2.6440308 3.1022027 -1.3530763 -1.5594486 0.48458737 3.11237 -1.301394 0.07439944 -1.3502662 -0.45459265 -0.7578404 -0.86698383 -1.3575621 1.2475178 -1.5795386 1.4227589 -1.5344338 0.34964356 -0.5531124 -0.6560474 0.4432665 -0.7883897 0.92506707 0.4470166 -0.5880468 -0.48335892 -1.2254517 0.055431206 0.795753 -0.5194972 -0.99288183 0.95587593 1.5266945 0.18343635 -1.0211884 1.9461235 -0.9858291 1.4523066 -0.63457286 -1.9979566 -0.042401016 -1.5966333 2.1842058 -0.65399075 -1.185079 1.1763964
מגדרים 6.1789775 1.2744367 -0.8917769 0.35419747 -1.5315399 4.266545 -2.381947 3.7594209 0.1738857 -7.3926997 -0.7409655 -0.50219256 0.8882833 2.7167883 -3.506565 -0.4826422 -0.3809211 0.2556219 -0.14665444 1.3489815 -6.7039247 -1.1968539 2.0989296 1.3012797 0.23168051 3.359654 -2.691301 -4.183271 -1.6887844 -1.5141486 0.50913376 -0.76928324 -0.29537752 0.19324693 -1.8926504 -3.5892262 -1.91933 -1.248184 3.0458803 -0.92224175 -2.1748567 -0.30625382 2.0230005 -0.74610895 -0.7057914 -0.5214443 -2.688745 -2.0382857 0.905643 -0.07567833 -0.74246114 -2.0694568 1.1261243 0.44158506 0.08493663 -0.27313125 0.4415533 -2.4455628 0.5663715 0.27502775 -1.0462456 0.20492366 -0.400162 -0.26159367 0.4512232 1.0335451 -0.35561287 1.3159952 -0.12833539 -0.62015086 1.5814518 -1.6218057 -1.1326339 1.6363713 -0.42073464 0.3258606 0.60865384 -1.2971784 -0.050210826
לזמר 4.8453336 0.1637526 -2.7269597 -6.894024 4.042055 -2.851448 6.6327176 0.973863 -0.8492005 0.50237817 -2.6866908 3.3135574 -4.484024 0.5054799 -0.7032532 0.3571037 -0.65968007 -0.09669078 -0.18044215 -5.1043625 0.44798368 -2.5022273 -1.8396637 -2.9127972 -1.13319 0.4670223 1.2226907 -0.43250263 1.6033705 1.5554783 -0.73680365 -1.1688651 2.3696904 -1.103599 0.7818044 -0.23068029 -1.3583173 1.1128715 0.1389441 -1.3643589 1.111174 -1.5319891 3.9329958 -0.05087884 -2.0221741 -0.3782103 -1.5838307 -0.6747581 2.3885527 -1.0493108 -2.7970834 -1.0782044 -0.31452203 -3.772302 -0.22601755 0.08573709 0.32793996 -0.6243061 2.9806862 0.9555797 0.040501922 -0.61215645 0.06459388 -1.937577 0.4522506 -1.9656425 -0.527279 -0.029846152 -1.4689251 0.42349604 1.7550212 0.36717615 -0.7099111 -1.5943347 2.727769 0.7274418 0.13162404 -0.6887603 -1.9509934
משכון 5.3495545 -2.3654287 -2.2787771 -3.8442678 -7.6977863 -0.77550864 -1.7197734 0.04413316 2.4979599 4.971387 2.5103009 1.0859892 1.5416038 5.716014 2.339143 -1.6369991 -2.9097106 0.6811233 -2.7626905 0.4187577 0.14419067 2.3426602 -1.6409851 -0.87372404 -2.8421376 0.43689868 0.030698616 0.3721121 -0.6104777 -2.0511992 1.2759911 0.8708634 -2.0264466 1.5814457 -1.1766146 2.0882719 -2.5921323 0.36466005 -1.4644443 -1.6251916 0.055277016 2.294218 -1.6932184 1.5308996 -0.5022265 1.0362903 -2.5430582 0.91480416 1.4511192 1.3299483 -1.0332781 0.3974872 0.3256056 1.3188632 -1.0202531 -0.28287554 0.9449776 0.3820148 0.035291206 -1.0771047 -1.6316656 -1.65027 -0.5708282 -2.1845062 -0.4442717 -0.013747105 -2.2447636 0.04148188 1.2166066 -0.033873677 -0.050092436 -1.1915053 -0.31837118 -0.25402555 1.0351918 1.8926666 -0.07581535 -0.29887012 0.8266656
לתארך -1.270112 1.6184067 5.7507954 -2.08736 1.2328155 -3.522351 -4.8724146 -0.8959539 -2.787248 -0.7301707 -1.5631008 1.9308056 -1.9590013 -1.092076 2.2992997 -1.1279224 -3.2683725 0.37795624 -0.79539055 1.6854403 0.08880367 -2.6534529 1.5341946 -2.9836035 0.7956084 -1.0668364 -3.5378494 -0.65475976 0.1037075 3.315836 2.346862 -1.8905104 -0.6158658 1.4236324 0.14693126 3.9856818 -0.04452931 -1.481303 -1.3945051 -1.451549 -1.7839386 -3.695833 0.5626243 -0.41702807 0.24779129 -0.9933947 -0.13252455 -1.4841403 -0.4418085 1.4276956 0.20916045 -1.0697246 -1.3742863 -3.7286804 0.64240855 -2.0308108 0.2322928 -0.9196832 -0.32738212 -0.09922071 0.929905 0.4593799 -1.8905178 -1.2380171 -1.6044595 4.0967984 2.785706 -0.6608242 -0.68361264 -0.15564783 -0.622534 1.0012978 -0.3015975 0.995572 -0.31904635 -0.4515014 -1.0081547 -0.7740455 -1.263885
לסמוך -4.41127 1.320944 -0.053268716 -1.3059043 -0.9670274 3.8736677 -1.1087322 -0.22279379 5.461365 4.012901 0.8566184 4.8319445 2.2587614 1.4369154 0.32179224 2.661375 0.87217057 -1.3051188 -2.0372856 0.8215755 -0.04238882 -1.2563051 -2.8287349 -1.2232255 1.9150343 -4.237703 -2.9112046 -2.512891 1.4609975 -0.14128287 -1.6290282 2.7570093 0.115797736 0.54291594 -0.45681766 -0.6997914 0.80925405 2.9495602 1.1434659 1.5589918 -0.64165497 0.99215484 1.9490192 -0.5446351 1.4945596 -0.14649704 -0.57775104 -1.0900548 0.9940545 -0.9377912 1.155842 0.5516888 -0.63032 -0.10185062 0.39939123 -0.0869623 -2.5333402 0.9725069 -1.0842113 0.026564844 -1.5086645 -0.04695453 -0.4304314 0.8722914 1.198303 0.6912323 0.16919398 -0.8407857 -0.6734484 0.20081894 -0.6889352 -1.2440369 -0.0075820987 -0.6987643 1.8762766 0.9968461 -2.2138567 0.1815216 0.581989
לקלוט -4.8634048 -1.4152015 -0.2784487 1.9324672 3.2167408 1.4791005 -2.6061695 -0.09935507 -1.6110598 -1.0665301 -4.530801 -0.348907 -1.0043138 -0.50268227 -2.0068023 -2.027907 -2.7157845 0.5140801 2.6509104 0.0378632 4.2966676 -1.7397813 0.38848647 1.8306243 0.38402903 -1.8941103 1.9795377 -1.7031639 0.98607224 2.3270466 -3.4242527 2.907633 -2.2951436 -1.0660144 0.58762795 -2.413589 -0.19024578 1.8842403 3.067356 0.34140724 -3.180233 1.7813016 -0.9466491 1.4516829 -0.79018575 1.6117393 -1.6707774 -0.69786674 0.58278185 -0.21660201 -0.1283815 -1.1266136 0.30053142 -0.21191931 -0.49290606 0.22254685 -0.7835064 0.2596267 2.1089818 -0.50592446 -0.87227166 1.5303856 -1.0170987 -0.37152475 -0.56113446 -1.3044473 0.9402606 -2.4727829 1.5162781 0.9955811 -0.33141086 -0.20074493 1.5993435 -1.4432695 -2.3672113 1.272403 0.76787335 0.2059464 -0.6783702
למסמך 5.684649 -2.8966577 4.331065 -4.6435757 -2.7147117 -1.6188658 -0.8058946 4.788396 -3.241996 5.3676996 1.2936635 2.442152 -2.9738517 -3.7725282 -0.7239486 2.7210417 -1.0464598 -1.3384391 4.4086423 2.2102983 -0.3530235 0.49971694 -3.4573724 4.2251973 -1.2051135 0.47418544 -0.9289206 -1.9513206 1.7674807 0.6012139 -0.010697772 -0.34932116 0.7914589 -3.0412235 0.8606011 0.5916006 2.3122756 -0.10028498 0.31877744 0.28025973 3.419458 0.96607584 -1.3429905 1.5633025 -0.104350165 -0.49508846 -0.72682536 -0.08190253 2.2828746 1.5476584 0.10613686 0.681555 0.8789809 -0.43035102 -0.031950943 -0.3202615 -1.2549742 1.2069043 1.5270528 0.7302402 -0.25368655 -1.9474806 1.2902763 -0.45633292 -0.34957755 0.62248164 -0.37071717 -0.29098898 1.4679414 0.958805 -0.6832467 0.4184427 0.20259035 0.4483219 -0.12656975 0.5174593 -0.096310414 0.16950333 0.88740134
מסגרת 6.050657 -1.9695907 0.8856659 2.1374984 -3.6438117 -0.02130918 -0.33793503 -2.4698372 -3.606846 -0.9808289 -4.0056105 0.10819461 -1.1134546 3.3696094 2.8155532 -0.5585108 -2.0125895 -1.0228283 3.4841542 1.3086472 0.67165565 -0.9199112 -2.300855 5.56837 0.33424884 -2.8761942 -3.0661578 2.849719 -4.5530663 1.6027206 -1.060286 0.22073957 -0.15986142 -0.98603576 2.8756921 0.7559709 -0.8575857 0.24628086 -0.31573018 -0.02873384 -0.7759998 -1.7307969 5.2021675 0.9445458 -0.6843797 1.6727142 2.7826285 -0.5357585 -1.5318127 -0.93837565 -2.6986911 -1.466272 -2.5063202 3.9909308 -0.25489435 0.84013844 -2.411439 1.5655576 -1.829352 0.24825738 2.305273 0.07071973 1.1908096 -0.49580863 -1.8310431 -1.191842 -0.364454 -0.76319236 -0.75838155 -0.022845311 -0.33751222 -0.10407413 0.35997298 -0.3931332 0.11657283 0.25923604 0.44808766 1.368354 0.4094066
להתלכד -3.073085 2.2698917 -5.28024 2.1640606 -2.4887285 -2.4531538 -0.7709275 0.45466408 -3.752938 -2.5052702 -1.9976559 2.6676633 2.7187414 -1.0213938 -2.4614954 -0.86718106 0.4799346 -3.0781333 1.7991215 3.3819578 -1.2581819 1.367097 -1.0627804 0.7553588 -1.6156665 1.2567812 -1.5589609 2.5129707 -0.36912048 1.1739073 -1.6087157 -2.7287269 1.6846933 -0.1654665 1.2628491 -0.8226401 -1.211559 -1.7763581 0.5577345 2.6781173 -2.3004048 -0.8093991 0.5587364 2.6918173 1.6456944 -0.019186527 -0.7585642 0.4736672 -0.0070548463 -0.4904933 -0.5189731 0.11903305 -0.3272204 -1.3086234 1.2484304 1.63041 -0.45259345 -0.020734023 0.25791308 0.025894893 -0.13651937 -1.5870552 -0.32966822 -0.32594466 1.840113 -0.8763731 -2.1463068 -1.2626468 -0.16750748 0.29269063 -2.0427303 -1.3303436 -1.0118358 0.6123507 -1.1128612 -0.92642814 0.07931659 -1.3227344 -1.3707892
תגמולים 4.1151323 -3.9069946 1.0240881 -0.065739 -7.587297 6.012315 2.8710208 -2.6497319 1.7442536 -0.7385017 -0.35334718 0.9924762 -0.15138242 -0.60465086 1.6739982 -2.465199 -3.368141 1.265651 -1.1931604 0.097554885 -0.03724504 -1.819878 0.6523155 -2.2949922 -0.26135945 0.304138 0.91830075 2.8120105 0.09782152 1.5779911 -1.6111847 -0.5335153 0.27101633 -3.3932092 -2.7062318 0.073550284 -2.3437986 -1.0227785 -0.5820382 1.7640617 -1.57539 -2.2762103 1.4875425 0.32047752 -1.7101202 -0.8616973 -3.398009 -0.30124515 -0.22054249 0.705282 -1.3657565 0.07260745 3.6841161 -1.6775512 0.081965774 1.5449717 -0.69036686 -1.9203187 -1.1399107 1.1363734 0.24833256 -0.6672234 -1.1766516 1.704875 0.8509139 -1.1678514 1.2857782 0.005278197 2.34667 0.21962114 -1.4131761 0.17020553 2.4199684 0.47222203 -0.8760914 -0.3565621 -0.36428303 -1.9745398 0.1338531
להגדיר -2.9646475 3.117398 8.864091 0.08388823 -1.4138262 0.943432 -3.388227 0.53607774 -0.71117646 -0.14123927 -2.3358276 0.922746 -1.0737556 3.3043532 -3.596526 -0.500667 -0.36431286 -0.7672858 -0.017570486 0.67723227 -2.5951116 -2.4615922 1.0247984 0.097950615 -2.0410798 0.5294119 -1.613375 0.83504975 2.1905432 -0.037454505 0.18877438 -1.50702 0.5725702 -0.78287953 0.46638387 -1.1822964 0.47431254 -2.6075664 -2.8530943 1.3807263 0.5308079 0.351893 -0.2541695 -1.124817 -0.83037585 -0.77812785 1.9014349 0.07945937 1.4864162 0.034131892 -1.7060661 0.3666775 1.0796233 1.1768721 -0.32202846 1.4979306 -1.1186976 -0.0023373866 -1.9157679 -0.24473199 0.22144656 0.037250966 0.721008 -0.34763047 0.23918574 -0.1998984 -1.2855617 1.1658863 0.003787643 0.24087743 0.34183016 -1.2218155 -1.2140856 -0.78720796 0.25284767 -0.4201342 -0.7265152 1.4214789 -0.17474292
תעתיקים 8.509528 2.5903485 3.6799314 -1.3860303 -0.2305355 -0.6919081 1.2712741 1.1131052 -3.9180892 -1.5942694 -1.3824375 1.3617976 6.2130704 -3.4542477 -2.0141551 0.05413602 -5.6168084 3.0634398 -1.7255431 3.723525 0.674364 -0.13923922 1.2146647 -1.2506258 1.8858136 -0.28935435 1.8584887 -0.5169028 -1.3522497 -1.5523074 1.2077194 1.9514027 -0.042927697 2.5073445 -0.89069384 2.4191341 -1.4445536 2.4406962 -0.10672975 -0.90284014 1.2093879 -0.6155868 -0.29046813 -1.5012277 0.30083388 -1.0453256 1.0889443 0.2003659 0.78800046 -1.5733759 -1.2433306 0.8605703 -2.6767764 -0.5505133 -2.2751598 0.7964913 0.38468122 0.6991851 -0.4348059 -0.5602011 -1.4064716 -1.6938702 0.19342408 -0.4824501 -1.3392205 0.26608413 1.4890468 -0.6614241 -1.2661608 2.0987139 -0.801751 -0.33622345 0.21319854 0.51208216 0.22085051 -0.8736547 2.0510604 0.41511798 -0.6402089
להסתמך -4.158403 0.31268394 2.391477 0.14366663 -1.9664818 3.941677 -2.511365 -1.9628986 2.2288234 1.739535 1.3066165 2.5763903 1.0165218 1.0826794 -1.7488494 1.0208509 0.49661878 -2.4952068 -0.6746576 1.5963576 3.6834533 -0.39183596 -4.636309 -3.9926727 2.7077172 -1.6679589 -3.2093835 1.8357266 -0.5387482 -0.08158268 -0.03081865 2.4407835 -0.66479754 1.3857381 -2.2658668 0.004492451 -2.4345975 2.344701 2.1986954 -1.2545424 1.7954718 -1.1756423 1.1150997 -0.92729384 -0.55690306 -1.9962152 0.32449865 -0.5742493 0.9502316 -1.215251 -0.04913413 -0.9022489 -0.9750167 0.58106506 1.5718067 1.7495214 0.24859823 0.3432121 1.7728413 0.42983985 1.1148025 -0.6601683 0.67743266 0.20733464 0.9342315 1.6766502 1.3572692 -0.60687244 -1.2339764 0.5874762 0.051009335 -0.3924521 -0.30149177 -0.01912002 0.6307223 0.8463943 -1.102872 -0.012083556 0.5038919
לצפות -2.671691 2.6082957 0.9910887 0.56482583 5.2892847 3.2281976 -3.7557206 -1.4965956 5.3727074 0.2935654 -0.51896197 -0.8895708 -1.5838994 -1.5788544 3.238951 -4.7083693 0.21890648 0.9779803 5.587237 -2.5240045 0.80194855 2.583145 2.1210203 -1.4290552 0.68050265 2.0023372 -2.1134186 0.18419306 -0.18445827 -1.0535718 0.31644994 0.2074817 1.2296935 -0.55624336 1.6171445 -0.16980813 -0.92883855 -0.2416244 -1.2710719 -0.21173514 1.1363813 -0.13672493 -1.2486229 -0.54058194 -2.162648 -1.1303754 -0.9131719 -2.3916495 -0.06327809 -0.089479156 2.0119066 -0.030538298 -0.4077744 2.3245533 -0.9082811 -1.3197981 -0.4238802 0.4745075 -0.710791 0.8023382 1.1697358 -0.85083103 -0.66699386 -1.4950995 0.14339831 0.09380167 0.9714256 0.06010136 0.15461363 -0.07240341 -1.8388553 -1.0432903 -1.4238124 0.26207617 -0.9092454 -1.2873161 -0.14444865 -1.558046 -1.0234748
להפקיד -2.6714497 -4.8760033 0.47529417 -2.789871 -2.9410045 -1.536853 -1.2517529 -3.646442 -1.3455045 6.195213 1.9179662 0.4197571 0.16865121 1.8665402 1.2579199 -1.7028354 -1.745 1.7379675 2.3039656 -0.2518044 -0.2255137 1.1542993 0.9549064 -1.4077066 2.853116 3.1092854 -1.3607137 -0.6917285 -1.4349558 0.4562973 0.20490894 -0.9981521 -0.20229776 3.1032052 -0.5975166 -1.724782 1.0013067 -1.3874401 -0.1814441 1.6584718 -0.2338092 -0.09829682 0.39743394 1.0274353 -1.3666186 1.8319455 -1.6342127 -1.5880569 -0.8569926 -1.954269 0.5017323 -0.17832285 0.007819835 1.1450163 2.8389964 -0.30057868 2.9780154 -0.24627554 0.4344805 -1.4395432 -2.6456225 -1.8981769 1.4186763 0.72304076 -2.7585044 1.1273305 -0.5071249 0.5053168 -1.0364931 -1.0263535 0.80348176 -0.07688184 -0.05146868 -0.61326426 -1.8420528 -0.9229906 -1.5100343 -0.49330953 -0.93355197
לקשור -4.7267146 1.6114659 1.9257267 -0.5276794 -1.2180964 -3.8128884 -1.9729768 4.12269 -3.2925937 -3.0341294 -2.8367028 0.20345113 5.124661 1.8462517 4.8473625 2.8617578 0.8812694 1.4913952 -1.6513165 -1.8597219 -2.0036006 -1.5901456 0.5557281 -1.8188916 -0.7612431 -0.17151833 -1.3191977 2.1810172 1.0776415 1.5216665 -0.09080012 1.4848478 0.84777874 2.2381873 -1.1416084 2.4318666 0.79935426 -0.8653801 -0.41004708 -1.3587466 -1.1612544 -0.2924682 1.8180577 2.5373194 1.587743 -0.15624654 -0.449049 -0.20998164 1.2703077 -1.0071256 1.2338865 2.14596 0.03448557 2.3177426 0.08763543 2.0246139 -0.23741026 -0.6678013 -0.17788926 0.4615977 1.6576269 -0.34651014 0.5801008 0.68066144 1.2402927 0.07433874 -2.0503492 -0.68219894 -0.015500788 -0.25501466 -1.4831581 0.8479715 0.29666114 1.2941593 -0.7698808 0.372512 0.2988105 -0.9309063 -1.5684426
להחזיק -4.5474234 -2.1399093 -3.515755 0.5589783 0.30077904 2.2119277 -3.4523332 -2.6905482 -1.3702883 1.6063653 0.6489392 3.3059294 -0.086872384 3.1941273 -0.92018026 1.4672341 -1.5629771 0.24185343 -0.97024494 -2.8597817 1.5885363 3.3032372 -0.90305746 1.0577142 2.0470407 6.1469917 -0.992881 -1.6849525 -1.081168 -1.1672555 1.5507488 -0.56843376 -1.416689 -0.2369702 -4.608531 0.81725216 2.1180675 0.54548246 -0.94142914 -1.6557937 -2.0988753 1.1088432 1.0533874 1.9586488 -1.3212217 0.619107 0.48278934 0.79609096 -0.352724 -2.1796176 -0.28655133 -0.64008564 -3.0794954 -0.47949106 -2.191813 0.9429314 -1.4531511 -0.12079736 0.6090261 0.08677954 -0.04316878 -0.13477635 0.5531353 -1.0883305 0.25205296 1.3473148 -1.4078035 0.18961756 -0.20484537 -0.9335451 -0.68553054 0.7073073 -0.4729344 -1.5805756 -0.34540835 0.46511596 1.8161356 -0.45958564 1.166502
לבטח -1.4222716 -1.0497692 -1.4980124 -2.5986652 -3.1666386 2.5666943 -0.7251555 -1.4627584 2.7707329 4.3053823 -0.6846946 2.46308 -2.00344 -0.1781629 0.54262954 -4.097554 -0.8295963 -1.0878441 -3.6154451 -0.8683218 -1.8895347 -1.4015251 0.8249284 -1.6701268 3.3782706 -0.50778127 1.4391186 -3.0535097 1.1084349 1.7060705 -1.7083735 0.92139816 0.061864883 1.3281914 5.184834 -1.7054701 -3.7246244 -0.9241794 0.034456022 -1.9762577 -0.3108044 -0.46748224 2.5668392 3.0231175 3.7529945 1.9239162 1.1580967 1.6338061 -0.49925324 -3.3962438 -1.540255 1.4660268 1.2858146 -0.31838652 -0.33852148 -3.4472346 1.9226166 0.48421913 -1.1217878 1.584448 0.89560586 -2.134272 -2.0812514 1.4500633 -0.42891258 0.42838687 -1.4360659 0.43141514 -0.33123252 -0.35357207 0.6547206 -0.21529351 -0.101587914 2.4691448 0.49013886 -1.1732147 0.8568893 1.9764948 1.5602332
לתחזק -5.2602406 -4.7570114 0.7979294 2.166264 -0.13281342 0.4095626 -1.8719021 -3.077336 -0.91595715 0.6588798 -4.728837 -0.62454164 -2.3335736 -1.2257961 -0.7180314 2.7467978 -1.5746655 1.2289604 -4.2130675 1.5703111 -0.1127699 -1.10683 -1.1010972 -0.1365132 0.59867126 1.440592 -1.8647817 -1.7149432 0.84581596 -2.3008628 0.36855498 1.0653634 -1.35123 0.037444763 0.09143738 4.3192987 1.5128846 0.11384134 0.93760085 -0.23809676 -1.1706506 -0.118592285 0.15587924 1.5317804 0.23399274 -0.61574745 -0.832373 -1.2407295 -2.823674 0.2680734 -0.83988947 -0.7924391 0.7790812 -1.841903 -1.095056 -0.7948923 -1.4704815 0.4232211 -0.20948489 -2.2197173 0.19755201 -1.553141 1.0854815 -0.79375625 -0.2590669 -3.1320076 0.21762303 1.4664611 0.36727923 -1.6347209 -0.3420963 0.3738 -0.22393933 1.3318918 -0.7940774 0.69845223 -0.94950396 1.0467788 -0.046406418
אזרחים 4.147178 -6.6783514 -2.9139488 -0.35036343 -2.4280694 1.717876 -1.5598365 2.01182 2.22554 -2.1659753 1.161688 -0.71125215 4.2088118 -1.399205 -1.0251744 -1.6853999 1.9029539 -3.669906 1.5476733 -1.273836 -1.597582 -0.85117185 4.1916275 -1.5776289 -0.61004573 4.0771127 -1.580435 -3.4699373 0.87314487 3.2265532 -2.6944594 -0.7100503 -1.2818663 -0.13437521 -0.28017867 2.8272405 -0.1296729 1.816533 0.073713124 0.18567938 2.0612385 1.4253416 -1.3910769 0.05873028 4.2127843 -2.9693131 -1.0180216 -0.044810783 -0.78592134 -0.6379045 -1.5944669 -3.421106 1.7316136 0.67086524 -0.8344749 3.209603 0.6857459 3.6482513 -0.7493038 -0.7839001 0.6657989 -0.10778701 -0.59133273 1.3410761 -2.280414 -0.65685767 -0.77179897 -0.36810786 -0.26407894 1.1475077 -0.7810526 0.85712117 0.80821925 -1.3063223 0.18961677 0.461678 -1.6970774 -0.48949552 0.07027513
לתרגל -2.5866606 1.6513336 2.8795166 2.318172 1.2951959 1.0796916 2.0825875 -4.323098 3.2399871 -2.4546483 0.58240837 -3.875144 -1.4984446 1.08801 -1.6830456 5.834816 -0.9340708 1.3076731 2.1096098 1.4128577 -0.12897436 0.29821214 -1.8603148 0.85472053 1.6574483 2.9852924 0.7727296 0.058739368 -1.8528907 1.2838662 -0.42778656 -1.9626803 -0.2552192 1.3487616 -0.5102329 -2.2763593 -0.56590015 -0.051939312 -1.4349154 -1.0540113 1.4390314 -0.08736564 -0.6330536 -0.22706653 -0.004233706 0.8024865 -0.67329276 1.5218819 -0.5344519 0.6050538 -1.8384851 1.3674163 0.77273417 1.7193294 -0.5702534 -1.4085116 0.0250873 2.152614 1.4994239 -3.53985 0.69632566 -1.1969382 -2.3072932 1.6415604 -0.18265267 1.7561682 0.3655661 -0.6826268 -0.569264 0.47291666 -1.7948492 -1.0726194 0.7845391 -1.111224 1.3988034 -0.6392169 -0.48849425 -0.70849615 -2.167715
להזכיר -3.573062 3.6509533 3.6601396 -6.276092 0.98418635 -2.6361957 -1.3768152 -0.16288222 1.9005187 -1.2105218 -1.3723402 3.0148094 0.74867785 -0.40587443 3.2947297 -1.5787965 1.9970316 -1.2377409 -1.6692134 -2.1848378 -0.5336133 -0.6131313 -0.48993006 1.8264285 -0.07016673 -0.22112687 2.8872519 0.32870132 -4.074127 -0.56703275 0.22460811 2.4139369 -0.71614057 -3.1249769 -0.38892135 -0.66510856 -0.017816855 0.8702251 0.6882968 2.4290116 -1.133642 -1.0244172 -1.7868617 -1.8586633 -2.3727934 0.021515533 0.8940837 3.2863014 -0.9118452 1.1820459 0.04669825 -0.13908117 0.8268539 -1.1965958 0.7529663 0.7279001 -0.08342822 1.5168782 -1.5639246 0.05036953 0.08861065 -1.3419427 -2.2070925 -0.62147313 -0.23469229 0.82373935 -1.632665 1.1694834 0.6928669 -0.79460907 -1.1146798 -0.07022869 -0.67434585 -0.44682038 0.5259975 0.92769104 -0.76874095 -0.84249836 0.9492911
להחשיב -2.7398658 5.8472424 3.5609138 -3.6138635 -0.55699855 -0.68231034 -5.331349 -0.7557554 1.0317943 0.20278251 -1.9132942 3.559579 -1.2485341 4.3219233 -1.8432258 0.16567014 2.2727232 -3.4622357 -1.3912996 -0.04112234 -3.378169 -1.6523113 1.8454543 0.7000228 0.7951027 -1.3495572 1.729663 0.0014829234 2.2350702 0.985086 1.6923018 0.5396188 1.371361 0.25278342 -0.41636497 -0.46157113 1.1864269 0.85694695 -2.9207175 -0.52566737 0.091550276 -0.19664466 -1.6018748 2.0188816 -0.25594783 1.0455502 1.6274267 1.5278642 -1.7468904 -0.086944275 0.5854761 -2.167333 -0.8867259 -0.8587493 -0.60571903 0.37443748 -0.31592593 1.4150915 2.3390818 0.9820408 -0.8070757 0.2037722 0.39171922 0.9997673 -0.7617806 0.661433 1.0702213 0.28444463 1.1552517 0.83861995 1.5084292 -0.42661306 0.9126994 2.183729 -1.1176499 0.4788869 -0.67248845 -0.7135085 -1.3170245
מסמך 5.994385 -6.5306964 4.0219965 -2.8156822 -4.0225763 -0.43729335 -0.39830965 4.703131 -2.3502984 3.428038 2.6008074 2.0404904 -2.3053784 -1.3547959 4.0369697 2.2634423 -4.384697 -2.0430465 3.9493616 2.6849139 2.5602431 1.6055317 -2.0786393 2.6860414 0.7068574 1.755361 -2.4644797 -1.7854227 1.5084391 -0.5890804 1.9093505 -1.3741999 -1.4675573 0.35757223 1.4677387 -2.0623324 0.85004914 0.3118953 -1.435276 0.239132 -0.5513005 0.06448693 -2.4042058 -0.35845038 -0.62509894 -1.1994065 0.3937632 0.3254508 -0.11575628 -0.28948325 -0.9588949 -0.34219408 1.2173948 -0.12400633 -0.83781743 -2.1754653 -1.1309716 -2.1523857 1.225879 0.55211055 -1.0364931 -1.4830996 0.23612228 1.0757748 2.043626 0.5382043 -0.9665712 0.06606612 -0.47373304 0.54967296 -1.0000927 2.4267845 1.4351217 0.2439076 -0.169428 0.041157283 0.6586983 -1.1966109 0.38292587
תחקיר 6.1306715 -6.5877724 1.9512242 0.71177554 0.8349022 -0.15770076 -0.2824109 2.4714468 2.4223502 -3.1172216 5.3716817 -0.8328474 -3.8406878 -0.3599012 6.0614667 0.37694708 0.14396524 -1.7911476 -2.6802514 4.0057354 4.1589694 0.17109565 -0.5721794 0.56490654 -1.0840361 1.0348891 0.2825603 -1.3069297 2.9195902 -0.0072411466 0.7705168 0.50770074 -0.16879198 3.420162 -1.2990526 -3.1599271 1.1216475 -1.2611725 0.028487634 -0.25710815 -2.4777741 -2.3379729 -3.6765015 1.7951916 0.47890097 -0.43630415 -1.0964767 0.0026345283 2.728861 -1.9351718 0.6922335 0.20648402 -2.5331063 -0.21182705 0.016653897 2.3137536 0.2477474 1.422352 -0.9397155 2.0621433 3.1735184 0.0066519105 0.70949614 -1.4895021 0.88538766 -1.8683047 1.212439 1.3315295 -2.2321103 -0.32059193 0.32418498 -1.7739687 1.1959656 1.3687642 -0.25483012 -0.4888443 0.25193828 0.8268368 -1.0986192
לגמול -1.5829018 0.61995924 -1.6648824 -2.6116707 -5.0334105 3.0034347 3.4524214 0.8750964 1.911629 -0.88534474 1.3668276 -0.22741736 -1.7900609 -1.753482 2.6564858 0.92363787 0.88648975 4.7412443 -0.5869425 -0.26432285 1.221175 -3.008693 0.7564226 -3.1745813 2.5403306 -1.9523121 1.0434277 3.5564828 -2.7035882 0.9030019 -3.3531446 -2.9662094 0.47517917 0.1403907 0.7000987 -3.0533497 1.3838431 -0.16990976 -1.1639199 0.19302791 0.9794361 0.79731053 -2.7851908 0.6689403 0.6198513 -1.6264948 0.055794846 -1.2859429 -1.9498923 -3.5424843 1.5330834 0.31755364 -1.7196475 -2.2050302 -1.6650748 -0.6230803 -0.86335766 1.690234 0.24665257 -4.1161447 -0.7888899 0.54558504 1.9677671 -1.2182984 0.62362576 -0.74864 -1.8176537 0.87312543 1.0205581 1.5726153 0.91799295 -0.30244812 -0.4269064 0.08956295 -1.275832 0.3043202 -0.17126809 0.33670348 -0.21396963
לתקשר -2.4079797 1.7891507 0.094503194 2.8262181 4.517274 3.6443577 -0.5563431 3.491774 -0.71982425 2.4570808 -4.6667585 -0.44093978 4.36961 -2.5808287 -0.59342945 3.0768847 1.3087542 1.0855589 0.3467429 -0.91596365 3.3513227 0.6538037 -2.6627095 0.08201352 -0.87142926 -0.10175822 -0.8891826 -2.5639238 -1.8536559 -0.8236889 1.6595393 -2.6694565 0.5978897 -0.6007856 -1.5336114 0.32575244 -2.7534082 -0.09608892 0.38886657 -0.2972648 -0.99697745 -1.1319369 -3.8277166 1.3148203 0.17521529 1.1863898 0.15055653 2.275458 -2.0038881 -1.956433 0.36016092 0.3614117 1.95152 0.2427041 1.9273809 -1.5799291 -1.7217945 -0.9276723 -1.0701799 0.8497804 -0.3606769 0.6024211 2.5306609 0.4766377 -0.5154038 0.0046266397 1.2375398 0.91273636 -0.7690186 -1.3528732 0.5825192 -1.3876776 -0.54266304 1.0328535 0.94056916 0.40179998 -1.0354141 -0.9801093 -0.9118163
לגבור -5.52263 0.24121279 -3.0112655 3.2418165 1.134533 2.690819 4.65145 0.9935659 0.29533917 1.0474396 2.245845 6.088065 1.3248194 2.7181551 -0.8369156 -0.4543727 2.7920206 -1.2410316 -0.018997194 2.8951344 1.023957 -0.083153084 -0.6785178 -0.26981544 -0.087652065 -1.9104347 -1.9222894 -2.082635 -0.5909139 -2.1837442 3.0438166 -1.1543127 1.5375339 0.1186593 -0.5308795 -0.6743956 -1.1294302 2.4110682 3.0422778 -0.2330567 -0.13143224 1.868547 -1.1487759 -1.6492066 -0.6004044 -3.5351148 -0.17231184 -1.932228 1.2247789 0.54076314 -2.8687992 2.2930417 -0.7617618 -0.65335304 -0.72071546 0.61021435 2.0458722 0.47494718 -1.0088676 -0.23748814 0.18572244 1.3633091 -0.23282477 -0.56431633 -2.507577 0.32515427 -0.48409536 -0.5596125 2.3915813 0.14449818 -0.28814834 1.75551 0.4411846 0.43483585 -1.0142932 -1.3239386 1.2791803 -0.61126375 0.14668313
מספר 5.8711004 -1.8798102 1.582324 -0.69673014 1.3915071 1.0054752 0.29292133 -2.9336116 -3.5320108 -1.4956216 2.333014 0.8038546 3.664531 -0.10687462 -3.223531 -3.8679311 8.241588 1.9657699 -2.5013087 0.6429116 6.430719 -1.7118108 0.41260892 1.8755457 0.776513 2.9094284 -0.30803055 1.1504238 1.9876314 -1.0817809 0.7890521 1.2254819 -2.2939572 -3.4945047 2.7359204 -1.7377847 -0.24475783 1.4981651 -3.5258055 1.2574619 -1.7661436 -2.157261 0.633435 0.8171039 1.3993324 -2.4122438 1.3516822 -0.22108936 -0.35688552 0.49576283 0.6802767 -0.68631595 -1.3582804 0.14328086 0.1439004 -1.9403485 -1.344099 -1.652076 0.54922885 0.5175726 0.22919463 -1.5055867 -0.522309 1.3085799 -0.9284196 0.53386986 -1.9715602 -0.19636628 -1.6393614 0.21341227 -0.0011509327 -0.60914147 1.0835677 -1.6428019 0.9150279 -1.3937742 -0.52895635 -1.9232049 0.6573065
לסקור -4.26502 -3.994421 6.536208 1.3511351 3.3124053 -2.5986385 -3.3552804 -0.4930106 0.90024537 -1.0686768 2.7040184 -3.1052146 -2.0219848 -0.22348142 -0.6331115 -2.1574743 0.88024515 0.094085924 0.42728353 2.1574526 -2.1485143 2.0406094 0.58347714 -1.3271211 3.915818 -0.4971903 -1.2769151 1.4476767 -0.40177137 -1.5969534 3.5109265 -0.80173415 -0.105546564 -1.696446 0.28654012 -0.2634319 -0.22609712 -1.0131716 0.8213047 -0.27258304 0.15663478 0.6498481 -0.042781334 2.2396076 0.7396081 0.014872226 0.3133922 1.6426052 0.36045498 -2.044721 -1.2640419 1.7379186 1.1120343 -2.5647469 2.5615757 0.2726349 -0.41599253 -0.4796244 -0.6671534 -1.5573272 1.2280039 0.9658436 0.22265084 0.6682411 0.3689883 -1.1710161 -1.4205515 -0.91525567 2.7194195 1.8506376 0.85498816 -0.3079908 -0.54064167 -0.681934 1.4074705 -0.29028508 1.5560921 0.6150516 0.34384218
להיפקד 0.77437794 3.8894534 -5.320569 -6.9966865 -4.9543023 -0.81619483 -0.37587506 0.73439074 4.0918045 -3.3051085 2.6144028 -0.53281313 -0.68422467 -0.703804 -1.3980738 0.64611566 0.40986717 2.3594086 -2.0390096 -1.920279 1.7678381 1.1644669 0.9073992 -0.8156467 1.2952008 -4.0767717 1.5168424 -0.7489851 0.14220451 -0.6489018 -0.6249069 -0.6811235 -0.5352707 0.7299876 -0.2751992 -0.44789627 -0.10153458 0.24028736 -0.5165246 -1.1871252 -1.4631252 -1.132566 0.9659239 -0.24465959 -0.9026718 -0.9893927 -0.86077 -0.43159506 0.33926803 0.078576595 0.21194321 -0.99525315 0.799427 0.82857335 -1.3336476 0.119816385 -0.7511627 0.24256167 -1.2770433 -0.59092057 0.22803286 0.8590087 2.1419876 0.21755221 0.23854725 -0.5726592 0.60702306 -0.8407787 -0.043466795 -0.17275831 -1.4576946 0.44551873 0.5547614 0.35656214 -0.2571681 -1.9111084 0.7411748 -1.2851489 2.3411484
להגביר -5.2994366 -1.6679807 3.075343 3.0729897 -3.618335 -2.7053707 4.2867923 -1.0748229 -2.659647 -5.0412245 -2.3774981 -2.0754688 -1.30675 0.8500196 1.9307717 1.1329535 0.7784193 -1.1513369 -0.6934729 -3.4816055 -0.27319422 2.5957437 0.23981994 -0.93442184 0.14933701 0.48924223 1.7821808 -1.191703 -1.1643077 -1.8685969 -2.9293618 0.29217362 -0.69932914 0.7331471 1.0545348 -1.5744581 2.1446428 2.4347322 -0.75419194 -0.04574992 -0.10658952 1.1527966 -0.17975251 -1.964133 -1.1586746 -1.6639092 0.64514923 -1.762962 1.3471047 0.08290042 -0.2578847 0.34533906 -1.0237314 -1.0723677 -0.47283 -0.13305071 1.6023607 -0.40562898 1.61141 1.2094532 -0.8343746 -0.79224026 0.67178303 2.0048976 -0.107985884 -0.26867324 -0.7018563 -1.831818 0.71376383 -1.0641651 -0.4631022 -1.1955153 1.329455 2.0037484 0.2833597 -0.65422785 -1.1317729 0.20170406 0.15375082
להיסקר 1.7464072 0.52151054 -0.28073183 -0.55401474 -1.4107875 -1.1125207 -1.2951435 1.4931589 0.8389726 0.5795173 2.9958544 -1.5318428 0.43305552 -4.779879 -2.5256069 -1.8391595 0.1586441 -3.3472362 -1.2345145 1.4937881 1.456277 -0.17870249 0.23923938 -1.0716411 1.0237007 1.0436332 -1.1011208 -0.20009868 1.9436189 -0.23426913 2.2437804 2.7401795 2.0608914 1.5369637 1.1827146 1.1367928 0.38827327 -0.6072459 -0.7083226 -1.5231961 -0.58073556 0.76439667 0.93943423 -2.422016 0.14506659 0.27690715 0.82419866 -0.85975 -1.6280247 -2.0345445 -0.092119224 0.122722864 -0.6272521 -0.9400577 -0.039604068 1.977186 -0.9284676 1.8772181 1.4093536 -0.32080612 -0.52611154 1.015746 -0.6216332 1.1980623 1.155053 -0.7285516 0.51843405 0.4788662 1.5369571 -2.239055 0.91962415 0.8621586 -0.18484667 -1.2283635 1.3131464 -1.419662 0.70003253 1.818492 -0.9613797
לשכון -1.8429983 -1.1784356 -7.402187 -2.152171 1.414631 2.5539858 -5.0773044 -1.2133741 -3.6393628 -2.80118 -3.01045 -0.24590462 -3.1471133 -1.025844 -0.09286893 -2.0417593 -2.1401198 4.874648 -2.8670743 2.7384899 -1.5638739 3.6534896 -0.4543632 -0.6192812 0.5573202 -0.198798 2.3716853 0.78263193 -2.2488718 -1.483524 0.3048215 -0.19442914 -1.4752697 0.46301672 -0.15696704 -1.2338154 -1.1671883 0.8373773 -0.69490033 1.1304659 3.0752769 0.063594334 -0.4637233 -2.41584 1.6036897 0.039961353 -0.5683782 1.2717966 1.7242143 -1.2833917 -2.2459557 0.6408033 -0.7592823 0.19995783 1.8303425 0.054234844 0.047868513 0.6011964 0.14256571 -0.25995496 -0.5020963 0.6015265 1.3993523 0.001739238 1.6152488 -0.10668197 -0.9758517 1.9885066 -1.0394932 -0.26954457 0.19879438 1.8436359 -0.27261224 -0.442138 0.9035786 -1.5143943 -0.25214592 -1.2314614 -0.3479993
לזכור -1.6058705 5.215009 4.7734027 -1.5991497 0.3661885 0.44552013 0.41108218 -0.74875474 2.8797567 0.12198826 -0.29334003 3.512114 0.5775695 -2.1830704 1.9106348 -0.0354937 1.2309643 1.5581008 -1.273125 -0.17071877 0.15166599 -1.6858928 1.069116 1.5827415 -0.7844161 3.0405817 1.4388065 -3.5727694 -2.643606 -0.32516932 -2.333773 2.7527053 -2.9485738 -1.4483943 -1.2342999 0.87991685 -0.82125896 -0.77427274 2.300685 2.8647196 -0.48158804 -0.33427885 -1.9920174 0.041709237 -0.60566884 2.750307 -1.2531235 -1.5413331 -0.45061392 0.27545947 -0.3996172 1.7684745 1.1339748 2.0764165 0.7862924 0.89606494 -1.9449288 1.5150692 2.9323246 0.80601823 1.4897003 1.1759715 -1.4993364 0.5594077 1.0251368 -0.032598875 -1.5441129 0.15418085 -1.3362997 1.8042293 0.89058256 4.666714 -1.4333185 1.5695227 0.59080154 -0.98590857 -0.7450254 1.2611507 -1.5506351
לתגמל -4.993407 -2.5634062 1.9448481 -1.6362157 -5.012734 1.3371264 1.2979499 -3.6322596 1.5882708 1.2015328 -3.2660294 -0.89694804 0.56823933 -0.0035694772 0.51162654 0.43406394 -0.24276978 0.36433095 0.07578381 0.9597562 -0.6360407 -0.32898927 -0.3644446 -1.9714 2.764157 0.9372694 -0.31239182 1.096368 1.740828 0.34282804 -0.42250785 -2.714853 -0.52891 -1.622039 1.1932111 0.5393948 0.15609746 -0.042562433 0.5181636 -2.3732393 -1.2883866 0.057516295 -1.5194159 2.4358494 -1.0848677 0.15481609 1.7823789 -2.250664 -0.9614289 0.2561737 1.523307 1.0192074 -0.89871365 -0.36321503 -0.16280694 -0.43173045 -2.472778 -0.1905654 -1.0034097 0.7004336 -2.2104883 0.35382727 -0.80147064 1.5301518 -0.7936781 -1.6264998 2.1301131 -0.5352974 0.5422652 -2.5297942 1.9960991 2.4918914 -1.3115686 -1.6305256 -0.08669031 -0.8613161 1.2563858 -0.8000728 -0.887242
אזכרות 6.4945717 -2.5727873 0.21482511 -6.5923157 1.3031946 -2.6131535 -1.5399883 -5.2001414 4.206229 -3.9595797 -0.933422 1.3706512 4.0316377 -3.5437276 0.9129129 0.38225007 0.8272477 -0.0007951866 -2.3003283 -0.67639023 -1.5034045 0.55556184 -0.78928375 1.4923713 -4.2560763 -0.033501327 0.8347974 1.3467999 -2.5003867 -0.9621342 -1.2125589 0.35129744 2.3538542 -0.096045926 1.0378207 -1.61728 1.909011 0.72109234 -0.3135396 0.69246125 0.0623269 1.0598407 -0.04627014 -1.6811754 -0.38833693 -1.1631368 -0.7903923 -0.76781034 -1.0442164 -2.9574177 0.20727243 1.1524639 -1.6653594 0.3617517 0.5075624 -1.4138577 0.20737965 -1.1265543 1.174902 0.5358193 0.3122826 -0.051299322 -0.41971466 -1.2630433 0.90017253 2.051941 -0.47185308 0.9546212 0.3012991 0.39648148 -1.7186975 1.3756225 -0.49799144 0.44380876 -1.5141822 0.86468345 -0.18107235 1.9203805 -0.41732317
לתזמן -0.6429667 2.3221662 4.622374 4.5133114 -1.0703666 -2.8177497 1.443079 -6.1511602 -0.33275035 3.4517484 -0.18334606 -0.8671772 1.4633087 -1.7616153 0.84139466 1.7251981 0.5267275 -1.3121268 1.5082055 -1.2074232 -1.03927 1.7487456 -0.8686028 0.123582415 -2.7121499 0.5781692 1.302621 1.2103336 1.3496218 0.6771282 -1.5060093 0.25734472 0.045682304 -0.115341544 -1.0533129 0.58311754 -0.9004514 0.8003228 0.5111358 -1.1150954 -0.83048445 0.93747336 -0.4330838 -0.69119704 -0.44579282 -0.046174686 0.902544 -0.6234237 1.3208909 -0.9151323 0.9362189 -0.631209 0.60318553 0.730729 -0.3299584 -0.29202664 -0.34692818 1.1970176 0.5747798 -0.81747067 0.52406836 0.41425443 1.3397064 -1.1898956 0.17874347 0.8868586 0.060761523 0.5208619 0.4273332 -1.9731996 1.9863619 -0.24096544 1.0145979 3.221362 -0.6534469 -1.8948649 -0.1899835 0.14230938 -0.22940727
לפקד -2.353954 -5.7078047 -2.7707684 2.6219795 3.9595828 -0.69878244 0.17261957 0.69652563 0.44788504 -1.31671 5.9210477 4.8528795 -0.38203144 -1.5879173 -3.4212635 1.6289262 -4.3376985 1.7234083 -1.325313 0.46278015 -1.1888282 -1.5174371 -3.1548085 -0.18373838 0.807094 -1.352292 0.7583655 0.5099569 2.090406 1.973121 -1.6498234 -0.68204105 0.8309714 -2.9900868 -1.5257493 -0.14811197 -0.25636286 1.654689 -0.81943065 0.77650344 -0.3914408 -2.2601206 0.9873638 -1.5806215 0.71185696 -0.7812524 1.1231207 0.012294111 0.6133362 -0.3773772 4.9456024 -1.0311724 0.55053264 4.027136 -0.10360573 1.1179605 0.47726586 -1.7123469 -1.3943148 0.17835309 -1.4187638 -1.2734673 0.9428326 -0.9691852 -1.938507 1.1288012 -1.3576099 1.7454495 1.8881882 -0.6746195 0.15655667 -0.5270973 -0.52100295 -0.74122876 0.5522791 -0.519838 0.850637 1.9523246 -1.7009876
להתחשב -2.0906515 3.0327647 1.809682 0.573623 -3.264297 5.013954 -4.4045234 -1.2973161 2.5348458 1.0616157 0.9394475 2.3859067 -0.56432724 -0.5361574 0.58158284 -1.576879 0.10355543 0.2642255 1.6297607 -3.6466763 -0.2690271 5.677205 0.32909617 1.2000744 -2.3152936 1.818903 -1.423516 0.52273583 0.5621206 -3.1579938 -3.5431592 1.2496936 2.2356222 0.8555009 -0.17121753 0.0027512868 -0.34683022 1.403304 2.2440803 -0.5255263 1.0782977 -3.3336694 1.2384667 0.38390672 -0.42893535 -0.5752845 2.3970428 4.728794 -0.6594396 1.4613701 0.17785226 0.20736322 -1.5926883 -1.8330545 1.0087959 0.4926384 0.4317973 -0.1651317 1.3387288 0.05185161 0.666103 -0.6383579 0.90203255 0.29395878 -0.3424027 -2.5924892 0.7395859 -0.43280855 0.33279306 -1.1493891 -0.26724392 0.34019747 -0.67108417 -0.23657706 -0.8923208 1.6355947 1.1017426 0.70488423 -0.2708169
לחשב -1.0479143 2.8399038 7.134311 2.6536715 -0.6838646 -1.3278042 -2.7688084 -2.597435 0.70987946 1.920739 0.3847391 2.6241865 -0.6229243 1.0911398 -0.67602783 -4.1809454 -0.7898784 1.3796511 0.90471435 1.7383151 -0.25202033 -1.7525744 0.8964485 -2.9889622 -3.3216496 -0.69380414 1.1272993 -1.3093439 1.5198424 -2.537887 -1.153928 -3.6024582 0.14296907 1.9560795 0.737841 2.2786663 1.13267 -1.4465909 -3.3326812 2.4109468 -1.8727275 -1.4463664 -2.0378053 -1.1068041 -0.40431327 1.2310966 -0.75995535 0.97324824 2.968924 -0.19119848 -2.0681756 0.7321166 -1.2398598 0.09320621 -1.2154522 1.9533195 0.9180812 -1.6118184 1.113504 -1.0512557 0.39575535 1.3969805 0.23392086 0.856739 0.8943412 -0.38859922 -0.31873295 -0.12583117 0.947543 -0.7908446 -0.15215756 -1.3183146 -1.0274725 -0.9881807 -0.12921913 0.19490895 -0.20278864 1.1190464 1.8728411
להשכין -4.3081665 -1.6060308 -2.5154147 -2.1834817 -2.7149382 -2.1988194 3.2908735 4.1072216 -0.8285878 -2.461109 -1.6730883 4.3736143 1.8183839 -1.0767465 0.4487012 0.68616235 1.6469768 1.8258975 -1.9634262 -0.9021528 0.49758506 3.1464262 1.1385148 2.8366568 -1.6543695 -1.4824991 -1.0570933 -1.1847819 -0.7403151 0.60124624 1.6481779 -1.7649765 0.3481265 4.1256704 -0.5622575 0.51311135 -3.2283423 -1.6560584 -3.464628 1.4221867 3.1540577 0.13184468 0.78936553 0.8065473 3.5248077 0.10023145 -1.715158 -0.29552615 0.43954983 0.6221242 1.3273119 -1.4267893 2.0635433 -1.2281364 -0.7818894 -1.633496 -0.4524885 -0.49032447 0.6659305 0.76383555 1.3280789 0.7352705 0.67521787 0.29496047 0.6294589 1.7305154 1.6775942 -0.07679134 2.4866858 -0.17110793 0.544227 1.1594193 0.043962665 -2.5920246 -1.0873792 1.3559948 -1.369885 3.2444909 -0.567198
לתזמר 0.052228414 3.3505983 2.1426346 -2.5542037 0.94680375 -3.5017397 4.4595184 -3.9382002 0.9156415 2.0100951 -0.84395164 -1.1530454 -1.9025971 -2.1211092 -1.7685932 -0.9843956 -2.9184108 -1.0428187 -0.7283479 0.61277384 -0.8329438 -1.2872375 -0.4687261 3.1178317 1.3403074 1.5261719 -0.5184529 2.5268502 0.35235712 -0.67766577 -0.365726 0.4581024 3.267207 1.7370933 0.84362084 0.5732615 -2.090888 -0.61809736 -0.8564031 0.0045839916 -2.6761801 0.46672666 -0.84929526 -1.3970891 1.2203418 2.4650924 -2.8329391 0.54113454 1.1631128 0.6748507 2.1779418 0.8443238 -0.9334353 0.3606082 0.8692678 0.6688798 -0.7545403 0.46367258 -1.0606865 -0.18288374 -0.68550754 -1.4878561 -2.00084 0.30015782 -1.265614 -0.22832988 -0.8660523 0.17269795 0.9694425 1.0384133 -1.0886108 -0.3183558 -1.4233233 -0.56225204 1.1355982 -0.15813325 -0.6742971 -0.46185797 -0.40690506
להעתיק -3.7038739 -2.4658716 2.6871083 -2.0205686 2.2975118 -2.6992497 -1.0455078 -0.7437059 -1.9719322 3.5615509 -2.8400445 -2.0302312 0.89121926 -0.14214224 -2.5376055 0.45357996 -1.5871543 1.318357 0.7837973 3.0596232 0.2827431 -1.6245382 4.757343 -1.3065933 1.4153382 1.0302403 -1.6294351 1.8936387 -2.9919224 -0.36514014 0.35639513 4.3549595 -1.1845038 0.21839127 -0.39271528 -3.6319406 -2.3306396 1.7827083 -1.9019378 0.55975574 -1.9402404 1.1323001 -1.6586926 -0.26756805 -0.36068323 0.2192433 -2.1379151 -0.4585976 -0.29028907 3.6894433 1.4197059 0.52209353 -0.7847243 -0.47370827 0.0038258582 0.6394677 1.1181197 -1.637788 0.03296169 -0.7053402 1.7887495 -0.31851876 3.0006626 0.57063437 -0.9201499 -0.8622506 0.6604033 -0.18528284 -1.0332357 0.3965479 -1.1304163 1.0148808 -0.65362084 0.96807045 1.7269533 -0.08135394 0.5120793 2.0208673 2.1561215
לאזרח 3.732349 -4.0795774 -0.55803835 -3.6223035 -1.9145353 1.8073727 1.994747 3.8672488 0.6807976 1.2647746 1.1360657 2.297905 -4.5962577 0.31520644 -2.1083703 1.1011353 0.34860632 -1.3237259 3.1146545 -2.8009424 0.9781 -4.383453 1.4238622 -4.8974833 -1.3795043 4.603038 2.361758 0.7888603 -1.8486115 1.3300475 2.0572393 -2.928145 1.2479976 -1.8922334 -1.584775 3.8070529 0.5246912 4.8552604 2.2363248 1.315039 0.5599709 0.7236517 1.2075334 0.3634208 1.1216562 2.8497674 -1.8782971 1.0686381 0.59915936 1.9960741 0.86946756 2.4419363 -2.3484647 1.7074862 2.1308787 -1.7906783 -0.40328157 -0.42551428 -0.63825697 -0.55221087 0.34694326 0.77360946 0.16307253 1.6990826 0.4381781 -0.5747636 0.16520241 -0.3621115 -0.36386818 -0.21994053 0.010435561 -0.93428135 -0.16933466 0.5372228 -2.1557539 -1.0097878 1.504656 1.2691482 -0.016508035
לסגור -4.054092 -4.587695 -1.7342168 -0.45350483 1.3390785 -4.198594 -0.9477127 -0.9024288 -3.351044 2.5937102 1.4401673 -3.5425532 -0.18492769 4.596913 1.169898 1.3282063 1.4289503 0.5725242 -2.0711234 2.4376545 0.42428544 -3.421786 -0.5838233 -1.2080863 -3.0990076 0.40721276 0.58674073 -3.9720004 -2.139723 -0.8936667 -1.4949862 0.6952609 2.8238769 -0.06398236 3.7207246 -0.047508616 0.19976877 0.4111873 0.6024211 1.1560735 1.4863955 0.7929312 0.38496858 -1.9417678 -0.8835763 0.3762849 -1.1755397 0.51526064 -0.9649074 1.1576614 1.5213609 -2.0871575 -2.4010043 -2.554575 -1.3410168 0.94152594 -2.2896197 0.317186 -1.2740784 0.6912226 -0.1999 -0.6947299 0.32797927 -0.4285112 -1.2778457 -0.63140726 -0.38894147 1.847083 0.6133676 2.0212123 0.68139875 -0.4095237 -0.24133268 0.41325414 -0.80072176 -1.1392342 -0.83439434 -0.6541074 -0.6761145
להבחין -0.97641313 6.0135717 2.7443526 1.7295915 1.6316406 1.8968794 -6.1103525 1.8301826 2.3514154 -2.2088819 -2.5334468 3.3265464 -1.1872804 1.5538976 1.215616 -1.0962056 -1.4415991 2.344998 1.6283604 -3.4952836 3.7264736 1.5168731 2.5815918 0.85045934 -3.114358 0.29190162 -1.706802 -0.09850039 -0.29365885 0.94332606 0.4561159 0.6837593 1.5080639 0.5102021 2.4156494 0.7164585 -1.0717181 0.2394427 -0.039709758 -2.8326263 1.730921 2.5163932 0.62913835 0.35618997 -2.047777 -1.467624 -3.0153618 0.2416788 1.570236 0.68329537 2.1639755 -2.7181451 -0.5544672 0.5704901 -0.67181915 -1.8926771 0.5791397 2.189263 -1.8502227 -0.0089903455 -1.5369847 -1.7063743 0.5637205 0.73321134 0.36819696 -1.1126598 0.5849272 0.392704 -0.88281274 0.6217599 -0.43044335 0.6212928 -0.37440515 -1.3116904 -0.06288633 -1.1403991 0.22491226 -0.37715453 -0.09167324
תפקידים 5.6857376 -3.948841 -0.13689247 0.83601934 0.87322575 5.243824 2.7092922 -1.615878 0.07078142 -2.6612678 0.25416875 1.4444146 2.826436 1.3552223 -1.255852 -1.8322452 -0.47972217 6.478552 -1.1598846 -1.7048998 -3.5220847 5.3641195 -1.8672895 0.3156391 2.87781 -0.44826034 1.5748608 -1.9510169 1.752111 2.952875 3.1728938 3.3136091 4.4074225 -1.8244002 2.016679 0.7706884 3.0238595 -2.8501515 0.5946251 2.758125 -2.1762557 -0.8285305 -0.8596855 -0.5583762 -0.5936079 1.0007792 0.38250852 -0.3732506 2.3187506 2.363256 2.4596927 0.2696017 1.0857161 -1.3515557 -0.040419407 0.22903635 -0.50188 3.2946548 0.11779201 -0.40610826 1.9073688 -1.4155779 1.0748712 0.14938375 -0.91407925 0.99322915 -0.8158577 -0.54409575 -0.31354165 -1.1029248 1.8155338 -0.60729504 0.22227721 -0.3098421 -0.1714349 0.3411588 0.74810463 -0.7786418 0.47248062
למספר 5.65904 -0.9437644 1.5050606 -1.3446827 1.1943706 0.75061494 -0.5013441 -1.1649178 -5.27791 -0.085157365 1.2979391 0.84493047 1.4089812 0.039001282 -4.7513447 -3.8145735 9.121374 3.8752975 -1.6775666 -1.2558603 5.0520487 -0.12654676 -2.549701 0.5237887 1.4464906 2.1858563 -0.11013522 2.5230858 2.2081459 -1.4242293 -1.778163 0.037990708 -0.4087484 -2.252277 -0.10727744 1.0010823 -1.2177769 -0.93465453 -2.5656736 -1.3308302 1.107188 0.73817796 0.1164565 1.1857113 -0.1774586 -0.41480747 -1.663479 -0.5273521 0.98447907 0.2949327 0.17227824 0.03750349 -0.6191786 0.91311026 -0.14371008 -0.97004545 0.63389426 -1.0439647 -0.704146 -1.597687 -0.122943535 0.55503887 -1.1097345 -0.41567022 0.8777805 0.102639064 1.4991941 -0.14853512 0.45916668 -0.023481496 0.36365697 1.4596227 0.5576354 2.8390415 -1.1635259 1.5039308 0.0060934685 1.3656509 -0.677197
להילכד -2.7649088 1.7852775 -6.062472 7.2289515 0.16918369 0.059714846 -0.42831805 1.4324049 -1.0805746 0.61606294 0.7573153 0.17208503 2.811885 -3.1431646 -0.3667336 -4.0689797 -0.94705594 -0.1077515 2.1812427 -0.4645861 -1.3139693 -0.14187334 -1.2483801 -1.3120499 0.8497586 2.731455 1.2578692 0.57349014 1.0808173 -0.7945283 -1.097494 -0.82147217 2.4461396 -0.6161853 1.0882698 0.4113857 1.3066964 0.12578149 0.28150636 -0.7603723 -0.32030845 1.4289678 0.59422743 1.1220086 -2.2589974 -1.1279478 0.34420094 2.9915433 -0.5631982 -0.884103 -0.045933563 -0.39841378 -0.86444724 -0.4752893 0.13175465 0.48848423 2.5054092 -1.3269968 0.7120644 0.12156834 -0.44806793 -1.4576204 -0.22576816 0.4183353 1.1469929 1.707094 1.30797 -0.0066741123 -1.8028402 1.305651 0.24993616 0.8239881 -0.51565033 0.29615864 1.0076854 0.74909675 -1.3688372 0.92205703 -0.14113916
מחשב 7.239037 -0.47756603 4.216657 4.328183 0.9702059 3.2108705 0.99116635 0.5703312 -0.5130621 6.8598204 -2.812457 -0.33412376 0.111853525 -1.0092642 -2.4300454 2.0315123 2.619435 -0.21798694 0.22392255 0.6156373 -2.8355613 4.8534856 2.416098 -3.0264556 0.829363 -3.73164 1.2009225 -1.1169119 -2.5494478 1.6556656 -0.8351198 -0.73773843 -0.92189807 0.9435233 1.9031951 -0.718534 0.8719582 1.3977075 -1.4020945 -1.6290971 -3.4776795 -1.2463931 -0.4534371 -1.3378972 1.4465755 -1.0388848 -0.2899618 -2.2076056 -2.2799866 2.0589151 -1.1409934 -0.71215695 0.5604679 1.1709851 0.029824864 -0.31112543 1.0793853 -0.23467569 0.882499 0.655589 0.52281195 -0.7751075 0.26567942 -2.0253487 1.5204742 -0.14867748 -1.6421084 0.7083359 -0.967126 -0.64641327 0.24612477 1.2599288 -0.42844296 -1.7546321 -1.724311 1.8476135 -0.21477827 -0.17946374 -0.50542873
לסקר 1.4964559 -4.557395 3.9248495 -1.5156732 5.2615395 -1.3744905 -1.1521466 2.9134398 1.8829184 -4.823522 2.334587 -1.0353844 -2.999209 -1.9478511 0.9505861 0.78461194 3.7042909 -2.3361135 -0.7778917 2.48339 -0.9690462 1.3264939 0.70793134 -4.6293426 4.1284547 0.064783946 3.488174 1.1856414 -2.7768292 -3.9374223 -1.5631951 0.056792725 6.291892 1.6616412 -0.66059947 3.1037648 -0.23229432 -0.20069 1.4875643 1.4361322 -0.46079335 1.064387 0.08614001 2.0353773 -2.3761833 1.732833 1.4775654 0.018693665 0.03745771 0.51274025 -2.1108048 -2.0507894 1.6056625 2.572944 -1.941928 -1.0235832 -0.028452065 -0.12710461 -1.2729425 1.9730287 -0.5972328 -1.4697584 1.0619835 -1.1816009 -0.93407804 0.98751193 0.7332731 -0.5317831 0.26742882 0.8794912 0.7552748 1.5963793 1.7895613 -0.52020836 0.4041702 -0.21511465 -0.12445756 0.16994816 0.2727659
תזמון 6.213382 1.3071347 4.0983095 6.6979403 -0.5029389 0.24534181 2.6855636 -3.716002 -1.7965 1.208822 1.2497073 -0.47951034 0.21729432 -0.9236227 1.2889841 1.2719332 0.82541585 -1.0516938 -1.5967513 -0.70843107 -1.0883346 -3.6143198 0.79021484 -0.40273035 -3.1160445 1.9109744 1.3618819 2.5142639 0.525224 -2.7758603 -1.2096826 -1.4413584 -1.8580601 4.770794 1.0452359 -1.5539232 -0.39115548 5.149418 -0.11976366 0.79054725 0.31919459 -2.7636285 0.07702865 0.8494994 -0.03168749 0.5456787 2.9931087 -0.018210715 2.937234 -1.3712516 1.2035964 -2.3036668 3.7367766 -0.45088768 1.5225594 -0.4765162 -0.86309224 0.9080005 -0.7222412 0.81036484 -1.3506393 0.9713972 1.0734488 0.88460135 0.51713264 1.1713057 0.94231397 0.34807342 0.73686963 1.3391405 -0.44020635 0.43294215 -2.9646587 -1.0635043 0.40839785 0.9532348 1.5208207 -1.9262758 1.2808322
לתחקר -3.2821965 -1.9142104 2.4816146 0.81109726 2.4556484 -0.006857076 2.1966648 3.3606281 2.4917865 3.4215014 4.9764075 -4.3532915 0.7599073 -1.0980963 0.6403269 -0.2109854 0.31442133 2.5184343 -1.6990451 0.3338398 0.51485515 0.21777368 -1.9050978 1.8153661 -1.4664721 0.23932865 1.8124663 -0.6831358 1.1481133 1.1896687 -1.5219533 -1.6192591 -2.1157749 0.55387837 -0.91674596 -1.3090081 -0.90312463 -2.2615845 1.1320375 1.9965528 -0.1214753 -0.98443425 1.1645163 -1.5287578 -1.0237726 1.0645009 0.14514492 1.4051396 1.8331513 -0.88956213 -1.4446971 0.40733585 -0.6808741 0.24312162 -0.27676624 -1.1956327 -0.06379045 0.19242293 0.6894711 -0.34700024 -0.21350814 0.37837002 -0.6852721 -0.6358202 -2.647482 -0.5651319 0.738377 -0.22084343 -0.36229524 -1.3498566 -1.360023 0.40933725 0.05584038 -0.41611716 -2.0984612 -0.3628418 -1.1212999 0.9688957 0.44816557
להצליח -3.7086053 2.4943607 -1.4966706 1.5331818 1.5777612 6.0420246 5.9705234 -0.8003922 0.50917417 -0.14942576 1.751169 0.64224416 -1.903361 1.9180071 -0.36884546 -3.3299615 2.0675876 -0.36714184 -0.26586476 0.7470457 0.08484141 1.952559 -0.79850364 1.4892287 -0.8737121 1.5132333 0.0040868525 0.3346758 -1.6735076 -1.7566638 1.9377916 -0.31756055 0.3383125 1.4698907 0.7229155 2.1213322 1.6905111 -0.12826285 -1.410433 -0.15227695 0.76667523 -1.3307823 1.6752161 2.608744 -0.5745563 2.3570652 -0.2704961 -3.2783842 -0.24441461 -0.5513471 1.3564423 1.4006562 2.2577753 -0.9367145 -2.3146338 1.7890254 -1.7782257 -0.98153204 -0.22380237 -1.9015576 -0.47500423 1.8800738 0.9650547 -2.3197248 -1.5113219 -0.62567145 0.11938759 -0.33796525 -0.5030798 1.3141391 -2.5559766 0.10474852 -0.62438077 -0.6307193 1.3072143 -0.3852299 -1.5099865 0.491 -0.2251469
למרפק 4.702729 5.595164 -4.4001627 5.8145533 -1.81452 -5.9747405 -2.526772 -2.2896724 -0.7006947 -1.1199431 2.8420768 0.19930948 -0.3398456 1.6101791 0.36553395 3.2145524 -0.4437535 -0.5297587 -0.87538743 -1.3339062 -0.18096828 2.2760153 -0.46195918 -0.769311 0.44831076 -0.87931967 0.24920927 -0.24811928 0.8161 1.946692 -0.8672154 0.99229264 0.8989922 -2.1424847 0.23470694 0.5485268 -3.6211376 -0.23308735 -1.4628046 2.026434 -0.170794 1.1671292 -1.396881 1.3076876 0.31363666 0.30723807 -0.4394291 -0.95106363 0.9899146 -1.874139 -0.6083166 -0.2991229 0.14019668 -0.48077047 1.6510129 -0.5019349 0.18062443 -0.31350526 -1.1490935 -0.8314404 0.60599685 1.8064466 0.8822066 1.8620509 -1.8670464 -0.6121636 -0.0933428 -0.59133685 -0.8665677 0.6041894 -0.2422798 1.730775 -0.6877433 0.34489062 -0.46240917 1.063557 -0.29446483 0.28643522 0.8302278
להיחשב 0.6021926 5.203182 0.51753443 -1.9236156 -1.0164282 5.717293 -3.073147 1.9191995 -3.2315621 -0.56801784 -0.042962726 2.2916167 0.51928055 1.4226862 0.26492807 0.34288058 1.0396035 -6.310296 -1.3181344 -0.21185823 -2.3602104 -1.8995558 0.37539 3.2941992 3.6822755 -0.08719701 5.5706396 4.3639817 1.7125648 2.1104717 0.8805506 -0.49602276 0.33915558 1.9744904 -2.7574842 -1.1979402 -0.8927439 0.6475343 -2.1040304 -1.5186068 2.935919 0.33883965 -3.0017776 -0.1596253 -1.7887584 -0.3146244 0.9623936 -0.4251617 -0.31713492 2.173883 0.2976572 0.21696009 -0.6857697 -0.5043093 -0.05553539 -1.0523354 -0.28002608 -0.027091427 0.7599536 0.8595621 -0.64373195 -0.22959806 1.6003101 0.9299978 -1.8417917 -1.2754608 -1.800883 -0.06322316 -0.54488003 -0.55474025 0.13599944 -0.29653758 0.77049005 -0.33401102 -0.4330012 0.1312874 -0.58536094 0.57428825 -0.94244075
לחשוב -3.1603866 5.545197 1.0665703 -0.27614823 1.8633884 3.8453376 0.49306232 2.816955 3.23069 2.401587 -0.8745283 2.132049 -0.26575017 -0.007720397 0.3517892 -0.18036705 1.0055159 -0.9569755 -0.35100156 3.3750079 -2.1717136 -4.621226 -3.2293441 -1.6598297 1.6041299 1.6164023 -0.14168908 -1.1986897 0.28697976 2.0551107 -1.7601187 1.140648 -0.7040666 -0.4919744 1.2845347 -0.35659564 0.6653563 -2.8644745 -1.1141733 -0.9705432 2.0125685 -0.6269565 1.6452354 -3.625059 0.12132925 -1.8643165 0.08714053 1.1564689 -0.8297281 -0.42446396 1.8892031 -0.79160666 2.045412 0.6743756 0.8024688 0.187992 1.0243862 -1.507804 -0.47520146 -0.14126694 -0.067316085 1.1673572 1.1864719 -2.3650901 0.080243155 -0.78337365 -1.0744522 -1.4643232 -0.97122324 0.55155283 -2.4366825 -0.37294132 0.32262766 1.1440568 -2.1173785 0.34742343 3.355286 0.045458693 -0.80109805
לאבטח -5.4073634 -6.507273 0.46229002 5.3845024 0.968533 -6.326941 -0.42569223 -0.10911229 0.2693136 0.52939415 2.694727 1.1314013 0.07832422 -1.5204407 -1.191958 1.1040395 -0.053870566 0.10220783 0.10683921 -1.8342205 -2.7724786 -1.815026 0.4197962 0.390812 -0.70141137 -0.028566973 0.87580585 -1.7298666 0.26888263 -0.12515521 0.8454187 2.8072283 -0.68687505 -0.2242517 -1.4883726 0.7147453 -1.8021538 -2.009084 -0.9823134 -0.027735934 2.3626678 -0.39421117 0.1476847 0.6265774 -0.9465576 0.11819176 0.9381446 -1.4955983 -0.14561838 0.16123462 2.2018754 0.030691184 0.39953128 0.73827326 -0.66104186 -0.11223459 -1.021289 -1.0382985 -0.22836748 -1.1333575 -1.2454985 0.48973045 -1.2350019 -0.3971085 1.4739736 -1.6746467 -0.60597247 -0.69543576 -0.8151207 -0.82677454 1.3877729 0.052077208 1.3834031 0.9995963 0.52185166 0.5102472 -0.027487077 -1.8036348 2.633652
צלחות 7.674473 1.2914566 0.66792196 2.311206 1.5745367 -3.8029068 -0.69508415 -1.6473341 2.7793725 -3.0348032 -4.736922 0.12463982 3.9592674 1.8557204 0.48745692 -1.1196824 -2.0725822 -2.3730514 1.3607943 2.4248672 7.5352163 1.7827003 -1.7687414 -0.014414059 1.9130832 0.32012114 -0.539952 -0.703365 -1.5796375 3.0217662 0.23899525 -1.9576585 0.7011 1.3166395 -4.5589075 0.3141687 2.2718544 0.63401175 0.06670737 1.5040767 -0.12062407 -0.2847935 1.8826749 -0.5472721 0.6765366 -0.30093908 2.7359443 -0.6769494 -0.8537566 1.755115 1.8623422 -0.333536 1.9685484 -1.6185395 0.65624076 -2.4634671 2.7197235 0.60749257 -0.35017276 0.5246575 -1.7008629 0.80444026 -1.8995657 -0.9042839 0.18020445 -2.9463832 -2.0232296 4.0722713 1.9191436 0.5432938 0.11884895 0.86698884 -1.1787302 1.3020314 0.8510291 -0.842462 0.46800482 0.7355273 1.0793846
להזמין -3.0032625 -2.0919142 1.7850188 -4.0181456 3.8770697 -1.0021913 -0.19337696 -2.7160602 1.3673522 2.5003471 -1.3012884 -4.0957675 4.61729 1.6446491 1.2122082 0.50788665 1.6981832 0.47546962 3.2720895 -1.5226343 0.9223314 -2.0907474 0.53523046 -0.35271406 3.5355613 0.7203257 -1.3289406 1.3014888 3.8132246 -2.1865208 1.3080876 1.6086425 1.8962355 1.5191299 -2.3589005 -2.0155501 -0.34630075 1.6513675 3.1100178 0.010927415 1.7328004 -0.739031 2.1846018 0.7149704 -0.76268655 1.1633644 -0.8334686 -3.0765717 0.42510164 1.1341393 -1.5469573 -0.35924482 0.55591357 -0.23764704 0.299956 -0.42964095 -0.12137298 0.6839554 -0.30646688 -0.58328557 2.201057 1.4662999 0.04622925 1.0114225 1.098414 2.0721414 -1.4808228 2.4290164 0.70365334 0.56498295 -0.7797677 -1.4369309 1.0077124 -0.7273404 -1.508041 1.2708167 -0.26290083 0.8874964 0.44998834
תצפית 5.0996246 -3.4716713 0.5931269 5.978048 3.0713727 -0.31541076 -5.428576 1.4010887 6.8304315 -2.4245448 -1.8165997 1.9969273 -1.5878246 -0.69952023 1.1733034 -1.5297567 -1.4969274 -0.5343274 2.4147208 -2.1906366 0.36092183 -2.6791599 -2.0110402 0.87006736 0.025565425 -1.1037984 -1.4488357 5.010741 -3.3557246 -2.058371 1.9016722 -1.5234956 -0.5402284 -0.8329267 1.7197874 -1.0835538 1.4016237 1.8461304 -0.62424123 0.82833886 1.2944618 1.3965423 -0.31620422 0.4355809 3.9428113 1.5408334 -0.78636473 -1.4938678 -0.21552467 0.49601004 -0.87173676 -0.38040975 -0.15524895 -0.861494 -2.576263 1.6246669 -0.35014215 -0.09314158 1.7639982 1.0278765 -0.24059059 0.013468075 -1.7855586 -0.09367409 0.061008394 1.9956962 -1.0111556 -0.8009224 0.40702075 -1.9208918 1.5697911 -1.1196048 1.5448915 0.8899793 0.30186492 -1.5453483 -0.7066049 -0.11795785 0.5051455
לבטוח -4.4619255 2.193598 -2.5828063 -0.57817435 0.80743444 5.860964 -1.3583199 1.8065614 1.5425683 2.784445 -1.5105981 1.8297298 -2.1555767 -2.7593257 2.8208263 1.3035253 -1.6516597 2.2194798 0.47946933 -1.6609684 -0.064263225 2.226037 0.7270078 0.37074858 0.8177879 2.3501325 0.067539774 -2.6314664 2.9892247 -1.0020727 -0.62271893 -0.8584906 2.7210045 0.66100085 0.904873 -2.0986974 2.4543827 0.414508 -1.3343781 -1.081605 0.5137113 -1.8869568 0.9753026 -2.5589375 3.2945688 1.057566 1.3271718 -0.17874785 -0.4019441 0.80199033 -0.7284575 0.36087066 -2.6220727 0.6845196 0.07628833 0.7789943 -1.2005042 -1.30737 -3.2925532 -1.0706191 0.16446418 2.4541435 -1.3936852 0.87092745 0.8667067 -0.11621257 -0.49052668 1.2955185 0.7470927 1.0394447 -0.15236063 1.5790799 2.2296224 1.6050185 1.3159264 2.030459 -0.062338445 -1.7305641 0.48734245
תמריצים 3.7393517 -4.7043433 1.8141085 1.7491491 -8.038558 3.783282 4.3141565 -2.8333063 0.91891307 -2.3416457 -2.4582767 -3.4754293 1.4893814 -0.31749064 2.3558578 -3.114317 -0.61566013 0.7604045 1.5631744 1.5756989 -0.43367872 -1.59958 0.46309403 -3.932396 -0.2428329 -2.1114771 -0.55676806 0.80967855 -0.7817523 0.8215574 0.6476142 0.7712839 -0.111867964 -0.65581906 -0.58903104 -0.48467788 1.6476383 -1.0909966 -0.47635725 -1.2711121 2.5261955 -0.23902696 -1.5614338 -0.62885463 -2.106631 -1.1323805 -1.9385587 2.6329455 -0.9365135 1.0785601 0.532181 -1.5294274 0.61609024 -0.06179998 0.22028236 -0.7215873 -2.8618486 -0.019588651 -1.2383343 0.45024487 -1.0597436 0.42437354 -0.55182445 -0.7202848 1.4623457 -0.27558607 -0.71533835 -1.0374424 -1.1666284 0.3353952 1.2028607 -0.24454643 -0.51795757 -0.05012754 0.14645484 0.54844725 -0.3250679 1.6961966 -0.50561315
לחקור -5.6380086 -1.8841817 6.1150265 0.9646466 4.4756722 -1.6793092 -0.97920394 4.766445 -0.64065 -2.0646157 2.8860042 -4.2438083 -0.20739563 -0.030189328 2.1830337 -2.6480725 0.7715139 -0.54513806 -2.2379515 0.87954575 -1.0620435 2.1797545 -2.27942 -1.1076881 0.53350294 0.3333669 1.2773192 1.0913786 -0.53807175 1.8239937 0.019780992 -2.34875 -1.8616356 -0.612495 -0.0057865623 1.6382751 0.048422314 0.76578957 0.7069289 1.8257422 -1.2365588 1.1276785 1.7432417 0.5433353 1.8334378 -2.377358 -0.5769963 2.1402955 -1.0383071 0.35446274 -0.7928917 -0.52738464 -0.12151394 0.34236437 -0.26573294 0.33153784 -1.9402088 0.4089422 -0.5920806 -0.6002199 0.26168972 -2.4119961 0.06837607 0.5550811 -0.09255406 -0.6598837 1.4913888 0.9837457 0.5478181 0.67924637 -0.19419213 -0.076440014 -0.77089024 0.35202467 0.0997667 2.2125194 -0.23195991 -0.8854143 0.17573936
