אזכרות 6.494569 -2.572788 0.21488094 -6.592293 1.3031983 -2.6131396 -1.5400019 -5.200178 4.206157 -3.959598 -0.93342066 1.3706728 4.031635 -3.5437427 0.9128929 0.382283 0.8272361 -0.0008353362 -2.3003352 -0.67637587 -1.503401 0.5555663 -0.7892792 1.492364 -4.2561216 -0.033549454 0.8347841 1.3467875 -2.5003536 -0.9621233 -1.212542 0.35124695 2.3538437 -0.096076995 1.0377911 -1.6172969 1.9090365 0.7211147 -0.31356892 0.6924467 0.0622799 1.0598443 -0.046262346 -1.6811543 -0.38837138 -1.1631484 -0.7903827 -0.76781845 -1.0441576 -2.9574277 0.20727937 1.1524692 -1.6653402 0.36174768 0.5075525 -1.4138576 0.20737796 -1.1265775 1.1749057 0.5358141 0.31227812 -0.051297702 -0.41976777 -1.2630777 0.90010583 2.0519624 -0.47177964 0.9546371 0.3013085 0.39649564 -1.7186934 1.3756108 -0.4980025 0.44367957 -1.514209 0.86472636 -0.18100864 1.9203856
לפקד -2.3539515 -5.707798 -2.770785 2.6219563 3.9595828 -0.6987677 0.1726165 0.6965269 0.44788554 -1.3166981 5.9210815 4.852848 -0.3820348 -1.587904 -3.4212904 1.6288186 -4.3376975 1.7234532 -1.3253293 0.46281445 -1.1888359 -1.5174007 -3.154819 -0.18375133 0.8071203 -1.3522987 0.7583684 0.50993764 2.0904071 1.9730731 -1.6498262 -0.6820526 0.8309182 -2.9901276 -1.5257151 -0.14807492 -0.25638562 1.6547261 -0.819474 0.7764586 -0.39140165 -2.2601292 0.98738307 -1.5806128 0.71183735 -0.7812781 1.123129 0.012301632 0.61336476 -0.3773425 4.945579 -1.0311812 0.5504713 4.0271406 -0.10361419 1.1179932 0.47728512 -1.7123406 -1.3943428 0.17836699 -1.4187483 -1.273519 0.94287485 -0.9690591 -1.9385298 1.1288831 -1.3575413 1.7454683 1.8881922 -0.67457 0.15658931 -0.5271039 -0.5209799 -0.7411928 0.552332 -0.5198393 0.85072374 1.9523071
לסקור -4.2650275 -3.9944117 6.5362067 1.3512052 3.3124187 -2.5986073 -3.3552866 -0.49303696 0.9002507 -1.06868 2.7039988 -3.1052358 -2.0219862 -0.22347991 -0.6330658 -2.157475 0.88028556 0.09408083 0.42728224 2.1574843 -2.1484559 2.040657 0.5834857 -1.3271236 3.9158385 -0.4971622 -1.2768776 1.4477044 -0.4018046 -1.5969197 3.5109649 -0.801672 -0.10557396 -1.6964158 0.28651306 -0.2634467 -0.22608998 -1.0131927 0.821312 -0.27252623 0.15662909 0.64984477 -0.04279137 2.2396033 0.7396093 0.014879782 0.3134301 1.6426104 0.36046487 -2.044734 -1.2640404 1.7379069 1.1120576 -2.5647414 2.5615976 0.27261636 -0.41598395 -0.4796217 -0.6671745 -1.5573181 1.2279873 0.9658524 0.22264144 0.66820556 0.36898756 -1.1709627 -1.4206085 -0.91525424 2.719369 1.8506979 0.8550051 -0.30803072 -0.54066265 -0.68182117 1.4075072 -0.29029262 1.5561134 0.61499864
לגמול -1.5828974 0.6199557 -1.6648765 -2.611695 -5.033421 3.0033987 3.4524145 0.8750676 1.9116094 -0.8853735 1.3668365 -0.22742061 -1.7900517 -1.7534784 2.6564476 0.9236805 0.88655454 4.7412333 -0.5869964 -0.26432347 1.2211618 -3.0087044 0.7564307 -3.1745722 2.5403147 -1.952305 1.0434743 3.5564513 -2.703588 0.90294844 -3.3531485 -2.9662437 0.47511292 0.14032121 0.7000375 -3.0533712 1.3838562 -0.16989182 -1.1639245 0.19296972 0.9794197 0.7973387 -2.7851791 0.6689507 0.6198388 -1.6265087 0.055802304 -1.2859496 -1.9498227 -3.5425043 1.5331168 0.31758797 -1.7196264 -2.205036 -1.6650633 -0.62311107 -0.8633598 1.6902325 0.24662699 -4.1161427 -0.7889202 0.54555154 1.9677497 -1.2183368 0.6235866 -0.7485452 -1.8177054 0.873126 1.0204982 1.5726476 0.9180025 -0.30246633 -0.42691484 0.08946903 -1.2758356 0.3043266 -0.17126918 0.3367172
לתארך -1.270113 1.6184063 5.750828 -2.0872936 1.2328415 -3.5223339 -4.872426 -0.8959359 -2.7872405 -0.73013103 -1.5630863 1.9308239 -1.9589989 -1.0920599 2.2993257 -1.1279212 -3.268347 0.37800413 -0.7953999 1.6854628 0.088788755 -2.6534464 1.5341927 -2.9836047 0.7956565 -1.0667871 -3.5378351 -0.65470344 0.1037225 3.3158746 2.3468127 -1.8905265 -0.6158821 1.4236293 0.14701591 3.9856727 -0.04458413 -1.48131 -1.3944482 -1.4516627 -1.7838371 -3.6958797 0.56262 -0.4170289 0.24777381 -0.99339515 -0.13254918 -1.4841471 -0.44181818 1.4276831 0.20917109 -1.0696931 -1.3742503 -3.7286947 0.64240474 -2.030832 0.23232685 -0.91966236 -0.32738268 -0.09921665 0.9298825 0.4593782 -1.8904672 -1.2379087 -1.6045166 4.0966935 2.785918 -0.66081744 -0.6835839 -0.15567285 -0.62255144 1.001299 -0.30159628 0.9955476 -0.31912446 -0.45150337 -1.0081674 -0.7739987
להצליח -3.7086003 2.494364 -1.4966992 1.5331599 1.5777241 6.042037 5.970529 -0.8003969 0.50915116 -0.14945026 1.7511778 0.6422379 -1.9033457 1.9179981 -0.36878857 -3.3299465 2.0676289 -0.3671825 -0.26585183 0.74702746 0.084867254 1.9525597 -0.7985002 1.4892174 -0.8737525 1.5132202 0.004105615 0.3346893 -1.673501 -1.7566307 1.9378049 -0.31756532 0.33833066 1.4699081 0.72293687 2.1213331 1.6905104 -0.12827595 -1.410455 -0.15241203 0.7667221 -1.3307568 1.6752168 2.608744 -0.57449514 2.357081 -0.27050757 -3.2783852 -0.24437092 -0.5513757 1.3564345 1.4006331 2.2578046 -0.936709 -2.3146315 1.7890131 -1.77821 -0.9815457 -0.22386147 -1.9015653 -0.47503436 1.8800168 0.96513504 -2.3196738 -1.5114361 -0.6256519 0.11938092 -0.33796367 -0.5030737 1.3141055 -2.555985 0.104754895 -0.62437236 -0.6306194 1.3072631 -0.3852642 -1.5099523 0.49105737
להשכין -4.308166 -1.6060206 -2.5153887 -2.183516 -2.7149162 -2.1988618 3.2908645 4.1072307 -0.82858443 -2.4611065 -1.67305 4.3736267 1.8183877 -1.0767567 0.4486746 0.6861912 1.6469909 1.8258518 -1.9634404 -0.902165 0.4976213 3.1464028 1.1385227 2.8366644 -1.6543697 -1.4824842 -1.057125 -1.1847686 -0.7402926 0.6012896 1.6481608 -1.7650119 0.3481439 4.125656 -0.56222403 0.51308894 -3.2283568 -1.6559983 -3.46474 1.4220173 3.1540427 0.13193952 0.78939426 0.8065204 3.5248294 0.100164264 -1.715154 -0.29549965 0.4395423 0.622125 1.3273131 -1.4268101 2.063552 -1.228129 -0.7818734 -1.6334839 -0.45248446 -0.4903334 0.6659296 0.7638189 1.3280659 0.73527515 0.6752061 0.29494312 0.6295419 1.7304476 1.6776553 -0.07677126 2.4866922 -0.17103176 0.54425853 1.1593952 0.04394864 -2.592122 -1.0871595 1.3559873 -1.3697855 3.2445276
להיחקר -0.9008287 -0.076478735 2.7330406 -1.6263891 1.7151908 3.8783386 -2.2473662 4.4967985 -3.8129408 0.69363934 4.647859 -3.005399 1.0866041 -0.5984051 2.3533883 -0.10640928 -1.444736 -2.8868513 -0.8184894 0.03557654 -0.80974805 2.565503 -2.1786377 -0.34239843 -0.92866415 -0.431038 1.4753065 2.8337047 -0.78967625 3.0523314 -0.109026834 1.4533068 -1.0501883 1.0695477 1.0232844 1.3991148 -0.009113872 -1.2040826 0.48541844 0.1006072 -0.15069562 1.8241732 2.5453153 0.62884325 -2.0663166 -3.914368 -1.4869475 -1.9228549 -2.089059 -0.5455083 0.7569137 4.5051675 -0.7958179 0.98238665 0.84437275 -0.2751824 0.8525652 -1.1072264 0.77545017 0.39737773 -1.2384669 1.7778146 -1.4561882 -0.0027052858 0.5991764 -0.33518076 -0.77816 -0.9262989 -0.44285864 -0.22833413 1.3076617 0.20148434 -1.7058499 -0.6874953 1.1343565 -0.11706948 -1.5939316 -0.4960198
לזרוח 2.10927 6.59938 -4.9208503 0.67647105 5.025156 -2.8171265 3.2183948 2.6672268 -1.3749603 -1.3231324 -1.394606 2.4567513 -1.4313442 -1.105155 0.2979912 -2.6084566 -1.8497708 -0.42819512 2.7732468 -0.5071719 -2.3842752 -1.7123755 -3.9244351 -2.8325238 2.2528563 -0.005643542 2.1146321 0.8050258 -1.079146 -3.8374655 -2.870044 0.06855886 -4.406256 1.289241 0.12083587 -2.2124636 1.8392138 -2.0186057 -0.03636879 1.2267654 1.637775 1.9605774 -0.36849546 1.7015915 0.91321546 0.3356783 0.89771307 -0.74470407 0.47207245 2.6815276 0.5897115 0.32677206 -1.9887605 -2.4858208 0.6367163 -0.72549814 0.3260175 0.21464801 -2.6419494 0.9099121 1.0891829 -0.5447165 -0.66714144 0.10030185 0.16708398 0.12692949 0.6776102 0.7735245 -0.62132084 -2.9801533 -1.6407232 0.382589 0.3461004 -1.3518869 -0.713211 1.0615727 -1.2360072 -0.016314656
תקשורת 6.7339296 -4.7220826 1.4950101 3.9806108 1.7784549 4.2780676 -1.1502739 2.7069411 0.23934802 -0.050488733 -5.625791 -0.18941714 1.2088237 -0.29713345 -0.21479055 2.5514967 2.180775 -4.0353036 -2.4026566 -3.6299324 3.6380394 0.23604193 -1.8933105 -0.25467128 0.3638882 -1.2525477 2.3870356 -2.5856864 -2.183558 1.043396 1.67677 -1.2792196 -0.8539158 3.1487663 0.45282775 -1.9996903 -1.3758053 -3.578511 0.895817 -0.091638975 -0.7903464 0.3955961 -0.24740078 -1.6734713 -1.0097004 2.5558226 -0.4485803 1.9146335 -0.27487436 0.6211356 0.6925011 -0.58899635 -1.4304197 -0.7732541 -2.5236514 1.1989224 -0.49617156 -2.0620918 -1.8197036 -0.3970862 -1.1759704 1.2085562 -0.04242766 1.682425 -1.1638924 0.9526272 -0.7183909 -2.3000715 0.7313474 0.06993124 -0.23067145 0.5003441 -1.226036 0.39714855 -0.3249445 -0.12892418 -0.012722492 0.12665443
להתאזרח -1.9287543 -3.0702722 -2.1031048 -5.145458 -3.3131218 3.419731 -0.30782962 2.8430655 -1.8606563 -0.94733775 3.2781584 0.51713204 0.5548339 0.93381566 -3.8597307 -1.226604 -0.6591209 -2.8616831 4.0205283 -2.1983006 1.6442794 -1.571461 2.2560337 -2.105161 -1.3333684 -0.5656125 2.0576913 -1.6825597 -2.455313 2.0336554 1.0117856 -0.016801381 0.95764506 -0.2469163 -0.25624132 1.2028557 1.2967317 0.24941926 -2.0942683 1.5534554 -1.5608344 0.4026475 -0.35129723 0.32195565 0.44502732 0.8999699 2.0086963 1.6651558 -0.23121811 0.19489309 0.8015447 1.2382034 0.5939745 -1.4762658 2.4452112 -0.13767174 -1.5518745 1.1308568 0.7323673 -0.73660994 1.8234698 1.8033322 0.9587934 -0.7185103 0.25067928 2.196118 0.76441455 -0.27804807 -1.2526165 -1.1228156 -1.6980144 -0.4030391 -0.36643612 0.6431834 0.85633487 -0.031066485 0.6512077 -0.018273545
לחשב -1.0479109 2.8399088 7.134284 2.6537454 -0.68386644 -1.327789 -2.7687922 -2.5974426 0.7098864 1.9207493 0.38475505 2.6241865 -0.6229174 1.0911319 -0.6759663 -4.1809707 -0.7898126 1.3796577 0.9046951 1.7383062 -0.2520389 -1.7525829 0.89648145 -2.9889615 -3.321639 -0.69384295 1.1272454 -1.3093877 1.5198549 -2.5379322 -1.1538845 -3.6024923 0.14293347 1.956028 0.7378855 2.2786715 1.1326609 -1.4465263 -3.3328507 2.4107242 -1.8726878 -1.4463948 -2.0378222 -1.1068046 -0.40427318 1.2311078 -0.75995666 0.9732762 2.9689138 -0.19116475 -2.0681906 0.7321229 -1.2398543 0.09317078 -1.215462 1.9533193 0.91808087 -1.6118135 1.1134897 -1.0512738 0.39574394 1.3970014 0.23390573 0.856684 0.89436996 -0.38859767 -0.31876487 -0.12581708 0.94755244 -0.79083914 -0.15215196 -1.3183254 -1.0274813 -0.9881825 -0.12913486 0.19490682 -0.20276989 1.1190431
לרגל 4.267915 -3.5360703 -0.2938656 -5.4183135 2.9528203 -3.544481 0.26401153 -2.1447542 0.7288203 -3.6733239 -1.5508538 1.4164144 -1.1033674 -2.7397 6.093186 2.5221205 3.0526376 -2.0849543 3.1951008 0.58360255 -2.4025795 1.2902479 2.728841 -0.6614655 0.15732613 -3.0173597 -0.36812258 -1.2155944 5.2955275 -2.219162 1.2771183 -1.2679963 -1.9662433 -1.5197499 -2.7067497 -1.5047898 -1.4406933 1.6617137 -1.6495936 -1.3008884 -2.1568654 4.421356 2.5087903 -2.0795255 -0.58839077 2.0026076 0.6927051 2.325787 -0.48300466 -1.050595 1.744356 -0.8189161 0.83080405 -1.2019252 0.7483543 0.9210771 -0.8801518 -2.360792 -0.47064176 -3.0108914 1.316535 -0.107478686 -1.0719151 -1.6630628 -2.555889 -0.5542214 -0.7800834 -1.0690719 -2.122173 0.5150739 0.028080072 0.89646155 -0.6181563 -0.5486497 0.61833936 -0.06793748 -0.097868524 -0.6578771
לתגמל -4.993411 -2.563395 1.9448557 -1.6362015 -5.0127463 1.337105 1.2979531 -3.6322694 1.5882398 1.2015122 -3.266034 -0.8969319 0.56823736 -0.0035718165 0.5116196 0.4340662 -0.24275908 0.36434117 0.075778745 0.95976764 -0.6360159 -0.3289635 -0.3644428 -1.9714012 2.7641675 0.93728733 -0.31234503 1.0963645 1.7408112 0.3427825 -0.42248768 -2.7148292 -0.52896464 -1.6220678 1.1931925 0.5393614 0.15609112 -0.042625707 0.51831704 -2.3732495 -1.2883568 0.057484366 -1.51943 2.4358487 -1.0848448 0.15483253 1.7823634 -2.2506907 -0.96139747 0.2561628 1.523308 1.0192248 -0.8986925 -0.36321244 -0.16281182 -0.43174857 -2.4727418 -0.19058307 -1.0034295 0.7004583 -2.2105052 0.35381678 -0.8014004 1.5301849 -0.7935928 -1.6265962 2.1300614 -0.53529245 0.5423219 -2.5297544 1.9961189 2.4918964 -1.3115791 -1.6305263 -0.08660005 -0.8613184 1.2563696 -0.8001293
להיפקד 0.77437997 3.8894439 -5.320512 -6.996746 -4.954286 -0.8162375 -0.37588957 0.734348 4.0917745 -3.3051383 2.6144135 -0.5328264 -0.6842311 -0.7038046 -1.3980991 0.6460875 0.40988138 2.3593738 -2.0390296 -1.9203056 1.7678485 1.1644478 0.9074192 -0.81562495 1.2952249 -4.0767713 1.5167855 -0.74902576 0.14218077 -0.6489136 -0.62491524 -0.6811328 -0.5352754 0.7299853 -0.2752023 -0.44789815 -0.101554506 0.24028829 -0.5164515 -1.1871576 -1.4631034 -1.1326056 0.9659186 -0.24464932 -0.90269244 -0.9893763 -0.86076945 -0.43157652 0.33927682 0.0785715 0.21193497 -0.9952612 0.7994099 0.82857406 -1.3336476 0.119809926 -0.75114846 0.24257387 -1.2770631 -0.59092253 0.22803642 0.8589951 2.1419961 0.21753031 0.23863351 -0.57268465 0.6069804 -0.84077334 -0.043425024 -0.17277494 -1.4577034 0.44552982 0.5547533 0.3565761 -0.2572281 -1.9110992 0.74112153 -1.285171
להאריך -3.4482903 -0.35972956 1.1212432 -0.87531245 -0.5778255 -2.6519396 -0.2837649 -5.4036946 -5.445547 0.16966318 3.2751238 -1.6814326 -0.31033263 1.1311879 2.1678946 -1.1275599 -0.38442206 1.1609975 1.3992469 -5.1983585 1.8416494 -1.1132197 0.69235957 0.17556399 1.8632811 -0.48595586 -1.3952405 -3.1206841 -3.933521 -0.0372695 1.1599799 -1.0912415 -0.8892423 -2.9828122 -0.26280332 0.28635776 1.4246936 -0.72531337 0.9663597 -1.0195231 -1.0824274 -2.960861 -1.2952907 -1.8358028 1.3289194 -1.4504036 0.5694395 1.5923357 0.43599412 -0.15320952 0.09963198 0.80056584 1.4330479 -1.4030771 -1.6411846 3.6221278 1.589204 0.35477206 0.5742614 2.7252522 -1.949124 2.1196895 0.031098746 0.47437775 -0.1258659 0.9059801 -0.23909682 0.694303 -0.8324919 0.3837063 -0.15545392 -0.042548556 0.11273236 -0.9848553 0.07134979 -0.20149295 0.34853426 1.4367217
להמריץ -5.3664336 -1.413701 1.6838464 3.2349875 -4.7951436 -1.4978658 5.4190536 -0.7871166 -0.8571693 -0.95881057 -2.1493897 -2.1641412 -1.9811547 -0.5008573 0.5047644 -2.0345607 1.3581396 -1.1340144 1.2146118 2.6532264 0.4151232 3.2192967 -0.8802019 -1.9027631 0.65543723 0.43686208 0.20681787 -0.1776933 1.476013 -1.114528 1.2041758 1.8764644 -1.1540195 -1.276654 0.77142817 0.34471583 1.6091428 -0.018693674 1.8119859 -2.2878516 2.5540116 -1.0189936 -0.84328 -0.03864199 2.165738 1.068642 -0.15711224 2.7149594 -0.500877 -0.4773683 1.1451142 -1.0452332 2.076119 1.3457499 -0.49008936 -1.6734514 0.7568817 0.25462985 -0.46404594 0.8961846 -0.58209497 1.4506449 -0.76603264 -1.4796479 -1.0881234 2.9114974 -1.099086 -0.6709993 -2.1134913 0.17788416 -0.4807884 -0.5270333 -0.67274064 -0.7528645 -1.5231401 -0.30483696 -0.15011415 0.1849084
לקשור -4.726711 1.6114742 1.9257425 -0.52766335 -1.2180706 -3.812908 -1.9729941 4.122716 -3.2925785 -3.0340953 -2.8366938 0.20346183 5.1246915 1.8462338 4.8472877 2.861845 0.88127136 1.4913874 -1.6513624 -1.8596879 -2.0036254 -1.590146 0.5557394 -1.818892 -0.7612205 -0.1715239 -1.3191714 2.1810436 1.0776751 1.5216758 -0.090863146 1.4847972 0.84782845 2.238193 -1.1415821 2.4318786 0.7993272 -0.8653816 -0.4099832 -1.358801 -1.1612474 -0.29250318 1.8180602 2.537306 1.587753 -0.15627266 -0.44904122 -0.20995145 1.2703451 -1.007113 1.2338574 2.1459558 0.034487337 2.317729 0.08762428 2.024615 -0.23742718 -0.6678125 -0.17789137 0.46159053 1.6576399 -0.34648192 0.5800356 0.6805957 1.2403088 0.07441633 -2.05038 -0.6821913 -0.015483242 -0.25501612 -1.4831532 0.847969 0.29666167 1.294081 -0.76997554 0.37254217 0.29878905 -0.93090516
תפקידים 5.6857305 -3.9488425 -0.13691275 0.8360162 0.8731819 5.243825 2.709285 -1.6158688 0.07074209 -2.661276 0.2541742 1.4444174 2.8264513 1.3552012 -1.2558438 -1.8322843 -0.47958496 6.4785557 -1.1599756 -1.7048633 -3.5220213 5.3641715 -1.8672658 0.31562942 2.877817 -0.4482617 1.5748675 -1.9510219 1.7521191 2.9529276 3.1728628 3.3135612 4.4074297 -1.824378 2.0166771 0.7706834 3.0239198 -2.8501108 0.5944107 2.758174 -2.176256 -0.8285919 -0.85970634 -0.5583528 -0.59358203 1.0007881 0.3824906 -0.3732484 2.3187265 2.363285 2.4596837 0.26959854 1.0857368 -1.3515306 -0.04040093 0.22903873 -0.50191265 3.294655 0.11782205 -0.40611055 1.9073709 -1.415583 1.0748757 0.14944679 -0.9140321 0.9932786 -0.8158063 -0.5440994 -0.3135246 -1.1029285 1.8155284 -0.6072842 0.22227676 -0.30985433 -0.17141378 0.34115437 0.7480729 -0.7786766
למגדר 5.852443 0.9588479 0.9936658 -2.8808694 -2.337903 3.7965915 -0.16881661 6.329031 -1.7975614 -2.3794878 0.050026122 -4.7068787 -2.099491 2.3955224 -4.6765027 2.8456995 1.8765663 2.8451989 2.2775345 -1.9134939 -4.9185843 -1.6395086 -2.8532271 0.19480611 -0.95100176 1.1777722 -3.2948925 -1.5178355 0.22981438 -3.0997248 -0.08276622 -2.3147058 -0.67709744 -0.17924832 -1.0010444 -2.5910106 -1.973563 1.792539 0.9406906 0.48473907 -1.7770133 -1.6044743 -0.4390381 1.1830747 -0.49734786 -2.216487 1.3276709 0.9118139 -1.3089361 -1.1708452 2.0956683 -0.35805562 -1.0334054 0.014117315 -0.6705569 -0.4318519 0.9240133 1.6837575 0.018191876 -0.777738 0.79007125 -0.2083858 -2.4266157 -2.158206 -0.41696987 -0.63730997 1.3668584 -0.6444905 1.4181476 -0.80604595 -0.07681814 1.2105316 -0.3072291 0.38229427 0.70621294 -1.721337 -1.8796492 1.9747036
להסמיך -2.4050379 -3.0237172 2.08457 -5.403819 -3.8200767 -0.5000429 -0.050879557 -1.4905117 0.86201584 0.93628275 2.279633 -2.0997636 3.5909402 3.6128914 -1.9967352 0.6944539 -1.147951 -0.8119951 1.7378508 -2.9548957 -1.3566687 0.3396073 -3.805083 3.7113445 0.23277481 -2.6139495 2.6375432 0.3496971 0.21131763 0.9525295 1.3786314 -0.025065443 0.6478257 -0.47091687 0.9417219 -1.084523 3.909287 2.0988114 1.2040119 -0.19394343 0.17827028 1.1076102 -0.5715971 -1.3235857 0.81993115 -0.9283573 -2.105935 -0.81365234 -0.94399214 -0.5403715 -1.0104767 0.18876128 1.6187764 -1.5622056 -0.43780303 -1.8385903 1.3863097 -1.2757046 -2.7494178 1.5397407 2.8070302 -0.13876793 1.5312531 0.92802083 -0.17961666 -1.1370759 2.7132375 0.22872047 -0.9762728 0.72183174 -1.0194696 -0.12992376 -1.9671732 1.2412585 1.2719005 -1.1833123 -0.97638667 -0.23811974
לזכור -1.6058642 5.215006 4.7734084 -1.5991066 0.3661747 0.44552794 0.41109017 -0.7487794 2.8797598 0.121970624 -0.29331204 3.5121195 0.577572 -2.1830812 1.91063 -0.035443503 1.2309855 1.5580606 -1.27315 -0.1707105 0.15165576 -1.6859092 1.0690906 1.5827402 -0.78446275 3.0405946 1.4387819 -3.5727868 -2.6436207 -0.32518977 -2.3337607 2.7527666 -2.948518 -1.4483415 -1.2342882 0.8799803 -0.82124174 -0.774271 2.300487 2.8648682 -0.48156434 -0.3342963 -1.9920164 0.041717574 -0.6056086 2.7503147 -1.2531396 -1.5413504 -0.45060554 0.27544284 -0.39962193 1.7684486 1.1339802 2.0764315 0.786304 0.8960883 -1.9450046 1.5150003 2.9323306 0.8059943 1.4896748 1.1760007 -1.499367 0.559338 1.0250664 -0.032544047 -1.5441146 0.15415266 -1.3363241 1.8042427 0.89056766 4.6667085 -1.4333397 1.5695697 0.59066373 -0.9858985 -0.7449518 1.2611835
תגמולים 4.115124 -3.9069927 1.0240666 -0.065737806 -7.587343 6.012272 2.8710248 -2.6497447 1.7442027 -0.7385257 -0.35333845 0.99248403 -0.15138122 -0.60465163 1.6740433 -2.4652188 -3.3680847 1.265692 -1.1931812 0.09756305 -0.037268452 -1.8198721 0.6523143 -2.2949843 -0.26135564 0.3041234 0.9183411 2.811992 0.097840615 1.5779492 -1.6111772 -0.53349286 0.2709668 -3.3932428 -2.7062097 0.073588215 -2.3438156 -1.0227345 -0.58217466 1.7640703 -1.57535 -2.2762668 1.4875201 0.3205171 -1.7101437 -0.86166763 -3.3979928 -0.30122474 -0.22055162 0.7052325 -1.3657658 0.07255087 3.6841278 -1.6775479 0.08196163 1.5449791 -0.69033587 -1.9203057 -1.1399437 1.1363771 0.24834575 -0.6671866 -1.1766763 1.7048419 0.8509952 -1.1679378 1.2857137 0.0052943774 2.3466737 0.21967164 -1.4131523 0.17019656 2.4199593 0.47215992 -0.87613344 -0.35654926 -0.3643605 -1.9745271
להתרגל -3.4692712 3.212766 -3.3333688 0.07188309 1.4535446 3.2810645 4.2520947 -2.3463829 0.918383 -0.081937194 -1.8859273 -0.42618933 -0.7043419 -1.2241201 1.4311599 2.3922858 1.7329711 2.404383 4.147551 0.12326842 0.2400982 -3.8354378 5.414288 -0.61403596 0.06863148 -2.3842356 -0.6075294 -0.32887402 0.63828105 0.69545186 3.1805384 0.97939813 -2.1739614 0.77613294 0.3074693 1.8814776 -0.084776044 -3.4817514 2.1271136 1.4000797 1.2337055 0.2923547 0.38969672 0.7967847 -0.26318753 -4.058569 -0.077190965 2.4399235 1.7792325 -0.67892003 -0.34395996 -1.545772 -2.7152002 1.9597892 2.128795 -0.6937318 -0.952505 -1.5535637 2.0051632 1.9446352 0.5130847 -1.5712628 1.9195082 0.4542843 -1.2040739 -0.5180132 -1.1661988 2.1553066 1.6879138 -0.7819812 0.5462882 0.9016331 -0.08470379 -0.46662194 0.8346531 -0.68076175 -1.1315552 -0.072881036
לבטוח -4.461919 2.1935973 -2.5828106 -0.5781993 0.8073927 5.8609667 -1.358299 1.8065634 1.5426108 2.7844384 -1.5105854 1.8297427 -2.1555786 -2.7593038 2.8208177 1.3035604 -1.6516415 2.2195196 0.47943088 -1.6609713 -0.06426574 2.2260275 0.7270174 0.37074924 0.817793 2.3501496 0.06753008 -2.6314666 2.989203 -1.0020831 -0.62268007 -0.85855055 2.7209907 0.6609525 0.90484494 -2.0987318 2.4543772 0.41453347 -1.3342992 -1.081672 0.5137296 -1.8869339 0.9753319 -2.5589795 3.2945747 1.0574886 1.3271555 -0.1787649 -0.40195447 0.80199945 -0.72846055 0.36092305 -2.622083 0.6844767 0.0762721 0.7789612 -1.2004658 -1.3073418 -3.2925866 -1.070596 0.16443548 2.4541805 -1.3937012 0.8708806 0.86666435 -0.11621574 -0.49054512 1.2955047 0.74707514 1.0394939 -0.15234858 1.5790895 2.2295978 1.6050941 1.315825 2.0304544 -0.062418565 -1.7305753
להחשיב -2.7398596 5.8472357 3.5609527 -3.6138227 -0.55699813 -0.68230623 -5.3313503 -0.75575364 1.0318093 0.2028014 -1.9132708 3.5595946 -1.2485149 4.321919 -1.8432245 0.16566563 2.272687 -3.4622862 -1.3912884 -0.041067567 -3.378182 -1.6522795 1.8454413 0.7000353 0.7951399 -1.3495867 1.7296497 0.0014563513 2.2350812 0.98509824 1.6922624 0.53960556 1.371347 0.2527785 -0.4163584 -0.46155208 1.186425 0.8569902 -2.9206836 -0.52587914 0.09156981 -0.19662999 -1.6018853 2.0188587 -0.25590372 1.0455792 1.6274291 1.527848 -1.7469124 -0.086943746 0.58550644 -2.1673145 -0.88675463 -0.85875666 -0.60571605 0.37443468 -0.31596377 1.4150676 2.339092 0.9820266 -0.8070817 0.20376086 0.39176005 0.9998081 -0.76169825 0.66138697 1.0702627 0.2844311 1.1552081 0.8386597 1.5084295 -0.4266273 0.9127016 2.1836376 -1.1178037 0.47891545 -0.67251456 -0.71348274
לתחקר -3.2821977 -1.9142048 2.4816039 0.8111118 2.4556448 -0.0068385606 2.1966872 3.3605945 2.4918408 3.4214642 4.9763803 -4.3533382 0.7599049 -1.0981077 0.6403166 -0.21097855 0.3144653 2.518412 -1.6990669 0.3338321 0.5148753 0.21776761 -1.9050994 1.815355 -1.4664886 0.23930852 1.8124471 -0.6831731 1.1481334 1.189627 -1.5219617 -1.6192379 -2.1158085 0.5538677 -0.9167605 -1.3089849 -0.9031115 -2.261567 1.1318784 1.9966906 -0.12147059 -0.98444045 1.1645058 -1.5287453 -1.0237675 1.0645242 0.14515156 1.405154 1.8331413 -0.889531 -1.4447012 0.40733686 -0.680872 0.24312118 -0.27676532 -1.1956435 -0.06378865 0.19241618 0.68947715 -0.3470045 -0.21352385 0.37833935 -0.68517023 -0.6357019 -2.6475239 -0.56515443 0.7384097 -0.22082905 -0.3622389 -1.349881 -1.360019 0.40935755 0.05584335 -0.41627216 -2.0984313 -0.3628244 -1.1212726 0.9689393
להתרפק 0.26158518 6.587208 -1.9574513 -0.63682383 -3.419919 0.76650226 1.586604 3.2240608 3.1533313 -0.29293182 1.2554299 -0.7259859 -1.2249029 -1.0797975 -1.2594631 -0.26940554 -1.4753735 -2.021846 -2.147161 0.5376475 1.001661 0.26063368 -2.1265326 -1.4230928 0.7851819 -0.040262923 -2.927715 -0.16492768 -1.064573 0.36952406 1.0228404 -0.6571053 -1.1120272 0.2769711 0.44764787 -1.0893787 -0.9380081 0.57941103 -0.52601904 0.27559042 -0.67497766 -0.35774317 -1.2818395 -0.34753194 -0.3191065 1.4765593 2.828889 -0.5099485 -1.3683827 1.7899647 1.8364626 0.26090077 0.68066067 1.2292237 0.7062718 1.8644506 -0.47718078 -0.9333398 1.0678337 0.45016333 1.6141403 -0.5627762 0.47905546 0.18819283 1.9063214 -0.7233524 0.18990952 0.45208573 -0.99606746 1.8570182 2.7521422 0.422696 1.2244674 -2.2327783 -0.8510897 -1.6700004 -1.5027972 -0.3472946
למרפק 4.702736 5.5951586 -4.4002104 5.8145113 -1.8144747 -5.974755 -2.5267756 -2.2896674 -0.70071846 -1.1199161 2.8420827 0.19929257 -0.33983713 1.6101971 0.36548042 3.214558 -0.44379914 -0.5297399 -0.8753806 -1.3339105 -0.18095037 2.27602 -0.4619508 -0.7693057 0.44832295 -0.879311 0.24920878 -0.248132 0.8161016 1.94667 -0.8672211 0.99229115 0.89899385 -2.1424954 0.23473461 0.5485223 -3.621126 -0.23305103 -1.4629209 2.0263593 -0.17082034 1.1671436 -1.3968908 1.3077052 0.3136505 0.30723354 -0.43942437 -0.951048 0.9899424 -1.8741292 -0.6083111 -0.29913145 0.14018126 -0.4807621 1.651022 -0.50194347 0.18064179 -0.31348768 -1.1490968 -0.8314322 0.6059818 1.8064291 0.88229215 1.8621176 -1.8669503 -0.61215055 -0.09333888 -0.59135413 -0.8665629 0.6041718 -0.24229495 1.7307777 -0.68775827 0.34484646 -0.4624225 1.0635661 -0.29447278 0.28643307
מרפק 4.9978766 3.1640003 -1.978858 2.837182 0.7614705 -4.260751 2.0139806 -0.5485506 2.577762 -2.0328207 3.9630575 2.6071365 0.35814136 5.5031996 2.0835807 6.164158 0.011101222 0.59770125 3.6794312 0.58207387 1.7878653 1.790448 -0.33652654 -5.4733853 -0.65364707 1.8884162 0.73141336 -0.12119725 -0.07411375 0.56303376 -0.52092856 0.7237756 -2.485971 -4.447187 3.4964032 -2.6146019 -2.8347213 -3.2015362 -0.4261764 -2.2000127 -0.10340273 1.9437873 0.20873591 2.2915308 0.19446781 0.59027153 1.3038212 -0.23314591 -1.2950963 0.38878688 -0.47917256 1.3551979 0.48053658 -0.3444895 -2.0099192 0.8278357 0.5206846 0.5096609 0.4545762 1.3646572 0.97159773 0.40178698 2.0948784 1.1409035 -0.50011533 1.2751324 1.0541986 1.9995573 1.6168553 0.2407657 -0.7311428 -0.11858982 -1.0467036 0.011270098 0.62218326 1.0204282 1.1031766 0.21134937
להיסגר -0.3256283 -1.1924355 -6.2193484 0.73303664 2.815829 0.88584924 -3.3236277 -3.6047082 -6.0015426 1.896515 0.8919638 -3.4871645 0.14317892 2.8536525 2.973757 0.007459676 -0.11983 -3.6531453 -1.5070606 3.6143928 0.4058723 -1.4795803 -0.30356815 0.16538861 -0.4564311 1.1258491 1.5434073 -4.605408 -1.0316898 -0.5818435 -0.82522607 0.13205205 2.6727226 -0.2685518 3.9108803 1.276168 -2.2640054 1.5270174 -0.5716309 0.9484431 2.9544199 0.7251417 -0.31513909 0.552064 -1.7865046 0.32409212 -0.74745953 -0.020467209 -1.9250923 0.01753137 2.6028063 -0.03804625 -0.04764615 0.25757417 0.35244533 -0.9780584 -0.04173702 -1.2086096 0.4941292 0.8457146 1.2475401 1.7563899 -0.78501076 -1.6330577 2.7393157 0.62413764 -0.30295888 -0.7225141 2.0847466 -0.26460204 -0.15662293 -0.7075427 0.93290734 -0.9638834 0.54017085 -0.7809249 0.44956788 -0.76451576
ללכוד -6.2731776 -0.7831569 -0.37130004 4.0470157 2.07142 -4.3437057 1.2456231 3.1992552 0.38889903 2.084892 -0.17329784 0.6532206 2.805196 -0.10482634 0.9865221 -2.8424377 0.56784844 3.2619448 -1.3557439 0.6856893 -0.3100894 1.6396867 0.93129337 2.0053716 -0.66374 0.79779726 1.803344 -0.23267025 0.23265561 2.367767 1.9181001 -3.7771149 1.6564958 1.271892 -1.3900211 -3.3279235 -0.3303453 2.006429 -0.47402576 -2.2051451 -0.08755069 0.9856329 -0.073421955 1.3989575 -1.0179459 -0.5218446 -0.7192488 -0.9041436 -1.1734102 1.8209445 -0.8884506 -1.9935628 0.029035186 -0.12233599 3.3170247 1.7056712 0.2578623 0.38731077 -0.97105455 0.7432126 2.629423 -0.44743028 -0.4630333 -0.8224401 1.8769745 0.14821014 -0.7094454 -2.3511977 0.1773955 -0.25015306 0.33631793 0.5370233 0.17800757 -1.3461857 -0.07102619 -1.9125315 1.7071625 1.0169369
להיסקר 1.7464066 0.52150536 -0.2807248 -0.5540213 -1.4107769 -1.1125351 -1.2951411 1.493146 0.8389861 0.5795131 2.99585 -1.5318692 0.43301648 -4.779888 -2.5255604 -1.8391843 0.15858994 -3.347284 -1.2344539 1.4937698 1.4562907 -0.17869344 0.23923318 -1.0716428 1.0237164 1.0436374 -1.1011063 -0.20006904 1.9436201 -0.23422234 2.2437446 2.7401402 2.0609593 1.5369955 1.1827338 1.1367551 0.3882766 -0.6072506 -0.70822585 -1.5232283 -0.58076686 0.76440054 0.93944466 -2.4220223 0.14505427 0.27689466 0.82419205 -0.8597657 -1.6279943 -2.0345683 -0.09210729 0.12273314 -0.62725776 -0.94006485 -0.039605383 1.9771736 -0.9285101 1.8771964 1.4093608 -0.32080916 -0.52613103 1.0157721 -0.62164617 1.1979941 1.1550912 -0.72859085 0.51838034 0.47888517 1.5369983 -2.2390025 0.9196635 0.8621724 -0.18484429 -1.228256 1.3132185 -1.4196723 0.7001255 1.8184806
להקליט -1.0141773 0.633353 1.801963 -2.535379 8.78637 -0.04187449 5.330432 -1.0704936 -2.6551754 2.5687947 -1.8152064 -2.2829556 -1.165813 1.4977661 -1.4679527 -1.6759534 -3.0556848 -2.191603 -0.8333716 -1.2160288 0.19503556 0.38117376 -0.34626138 -0.71875274 -0.6233297 -0.8512422 -0.26070613 1.2603743 0.62078863 -0.19348769 -1.9872388 0.84308875 0.3772609 -0.12734917 -2.388731 -2.0159492 0.5658977 -2.8816059 0.4311836 -0.9648505 -0.9383278 1.2719663 -0.5167881 1.3671224 1.0906645 -1.8550198 -0.59943 0.25729898 -0.22453582 -1.8419852 -0.11668296 -2.783762 1.1107923 -0.23037818 0.98095644 0.84866756 -1.8112849 2.2537658 0.729122 0.64005494 -2.5702438 -1.118369 0.7732409 0.16581234 1.638594 1.7347275 0.22139563 -1.5996264 0.97930294 -1.3375798 -2.3072762 1.6371706 1.1744275 1.0832615 1.5561696 -1.1888044 1.4584618 0.7743838
מספר 5.8710947 -1.8798151 1.5823323 -0.69670504 1.3915026 1.0054847 0.2929036 -2.9335785 -3.5320497 -1.4955931 2.333022 0.8038462 3.6645293 -0.10694181 -3.223513 -3.8679132 8.241653 1.965558 -2.5012753 0.6428132 6.4307384 -1.711872 0.4125834 1.875524 0.77650017 2.9094338 -0.30799362 1.15041 1.9876201 -1.0818232 0.78907377 1.225578 -2.2939825 -3.494479 2.7359276 -1.7377832 -0.24475965 1.4982276 -3.525855 1.2572118 -1.7661022 -2.1572843 0.6334222 0.8171208 1.3992934 -2.412261 1.351685 -0.2211022 -0.3568832 0.49577522 0.6802748 -0.68630046 -1.3582886 0.14326076 0.143882 -1.9403623 -1.3440825 -1.6520872 0.54921025 0.51757306 0.22920334 -1.5055794 -0.5223079 1.3086259 -0.928392 0.53394127 -1.9715149 -0.19639267 -1.6393691 0.21337318 -0.0011697261 -0.6091212 1.0835754 -1.6427125 0.9151344 -1.3938235 -0.5290211 -1.9231778
לשכון -1.8429953 -1.1784399 -7.402166 -2.1522212 1.4146243 2.553984 -5.077329 -1.2133316 -3.6393821 -2.8011389 -3.0104535 -0.2458643 -3.1471083 -1.0258266 -0.092845224 -2.0417988 -2.140001 4.874655 -2.8671234 2.7385137 -1.5637724 3.653525 -0.45434797 -0.61927986 0.55727446 -0.19882041 2.3716996 0.7826132 -2.2488763 -1.4835198 0.3048315 -0.19439119 -1.4752696 0.46303466 -0.15696603 -1.2338156 -1.167191 0.8373947 -0.69495463 1.1304559 3.0752666 0.0636811 -0.46370012 -2.4158604 1.6036787 0.03992872 -0.56836134 1.2718129 1.7242106 -1.2833704 -2.2459607 0.6408086 -0.75929224 0.19995423 1.8303468 0.054230433 0.047862887 0.60119367 0.1425756 -0.25995082 -0.50210243 0.60153085 1.3992949 0.0016476581 1.6152716 -0.106640145 -0.9758943 1.9884931 -1.0394914 -0.2695283 0.19878848 1.8436377 -0.27260852 -0.4420571 0.90358347 -1.514409 -0.25216556 -1.2314515
תעתיקים 8.509526 2.59034 3.6799514 -1.3859982 -0.23052663 -0.6919141 1.2712611 1.1131318 -3.9180937 -1.5942456 -1.3824282 1.3618023 6.21305 -3.4542663 -2.0141716 0.054028083 -5.616774 3.063484 -1.725554 3.7235389 0.6744324 -0.13922569 1.214659 -1.250602 1.8857925 -0.2893568 1.8584932 -0.5168994 -1.3522642 -1.5522685 1.2076963 1.9513872 -0.042843748 2.5073843 -0.8906316 2.4191437 -1.4445778 2.4406812 -0.1066485 -0.9028824 1.2094144 -0.6155504 -0.29045635 -1.5012505 0.3007975 -1.0453197 1.0889516 0.20036781 0.7880124 -1.5733634 -1.2433296 0.86061424 -2.6767612 -0.55053824 -2.2751663 0.7964593 0.3846933 0.69920546 -0.4348048 -0.5601943 -1.40645 -1.6939002 0.1934605 -0.48236555 -1.3391908 0.26602638 1.4890853 -0.6614439 -1.2661934 2.0986717 -0.8017822 -0.33622563 0.2132014 0.5121056 0.22078758 -0.8736378 2.0510929 0.41505247
להסתפר -1.0032924 4.483573 -4.1134706 -6.1956644 0.5124539 -1.4764024 0.2679012 -3.101341 4.1021056 1.4411336 3.8720336 -1.3277423 2.0178964 3.053855 -0.1291412 2.7975996 -0.21998952 0.62200004 1.4994578 -1.765608 -0.7616104 0.122387715 0.4503827 1.9755828 -0.5299015 -0.8615179 1.393338 0.46823174 -1.2555557 -0.003287425 0.23746666 -0.9481357 -1.7341957 1.7323428 -0.13116968 2.0467377 -0.054462582 1.032355 -2.491273 -0.28202853 -2.9306698 0.60005516 1.1060398 1.4433619 -1.552951 -0.78162456 -0.06446291 0.75713116 0.40957165 0.52835363 0.8051421 -0.6629863 0.9619233 -0.033259574 0.38881373 0.9431052 -0.6273037 -0.41971102 -2.855002 1.1549221 -0.44877675 -0.67970085 -1.0223883 -0.30578122 2.2625263 0.45128393 0.1417893 -0.20408632 0.025339056 -0.6562032 0.85386914 1.1561229 1.658316 0.25752994 -0.8453027 -0.9420792 0.60268486 0.893313
אבטחה 5.648123 -7.3303084 0.8229389 5.7559752 0.70911455 2.539978 -1.63336 0.3116755 2.5787938 4.852686 -1.3461456 -1.040144 1.1397389 -1.1675091 0.7344219 2.6635735 1.140401 -2.1062627 -2.6570282 -3.2867544 -2.5681243 -0.011025037 1.3602538 2.1437585 -1.5290953 -0.9289289 2.7101033 0.84460104 -1.1478916 -1.7001204 2.5117114 -1.1093875 -2.5817807 -2.1866248 0.8451925 1.1308125 0.82700944 -2.5391603 0.5455436 0.013359691 2.4659357 0.7303281 2.623363 -0.24840963 -1.3337057 -1.4862101 1.2890013 -1.564156 1.8844863 -0.80185986 -1.0376487 -0.19649428 -1.20352 -1.3894968 2.6006215 1.2964604 -1.0587994 0.53371346 -1.4236208 -1.0157295 -0.84156924 -0.26817098 -0.674319 0.48343354 0.19128144 1.1698868 0.32847503 1.2563373 -1.3904498 0.94524264 -0.08105014 0.50752974 0.24114321 0.01779291 -1.8538541 -1.5908828 0.62227494 1.2008651
לארוך 3.7101502 2.4651403 -1.2021537 0.19404554 0.32795438 0.29567283 -2.6345568 -6.0185122 -6.423286 -0.21864957 3.133715 0.3007177 -3.386966 -4.830742 3.2269096 -0.16175644 2.107293 -0.8731347 1.3202089 -1.5646002 0.9245497 -1.2020972 0.62967324 1.8618549 2.7469368 -0.18572593 -0.5575355 -2.1020334 -0.17721291 2.6697218 -2.1414175 -2.8239946 2.8407886 0.54591846 -1.8086399 -1.4714259 0.07459833 -1.3955584 1.8526359 -2.8708162 1.7605443 -0.21624447 1.7604319 -0.74407417 0.11188013 0.49728525 0.51740235 -1.7493334 1.4964184 2.1901445 -0.18451859 1.3679823 2.8150563 0.301018 -0.64568055 1.4282085 -0.92522967 -0.6400469 0.9554107 -1.7414857 0.4069513 -2.0709562 0.67770135 0.24306661 0.32226798 -0.20698419 0.5209968 0.604908 0.16067702 -0.9717704 -0.1646572 -0.37929773 -1.1912313 0.3693178 0.36888885 0.22576658 -1.4862177 0.9631382
לפקוד -4.1607766 -2.6416218 -1.687686 -4.721575 4.6277575 -1.7617463 -3.2679915 -1.7083832 1.3086292 -2.080664 -2.5151248 -2.532316 1.4918903 1.2542838 0.9049757 0.4776155 2.001837 -1.2812675 -4.1045985 0.3984859 -1.9910016 0.093802504 -3.0894976 -1.3470752 -0.1577877 -1.4326631 -0.9643674 -0.024531173 0.49155995 2.5229254 0.174683 -0.97185373 -2.988706 -2.8608348 1.631577 0.60564446 -0.19100219 3.6338847 -1.150503 -0.93040985 2.3997574 -2.4886348 -1.7395582 -1.5974293 0.44889027 3.106387 -1.1013368 0.7619912 1.3667755 0.14097089 -2.1417184 0.86261356 1.4117503 1.5882087 0.5843409 0.6625149 1.418587 0.390012 1.173608 -1.016621 -0.53555954 -1.3609811 0.6522642 -1.052143 0.51518226 -1.2968831 2.437141 1.4616959 -0.112057984 -2.399282 -0.31071708 0.90107447 0.85516083 -1.4430546 -0.97457564 -0.7045098 1.389316 -0.84482956
משכון 5.3495493 -2.3654335 -2.2787385 -3.8442926 -7.697774 -0.77555245 -1.7197542 0.04411359 2.4979928 4.971385 2.510302 1.0859592 1.5416405 5.7160125 2.3391547 -1.6370069 -2.9096642 0.6811512 -2.7626946 0.41875532 0.14423382 2.3426576 -1.6409646 -0.87372684 -2.8421557 0.43686432 0.030683924 0.37211847 -0.6104582 -2.0511835 1.2759981 0.87090474 -2.0263922 1.581495 -1.1765862 2.0882757 -2.5921578 0.36464685 -1.4643207 -1.6253093 0.05525957 2.2942188 -1.6932304 1.5308812 -0.50219285 1.0362985 -2.5430667 0.9148348 1.4510906 1.3299581 -1.0332903 0.3974851 0.32561517 1.3188678 -1.0202476 -0.2828621 0.9449785 0.38202497 0.035296272 -1.0770984 -1.6316627 -1.650303 -0.57084554 -2.1844661 -0.44442156 -0.013647021 -2.2447453 0.041497145 1.2165996 -0.033848517 -0.050071903 -1.1915127 -0.31837624 -0.2539632 1.0352396 1.8926408 -0.07584931 -0.2988778
לאזכר -0.99217635 2.2557263 5.3945823 -7.1451616 -1.4991393 -3.0119276 0.610341 0.65596175 0.74462914 -1.1658098 -0.71666217 0.8735268 -0.94230074 -1.5216124 -0.5013661 2.041068 -0.5503542 -1.0678321 -1.87263 0.68801963 0.56984705 1.7644181 1.3129724 1.2307699 -0.810155 2.1286323 1.0630473 2.4763129 -1.1957142 1.1720003 2.971999 0.9854152 0.20826387 -2.644 3.1021793 -1.3531423 -1.5594192 0.48451972 3.1124682 -1.3011844 0.07443105 -1.3502644 -0.45459062 -0.75781316 -0.8670231 -1.3575389 1.2475271 -1.5795273 1.4227946 -1.534419 0.34964493 -0.553118 -0.65606683 0.44325757 -0.7884019 0.9250699 0.4470226 -0.5880304 -0.4833682 -1.225457 0.055417914 0.7957648 -0.5195325 -0.9929172 0.9558137 1.5266931 0.18348159 -1.0211612 1.9461286 -0.98578906 1.4523219 -0.6346047 -1.9979683 -0.04253521 -1.5965964 2.1842144 -0.6540783 -1.1850774
תרגילים 5.6710687 -0.6024795 3.4488215 4.2537932 1.9248607 1.8137809 4.741379 -5.052543 2.5580468 -4.1970043 2.0432432 1.2055768 1.59214 2.3010278 -0.365487 5.0146813 -1.7900416 3.4602919 -0.47032714 2.0667443 -1.1510155 0.011755503 1.2926084 1.6744475 0.49386087 3.1613905 -0.95810026 0.25806013 1.5819868 3.5950277 -0.77642244 3.180584 3.871971 1.3758442 -0.5180769 -0.6873925 0.24019895 0.9785233 -1.4322994 1.708 1.6159055 3.245289 -0.59613514 -0.6453618 2.3238835 -0.5043804 -0.29646686 2.1304936 -1.820316 0.5274878 -3.2604446 0.913932 -1.3405554 -0.84923255 1.2968518 -0.93621975 -2.8858166 -1.9353935 0.5987005 0.9048125 -1.6066549 1.4118863 -0.9962117 -1.0889945 0.6947276 -0.00897256 2.3433855 -0.18340677 -0.40668002 -1.6495636 0.1928877 -0.7377166 -0.92082936 -0.79259187 -0.84066164 -0.1439051 0.3406336 -0.12552287
להזכיר -3.5730577 3.6509447 3.6601992 -6.2760506 0.98420036 -2.636191 -1.3768208 -0.16290769 1.9005182 -1.2105271 -1.3723202 3.014821 0.74869204 -0.40588313 3.294754 -1.578712 1.9970365 -1.2377809 -1.669215 -2.1848254 -0.5336407 -0.6131302 -0.48994806 1.8264225 -0.07021286 -0.22116405 2.88725 0.3286821 -4.0741315 -0.5670107 0.22463155 2.4139934 -0.7161445 -3.1249297 -0.38890696 -0.66506314 -0.01779317 0.8702469 0.68815047 2.4290607 -1.1336178 -1.0244485 -1.7868956 -1.8586392 -2.3728077 0.02157375 0.89409196 3.2862685 -0.9118986 1.1820352 0.04670749 -0.13907866 0.8268481 -1.1965792 0.75297236 0.72789615 -0.083427444 1.5169007 -1.5639095 0.05038933 0.08861489 -1.3419253 -2.2071187 -0.62144023 -0.23481046 0.8237941 -1.6326178 1.1694955 0.6928866 -0.7945975 -1.1146643 -0.0702342 -0.6743437 -0.44679126 0.5260515 0.92766684 -0.76879245 -0.8424797
סקרנים 1.9942878 0.90726274 -3.1131394 1.2774003 2.6394086 0.6038844 0.14716554 1.1398787 6.9626403 -3.259326 -2.3862507 -5.4332514 1.3066968 -2.9008489 0.9260053 -1.4372896 3.451859 -1.9648696 1.9042025 1.2711006 -2.6976025 -1.2616717 1.8485516 4.292384 2.017686 0.2645303 0.38207114 -4.531319 1.2677745 2.0774937 -0.04341061 0.12773561 -3.3879232 0.6224406 1.0913743 1.9288121 -0.8391952 2.1622744 -0.048686646 0.66582274 0.16949114 -1.5428178 -0.7236795 2.6878135 -0.020706855 0.05473643 -0.29849213 -1.6523508 1.0572108 0.51848704 1.2773335 3.571176 -1.6944785 -1.8542346 -1.1625236 0.4779336 0.5344343 -0.5782921 -0.22490358 0.49088958 -2.4197273 -2.4700975 2.1247587 0.015673544 1.1838182 0.40327808 0.27708343 -0.10068917 0.13236167 0.32491866 -0.48143098 -1.5952619 -1.4832532 -0.11766901 0.4813409 0.9303431 1.4304693 0.7447612
להגביר -5.2994375 -1.6679709 3.075306 3.0730107 -3.6183157 -2.705393 4.28677 -1.0748149 -2.659713 -5.041226 -2.377503 -2.0754473 -1.3067465 0.85003763 1.9307579 1.1330036 0.7783845 -1.1513375 -0.6934755 -3.4816198 -0.2732039 2.595732 0.23983756 -0.9344094 0.14930575 0.4892319 1.7821628 -1.1917346 -1.1643369 -1.8686372 -2.9293435 0.29215845 -0.6993175 0.7331347 1.0545049 -1.5744548 2.1446507 2.434733 -0.75415295 -0.04582701 -0.10662384 1.1528001 -0.17975894 -1.9641179 -1.1587139 -1.6638973 0.6451416 -1.7629583 1.3471227 0.08291563 -0.2578915 0.34534326 -1.023706 -1.0723691 -0.47283852 -0.13305089 1.6023637 -0.4056187 1.6114357 1.209448 -0.8343547 -0.79223186 0.671779 2.0048985 -0.10785867 -0.2686556 -0.70187587 -1.8318151 0.7137928 -1.0641676 -0.46310356 -1.1955016 1.3294594 2.0037768 0.28321296 -0.65420854 -1.1317525 0.20174251
לחזק -6.5449986 -3.5380077 1.9637995 1.4406849 -4.298655 -3.423294 3.3848908 0.8615513 -2.6645439 -5.6409817 -2.3918717 1.6652571 -1.4207295 0.75572175 -0.23377308 2.7618923 0.84534746 -0.7582327 -0.49903467 -3.4954813 -0.19856104 2.9740021 -0.7930464 -0.41944593 1.5377693 0.5186252 -0.558211 -1.3854938 -0.66869164 0.24808909 -1.065452 0.5223867 -1.1181087 0.9237109 0.9811403 0.30618235 0.22690903 0.7267036 -2.197761 1.1361033 0.53383416 -0.22558193 1.8251272 -1.0089792 0.2836365 0.3123264 -0.9597792 -1.9791493 -0.51338065 0.84193367 0.71916366 0.68179035 -1.1918299 -0.35163522 1.6566775 1.1854365 -0.04092518 -0.66757977 0.4245243 -0.1548087 -1.7040372 -0.87285054 -0.19496742 0.8237171 0.46755332 0.3944564 -0.3081918 0.33181113 -1.2601081 0.35810322 0.4534009 -1.7896502 0.7765771 -0.14614032 0.13807434 -0.35809937 1.2494695 1.0910227
תגבורת -0.21686226 -6.6777577 -5.3027263 4.031666 1.4202782 -2.518181 0.36744732 2.7360115 0.6639323 -0.14473109 4.193578 3.5650988 5.210317 -2.5707407 -1.2471682 -0.90570486 -1.8435622 -1.080399 2.2535472 -0.6905471 -0.14477824 -0.487356 2.9219322 2.1890502 1.9990469 -2.8100615 0.34469724 2.5350606 1.067775 -1.6839737 -2.7937088 -0.84247583 -2.130507 0.2667238 -0.18014151 1.2911527 -0.8034424 -1.0676636 0.35027814 -2.559384 1.4410388 -3.870111 -1.5390567 -0.36683494 -3.523176 -0.054784756 -2.2604778 0.95991427 -2.5113764 1.1424574 -1.854903 0.87493664 -0.63448167 -0.20481712 -0.8317039 -0.65736985 -1.6259761 1.5781271 -0.67495686 -0.72922385 1.2882818 1.2307141 -1.2693201 0.7569719 0.12502877 0.9383919 -0.53141093 1.939969 0.5544687 0.104131244 0.8120861 -0.78815067 -1.1157323 0.5756888 1.0674633 0.3522397 1.2089149 -0.7560158
לבטח -1.4222733 -1.0497689 -1.4979951 -2.5986786 -3.1666574 2.5666776 -0.7251323 -1.4627713 2.770753 4.305372 -0.6846808 2.4630797 -2.0034373 -0.17816643 0.5427146 -4.0975547 -0.82955277 -1.0878807 -3.615448 -0.8682754 -1.8895423 -1.4014851 0.8249088 -1.6701244 3.378293 -0.50774914 1.4391028 -3.0535436 1.1084044 1.706036 -1.7084163 0.92137206 0.06191388 1.3281845 5.184811 -1.7055902 -3.7246215 -0.92421407 0.034595385 -1.9762214 -0.3107924 -0.46745032 2.566844 3.023095 3.7530298 1.9238809 1.1581348 1.6338067 -0.49922508 -3.3962443 -1.5402445 1.466004 1.2858319 -0.31833524 -0.33849746 -3.4472406 1.9226379 0.4842604 -1.1217229 1.5844636 0.89562964 -2.134231 -2.0812764 1.4501027 -0.42890617 0.42843 -1.4360266 0.4314122 -0.3312301 -0.353582 0.65471715 -0.21528156 -0.10158227 2.4691994 0.4899419 -1.1731812 0.8569588 1.9764639
למלכד -0.4622339 -0.22548938 -3.3346863 2.0332408 -1.3293809 -4.0278416 1.0876232 0.3253435 2.754472 1.7990355 2.4816663 -3.569355 0.14370291 -3.5393353 -1.5444794 0.21399397 -0.7631044 -1.8563521 -2.9758232 -0.38574973 1.3066126 -0.63727313 0.43089652 -1.2655929 -1.2293726 0.7839223 -1.395965 -0.021023178 0.8275098 -0.110360965 -0.023400001 0.29806817 1.5524476 0.102722526 -0.41501805 -0.44720495 1.1151681 -0.448792 -1.3964918 -0.82412213 -1.2845118 2.796914 1.2487305 -1.540844 -1.257247 -0.056590162 1.3605493 0.692372 -0.4175435 0.28554988 0.34892398 -1.2972658 -0.052633032 0.32756487 -0.31246725 0.05678926 0.81166416 -0.28757623 1.6863453 0.8809211 0.8236215 -0.3520445 -0.3379169 2.066242 -0.43119577 -1.4665545 -0.93173975 0.8982636 -0.022573413 -0.060190924 -1.2614232 -0.80262303 -0.56007177 -0.15679437 -2.4701667 -0.2171658 -0.9823552 -0.25942698
להבחין -0.97640544 6.013568 2.744334 1.7296245 1.6316139 1.8968961 -6.110347 1.8301773 2.351435 -2.208883 -2.5334194 3.326575 -1.1872728 1.5539097 1.215634 -1.0962117 -1.4415612 2.3450384 1.6283342 -3.4953468 3.7264214 1.5167857 2.5816016 0.8504751 -3.1143563 0.29191327 -1.7068225 -0.09847794 -0.29363337 0.9433542 0.4561123 0.6837228 1.508092 0.5101933 2.4156513 0.7163743 -1.0717206 0.23938863 -0.039508373 -2.8326359 1.7308682 2.5164373 0.62914366 0.35619542 -2.047799 -1.4676017 -3.0153713 0.24172172 1.5702281 0.6833246 2.163982 -2.7181225 -0.554486 0.5705012 -0.6718114 -1.8926744 0.57915837 2.189288 -1.8501934 -0.008968106 -1.536951 -1.7063813 0.56370133 0.7331984 0.36828014 -1.1126963 0.5848761 0.3926938 -0.88282144 0.62174624 -0.4304504 0.62128717 -0.37440717 -1.3116847 -0.0628071 -1.1404145 0.22491127 -0.37715566
להסגיר -3.492781 -3.3718903 -2.0987597 -2.4525976 -0.9869718 -1.834003 -0.012343257 5.404695 -0.17078964 3.4870887 2.3022556 0.1411609 4.6003704 1.4920782 2.9234605 -0.743992 -0.8090053 0.9592436 -1.2746028 -0.36164555 0.34488687 -1.5005213 2.7696052 -0.7122372 1.2591261 0.5289646 1.1957867 0.6954493 -0.7532403 3.8978417 -0.29184222 0.49657267 0.96025366 1.2092004 2.2079332 -3.5384471 0.21706496 -0.70123094 1.6974267 3.160281 -0.035037898 -1.1497381 0.27162468 2.4136436 -0.062489163 0.11333791 3.6955152 -0.15581466 2.0298672 3.4017222 -1.7670635 -2.913808 -0.7464449 1.417287 -1.3559535 -0.30155683 0.72643125 -0.24982108 1.805681 -2.8867795 -1.3803554 1.7589126 -1.5850887 -2.0380385 -0.55115557 -0.8885301 1.4025906 -0.07017297 -1.0102332 -1.2493883 -0.2134438 0.086099006 -0.88624436 0.65806043 1.6391631 0.13393836 0.24655601 -0.24120748
תקליטים 6.1265707 -1.9123513 -0.4485703 -2.2271514 4.6193166 -0.3557506 3.633683 1.3609785 -1.342069 2.889083 -2.8769383 0.12685679 0.71652365 3.683011 -1.6811558 -5.3693075 -2.975674 -3.3909073 -4.5945315 -2.519715 0.27179852 1.7008947 3.2016048 0.14714727 0.4840258 -3.9713588 -4.0769815 -0.8632987 -0.87452555 -0.41039723 -1.7476916 0.13942921 -0.1976184 -2.2925196 -2.9219992 -1.8737864 2.4271696 -1.0997906 0.26670077 0.15773655 2.9688075 2.639464 -0.22385551 1.5014642 1.314681 0.7467422 1.2232312 2.706216 1.1546098 -0.49287686 1.8991576 1.8973479 -0.910789 2.5073676 -1.598432 0.7074172 -0.9202585 -1.701158 0.8972131 -1.5939327 1.0085003 -0.9563408 -0.6305186 1.0129945 1.0175134 0.42848855 2.7243292 0.47749808 0.90015644 1.3164703 0.8058287 -0.37532493 -1.6505924 0.20671223 -0.9472724 -1.2634078 0.23181355 -1.2870655
תזמון 6.213381 1.3071318 4.098239 6.697975 -0.5029481 0.24535131 2.6855733 -3.7159896 -1.7965306 1.2088296 1.2497013 -0.47952235 0.21729584 -0.92362714 1.2889543 1.2719642 0.8253799 -1.051723 -1.5967588 -0.708412 -1.0883849 -3.6143224 0.7902071 -0.40272447 -3.1160562 1.9109263 1.3619012 2.5142446 0.52523977 -2.7758992 -1.2096932 -1.4413865 -1.858057 4.7707825 1.0452596 -1.5539008 -0.39116436 5.1494303 -0.119771935 0.79048145 0.3192795 -2.7636077 0.077021934 0.8494968 -0.03167569 0.54571503 2.9931414 -0.01819306 2.9372444 -1.3712072 1.2035986 -2.3037393 3.7367275 -0.45084432 1.5225903 -0.47650552 -0.86308324 0.9080078 -0.722247 0.81037384 -1.3506434 0.9713831 1.0734445 0.8845815 0.5172216 1.171252 0.94234574 0.34807563 0.7368357 1.3391544 -0.44021392 0.4329083 -2.9646673 -1.0634756 0.40848067 0.9532019 1.5207331 -1.926341
להסתמך -4.1583996 0.31268945 2.3914628 0.14369215 -1.9665164 3.9416761 -2.5113509 -1.9629068 2.228824 1.7395318 1.306632 2.576383 1.016524 1.0826687 -1.7488625 1.0208279 0.4965644 -2.495229 -0.67458636 1.5963068 3.6834853 -0.39181888 -4.6362996 -3.9926982 2.7077315 -1.6679267 -3.209349 1.8357748 -0.53876776 -0.08155306 -0.030860644 2.4407685 -0.66472626 1.3857836 -2.2658453 0.0045228684 -2.4346225 2.344666 2.1987898 -1.2543993 1.7955009 -1.1756059 1.1151222 -0.92729473 -0.55696464 -1.9961957 0.32451233 -0.574232 0.95024884 -1.215238 -0.04913539 -0.90224504 -0.9750506 0.5810434 1.5717891 1.749533 0.24855775 0.34318852 1.772846 0.4298247 1.1148169 -0.66015416 0.6773882 0.20729475 0.934303 1.6765994 1.3573174 -0.6068874 -1.2339876 0.58744085 0.050980188 -0.39245588 -0.30149114 -0.019081403 0.6307404 0.8463808 -1.102883 -0.012058873
להפקיד -2.6714528 -4.875998 0.47532266 -2.7898595 -2.9409823 -1.5368571 -1.251745 -3.6464298 -1.3454834 6.1952405 1.9179512 0.4197394 0.16866107 1.8665466 1.2579468 -1.7028434 -1.7449449 1.738023 2.30394 -0.25180626 -0.22551285 1.1542945 0.9549091 -1.4077035 2.853084 3.109336 -1.3606555 -0.69168746 -1.4349679 0.45630956 0.20489444 -0.99817854 -0.20229706 3.1032078 -0.59755427 -1.7247525 1.0013367 -1.3874093 -0.18158637 1.6584795 -0.23381034 -0.09830681 0.39743987 1.0274596 -1.3665718 1.8319497 -1.6342192 -1.5880538 -0.85695475 -1.9542763 0.5017347 -0.17834458 0.0077868137 1.1450535 2.8390028 -0.3005571 2.978015 -0.24626315 0.4344967 -1.4395288 -2.6456087 -1.8982391 1.4187466 0.7232038 -2.7583983 1.1273735 -0.50704396 0.5053198 -1.0364784 -1.026373 0.80347747 -0.076869905 -0.051442076 -0.61339736 -1.8420138 -0.92299914 -1.5100458 -0.49324274
להבטיח -3.9346626 -3.3912225 2.503464 2.174242 -5.478925 0.5707944 2.5155075 -1.4577384 0.19048569 -1.3427266 -1.8706468 3.647056 -1.9484911 -0.5309232 2.144203 -1.6405859 -0.030300891 -0.83822924 -0.3176943 -3.4892695 -0.053866718 -0.31434324 0.6053201 1.0726677 2.5726464 1.0793353 2.347213 -1.2668028 -1.1752347 -2.811238 2.342891 0.16961494 -1.815312 0.22328557 -1.925335 0.7309682 -1.9816823 -2.4333818 -1.5618141 3.9371095 0.22318958 1.8897316 -0.32809561 -1.5827534 -0.21074623 -1.3875351 1.7323507 -2.4477851 -0.21770996 -1.9353538 1.0528489 -0.33513007 0.36867818 2.7496126 0.8851961 -1.864082 1.0441269 0.8919404 1.5029753 1.6952666 1.4265267 -0.045621227 -1.5348383 -1.3819984 -0.08044121 -2.1361098 3.2643366 -0.1693276 0.45864293 1.044543 -0.7795122 -1.9968868 0.5927797 -0.32684436 1.6626261 1.3173487 1.7685034 -0.3425762
לספר 2.4847374 1.1640505 2.4629307 -5.9840174 1.9012144 -0.5172069 2.2764518 4.2266293 -0.19661058 0.5925647 1.4213424 1.7508322 -3.6390398 -2.135104 2.7206593 1.503352 2.619189 2.0359557 0.78702027 4.31014 0.8654623 -0.9685775 -1.1014132 4.5058236 3.1910691 -1.4370134 -1.3517472 -1.8625621 -3.5865862 -2.3272176 -3.0766282 3.176887 0.25816414 -1.1981416 -2.1305075 2.4119139 1.6834909 -0.40054846 -3.577673 -0.8225688 0.22342812 0.478967 1.6573081 1.710832 -0.15633608 -0.41922042 -1.9183891 1.3269972 -0.54450226 -0.24816166 -1.5796014 -2.9480562 0.5954177 0.37841818 0.7130724 0.8971884 3.5043766 0.41887975 -0.7463245 -0.24812803 -0.6650997 3.2437885 0.24327481 2.7541182 0.5411131 -0.35065126 0.08427249 -0.5693905 -0.24325278 -2.2894185 1.6797422 -2.2717414 -2.377261 -0.3681063 -0.75636595 -0.66371036 0.3091628 -0.9137655
לסקר 1.496447 -4.55739 3.9248672 -1.5156324 5.261542 -1.3744606 -1.1521586 2.9134078 1.8829098 -4.823539 2.3345942 -1.035394 -2.9992092 -1.9478407 0.9505888 0.7846834 3.7042463 -2.3361723 -0.7778619 2.4833899 -0.96897703 1.3265404 0.7079577 -4.629326 4.128381 0.064761564 3.488234 1.1856197 -2.776872 -3.9374073 -1.5631504 0.05665445 6.2919517 1.6615988 -0.6605775 3.10377 -0.23225968 -0.20070344 1.4874508 1.4362019 -0.46081117 1.0643752 0.08611396 2.0353873 -2.3761356 1.7328889 1.4775547 0.018695239 0.037437044 0.5127529 -2.1108062 -2.0508347 1.6056101 2.5729594 -1.941929 -1.0235722 -0.02843549 -0.12708396 -1.2729434 1.9730333 -0.5972066 -1.4697986 1.0619897 -1.1815283 -0.9340576 0.9874973 0.73334056 -0.53179777 0.26742885 0.87951994 0.75527734 1.5963825 1.7895459 -0.5201749 0.40419677 -0.21512702 -0.12445098 0.16994917
תמריצים 3.739344 -4.704334 1.8140708 1.7491533 -8.038591 3.7832406 4.314153 -2.8333235 0.91884196 -2.3416817 -2.4582953 -3.475413 1.489382 -0.31750396 2.3559024 -3.114289 -0.6156104 0.7604386 1.5631616 1.5757008 -0.43368542 -1.5995694 0.46312264 -3.9323971 -0.2428129 -2.111485 -0.55677724 0.8096824 -0.78173995 0.82158226 0.6475867 0.7712959 -0.11186808 -0.6558048 -0.58904445 -0.4846867 1.6476289 -1.0910022 -0.47629896 -1.271113 2.5262048 -0.2389797 -1.5614284 -0.6288638 -2.1066377 -1.1323467 -1.9385552 2.6329463 -0.9365518 1.0785444 0.53219444 -1.5294261 0.61607915 -0.0618091 0.22027333 -0.7215919 -2.861827 -0.019606965 -1.2383722 0.4502618 -1.0597519 0.42437792 -0.5518674 -0.72037137 1.462268 -0.27556083 -0.7153637 -1.037455 -1.166655 0.3353681 1.2028508 -0.24454342 -0.517958 -0.050127134 0.1464724 0.5484475 -0.3250065 1.6962138
מסמך 5.9943724 -6.530692 4.022037 -2.8156497 -4.022564 -0.43731737 -0.39830616 4.7031446 -2.3502345 3.4280603 2.600829 2.04047 -2.3053772 -1.3547544 4.0369687 2.2634625 -4.384748 -2.042913 3.949407 2.684878 2.56026 1.6055154 -2.078654 2.6860178 0.7068596 1.7554035 -2.464479 -1.7853893 1.5084195 -0.5890704 1.9093772 -1.3741611 -1.4675962 0.35758272 1.4677101 -2.0623436 0.85006386 0.31191528 -1.4352819 0.23903883 -0.55129975 0.06447045 -2.404211 -0.35844272 -0.62510204 -1.1993889 0.39376935 0.3254467 -0.11575156 -0.28948674 -0.9588909 -0.34223387 1.2174047 -0.12399726 -0.8378222 -2.1754632 -1.1309444 -2.1524057 1.2258482 0.55210537 -1.0364804 -1.4830819 0.236028 1.0756878 2.0436943 0.53822345 -0.9665834 0.06605374 -0.4737221 0.5496896 -1.000096 2.4267883 1.4351052 0.2438902 -0.16945614 0.041168075 0.65865415 -1.1966393
מחשב 7.2390313 -0.47756562 4.2166176 4.3282213 0.97016877 3.2108898 0.9912039 0.57035124 -0.51300037 6.859814 -2.8124695 -0.33412483 0.11183401 -1.0092716 -2.4300857 2.031513 2.6194046 -0.21801132 0.22391516 0.6156528 -2.835485 4.853521 2.416146 -3.026434 0.8293641 -3.7316363 1.2008841 -1.1169279 -2.5494561 1.6556655 -0.8351628 -0.73775595 -0.9219185 0.9435096 1.9031912 -0.71855354 0.8719377 1.3977128 -1.4019638 -1.6292176 -3.4776492 -1.2464663 -0.45343688 -1.3378782 1.4465578 -1.0389194 -0.28998712 -2.2076273 -2.2799902 2.0588727 -1.1410015 -0.7121756 0.56046325 1.1709872 0.029814316 -0.31109565 1.0793704 -0.23467743 0.88251495 0.65557206 0.5228268 -0.77511007 0.2656058 -2.0254223 1.520358 -0.14859301 -1.6421431 0.7083388 -0.96711206 -0.64640725 0.24613273 1.2599224 -0.42844993 -1.7547864 -1.7241597 1.8476211 -0.21480107 -0.179468
למסגר -0.5886616 3.255801 1.149107 -0.274585 -1.0839176 -1.7810435 3.2445326 -0.34056792 -0.3621648 1.6946888 -3.2777894 -2.2387412 -2.260729 -1.9405332 -2.656842 -0.92040634 -1.1917685 -2.397435 -0.38396138 0.2524307 -1.5488126 -0.8622217 -0.4599364 3.1154292 -0.9872769 2.4060905 -1.7794887 1.6146109 -0.55651027 0.46502805 -0.30863282 -0.87442744 0.05260865 -0.22309886 -0.9528912 -1.3401685 -2.5494626 -0.542841 -0.14945576 1.6856625 -0.021064747 0.2993567 1.6066618 -0.34390312 0.6186752 -1.0615263 -2.3137765 1.7456206 0.25864613 1.245577 0.8668967 2.0861576 -0.47317833 -0.25535902 -1.0222077 -0.45968473 1.1093067 2.7772577 -1.973158 -0.04429195 -0.50080556 2.2681189 2.4296641 -1.4845389 -1.4291353 1.5212882 -0.45331177 1.0990505 -1.481584 0.45587176 2.9438112 1.1567711 2.926135 0.33471674 1.1068462 0.55053365 1.0714651 -1.3047965
תזמורת 5.062343 -4.6486855 -1.3483721 -2.253058 6.1683207 -2.7886555 5.9949536 -1.4692866 2.7428887 -1.2721719 -3.4836006 3.4409494 -0.9575831 3.5382268 -0.3147696 -2.7775474 -3.2850857 -0.7053895 -0.15042177 -2.7867866 0.4997918 -1.7085117 -1.4378419 3.3075187 1.288791 0.5515739 0.73482007 -0.5419343 0.33170587 -1.0493718 -1.5708 -1.5229732 2.2816691 1.1834574 2.5684187 4.4901175 -3.1853573 -0.40879285 3.0517514 -2.493431 -3.1781268 0.4902173 -4.7316484 -0.5448598 0.84716475 -3.3100808 2.7319462 0.25890648 -1.5704287 0.023217537 -1.0006479 0.5909937 0.99387026 1.1978114 1.6584413 0.31371137 0.39669615 -2.0683055 0.3604457 -2.5523264 0.5605759 0.8571749 1.8805776 -0.19463351 1.2035377 -0.115218125 -0.80505186 0.27032492 -1.6351534 0.10593018 0.03971607 -1.238274 1.1743042 -0.35642055 -0.8743425 0.5724613 -1.8191978 0.31121355
לחקור -5.638008 -1.8841693 6.115024 0.96470094 4.4756804 -1.6792818 -0.9792063 4.766433 -0.6406139 -2.0646203 2.8859835 -4.2438316 -0.20738766 -0.03019202 2.1830778 -2.6480289 0.77154756 -0.54516244 -2.2379422 0.87954986 -1.0619942 2.179796 -2.279407 -1.1077015 0.5334722 0.33335096 1.2773616 1.0913695 -0.5380603 1.8239634 0.019768467 -2.3487246 -1.8616934 -0.6125123 -0.005761236 1.6383032 0.048418213 0.76580364 0.7068347 1.8257489 -1.2365946 1.1276451 1.7432338 0.54336 1.8333864 -2.3773882 -0.5769804 2.1403024 -1.0383241 0.35445052 -0.79289216 -0.5273723 -0.121533 0.34233803 -0.265736 0.3315287 -1.9402107 0.4089323 -0.59210545 -0.600218 0.26170418 -2.4119976 0.06837108 0.5551114 -0.09247901 -0.65994847 1.4913592 0.98375106 0.54778695 0.67925656 -0.19418484 -0.07645298 -0.7708959 0.3520112 0.0997689 2.2125027 -0.23201872 -0.88541555
להסתקרן 1.65099 5.7683487 -1.2562516 0.07307418 -1.5931036 0.89137363 2.3950016 1.2648193 2.9171796 0.16988687 1.7796109 -3.102848 -1.134586 -3.5440812 -0.8072667 -2.0475876 -1.8245265 -0.8013192 -2.2719247 0.38967654 -0.7391016 -0.6653692 -1.1061519 -0.5574264 0.4820978 1.4109526 -2.293594 -0.45656872 0.5948402 -0.8079851 -0.3153836 2.2731223 -0.5793581 -0.27524254 0.3723766 0.049881242 -0.37112495 -0.5046113 -0.83871716 0.7616294 -1.4791181 0.7528839 1.0200794 -1.0954021 -2.2303915 1.0454578 0.40791023 -0.17450418 0.08587378 1.5478643 -1.657189 -0.39250356 -0.15021111 -0.5165888 -0.9953876 -0.9810479 -1.4404924 0.22513998 -0.016175581 0.88866514 1.2150354 0.2858493 1.097068 1.0120294 0.5836306 1.3176658 -0.19026004 1.2624565 0.5457457 -0.5716097 0.21133882 -0.33386898 0.041713424 -0.9950155 -0.7841956 -0.19279529 0.22572753 0.23311627
לתזמן -0.6429642 2.3221664 4.622327 4.513357 -1.0703589 -2.8177376 1.4430933 -6.1511602 -0.33277634 3.4517498 -0.18336438 -0.8671831 1.463299 -1.7616116 0.841368 1.7252319 0.52667594 -1.3121033 1.508213 -1.2074336 -1.0392768 1.7487507 -0.86858535 0.1235874 -2.712162 0.57812685 1.3026186 1.2103099 1.3496526 0.67709345 -1.506026 0.25733426 0.04568466 -0.115360595 -1.0533005 0.5831265 -0.9004637 0.80030316 0.51121944 -1.1150643 -0.83049756 0.9374531 -0.43308616 -0.6912006 -0.4457971 -0.046163704 0.90254384 -0.62340796 1.3209137 -0.9151067 0.93621737 -0.6312265 0.6031674 0.73073983 -0.32995215 -0.29202044 -0.34695038 1.1970104 0.574782 -0.8174754 0.5240569 0.41424477 1.3396969 -1.1899012 0.17873195 0.8868801 0.060784083 0.52086836 0.42736688 -1.9731776 1.9863743 -0.24094234 1.0146115 3.2213323 -0.6537084 -1.894823 -0.18996528 0.14232612
להיבחן -1.4080328 -0.089873515 0.14753197 -2.8157995 4.515613 4.8227034 2.1523683 -0.6701027 -0.21008573 -0.4711551 5.874316 -2.5706053 0.3163731 4.738497 -1.0637581 -1.5031289 -1.1018803 1.6738697 6.2783246 -1.1677285 -1.5523812 0.9873666 -1.5841833 2.1254685 -0.18722631 -2.9429333 0.40424168 1.7489442 1.9293374 -2.9038997 1.862639 2.002721 -0.41228256 2.4905007 1.6726247 1.7103205 -2.5885193 -0.530955 -0.74328625 1.2794657 1.1405755 -0.42045394 -0.2224208 -0.3602102 2.2598927 1.8871254 1.158324 -1.0105368 -0.69963974 0.8095751 -0.27807266 -1.9978747 0.7884236 -1.0238563 -0.17810838 1.993972 0.3582457 -1.0712594 1.4746523 0.15044051 -2.6211681 -0.10658419 -0.6635677 1.0205561 0.82705677 -1.4806553 -0.054786697 0.6089544 -1.6105584 1.5855136 0.33489695 1.8774137 -0.9865497 1.8706073 -1.8792087 -0.8588999 0.59014714 -0.4785757
לגבור -5.522627 0.24121884 -3.0113013 3.2417817 1.1345174 2.6908143 4.651463 0.99357593 0.29534164 1.0474383 2.2458868 6.088052 1.3248425 2.718136 -0.8369237 -0.4543604 2.7920148 -1.2410867 -0.018963443 2.8951209 1.0239986 -0.08314277 -0.67851174 -0.26982883 -0.08763067 -1.9104198 -1.9223317 -2.082603 -0.59093875 -2.183679 3.043883 -1.1543117 1.5375091 0.118675314 -0.53090954 -0.67439467 -1.1294084 2.4110293 3.042333 -0.2328791 -0.13147363 1.8685251 -1.148782 -1.6491764 -0.6004963 -3.5351121 -0.17230916 -1.9322253 1.2247869 0.54075235 -2.868813 2.2930346 -0.76171327 -0.6533562 -0.7207142 0.6102016 2.0458832 0.47498098 -1.0088358 -0.23748027 0.1857109 1.3632758 -0.23274334 -0.5641918 -2.507624 0.32518634 -0.48403952 -0.559595 2.3916106 0.14456376 -0.28812936 1.7555023 0.44117272 0.43476966 -1.0143601 -1.3239098 1.2791581 -0.61130154
לתעתק 1.4556231 4.3368344 4.0675316 -2.6912026 -1.0944701 -2.8919818 0.024942316 2.2694447 -2.0010169 0.036149118 -1.3109344 -1.047811 2.9437733 -0.55984807 -5.010753 1.8796955 -3.2389486 3.5613885 2.4081264 1.7597442 2.019452 -0.45939112 -0.21926543 -1.3982035 -0.52301997 1.9839694 5.019789 -1.5312088 -2.4804564 -1.5168967 1.5032583 1.7484533 -2.2131696 1.1175091 0.91303706 0.7428343 0.94707483 -1.61599 1.2514771 -3.6880736 3.7604756 0.055387467 0.47115195 -0.7905193 1.6153625 0.78106785 1.64139 -1.0365851 0.61402136 -0.7101184 1.2607653 -0.7590466 0.8807843 -0.14880025 1.0737181 2.4268541 -0.35410598 -1.5654572 -0.96943027 -1.3938297 2.3402777 -1.9118253 -1.3301957 0.66472566 0.062057644 -1.2724353 0.022031175 -0.0790062 1.0610757 -0.7063449 0.5163377 -1.0506033 1.7428119 0.021033477 0.39882985 0.5111551 -0.7673754 -0.99491906
לתצפת -3.9834788 -2.8190782 -0.9097368 5.1287584 2.7248874 -2.4678514 -3.2536123 1.0082512 5.7261143 1.0321476 1.0867114 1.2388308 0.15979019 -2.8458254 -0.86782855 -1.4730489 -0.78372693 1.9344277 1.6185061 -0.35843235 0.7625974 -0.6407351 -2.369701 -0.6814794 -0.42828074 -1.1842046 -1.4842443 2.8766325 -2.3853118 1.0990458 1.3828976 -0.19150339 0.7375064 -1.0581908 0.8658041 -0.24599005 -0.49460912 0.7534679 0.05915938 -0.7427458 0.027605686 1.6529465 -1.0321064 -0.27639806 2.287228 0.20852342 -1.9810003 -0.20520596 3.3676186 -0.5600991 1.782604 -0.8301398 0.7410056 -1.4890314 0.21217029 -0.41192663 -0.57910883 -0.773203 0.89627653 1.5055705 -0.02780362 1.3809713 0.12034476 -0.58479583 -1.4950784 -1.746795 -0.6409252 -1.0938824 -1.5823387 -0.529379 1.2936573 0.1436263 -0.3608804 0.80017805 0.37796983 1.1846482 -0.35841018 -0.28519765
לסמוך -4.4112635 1.3209462 -0.05326908 -1.3059065 -0.96706444 3.8736653 -1.1086993 -0.22282666 5.461397 4.012878 0.8566486 4.831932 2.2587812 1.4369023 0.32174245 2.6613927 0.8721262 -1.3051468 -2.037265 0.82159 -0.04236694 -1.2562698 -2.828736 -1.2232436 1.9151059 -4.2376485 -2.9112706 -2.5128815 1.4609503 -0.14128385 -1.6290531 2.7569723 0.115846604 0.5429409 -0.4568169 -0.69974345 0.8092545 2.9495957 1.1434013 1.5590298 -0.64169663 0.99214214 1.9490348 -0.54461944 1.4945292 -0.14653407 -0.57774985 -1.0900424 0.9940922 -0.93776816 1.1558415 0.55171067 -0.6303155 -0.101859674 0.39938688 -0.08697962 -2.533334 0.97249216 -1.08423 0.026584035 -1.5086715 -0.046934478 -0.43047157 0.8722285 1.1983362 0.6912049 0.16920581 -0.84078896 -0.67345715 0.20078681 -0.6889491 -1.2440354 -0.0075825853 -0.69863564 1.8763592 0.9967997 -2.2138557 0.18159293
לזמן 2.3373575 -0.06920797 -2.2317238 -0.25184742 1.0608648 -0.29646692 1.3586825 -2.0487266 -4.9099236 3.2201564 2.4544437 2.5206242 -1.6985966 -1.455859 -0.4441693 -0.7693727 4.3128242 5.348446 -0.018822113 -1.1827018 -2.1680503 -0.7804162 0.20422417 0.5829085 2.1834002 0.7301218 -3.78665 2.3009112 0.5756262 4.9331236 0.8411975 -1.4058224 -4.9124823 2.5852108 -0.5864158 2.5922546 0.5149563 0.32968315 3.2021744 1.2784218 -0.47490653 4.252847 -0.96296716 -3.961114 -0.7453439 3.782449 2.377977 0.7159912 -0.47861847 -0.75977194 -1.0409994 -1.335227 -0.6471135 -0.6810345 -2.0876274 -1.2440817 0.88487077 1.112544 -1.6074564 2.069596 0.8197812 -0.484166 1.1577637 -1.0137484 3.2972174 -0.36616147 -0.661871 -1.6452454 1.5269586 1.1154096 0.042190157 -1.3284628 -0.4958568 0.94444036 0.46004686 -0.043082234 -0.18772055 -0.9349298
מסגרת 6.0506516 -1.9695872 0.88564676 2.1375093 -3.6438055 -0.021318076 -0.33794641 -2.469803 -3.606876 -0.98080146 -4.00561 0.10822435 -1.1134367 3.3696349 2.8155844 -0.5584931 -2.0125692 -1.0227307 3.4841685 1.3086509 0.67164123 -0.91991717 -2.3009033 5.56835 0.3342377 -2.8761477 -3.066142 2.8497555 -4.5530615 1.6027505 -1.0603088 0.2207102 -0.15985836 -0.9860442 2.8757303 0.75593203 -0.85758466 0.24625494 -0.3157364 -0.028764175 -0.7759721 -1.730785 5.2021565 0.9445742 -0.6843644 1.6727307 2.782613 -0.5357809 -1.5318013 -0.93836266 -2.698699 -1.4662368 -2.5064108 3.9908824 -0.25491345 0.8401197 -2.411467 1.5655477 -1.8293573 0.24826013 2.3052778 0.070699535 1.1908743 -0.4957338 -1.8310438 -1.1918075 -0.36447436 -0.76320165 -0.75836104 -0.022878777 -0.33751717 -0.10405726 0.3599733 -0.39312574 0.11660222 0.2592444 0.44813067 1.3683356
להיספר 1.7585182 3.7433324 -1.4644139 -2.1823404 -2.6077845 2.0481744 -2.4141858 -4.908815 -1.5944556 0.00027252693 3.3728824 -0.8944264 1.6691735 -0.7600495 -0.012671197 -3.0745833 1.5802801 -3.7004838 2.334187 0.7359861 -1.0101908 -0.76942855 -0.47691825 0.44575775 -1.3633634 -3.5515888 0.25732478 -1.2279642 -1.2103593 -1.0258304 -0.9215676 -1.5394337 0.9097538 0.65457726 -0.8425726 -0.3041087 -0.28383997 -2.6525276 -0.1612717 -0.690988 -0.8287435 1.6983539 -1.1480678 -2.250494 2.0224597 0.06916395 -0.9961406 -2.096865 -1.3869354 -0.60658544 0.4794524 0.52335954 -1.0420806 -0.81385905 0.9163189 -0.52582335 0.0027291377 1.4281921 2.1901822 -1.5492114 1.0475527 -0.9907068 -0.013993989 -0.42240664 -1.3822681 0.28721723 1.0251182 0.24344297 0.14248347 -0.1662268 1.0222571 -0.37715805 0.84986246 -0.9089296 -0.43248773 1.1280805 2.7722054 -1.2405393
צלחות 7.67447 1.2914556 0.6679117 2.3112197 1.5745497 -3.802895 -0.6950852 -1.6473547 2.779342 -3.034825 -4.7369194 0.12467686 3.9592652 1.855711 0.4874799 -1.1197098 -2.072617 -2.3730223 1.3608782 2.4247506 7.5352583 1.7826432 -1.7687385 -0.014423141 1.91304 0.32014933 -0.53991836 -0.7033253 -1.5796266 3.021798 0.2389685 -1.9576985 0.7010544 1.316615 -4.558892 0.31427518 2.2718449 0.63403916 0.06658357 1.5040725 -0.120632656 -0.2848237 1.8826767 -0.5472741 0.67651904 -0.30095586 2.7359416 -0.6769775 -0.8537827 1.7551136 1.8623453 -0.3335693 1.9685757 -1.6184825 0.65626717 -2.4634454 2.719738 0.6075217 -0.3501217 0.52467245 -1.7008687 0.80443984 -1.8995616 -0.904305 0.1800335 -2.9463134 -2.0233424 4.0722885 1.9191076 0.54336876 0.11888614 0.8669686 -1.1787366 1.3021108 0.85092145 -0.84244716 0.46803418 0.73550636
לתזמר 0.052229024 3.35059 2.1426597 -2.5541878 0.9468283 -3.5017233 4.4595222 -3.9382246 0.91561544 2.0100718 -0.8439694 -1.1530433 -1.902617 -2.1210964 -1.7685529 -0.98445326 -2.9184115 -1.0427897 -0.72833675 0.61281 -0.8329577 -1.2872173 -0.4687698 3.1178315 1.3403 1.5261843 -0.5184032 2.5268724 0.3523573 -0.6776512 -0.3657233 0.45801535 3.2672434 1.7370641 0.8436521 0.5732169 -2.0908785 -0.61807585 -0.8563946 0.004553371 -2.6761947 0.46667624 -0.84929955 -1.3970948 1.2203811 2.4650524 -2.8329585 0.5411412 1.1631072 0.6748666 2.1779315 0.84435904 -0.93342716 0.36060327 0.86926883 0.6688781 -0.75453466 0.46366704 -1.0606941 -0.18286608 -0.6855003 -1.4878509 -2.0008125 0.3002357 -1.2656721 -0.22830854 -0.86602634 0.17270517 0.96941954 1.038422 -1.0886118 -0.31837937 -1.4233234 -0.56217045 1.1356384 -0.15817006 -0.67429876 -0.46182543
תצפית 5.0996194 -3.471667 0.59307396 5.9780655 3.0713468 -0.31539133 -5.4285545 1.4010421 6.830445 -2.4245846 -1.8165784 1.9969463 -1.5878274 -0.6995092 1.1733468 -1.5297569 -1.4969174 -0.5342724 2.4147162 -2.1906307 0.36083898 -2.679169 -2.011055 0.87005436 0.025560161 -1.1038187 -1.4487833 5.010768 -3.3557265 -2.0583482 1.9016985 -1.523462 -0.5402753 -0.8329267 1.7197652 -1.0835655 1.4016353 1.8461404 -0.62425977 0.8282645 1.2944343 1.3965902 -0.3161756 0.43556628 3.9428477 1.5407591 -0.7863813 -1.4938619 -0.21551915 0.4959939 -0.87173283 -0.3803961 -0.15524618 -0.86151683 -2.5762775 1.6246575 -0.3501584 -0.09314927 1.7639952 1.0278622 -0.24060139 0.013492684 -1.7855722 -0.09366171 0.06093973 1.9957286 -1.0110627 -0.80091584 0.40705815 -1.9208795 1.5697968 -1.119567 1.5449005 0.8900255 0.30178878 -1.545348 -0.7065941 -0.117930524
להרגיל -4.4587116 2.8567207 -0.81448317 -0.97456807 -4.597894 -1.1352581 0.9927724 -2.306821 4.085159 -1.2517627 -1.7365453 -2.3011904 -0.3768393 -2.5689 -1.6851939 2.9384732 1.0612494 2.915764 1.024265 0.16639094 -0.5767884 -1.3762833 -1.0616782 2.710785 1.351064 -2.862967 0.74029136 -0.39013878 0.57745785 0.66101164 1.4736228 -0.9488335 0.7043403 0.1067429 0.62615865 1.4481279 2.651539 0.1831776 -0.12935643 -1.5745032 0.19341084 -0.80378544 -1.0992553 2.9327111 0.5906685 -0.2728462 0.3503833 1.9683262 0.35250738 0.39400092 -1.0304548 -0.31214616 -1.682633 1.5622586 -0.062982604 -0.18171531 1.4459738 -2.3917294 2.6202786 0.93364805 0.14161837 0.68026835 -1.6439376 -1.4530419 -1.2154089 -0.040108785 -1.4769642 -0.13681653 1.892991 1.2856513 -1.4391204 0.35898682 0.3355733 -0.11784451 0.81879425 -1.1169739 0.42582706 -0.7792413
מלכודת 3.379631 0.16125156 -3.1335466 5.305297 -0.88689905 -1.7387754 2.665699 4.4224296 1.4348909 2.2884264 -2.3299706 1.4804676 1.7673769 4.273816 5.301652 -4.1574883 2.1230202 3.9736166 0.8800203 5.836334 -3.2870364 -0.77467895 -0.7420649 2.6722968 -0.63480526 0.8382075 3.1350324 0.5173097 -0.63238424 -0.22598907 0.4127421 -2.1154728 0.09960362 -1.2697735 0.4081984 0.61046183 1.2942582 1.2474385 -0.056001205 -4.209141 -2.8906872 -0.4174283 2.803127 -3.4215171 -0.7310751 1.4770173 -0.80137855 0.41888225 -0.022770297 -0.59282863 2.477085 -0.10314264 -0.6922513 0.9974441 1.2049798 -0.3258323 -0.45668328 1.5066384 3.4315023 -0.3780074 -0.67400897 0.7340703 1.0081495 2.9564974 -0.21552409 0.4413602 2.7673998 0.50071216 1.2041154 0.56587845 -0.22932039 0.38309014 1.0090677 0.5295291 1.4483374 0.5008235 -1.1536932 0.3317996
לסקרן -2.4393547 4.4033856 -1.0584918 0.46583432 -2.7704124 -2.129716 3.3484066 1.161387 1.3889468 2.4185615 -0.9613052 -3.2645793 2.180146 -3.9236436 -2.1447895 -0.38118142 -0.11171784 -1.5295097 -0.61167836 -0.99124914 0.7328441 0.69661194 0.57926196 1.9182603 0.8335258 -0.100951195 0.044173025 0.620241 0.6630783 1.3552389 0.13350186 -0.20581433 0.010474287 -1.0563968 -0.1910798 1.4806226 -0.5942488 -0.22631517 -0.110319346 -0.56017244 0.046483386 0.17900522 0.68473935 1.2092721 -1.0780797 1.0718971 -0.72978073 0.21157306 1.4416442 -0.24716315 -1.0728598 0.22442742 -0.36617246 -0.2680418 -2.590756 1.2634994 -0.33855048 -1.425282 0.15905905 1.4448755 -0.716793 0.669906 0.42133573 -1.5953817 -0.21912114 0.822892 1.1921462 1.3545638 -0.7322388 -0.17174795 -0.910664 -0.2807527 1.6213323 -0.004892287 0.0008197244 0.5580082 0.07116556 0.30430567
להתפקד -1.2239746 -2.8597853 -3.5707595 -4.409079 -3.930306 0.7898854 0.19738035 0.033711106 0.3458096 -0.52104485 -1.3335196 -0.9379565 3.2694588 -2.2902703 -1.6488116 1.506152 0.9898536 -3.2856307 3.4470296 2.2691362 1.2781458 -1.0213261 1.3980184 0.226148 -2.0418894 0.9299017 -0.5313927 2.064887 1.4506402 -1.3498778 0.4271473 0.7632691 1.1235162 -0.85487694 2.0826278 0.56777555 1.1933758 -2.2490628 1.8934507 1.3776917 -2.271376 0.67965144 -1.3793529 -2.56917 0.5384628 2.183541 0.7813562 -0.71300584 0.8177089 -1.5168682 0.4401313 -1.1161811 -0.73911554 0.9659968 -0.5134133 -0.04376541 3.054313 -0.30363825 -2.6772335 -0.7170613 -1.6005716 -0.45394135 -0.2113364 1.5866783 1.4411813 -0.39417174 0.8482869 -0.9953143 0.1573151 -1.6718755 0.18152444 1.3568721 -0.085980035 -1.5365907 1.714272 1.0864726 0.2646401 0.5883545
תחזוקה 5.5917277 -5.423513 -1.4209944 5.3461366 -0.71347123 3.1048574 -3.6106148 -4.4725046 1.7547417 2.6447003 -0.50410825 -0.6498212 -2.187874 -1.4490258 0.3896638 5.1831074 -1.344831 1.1832153 -4.4440064 -2.1189246 1.2947782 -4.4752994 0.85838896 1.8089448 0.7460887 -0.16326463 1.3057767 1.3737866 1.7858208 -3.1895278 0.26334372 0.9371118 -0.47990394 0.35234982 0.9875379 0.4237177 0.8679585 -1.950366 -0.29409707 0.085023895 -0.98583555 0.942854 2.1503897 1.5368555 1.9606255 -1.4809915 -0.19067885 1.8427557 -1.0110923 4.183499 1.294611 1.6991432 0.5279415 -0.07936956 0.9874903 1.3446326 4.6002097 2.2175457 0.42025185 -0.5977133 0.57749164 0.4358927 1.2747903 -1.834697 1.1517838 0.6406886 1.5630432 -1.6395035 0.8757486 0.7193275 -0.4641397 0.8127178 -0.6291043 -0.67916566 0.22007704 -0.45058432 -0.98346967 -1.7617261
להילכד -2.7648954 1.785282 -6.06254 7.2288957 0.16918257 0.05970327 -0.42831054 1.4324263 -1.0805585 0.6160771 0.7573155 0.17207386 2.811868 -3.1431787 -0.36666167 -4.0689898 -0.9470199 -0.107726306 2.1812425 -0.46458665 -1.3139942 -0.14184836 -1.2483745 -1.3120575 0.8497309 2.7314444 1.2579123 0.5734783 1.0808138 -0.7945612 -1.0974662 -0.8215145 2.4461222 -0.61622727 1.0882492 0.41135618 1.3067154 0.12576094 0.28155988 -0.7603762 -0.32034525 1.4289566 0.5942072 1.1220219 -2.2590182 -1.1278914 0.3442289 2.9915445 -0.5632119 -0.8840987 -0.045926813 -0.39840162 -0.8644502 -0.4752908 0.13174765 0.4884924 2.5054183 -1.3269758 0.71207154 0.12156804 -0.44804168 -1.457604 -0.22582938 0.4182977 1.14705 1.7070335 1.3080286 -0.0067001474 -1.8028678 1.3056159 0.24990292 0.8239801 -0.5156616 0.296224 1.0076766 0.74908584 -1.3688011 0.9220938
להתארך 2.7357204 7.320573 -3.0650473 2.1303291 0.7346111 -0.06955748 -3.7442825 -4.5034676 -5.38365 -1.7912503 5.3955956 -2.4537864 -0.6471198 -1.1961926 1.9957106 0.6445643 -0.45313352 -0.09082686 0.09775884 -1.8642284 -0.6041379 -0.64150876 -0.4217167 0.5548983 0.97797596 -0.9452872 -0.58310086 -1.217818 -2.1628678 0.51640576 -0.65010154 -1.1970131 0.40811005 1.715125 0.1719966 0.09677824 -0.7310741 1.0189959 0.99700785 -0.35707444 0.22850613 -0.1685536 -1.7910651 -0.7652525 1.8675436 -1.7214236 -1.3438828 0.86699146 2.0510356 0.72174084 -0.02595527 0.35990772 -0.25547865 2.4338152 -0.04960177 -0.44217065 -1.8907167 -0.516468 -1.771311 0.4744986 -0.22427712 0.28707296 -1.6740838 0.4537333 -1.111455 -0.849378 0.4249421 -1.2385366 0.43082118 -1.665729 0.5737313 0.088989906 0.36636522 0.0763468 0.2322689 0.5567447 0.3382413 0.5590719
להסתגר -3.5650923 -1.017182 -7.1211405 -1.945561 2.1558247 0.7929704 -0.8602454 -1.470152 1.7003226 -0.13166364 -0.70761603 -2.6246872 1.7345194 -0.22892828 -1.546286 4.490647 -0.6299336 -0.079539895 -1.4672229 1.3100672 -0.91656977 1.1845062 0.5846559 0.7834268 1.8138437 1.4904814 -4.0860195 1.3608347 -4.7007833 0.045718588 -1.7873132 -1.7969751 1.104883 0.48522985 0.5692591 0.40777656 2.6126773 -1.1444563 -1.3184799 -0.016397104 -0.025091624 -0.79839313 -0.5476176 0.45637664 -2.8067036 -0.6610529 1.9412198 0.9623421 4.2279105 -0.5485194 0.8395903 0.49904943 1.5862036 -1.0286585 0.0072860387 -1.3786631 0.4475273 -0.7701913 0.48362514 -0.16084602 1.1719298 -0.27310506 -1.0465151 2.0898948 -0.3988945 -0.51591253 0.59475845 -1.7039846 -0.9476314 3.337672 1.7288635 0.19950064 1.0233831 0.6874807 -0.8963745 1.6182222 0.47976422 0.00621703
מסמר 6.4445643 4.604846 -1.3857281 1.537321 0.79693943 -4.853812 -0.33157194 1.2480416 -0.262604 2.6846821 0.7046816 2.9659774 0.50369066 5.3338137 -0.71216744 3.1324472 1.0873389 -2.6643295 -0.06461905 1.8767093 -0.21010506 3.6518092 7.7704177 -0.14508718 5.0847282 1.2851847 0.10346817 3.300584 1.2605647 -2.1697562 0.09386816 -0.78769827 -0.7541786 -0.10623778 1.3165544 0.17775999 1.8747377 0.13578118 2.884914 1.9328152 1.0684639 -3.6374106 1.0505778 -2.670097 0.96969616 -0.27359298 -3.461367 2.4183369 -0.4797953 -1.7165645 2.0151954 1.7753265 1.5950315 -0.33035043 -2.1260295 -0.32540375 -0.9056772 -0.2758619 1.0057523 0.7124004 -0.057596877 0.33847582 -0.024563426 -1.3544079 0.6635273 -1.9303612 0.14904435 -1.423337 -0.61786765 -1.6562959 -0.527694 -0.105274916 1.1308515 -0.007407017 -0.09551838 -1.0093383 -1.4833266 0.6346256
למספר 5.6590333 -0.94376993 1.5050801 -1.3446598 1.1943753 0.7506216 -0.50135857 -1.164866 -5.277917 -0.085116655 1.2979492 0.8449238 1.408976 0.038941413 -4.751323 -3.814562 9.121464 3.8750937 -1.6775599 -1.2559544 5.052065 -0.1265858 -2.5497022 0.52376765 1.4464655 2.185854 -0.11008879 2.5230634 2.2081404 -1.4242934 -1.7781392 0.038018435 -0.4087387 -2.2522924 -0.107268535 1.0010563 -1.2178012 -0.93465954 -2.5655847 -1.3309832 1.1071817 0.738211 0.11645671 1.1857005 -0.17745443 -0.41481364 -1.6634828 -0.5273266 0.98448163 0.29494733 0.17227535 0.03751636 -0.61917293 0.91310734 -0.14370854 -0.97003514 0.6339166 -1.0439527 -0.70415384 -1.597683 -0.1229545 0.5550564 -1.1097543 -0.4157051 0.87775135 0.10257452 1.4991866 -0.14852814 0.45917705 -0.023456577 0.363664 1.4596113 0.5576176 2.8389325 -1.1637201 1.5039902 0.006137586 1.365646
למסמר 2.5844116 8.427151 -2.9708164 0.8337586 -1.1265808 -6.979693 0.21651664 -0.33149582 0.05295521 3.4953604 -0.71068645 -1.2746931 -0.30124968 0.037199818 -0.6565172 0.6254053 -0.7414093 0.27274853 0.25146475 -0.13698228 0.9625086 0.25005102 -1.5054678 0.39046904 -0.17361023 -0.07753041 0.011550656 -0.8079927 1.6059661 -1.8700541 3.1597235 -0.51808137 0.00908037 -0.2751151 0.23945366 0.15325797 -0.3215763 -0.13975784 0.9250064 1.6276834 0.27977192 -0.45472902 1.0724064 0.1425982 -0.19424623 -1.9907802 -0.11832871 0.5150199 -1.4057837 0.24167562 0.10676202 -0.370043 0.70278203 -0.46584904 -0.1451096 -0.9738747 -0.6120284 2.3609345 0.1842613 -0.80268955 0.20042358 -0.0070584607 -2.545414 -0.08204589 0.27327076 -1.5507816 0.7637757 -0.5709067 -2.0066812 0.85802805 0.9584112 -1.3921676 -0.095936336 -0.47502917 -1.6571381 0.730401 1.5052581 1.3727523
לצלוח -3.6731272 -1.2904943 0.4357193 4.62743 1.3154432 -1.8459414 1.9095 -2.3920155 -1.2789004 -1.7716012 2.1712697 1.6844722 -2.18631 0.45388007 -1.8128825 -1.2109449 1.9941472 -0.4270861 1.8441124 1.4839863 -1.1739945 -3.7502344 1.142416 0.27066344 -2.6446335 -1.5978665 1.7258914 -1.2961955 -2.2077262 2.2703085 5.661367 1.7997909 3.2538846 -1.8435416 -4.234273 -3.3097355 -0.62408656 -0.7820917 -1.111727 -2.9904695 -0.28706363 -1.8706118 0.50904524 1.1131061 0.8012118 1.206217 0.5044985 0.6215047 -0.97973746 -1.757522 -1.2048235 2.186542 -1.3351912 0.93356925 -2.0792692 -0.56113976 1.89869 1.7577835 -1.9427592 0.6854875 -1.9088614 -1.3840705 -0.25793386 0.10582644 2.7708797 -2.0312722 0.7966437 0.27423823 -1.2985379 0.7722594 -0.86661464 1.2581447 0.07829784 -0.9448486 -1.5640048 1.7891719 -2.1991062 -0.83535296
להעתיק -3.7038767 -2.4658651 2.6871428 -2.0205345 2.2975326 -2.6992273 -1.045505 -0.7436912 -1.9719008 3.5615635 -2.8400707 -2.0302203 0.8912062 -0.14214863 -2.5376198 0.45350853 -1.5871407 1.318376 0.78378737 3.0596387 0.28276873 -1.6245522 4.7573204 -1.3065681 1.4153368 1.0302783 -1.6293916 1.8936797 -2.991936 -0.36510557 0.3563649 4.3549924 -1.1844403 0.21845636 -0.39274415 -3.631912 -2.330626 1.7827616 -1.9019411 0.55964833 -1.9402719 1.132258 -1.6587026 -0.2675564 -0.3606878 0.21923484 -2.1379328 -0.4586142 -0.2903316 3.6894364 1.419692 0.5221259 -0.7846905 -0.47372183 0.0038213048 0.63947284 1.1181374 -1.6377761 0.032957144 -0.7053504 1.7887607 -0.31854308 3.0007007 0.5706756 -0.9200203 -0.86224765 0.66036016 -0.185288 -1.0332184 0.3965116 -1.1304207 1.0149053 -0.65362525 0.9682071 1.7268796 -0.08136222 0.512136 2.0208387
לאבחן -1.8620324 4.104796 7.212112 3.5709085 0.33986205 0.75768995 -1.0877753 1.538398 1.1963481 -2.185415 1.7030625 -1.8351337 -0.85630435 2.9566994 -1.2057371 0.7074861 -2.7314496 0.33893898 -2.0192432 -0.9637791 1.4859496 0.27311477 3.3684883 1.302138 -0.6714009 -3.1438787 -1.2441136 -1.9514682 2.488725 0.80566514 -1.217691 -2.9719262 0.22225882 -3.3503313 0.931678 1.4861388 0.032166865 -0.10830707 -0.043555748 0.75861865 1.0772566 1.0205611 -0.69645274 -0.3428292 -2.1344202 1.0368211 0.3086329 -1.3905863 1.4678973 -0.6671727 -0.44447562 -1.0383301 -0.5740978 0.38216174 -0.21376213 -2.8872068 2.1216364 0.28547883 -0.7015551 -2.5325599 -0.33513457 1.4097157 0.3408993 0.8105932 2.707327 0.43666705 -1.0331215 0.5168349 -1.7758783 -0.37980825 -1.1783425 -0.33642885 1.574635 -0.5034601 1.862277 -0.37062576 -0.39377356 0.81557775
לסמר 4.530079 1.1523184 -4.3547206 3.401001 -1.8489563 -3.4391541 -5.0897713 2.492107 0.17804927 -3.094396 1.1170914 -1.9159076 -4.9744816 -0.8603876 -2.1816297 -1.9175688 -0.8470251 0.92662734 -2.1558948 -3.2734354 1.5810232 -1.5678004 0.006484865 -0.2795999 -1.6852934 -1.5047896 0.19020396 -0.14532909 0.6882026 -1.1699541 3.0399094 2.9723084 0.3052027 1.2724447 0.34808865 -1.7497042 2.7174258 0.030339753 1.2456985 -0.64677554 -0.3909105 -1.8738908 0.2660948 -1.1854634 0.11197131 0.32454464 -1.0259906 -0.8196534 -2.1807146 1.2333039 -1.8744249 0.008823711 2.030689 1.9935725 0.20726588 -1.8448561 -1.1128861 -1.6601781 0.82795644 -1.2735766 0.009101246 -0.9634262 2.1631663 0.8720823 -0.3616646 0.20851566 -0.70573676 -1.5219256 0.5164843 0.38983768 -0.42549768 0.7707477 -1.2981687 0.2958978 0.77551734 0.6842054 1.5490286 1.143014
להשתכן -2.067871 -4.698725 -7.2372975 -5.325161 1.7844118 2.1619942 -3.1201549 -1.5324612 1.9341642 -0.9554455 -2.2020795 -3.674673 -1.6627914 -0.6017137 -1.577976 0.94599044 0.5162848 0.9365456 0.46318236 2.8923397 2.086105 1.5550156 2.0219 -0.3813452 -2.6230109 0.7040225 -0.18773992 1.5378864 -0.21292292 -0.1265933 1.5247475 -1.7906172 0.11986182 -0.7316176 -0.33538246 0.25180098 -1.0608085 -0.42626226 -1.8056066 0.24890941 1.2005236 0.7567934 1.0636251 -0.70127237 -0.62602293 -0.59832454 2.1278157 0.028023569 -0.6743096 0.7092068 0.12787618 -0.37448603 1.3581362 0.17899835 0.3233023 1.1954987 -0.654825 2.5227296 1.4690858 0.55717623 -1.1935475 0.6929337 0.34775496 -0.47610387 0.9083936 0.24644718 -0.668884 -0.9324386 -0.6608982 -1.7415032 -0.90372384 -1.4886599 -0.38857824 2.9012885 1.3638641 1.9458925 -0.110115744 0.839249
אבחנות 5.418427 2.3241844 4.4875536 1.9212183 -2.217285 3.5153008 -1.654907 3.40919 -0.7899398 -4.6207123 3.55331 -2.1405857 1.7200738 1.0009524 -1.8152864 1.3577573 -2.1232874 1.6547718 -3.090763 1.2018136 1.7781087 0.30760825 2.4898443 0.7801931 1.7961498 -2.2230926 -1.6659275 0.13157605 0.5151391 -1.2073829 -2.5172136 -1.952588 0.83626914 -3.12967 -0.28488705 1.4922239 -1.3354719 -1.4251176 1.8532411 -2.2183735 1.4435037 1.0327139 -0.2362574 -0.067866094 -0.2063272 5.0189433 1.0554662 -1.5310137 -0.009095112 -0.066503406 0.83931965 0.11308809 -1.640683 -2.1227813 4.37426 0.37370268 0.99722105 1.1359687 0.51551044 3.036056 -0.8886408 -0.040059276 -0.023037069 -1.8693376 -0.9794473 -0.3309726 -0.907121 -0.5740638 -0.2014755 0.19771548 -1.9809804 0.49838555 0.37367716 -0.2945788 -0.3570414 0.77400225 -0.89761335 -0.5135135
לשכן -4.2366295 -4.9772396 -0.58506465 -3.2865376 0.7654339 -1.4350747 -4.680667 0.44182613 0.049068637 1.0123644 -4.492981 0.50911057 -1.7818896 2.1073127 -3.9202077 -0.9510832 -1.0535644 4.407007 0.18373767 2.5839782 1.2254903 -0.86090285 1.7688676 0.6430303 -0.26314682 -0.09509949 0.7685045 -0.054479696 3.6276877 -1.017757 -2.6925778 -3.2442558 0.16238458 1.0748534 0.627843 -1.2869105 0.7047175 -0.029465161 -0.91379076 0.25632834 0.6909933 2.985037 0.38490993 -1.7685909 -1.5738562 -1.7576436 1.7223284 -1.1427187 -1.172887 0.07552299 -1.5205067 4.043139 2.4533725 1.4958295 -1.1175314 1.7770805 -0.64802504 0.06677624 -0.7777489 4.709493 -0.08941895 0.5980619 -0.9107476 0.34177768 -2.1300204 0.1416256 0.6266331 -0.053412106 -1.2649854 0.17441 0.6588138 0.005199951 -0.85431015 -0.5577588 -0.39263514 1.1456312 -0.02445377 -0.01751016
ללכד -6.978975 -2.6111736 -2.2071202 -0.015003625 -3.146849 -3.6430252 3.3908823 0.7927093 -2.0547738 -1.9972547 -2.9587946 2.798078 -1.0149523 -1.6602713 -1.1961251 0.5696614 1.1843373 -3.9001555 -0.8047037 0.72575146 1.0848793 1.9702821 0.5037539 1.6627364 -0.34305954 -0.48178107 -1.0628 0.80147356 1.2177304 -1.9046131 -0.129177 -0.5616251 1.4443114 -0.21066515 1.4397324 -0.91050035 0.5142687 -1.0720495 1.5191871 1.806863 1.2348657 -1.7991754 -0.2887965 0.44713145 0.98912233 0.7392251 -1.1542101 -1.4707597 0.3855183 -0.11604051 -0.62382406 -0.5209564 -1.0362295 0.876691 1.5999137 -0.427027 -0.051404163 1.4527283 -0.6981911 -0.1890887 -0.0053052595 0.37034526 1.2138503 0.105805494 0.20774722 -0.47658542 1.021907 0.36443743 0.43276986 0.058154125 -0.5621032 0.48926005 -1.5741332 0.64047873 -0.76157 -1.2425985 -0.09908434 -1.8540429
להיקלט -2.2453392 -1.2220682 -2.8408778 0.5278608 1.9061273 5.262526 -1.2103779 0.9573793 -4.102977 -3.692747 -0.4362003 0.13253957 -2.7570553 -0.9163817 -1.98693 0.27265355 -2.9283473 -0.37520272 3.6051056 1.5287077 4.6629972 1.1054701 3.2367089 1.0021752 -1.6986115 -2.2068424 3.563699 0.25302345 1.1291544 1.5865976 -0.7943326 3.0635564 -2.6004364 2.4417982 1.3994892 -0.24140728 1.1256632 2.1450014 -0.34385407 0.10800537 -2.859668 0.48597753 2.3560507 1.235831 -0.8850552 0.6913476 -0.1807464 1.6101345 1.8949693 -2.655606 0.17968175 1.6003333 2.0943954 -0.22541778 1.0021082 -0.40683508 0.014346789 0.70674366 -0.5836193 -0.7927921 0.18827745 0.032699324 -0.8617872 -1.7201573 -0.024966601 1.2826493 0.49842346 1.8414246 1.2427628 0.5675479 2.1830797 -0.75402814 0.7308091 -0.2119753 -1.6727158 -0.10858047 -1.318238 -0.085828185
להתחזק -4.9938073 1.0177829 -4.2276125 0.92998666 0.23303166 3.0813916 2.3477843 -1.4142255 -3.042754 -3.3878837 0.8120766 3.5881388 0.4670298 -0.8293829 1.1445471 1.9031138 1.5574381 -3.9802396 0.5222571 0.8109089 -1.0499871 2.5326903 -0.7204011 -2.6450388 -1.6701461 0.33986768 -2.5008116 1.606368 0.8296692 -0.51021093 -0.33330682 1.2809905 -2.3770432 -1.1714154 1.5523419 -0.11325067 1.7960868 -0.85092574 -1.1545184 -2.340773 -1.8987458 0.26808485 -1.6169941 -0.9300216 0.11762991 1.0665499 -0.56444806 0.016715584 0.81147647 4.4132967 -2.535907 -0.41935092 -0.36081612 1.2473127 1.9944729 0.17402804 0.5569122 -0.33236578 -0.71448076 -0.4585604 -1.6162045 -0.5331451 -1.3484297 -2.042659 0.040600043 -0.33962288 1.8939145 1.1723958 0.73737574 2.5527093 1.0138272 -1.0456591 0.21030174 1.4590509 0.49003983 -0.7365432 -0.5521271 2.0915303
לחשוב -3.1603777 5.545196 1.0665684 -0.2761442 1.8633536 3.8453503 0.4930846 2.816933 3.2307386 2.4015603 -0.8745124 2.1320505 -0.26574138 -0.00773179 0.35179567 -0.18035077 1.0055257 -0.9569943 -0.3509943 3.3750587 -2.171719 -4.621163 -3.2293723 -1.6598752 1.6041242 1.6164174 -0.14166524 -1.198682 0.28697944 2.0550828 -1.76015 1.1406456 -0.70404524 -0.4919755 1.2845279 -0.35664615 0.6653396 -2.8644736 -1.1141344 -0.97053814 2.0125434 -0.626904 1.6452626 -3.6250618 0.121279866 -1.8643419 0.08715156 1.156466 -0.8297294 -0.42447478 1.8891933 -0.79164004 2.045391 0.67439073 0.8024657 0.18801773 1.0243994 -1.5077953 -0.47522166 -0.14127083 -0.06731476 1.1673166 1.1864766 -2.3651164 0.08012872 -0.78330564 -1.0744966 -1.4643196 -0.971201 0.55150104 -2.4367006 -0.37294397 0.32262564 1.1438911 -2.117477 0.34750044 3.3552918 0.045347773
לקלוט -4.8634033 -1.4151922 -0.2784621 1.932475 3.2167273 1.479124 -2.6061754 -0.09932476 -1.6110592 -1.0665218 -4.530806 -0.3488667 -1.004336 -0.5026775 -2.0067556 -2.0279837 -2.7157729 0.5141326 2.6509306 0.037811894 4.2966323 -1.7398313 0.3884654 1.8306398 0.38404742 -1.8941015 1.9794831 -1.7032206 0.9860638 2.3269906 -3.4243128 2.9076529 -2.2951262 -1.065992 0.5875814 -2.4135625 -0.19022375 1.8842258 3.0673678 0.34157774 -3.1802638 1.7812179 -0.94666773 1.451713 -0.7901583 1.6117674 -1.6707784 -0.6978566 0.58278835 -0.2165961 -0.12837218 -1.1266215 0.30052668 -0.2119287 -0.49290404 0.22255442 -0.7835332 0.25958976 2.1089594 -0.50594604 -0.87228405 1.5303699 -1.017045 -0.37152112 -0.5611861 -1.3044949 0.9402327 -2.472776 1.5162762 0.99560475 -0.33140486 -0.20077658 1.5993211 -1.4434575 -2.3671057 1.2724283 0.7678595 0.20592535
לתקשר -2.407975 1.7891533 0.09447965 2.8262196 4.517242 3.6443791 -0.55632687 3.4918 -0.71976453 2.4570777 -4.6667657 -0.44091916 4.36959 -2.5808544 -0.5934948 3.0768971 1.3087205 1.0855402 0.34675926 -0.91601616 3.3513293 0.6537742 -2.662703 0.08199575 -0.8714502 -0.10174813 -0.88921136 -2.5639014 -1.8536543 -0.8236548 1.6596069 -2.6694417 0.59784746 -0.600794 -1.5336001 0.32575879 -2.7534094 -0.09609299 0.3888863 -0.29722613 -0.9969237 -1.1319643 -3.8277266 1.314796 0.17526068 1.1864084 0.150577 2.275431 -2.0038855 -1.9564601 0.36017677 0.36138114 1.9515067 0.24273956 1.9273912 -1.5799319 -1.7217649 -0.9276863 -1.0702063 0.8498015 -0.36068135 0.602388 2.5307 0.4766532 -0.51527715 0.004590839 1.2375321 0.9127384 -0.7690125 -1.3528987 0.5825137 -1.3876592 -0.5426432 1.0329192 0.940512 0.40178984 -1.0354352 -0.98007154
לסמור 3.2932503 7.335131 -3.435743 2.2667134 -2.016356 -4.4726896 -0.4578537 2.7198668 -1.2083334 1.3808601 -0.22940654 -0.42211586 -3.0458908 0.8926797 1.2760723 -1.9482362 0.05924273 1.8846087 -2.6707256 -1.5725985 0.32935455 -0.25789794 0.43977037 -0.2557909 2.831074 -0.56277174 0.061432064 -1.2433574 1.9291888 -0.60304356 2.6909525 0.6604964 -0.28259188 -0.9308544 0.79508024 -0.9644504 2.3796906 2.2701225 0.86704797 1.1701381 -0.812673 1.2404616 -2.020661 1.448895 -1.3417875 -1.1898084 -0.55929065 -0.18224044 -0.83122665 -0.4490733 -1.307243 -0.107661314 0.4926116 0.7013951 3.5289311 1.775827 -1.12074 0.59484506 -1.68197 -0.42596832 -2.9759705 0.3925329 -0.6152119 -0.11409595 -0.9581372 1.1645817 -0.19665031 -0.19932987 0.72416395 0.8580384 -0.37121928 -0.85030407 0.47791988 0.8155182 0.08285209 1.4376225 -0.6774571 0.75014967
לקשר -0.22715595 0.6897586 2.67566 -0.5425458 -0.38140348 -0.35598204 -0.9681636 6.8513603 -4.9295845 -1.3646996 -2.6382654 0.58389217 0.7258831 -1.3685005 1.842517 3.3884506 4.1045685 3.6648266 -0.32612237 -4.437435 0.05084263 -1.8443328 -1.8795304 -1.2585024 -2.000411 -0.883225 -2.7732525 2.8624458 1.4026976 0.80378324 -0.49030292 1.1104558 2.3847141 3.5493505 1.8001289 0.52159464 0.31439477 -1.1281832 1.4358534 -0.8599393 -0.95842063 1.3909123 -1.6878437 0.2878532 -1.0248702 1.1413091 -1.3657157 1.0904049 -2.035881 -0.8510502 1.0467252 2.0901434 2.1319149 0.42294747 -0.90527713 1.2612035 0.44139367 1.36082 1.43416 -0.18536657 -0.73976684 0.20977327 -1.7690777 0.7227567 -0.6268926 -0.035774935 0.3151956 3.1707704 -1.3900683 0.1986848 -0.8864404 -0.89482903 0.517879 -1.0353136 0.34362122 -1.1629359 2.235083 -0.9860263
להגדיר -2.9646454 3.117405 8.864094 0.08397324 -1.4138434 0.9434419 -3.3882275 0.5360867 -0.71115863 -0.1412289 -2.3358178 0.9227635 -1.0737528 3.3043535 -3.5965145 -0.50073415 -0.36431137 -0.76729107 -0.017586734 0.67727464 -2.5951462 -2.4615834 1.024784 0.09794392 -2.0410404 0.5294076 -1.6133789 0.8350528 2.1905603 -0.037473783 0.1887985 -1.5070117 0.5725235 -0.782908 0.4663685 -1.1823088 0.47432733 -2.6075156 -2.853207 1.3806013 0.53077966 0.3519134 -0.2541789 -1.1247987 -0.83037996 -0.77812004 1.901437 0.07946498 1.4864146 0.034150448 -1.7060856 0.36664504 1.0795975 1.1768631 -0.32203418 1.4979268 -1.1186844 -0.0023253642 -1.9157848 -0.244714 0.2214481 0.0372492 0.72098935 -0.3476428 0.23916167 -0.19984096 -1.2855765 1.1658884 0.003758466 0.24086855 0.34182948 -1.2218238 -1.2140731 -0.7871831 0.2529081 -0.42014042 -0.726459 1.4215035
למסמך 5.684639 -2.896658 4.3311257 -4.6435375 -2.7146897 -1.6188831 -0.80588806 4.788418 -3.2419107 5.367727 1.2936811 2.4421356 -2.973875 -3.7725027 -0.7239588 2.7210333 -1.0465174 -1.3383621 4.4086676 2.2102947 -0.35302126 0.499731 -3.4573915 4.2251673 -1.2051078 0.47419247 -0.9289476 -1.9513187 1.7674831 0.6011991 -0.010660529 -0.3493047 0.7914243 -3.0412436 0.86058503 0.591578 2.31229 -0.10030723 0.31875932 0.2802562 3.4194489 0.96615 -1.342979 1.5632915 -0.10433595 -0.49509397 -0.7268242 -0.081876725 2.2828624 1.5476826 0.106126785 0.6815421 0.879009 -0.4303446 -0.031943224 -0.32025462 -1.254993 1.2068721 1.5270543 0.7302314 -0.25367573 -1.9475136 1.2902583 -0.45629895 -0.34952733 0.6225047 -0.37068537 -0.29098436 1.46793 0.95884067 -0.6832402 0.41842154 0.20258078 0.44830713 -0.1266021 0.51746815 -0.09631869 0.16949542
להזמין -3.003267 -2.0919144 1.7850614 -4.0181193 3.8770742 -1.00216 -0.19337456 -2.7160738 1.3673592 2.5003304 -1.3013347 -4.095769 4.617298 1.6446247 1.2121822 0.5079209 1.6981871 0.47547427 3.2720778 -1.5226495 0.9222853 -2.0907564 0.53522754 -0.35270566 3.5356045 0.72034484 -1.3289055 1.3015078 3.813188 -2.186501 1.3080847 1.6086122 1.8962744 1.519153 -2.3589356 -2.0155141 -0.3462852 1.651349 3.1100113 0.011138313 1.732816 -0.73901135 2.1846166 0.71498054 -0.7626854 1.1633744 -0.8334819 -3.076558 0.42510593 1.134132 -1.546966 -0.35926038 0.5559176 -0.23765016 0.29995742 -0.42964327 -0.121392794 0.6839599 -0.30645493 -0.58329064 2.2010334 1.4663444 0.046180032 1.0113791 1.098425 2.0721927 -1.4807659 2.4290195 0.703619 0.56500274 -0.7797542 -1.4369386 1.0077153 -0.7274637 -1.5079603 1.2708303 -0.26289138 0.88750285
למחשב 6.775084 0.3109225 2.906188 3.4123726 1.9757156 1.0740868 1.1117697 0.6227268 -1.5582471 9.036048 -2.334269 -1.4248949 -2.1551542 -2.7672138 -3.84453 2.453261 3.0647688 0.025267784 2.424125 -0.708076 -2.7380157 4.674003 1.4658566 -2.6319494 -0.636976 -3.533535 1.0642343 -0.851652 -2.1797771 0.89921236 -1.8133627 0.7972943 1.81939 -0.9398981 -0.7299569 0.45255885 0.21276069 1.9889355 -2.1642737 0.74232537 -1.072293 -0.5959781 -0.86345816 1.4230669 0.41791633 -0.5062097 -1.1765041 -1.4159873 0.51678884 -1.1818247 -0.15963337 -0.776846 -0.9665284 0.5978312 0.2798312 0.5450698 0.43116632 -0.7811742 -0.24752928 0.9048348 0.8312621 0.6640286 -1.5631531 0.039923232 -0.09873737 -0.9724458 -0.08650824 1.559079 0.4591826 0.42228973 -0.8764351 -1.1691242 0.27520815 0.20746483 1.385233 0.2637805 0.6172356 -0.46283543
להתחשב -2.0906465 3.0327628 1.8096615 0.57364327 -3.2643387 5.0139403 -4.4045105 -1.2973226 2.5348496 1.0616112 0.9394588 2.385905 -0.5643301 -0.5361493 0.5816193 -1.576856 0.103570096 0.26425004 1.6297479 -3.6467123 -0.2690286 5.6771836 0.3291245 1.2000877 -2.3153117 1.8189061 -1.4235305 0.5227396 0.5621049 -3.1580184 -3.5431147 1.2496217 2.235684 0.85547316 -0.17120561 0.0027442006 -0.3468365 1.4032804 2.2441216 -0.52538335 1.0783788 -3.3336506 1.2384562 0.38387752 -0.4289681 -0.5752428 2.3970737 4.7287683 -0.65950733 1.4613904 0.17786391 0.2074083 -1.5926731 -1.8330747 1.0087956 0.49263138 0.4317875 -0.16513816 1.3387324 0.051842142 0.66610646 -0.63837117 0.9020618 0.29395834 -0.34235108 -2.5925107 0.7394751 -0.4327959 0.33281463 -1.1493849 -0.26722464 0.34020048 -0.6710852 -0.23666224 -0.89228797 1.6356108 1.1017518 0.7048465
להחזיק -4.5474215 -2.1399064 -3.5157602 0.55895895 0.30076763 2.2119322 -3.4523318 -2.690518 -1.3702873 1.6064006 0.64895517 3.3059313 -0.08685406 3.1941419 -0.9202073 1.4671954 -1.5629897 0.24186245 -0.97024095 -2.8598132 1.588541 3.3032098 -0.9030676 1.0577135 2.0469806 6.1470304 -0.99282074 -1.6848965 -1.0811898 -1.1672323 1.5507916 -0.5683777 -1.416698 -0.23693855 -4.6085396 0.81734896 2.1180403 0.54548454 -0.9413427 -1.6558995 -2.0988796 1.1087694 1.0533658 1.9586366 -1.3212054 0.6191539 0.48279592 0.79610807 -0.3526972 -2.1796055 -0.28654012 -0.6400325 -3.079506 -0.47952965 -2.191828 0.9428865 -1.453151 -0.120805055 0.609004 0.0867733 -0.043178376 -0.13478893 0.5531124 -1.0883303 0.2520005 1.347379 -1.4077529 0.18962781 -0.20480682 -0.9335451 -0.6855238 0.7073127 -0.4729369 -1.5806041 -0.3452956 0.46511078 1.8161074 -0.45966086
להזדמן 1.4709698 6.0289626 -4.0440364 2.2054396 -2.4721742 -2.107689 -1.0106169 0.83629364 0.20004144 0.4126367 1.2220646 -1.6090899 1.105067 -2.9424326 -1.6634741 -1.6834482 -1.449692 -0.9382397 -0.89310753 -1.0189449 0.19367549 1.169386 -0.9297434 -1.1604829 -0.3052684 0.26742566 0.34283102 -0.19864869 -0.45465532 0.2774512 2.8653634 -0.2464491 -0.11573635 -0.31812176 0.017822582 0.794411 0.12527311 0.7218367 -0.8668135 2.1274283 -0.48586816 1.8783972 1.7257475 -0.4614488 -0.097276226 0.4205686 0.700145 -0.20814174 -1.5630758 -0.8189498 -2.0231721 -0.41797033 0.63474023 0.5129299 -0.6468826 -0.2890315 -0.692121 -1.0494037 1.3006876 -0.4753148 -0.11137134 0.99305433 1.6505553 -0.6175645 -1.1893736 0.06282688 0.52283686 1.0061288 0.1453546 -0.71148825 -0.9164201 -0.4113044 0.25767305 1.208669 -0.32499817 -0.74917585 -1.4328768 -2.2723382
לאזרח 3.7323408 -4.0795813 -0.5579995 -3.622317 -1.9145427 1.8073573 1.9947501 3.867238 0.6808261 1.2647672 1.1360881 2.2978985 -4.5962706 0.31522697 -2.1083753 1.1011052 0.34854764 -1.3237112 3.11466 -2.800957 0.9779882 -4.3834853 1.4238695 -4.8974733 -1.3795525 4.6029935 2.3618522 0.7888853 -1.8485805 1.3300598 2.0572805 -2.9281447 1.247927 -1.8922654 -1.5847087 3.807106 0.5246773 4.855231 2.2362926 1.3150822 0.5599746 0.72366863 1.2075382 0.363408 1.1216867 2.8497202 -1.8783056 1.0686227 0.59913325 1.996104 0.8694453 2.441995 -2.3484242 1.7074745 2.1308808 -1.790681 -0.4032759 -0.42553568 -0.6382493 -0.5521994 0.34693784 0.7736356 0.16307141 1.6990528 0.438258 -0.57477945 0.16516429 -0.36211333 -0.36387223 -0.21996786 0.010424221 -0.93429154 -0.16933198 0.53707415 -2.1558104 -1.0097363 1.5047 1.2691036
להיגמל -2.456178 3.3708868 -2.6851795 -0.28470382 0.9074124 3.182096 6.580673 0.86501163 -0.62978363 1.2357094 2.7596352 -3.3937047 -1.8673985 2.9091115 1.9731983 0.6798736 -0.67612237 0.6156923 -3.8011343 0.7294908 2.6802862 -2.0510788 4.0984073 1.5579928 -4.2479005 -1.5320879 -1.6586934 1.8102205 -0.48237795 -1.4644871 -0.24381605 -1.7462415 0.4016703 -0.5593051 -1.235502 0.6720522 3.0708063 0.91382456 1.284366 0.9904751 1.0704987 -0.41053104 -1.0168974 1.0772486 1.6302136 1.4791509 -0.5759616 -2.320498 -2.7335048 -0.3604282 0.61813223 -0.6440634 -0.05806774 0.37959483 0.4296612 0.2297229 1.2209212 -1.6347454 -0.025467174 1.1205883 1.2572939 -2.6883197 -1.3786688 0.14064945 -1.3480786 1.3355898 -0.5649282 0.15579459 -1.398357 -1.6095514 1.5676733 0.3862312 -0.044147637 0.74026734 0.89796215 2.9685912 1.6297524 -0.41109604
לתגבר -5.652461 -6.619018 -0.39848974 3.3783062 1.1361022 -5.0270157 0.608335 1.2907294 0.23412874 -0.9965595 3.7016585 2.177647 -0.0972755 -0.8885696 -4.123478 1.0177217 -2.4852703 0.61826026 0.8441273 -2.473849 -1.852745 -0.25978824 0.83448774 0.6232565 -1.5769429 -0.99099874 -0.7929562 -1.0008112 0.6822487 -0.6502292 -3.582596 1.3918054 -1.3905212 0.65179485 -1.437437 -0.042015534 -0.40195522 0.713534 -1.6354128 -1.003715 0.55537665 -2.8612616 -0.60892826 -1.1158122 -1.8661222 1.3743001 0.28359637 0.117295444 -3.018413 -0.5749981 -0.069487184 -0.39751074 -1.0196224 -0.6839325 -0.05458602 -1.8099788 -0.016737845 0.74103475 0.24615358 0.74292755 0.660691 -0.6977809 0.08685267 -0.7273036 -0.30970955 0.32349226 -0.8299452 -1.6325854 0.76823395 0.48919213 0.63106924 -0.06294045 -0.6212721 0.31701133 0.045883548 -0.18546717 -0.94914114 -0.7160529
להתגבר -5.181859 1.6747406 0.54791886 5.778903 -0.17226847 3.836985 3.914198 0.3375318 -0.13071972 -0.22184971 0.7996449 3.868842 -1.7396729 0.7607634 -0.40239498 1.0859038 2.6700613 0.03794463 -1.0455259 4.441213 2.1077325 -0.33347744 0.6083287 0.3175595 -2.8803592 -3.430878 -1.1357318 -1.0393825 -1.3377036 -0.6689107 0.9925616 0.2718715 0.8532732 0.4373939 0.07656937 0.88547105 -1.4464787 1.5466152 1.0520971 0.9615707 0.021258041 1.3565503 0.79305035 -0.61169344 -2.1801438 -1.2167335 1.662868 1.2773902 1.1113523 1.3816209 -0.3941881 1.9713156 1.9115207 -1.9900365 -1.46677 -0.32032937 0.21843654 0.32405123 0.11462054 -1.9233286 0.9727068 -2.809187 -1.4131465 1.8834208 -0.41386926 0.608829 -1.4813234 -0.55078024 -0.7834732 -2.5217934 -0.4532893 0.4288898 0.34277934 0.79935056 -0.060808513 -0.5081455 0.7321484 -0.14280958
לזמר 4.845331 0.16373698 -2.7268815 -6.8940554 4.0420847 -2.8514333 6.632707 0.973863 -0.849198 0.50236905 -2.6866753 3.313583 -4.4840293 0.50550145 -0.7032483 0.35708383 -0.65969104 -0.096679404 -0.18045512 -5.1043715 0.44787973 -2.5022388 -1.8396574 -2.912804 -1.1331787 0.46700126 1.2226976 -0.43251926 1.6033905 1.555454 -0.7367929 -1.1689092 2.3696644 -1.1036509 0.7818104 -0.23073022 -1.3583297 1.1128501 0.13903794 -1.3643378 1.1111976 -1.5319532 3.9329903 -0.050865397 -2.0222106 -0.37814906 -1.5838132 -0.6747113 2.3885589 -1.0492997 -2.7970738 -1.0782068 -0.31449497 -3.772326 -0.22602245 0.08573052 0.32793665 -0.62431234 2.9806826 0.955556 0.04050252 -0.6121696 0.06458503 -1.9376186 0.45213276 -1.9656054 -0.52735865 -0.029870572 -1.4689487 0.42348546 1.7550226 0.36719003 -0.7099049 -1.5941428 2.727891 0.7273816 0.13162392 -0.6887664
לספור -1.5555701 4.48366 3.835361 -2.1700778 2.3720138 -1.1411955 -3.236153 -4.0607433 1.9852849 -1.2835 1.6321313 3.0743906 3.7778223 0.8249427 -2.710825 0.84038335 1.6310694 -1.1245164 -0.09452219 2.1612318 0.65270287 -0.30414072 -2.3030913 -1.6584927 -3.3395832 0.5539235 3.166911 -1.8062968 0.6708362 -1.0421438 -2.2818978 -2.6274235 -1.8251072 0.8526578 -1.2682635 0.18003254 4.693688 -3.3438725 2.8855577 -0.25186005 -1.2846498 0.17544548 1.9745226 1.9675621 1.8798012 -0.052794244 -2.0059803 -0.24438512 -0.33754987 0.8013879 -0.90952593 -0.5248577 -0.12096873 1.0626944 -0.37890458 -2.2020957 -1.0786809 0.19421497 0.12951885 0.07396973 -0.37728214 0.23709571 1.5105404 -0.5016995 0.16043286 -0.32098502 -0.3337909 -1.1317167 -0.9869414 1.3037777 2.0913858 -0.5950793 0.2037865 -1.051061 1.3291345 -0.6333485 0.41958606 -0.50664604
