להשתכן -0.6124056 -1.6346531 -1.4080828 2.8847544 -0.80707586 -1.196927 0.1367232 1.4294925 -0.94101447 0.49278235
לגבור -2.6132255 -1.0677978 0.6916241 0.42490992 1.2045846 -0.041594103 0.43932128 -0.9381116 0.68741107 -0.7154681
להאריך -0.9292439 -0.7568604 -0.3427702 -0.70881176 0.0230381 -0.33584842 -0.8923594 2.4137626 0.42846167 1.8342565
לתצפת -0.8294065 -1.4065341 2.5508645 0.7095857 -0.27696264 1.5447464 1.0725062 0.7531569 0.1826978 -1.4376625
לגדר 0.7084975 -1.3043381 1.9449204 1.9250336 -1.2997696 0.19197883 1.1703157 1.482887 0.5027035 0.14839403
להשכין -1.775768 -1.1536819 -1.7918105 1.5267686 -0.8478726 0.9304277 0.47689304 -2.3341506 2.8140256 1.010237
להמריץ -2.309402 -1.8604761 0.38614342 -0.87566733 0.7394997 -0.56869215 -0.9405483 -0.7327707 0.6316931 1.6766343
לסקור -0.5318544 -1.91474 0.8170073 -1.1862473 0.31340644 2.5099676 -0.8365871 0.8621874 0.76726913 0.24654151
תעתיקים 2.2186985 1.663279 -0.2353527 -1.679627 -2.1110218 1.6892009 -0.7259758 -1.713231 -0.237523 -0.8601165
להפקיד -1.1432415 -2.9192724 -1.6060549 -1.0162917 -0.9475388 0.51585925 1.028848 0.1735334 -1.9352949 0.79665214
לתזמן 0.11310642 0.6162847 1.6751894 -1.3873632 0.2415923 0.7160904 -0.9963822 1.076283 -0.64240646 1.5283359
להסמיך -0.37092203 -1.3261681 -2.6941223 -0.6118586 -1.6536952 -0.503951 -0.42996258 0.46685755 -0.9297096 -0.44291332
להבטיח -2.07453 -1.8641976 -0.024616886 -1.862538 -0.4472333 -0.580756 -0.40169272 -0.41688025 0.12095041 0.38983667
להצליח -1.761894 0.8043541 -0.58075315 -0.0186717 3.202225 -0.8800846 -0.9735769 -0.31321037 -0.14152718 -0.4402109
לסמוך -1.7305032 0.035433587 -1.4908471 -1.0551869 -0.6631081 0.75638616 1.8674265 0.21557361 -0.67330396 -1.7458817
לחשוב -1.4563711 2.1130226 -0.7478482 -0.8131378 1.2833035 0.53157157 0.53194416 -0.10128198 -0.29980505 -2.0856993
לזכור -0.76239616 2.0548244 -1.0975835 -1.3494382 0.55513084 0.76701945 0.6784261 0.7012763 0.37049928 -1.2361889
תחקיר 3.5990186 -1.8774331 -0.6847432 -0.5241217 2.1096525 0.4955192 2.5778885 0.9309252 1.4513111 0.31901273
להתארך 0.6192223 2.936366 1.4158036 0.4535327 -0.8739345 -0.98716646 -0.64490384 2.4178004 1.5348254 -0.255308
לתפקד -1.0231249 -0.1479885 0.93489695 0.13373512 0.69529366 -2.1803973 -2.298004 0.7842728 -0.84461075 -0.5190898
תגבורת -0.666481 -2.5009913 1.5382878 2.709351 -0.63435775 0.82908756 1.3795364 -0.55495715 0.7737939 -2.0344589
לתגמל -2.0091987 -1.3826406 -0.7153342 -1.0829697 -0.07185754 -0.8237279 -0.8577935 -0.7639084 -1.1098384 0.08213479
להתקשר -1.5521913 -0.69248307 -0.5283718 -0.19537918 1.1447029 -0.21952668 0.49490827 0.33944944 -1.6902745 0.1796791
לתקשר -1.5123425 0.83588976 1.0937226 -0.4818619 1.5204636 -0.04998115 -0.5464097 -1.3715098 -0.353478 -0.47863674
מסמך 2.4535918 -2.0963247 -2.044692 -2.460808 -1.3294199 1.8381797 1.272021 -0.79676217 -0.19064586 0.36426994
תקשורת 3.6528401 -1.9840813 1.2658051 -0.84225714 1.5273046 -1.561537 -0.26289377 -1.5613391 -0.3089386 -1.1421186
לסמר 1.135476 0.15719178 2.6354005 2.259698 -2.0725825 -1.1941117 0.9739125 -0.1050871 -0.13594359 0.49220422
למרפק -0.074412055 2.3704689 3.5809581 1.3305057 -2.032803 -0.5439185 0.53307563 0.9259242 0.55145836 0.9016223
לחזק -2.2215388 -1.9817458 0.047142368 -0.22560139 -0.93152755 -0.10575686 -1.7891655 -2.0461285 1.4791064 1.1844319
תחזוקה 2.6042964 -2.1747217 3.1820173 -0.3561452 -0.23118384 -1.2562206 1.284133 1.0362799 -0.652291 0.22031918
לקשר -0.73937577 0.35041285 0.12752734 -1.4490215 0.18889517 0.112398125 -1.1300851 -1.2216674 1.5847635 0.33210334
לתגבר -0.81944287 -3.14276 1.9976916 1.6824225 -0.16287877 1.4555173 -0.11968123 -0.1848349 1.5817368 -1.5774758
לסגור -1.0256946 -2.911461 0.034471583 0.307459 0.2706698 0.56185627 -0.12399604 1.40711 -0.6665533 1.8328146
לצלוח -1.1592633 -1.3145162 2.511974 1.5284758 0.8807549 1.2111149 -0.7676197 0.36683258 1.8366436 -0.5687377
משכון 0.34159315 -0.8576737 -2.0122135 -1.490186 -2.5205202 -0.6205587 2.845404 -0.09561766 -1.905005 1.2671889
להיזכר -0.9779252 2.6230133 -1.518341 0.039291833 2.1248238 0.8060486 0.9261599 1.139073 0.22195229 -0.28428861
תזמורת 3.3971455 -1.0494556 0.13341872 3.5138206 1.3778368 1.3936776 -2.193708 -2.4420474 -0.44745564 -0.1825524
להיבחן -0.2715132 -0.117027 -1.5935107 -0.23456715 2.5356836 -0.4398993 -0.8593127 0.81568056 -1.3786308 -0.2372481
למסמך 2.2060778 -0.658743 -2.2537897 -2.2820566 -1.5512142 2.073547 -0.14594421 -0.5322139 -0.13141164 -0.86985815
להחזיק -1.6269287 -1.13197 -0.15081985 0.43517765 -0.99343014 -1.344917 -0.87382036 0.23623243 -1.3825938 -1.0211751
תגמולים 0.8617729 -1.7574866 -0.58329433 -2.1235347 -0.5534347 -2.2223728 1.9830871 -0.6128498 -0.0073885266 1.5323527
לצלחת 0.7973717 1.4731492 3.1763034 0.8370576 -1.0892134 -1.3803344 0.7844045 -0.09749681 -2.458712 0.5235461
למלכד -0.74394983 0.17345925 0.79796255 0.9514834 -0.5758605 0.15751761 0.6292805 0.7185131 0.02258267 -0.37212133
תפקידים 3.0413828 -0.9037644 -0.8342157 -0.08658274 0.3889517 -2.4704897 -0.8760281 -1.6518458 0.3314557 0.00055335584
לזמר 2.1407971 1.0102128 -2.4486709 3.163301 1.693056 0.50165004 -0.34982282 -2.5655448 -1.2258376 0.14498399
לתעתק 0.9837164 1.1940598 -0.07979741 -0.5933121 -2.5208993 1.3351405 -1.5026512 -2.3270109 -1.3301649 -2.1137261
לספור 0.4521023 1.7888497 -1.1293696 -0.11694607 -0.7168884 0.94372714 -0.40756842 2.3907866 0.44854736 -0.57133937
לגמול -2.1030626 0.48913437 -2.0682847 -0.6302675 0.08074504 -0.98634034 1.7798346 -0.25594947 0.4584683 0.654564
להסתקרן -0.14461027 2.712827 -0.38577998 -0.31735948 1.1110129 0.28218052 0.7353734 -0.56368726 0.13108446 0.30160058
אבטחה 2.7634616 -2.4987369 2.305908 -1.1847186 0.39152807 -0.86186683 1.1630116 -0.018662142 -1.1098622 -0.6446524
להתחזק -2.26391 -0.12876181 -0.15185206 1.0317521 0.5988287 -1.5265825 -2.1587882 -0.5526309 1.6092441 0.20915586
להיקלט 0.19143623 -1.03027 1.0237731 0.5926485 0.1934938 -1.3392541 -1.4749458 0.20436884 -0.4722819 -1.2093763
ללכד -2.7144983 -1.5036854 -0.2406192 1.1105797 -0.90852284 -0.3355373 -1.3144923 -1.6905223 1.1705072 0.2986372
לתחזק -1.7139591 -1.9423453 1.3493911 -0.5932797 -0.40967104 0.3976451 -1.4263389 0.19683199 -1.0478358 0.8703654
אזרחים 1.7863264 -2.3802457 -0.75533 1.7198337 -0.8562498 -2.7206745 1.4218276 -0.052226577 1.2997383 -1.5365645
לסמור -0.3063288 4.055108 1.2274301 0.78809595 -0.9189653 -1.3155109 0.9302983 -1.314927 -0.15381004 -0.5442477
להגדיר -0.2817636 0.36702117 0.33884054 -3.0072944 -0.68509537 0.8223632 -1.6231614 -0.9694578 0.066428676 -0.8749808
לבחון -0.77629745 -1.1704125 0.07321005 -2.6825025 0.44336614 0.8960252 -0.3444714 0.67004997 1.2857376 1.0246046
לסקר 2.1591651 -2.1304884 -0.75398535 -0.14329801 2.5967407 1.4955536 0.86815643 -0.16502509 1.9720745 0.24720815
לזרוח 0.1888755 3.478858 0.52607876 2.1886225 0.8570919 1.7607284 -0.41540164 -1.5898997 -0.27282634 -0.1612944
מסגרת 2.4003239 -0.13280992 1.2163166 -0.81042904 -1.7640792 -0.97160923 -1.6955649 -1.4312887 -0.9685893 1.4328728
לשכון -1.0232626 -0.07008021 -0.071252435 2.167809 -1.360981 -0.7211142 -0.71253103 0.43993336 0.17179726 -0.14734825
מסמר 1.0829375 3.4785838 1.5040056 0.7399533 -0.72531134 0.7318253 2.1201653 -1.3589004 -1.0958394 1.4692165
למחשב 1.9096117 -0.14889386 1.6105064 -1.9006988 1.5876701 1.524609 -0.27127388 0.3179218 -2.5660992 0.2561552
להיסגר 0.5932625 -0.9457207 0.7841741 0.68903226 0.26867124 -1.4836453 -0.5981664 2.9288073 -1.6038721 0.7477466
תזמון 2.0456674 0.7803691 2.298323 -2.5877962 0.74842435 0.034209717 0.11600368 0.22241244 0.389291 0.8323847
לתקלט 2.330191 0.43059486 -0.9048137 3.0917306 2.9649994 -1.0636946 -1.9553171 -0.6529052 -0.33358502 0.51075554
להזכיר -1.0563495 1.601036 -2.7519424 0.124229915 -1.2763104 1.6056066 0.43415108 0.029981822 0.074088655 0.04222662
צלחות 2.7082078 1.2756809 2.5793593 0.65870017 -1.6796367 -0.18595737 1.0714984 -0.90904325 -1.1548696 1.8320651
לצפות 0.10726979 1.552458 0.28429905 0.36731455 1.818291 0.59064156 -0.44096896 1.6451355 -0.63251376 -1.0965503
להזדמן -1.1398284 1.7143798 1.0271342 0.7137832 -0.9367671 -0.4959778 0.51869375 0.16101931 -0.25447413 -0.42109168
לקלוט -0.46710107 -0.7400648 1.8986751 0.53377014 0.55622303 -0.417536 -1.348361 0.703588 -0.8580322 -0.63251305
לבטח -1.2671639 -0.4535705 -1.4365907 -0.21913242 -0.25709397 -0.3163808 0.9171277 0.25162023 -1.1986845 -1.5175347
תקליטים 3.9395583 -1.209927 -0.7348245 0.9989153 1.5320628 0.37333772 -0.2042686 -1.6845524 -1.3987094 -0.7871822
להסתגר -1.9957725 0.36347288 -0.95146155 2.7360237 -0.22560522 -0.7760263 -0.021794267 1.1083502 0.37236515 0.52963364
תצפית 3.0166693 -0.50355244 3.72852 0.91210204 -0.6788606 1.2782575 0.77816516 0.32797882 0.7158162 -1.1969205
להרגיל -2.2834733 0.9916216 -0.25423074 0.48470673 -1.0057492 -0.11349002 0.084190086 0.42592144 0.4232254 -0.3760267
להיסקר 1.559783 -0.23859662 -0.96675175 0.5388902 -0.35424444 0.35098597 0.3406936 0.21658263 -0.93555945 -1.4729445
להתפקד -0.3090709 -1.6847516 -1.8924929 0.838655 -1.1395919 -1.0708221 -1.1273237 0.10547593 -0.06194441 -0.8227918
אזכרות 3.9216576 0.09267776 -2.2784102 1.9369402 -2.0927148 0.112605855 0.32255986 1.0948592 1.3264788 0.44767216
לתמרץ -0.6069899 -1.7801533 -0.013894769 -1.9440384 -0.7829659 -1.9882896 -0.44899678 -0.6962658 -0.6393201 1.0370317
להיפקד -0.41883957 2.006782 -2.2220519 1.4664898 -1.2027978 -1.6080569 1.6365318 -0.21885523 0.63976514 0.49326184
להתרפק -1.4099163 2.6261075 -0.24662988 0.6504502 0.32354593 -0.23127425 1.0947325 -1.4454911 0.17268932 -0.49407104
מגדרים 2.446877 1.053097 -0.45559904 -0.43695098 -0.47520494 -1.5498182 0.66312754 -2.5626693 2.6111732 0.7662049
למסגר -0.95705557 1.4433175 -0.107699566 -0.32257387 0.14354047 1.8070264 -0.86146194 -0.46879604 -0.3437653 1.4713176
לאבחן -0.39263105 1.9537467 1.2433944 -2.5005777 0.8596492 -1.1096704 0.8246762 1.7442472 0.80932266 0.35085338
להתאזרח -0.521758 -1.7999908 -2.7877407 -0.14468476 -0.5918982 -1.5699521 -0.16296002 -0.020604897 0.43778482 -1.7601146
לסקרן -2.0554695 1.9221216 0.00053266675 0.021369003 0.20443586 0.11094842 0.6888814 -0.43771815 -0.4558951 0.845973
לחקור -1.2796336 -0.95267487 0.19802941 -1.3751639 2.03063 1.1747384 0.47127655 0.5722554 1.7535875 0.39860225
מספר 3.3202279 -0.24806608 -0.7335999 0.30438608 -0.12396904 -0.9348236 -1.4822035 1.5349116 0.18458077 -0.604857
להתרגל -2.6306028 1.4870689 -0.6800416 0.92115635 1.6369201 -0.6528296 -0.94628334 0.4334534 0.11696351 0.1372523
תרגילים 2.2711942 0.6060599 1.581748 -0.73591423 0.9393008 0.02727466 -0.21637996 -1.0030762 2.1588764 0.8333335
להתלכד -2.0509703 0.1460994 1.5143301 1.3408352 -1.9424596 -0.02019029 -1.1502221 -1.0770619 0.80541474 -0.043480415
להיחקר 0.50267184 -0.7180983 -1.3999239 -1.8121642 0.6555755 -0.011424435 1.1012713 1.8937544 0.38215476 -0.8831592
להגביר -1.4666508 -0.90755767 1.25727 -1.3477703 0.34004644 -0.8649918 -1.0740741 -0.5495738 1.1545168 2.020694
לאזכר -0.082588695 0.66349936 -2.2822943 -0.19306506 -0.9694611 2.1941423 -0.32489598 -0.7300676 0.19006453 0.6929493
לספר 1.2353082 1.2186816 -3.0967286 -0.25859478 0.84421587 2.8199463 1.8584104 -0.47024366 0.13188744 0.48921016
לאזרח 0.4172659 -1.8281444 -2.3038793 -0.40330583 0.82203233 -1.562428 1.0030279 -1.0675101 -0.56577593 -0.9700402
להיספר 0.7975824 0.8486169 -0.8821824 -0.5640181 -1.2427027 -1.0180576 -1.2689402 1.951228 0.40281093 -0.9408945
לפקוד -0.43105918 -0.4492811 -1.8130517 3.1765096 -0.20459324 -0.11155158 -0.6971691 1.1696222 0.12045766 0.41626096
לרגל 2.5731304 -0.6185902 -2.5848591 2.7056465 -0.043922093 0.6686741 -0.061248954 0.46420926 0.9715409 2.4474452
לתזמר 0.43234086 1.7511114 -0.5198806 0.08615034 0.48503333 2.5632424 -1.6970503 0.28310272 -0.76904947 0.41108564
להיגמל -1.3756585 1.4788963 -1.0956551 0.12508084 3.0069935 -1.8843821 1.0926666 0.6814939 -0.47262898 1.2179466
למגדר 1.19167 1.94128 -1.7142699 -1.7204572 0.2025296 -2.0493407 -0.36506107 -1.5556954 1.4351261 -0.17353103
לארוך 1.9274198 1.7488452 0.5541979 0.16954158 0.38652188 -0.684094 -1.0803738 2.853727 0.3384042 0.30339494
סקרנים 1.024587 1.0739479 -0.03126587 1.6251736 1.5050936 -0.44422987 1.7481699 0.51344186 0.5617241 -0.6624914
להסתמך -1.0263491 -1.0956119 -0.37871027 -2.196131 -0.97165084 0.24867219 -0.21326712 0.14947014 -0.39363638 -1.3130056
להתגבר -2.481044 -0.35989967 1.290999 -1.3104786 1.3840109 0.21452436 0.4808335 -0.1321785 1.1020553 0.69569105
להילכד -2.0591717 -0.063679755 3.1434615 0.5765974 -0.17608406 0.26816946 0.5241058 0.1957203 0.055204663 -1.2815887
למספר 2.990746 0.22907056 -0.5972456 -0.55048245 0.28173587 -1.4411414 -2.4436843 0.52274746 -0.042794783 -0.94657594
להתחשב -1.0356508 0.3778217 -0.2306452 -1.9047446 -0.8704199 -0.5796516 0.15206301 0.65610194 1.2694144 -1.0375383
להעתיק -1.2068038 -1.1818606 -0.4575734 -0.32531953 -0.41931206 2.8066688 -1.7362866 0.67700416 -1.0694697 0.6239089
לבטוח -2.1716359 1.0903939 -0.923374 -0.027750857 1.3684137 -0.8863528 0.9824651 -0.35031876 -0.70620847 -1.9907017
לשכן -1.262311 -2.084199 0.4162651 0.1692979 -1.5526466 0.7815934 -0.5746601 0.47863406 -1.7662407 -0.5360671
לקשור -2.7301204 0.25788373 0.031380467 -0.2832138 -1.2021511 0.14620748 -0.67554504 -1.5323777 0.57849795 1.2054818
להסתפר -0.86433965 2.2101007 -2.4319642 1.6189141 -0.9909503 -0.30981737 1.0782168 0.91032493 -1.0118865 0.5976483
מלכודת -1.1040969 0.7754047 2.2277932 -0.18770929 1.3404332 0.87735605 3.2571857 -1.2445241 -1.295654 0.92793566
לחשב 0.10571057 0.44505572 1.605819 -2.8703165 -0.37043133 2.072355 -0.1649032 0.83335316 -0.03441015 -0.16643077
להזמין -0.30624786 -1.1394978 -1.4379085 0.52579385 0.8521257 0.62497973 -0.2842291 0.0061938977 -2.5312445 0.87417185
להחשיב -1.2805885 2.1936305 -1.5743879 -0.9315225 -2.0390456 0.36241975 -0.8015269 0.5510167 -0.47303146 -1.4998633
אבחנות 1.8637972 1.8466306 0.0076714805 -2.6909661 0.28109902 -1.7034677 0.9109734 0.60876393 1.9674635 -0.42939952
להקליט 1.0796404 0.5676557 -0.8150449 1.1562214 3.0077817 1.4109007 -1.7503518 -0.27215838 -1.2759373 1.0507191
לאבטח -0.87734157 -3.3285813 2.4551733 1.1315496 -0.6475267 1.3909211 -0.057147253 -0.05797246 0.53586835 -0.63798106
לזמן -0.27900717 0.5773417 -0.62715393 0.74159044 1.832061 0.22277607 -0.69223994 1.439061 0.36538756 0.2268735
מרפק 0.8858719 1.8666571 2.1736102 1.0193678 -0.14754693 -0.49943557 1.9840548 -0.17250125 0.40316838 0.5603909
תאריכים 4.961857 0.59667546 -1.6106889 0.039536204 -1.0218803 0.7776937 -1.0734036 1.0567864 1.3509479 -0.22626102
להיחשב -0.4236461 1.8678464 -1.1121668 -1.6889943 -0.44695717 -1.6621073 -0.6756057 -1.0274913 -0.8096372 -1.9812601
להבחין 0.37304184 3.0107193 1.4584858 -0.8362474 -1.0828595 0.33193868 -0.87375575 0.56344754 1.2473489 -0.8940984
מחשב 2.9069772 -0.3929855 1.9092892 -2.4764578 1.8311772 0.24493408 0.057005644 -0.67032254 -1.5887512 -0.25355837
ללכוד -2.7770321 -0.6239744 2.0421212 0.8865207 1.0848936 1.0142689 1.212125 -1.4781743 -0.24857454 -0.28549907
להסגיר -2.534357 -2.3860593 -1.5853026 0.92562014 0.01518753 0.31181282 2.7700915 -0.604299 0.009885586 -0.13869151
לתרגל -0.7313638 0.9795503 0.5429837 -0.22953655 1.2434443 -0.35155866 -1.0994892 -0.1876731 0.81389695 0.5321171
למסמר -0.5216026 3.2786465 1.3705443 1.1118228 -1.0789102 0.5993142 -0.034754228 -0.5176709 -1.3843707 0.79667914
למשכן 0.43907708 -1.3543916 -1.3905809 1.9363554 -2.0303764 0.77276707 0.16421679 1.4543507 -0.9020146 2.4875185
לתארך 0.6554394 1.2571079 -0.8372604 -0.9373078 -2.2723272 2.4539418 -1.0070852 1.3937719 1.533467 0.4072837
להיקשר -2.1537106 1.495247 1.8891361 -1.1765549 -0.77561843 -1.2679797 -0.563139 -0.86483294 -0.84295523 0.5624537
לתחקר -1.0302987 -0.9817633 -0.18483914 -0.03658112 2.2878764 0.33912164 1.790936 1.3183239 0.51265794 -0.032272454
לפקד 0.34645456 -3.149459 1.3789067 1.7965811 0.15437421 1.2528906 1.1405804 -0.080828145 0.7159025 -1.8556376
תמריצים 0.9275436 -2.2273908 -0.24649145 -2.4024544 -0.25229195 -1.8093184 0.26246557 -0.8581597 0.13275588 1.5839227
