להסתמך -1.9159853377228258 -0.0694904514801814 -0.5430131387269146 2.442132923299063 1.7567783988024865 -0.4656719308709733 0.32366029468829444 1.256124391968644 0.7148131271877569 1.3011017934036593 1.1591851653156993 0.060506641264900116 0.16044119660849188 0.4753382243519791 1.348087542062112 -0.7583213654992703 -1.2869201385739886 0.7682007417702105 0.7162218733396836 -1.0480425495545345 0.3169721828316587 -1.4412708952032638 1.1332639642101225 0.21430035864216043 -0.44657110965588376 0.8056502546152569 -0.14020210023000032 -0.11963080363937349 0.7354247381510178 -1.1830553659899943
לתחזק -2.5330284619323886 1.8931772286327038 -0.8379304044174877 0.9092988664268467 -0.352387019040537 -1.020273501510373 1.3952651046937476 -0.6542112118024187 -1.2041945456103589 1.3469030278147451 -0.33196857460273543 -1.5706383892872506 -0.5710985506751369 -0.8124933020744446 -0.5460224484589723 0.10775790644854658 0.5861780209095043 0.4260065679126275 1.3614841151028252 -1.7586143152488694 0.34649690390229565 -0.07184272319341116 -0.1060697560990527 0.2802502682418013 1.2389082338849315 -0.5118535506282395 -0.1681859326763403 0.07585180200056053 -0.35866617850288046 0.18085190875583282
לתקשר -1.735660203871406 -1.264328549188634 -1.7874627250362907 0.495030988345901 -1.036973931713774 -1.4411379069842136 -2.2296204817490017 0.999784273137904 -1.2244793282486528 -0.30811526925212473 -0.973016234061803 -1.509024501081924 0.731868846121507 0.7441194997762185 -0.44165949744870453 1.8262006605646397 -0.5593706166039663 0.43126453200545134 -0.611941088076753 -1.1598603951000437 0.7906756686893398 -0.7584620649079428 -0.5566890519774226 0.0829855850198028 0.763532740749048 0.5129746190123771 0.8584018451159351 -0.06376313525323578 0.027149776458297224 0.034702447258952974
לתקלט 1.6879175652347602 0.27845287574496275 2.317337857552101 -1.0340298536565493 -4.078889750808159 -2.7998212070322377 -1.3262351911481913 -0.3916522387550946 -1.7140440305362936 -0.3721394429574182 -0.2151268929548507 -0.8148058144869804 0.18162318588935855 1.2701659773444276 1.2577455366642325 -1.5863284909907682 0.5624547808588781 -0.7782352830674284 2.1444205163638532 -0.0923877949622609 -1.1280149071073726 0.7611347320725427 -0.07786861196340857 -0.6016974077277184 -1.6222498137784505 0.05257462742617181 1.8119083842947719 -0.7242123800832595 -0.8344881182073453 -0.542862414242141
לזכור -0.5538032731412593 -2.530657584657729 -0.25768992592284684 2.4770751097120693 -0.13948288762843722 0.08150799669386244 -0.34244183294117525 0.8962410759257013 1.3746296231693527 0.022791715562759152 -0.3110459719842424 0.6864344695386493 0.041139492682474174 -2.1240071195609014 -0.42966463055822024 0.4468309327212843 -0.03353304112508357 -1.669181324550772 -0.06379540356772634 -1.3901267654701945 0.7769048868449022 0.03530692942192929 -0.45012630890507394 -0.7270767837112317 1.2040794090377813 -0.17110966722048426 -0.751297213270354 -0.603384458190501 -0.9617770166268952 0.12617793933156582
מרפק 2.4043948837373303 -1.5228496525858204 -1.968922173363744 -1.938741496756973 -1.4240645593784056 1.8479478804884888 -0.9844774294707294 -1.6325310293108328 2.4414998956601637 -0.7695500510891682 -1.0031864511805257 0.28052884090909674 -1.9296523095097564 1.1159069152676229 3.567996327924164 0.7899208734994523 1.0325227551237375 -1.2597667820813185 -1.9685866184436527 0.5648220422318756 1.1525477644796178 -0.09263912704490715 0.25587160775350987 1.1402721282182373 -0.47242787515579077 -1.0336210890282742 0.5832359214934534 -0.738444069369128 1.3483139563458206 0.25457193571232967
להיבחן -1.1113816573283386 -1.063579783601142 1.3620773942730384 -0.05779190530816618 -0.3569874422933095 -3.164967975492917 -1.9504284011799877 -0.38356219066303604 1.3108892201181008 -0.04220097686378452 1.542622964017136 -0.4779758279082067 -1.8984622710488632 1.9349215689971666 -0.1259734021939914 -0.1533312719927216 -1.706961156178463 0.7584820277648759 0.09250805441015879 1.7905238303295326 0.9942732830498862 1.910303172495688 -0.298855927129312 0.5864564742274331 -0.842217422031167 0.24349927143188116 0.6533835272320087 0.16403605068349583 1.258026638167469 -0.5097418509386639
ללכוד -3.0196715613951755 0.7642012788283524 -2.1132667204822417 -0.41374636521513136 -2.07190292131913 2.2967390242635815 -1.5623676593979356 -0.13188107152562112 0.058035790624043876 0.16253119621374032 0.6207305025132276 -0.5189788442346486 1.7016142712559192 1.2963892491355167 -0.901606902271005 0.40461547378437096 0.36478065808213295 -0.38283669786414953 1.0545231411845704 0.24011637520848153 0.855618280388265 -0.6236235968322484 -0.29550014902841987 -0.1015989827307211 0.799762801911315 0.23658079576451213 -0.11274106900454511 -0.39715487568724966 -0.39826707165457 -0.45663768986851
להתארך 0.9413113964570183 -3.5273246542275554 -1.6307388569703445 -2.125971135348602 0.9758888950391277 -1.030931091318633 2.682283277108049 -0.05141125399704394 0.6633682830503329 -0.31460201672144494 1.7205134222407688 3.098385921349443 -1.1893408848078053 -0.22589129010423178 -0.4770449469874318 0.6542056580645562 -0.6050188203326277 1.3960529688070145 0.05493920546744799 -0.10729340852820052 -0.721446588153019 0.7868874124347688 -0.4903717676706882 -0.5009172678405425 -0.5346925805020003 0.4026276995877513 -0.025585820215299385 0.3552665738640781 -0.17008978329479915 -0.0759738015328023
להזכיר -1.1319969547942934 -2.485199690657178 2.8782392109882675 2.458170824612442 -0.837339221573858 1.360290198916022 1.0434335223431885 -0.38429296596918283 1.6315916344486199 -0.2790093419066711 -0.5622366652133557 -0.2811281115393527 -0.5062211515641291 -0.5871316722312184 -0.14170499612468043 0.5995364718717335 -0.44012243714329435 -1.0536540482776955 -0.1827619033901589 -1.0952929333785677 0.16497954759978242 -1.16771910248481 -0.14307172552798753 -0.14389279106307287 0.08372259762460425 -0.230311423434895 -0.6260610146528846 -0.30031684932952113 -0.008001072481693598 0.01071032855053233
לארוך 1.9155946692894592 -1.5459426028080998 -0.6739915599540783 -1.18009406989615 0.5713942523826736 -2.039109641925509 1.9239827043808704 -1.0456433225399189 -0.8996908256449947 0.4622396355536003 1.3564451646934488 3.297050638848201 -1.0073328793094718 -2.2985002354064443 -1.8163999273882585 0.8078792795923643 -0.26034549703959553 0.5812875419565467 0.12470403662805146 0.6418072320320748 -0.2613836215112543 -1.5500659698274888 0.5378521027315633 -0.36632392957630033 1.4799514038812245 1.2033431343221739 -0.654721005953241 0.01959645602770247 0.3320464407862842 -1.5965568276848756
לשכן -1.6694315019090815 3.0801300235439166 1.0644978045109308 0.10320920554702881 -0.276521062133327 1.1700916333523312 2.028177232568585 0.8023555498560756 0.015806199882409576 0.4392402511064391 -0.4022922615764673 -2.208025467677154 0.52400997881108 0.0704059487584072 0.06759533117220107 0.2185937481039564 1.6126437586233648 -0.007430626511799008 1.1503279330381722 1.2997572249059266 2.234985571015664 2.220106261706011 0.602942549145728 -1.4442351724495555 1.4385806236515866 0.5410035898127548 0.9371151612771913 -0.9523093166198559 0.058306950710297095 -0.38867813288326974
תזמורת 2.8532943048008965 2.3925665158690608 2.3403238969720195 -0.28708718983403864 -3.227464682707815 -1.278675453704297 -0.612955120906885 -3.0160095848051616 0.11371988141376024 -0.0390966943395323 1.745259152192811 -2.8088612508827135 -0.16110470008664457 -0.6158186051016672 2.018261456580464 1.7069725972934624 0.653048805538804 -1.369300550012654 0.6108582545913279 1.9589405713661905 0.19488660438862973 0.2558667667934165 -0.23519091329742461 -1.6661461598964025 0.7921807065518666 1.43840439507064 -0.7354249798499365 0.28636933223812316 0.8743903468328645 -0.15342753158507985
לספר 2.1204040483990427 -1.2985268328637054 3.087767704685609 0.8661035599681842 -1.0620403744032185 2.1909491798106266 -2.7452724431421167 0.5018999958191396 0.7626635093007433 1.033679768618157 -0.07160735589383496 0.41381852965775023 -1.0156543367914896 -1.27267293002737 -1.0738331199029778 0.03149709689068481 -2.521668866893554 1.4665568028323668 -0.7628612596602063 -1.9026836768449014 0.7950188204568721 0.9440601370805441 1.769666558982669 -0.4825645221187516 0.05973880617193957 -0.754600645287726 -0.3794012418791307 1.2146300425725343 -1.2678763237963775 -0.5644024467766897
אבחנות 3.7826877090844313 -1.5615998455843902 -1.6592445537283351 0.998688551993726 2.0194646470388764 -0.3290289030628186 -1.8018383174646666 0.919794527597784 1.1617144557315722 -2.756591623846404 0.3746289288818064 0.22392866627334518 -1.1346567356310906 1.399205283544049 -0.3110183531543294 -1.3478615767496154 1.5829351630943627 0.967372698107996 -0.6552992272964039 -0.4778163817638183 0.14261706593599063 0.41271428457360826 0.375869247715076 -0.9037469857308196 1.5501081995135062 0.018811494955906446 0.9022213887059878 0.48333347712296443 1.2202277388560163 -0.9360679088388049
להבחין 0.9514587415588764 -2.9187366579299345 -2.495228947778841 0.677903022717256 -0.11155440615190897 0.17649182173421432 2.768572588549833 1.9933450251480767 0.16256606516850838 -1.613950136379963 -0.39018979039298746 -1.2955124549722936 -0.35915188754442473 -0.5805414551717124 0.2524537670210606 0.4412635524123616 -0.48175157048879147 -1.8005303853189352 0.6739501881861518 1.1984898913856326 -0.9622518410074629 -0.9977786974302633 0.9386161446787749 0.14056819586451155 -0.7018498698154392 0.33371814433967734 0.8261706475113851 0.6529146295124492 -0.46986952894475736 0.23365706857263455
להקליט 0.1351151344548488 -0.38442125774183505 1.963309345080356 1.6044941339742713 -3.9171567482254983 -2.084673563009439 -0.8150785799303762 -1.7920235855416238 -2.0427235398505923 1.7083057379903237 0.2743341565923008 0.48507220402555395 0.6728904354107158 0.8005844624516081 0.650442894267457 -0.6130122165000702 -0.06777789983568566 -0.5283218048692385 -0.7250545392695978 -0.08059630123578639 -1.583681635707847 1.536527299794166 0.21931157762353187 0.2714936714959463 1.1011335127978947 1.4544099733154736 -1.0116627153224929 0.3801103296417782 -0.42912869228875655 -0.3079552886190698
לשכון -1.9618364249654057 -0.44862344892966605 1.3743700326577513 -2.6353125041228287 -0.7774687892736977 -0.40108151169268336 2.196164997162583 2.4818899751603625 -1.0603292270170976 -1.0333013822352688 0.33466330877840156 -1.4035982747552407 -0.9837721794117649 -0.7015186444557291 -0.04310142446138926 1.8931652412373785 -0.6135691841994735 0.7281039904584677 1.5309333441541555 -1.365421356090615 0.17695546554217134 1.5389109539202648 1.289519573191945 -0.7204780307253081 0.5814550562938222 -0.6186067425939614 -0.06853069129414331 0.3752956665490872 0.5514197531321443 0.2264247914406512
לתארך 1.023420386343734 -1.475839860904273 0.3773352122244728 2.7428714848267375 -1.5429212803293917 1.4146146502902814 3.726224224081735 1.298483965200764 -0.9461849427082784 -0.6850943667736024 0.7117339085667336 0.5330068511737008 -0.7395667803689835 0.715759926454753 -1.0119976099998431 -0.6500165907474171 0.1525514492474628 1.7815119568910642 1.133838944754388 0.15351287457603144 -2.318579915369402 -0.1297143428008709 0.6918052761111059 0.18308430474574292 0.7717592188853041 0.10140388424714368 0.5033005672386056 -0.21967021879336143 -0.268506893684923 -1.1210305743175384
להתפקד -1.0700164348179448 1.6840852515100209 2.9376320623657675 -0.7794860063173632 1.2832238643227605 -0.9093006791550006 0.3380132786057393 0.44090652716328266 -0.4487039584113175 -0.7668438375558814 -0.7356708028393655 -0.24977234337822252 1.0946044893359812 -0.005223082768977386 1.7749638662199168 -0.6757950503431099 2.1622891748955055 1.5588428716136635 -1.6950693577292288 -0.017995425195800302 1.0541727060615054 0.21565421890711947 -1.154682811277335 0.5694393372199466 -1.2972067788740875 -0.48727639495271274 -1.590361649555721 0.6219305719943973 0.3888169810124858 0.6583446136505755
לתפקד -1.8600936579155716 -0.8023053290541386 -0.9132972606688071 -2.4317035582294952 0.9317876928781873 -3.582948727894565 0.26434109069321676 0.4009090332531592 -1.6368911212107133 0.8281514265990473 1.717954051815255 -0.29741683040741185 -1.3505958126215896 -0.2862380711545663 0.8923217212937766 1.1752492954287879 2.1548371647158104 0.14353316114193415 1.3795337225696114 -0.03559977683642073 -0.25577901794982594 -0.7438677300021583 0.11162704732617727 0.10409523185369492 -0.24725020478055595 -1.1419751608598954 -0.8282132335378964 0.10891929729346268 0.15560211850741612 0.19024977596702175
להתרגל -2.729263464031544 -1.9844950929884548 0.6428575370577508 -2.441265824253612 0.13939864043321656 -1.7214796605276543 -2.4091346803978593 -0.9634819610413166 -0.22508557370664986 -0.6202300445060329 0.3033318528579198 -0.2069625400022755 -0.4229760988075637 -0.9798967974211975 -1.470360283429231 0.40441658303784295 -0.4527905082754379 1.664276881361624 0.3395133565806877 0.5701507216938558 -0.09372290000260575 0.8121442661508415 -0.12976700177417638 0.5522077374573701 -0.10058585919196568 -1.0713326079422494 0.5598087117877446 -0.22024102205591925 0.03497807163147989 -0.4472312114747237
תגמולים 1.8120694382590312 1.9147085635085215 0.42433035374380007 -0.15728030270803758 4.82700576014243 -1.240903845749308 -0.3634759480956142 -1.9967159835428918 1.0167588182832945 -0.9277395457596567 -0.625526801996199 0.13816559561065125 0.60065031344454 -0.7465660067741833 -1.464939184926867 -1.0952738255667278 -0.26999633028279574 -0.4437406056902329 0.15960281779614358 0.21398581381144322 0.44467690144910105 0.24305079426333207 1.0486868470552693 0.8276389761985014 0.3575474765961222 0.5452060712374845 0.46579710353180637 0.9161056810590776 -0.20603082928171276 1.3130055995323962
לצלחת 1.1604276659129398 -0.574667955056556 -2.0633531980128454 -3.3837492420592787 0.175434316898203 1.0386533936232998 2.3393513136709925 -0.3269796454556328 -0.3203570715413227 1.3703401253132548 -2.3082213211094884 -1.5964244238715128 -0.5152149457841176 1.8235459987364626 -0.08533539020817245 -1.1240835221746195 -1.8368190381659546 -0.13404409752803423 -1.1830560453681267 0.6444843211738115 1.3086885426685164 -0.23393990216603727 -0.5562162230838876 -1.2111254392387267 0.24081975588764243 0.2712284532426159 -0.09117697579164115 1.31128709859998 -0.436210524841799 -1.1934185171027296
לסמר 1.6614487385208174 0.573572288368262 -1.7921442136053678 -3.777580490432983 -0.451012810029074 1.3793740761119955 2.3046683885356813 0.4445777906058415 -0.9969206557001652 -0.6607146430448987 0.666840991544013 -1.3721002845069044 -2.4959929836820565 0.02297221026029562 -0.9385315851096587 -1.5997971062718612 -0.9252418208294079 -1.853338678722518 0.9006666259998944 -1.5476205752725312 -0.10164021360658504 1.4028275449251577 -0.23134430814138812 1.558523523129566 -1.2843291061845918 -0.7850191085961443 -0.7217251973485531 -0.8519333234210161 -0.488858579435175 0.09434740121525872
מספר 3.8073467456202783 0.9252499644457692 0.5251014126362565 0.841663927721677 -1.0282622008460371 -1.310477689886969 0.7419441592855986 0.1796243907584929 -0.2893821687427769 -1.6675868494299746 0.12415915352058433 2.3444094976657173 2.292585472808102 0.36891219941919895 -0.7926644888262997 -0.591794902741927 2.177367310900011 -0.6789871748604953 0.06958483050041524 -1.3291928136902742 3.5601809136920295 0.10025709368320326 0.11628291931953982 0.3082350117182027 -0.8964073680529839 -0.2615717121741891 0.8186766177418611 -0.8292670013081678 0.8267844257331983 -0.4497136590079933
לסמוך -2.7433208681232566 -0.7368298951149055 0.6458680931012931 1.320147504025081 1.2678943720554017 0.5456528139272316 -0.971886054214632 0.8870883838496306 2.914007507554332 1.5913261481285352 0.37016704452112237 0.3072787510702384 0.6682936047434994 -0.20212597178718117 0.9355135687953159 0.9470184640676135 -1.800690774444892 -0.5086592582199301 0.05673661167023962 -0.9239887167190273 0.043076260799581934 -0.8701023095514191 0.6395912442379884 -0.7719283545428173 0.16672063702890727 0.414566695404916 0.09930512887008716 -0.6391061902904263 0.3039882451217757 -1.0331902611430877
להעתיק -1.705231753668224 0.7271301582743082 1.623025973065283 2.630035468021007 -2.0901511120420833 0.11459164667243531 1.1412323922448486 0.5426321699386822 -1.304269920507561 1.763470283254245 -0.09571141139667264 -1.4635242144079184 -0.025322528867605595 0.0008615473650931883 -0.5513988044863648 0.08012873415948232 1.1259895048447366 0.8279514214299618 -0.4760299525915354 -0.5230208343386528 1.2103927971730908 0.7145937426653918 0.23300490781169542 2.1461080104542845 -0.29753889607128675 0.05445202490603536 -0.021548103294642684 -0.1127807570713253 0.5338998541243226 0.34943191827923004
למספר 3.23507267190706 0.509140489304913 0.25147743588247695 0.1562686305175494 0.11783514672319391 -1.3144147003498665 0.20379392752530612 -0.07118906111224638 -2.649113094605334 -0.7270642862416751 0.9669519602664726 2.1940633519976616 0.49660139403471454 -0.7893144348866505 -1.574787145186766 -0.6126111821453455 0.6896233958654455 -2.061781980387246 -1.1388988930139516 -0.514049926629439 3.913098013523149 -0.8136348054868794 0.2576970370496382 -0.2766448515193712 -0.5901533188159177 0.24528732625338995 0.4372227119061672 0.4142520448271804 0.1025045668565376 -1.402513385078659
להשתכן -1.932777071588331 2.676244283066306 3.3159306125390677 -3.011118659066529 -1.0626731820604127 -0.955376245220695 1.1471702088847393 1.629632870245004 -0.2777593643472381 -0.3624744733827169 -1.0092300296775427 -1.0914407764371534 -0.07431473086421958 0.19662344346475602 -0.12189072260497906 -0.4884811287371332 1.5781171862490244 0.738503403301207 0.09383356168980546 -0.5486162283457907 0.07648894736432715 0.09347572530371606 1.1564878596363433 0.7346561452463405 0.6850602382294112 0.05590642704880348 1.466210260783657 -0.6316603997702592 -0.13585075334466673 -0.5891121051166919
לתזמן 0.27398303207340874 -0.9073014128981972 -2.377952375681188 1.4440544859367739 -0.032758371958263456 -1.8377600924218576 1.126856035433553 -2.2526999063613626 1.1231711276404093 1.5626540565831921 -0.7112063975345819 -0.760695340511374 0.410440324803431 -0.9403117329761206 -0.8092679808495047 0.2770429657150437 1.1286461315634442 0.3080239054538614 -1.5392411236829264 0.21444306930129803 -0.28957462327613026 -0.5721305700173218 0.19137454406279894 -0.09824842010382048 -0.528596678431122 -0.6880320692788839 -0.15380342518118753 0.0011691556277922826 -0.9645293690130005 0.3586577465611929
סקרנים 1.1689660462152671 -0.16285995024067207 -0.06529024136670114 -1.7569271407241482 -1.7267030138044497 -0.8511751445391065 -1.360407367347719 2.7408052427800813 0.34484925457748344 -0.961651151006521 -3.8535568639160096 0.07696397519910758 1.5041403379524847 -1.395871879385074 -0.9626158997867067 -0.8574633857961861 -1.042255649420283 1.475285025343719 0.17110526642663348 0.5559987571755148 -0.8022778156807728 -0.6012717666161802 -1.9835867521177095 -0.06231265236925739 0.32889399370716077 -0.5695708004080298 0.7280850792872547 0.4589381929380741 0.03368920275166557 -0.5238112668736256
להצליח -2.616101302111744 -1.848182476864514 -0.5164175137371563 -0.1540420508851615 -0.46830833023302604 -2.2564520285505485 -2.4158326676059896 -0.38026498465974873 -0.923634117193926 -0.4960664527485252 -0.5539271995325629 0.1768305555812919 0.4076311274181771 -1.2475284372479527 0.9307911755875526 -0.8255204493143141 -0.6193924301658343 -0.7110585176551113 0.5188681904706742 0.6816562627648235 0.86897222076306 1.2807924996586222 0.9752270114834055 1.2362774803375267 -0.11526012188473807 -0.31880606895708313 -0.014425889111559962 0.3921219210639932 -1.1954283521851952 -0.08506697348798961
לאזרח 0.7941553030809142 2.614243366382494 2.779250912598945 0.08329895897702226 1.9538631162376767 1.2953571837511588 -2.009080923090615 0.6613777902170208 -1.2522912233672054 0.9884904924160259 1.8549627129877102 0.27765436831112106 -1.8847231133507825 -0.5215971164264572 0.48942502187561604 -1.597616401563699 -0.7737649130113958 -1.1105445817316904 0.05220121375128026 1.216300377209588 1.0769906978850046 -1.5080603702811226 0.01525707898018513 -0.13634205204279426 0.31811909632385843 -0.40879675798850573 1.366861492523506 0.2941700869361316 -0.8457216939529926 1.9857691855695123
לבחון -1.2733720601653564 0.8241863173647543 -1.5779869216085116 3.804701364413349 0.36629780266602024 0.43702286302218635 1.0612136617460484 -0.1626101761205254 -0.05412569265674804 -1.0462239483780293 -0.7079944499079412 0.821123205823009 -1.9551270283884983 0.9081236250338036 -0.34210717681756975 -0.34704604818020335 -0.25599667055832015 0.2886228223835116 0.8525156593432516 0.16814848820042133 -0.2775865281094361 0.419588712965145 -0.6244653053014204 0.45037913021681475 0.34831824329015454 0.14638215880980762 -1.2111222395079575 -0.020994270221517328 0.1626740852566794 0.4614302650405365
להשכין -2.301065406804331 1.2716608336565574 1.0870959685154806 -0.35093131250826237 0.014857857731087647 1.723875076503318 -1.0600365027815883 -0.793555327982704 -0.6084568806522237 -2.359426603842292 -0.780923811684365 -0.14146646490671652 0.8665399755472738 -0.9147787689810599 0.1330193061456331 3.839498687965341 -1.1970371997822575 0.35724619733960933 -0.7767342639675219 -0.6476739187568956 -2.092444352192382 -0.062273356742114296 1.625576346229302 -0.18230555067877954 -0.13611433202053472 0.45292782817560323 1.1729737956897002 0.17564565192770118 -1.0793140093149325 -0.10585710412172829
תגבורת -0.7495642016937888 3.5515964409165357 -0.8677708505933717 -2.5462080077425933 -0.7066197586308817 1.3991100657232831 -1.532458971183797 -0.1795875797090543 0.996347313613757 -0.8393267514945646 2.9439257519072957 -0.31145021467730327 1.9015904683252254 0.6156981067096238 -0.3905696713866058 -0.5550033885276563 -0.30468951645548226 0.6695066809451138 -1.7624304536902742 0.959369053393012 -1.6387301488764061 0.6098952473517626 -0.7869287641539958 0.6044910187563832 0.08650127805549013 0.14105346453091122 0.37526283172822544 -0.13620478060632493 -0.5166777908251319 -1.7972692782766677
לחשוב -1.6692102226211671 -2.784912646478529 -0.3405807448938544 1.3389292485897326 -0.13682201441330608 0.9006127473593502 -1.9735638988871997 2.242402443732754 -0.09683778203226363 0.4918729941494942 -0.3932257469218794 0.43603743794760286 0.23055119464419574 -0.9399393496997938 0.9050136887953787 -0.41868927524701627 -0.47748772094101183 -0.15025686121434498 0.7632137537014294 0.41124676662179205 0.20655920163996613 0.021742498942798897 -0.5190700936131182 -0.6382420912975537 0.1349005391619391 -0.3318948298418693 -0.29231524898236083 -1.6716564250009485 0.30676021785277385 -0.7313429235085248
למסמך 3.7257048252810416 1.5532844054152293 1.9179780049236348 2.405601064310674 1.993694715390135 3.126008777372447 -1.0110094840802737 0.4020398428654033 -0.8362191404597842 2.1148300014550987 1.1338980710956768 -0.18543674637071225 -1.2700523616586838 -0.8578547377021312 -0.09114128605615567 1.6649294933281882 1.14483290158395 0.8132100212601284 -1.2450570435499966 0.19138445270453106 -0.42186894811447834 -0.12344537532374322 -1.3181858334569696 0.03422092509550482 -0.15336846040254762 -0.9906984310760512 -0.37933408994102535 0.49069839046231695 -0.31628042632044806 -1.0530880751330178
ללכד -3.7390133055389048 1.7841779797720057 0.15657426547509518 -0.006806797850306286 0.13762346610518708 1.7310918434921114 -0.21330309951125082 -1.2770303315636808 -1.8544459899125 -1.1740344550362478 -0.2903181589062387 -0.793818392555782 0.6659556595389955 -0.9071822331463941 1.4624970933969033 -0.1451898082548714 0.84048082112854 0.3136181844348486 -0.5495513204752636 -0.43839909658056886 -0.3789275421902445 -0.9159651744695916 0.1260182467188444 -0.8010738184133966 0.769856735617908 -1.0896683662245434 -0.6358552776695982 1.6658954767039174 0.07560924123768323 -0.8782180089915687
למחשב 3.0634966618316772 -0.12463781978460586 -1.8138698696005386 0.8167294171008153 -0.45636266962243627 -1.6516775231459109 -1.927269357568218 0.7927039279347349 -1.2069616593968244 4.302242899634114 -0.3443807069333314 -0.21709783112329117 -1.0701028030945527 0.2001860875920723 -0.5588303018313449 1.2409996841126316 -0.6628531589592124 0.7891307332893313 -2.9855098893637666 -0.5008823729172925 0.11373802898243385 -0.6203116551643632 -0.1005027999196249 0.3366058433755015 0.5541827376914517 -0.6062648760789215 1.257666756854968 1.1342652505679962 -0.608283329777252 0.09946467490401231
למגדר 2.8183742147501 -1.0051079194062462 0.6526889821326278 0.6277943009731701 2.747807301242151 0.30686764278152734 -1.595457733340175 1.8388625445284132 -1.963403748969617 -2.043535566349254 -0.2515236709045342 -0.4570206502471208 -2.9504667630899872 -0.23090324136024534 0.5337157761891572 0.19022287928020573 -0.6509303770064572 -0.016411174413378717 0.8303873162608312 0.4264614903374465 -0.3966126485628663 0.9763610242642422 -2.3214256531525383 0.1025367995977202 0.5729372880303286 1.4961158297743684 1.3660850552005879 0.7319857360436791 0.37749775340756475 0.573642906135806
אזרחים 1.67903951874809 3.949640446516741 0.6690630759013578 -1.7826805442660807 1.9597991580845049 0.3064369623080223 -0.030410672643880487 1.7939344419122034 0.3299281219084978 -2.566761039311537 -0.45997944000288427 1.6376265681795652 3.5570935501326986 0.412252372433031 0.15338750166266682 -1.038842919040148 1.3934886772799375 -0.7444459321283522 -0.3661783076594307 0.1611848818962347 -0.6954794403311518 -1.5120254281158416 -0.8219338832122616 -0.5261177435219953 0.5563082352542463 0.39110615417685246 0.35445210915991143 -0.7816338050172664 -0.9871975182980299 0.14372787779323204
לגמול -1.6528399702558985 -0.5933281932160789 2.1012763066674447 -1.1369416478718153 2.2191214166786346 1.029459884689888 -2.4373257117110265 -1.2981184803775585 1.047244494091908 -1.8429709272086139 0.020891610844662855 -0.5057746913828325 -0.7382996135434589 -0.996334609848062 -2.10464360420091 -0.7295939089232015 0.03062876458736572 -0.6665680393326918 -1.347018343337356 0.6543442115339028 0.6518857875224081 0.0987850151873809 1.1261421119772663 -0.3610509348987502 1.4678163664491353 -0.21910580720138775 -1.000205514873149 -0.028929760056062657 0.27343232135311035 -0.2555016187405587
מחשב 3.782697057841995 -0.10684328924084102 -2.500942992292302 1.204691170923 0.22458246385674457 -2.319680806542117 -1.487470471539576 1.7657795171342778 -0.8975839302682397 2.6233938783527724 -0.652568067930903 -1.1591403194027698 0.08780973720274042 1.1829036217940114 0.8227372660422445 0.9308722239606687 -1.0751951995419202 1.2589840697864294 -0.4623924059124733 0.21561797456044 0.7377878053032039 -0.8123708082808551 0.8639108658021188 0.055493444275777494 1.1020818847216711 -0.6056161376084866 0.4072221584211982 -1.1135707425286405 -1.0496300838263188 0.9880445019267843
להיקשר -1.0017844666531024 -2.474523688792803 -1.0443583826495142 -1.5830013775059246 1.0173432371089142 -0.07652595708328322 0.2555277798283834 -0.730760341843364 -2.8895749074493025 -0.45382673656570305 0.5958983300936446 -1.3936729170294024 -0.04284091623980168 1.692638015584159 -2.2765588424156133 0.5878309309257173 1.7939448221489052 -0.552494538702994 -2.0330878536820007 0.7769464661471075 -1.482800081004199 0.6872512551058475 1.5971490472192797 0.3312141238970823 0.5081546157342023 -0.20465099327250488 -0.16212015533201596 0.12824470815339548 0.8174385683207915 0.742479593649351
לסקרן -0.8100378496184326 -1.953308179483668 -0.6182891961815814 0.11120878297989849 0.21271346366898014 1.1644930872269048 -1.698464280901153 -0.9782011055497514 0.07803301859187718 0.6860926916266588 -0.7199672637082851 -0.3830479633744389 1.1666533537880497 -0.5702571715398744 -0.903500402303118 -1.1172119802006855 1.1235127415041373 0.11954103548848509 -0.5648823067787226 -0.8328832916547059 -0.5259842622871285 -0.3230379184067866 -0.8434176128247546 1.6321692163466934 0.29364860503949713 0.04303447799027625 0.2549051346893735 0.0616131063843087 -0.19453159026725667 0.7714645007668852
לתצפת -1.715786011401827 2.4129578682270747 -2.7313771193354213 -0.22927554029723404 -1.8991078867179674 1.4164508235337943 0.7612029818277303 1.415584347032638 1.896583822873228 0.46567549832799976 0.6620269325842808 -0.5453969875387695 0.2977590751235364 -1.7046926175986643 -0.5550023594070569 0.12496192272847184 -1.0022910743227125 0.4924185825471277 -0.49153339861698997 0.8545578716480309 0.31688095714234016 -0.9348005819365172 0.5348152801565276 0.32262626614167644 -0.19669594749445127 0.9688527221514895 0.2822966452412244 -0.6792635322267071 0.8453716867570512 0.16582297526214332
תעתיקים 4.551049709641492 -2.4996449175075854 1.1398138768617416 1.901937360718202 -0.060787849603138606 0.9796183701418136 0.4295259860388116 1.5489191784686656 -0.6966101469288408 -0.34027942897940766 2.9793932269419456 -1.7892270733640467 2.165890324012264 2.2650252633467964 -1.8903243151030484 -0.1417425930646486 0.3431576718817539 0.9529531593029441 -0.31943008357041547 -1.6855977273185128 -0.4324994217835068 0.22578092909683264 1.0293298945651768 -0.37185962428932906 -0.576080357264188 0.9828096709449786 -0.9752809617876889 0.7318702603297458 -0.07754246314752758 -0.3232260168804874
לחשב 0.12618486147758576 -0.6007305175879735 -2.011507422597051 3.058687092639809 -0.24944142692654048 0.75316341307277 2.091136406853534 -0.03378053638491209 0.664437707728906 1.2084889268415966 0.7978506368855071 0.09016177082743401 0.7116435808413296 -0.038105831297948756 -0.7169379302836991 -0.48562503007042934 -0.3727575587967512 -0.24307251507829916 -0.7946114661706897 1.748570075331091 0.08116703661155454 1.8482962687474487 -0.2001733848083087 -2.1957162576969527 -0.3548773852221998 -1.0277836773955316 2.3484690209086203 0.63519931333279 -0.4082851131566175 1.2375716417442584
לצלוח -2.1081736899229973 1.366959857012667 -2.483754499193425 0.05414100099119878 -1.7434083725391567 0.0034752308909942646 0.42687712521203913 -0.980427626732409 0.25292230435225344 -1.3272957457406969 2.2052405782279054 0.8409538789146942 -0.8894827070819342 -1.4176748214659156 0.7100106734721663 -0.6637787235107097 -0.9376103941111184 -0.11616127677089674 -1.0058575990377 -0.46796316790550185 0.1380641555073222 0.9813925746001603 0.9066468514031301 2.649897655927045 -0.6117099882717824 0.6154546254117266 -0.21302968253126472 -0.5466146010766084 -0.8960759360597953 -0.913023849397551
לגבור -3.257236508671662 -0.07056854176375366 -1.2949549691225446 -0.5673147291043649 0.1081925007262059 1.052410964413365 -2.418225332720225 -0.3006456620070418 0.273735947014381 -0.37329951117479004 0.8740782809093084 1.5539165095758158 0.8889052298446127 -0.22827073910207152 2.8178376874853 1.1220192152326585 -0.9397114831290141 0.5311625756519255 -0.306016773015255 -0.3788001809357526 1.3876566498672263 -0.06826989610702015 1.702470675523815 0.40622298991322636 -0.0663730461070157 -0.7539299323897078 0.4811387801771491 -0.236581223653829 1.1853232571396126 -0.4419491326733967
לסמור 1.4268463391568182 -3.4925679248974877 -0.9063397759009945 -2.9736604176994312 0.29228119686200005 3.2122318305550976 0.15759755191951902 -1.168319845287506 -1.487766159663696 0.5652944859817918 0.9775333086445595 -0.5044689346790316 -0.1993242487425289 -0.09129312286900138 -1.0911521232741366 -1.012259643954119 -0.4272342479724696 -1.4738727934964178 1.936750037553058 -0.9123882888761569 0.15319179455412038 -1.2449551825808354 -1.001445536048447 0.352206898892553 1.556243763052648 -1.5145027456043905 0.0827814450102893 -0.29583772565230015 0.8851952796078812 -0.6798058148396376
תקליטים 3.612211438264583 1.5104529140057494 2.595276368979695 0.052673581526013175 -1.0044407544739613 -0.39033061582864315 -0.9091709428315543 -0.8984418631735036 -2.9473197667030195 2.818561887159363 0.7261250162824326 1.730401951130273 2.172543973852578 0.5447425979665685 1.7958361382396537 0.14364933314346096 -1.6319397487535865 -1.1013452013013376 -0.31594543423423493 -0.05015173168507735 -2.1432716858046104 0.3505978362480061 -0.549570318282761 0.35484290730296697 1.8435686736967343 0.689553089978126 0.22433926116926656 0.017321644188264106 -0.012332745923171367 0.04795029826935978
להסתקרן 1.5045662745179014 -2.8940664154429747 0.23243250337202112 0.17548265644228178 -0.8855851612607197 0.4673531056050131 -1.7434583991155508 0.6477099016127161 -0.4254616387448189 0.4958066465475986 -0.4998948893748448 -0.09177794671934095 1.058509921170054 -1.628492596586191 -0.033708478521949914 -1.3006164772636304 0.4636834067535399 -0.41883584540839214 0.9444627251741854 -1.0852159022591994 -0.5931682777340764 0.22307910887027427 -1.0847505334935768 1.2116007854133615 -0.022112007445689624 0.03547082676404018 -0.431706935010571 0.4102456903757216 0.643756377871644 0.15749463506641648
להחשיב -1.1018215254642674 -2.9684586329121103 1.8778917216148505 1.876635937477048 1.461911200997865 1.299824052843372 2.339684139235216 0.7809700452828732 0.7870793354907825 0.9267377451303628 0.7294440920293828 -0.4066302640412958 0.10681242137162598 -0.680934505919668 0.7727047724563265 -0.13787131498113103 -0.22709927141316177 -1.282911310489763 0.08557619949822119 0.8619633199523562 -0.01865168316086555 -0.18088251880644934 -0.585698946032373 0.3070474413628712 0.48242647569311 -0.2704316091169813 0.302177436111175 -0.8274216594166818 -1.3160499939830759 -0.9762691105135796
להיחשב 0.20880674641021305 -3.1345445578010165 0.9635433121626894 -0.2895345690497199 3.547264512600524 -0.6522592191409325 -0.32408461192578103 1.9898405563903268 -1.437999206274865 0.5688483876093362 1.2753855997292893 -0.5507403803841812 -0.11607139302168298 -0.2515792979627364 0.9036796754032166 -0.1775332500714087 0.8003161452754862 -0.16716724212256712 0.9989812239771905 2.475780304146797 -0.170003038377516 -1.2387487648025168 0.7338310960001277 0.30428093463582445 -0.1906235157201921 0.4366949977242611 -1.194465461411864 -0.6013043896233174 0.4962830504594378 -0.9507741347902792
מסמר 3.599595147664962 -2.911149816749003 -1.0386278826713193 -1.977134737008136 -0.6441146258208245 3.3966265800651523 -0.015625545302417925 -1.780684433016544 0.8962371656680626 2.0367733311698597 -0.33441206417270825 0.35792020706793143 0.30582578064508115 2.0868904123649457 2.0390384792364262 0.09828178942078279 0.5330135314936235 1.0414124598709107 1.2331183311975764 1.845749730804454 0.5426522513328061 -1.6817436129169716 1.3995826156550089 0.18188435539972797 -0.1911485939105651 0.0427165413329894 -0.34137326228717946 0.28880185862732155 -1.3480887820866012 0.584169351024477
לספור -0.7535924720648902 -2.3081998810228304 1.098984012897379 1.7769274507589985 -1.0768041959814176 -0.700029024839112 2.644823785897875 -0.01722896731293183 2.3407764291703987 -0.763900266686525 0.6483003282996382 1.723494983141039 1.7167688035608548 0.7114827844006155 1.726771207318997 -0.10868544388132532 -0.29043714664530573 -0.2667554584657638 -1.1457989459841411 -0.24068128745492542 0.6415615116804854 1.5799938791436472 -0.9891926819642586 -1.2281912402984099 0.998538711806218 -1.0214650606465843 -0.8046000704334151 -1.1453064234649661 -0.9027294092932328 0.9033516957187263
לצפות -0.8452815719106985 -1.6160596249330983 -0.7420836899949774 0.006985027352242608 -2.099455719210653 -1.6675312260961326 0.9541994119112578 2.1361466391746124 0.874663072426757 -0.04945978823417146 -1.4598436135402768 -0.5339742350911247 0.4292786559352653 -0.906238990576711 -1.2416326919574119 -0.2412636974227405 -0.8875173286293085 -1.3537715548197606 0.22311085224610114 3.1216032856315166 0.08041046929838588 -0.47485128425921297 0.17765242711084614 1.3433680341067258 -0.0714639071674768 -0.7859708438339075 0.12839579561065226 0.9811750350060938 0.42175986368397855 -0.10379453892327704
לבטוח -2.777828251478227 -2.1526038453640957 0.1580029193266013 -1.2212644121943037 0.8772367725717315 -0.5489089944817722 -2.549337444325698 2.086607345911637 0.8727897137269208 0.5726754327791878 -0.24445324377036312 -1.1996667539204542 -0.01167603438243829 -0.46409240795436374 -0.23449563718966143 0.6889007407346015 -0.1861105080813542 -0.7955386279482484 -0.06959489515462211 0.8202422307654376 -0.34834225145434994 -0.4363188322835651 0.2601338176391181 -0.7369721581936973 0.2111167235167824 -1.2054192688281138 -0.8368944748556247 -0.0640319055631723 -0.2617151246659269 -0.10799398816044814
לתגבר -2.296885322518694 3.673877557332475 -1.328811582617403 0.17658478392246552 -1.8006528394109784 0.8588083833023026 0.09533413008121268 0.24342866535330995 1.039168848589771 -1.0496215294027507 3.0632127612409072 -0.9538960857550076 0.20928500790354398 0.43655681104123584 0.5208661806794347 -0.7750544285613022 -0.25832542537050873 -0.34004087726955934 -1.2185352183380003 -0.20541403786174042 -1.270598880310759 0.8477418866261967 -0.847725226157386 -0.7864439813547986 0.06046389058950528 -0.16770870746252825 0.07268591725302194 0.874589778126646 -0.43171353608978846 -0.5136936165983652
לפקוד -2.220760524433807 0.8190195850306345 2.644454144834519 -0.09457612934347001 -3.136727943854094 -0.653635047479204 1.9541635495331786 1.3489253140514805 0.6443739546208136 -0.4278505871230655 -2.0928989239532436 0.18316147928595744 -0.6022101906603748 0.1992097990304188 0.5835476542693991 -0.2761646157525756 -0.33136762310352086 -0.009913451120369773 0.5547997503385317 -1.2105612576409512 0.6011071529628154 -0.9509047692956419 0.1505695668188956 -0.8337994183382313 -0.2650534943040289 -0.02642232426534516 1.6708396200262998 -0.4167934894121884 -0.20659456125689027 -0.4469145320331113
לחזק -2.8858470567944243 1.4888724938431892 -0.7206792138190447 1.7599948615045915 0.3908898677468482 0.9176115038493781 0.5200813581202678 -2.0278210089982887 -2.1459761332996448 -1.7707624777709208 -0.15553855264287017 -0.6637794527667767 -0.6951535934138602 0.5461426908028902 1.0674023067649434 0.6023658037671569 -0.6335618237359666 -0.19438383068992898 0.4322182811661757 -1.1875352228109086 -0.3117574610189639 -1.6326304419752848 -0.17374740281536774 -0.11857326289489242 -0.15796097288332453 0.0038305973259548545 0.22585021224515175 0.5654784748547258 0.4744621743640469 -0.05149831674303153
למלכד -0.5108215196128996 0.14960160069786466 -1.1336021148664361 -1.1129280853955013 -0.22435734491572898 1.5794515854524533 -0.17347877810568663 -0.1843756652066331 0.6163458003718348 0.7366187498162092 -0.014805252737641755 0.618533142578097 0.7376978174493948 -1.3712913713754311 -0.6429818362469361 -0.4920179023890086 0.9885570651498644 -0.3923293175794944 0.01276145663902761 -0.491029216031639 -0.6151036957304029 -0.20780801212440658 -1.1643974603313314 0.905940651936893 -0.7966597487974557 0.8825284210159399 -0.01039577849606403 -0.4477090787633668 0.41687806800391286 0.4438632655384944
להתחזק -3.355781391314214 -0.6343025029363049 -0.17146953031392873 -1.07981537476046 0.28797230110809335 -1.087985566489097 -0.6846175029366066 -0.8913061551417063 -2.574685849797948 -1.3581279211882922 0.22520005137342028 1.1393018870840965 0.44014645383682705 -0.1712219842799368 1.7810349027898535 0.1796785164275342 0.8111516546700066 0.7917109817059114 -0.21390727195921558 -0.16379361351515628 -0.8756580911748642 -0.6231672549228904 -0.2818635537001795 0.0747367946729856 -0.9831651781569206 -1.034678917780468 1.0874435166060643 -1.0785495146976176 0.04305428977268359 -0.1304941739923421
להזמין -1.3061305719751077 0.3084240566773531 1.812730965173894 0.7002567653378309 -1.6034771869535756 -1.652959777465173 0.1743754543186566 -0.8109290702038379 0.8599525464758638 1.3943913877735692 -1.9876834740815958 -0.320298071891409 0.5540372076105236 2.16889598917477 -1.4691122876579281 0.8477844290136836 -0.9568850645653592 -0.5663169401239011 -0.054625296650044834 0.6809896832731714 1.4134469193228263 -0.5763545920179455 -0.8140157696066208 0.6828237881196418 -0.6729870368575306 0.023098904482736618 -0.49451227444915186 -0.15965220804525868 -0.13853011974311927 -1.28866107197166
להיספר 0.517958037073063 -1.848868198002956 0.8282984329045676 0.03410699181625208 2.042996362332041 -1.0619484075412444 2.9608455479488702 0.4238984969666869 0.47443478326591826 -0.10639678039919777 0.33709579031728665 2.00265814909258 0.815335607077283 -0.8990883167021461 1.2545014015880906 -0.5902192746671326 -0.03908993561084112 0.565652237310587 -1.6512431793382418 1.3695718075121444 0.7880389275814115 1.2600356204178795 -0.7568521136665722 -0.1198617516419835 0.2506488745904101 -0.443495139652013 -0.3567581276611102 -0.1789343204877739 0.02580353152260698 -0.18703505882987387
תפקידים 2.922343838314219 0.731503611667492 0.31452462561787 -0.4014395147046193 1.4450276665814659 -3.3720296795407516 -0.6829829902939899 -1.0088186171038216 0.6468859927264096 -2.054628500037568 1.6189164432595322 -0.6212244333763574 1.435460030854416 1.509572434566868 -0.7190501897842344 1.971593352501682 0.2607336273179169 -1.9275862163483348 3.5779471060957535 -0.7961516815567486 0.29472043179614743 -0.7247059609776275 -0.228606505409015 -0.005582192309589526 -0.1587025822227174 -1.2725977771117187 -0.15514114682076796 1.519206701990124 -1.2679022972756329 0.04799880920142672
משכון 1.4279210053232674 0.6253425815831501 2.855006316554737 -0.8787108647128237 4.200554972177439 2.1059871391021816 0.8416894430706472 -0.22537834159255798 1.4911513483733938 3.0127373031996307 -1.1675755560303838 -0.6668747490152827 -0.21889648872320172 0.8635760101412899 -0.05550571191731149 0.6256020441673985 0.5073171652706562 -1.0414060652985189 0.22939409559099366 -1.290041591444589 -0.9855676544358982 1.548914884570617 1.0222057704763494 -0.6050495371108868 -0.593471380291022 0.3408571989522186 2.0496353299027517 -0.507041627576921 0.06689966049125663 0.4790142065573018
למסגר -0.3895503758366602 -1.2409595478702484 -0.5437072454658389 1.3261430598740132 -0.3284840904032897 0.2614964259247664 0.20961796710412345 -1.2756410542262515 -0.5806912483619107 1.0791050516226204 -1.3645232056325691 -0.9872063591158116 1.5042120984624194 -2.372835388330994 0.605170000015716 0.3979431819840141 1.0106404106356481 1.1464134687936012 1.0420781080892043 0.32629418138884553 -0.2917744463271913 0.751146637922739 -0.5177426283770928 1.1029678020565055 -0.7329969087455881 1.4133721184848815 -0.11931517473711896 0.1455247519223792 -0.6873406051691949 0.8782861913748645
לתחקר -1.4480161022061757 1.1699234360175323 -0.9390064152451739 0.631790712611499 -0.9633545696133324 -0.002673167934859872 -2.8320360507735893 0.6632170898518781 2.1896113220436275 -0.03471204257603977 -0.5846739418783803 1.0731566280971359 -1.4155913223604086 1.3030201021653292 -1.3124005520934707 0.09777034705368685 0.4208225769448094 -0.5666371439108964 -0.009125178644889017 -0.6750307761722798 -0.4612680524999863 0.6433207472504685 -1.740560022917473 -0.6930242855584031 -0.21857785316733402 0.03367745099248452 -0.15649495414946862 -1.0457461847393879 -0.8470784309070628 0.3757550622931428
תמריצים 1.2505653029590822 2.2184547277505904 -0.31103639083742474 1.2151366043423741 3.660991912614091 -0.989510764962404 -0.10308693144045827 -2.0756768132101575 -0.8348583088802293 -1.045776289376176 -1.3432667894738621 -0.15480671140956637 1.719970908172672 0.741648489085625 -1.5764724039104234 -2.1038404723158672 -1.7090511857135284 0.49709701287801333 -0.07298200463526427 0.40749526110560935 -1.178802785640942 0.8760032408243982 1.0314437223679167 0.6335977333504553 -0.3107189046212869 0.0228662970094825 0.7122256281344376 0.23822744992717054 0.3024570693654272 -0.26195511391260956
אזכרות 3.509900615942646 1.0199709118702929 3.5123863126030677 -0.36317948437108233 -1.329256119179675 -1.2109038703696051 2.3667296685078694 0.17583284287300383 3.1267069771683547 -2.738158952499246 -1.285891964271861 -0.9485319612083688 0.9373707080128447 -1.1179175231704972 -0.2155075431917552 1.6323592783792733 0.8742734812943774 -0.6152981431248624 -1.3562961148885022 -0.4935208852912696 -0.6035501397970616 -0.10069522561408796 0.4772880201955043 0.15188407961354491 0.40302277572372147 -0.9246770685474742 -0.7033858968370564 0.11801301738888198 0.5194743113448926 0.12120371542681709
לאבטח -2.1056871124309833 3.972262748061735 -2.029803914819278 0.3888042983308046 -1.4281444563619012 0.8292012872685915 1.1095088982996393 -0.27612638610324397 0.6074007813491913 0.2679418226971207 1.681673024764809 -0.3675784990396185 -0.8348311583635616 -0.6154592388168001 -0.09733524884605725 0.9091649519112647 -0.406663441622188 -1.1317993666194943 -0.8006955913533996 -0.7734835973549194 -0.20043522789329932 -0.11000330744489852 -0.32182287533416 0.3262366167005768 -0.20532638344391513 0.5662137481035702 -0.05829542266909113 0.22273061049066192 -0.42510630410391703 0.5177489365074228
לתעתק 1.6699539040854865 -3.0952689090245924 0.7594911532361338 1.625567696369911 -0.2484377451214144 0.572081861186572 0.12483371837413312 1.3971648509998373 -1.0548540348787625 -0.31645632827334597 2.0580559952474675 -2.706853922883552 0.3163732308173294 2.0953201970328235 -0.3167176163248629 0.37048526794988124 -0.2761566546484279 0.4314133884146306 -2.0775127185023305 -1.967284161561226 0.43851696092144876 0.8070347681543099 -0.04180874601086764 -0.9797812581750703 -1.9226725354787377 -0.29937443639331474 -0.065550847454795 -0.6877007161198133 1.6064915733355987 0.9089000355243165
להפקיד -2.3471435892604413 1.868633694587508 1.944156372228486 0.6678522440540745 2.0460323577859745 -0.20448665018993178 0.8163636232217714 -0.3539648167131518 1.2974241281605017 2.3174340056642886 -0.024286241324872497 0.4766378867705635 1.3337178335205706 1.4040392822018188 -1.115125532894906 0.45229465374235744 -0.5881428306709758 -0.07406637507984982 1.0661767920980523 0.2621903290177513 0.5277341942507503 0.10897407635960282 0.32948100264707025 0.5520139800329484 0.484569894499022 0.03132907015908895 -0.8233293339206232 1.5647215128428886 0.022498646420658314 0.29954209908784163
לסקר 2.181499992904246 2.9528250070765694 0.18368303244631506 2.360247949232677 -2.7010255766562237 1.0950090328646152 -2.03929463314843 0.997120889013094 -0.14433142528599446 -2.363699848058546 -0.6900858072662414 2.0779507938909223 -1.166332029385274 -0.6354760746634511 -0.6023181636049849 -0.3142203316822859 -0.8683280680344208 0.9074601715794334 0.02827615570659952 1.8222722952491703 1.4048633670972928 -0.6464052471333812 1.1589809486059444 0.07346662120858112 -0.29691534258179947 0.009493251332590102 -0.6145852925845703 0.67225066492103 0.0033170670501084646 1.9309691676100156
תחקיר 4.2007897283412134 3.8948346884029625 -0.6582668413127759 0.3773780037341614 -0.5458821032461706 1.3531846661581328 -2.2334326663632806 0.22925862734969993 2.077524242638908 -0.27002272630070334 -1.8811054550118913 2.20655168241361 -0.7979902332288464 -0.3013718931916628 0.10905447546070426 -1.5815235016955087 -0.5848336897284026 0.5142647641673047 1.613120145786176 0.015662823474709108 -1.092865909637955 -0.07942772161996949 -0.2660047971510217 -1.2013655293722967 -1.21577568113829 -0.6156937531981075 -0.45753553321788487 -0.31370643112239227 0.8888867309889077 -0.7074269511321272
להבטיח -2.9207806601429795 1.3807575927653248 -0.7057922145911139 1.6088973381923841 2.552072780916517 -0.024591146386813176 0.3600559362361745 -1.8848708154325602 -0.7559317164827695 0.12199006213091335 0.28837557554910054 0.46146665665491365 -0.057558217985221885 -1.0982710978970465 -0.09118820218983559 0.08502813687864688 -0.825506417144582 -0.10781247573187876 0.30251672197651824 -0.6101285777846228 0.04692549305510395 -0.07743485712065173 0.4766071726809262 0.8962365302347296 1.666819277551314 -0.356223745416342 0.19782350468820026 -1.1435279204653068 0.6055609391674696 0.1640887605638565
לסגור -2.509217003081164 2.6067142294018457 -0.29856511808440817 0.1768450785361924 -0.9004178373835923 0.18287199595425904 0.7649481791125383 -0.7487342084081842 0.3672340655664206 1.4730228635847245 -1.752281855961963 2.508388023466861 -0.9197556295114752 1.1371386515783415 1.0386924823513037 1.1367647103884193 -0.037084361949532026 -0.6427765133318784 0.280675987883284 -1.0811362132500602 0.536456367151339 1.208356067189024 -0.09867723026072277 -0.28513946681046803 -0.6269924144593522 -0.4600650114269582 -1.2809035360543732 1.104966397551377 0.576316158508718 -0.06496790292845697
תקשורת 3.38307581823454 2.916062768891065 -2.058587413718209 0.08155059913185067 0.420925557550282 -2.618298153643353 -2.116137809656501 1.6311485791966496 -1.49820054289561 0.30311649075980557 -1.6654719436275005 -0.2220855141498297 0.25036490952277746 1.0432134129507586 0.9710789205719669 0.6509026487045065 -1.8677202430884712 -0.7151322979162636 0.07063106914999585 -0.3857943085786783 -0.705982128196757 -1.3860838839398817 -0.9227943353356474 -0.5188040363979686 -0.8786555304317837 0.10277450152466609 -0.792714650001052 -0.1621962269190021 0.5111202592717388 0.3491217184353019
לתמרץ -1.3594627046727306 1.4730476879775072 -0.18016585489218315 1.1971167096676403 3.082072470606935 -0.4878722236708143 0.4768297414970505 -1.4970798612414091 -0.9431734640096971 0.23903486691284573 -2.405305030091123 -0.4904440069561578 0.1449833905413459 0.3190790345019788 0.1262747161113917 -1.951550502703087 0.40094818006440464 -0.523718388936382 -0.5916791364969838 -0.4585976640812237 -0.11855211351503986 0.4264579900747813 -0.2912592329788596 -0.277458718854066 -0.6875992582962224 0.2392706331633716 -0.05735366096428474 -0.18770860742410975 0.6035820677091807 -0.4053022370963335
להסמיך -1.095277133620444 0.7764186458783843 2.8185231011559218 0.889025499470389 1.592867736939846 -1.3232515799189226 1.2955145031117272 -0.35352167933405465 2.355936583533223 -0.23101428619831857 0.8082934596823008 -0.5139649425132782 -0.6502854084139448 2.5212955556867613 0.544653897633537 -0.34532964006647027 -1.1882936959273498 0.2726662769776389 -0.14087215452169125 1.0632707216974333 0.021112078683207188 -0.7786584835962582 -1.1889809028178548 0.251736080861424 0.3174025703481315 -1.0864573614090876 -0.8122984535090089 0.004993621510437216 0.4806562494803705 -0.5484715348773345
להחזיק -2.6341294439565526 0.18362987761042726 0.4587349327259254 -0.7166892818447365 1.4991135625420793 -1.5425745691298647 1.22856658837909 0.4091092284279476 0.19850224939811587 1.3465706688227894 1.6198277753147616 -0.10621012668384983 1.3344599891223423 0.17450216827560644 1.514877829415707 0.34229513727741334 -0.1154062965280178 -1.6537122970319191 1.5123232498545949 -0.3500168395426214 0.6901248147210892 -0.45939922301512975 -0.21323456409174818 0.9110915811932303 -0.2944416085713741 -0.45710760312032833 0.28482801426811744 0.39941390172351765 -0.46251174877237167 0.5115571582584278
לאזכר 1.0267425751561297 -1.0496784039312579 2.7867810991400006 2.683117074060971 -1.2311905472679259 1.708938755178648 -0.5221531518388469 -0.6648827198965158 0.24715579970747156 -0.06473542011301262 -0.032928363878938535 -2.0934331057476654 -0.8144497943479699 -1.1417276473170002 1.0676168859057322 -1.0306493513751505 1.7685219509399284 0.7225304867894363 0.49148972048023193 -1.255466842188272 -0.13163293637719495 -1.5915990037384962 0.7896768924182742 -0.5205824852439036 -0.7560573448055343 -1.0424176861623036 -0.8626131857237456 0.5432625823255591 0.054692582092285044 0.3733940276022225
תרגילים 3.4447817548892004 -0.03224793202471692 -2.460229390826082 1.1582893884324008 -0.2725932732145224 -2.026774242156577 -1.4895116029346664 -2.414759788398092 2.6643895478974824 -2.464511884329782 0.5846818443506873 -0.7391292809468877 1.0209731670355138 -0.33763488643606837 0.8087856062450889 0.9587826813868003 -0.7100062320482615 0.8943392983134201 0.6844851411092843 -0.539287655167472 0.7172367310635639 0.19100346911250538 0.15053603975740604 1.1678165706425834 0.5084367516960826 1.4733644576373446 -0.6131628205461532 0.44828078523975573 -0.9830964700830356 0.11359362311350159
לזמן 0.254332747599193 -0.5464704861100347 0.5472574193765628 -1.7869882960874028 -0.16432299558489213 -0.696442404006142 -1.7604396655297716 -0.7775890879237662 -1.3027571752250857 1.5695168562244952 2.1059682013208927 3.434802555249509 -0.1984843860885515 -1.2862597471884993 -1.778316570204325 1.6027194732092918 0.17492280133158358 1.1617464275230691 1.270793807367274 0.19335300400482966 1.00229670043019 -0.6165398118591426 -0.8821440503881651 -0.9251664927794989 -0.5503715565433084 -0.46312711682050367 1.0014099168483912 -1.2552077954596994 -0.12182491725225265 0.984382948156886
לסקור -1.1253705533280545 2.0444996245948293 -1.3163799910233938 3.302791647083749 -2.218150100895113 0.9308770366703912 0.8196672203778325 1.2981428831214683 -0.03196175850103857 0.17121724305141828 -0.4527166318980005 0.6602798724084717 -0.2034072701236706 -0.27426253622826585 -0.6386991904650603 0.1566823608769509 -0.35470322677609756 0.8989024964741731 1.170663205771523 -0.020336483822923523 0.3658241608716576 0.7316742954857979 -0.3202675301200471 0.8767134153452054 0.14427998353752114 -0.41914981094207876 1.0869899288588478 1.5763849584498486 1.0956240437522768 -0.039837573181775034
להגדיר -0.040938174082153486 -0.2291672145547422 -1.0716236310484841 4.137217027898699 1.1041385110373731 0.6881747346871001 1.1434707003008047 0.38395406203517984 -1.1307331159200493 -0.009628142652127048 0.20875222446336594 -1.771284770837494 0.051191800599410385 -0.4109209278834491 1.415731652887932 0.15673933566123943 0.9999118669985885 -0.4460759755837383 0.5731971087643549 1.3067862538454358 0.7180768633253746 1.4992358992887047 -1.2560161703653598 -0.1661614237458465 0.3453285993245079 -0.234392616136612 0.9660057386052981 -0.5705006907796721 -0.19804533711094868 -0.09276250459272464
להיסקר 1.750453413649911 0.12538573119279828 0.9272022209363272 -0.18964673963550466 -0.4948156341457125 1.0280836498999806 -0.5658818309547451 2.5846144858337174 0.39286394747157066 1.7173842915262378 0.7564156526667412 0.7772115867628757 1.3766949386806435 -0.5832046325634772 -0.19171250777710339 -1.5224799151490032 0.9421564688055384 1.1182933274241809 0.7203632971408195 -0.6662918766019642 -0.20924619119828403 -0.08992206649790659 0.09743083143473201 0.6710884028799579 -1.6341476722650232 -0.2719286384993638 -0.11534508950303338 1.7841240068435218 -0.1569007971246773 -0.713678964000312
להיקלט -1.404999285974619 0.41679419849940996 -0.27677776436904544 -1.4715315153879331 0.12073251168246388 -2.686947406456151 0.5435645037870359 2.465820415529067 -2.0442777130255982 -0.10527229921199487 1.8480318958510935 -1.6324772629769304 -0.021917752815710383 0.3679891778588301 0.11177207021906294 -2.1998967697079017 -1.081030637551085 1.2054037965050914 -0.9772650671392461 -0.3072185384702728 0.056567942979949715 -0.4396028012130381 0.22283801900305705 -0.9613091556730838 -0.9399125055151807 -0.4665921293935716 -1.660787656120223 -0.9535142583129689 -2.059953907408864 1.0400273863865668
מסמך 3.6357502014551093 2.926232067291062 1.6704524220005352 2.6900465625259655 2.317726887647026 2.878698197003962 -0.7141097601011933 -0.32227409362065124 0.4342551617869578 1.3037365434629176 0.4474693106803282 0.0313084093168837 -0.7214091874660229 0.6033418918823309 -0.4048968981094462 1.217429577381864 0.45239082193911273 1.1081656023085789 0.7305294792866028 0.02044191386468323 -1.0900375666696394 -0.004260804484652652 -0.9380556923307136 0.6057643134132451 0.2625329046007467 -0.4977554010726682 -0.9369469088905013 -1.1997829470846686 0.9083163380774074 -0.07153458822280867
לתרגל -0.7828074282066031 -1.3182925718823368 -1.1738108199364612 1.0750930634946776 -0.8012895127846369 -2.2765049488170797 -0.808548004418105 -1.4213225324621368 1.2662347875741946 -1.8175208524631856 -0.6472220564432274 -1.5482136410276934 -1.414798156080832 0.5730471615613685 0.045201875716794016 0.4487138397381399 -0.23188636826343087 1.5413105244941465 0.41832370419093745 -0.2618398287347673 -0.243675466829983 0.09991976325555339 -1.4115660929378013 0.4517030247720149 0.1421103197297215 1.8606844533787374 -0.7473458699211193 -1.05881336619288 -0.15292280284638526 -0.08114001280351443
להיפקד 0.2520622779655085 -1.871329974162465 3.5204199670151657 -2.8156615803441407 1.2778323480161855 1.3534535135791108 0.21915097221851526 -0.9803841296415949 1.8196983415290886 -2.514286316146502 0.05408280900322696 -0.15615371205038317 -0.9253560971000688 0.11162486154797535 -0.7591761481437473 -1.2873114163023947 -1.4717979010815556 0.04951215223377661 -0.2625650484478559 -1.090605506959265 0.48771582147857767 -0.3875527855209359 0.1956028858610978 -0.019911872077637963 -0.8116151480542197 0.47315058533023113 0.04909605229258647 -0.038932329999528094 0.46734189035841756 0.5706871878355081
להיסגר -1.1310209381532323 0.3517099194812292 -0.33113761848527384 -1.9518035058410912 -0.05351831496767136 -2.0593440396097575 1.8845719486847685 0.9674812925953103 -0.9465825712108535 2.1945724052098585 -1.7149686650190994 3.1217641694143965 -0.98080789848772 1.0642861105716788 1.0039002371144494 0.9890893861563909 0.33771706146551866 0.7465260935486562 0.10736147623508331 -0.30502062433426935 -1.0030855653881434 0.6656141578952718 0.8214560563237085 -0.9131214382702838 0.2666452337524928 -0.9079239337969708 -0.160881244713877 1.1200497583200706 0.9003829462788365 -0.7648685276500726
להמריץ -3.167515031595742 0.8261836560108697 -0.7235738354965567 1.4820857646971026 0.4806771078673049 0.866644231585126 0.12982681038903654 -2.617015842230882 -1.534165473518646 -0.49172844223016277 -1.4785823095384554 -0.06426395085640223 0.40688035398226907 0.5816903240397314 -0.28764008016103354 -1.610562472481707 -0.06999288169479011 0.7103309392845438 0.694441165813573 0.3322416258622443 -1.2640046011501052 0.37383134486395975 0.0757491583010295 0.03462310355668254 -0.7909014914889576 -1.8237149838109945 -0.26944660370735424 0.3429904060295336 -0.9151335696388977 0.12379338578813273
לחקור -1.4347880998106788 0.9678031797578456 -1.3543971129208474 2.687543849675441 -1.8027411072990989 1.6092287133975307 -1.0485888543221233 1.2934980151410755 -0.6649048665555369 -1.1478259366003267 -0.5620043271157691 1.9165928611991176 -1.2945551727690385 1.7155727559710157 -1.026211976671038 -0.022732419114927554 0.7386013998462333 0.2945273169283212 1.7569356033454082 0.14882299287270162 0.4202097531396959 0.25764992826756994 -0.5891751531109826 -0.05859004554320758 1.2324459759861122 0.3660637191084037 -0.5707784381500528 -0.29786862777156414 -0.22897496141507065 0.8921797502982091
להתאזרח -1.5072910574276963 1.632261081270146 2.946063605548495 0.004712678637856751 2.104252202726698 0.11359043783832386 -0.02080608705982235 2.106862302605273 -1.1192256040464734 -1.1049661217104405 1.5194380379457395 0.861245781420008 0.024703127705340604 0.6348506499685066 1.1644283762305059 -1.4469081245717619 -0.880948165715345 0.07452708738111494 -1.0648783342655679 0.8823229214904922 0.08429789845893221 -0.12005923103620614 0.15528644475929915 1.2641298410642412 0.6741796868182643 0.5500939450044199 0.6715034172626169 -0.4177190467873919 -0.02570990458032782 0.6754773884554199
להתחשב -1.4863784772378734 -1.132445084045177 -1.1028866033683364 1.1522905546932865 2.8607600050958193 -1.645661774169603 1.5942326437982817 1.3060258849431101 1.5491616692808803 -0.6318299201415528 -0.6097319817996427 -0.6014681586254347 -0.15108495750392842 -1.7133598621159385 0.6536478112119187 0.7028248250253645 -0.26251905009227033 -1.8980654389867462 -0.05069036173641391 1.3261446259459229 -1.6536870403680188 -0.2931159596688059 0.552982471292213 -0.3398270721409268 -1.1510423459298662 0.17556514027789796 -0.21971924866344517 0.8745723190209933 -0.005519970767377406 0.007780172693852795
להתלכד -1.990182362579552 -0.3366941621466171 -1.0101544668976947 -1.9290729362862167 0.2471261063593226 1.6749842131722799 1.238869644963209 -0.21291712279003466 -1.8516103237141788 -2.0137815439711306 0.10422222539905467 0.501954206972164 2.1959688263712387 -0.0016596939571116194 0.5207574991749977 1.470863801415619 1.3273501426148437 2.339374469442356 -0.7907790716482899 0.8033241090560834 0.4916344061957915 -0.1861659714490504 -1.0296256284640286 -1.2103537941384435 0.3331613517375063 0.2424170886061777 -0.8198805884797189 0.49018069649197266 -0.04756458087305373 0.2071415963210738
תזמון 2.6238388462345954 -0.4428399753330037 -3.755375044836319 1.4745480556013169 0.940500836690362 -1.8930730902538104 -0.19903509907491473 -2.1347591496207228 0.31964145237339164 1.6434739812890957 0.06508876179611879 0.40359064274651446 0.18140759383474 -1.8984406067521344 0.10203840680675298 -0.09629761804642316 0.8481472700189443 -0.19536586417646606 -1.1308263834904984 -0.2936903731226138 -1.0715556304651424 0.17334755336893395 0.23883506509213992 -1.3822111184351384 -0.630306814276262 0.03945862959236915 0.23916729012785026 -1.6781863195870546 0.16351113173044057 -0.19117397177227569
לרגל 2.2698709407582265 1.270057082772279 4.182250723816761 -0.767791993399843 -2.410218952153419 0.3731537507094719 0.8721931497834061 -1.9186775402498089 -1.6019609193286062 -1.6327275256871636 -1.635687724756161 0.9041518200345696 -0.808272595411986 -1.132815679987744 -1.8591699453639468 0.31095891372393286 -0.4375939954265642 1.1978037578977665 -0.9931967352052344 1.309375918215639 -0.6839279312563624 -1.3571709903354319 0.39297917383040426 -0.2658102573417918 -0.00696338569087437 -1.1911947227818616 -0.4189841365132743 -1.623857356699316 -0.4509066825668129 0.5973531442470532
להתרפק -0.3414564592735961 -2.570182501142507 -0.3782106872362333 -0.7379925040347851 0.5345261287023365 1.9058391685096987 -1.7135269717588097 0.5633721206473473 -0.15052701354155187 0.28721939068419533 -0.4100859906729424 -0.7187839111169334 0.021598117866690105 -1.0846133042735198 1.8067814257071713 -1.1665838887321496 0.3595381016623529 0.4482858271830104 0.25505636409539506 -0.17629029898191828 -0.6334366667034198 -0.8003358079695123 -0.9972718552854113 0.30811971289234596 -0.19760058496007163 0.8615633502123401 0.5842861775031546 -0.39049784628105305 0.26379060414905975 -0.14525148876466706
להגביר -2.1751134396904277 0.5489143822491803 -1.7574328578605165 2.0318413237279946 0.3538570379671964 -0.3250110997350449 0.4544828537333633 -2.9358671153070497 -1.2079240239034066 -1.0877097273479959 -1.2294644389539777 0.11905173420290077 -0.6636335785212965 0.07218384196995199 0.08550341490924054 -1.0597020028822353 -0.6083407648981711 -1.3142463458450244 -0.2999873269412991 -0.1306463430336093 -1.1686296503801918 -1.428531193301903 0.07862029593638445 -1.3288557148088096 -0.622111756205942 -0.4841412724220868 -0.23131744114870656 0.5906962333952996 0.8907541212815271 0.7533440444439985
להסתגר -2.6591905881279643 0.3997847799287402 1.1573363139773678 -2.6357470093075617 -0.7834766080053999 -2.0399901837811094 -0.3581714712295953 0.46364132180164364 1.7266697346059692 -0.5087533627454471 -0.8701308506914177 -0.031036156103087454 0.004915530605482044 -0.49815854345846583 0.5375267180752704 0.7489066529215783 1.4655671200777576 1.3039408610598369 0.2863315852609698 -0.39315895216182056 -0.6151724005248299 -1.0222323403449658 -0.7880324869781874 -0.522080824995736 0.4781348801961465 0.9805634836173591 1.0493437244101869 0.7158249088826939 0.783213666974825 0.8106798116853201
לקשור -2.107074166238858 -1.5188337533395158 -0.624310195116346 0.7118787528765248 0.29719914037606837 2.187961986315282 0.9263025585775595 -0.8499891795250543 -1.8302774595290685 -1.4622120872940343 -1.0599797823562622 0.15784495355254463 0.20955582806493525 2.654328884239344 -0.8762876087932551 2.005957593272918 0.6558045007747817 -0.40660149732698925 0.055886224794826286 -0.21745443691777594 -0.022288122621424346 -1.0754121169430388 0.6590280368218482 -0.13737977062040668 -1.241319611985156 0.8699905941803409 0.33046608312171927 -0.9842035204289569 -0.7840616386638378 -0.34270480209440596
להסגיר -3.1439375459982246 2.276976196116435 1.3241005543584992 -0.6293705458480919 0.8573686878504322 2.553602188988835 -1.833190765798052 0.888189353222425 1.4063872115806275 0.35874771898646557 0.3337766109081373 0.8691986620898677 0.7439989031949524 2.169815480976428 -0.8054572641926333 0.9666145884535722 0.729566478864972 -1.397916233263057 -0.3220990331696837 0.018321305051782463 -0.1404791236911535 -0.6649722564709204 -0.01837728823584228 0.7506998009174468 0.6057805482817442 1.0639071494740995 -0.3136701462406375 -0.2954814240049083 -0.11787130214739142 0.1284107857677198
צלחות 3.72714099987155 -0.582958126794917 -1.5561377217784944 -0.9160288554885849 -1.8354300195017863 0.4015449703521061 2.969229294170404 -0.9044632961149248 0.5578972152023486 0.227514309440411 -2.0241166762299323 -0.9355448585624333 2.3201958258014654 2.3361355957399548 0.7105896404210905 -1.881762291382995 -1.3953520137527586 0.6270522364265384 0.8660842632856615 -0.26131732800278706 0.15145118080822403 -1.1449548759545294 1.887316106608745 -0.28572185657220267 1.0086661594895725 1.1472579550128392 -0.3316304597609089 -0.9237364877047392 0.8869917037007976 0.6987630064722287
להילכד -2.225395938219184 -0.08981632778967819 -3.5094791520665107 -1.5531691220093875 -0.27979783935004454 0.8154852648224016 0.13670127066449547 0.8808970457416215 -0.3323433375106913 0.137925498157032 1.3577896962322753 1.2565456746730872 2.8970792941840307 0.2038478424958585 -1.2729088539114788 0.0016019269756284205 0.0878957467220432 0.36223188909757514 -0.353218376171165 0.7649469052110113 -0.37267236004680576 0.39365696465609 0.20097274533576845 -0.45523077515603394 -0.5193938528721633 0.9608846549801109 -0.08990164642544612 0.5064677953157807 0.8187457032744587 0.9458226821989341
תאריכים 4.406594595776226 -0.6402307646029424 1.919891824247078 2.868778023917413 -1.5124054699277685 -1.6837953900057556 2.1936608118042207 0.1954924977857133 0.31973997157154416 -1.2739560106344368 0.88591372783475 1.933025354145584 2.046115771804322 -0.3653534319744028 -0.18643998837701745 1.5188341770209541 0.12275727946473015 -0.8443492383378008 -0.6841208789264848 0.07887133054210245 -1.472566657250462 0.16733575407241413 0.5931436914130955 1.4618302874846156 -0.1772779652781828 -1.4164562336281974 0.8691256716253204 -0.5849772877707147 -0.276232449306358 -0.2825825323730752
לזמר 2.2309855771865656 0.1153226907771288 4.310108605789612 -0.42725453124868473 -2.427071289113349 0.4171153684056805 -2.192542696506438 -2.097840558080755 -1.5438902010108289 0.10216688066324635 0.7055767982555207 -0.47038334698391804 -1.902523732517422 -0.5351625726243949 1.2759525866217438 -1.2895564929077703 -0.43836935973631636 -2.155571830692925 -0.8764495653179013 1.389534477083162 0.13662439184612793 -0.28574066573084694 0.5828052678764725 -0.6497569359064082 -0.7100919024269267 1.0199806084232652 -0.032390425340422246 0.605720633836689 -0.8137192148720516 -0.7198927929415183
להאריך -1.8050359764921473 -0.38627764229770906 -0.07256636735531544 1.0084522396490128 -0.24200483724534685 -1.2860516072263808 2.648606768632309 -2.8265359846610383 0.967552818568813 -0.05861320636789711 0.9867751977699766 2.8265760924129366 -1.779656656616268 1.0347907125848415 -0.5454770470826166 -0.35878106645345487 -0.2932830565334853 -0.7799948997696812 0.8473637217891422 -0.23885221465475542 -0.3888849091418247 0.20033748645560717 -0.5183092640838298 0.5018581268146826 -0.6726758543519005 -0.1242813786569669 0.16389567010940811 -0.2097881678299067 0.11844868958230823 0.011935934798511245
להיזכר -0.5814471077808484 -3.1175994252144483 1.0604100871859996 0.6841176097315772 -1.822903754139982 -1.2145756637288012 -2.0977501686433464 1.3384503611291587 1.6606166563901625 0.0876583531644037 -0.686882577734087 -0.5695265419131457 -0.6324463235382779 -1.387649595571221 -0.6580307287724644 -0.15843768408724873 2.5568303231540974 -0.9524046274800405 -0.5031810310933373 -0.02143252853655842 -0.4062437933960755 -0.09486210050023951 0.8534128692464432 0.4270595930176491 0.5876622865277346 0.26228691520744873 -0.6684537243014594 0.15010437678845787 -0.271365028057661 0.44380291311034153
להיגמל -1.838566235723613 -2.096732801646205 0.7504369615492456 -2.0542744488578513 -0.3566177605374594 -1.6094578270161377 -2.8242035081473964 -0.8331902056489019 -0.066188697508178 0.6159612521594051 -1.17852853378542 1.1694817750780644 -1.0307537658071113 0.9543374307558974 0.31950894225137094 -2.5319716113516173 1.765656430539613 -0.09559955803512275 -0.02741135908777386 -0.6740825806818045 -0.5593072408579861 1.8592911564755554 1.282195454956279 -0.6023228187536585 1.5025632015516612 0.172557700599556 -0.6882746115446412 -0.34436704451894834 0.08603037663555947 -0.4066636236000947
להסתפר -0.6887120461920425 -3.0315374543856586 3.17694631166978 -1.972280162517684 -0.05544082444786208 -1.1751708232988267 0.7324427824673482 -0.9190318928877315 2.7688209833609485 0.8420905632680257 -0.6827089539649076 0.2812287396755371 -0.20548164856041745 0.9470534720637124 0.502951675205689 0.5796015777609415 -1.3068351545299552 0.9226760661399406 -0.6041099634727716 -0.6199077276201358 -0.5923385676991588 -0.7716936179813239 -0.6511396282284116 0.2894310476558787 -0.1674519070744943 1.1014187998942178 1.0154334579748174 -0.2836175217188302 -0.27817546089076095 0.5118894722920373
מגדרים 3.9355250175815484 -0.8620946417569699 -0.3101005167094062 -0.9291118562600956 2.512093850878995 0.2894639396756173 -0.7659039480028419 2.405099357531898 -1.4752607597356544 -3.788101288468702 -0.9160275513996237 0.4530502477754799 0.5938684529261545 -0.5660421065014851 2.3239789068205168 1.5491136962483107 -1.4218212725512678 -0.06351132668250903 0.9613834246208259 -1.7416025924911789 0.36473864264746697 2.4022535459506735 -0.3484137308694585 -0.26066205688589683 0.6084093104481908 0.13209270496611308 -0.7185074584865871 0.8940107113531164 -0.6783641690599054 0.20371600696457706
מסגרת 3.833748387319963 1.062253269654198 -1.0066360345220464 -1.058564834429039 2.9829974791115688 0.1789105947231161 1.5200007789505312 -2.847085741697088 -1.622001875220391 -0.04626894497359506 -0.8181929615263934 -1.7149966394337985 -0.33926370889383933 -0.6401671690030957 1.5183917742219488 1.1875980395949601 -1.1682392681999836 2.7657851927568506 0.376239411193041 0.7017341760899656 1.784347217090814 0.9909190502883529 -0.7222789293238714 1.1218719851950996 -0.002831009955510699 -0.206210131262585 -0.6912885563599742 -0.9825266058907673 -0.16680410330599166 -0.512352632524299
לקשר 0.32051609266868164 -0.3311316434656932 -1.2233820446550823 1.0871848103095028 0.9589516535668351 1.4480928015330414 -0.7840458516483527 0.587585396768081 -2.4446034491797546 -1.8242868584450262 -0.6781941898687814 -0.260897561791239 -2.1815389711760607 0.22925746890737908 -1.9078935022062118 2.709441776613403 0.6798402532582399 -1.1423031382318751 -0.22626536110683337 0.7667823195430178 0.3978803655976755 -0.28207177602815775 0.058495478745567694 -0.9545266017692309 -1.616831627339205 1.262432438686894 0.18032190086789904 -0.3903199776481846 -0.4651524637103902 -1.333501917646939
להרגיל -2.45658366707172 -1.5752282857044169 0.3676633105336815 -0.3482068307797507 0.24443314083266834 -0.21270940996446572 0.20749066804794128 -0.8509698072675305 2.1246559284121274 -0.8757571274354864 0.1578114815923332 -1.9586050951978191 -0.21427569487022996 -0.444104473012537 -0.9894168870377177 -1.0190679548985593 -1.0124862719817191 1.6573439229369367 -0.5192555350238471 -0.31333776809070457 -0.28045242262602177 -0.30324296943270307 -1.8609527117587459 -1.1467413522933405 -0.18098931490677875 -0.9186832377496847 0.4097729305764089 0.09595908461978946 -0.4955843461834046 -0.4531827159906519
לקלוט -1.9514393192408337 0.9192933812567334 -1.1834860557010018 0.14966557218947416 -1.5533613530750596 -1.5649855153083871 1.5564239771656665 1.083731593493917 -1.9975315424481084 0.43832355267845186 0.6011738752534509 -0.40595336883842753 -0.06763778903800581 0.4750590395819632 -1.4516151849734007 -1.6457403826544443 -1.50044727643251 -0.19281927193028164 -0.7241560545301952 0.04911737220704525 1.4494465742472884 -0.9112662017759005 -0.8103936795020528 -1.1864342619753847 0.6849413675382893 0.3320949245728006 -1.1403469602668672 -0.355228505142297 -0.20895353043028073 0.35940921940757475
לתגמל -2.6410861979229048 0.7224161680401356 1.1822753553328025 1.3835455011332058 1.9843661613603198 -0.5196101299006501 -0.10908560197762268 -1.2300637192616704 -0.4228995821096812 0.22196488306135925 -1.1618033784879203 -1.1105398546942142 1.2602164474457798 -0.734981483541137 -0.1399014108200737 -0.864676169949776 0.41562751936900855 0.3006127223927924 -0.155135767853473 0.7352083369042175 1.192472860338275 -1.0348083030144841 -0.037416816706797126 -0.5886421932778492 -0.12009444603349033 0.3131375420079289 0.8758639051782777 0.7645478649850811 0.7339567405108572 -0.6543503377983874
להיחקר 0.14204809389149184 -0.12048220117763436 -0.2792621783386774 0.9524024956773589 0.6325757305500886 -0.40073864914289015 -0.06352388583052247 3.3480460678828794 1.0535464958724465 0.5718100345943794 -0.5401539399918011 1.527676310032298 -1.4650575523749154 2.12112307796066 0.6339727620325847 -0.1891512594721337 1.8963212603024746 1.4447375571489784 0.6488581007207124 1.9164962929527827 -1.0578584636745318 -0.36113431756984643 1.6015531467780235 0.46604593977259773 -1.2104658598995608 0.7805768043188328 -1.1519474282333644 -0.18895192053728574 -0.18145969734803075 0.08575436191054031
לאבחן 0.5652270043978492 -1.915309029422887 -2.842358731554281 1.9145986944914473 -0.24133976349516215 -0.6466633665299301 -0.3181363033509271 0.46157610625551554 0.8072918565271839 -1.4693449771112332 0.22640340044753318 0.1477786085237888 -2.18925357361578 1.4652867883827883 0.29263071048761097 -1.773027460486131 1.7708436417557747 -0.9025503375096046 -0.46667472290924766 0.061997493923109506 -0.5280663673859568 0.07528802577463257 0.5028826704197582 -0.014264356794274019 2.183065725810368 -0.4567200311456733 0.8582646029862242 0.5873566926264305 -0.2746692584357389 0.18988795518637694
תצפית 2.740624726145609 2.8180933691430874 -3.710858755414699 -1.2092173195570861 -1.9673976625943768 0.8908535434957555 1.4132632137523744 1.6801789628603845 0.8656986470562911 -0.42506442576655157 0.03254008248888481 -2.5978208250783656 -0.3986137345644935 -2.37821564910794 -0.18835923656252776 0.06975086045769824 -1.214053909493955 0.12798694878451872 -0.0029857681040484285 0.973430757840382 0.06221432673638933 -0.019725937417899266 0.9151465084627585 1.0082706246849782 0.23142521772497918 -0.9349769792761435 0.05886648546787628 -0.5584755649512433 1.2326723260668082 -0.3573595789985864
לבטח -2.113745839083674 0.19165569982512992 1.7892598485743403 -0.23109747596503374 2.0466314662540115 0.25484051913007744 0.017544696997356005 1.427381524292403 0.40212111150646535 1.8791389354561698 0.06822920608742358 0.33795969307303514 1.2322943968515117 -2.531395633971864 -0.22914400788006295 -0.3123758269497154 -1.2886202044028083 -0.9143157807910145 0.6871786448452964 -0.3735028623038908 0.2612065009604406 0.7987378263976389 0.47393643162455673 -1.441040562850985 -0.7843166977868358 1.4583435593896186 -0.9197608777454529 -0.5416060782877223 0.48992060009923755 0.8127311869408247
לפקד -0.5138603540982459 3.4431234015164645 -0.5420477463439302 -1.3097771736403263 -1.365167292025164 0.6163410082188183 -1.045887237809257 -0.3034055783260278 2.0645304557677586 0.04125928588231158 5.746366094184442 -0.39289647019103546 -0.5539158097339709 0.3911027014495065 0.4053931929426658 -0.2799771154022902 0.31937635244166296 0.8778661621944337 0.7830888857796198 0.3134500181739963 -0.3841165316265772 -0.5117637697359594 -0.010844401815439867 -0.5381469865599124 -0.15084412087896576 -0.7970446150560064 0.3348773114325328 0.2712661615659645 0.3307133024668368 0.30846057550287936
תחזוקה 2.918673928583827 3.260147094374613 -2.309929005592788 -2.2188618103339723 1.0620385351946253 -2.8138677951687274 0.41150166675119976 -1.1412594748159195 1.7210335980675182 1.597298595622697 1.0249393136656304 -1.3907247043082853 -1.0972941149643567 -1.4559077261596511 -1.462150917952319 -0.8017186361095298 0.9844202066131525 -0.103164284363486 1.1691945527704564 -1.4300398311545848 -0.5196542600365586 0.17092866029795253 0.7608505329833476 -1.4029805495905556 -0.0972335071853146 0.6237879848274388 -0.16252602640736113 -0.846397031851762 0.24983571686803951 0.13863510299693857
אבטחה 3.0046228681869023 3.901029630992666 -2.708103273012079 -0.8556604710696123 0.7308437801336363 -2.1488225750660335 -1.4122790218645118 0.9716089251083356 0.828058637634829 1.848159194654325 -1.0996628042269745 -1.2305697184395537 0.23171481171789135 0.03685555529019764 0.10491401092597205 0.7119997769735985 1.1443898595209891 -0.891142881896942 -0.5142692916646353 -0.9936423140629316 -0.6056779578756927 -0.5586411001805065 -0.20715505768014286 0.6570429291813793 0.4990611282026098 -1.0581551664570004 -0.23505234110542478 -0.21005887816413385 0.5925412660150472 -0.2861701728781626
למסמר 0.5843325878213504 -3.517211823114848 -0.8133996930654128 -1.308285446729281 -1.4790716712003142 2.667252421177374 0.7900913954614156 -1.2172681559991496 -0.6759863961814512 1.6673825180890876 -0.47321602818398417 0.2216741082371466 0.5764529652373069 0.15562902523192826 -0.005853688054506819 -0.5966806717541407 -0.18425686958656187 -0.13789113059275812 0.4308998638475859 -0.7728104048612594 0.5998377799188062 -0.22525497300625316 -1.286568671241264 0.5292269149173374 -0.06201231585820146 0.3649528876962056 0.2572372775070802 0.5871363618358165 -0.5241436023312127 -0.3656621703614716
להתגבר -2.8682155017633657 -0.3572043030879006 -2.720925847274573 0.9730015544169457 0.1800367720662868 0.5189574296962195 -1.7465871490431646 -0.45227668044749053 -0.45453460374012367 -0.15903224737539542 -0.25401503430609107 1.2586320893919882 -0.5093160340881236 -0.73367802231659 1.2229890500242235 -0.6125334662908392 -0.10401179252370621 1.0303876696233873 -0.5865776736597725 -1.626836612875736 0.5514408361719468 0.09025859542946295 2.37701920446641 -0.24419412366403023 -0.533584803405149 0.576050971924578 0.5588645374296862 0.0010555924120168943 -0.029588489323171187 0.1856508638274998
לתזמר 0.6100974555590573 -1.9067855166998224 1.1702276480207072 1.2303067905292449 -1.394589564687523 -0.43663722082223 -0.05402003175957096 -2.2060287457484646 0.9270909740914133 1.2292203388823024 0.6127030206722703 -0.4367559609184849 0.4776303146244905 -1.7837876035538132 -0.8353845198477595 -0.02687053938091885 1.4367106953940647 1.2101727220831506 0.8478293720345947 0.9034214522142389 0.5294949647427221 0.5378111118318323 -0.7265546059169172 -0.827639324844317 -0.9162688963046423 1.4278220546766593 0.32431289973544813 1.4527540288232366 0.7803304550331095 0.0024166503067107967
למרפק 1.9422146523894783 -1.6294975286287794 -3.0826929703289188 -3.180657539212971 -0.028076114463788358 1.2888800821151787 2.0056926514362003 -1.0648942554871577 1.2429474482118053 0.08079586987345208 0.46565003853233505 0.96529378650564 -1.580642271980753 0.8003416261063205 1.129857782606233 0.5348464934561826 0.6853148737310897 0.11552406724876686 -1.1233510746332063 -0.703600543345079 0.85217853113474 -1.169788848097971 -0.7116186976500379 -0.2710350777858027 0.5603790512846298 0.3075187187246774 0.5054536255435742 1.6127884957972223 -0.8839531958111913 0.912073118620621
להזדמן 0.5250697785550877 -2.012198200585379 -0.7587004007869382 -1.7405116822577258 0.46586561923968256 1.5124735643159 0.771445588841227 0.34995630685962886 0.5741963254694008 0.25312139609489503 0.901569817803785 0.0419610496554956 0.5033465315775665 0.35218378910461573 -0.6663250308879121 -1.008831741381599 0.5688696605415284 -0.6681287576089344 -0.07931753363592942 -0.429391292706823 -0.15983781628511887 -0.17541435691070473 -0.875244829543895 1.6306774066517582 -0.02938813229033179 0.19500863755342954 0.2262394212193308 0.22264478265661278 0.21329412693585523 0.2984384439704494
להתקשר -2.042900079109355 -0.2200665166802114 0.32764567099788505 -1.2597773271275456 0.6517700566419692 -1.449160370289159 -1.8659387770237328 0.5939385594322636 0.1395337180342211 0.8239932857686101 -1.3285199703835797 -0.29227694153089534 -0.14068963482340707 2.098949592468634 -2.033686646257828 2.198295504543017 -0.24135602875795228 -1.634945453534913 -1.501273761350584 0.3025135139058106 0.03064625943743432 0.884057402451182 -0.8529310719139669 1.0994763565704346 -0.5952221466579738 0.15746691508117008 -0.37923564262714954 -0.05227982671498745 0.5304298002089051 0.32769317995063646
לגדר 0.6346364823817383 3.7512297707051148 -1.3052761702351163 -2.3586476434083954 -0.4385544675005663 1.9542487305891556 2.456743581146398 2.072091172447667 -0.7353102391340449 0.7909502439913428 -1.8958321878625943 1.1057209089554718 -1.5336316878420826 -1.4765774546453936 1.1284760309623394 -0.5189322857320526 0.9399336390707376 -1.8555785642167757 -1.5875169711559598 -0.48774389488657793 -0.2963871904764303 1.1622088422830381 -0.5801641591027227 -0.14805421078247674 -0.3018642861383989 1.3406494375610312 -1.0071225552706309 0.21057791042339427 -0.9151851866642272 -0.4972519188546243
למשכן 0.15942250647753378 2.2023012870152314 3.969895666305713 -2.9072734932803774 -0.12056844835601299 1.0977701959245272 3.105619641821046 0.061492306927445256 -0.5791373973969989 1.2486739680705614 -0.7493088396747568 -0.17785551672420197 -2.5389313072995705 -0.4488921622946776 -1.0107529841081848 0.9517878888751421 0.3324105847264716 1.176038907246505 0.4382541649888804 0.28644925883345035 0.023415500800996615 0.026800934056555828 0.19176292554581875 0.8941909180250412 0.6632153950577893 0.4827661887526011 0.11693127846354472 -0.1548820155007233 -0.15796614748152774 0.9856491314720904
מלכודת 0.5330684310851025 -0.255184930808422 -2.388792956001472 -2.4816262976439023 0.09275887787356626 3.715558203071453 -2.4522929295968807 -1.3887784280776039 1.5192390751688682 0.6129119514624572 -1.617668447378049 -0.25396028793962083 1.8617850518163104 0.6383162274050564 -1.051715417160329 0.8365481287649053 0.32375354122091055 -0.20568941431959217 1.6833322966505297 1.9434395700569458 0.5172883951219056 2.594690898805233 1.0134237514499214 -0.7916214189287941 -0.5891325962029484 -1.2666667405630456 -0.611920380603858 -0.49582130038830746 -1.3320994683111165 -0.2099313817462857
לזרוח 0.6927183625610328 -3.3413167378228685 0.6283484402063728 -1.4104697643635595 -2.86596682963462 1.77220308815191 -0.4207403751712728 -0.5954890234347878 -2.3664258533209486 0.014833213693363493 0.6004389380000442 0.5568575428324565 1.6356344593499235 -0.5180871874654148 0.02646180686045609 0.6092015021892089 -1.9473790010812826 -1.8074955308196627 0.2223027031753926 0.5293500255501747 -1.1612536014974038 0.9754235264836932 -0.2590145108710855 -0.4559841944646206 0.18287107113046164 -0.6131234136962642 -0.7897516344248058 -0.08804244917051834 3.06704691878502 1.3842937636214114
